0, ['-0.01885389', '0.051048957', '-0.042688508', '-0.025555965', '0.0021938724', '-0.066941045', '0.001401966', '0.0011816213', '0.040787026', '0.020647768', '0.010651316', '0.029112883', '-0.005253342', '-0.032215063', '-0.03526144', '-0.0036551028', '0.006739498', '0.038262744', '-0.05778805', '-0.03249123', '-0.019602243', '-0.019323308', '0.026158929', '-0.010222732', '0.038014673', '0.0029385663', '-0.016551398', '-0.013850378', '-0.020579789', '-0.0018037331', '-0.006912184', '0.008095895', '-0.042510785', '0.039405227', '0.0020095196', '0.02773104', '-0.0032401108', '0.0040688114', '-0.0072692577', '0.022256212', '-0.012095705', '-0.049454976', '0.025060123', '0.029672753', '0.021929074', '-0.024867246', '-0.012112785', '-0.014743898', '0.06489581', '-0.0110460585', '0.033979625', '0.016409969', '0.01933532', '0.003779354', '0.014395275', '-0.023995094', '-0.006149311', '0.013175011', '0.045968186', '0.040212713', '0.008972666', '0.00801556', '-0.01746715', '-0.06509032', '-0.009836792', '0.029006643', '0.028884554', '-0.0118253315', '0.050027646', '-0.0034996264', '0.04149199', '-0.040323924', '-0.047129497', '-0.021281194', '-0.0027066874', '-0.0150806075', '-0.0008563118', '0.000157454', '-0.01883185', '-0.0053673247', '0.004634928', '0.00055677944', '0.044079315', '-0.0422434', '0.02143733', '-0.001776584', '0.05302622', '0.021265922', '-0.012684044', '0.051212557', '-0.0043164142', '0.027163176', '-0.023918876', '0.0077288975', '0.01936026', '0.047299597', '0.0087933075', '0.0007449953', '0.019430943', '-0.003619075', '-0.010174218', '0.01703997', '-0.0087302', '-0.019580286', '-0.062512256', '0.021593941', '-0.03958025', '-0.010937333', '-0.018893484', '0.009387579', '-0.05108515', '-0.025284458', '-0.0058039697', '-0.025220228', '0.0026623937', '0.006237636', '0.010603698', '-0.015439192', '-0.015125495', '-0.023321958', '0.01628172', '0.017294344', '-0.045529816', '-0.037627317', '-0.042525917', '0.036102805', '0.04356769', '0.038741164', '0.0095817875', '-0.00029841423', '-0.0049030907', '0.04649059', '-0.00670505', '0.037723772', '0.0060859243', '0.0166589', '-0.027183022', '-0.018828236', '0.027342388', '-0.010094341', '-0.020508012', '0.04823426', '-0.023264404', '-0.0040524146', '-0.011548276', '-0.004930384', '0.04178904', '-0.022401918', '-0.020524895', '-0.009446264', '0.004139734', '0.03610061', '0.0017453544', '0.0697091', '0.028252747', '0.02414302', '0.004317094', '0.019809708', '-0.05157286', '-0.0050164433', '-0.00032631744', '-0.00046108637', '-0.028932625', '0.0135130705', '-0.032687716', '-0.045531005', '0.0077337697', '-0.011563674', '0.030908497', '-0.02440315', '-0.028708573', '0.06491127', '0.020332232', '-0.001870768', '-0.01953632', '-0.016479975', '-0.012220009', '-0.043086402', '-0.018396076', '-0.010853823', '0.01019737', '-0.0011574556', '-0.014905999', '-0.015089466', '0.00976904', '0.012301192', '0.015697345', '0.039415453', '0.015437389', '0.015067775', '-0.010262038', '-0.0017096297', '-0.028851317', '0.0006329586', '0.017040068', '0.0585152', '-0.011882343', '-0.08728621', '0.006511373', '-0.017398855', '-0.019293673', '0.016250834', '-0.02685814', '0.041607946', '0.020657161', '0.027351195', '0.02819454', '-0.02731879', '0.025268128', '-0.0010899032', '-0.018610181', '0.04946704', '0.06401175', '-0.060999546', '0.035139382', '-0.013774108', '-0.046676807', '-0.016104033', '0.03641464', '0.0051810336', '-0.015352778', '0.017330801', '0.00316029', '-0.028452642', '0.0006057616', '0.004948073', '0.015156913', '-0.0010299707', '-0.012816845', '-0.030788412', '-0.0538586', '0.032736093', '0.0077883163', '0.033994887', '0.036127705', '0.005769435', '-0.0013942478', '-0.046385713', '0.007282104', '0.048678853', '-0.049831234', '0.0049304073', '0.032469183', '0.014585108', '-0.03308597', '-0.027200554', '0.036722686', '-0.01338985', '-0.016665561', '0.005262744', '-0.010405161', '-0.035329055', '-0.021246137', '-0.0035522606', '-0.021511642', '0.030436039', '0.013680077', '-0.006361544', '0.0006266668', '-0.037032466', '-0.006519637', '0.025838165', '0.046476517', '-0.011149189', '-0.030194918', '-0.009294126', '-0.02112894', '-0.04228639', '0.039522953', '0.007914841', '0.050913677', '0.0067430604', '0.02546425', '0.00623099', '-0.0010771976', '0.023346042', '0.0074833', '-0.010646812', '-0.0114158485', '0.018915309', '0.001247849', '-0.0009457186', '-0.028422123', '-0.06499479', '-0.07460569', '0.016707141', '0.016263658', '-0.012375421', '-0.07891094', '-0.013741144', '0.007952986', '-0.007458817', '-0.007868937', '0.023690399', '-0.029172579', '0.03275092', '0.012487457', '-0.02221207', '-0.011280627', '-0.0022570102']
1, ['-0.007135889', '-0.051519696', '0.033825718', '-0.019004336', '-0.042621993', '0.012227084', '0.027433539', '-0.051642165', '-0.042154856', '0.045091502', '0.01635446', '0.009437001', '0.005575377', '0.012314121', '0.005722924', '0.026928766', '-0.0067909393', '-0.013645986', '0.024973169', '-0.011972935', '0.042870887', '0.027171707', '0.017834773', '-0.021810973', '-0.0165511', '0.0038272133', '0.04077684', '0.0017232144', '0.0014350406', '-0.0045378082', '-0.042158727', '-0.06164115', '0.01771005', '0.045825608', '-0.0315265', '0.029050963', '-0.0042647184', '0.007408975', '-0.007936499', '0.0048577003', '0.025413914', '0.02848609', '-0.03828563', '-0.023198236', '-0.011896596', '0.0022587392', '0.006558371', '0.029035145', '0.06745157', '-0.004703115', '-0.015615805', '-0.03615943', '0.055183783', '-0.035593018', '0.015799666', '0.00808747', '0.012835177', '0.001901264', '-0.055806138', '0.010712117', '-0.06906681', '-0.057218928', '0.039164025', '-0.013257504', '-0.01819576', '-0.0006724398', '0.0038136272', '-0.014280145', '-0.00063796394', '0.0013630864', '0.02242393', '-0.013475246', '0.050656352', '0.021944204', '0.0032146515', '0.010806633', '0.028572075', '-0.01304993', '0.008439478', '-0.07399392', '-0.01577095', '-0.009103364', '0.005502342', '-0.006430303', '0.0066051227', '0.012339455', '-0.0019501294', '-0.047028046', '0.02494846', '-0.01406654', '-0.0014328976', '0.0080465', '-0.022883976', '0.004844067', '-0.029111473', '0.018043585', '-0.004623707', '0.022173801', '0.0037410262', '-0.0070458897', '-0.038169056', '0.015987605', '-0.005707554', '0.0005219739', '0.0015937708', '0.0037078024', '-0.04347729', '0.08088565', '0.038227137', '0.008027257', '0.008929234', '0.015237812', '-0.0010150741', '-0.020090122', '-0.055405356', '0.023384226', '0.032130707', '0.013525927', '-0.057280846', '-0.024160689', '-0.035468113', '-0.015777279', '0.03472591', '0.04042326', '0.013530865', '0.0411864', '0.029681602', '0.03948123', '0.011110043', '0.03298404', '0.032740477', '0.021340206', '0.0019078046', '0.0030296845', '0.019864786', '0.015081056', '0.0124421', '-0.03436725', '-0.011776856', '0.03700942', '0.045042392', '-0.05137169', '-0.018486967', '0.044594586', '0.0048356443', '-0.013382084', '-0.005351009', '0.009005258', '-0.041276455', '-0.04219477', '0.015587902', '-0.006474177', '0.017853796', '-0.015481746', '-0.008791268', '0.024136478', '-0.002934358', '-0.016826056', '0.0050888336', '0.012954276', '-0.022869447', '-0.029079951', '-0.017869027', '-0.00713299', '0.038326673', '0.049583595', '0.022169948', '0.0126359295', '-0.01098904', '-0.026507562', '0.04163532', '-0.0019189484', '-0.012218953', '0.004383934', '-0.036063593', '-0.0033376075', '-0.004481986', '0.018069034', '-0.00032863804', '-0.009617186', '0.020872198', '0.016544063', '0.023244103', '-0.0021641839', '-0.020632695', '0.020750472', '-0.047106884', '-0.029913383', '-0.060450315', '0.018312879', '-0.031175336', '0.064483844', '0.016647996', '-0.0061169276', '-0.02002946', '-0.028034115', '0.03898083', '-3.8786648e-06', '0.036718067', '-0.0062251785', '0.005174285', '0.010526816', '0.0240078', '-0.012046105', '-0.032659534', '0.028437424', '-0.026045859', '-0.016859263', '-0.019636516', '-0.05253418', '0.009184375', '-0.047404245', '-0.01695215', '-0.012341002', '-0.035536326', '-0.009621885', '0.012328212', '0.017349556', '-0.020886173', '-0.025896886', '0.010495316', '0.0034832829', '0.018434184', '0.018159602', '0.021983013', '0.025486905', '0.017670533', '0.014651641', '-0.0323586', '-0.00523108', '0.0322515', '-0.030608293', '0.007191034', '0.031422984', '0.030594321', '0.023530815', '-0.035714168', '0.017670073', '-0.043944295', '-0.0002409978', '0.029524231', '-0.003783909', '0.00834329', '-0.004852266', '0.036382854', '0.010625132', '-0.028089453', '-0.030951306', '0.022792239', '-0.042331774', '0.030458894', '0.005929794', '0.00015129146', '0.015070102', '0.04015401', '0.03200575', '0.03197491', '0.007950874', '-0.026226865', '-0.017733395', '0.0023762204', '-0.020573989', '0.0050899633', '-0.0079032015', '-0.051042434', '0.017580515', '0.012040031', '-0.023208082', '-0.059434094', '0.029305188', '-0.060814604', '-0.008884009', '0.0068604653', '-0.011369603', '0.012248329', '-0.0058094515', '-0.04693656', '-0.0076321554', '-0.0805845', '-0.00572234', '-0.008951326', '0.042917456', '0.0079813255', '0.0113355685', '0.012877571', '0.011368112', '-0.04313311', '0.03457952', '0.007790607', '0.009326658', '-0.054108545', '-0.02869056', '0.0048030945', '0.04390477', '-0.02389074', '0.009635596', '-0.029337844', '0.07885655', '-0.016043013', '-0.037069596']
2, ['0.028243', '-0.036557283', '0.008643481', '-0.03772055', '-0.010346176', '-0.053484928', '0.01552354', '-0.040278032', '-0.0003390245', '0.010507153', '-0.034562387', '0.032804344', '-0.031988584', '0.024110654', '-0.033440523', '0.01957933', '0.01424286', '-0.0019725321', '0.0020053955', '0.000743283', '0.0005944552', '-0.034866463', '-0.014787034', '-0.006999371', '0.010175748', '0.018820474', '0.05056033', '-0.027163582', '-0.014574835', '-0.024459781', '-0.048179254', '0.03218665', '0.034479856', '0.03256901', '-0.030269224', '-0.010600641', '0.009648423', '-0.0055833845', '-0.004781017', '0.041828733', '0.050275672', '-0.0076364875', '-0.07096839', '-0.04991791', '0.0042278785', '0.010054219', '0.018651957', '-0.008844789', '0.02361008', '-0.008619327', '0.08163049', '0.020514898', '0.022058403', '-0.016165048', '-0.009277912', '-0.018836526', '0.015366576', '-0.010863224', '-0.02860863', '0.0053225225', '-0.017627908', '-0.024548668', '0.041926987', '-0.07896411', '0.02924984', '-0.033355042', '0.015933126', '-0.066114664', '-0.042528164', '0.0052413456', '0.013891351', '-0.013699042', '0.045698997', '0.00778581', '-0.050103985', '-0.015523576', '0.06010915', '-0.0013322773', '-0.016193775', '0.0055043157', '-0.09305505', '-0.010133183', '0.016206047', '-0.09250988', '-0.05827156', '-0.013702104', '-0.057968505', '-0.024251986', '-0.017040499', '-0.0419296', '-0.041463953', '0.027523642', '-0.012428964', '-0.010897874', '-0.032706488', '0.04184888', '-0.021773016', '0.099140786', '-0.0105504235', '-0.04940056', '0.025238503', '0.019569915', '0.007634148', '-0.02528683', '0.05494771', '0.006234065', '-0.015085246', '0.030802842', '-0.041456696', '0.064201385', '0.049361553', '-0.009933107', '0.032718316', '-0.06501347', '0.03670608', '-0.0021924686', '0.08317657', '-0.033081643', '-0.044720516', '-0.027803522', '0.02122151', '0.04524155', '-0.009403864', '0.013123629', '-0.027113844', '0.06776087', '0.072640255', '0.025927782', '-0.04886301', '0.02205336', '-0.012077064', '0.0144589115', '0.053122338', '-0.003707988', '0.08403038', '-0.048497304', '0.025921024', '0.04162121', '0.006199508', '0.05579678', '-0.003293071', '-0.019008655', '0.043083053', '0.028405562', '0.10545186', '0.052545026', '0.04924824', '-0.067727536', '-2.3359744e-05', '-0.016941592', '-0.022399705', '0.030830951', '-0.0020905184', '0.014603555', '0.035111196', '-0.0063533685', '-0.031874537', '-0.019079115', '-0.068614885', '0.018940665', '0.0035749048', '0.00025727454', '-0.054570843', '-0.03284464', '-0.001818678', '0.052621335', '-0.062187225', '-0.022071822', '0.018142495', '0.0068888944', '-0.02455669', '0.05239022', '0.037178162', '0.017381655', '0.03770321', '0.028781386', '-0.06618573', '-0.0020501486', '-0.010764656', '0.041190732', '-0.07415586', '-0.059407406', '0.020804072', '-0.023323841', '0.018329853', '-0.0040356154', '-0.013051172', '0.044408236', '-0.05004106', '0.035678007', '-0.016905189', '0.078450315', '-0.0014057129', '-0.013867951', '-0.050511833', '0.038262207', '-0.0019035408', '0.008494001', '0.017724145', '0.015289687', '-0.0039465358', '0.0105720125', '0.04118151', '-0.020254327', '-0.03140901', '0.0145838875', '0.010565306', '-0.01458589', '0.008087594', '-0.014059953', '-0.015085099', '0.022391343', '0.047080368', '0.0320539', '-0.0143062575', '-0.03892745', '-0.03139421', '-0.021229068', '0.025444964', '0.08176203', '0.03361812', '0.069869824', '-0.041976858', '-0.080149785', '0.008616541', '0.0025914202', '0.0190873', '0.050187156', '0.011404674', '0.00953402', '0.008075743', '-0.013638296', '-0.01989706', '0.02964425', '0.067812085', '0.04761409', '0.048238955', '-0.010192555', '-0.038656518', '-0.052822437', '-0.060090676', '0.054059688', '0.021005891', '0.040781505', '0.006052357', '-0.0032072787', '0.041274186', '0.06514916', '0.06950339', '-0.02957912', '-0.042923473', '0.017227761', '-0.034252264', '0.019834945', '-0.031974588', '-0.033440135', '-0.018918307', '0.06073976', '-0.024172641', '0.00021494228', '-0.011902892', '0.056048777', '-0.027492398', '-0.0014089629', '0.0007130236', '0.019756055', '-0.03542844', '0.020864336', '0.025816979', '-0.08615308', '0.004902819', '0.05392322', '0.019961877', '-0.0369984', '-0.023171807', '-0.01508618', '-0.01951337', '-0.012318264', '0.02584971', '-0.030042052', '0.026969148', '0.07148406', '0.015109179', '-0.0020216855', '0.026244462', '0.0017986794', '0.018336402', '0.06546178', '0.011538268', '0.00043113623', '-0.018636426', '0.044662394', '0.007731156', '0.027294662', '-0.06278457', '0.008845343', '-0.0031186629', '0.059753507', '-0.02387216', '-0.073431514']
3, ['-0.009574915', '-0.013457007', '-0.03909123', '0.01629106', '-0.0062066955', '-0.0019350997', '-0.014262193', '0.002958541', '0.007865702', '-0.037063897', '0.006295678', '-0.028695907', '-0.017453834', '0.048752226', '-0.035919357', '0.008809223', '0.016110228', '0.010822445', '-0.03716745', '0.017523464', '-0.012572745', '0.017759817', '0.007320257', '0.02225743', '-0.002321717', '-0.014241196', '0.031826206', '-0.018822258', '-0.035059016', '0.007366411', '-0.06313719', '-0.06973573', '-0.0035959042', '-0.03287125', '-0.025637245', '-0.009002346', '-0.02827442', '-0.0058303475', '0.039182615', '0.015262462', '0.005678506', '0.013105925', '-0.014400469', '-0.025493212', '0.01671426', '0.0464096', '0.01294401', '0.0029890959', '-0.023077259', '0.011291933', '0.0072998083', '0.008305196', '-0.036475502', '0.011887461', '-0.003256966', '-0.0699066', '0.027734399', '0.018283425', '-0.03899614', '-0.039979335', '-0.024281891', '-0.012121363', '0.051466737', '-0.007478197', '0.025527751', '0.03687631', '0.03934595', '-0.026028426', '-0.053413305', '-0.026240565', '-0.0058121965', '-0.050768513', '0.031221747', '-0.040670943', '-0.023697218', '-0.0014680612', '0.014464493', '0.056461643', '-0.022074308', '0.018831018', '0.012609572', '-0.034882713', '-0.0795225', '0.021068096', '0.0179274', '-0.0177761', '0.008081089', '-0.034918938', '-0.015145111', '-0.051138647', '0.006597633', '-0.013527962', '0.0086259255', '-0.0072874175', '0.0036258027', '0.008755161', '0.050861243', '-0.09823069', '-0.058788642', '-0.037449144', '-0.004786864', '-0.06668503', '0.008230073', '-0.0041010776', '0.06202667', '-0.00967192', '-0.027902514', '0.0072679874', '0.03456438', '-0.018368324', '0.036608323', '0.01857747', '0.031281248', '0.013921961', '-0.030918963', '0.008401496', '0.006940233', '0.043337546', '0.0447791', '-0.032879464', '-0.028625827', '-0.0015864073', '-0.004558214', '0.0324124', '-0.047844734', '-0.017912528', '0.024413712', '-0.015621572', '0.019011062', '-0.009153893', '0.0047727735', '-0.011059304', '0.04765934', '-0.0036082766', '0.0072474508', '-0.060324844', '0.01183717', '0.01396461', '-0.01557157', '-0.0027104032', '0.014946072', '0.03583402', '0.0007653028', '0.008133857', '0.018959902', '-0.034066934', '-0.0170287', '-0.034222376', '0.019190086', '0.030347925', '-0.019851405', '0.009677484', '-0.004831465', '-0.0057225674', '-0.0038971303', '0.05776426', '0.018419022', '-0.072180964', '-0.00070332066', '0.022451207', '0.0048367027', '-0.02283871', '-0.013490449', '0.03909023', '0.042905647', '0.056270447', '-0.04965933', '0.0029700694', '0.033186436', '-0.0014927612', '-0.007405966', '0.0084320195', '0.028850254', '-0.0031326567', '-0.015617377', '-0.013684594', '-0.027853131', '0.07688413', '-0.02471186', '0.048118807', '-0.01015945', '0.031786773', '-0.04615648', '-0.01533169', '-0.036166303', '-0.0018634213', '0.0041275057', '-0.009189162', '-0.08207243', '0.049500164', '0.022490129', '0.036095962', '-0.013460568', '0.03172063', '-0.03977822', '-0.03461213', '0.015446459', '0.05387088', '0.022648303', '0.056941215', '-0.016573913', '0.019722244', '0.07373508', '0.020188762', '-0.0061984877', '0.028417835', '-0.007901818', '-0.015185991', '-0.02583752', '-0.029541507', '-0.010168955', '-0.000323258', '-0.035059832', '0.006920056', '0.023298293', '-0.010834532', '0.032861467', '0.038953435', '-0.013309724', '0.020198472', '0.04486336', '0.027655873', '0.02321914', '0.0006891522', '-0.020997519', '0.014560569', '-0.015632186', '-0.03421269', '0.011857536', '0.025080651', '0.037151974', '-0.011573937', '-0.05605524', '-0.009705512', '-0.027515778', '-0.044283785', '0.048146266', '-0.013239834', '0.0019138202', '0.010399455', '0.021898238', '-0.021722578', '0.053717572', '0.037925545', '-0.04660316', '0.03207772', '0.011878742', '0.025654754', '0.016188048', '0.031145787', '-0.07460875', '0.02277857', '0.05025839', '-0.0025381094', '-0.052935455', '-0.047896147', '-0.07146873', '-0.034630727', '0.001983288', '-0.041402817', '0.028159468', '0.013173232', '-0.028270284', '0.04435409', '0.03065014', '0.061076734', '0.013202483', '-0.01159626', '0.0037339278', '0.034083113', '-0.039424475', '0.017944051', '0.0201708', '-0.029673835', '0.076513775', '-0.027057402', '-0.008764594', '0.0024766477', '0.048071984', '0.011459464', '-0.017119497', '0.019998131', '0.02486163', '0.018139403', '0.02887992', '0.0077757286', '0.028326098', '0.07548527', '0.0047461977', '-0.02117009', '0.02310931', '0.0006490553', '0.009213208', '-0.010144093', '0.08383726', '0.018122546', '-0.017541926', '0.008673144', '-0.007979124', '0.020044412']
4, ['-0.009912185', '0.013051926', '0.012809969', '-0.011493532', '0.06145124', '-0.043668177', '0.021609524', '-0.015836207', '0.027627734', '0.013899676', '0.0012539424', '0.01229955', '0.069830135', '0.01630771', '0.007713467', '-0.019127559', '0.010507913', '-0.02223177', '0.03132998', '0.013098156', '-0.035380192', '-0.017069725', '-0.026247105', '0.0074608065', '-0.055313252', '-0.0021148927', '0.010433607', '0.026385523', '-0.028156184', '0.034534734', '0.0013155924', '0.026324134', '-0.015143113', '0.031269316', '-0.006261717', '0.0123684155', '0.04123478', '0.004948385', '-0.01578475', '-0.008904196', '0.046351254', '-0.00073513685', '0.00092010514', '-0.005561826', '0.030248644', '0.029893383', '-0.0075336066', '-0.0059706755', '-0.017994497', '0.009930986', '0.01026185', '0.016142018', '-0.014105363', '0.011719683', '-0.012820521', '0.05262464', '-0.011471483', '-0.012865595', '0.0484893', '0.024368055', '-0.0054188585', '-0.016962336', '0.004237913', '-0.06991739', '-0.06497426', '0.022418825', '0.034162827', '-0.036065556', '-0.032049328', '0.04640399', '0.011909785', '-0.029935138', '0.010681296', '0.0030461915', '-0.0018314171', '0.027619608', '-0.03761632', '-0.021076089', '-0.014503297', '-0.013153027', '-0.012965275', '-0.016725235', '-0.010190513', '-0.024098592', '-0.014343954', '-0.044622183', '0.0010431893', '-0.043395028', '0.0131798135', '0.025796883', '0.0035458354', '-0.012809225', '-0.019756164', '-0.018660022', '-0.012155785', '0.020863734', '-0.009303815', '0.021653144', '-0.014910409', '-0.012537426', '-0.007344004', '0.04827834', '0.017944839', '-0.008701639', '-0.023942087', '0.017362777', '0.025293184', '0.0070099244', '0.018951256', '0.023065813', '0.009887277', '0.009046305', '-0.005317836', '-0.035669703', '0.01148597', '0.001915364', '0.029885018', '-0.005604237', '-0.013793044', '-0.022284146', '-0.0006243188', '0.028401915', '-0.0032192438', '0.004010482', '0.015685061', '0.036773127', '0.017267624', '-0.023195555', '-0.054478753', '-0.010206081', '0.0007154449', '-0.015435707', '-0.018889548', '0.020205172', '0.012492256', '-0.065435566', '0.019931046', '0.04235595', '0.037689358', '0.0013087452', '0.0023386856', '0.002083777', '-0.04677572', '0.019332226', '0.057362117', '0.0121594705', '0.014917198', '-0.0024327766', '0.006920599', '-0.060368177', '-0.054253303', '0.0028124724', '-0.015383597', '0.032434873', '0.033083815', '0.03340585', '-0.007811449', '-0.045293964', '-0.029084373', '0.038392622', '-0.0388232', '-0.025730476', '0.030208971', '0.010500476', '0.0054439534', '0.025131641', '0.0048479843', '-0.027032744', '0.040607363', '0.053189382', '-0.033065386', '0.047853757', '0.011638892', '-0.016194155', '0.024492024', '-0.042905737', '-0.043777887', '0.011858468', '0.0008794509', '0.009698037', '0.03245998', '0.041646272', '0.03784983', '-0.024832776', '-0.040023964', '-0.008348239', '0.025794484', '-0.0066866493', '0.010218519', '-0.006177176', '-0.03433201', '0.004335618', '0.023053903', '0.04895108', '0.046010897', '0.0004085582', '-0.018890956', '-0.0074435496', '-0.010868954', '0.004058046', '-0.015083372', '0.02759058', '-0.008214418', '-0.03313763', '0.05803102', '-0.04034162', '0.0056950925', '-0.010429928', '-0.024180578', '0.015210928', '0.021411406', '-0.014641775', '0.007810728', '0.0076419273', '-0.044732932', '0.018549595', '-0.009914035', '-0.022286594', '-0.007349149', '-0.0274433', '-0.04136644', '-0.0019852566', '-0.004165213', '0.0006480649', '0.00913589', '-0.030467713', '-0.04098964', '-0.022001864', '-0.04440503', '-0.010926767', '0.026781471', '-0.009372138', '0.01134266', '-0.037498794', '0.032332987', '0.008001201', '0.03390904', '0.027205423', '0.016718958', '-0.043500543', '0.00796875', '0.013571508', '-0.037549965', '0.015003756', '0.012792915', '-0.006575706', '-0.007424475', '-0.03290353', '0.05084598', '-0.013827282', '0.0039770994', '-0.0034063645', '0.026263144', '0.02719286', '0.019593773', '-0.018787852', '-0.011187951', '0.03076386', '-0.024684248', '0.030687725', '0.029465681', '0.0071426434', '-0.050596405', '-0.058558457', '0.03310824', '-0.014841296', '0.014177906', '0.020101435', '-0.021299737', '-0.014854058', '-0.01350361', '0.007953671', '0.013570179', '-0.012590332', '-0.07935824', '0.006859538', '0.033898544', '-0.03000417', '-0.009171951', '0.050660316', '-0.0014990653', '-0.008763302', '0.017921511', '-0.019281752', '0.02243432', '0.009254788', '-0.025430037', '-0.05064764', '0.009826553', '-0.025434565', '-0.046650976', '0.08224784', '-0.026250968', '0.031945877', '0.008206182', '0.015880426', '0.004959848', '-0.008865285', '0.024999483', '-0.037357323']
5, ['-0.018929899', '0.01770759', '0.041419566', '-0.01679983', '0.0024117043', '0.009797701', '-0.0033787484', '0.0009138382', '0.021606974', '0.008106059', '0.0124693075', '-0.06127608', '0.03733187', '-0.02843134', '-0.019323917', '0.00121645', '0.03817865', '-0.06862406', '-0.0075266813', '-0.034387793', '0.049396068', '-0.06942588', '-0.024544576', '-0.01650062', '-0.011306037', '0.061673243', '0.011247104', '-0.07440604', '0.0175645', '-0.0049953507', '-0.021114506', '0.003405529', '0.05502982', '0.0069458284', '0.031236071', '-0.08070205', '-0.01735198', '-0.009519035', '0.0075623207', '0.012082229', '-0.02278999', '-0.036629073', '-0.06853959', '-0.013767894', '-0.0022545403', '-0.00082903844', '0.0035058153', '-0.025854759', '0.03183125', '0.04793957', '-0.0152176395', '-0.04726727', '-0.023545505', '-0.03972149', '0.039282676', '-0.011558154', '-0.011491547', '-0.021736061', '0.012222002', '0.042046003', '0.0725455', '-0.016251486', '0.0013266965', '0.0101596825', '0.058716424', '-0.025298921', '-0.049239025', '0.06368857', '-0.03840331', '-0.0033002284', '0.01677888', '-0.008442888', '0.0055380077', '-0.006621734', '-0.024234418', '-0.004247867', '-0.012069066', '-0.044251848', '0.12516743', '-0.07013884', '-0.047987685', '-0.04497262', '0.03828004', '-0.032964103', '-0.041713826', '-0.017393924', '0.047609344', '-0.003390564', '-0.010522647', '-0.025672005', '-0.03803506', '6.2637184e-05', '-0.025864268', '-0.030076852', '0.042213798', '0.013445291', '0.012727344', '-0.043530967', '0.027531888', '-0.007659599', '-0.002992806', '-0.044447366', '0.057350833', '-0.014248782', '-0.021280708', '-0.0637335', '-0.035286855', '-0.0077433144', '0.0057714023', '0.06519365', '-0.004704818', '0.015459539', '-0.0030024382', '-0.02946003', '0.01797274', '-0.012552986', '-0.00042875213', '0.039250407', '-0.015301172', '0.010030559', '0.038794145', '0.03595151', '-0.035719424', '-0.039064966', '0.014349702', '-0.050247807', '-0.028825853', '0.0017927395', '-0.024061969', '0.052530278', '-0.033559844', '-0.008156446', '0.0288515', '0.007107042', '0.05419274', '0.022188697', '0.0016098862', '0.01118775', '0.021764675', '0.03524164', '-0.015844105', '-0.02530078', '0.08479036', '0.01769631', '-0.02110853', '0.034406424', '0.014267345', '0.052432913', '-0.043469775', '-0.022264712', '0.013748196', '0.001776731', '0.0022847697', '0.0089248605', '0.039939623', '0.013589566', '0.018636193', '0.024823932', '-0.07904939', '0.016619768', '-0.00951639', '-0.0006142292', '0.0021247219', '-0.013657926', '0.0442387', '-0.050701164', '-0.0068100467', '-0.09935128', '-0.01858421', '-0.015742887', '0.034315895', '-0.030404259', '-0.01549583', '0.009895209', '0.025423296', '-0.013489789', '0.021802686', '-0.023158919', '0.01287482', '-0.00094567443', '0.038600545', '-0.04175148', '0.023036923', '-0.0041488158', '-0.03828323', '0.008129901', '0.0073358784', '-0.035657037', '-0.02304108', '0.03271379', '-0.021540115', '-0.017935647', '0.020045126', '-0.03344901', '-0.029429667', '0.010536279', '-0.080449015', '0.059698712', '0.0083656125', '-0.04873904', '-0.032809023', '0.029367555', '0.0016714041', '0.039134454', '-0.005877859', '0.025582874', '-0.020998752', '-0.025814487', '0.020457702', '-0.02260002', '0.03385456', '-0.033127557', '-0.044046737', '-0.040313028', '-0.02877527', '-0.051638287', '-0.047395896', '-0.027170345', '-0.06249373', '0.0422108', '-0.010549992', '0.036070324', '-0.05143971', '0.0009878827', '0.02328251', '-0.033797234', '0.018685741', '-0.04539295', '-0.0013011601', '0.0056686695', '-0.03374868', '-0.045789678', '-0.0007043472', '0.043783512', '0.031418037', '-0.011209848', '-0.019260332', '-0.03519281', '0.0063431063', '-0.01743421', '0.013534919', '-0.0008155667', '-0.03494021', '-0.0017986294', '0.0031378095', '0.002986796', '-0.018766334', '-0.00076527917', '0.015568395', '0.03312122', '-0.010123187', '0.06814187', '0.0016995245', '0.021957893', '-0.043511685', '0.025227338', '0.054689128', '0.022827998', '0.006504896', '0.04409484', '0.045988362', '0.026858877', '0.061736174', '0.033773877', '0.023604162', '0.020920472', '-0.043468334', '-0.0012174962', '-0.027491905', '-0.028859504', '0.03924407', '-0.015351648', '0.0044853715', '0.024056064', '0.012544766', '-0.032295667', '0.01983994', '0.085682414', '0.02076303', '0.054007333', '-0.012023364', '0.02214901', '0.07873279', '-0.0037188032', '0.023198565', '0.0047346405', '0.02651233', '-0.011491756', '-0.028277436', '-0.009551976', '-0.050180115', '-0.07549433', '0.015800307', '-0.016273525', '0.041551944', '-0.020233031', '-0.008376094', '-0.0055975593', '-0.0122235', '0.052693896']
6, ['-0.023838786', '0.04931537', '-0.029678455', '0.01095171', '0.008423823', '-0.0025171544', '-0.009264111', '-0.01406459', '0.016022673', '0.004242522', '0.05656872', '-0.0142488405', '0.054032505', '0.008359643', '0.0046268483', '-0.0030251183', '0.014136881', '-0.012108062', '-0.037538245', '-0.005305723', '0.008474715', '0.010331506', '0.017691923', '-0.022513447', '-0.006295317', '-0.0029755952', '-0.023944456', '0.018426215', '-0.011897838', '0.026628744', '0.0069919936', '-0.049505778', '-0.0057179565', '-0.0075961915', '0.044123016', '0.022396974', '0.012128612', '0.02065184', '0.03063722', '-0.014218345', '-0.017196814', '-0.0055374713', '0.027532397', '0.033357862', '0.029391572', '-0.008831422', '-0.00737507', '-0.0045889653', '0.017826473', '-0.0077881296', '-0.04758729', '-0.011518391', '-0.011358648', '-0.023175977', '0.03001902', '0.0056624208', '-0.03140067', '0.014450137', '0.020751884', '-0.0039542844', '-0.004426186', '-0.009645289', '-0.004390489', '0.0056822104', '-0.0637307', '0.056453295', '0.009375031', '0.032777485', '0.003285889', '0.030163184', '0.02238949', '-0.043508552', '-0.020929018', '-0.023017216', '0.036342185', '-0.0045980597', '-0.030002374', '-0.031732354', '-0.0015028676', '-0.03247588', '0.061899412', '-0.032503683', '-0.010580607', '0.04150604', '0.02117256', '-0.022825388', '0.06587096', '0.006624076', '-7.189181e-05', '0.027515516', '0.039624006', '-0.0021424452', '-0.014529268', '0.0019726679', '0.024850272', '0.01625551', '0.019808067', '-0.089480065', '-0.0015443993', '0.024777852', '-0.03879863', '0.0019302134', '0.012657456', '-0.010759335', '-0.031997256', '-0.02260233', '-0.0076765073', '0.00071005273', '0.047803592', '-0.037881497', '-0.058391824', '-0.022897411', '-0.022266386', '0.0058866083', '-0.05517141', '0.007848875', '-0.027464379', '0.031479612', '0.024981938', '0.0111713465', '-0.033725392', '-0.044210207', '0.015671326', '-0.013920351', '0.0032431013', '-0.03504676', '-0.035099022', '-0.012807148', '0.03634042', '-0.0068463916', '0.019557314', '-0.0026622408', '-0.028815646', '0.006859537', '-0.054840356', '0.004187143', '-0.025889944', '-0.023812428', '-0.0007677794', '-0.028264375', '0.00914761', '0.030735169', '-0.041466445', '0.017581653', '-0.05440167', '-0.062004868', '-0.025638212', '0.043318942', '-0.025692612', '-0.014922663', '-0.005783309', '0.002706178', '0.018250717', '0.027497787', '0.006565789', '0.037901845', '0.022847252', '-0.032913037', '0.021770883', '-0.0008756596', '-0.024980929', '-0.017829625', '0.018340714', '0.033059493', '0.00895986', '-0.024358112', '0.063407905', '-0.003888944', '0.026025875', '-0.037336797', '0.027212454', '0.006071134', '-0.001540069', '0.008419183', '-0.046576444', '-0.0552586', '0.040072024', '0.0057290476', '0.005345791', '-0.037552617', '0.07627319', '0.067400694', '-0.012598073', '-0.011911993', '-0.06245194', '-0.0074357213', '0.0020940297', '-0.00037453475', '0.011439045', '0.011690232', '-0.02139125', '-0.031135567', '-0.005077366', '0.017969694', '0.03635264', '-0.017939752', '7.798668e-05', '-0.02478807', '0.022236682', '-0.013722928', '-0.017133534', '0.006290659', '-0.02965337', '-0.012811528', '0.04631753', '-0.0075725815', '-0.018727671', '-0.010346514', '-0.013327363', '-0.011905009', '0.03287477', '-0.03355321', '-0.03460036', '-0.061133213', '-5.6086457e-05', '0.032154422', '-0.0025780895', '-0.007123175', '-0.04034146', '-0.046259332', '-0.01813267', '-0.028894356', '0.042365286', '0.0490416', '0.014056521', '-0.023318542', '-0.031496245', '-0.059745748', '-0.06380224', '-0.0095982235', '-0.0013345194', '0.012922344', '0.0210973', '-0.016469514', '-0.027206618', '-0.060285963', '-0.036393426', '-0.015681878', '0.027783312', '0.056561347', '0.07253318', '-0.026802681', '0.015425923', '-0.0033682883', '-0.028851412', '-0.016030217', '-0.020473268', '-0.053396016', '-0.041520808', '0.0018286488', '0.01059704', '-0.009685235', '0.048685215', '-0.0012777984', '0.027907044', '0.032425504', '0.014992069', '-0.055698033', '-0.014528714', '0.0035625652', '0.015366378', '-0.009933335', '0.024798423', '-0.0044042906', '0.02005958', '0.000844102', '0.039899785', '-0.05389567', '-0.04183504', '0.06549958', '-0.025464745', '-0.024005897', '0.009283847', '0.03635639', '0.01700797', '0.033910908', '0.032801002', '-0.02488942', '-0.03488067', '0.059391655', '-0.034000985', '-0.03432978', '0.0018876818', '-0.015787886', '-0.023994038', '0.024127502', '-0.03052042', '-0.026478888', '-0.04166091', '-0.014430934', '0.007033927', '-0.027990092', '-0.043850906', '0.014131429', '0.042078882', '0.035254996', '-0.0025681276', '-0.031295802', '0.015158611', '0.043868475']
7, ['0.02813183', '0.018479036', '-0.015940454', '0.008593888', '-0.029042505', '0.0019527564', '0.007255366', '-0.05995948', '-0.005852589', '-0.026233537', '-0.041102614', '0.04137515', '-0.035148554', '0.00072623976', '0.03840912', '-0.019581392', '0.02812669', '0.026485404', '-0.060165133', '-0.024155345', '0.010753375', '-0.058442555', '0.0047036484', '-0.022173394', '0.013270171', '0.017407222', '-0.009155754', '-0.049804553', '0.0025925983', '-0.0663456', '0.000991848', '0.00073488505', '0.01780646', '0.00028553169', '-0.009871955', '0.030950855', '0.030091805', '-0.0069409222', '-0.008263814', '0.011723765', '-0.02940549', '-0.036110777', '0.012516868', '0.010758182', '0.003959861', '-0.011468168', '0.022135153', '-0.025350692', '-0.051472776', '-0.05086896', '-0.018470272', '0.015760012', '-0.002432583', '-0.025880178', '-0.012748483', '-0.0614717', '-0.016999295', '0.013929294', '-0.03344436', '-0.054765705', '0.012523891', '-0.006316902', '-0.022410775', '0.03563649', '-0.021151505', '-0.021042591', '0.011073692', '0.015132962', '-0.018611964', '0.034794737', '0.019945702', '-0.03787975', '-0.021973101', '-0.033545952', '0.005815691', '-0.008391421', '0.037316572', '-0.044698812', '-0.03319683', '0.047822703', '-0.016894551', '0.0162841', '0.00024113231', '-0.048303135', '-0.042730488', '-0.03303749', '-0.059779435', '0.01615301', '-0.030351086', '-0.01618435', '0.0017661549', '0.023798743', '-0.05052348', '-0.0038591272', '-0.0034690474', '-0.011526173', '0.007320998', '0.02476801', '-0.042774726', '0.038817156', '-0.0002936939', '-0.045273162', '-0.024353899', '-0.016616091', '0.04009286', '-0.016935918', '0.006114821', '-0.028205005', '-0.03910858', '0.010957944', '-0.022242848', '-0.037766155', '-0.003851952', '0.010297402', '0.009534657', '-0.029350767', '0.02194699', '-0.0038599265', '0.004542377', '0.0129412785', '0.004506106', '-0.045902345', '0.003218158', '0.0074953362', '-0.047283676', '0.018594127', '0.0063046855', '0.006884416', '0.028589135', '0.008903805', '-0.016401546', '0.031937346', '0.026796918', '-0.0141529925', '0.019435437', '0.034834094', '-0.016717805', '0.032194436', '-0.041587036', '0.009264617', '0.02968297', '0.024485128', '-0.019850679', '0.042316135', '-0.01086034', '-0.024757605', '-0.017685872', '0.01114201', '-0.033072837', '-0.03800371', '-0.0045336266', '0.030683357', '0.012984294', '0.02134952', '0.011215699', '0.02570209', '0.032023836', '-0.0067835264', '-0.0045901784', '-0.008112102', '-0.00022815357', '0.045173533', '-0.045959268', '0.03058602', '0.020587', '0.044602726', '0.0038052485', '-0.015189851', '0.030311935', '-0.063351095', '0.0017362689', '-0.025764154', '0.037061114', '0.053545054', '0.0034229304', '0.005289731', '0.024704896', '-0.0662416', '-0.036473066', '-0.013759447', '0.020362828', '-0.01704959', '-0.012784661', '-0.001766373', '-0.003596075', '-0.006346688', '-0.000996481', '0.07700558', '-0.025426583', '0.0211469', '0.019774774', '0.012278298', '-0.029114565', '-0.012294292', '-0.0011131052', '-0.026681047', '0.025476014', '-0.002858891', '0.016265823', '-0.005329249', '-0.015927602', '-0.0016468568', '-0.00018059096', '-0.01172558', '-0.026435683', '-0.019696103', '-0.021842519', '0.0022650654', '0.04804081', '-0.0056056087', '0.01885093', '0.011456296', '0.032567963', '-0.031306975', '0.022409258', '-0.045701537', '-0.030434947', '-0.041960247', '-0.0062408373', '0.04115872', '0.007672399', '0.042831987', '0.031086598', '0.021460595', '0.0041995347', '-0.024298564', '0.004799559', '-0.032785375', '0.00027133542', '-0.00070362765', '-0.063679196', '-0.008931901', '0.038685344', '0.022108233', '0.018219527', '0.019756617', '-0.026647486', '-0.027944623', '0.009985554', '-0.031329192', '0.025479808', '0.055189703', '0.021909365', '-0.020442968', '-0.050578766', '-0.026064822', '0.052850362', '0.046948932', '0.02684484', '0.014883999', '-0.012505473', '-0.023796879', '0.016482512', '-0.049513046', '-0.03420491', '0.017175311', '0.01432668', '-0.020316849', '-0.023016747', '0.03626146', '-0.003470632', '0.06007374', '0.0044411724', '0.0084983865', '0.052186586', '0.00013829573', '0.02604033', '-0.003460655', '-0.025279954', '0.008487388', '-0.0151479235', '-0.002967655', '0.01378412', '0.02344257', '0.00046081614', '0.045908622', '0.03945703', '-0.055877186', '0.013511712', '0.0035212322', '0.005546727', '0.039216366', '-0.020566873', '0.050375093', '0.020040683', '0.05582026', '-0.0013175657', '0.024726471', '0.0011616299', '0.03302139', '-0.002150352', '-0.054126125', '0.022600176', '0.0045237252', '-0.013006358', '0.03142346', '-0.026098607', '0.028988726', '-0.05603267', '0.011477705']
8, ['-0.036380652', '-0.03639451', '0.0589282', '0.01758429', '0.0021917918', '-0.016295122', '-0.017853966', '0.00015294147', '-0.014948366', '0.058103547', '-0.049895074', '-0.012616185', '-0.024732426', '-0.005672173', '0.0048945416', '-0.024458366', '0.033672366', '-0.035086073', '0.0050723823', '0.01852373', '0.04488757', '0.014945999', '0.012360082', '0.029022941', '-0.0044287224', '0.014323126', '-0.023559723', '0.04929943', '-0.02653732', '-0.0039452994', '-0.032462537', '-0.023404727', '-0.04433007', '0.028135514', '-0.03214789', '0.013687467', '0.03178762', '0.028163172', '0.028104628', '-0.05099456', '-0.014353533', '0.031450935', '-0.0010142903', '0.02033839', '-0.0065393667', '0.004105301', '-0.06123796', '-0.026901614', '0.0058318675', '0.011214652', '0.027800355', '-0.05036497', '-0.0081504', '-0.04244009', '0.013997367', '0.015373295', '0.017373195', '-0.0017150413', '0.033190403', '0.027156103', '0.0018857969', '-0.008942604', '0.024453787', '0.05438612', '-0.008797309', '0.0138742365', '-0.03291629', '0.03666326', '0.009874992', '0.037283238', '-0.00807186', '-0.02799582', '0.012650792', '0.00021387466', '0.01312237', '0.01369146', '0.008218914', '-0.0347958', '0.03340214', '-0.031280678', '-0.00846195', '0.017523983', '0.011656772', '0.011411066', '0.04448221', '-0.023134064', '-0.039302226', '0.055601425', '0.0074108425', '0.029186878', '-0.020142136', '0.0020871311', '0.015150472', '0.02838268', '0.033200253', '0.03516082', '-0.037668537', '0.011777143', '0.02304052', '-0.006842004', '-0.023308154', '-0.076952815', '-0.05015641', '0.025614288', '0.019957187', '-0.028539535', '0.01824391', '0.006544025', '0.0064938664', '-0.04924007', '0.017412795', '-0.014457271', '0.04067001', '-0.0018552261', '0.08126168', '-0.04735536', '-0.053217147', '0.014723881', '0.021069422', '-0.0012147895', '-0.07246446', '0.0104962895', '0.0026387554', '0.043848213', '-0.035118517', '0.00019719002', '-0.067247935', '0.010671159', '0.008025775', '-0.02847125', '0.008687804', '0.026009215', '-0.0017949484', '0.034168676', '-0.00024657586', '0.025652684', '-0.0329608', '-0.012477489', '-0.030046439', '-0.003995139', '0.0119628385', '0.029846637', '-0.020274222', '-0.072601', '0.042897902', '-0.0097407885', '0.015074985', '-0.0046133315', '0.024566991', '0.011102962', '0.024701526', '0.00014039068', '0.012265493', '-0.02754603', '-0.000117262716', '0.010560852', '-0.01795223', '-0.04919073', '-0.03614112', '0.008854853', '0.008971709', '-0.048448075', '-0.0153243225', '0.048145484', '0.039212085', '0.041880082', '0.042199545', '-0.011770805', '0.033739757', '-0.05139049', '0.011309789', '0.005740489', '0.015414822', '0.00908904', '0.040125784', '0.039237414', '-0.008864181', '0.03976531', '0.020905945', '0.00082466775', '-0.0007742604', '-0.0109214', '0.020079335', '0.011611697', '0.016872993', '0.007916001', '-0.026493737', '0.015237369', '-0.044549167', '-0.025335368', '0.052544292', '-0.0067323805', '-0.0020637847', '-0.021231165', '-0.037690476', '0.023979329', '-0.0002523137', '0.047858175', '-0.0054447427', '0.011349568', '-0.0007285112', '0.03670936', '-0.0053335335', '-0.009428838', '-0.023379888', '-0.034061655', '0.047347203', '0.0058446196', '0.00013026068', '0.018424837', '-0.05662676', '0.009915254', '0.0065476513', '0.0036151747', '0.01478036', '-0.009960179', '0.035375763', '-0.018911831', '-0.0094927605', '0.0171058', '0.0048886356', '-0.021756059', '0.009480594', '-0.0007763846', '0.0654219', '0.0034799473', '-0.054819893', '0.027824797', '0.0062042335', '0.00068385137', '0.000534944', '0.013768984', '-0.052763112', '0.002350975', '-0.0076942914', '0.0122084245', '0.0057314797', '-0.017732622', '0.0059618875', '0.037593547', '0.028962066', '-0.0027111324', '0.02058203', '-0.029263344', '-0.02766957', '-0.018739805', '-0.0066756452', '0.004136023', '0.070585154', '-0.008473214', '0.025896143', '0.003369849', '-0.0014837933', '-0.03023413', '0.011523823', '-0.01156992', '0.019063978', '0.0084260665', '-0.044814058', '0.056111105', '0.011734542', '-0.002237363', '0.025232786', '-0.014631492', '-0.040409327', '0.035350602', '0.022043724', '-0.025963508', '-0.041475724', '0.0047045033', '-0.061807673', '-0.018637907', '-0.06429103', '0.002738001', '-0.042433698', '0.010706026', '-0.014864081', '0.012670405', '0.021366829', '-0.01862483', '0.015440166', '-0.036562253', '-0.031169202', '0.037766814', '-0.018492047', '-0.023489296', '-0.0065633017', '0.0079132505', '-0.0077070133', '-0.013458306', '-0.017083382', '-0.016202029', '-0.009878731', '-0.046237174', '-0.008833603', '0.016189711', '-0.009146923', '0.016317926', '0.0010142564', '-0.02688616']
9, ['0.019429289', '-0.008709582', '-0.010059274', '0.035073735', '-0.005449135', '-0.04457533', '0.016001659', '-0.01364695', '0.02072469', '0.032914452', '0.019353814', '-0.022712037', '0.01932157', '-0.011671299', '0.016520359', '-0.0141896885', '0.0044450294', '-0.014848191', '-0.0503294', '0.029990047', '-0.016278785', '-0.009668501', '-0.031625584', '-0.038537636', '-0.039876986', '0.027840212', '-0.0629975', '0.008956362', '0.03634438', '0.0033728583', '-0.054887373', '0.0076486305', '0.013633021', '-0.011873835', '-0.014683458', '-0.0047079837', '-0.04471847', '-0.037860796', '-0.027457302', '0.015610143', '0.01164412', '0.01327493', '-0.010624275', '0.033417895', '0.045527585', '-0.02886294', '0.025478803', '-0.0078069316', '-0.01968184', '-0.027423011', '-0.02992205', '-0.03209577', '0.052193813', '0.0040229564', '-0.008921853', '0.039547306', '-0.03747965', '0.01989725', '-0.024807412', '-0.032368183', '-0.07213792', '-0.038534787', '0.025576837', '-0.0057568983', '-0.017931608', '0.027195698', '-0.027069947', '0.056880042', '-0.022664273', '-0.0067364187', '0.030938104', '0.00058817054', '-0.01716922', '-0.024974216', '0.011090149', '0.002927968', '-0.039048783', '0.08250379', '-0.0008585281', '0.052631326', '0.014748144', '-0.004558617', '-0.01948252', '-0.0034062644', '0.094618805', '-0.016434398', '-0.019406194', '-0.0316832', '0.018235786', '0.034163717', '-0.005505331', '-0.020827476', '0.010347338', '0.010894718', '-0.01774137', '0.016411291', '0.015892373', '0.019889962', '0.021276193', '0.01939485', '-0.001541057', '0.0036230623', '-0.003906887', '0.042866163', '-0.032364342', '-0.009435199', '-0.006956903', '0.04665546', '0.034713864', '-0.005577689', '6.659476e-05', '-0.00906073', '-0.017637232', '-0.052654166', '0.020086432', '-0.040253524', '0.03769264', '-0.033877373', '-0.011216259', '0.040609784', '-0.009735231', '0.028473826', '-0.033295676', '0.035118714', '-0.06853658', '0.055915486', '0.015806198', '0.06632678', '0.027043108', '0.006501157', '-0.058821954', '-0.020462042', '-0.02788978', '0.019144878', '-0.016491473', '0.023660064', '-0.0012685332', '-0.032667954', '0.016061015', '-0.005625182', '0.0050520445', '-0.02009254', '0.00407375', '-0.066985235', '-0.006777128', '-0.006438781', '-0.0014584052', '-0.050480265', '-0.032573104', '0.007410462', '0.02325054', '0.04146526', '-0.029793553', '-0.019151678', '0.009991708', '0.014796578', '0.013114797', '0.031043531', '-0.0091039445', '0.026215505', '0.00255493', '-0.023318952', '0.007767176', '0.00782061', '-0.018478427', '0.046304498', '0.030852014', '0.045732044', '-0.009888042', '-0.03487984', '0.06172547', '0.010252783', '0.044859815', '0.0022613863', '0.0443594', '-0.012355395', '0.024536025', '0.037782792', '-0.008395718', '0.011201326', '0.021073205', '-0.0063410415', '0.02040724', '-0.0070664776', '0.012315094', '0.0004154456', '-0.013010932', '0.06673684', '0.005176686', '-0.028945168', '0.017200692', '-0.025632104', '-0.0062529817', '0.022031702', '-0.012927462', '-0.01424153', '-0.023917457', '-0.014435937', '-0.008611284', '0.0014858586', '-0.03279575', '0.028465824', '0.03671567', '0.01938124', '-0.026989149', '-0.041946515', '0.027822826', '-0.013664305', '0.0046125343', '0.029852593', '-0.021515703', '-0.023493133', '0.00040141796', '0.00798322', '0.03259903', '-0.035902206', '0.021510217', '0.003774602', '-0.013745208', '-0.03239378', '0.04489793', '0.00643459', '-0.019666342', '-0.005378079', '-0.0030617842', '-0.00827473', '-0.021721078', '0.0071187555', '0.06369656', '-0.0038424286', '-0.049801614', '0.025745666', '0.00917614', '-0.0055750203', '-0.025323153', '-0.002100341', '-0.0112894075', '0.013132668', '-0.014825559', '-0.0003769514', '-0.013908472', '-0.0010435827', '0.011182088', '-0.029018745', '0.0073428075', '-0.008232369', '-0.021404095', '-0.001240812', '-0.003879118', '0.0067227227', '-0.0033925876', '0.020332985', '0.041333266', '0.0062584355', '-0.021662952', '0.023867477', '0.017547533', '0.008669459', '-0.004335203', '-0.0023292974', '0.019160844', '0.08489499', '0.013548662', '-0.014749324', '0.0026259548', '0.022834001', '0.0047031497', '0.0051658307', '-0.014045072', '-0.027670916', '-0.011198743', '-0.015813474', '-0.04433849', '-0.07680208', '0.0112311505', '0.0048819436', '-0.027680965', '-0.0014241795', '0.010880007', '0.031164054', '0.029357435', '0.0056034783', '0.045398027', '0.0022445458', '0.0024728605', '0.030871412', '-0.0062234676', '0.03346524', '0.0050656213', '0.009471415', '-0.020883376', '0.014171162', '-0.0043305643', '0.06555301', '0.023082016', '-0.016979657', '0.01024153', '-0.017765729', '0.028397452', '-0.0082010655']
10, ['-0.015996959', '-0.037621275', '-0.0033468476', '-0.0024884946', '-0.054430887', '0.009032914', '0.009049927', '-0.00986522', '0.042223386', '0.009066448', '0.0046528275', '0.049453948', '0.016074106', '-0.018653188', '-0.024137208', '0.012622262', '-0.08187789', '0.017441332', '-0.03140521', '-0.07247927', '-0.022345752', '0.01005198', '0.015609064', '0.0026130397', '-0.012701506', '0.029987555', '0.013216656', '0.024864875', '0.014395748', '-0.0045611165', '0.016283335', '0.040223476', '-0.0076673147', '-0.02352586', '0.039411098', '-0.036294766', '0.006679738', '0.031694494', '0.011597898', '-0.0021441823', '-0.020340612', '0.0379318', '0.04822263', '-0.01632542', '0.011256969', '-0.0045341905', '0.020943133', '0.0022778537', '0.054570444', '-0.0062252027', '-0.027476827', '0.050373267', '-0.049294043', '0.012091821', '0.047340978', '-0.043122534', '0.050241563', '-0.003247453', '-0.004915099', '-0.05081853', '0.017907316', '0.062323812', '-0.011042649', '0.057395823', '-0.01648664', '0.010319829', '-0.0070722606', '-0.017994987', '-0.0034692732', '0.014708532', '0.0198256', '0.025802221', '-0.009596279', '0.0062660375', '0.000629347', '-0.036582213', '0.014999853', '0.026835429', '0.036140196', '0.003687631', '-0.0053239036', '-0.017745797', '0.006191866', '-0.046227947', '-0.016208729', '-0.020773936', '-0.047021814', '0.0010958628', '-0.06696458', '0.047434453', '-0.020247133', '-0.0017148765', '0.01492587', '-0.049983352', '-0.072531596', '-0.013439094', '0.016118463', '0.042070195', '0.049512018', '-0.035392597', '0.0017580731', '0.031472582', '-0.030998029', '-0.0069059497', '-0.036862664', '-0.0005933195', '-0.06984309', '0.04481589', '-0.030382236', '0.04289652', '0.06416423', '-0.0022895325', '-0.003233552', '0.014638986', '-0.017218035', '0.0033705535', '-0.0031879211', '0.052981004', '0.010659092', '0.015507821', '-0.032961678', '-0.019387955', '0.049089864', '-0.06319425', '-0.055657573', '-0.01954053', '0.008465166', '-0.03448363', '0.021704836', '0.036916472', '-0.0077968794', '-0.008125393', '-0.018803995', '0.04349157', '-0.02389865', '0.06482075', '0.026951041', '-0.051841337', '-0.004836302', '0.005633612', '0.029857077', '0.009038323', '-0.018688891', '-0.03842049', '-0.008216476', '-0.032324858', '0.029327923', '-0.02605387', '0.016958956', '0.02868702', '0.052103262', '-0.009392865', '-0.067303635', '-0.080022715', '-0.036031682', '-0.08004753', '0.004721309', '0.007441063', '0.0026915977', '-0.027533265', '0.03315597', '0.03977582', '-0.013178931', '0.026340457', '-0.032216992', '0.05005295', '0.010897276', '-0.01044523', '0.021412874', '-0.016119197', '-0.013973497', '0.029466445', '-0.031146117', '-0.023325596', '0.06499088', '-0.0442222', '-0.039901383', '0.02321782', '-0.008223542', '0.0064367834', '-0.011432505', '0.0033789726', '-0.011563678', '0.01821423', '-0.037859626', '-0.012340922', '0.06468315', '0.0010080215', '0.023437588', '-0.05127425', '-0.004959593', '0.017901583', '0.035378683', '-0.01665201', '0.064395785', '-0.021926047', '0.006272456', '-0.0167042', '0.0124047', '-0.008150194', '-0.02667431', '-0.022872146', '0.0003189595', '0.00843137', '-0.03947932', '-0.025650982', '-0.0012738518', '0.043179717', '0.003738434', '0.0782876', '-0.014160274', '-0.0076341983', '-0.022069622', '0.021479618', '-0.09161027', '0.043846596', '0.026482394', '0.0064698737', '-0.021759225', '-0.0665688', '0.045169402', '-0.029749388', '-0.029109152', '-0.0071552736', '-0.0006737804', '-0.052800182', '0.024825813', '-0.01415257', '0.054636266', '0.022085227', '0.029952006', '0.018662916', '0.0048386566', '0.042421646', '-0.08430429', '0.02370861', '-0.030449446', '0.036952406', '0.010880897', '0.064564206', '0.052181177', '-0.03322179', '-0.012608042', '0.008878268', '-0.043443583', '-0.028885204', '-0.013304229', '-0.034863688', '0.02284401', '-0.023439836', '0.040033177', '-0.023321975', '0.043138746', '-0.011156384', '-0.04266111', '0.003935156', '-0.06438603', '-0.03396199', '0.02620452', '0.03740337', '0.004076331', '0.08647575', '0.031335276', '0.02316977', '0.016413586', '0.037354846', '-0.03709884', '0.003822848', '0.009348601', '0.027664825', '0.039944526', '0.011461702', '0.016595474', '-0.022182768', '-0.029637896', '0.022637783', '-0.05866781', '0.03506759', '-0.0006018028', '-0.03582238', '0.015570557', '-0.029951174', '-0.06972415', '-0.021434315', '-0.00013792886', '0.036124453', '0.07665569', '-0.044087645', '0.017812353', '-0.004048106', '-0.05267024', '0.0007951914', '-0.0415765', '-0.07869834', '-0.053576376', '-0.04313991', '0.035641357', '0.096733294', '-0.035776854', '0.0068671494']
11, ['-0.0012746699', '0.014079445', '0.049905784', '0.003866681', '-0.0110409185', '-0.037844907', '0.022531433', '-0.06510819', '-0.0083356835', '0.03867628', '-0.048560865', '-0.017244743', '-0.0383923', '-0.042320106', '-0.007557172', '0.021515237', '0.03226029', '0.026906922', '-0.064305834', '-0.007100763', '-0.049415525', '-0.043544393', '0.02862651', '0.005489475', '0.008780391', '-0.037508324', '-0.008322152', '0.036992427', '-0.020681972', '0.06249634', '0.06206839', '0.042432837', '-0.0052653677', '0.015410569', '-0.0084831035', '0.0011932108', '-0.0011179412', '0.02324178', '0.025081497', '0.008631403', '-0.026072145', '0.066606425', '0.05793203', '0.03969628', '0.07533722', '-0.019025026', '0.0074777924', '-0.022162134', '-0.01571378', '-0.02479668', '-0.007524274', '-0.051151726', '-0.012141334', '-0.011072747', '0.020702995', '0.033413347', '0.0030568007', '-0.030345311', '0.033929188', '0.01134371', '0.01658732', '-0.042000458', '-0.016722886', '-0.0059528546', '-0.0297883', '-0.009178418', '-0.0072435797', '0.030642219', '-0.033163685', '-0.00088775536', '0.04960496', '-0.0699904', '0.022992827', '-0.022319363', '0.0047046803', '0.05217074', '-0.008746404', '0.060592376', '0.021658814', '0.034350157', '0.007870663', '0.01486912', '0.09200274', '0.045523003', '0.05142911', '-0.026525231', '0.02723181', '-0.009753436', '-0.0057246033', '0.025967756', '-0.0038753992', '-0.005290448', '-0.004765444', '0.01839928', '0.011184589', '0.046106767', '-0.014622211', '-0.004730629', '0.0136703765', '-0.024263792', '-0.01344419', '0.013035256', '-0.0046827556', '-0.040839177', '0.030969335', '-0.0032613717', '-0.03252395', '0.05291947', '0.04475219', '0.018090893', '0.008722602', '-0.027425943', '0.038731128', '0.0242269', '0.0052829324', '-0.013778362', '-0.019415613', '-0.04259462', '0.019034721', '0.057080127', '-0.0017968077', '-0.0019239207', '0.041378252', '0.019822692', '-0.09060242', '0.010319579', '0.011883599', '0.014077253', '0.030550037', '-0.025888676', '0.008435113', '0.035141632', '-0.03516714', '0.012326727', '-0.0045712404', '0.059379257', '0.04476239', '-0.016899379', '-0.015230338', '0.0043763076', '0.042760897', '0.017360661', '-0.04348493', '0.023287565', '0.009578196', '0.004294341', '0.0114359455', '0.0074577467', '-0.00583478', '-0.010825421', '0.010339157', '0.011604493', '0.05569613', '-0.051651154', '-0.07165121', '-0.0140381', '0.02920491', '-0.010841098', '-0.015999135', '0.033067398', '0.00678271', '-0.0463352', '-0.04759758', '-0.0091441255', '0.039895963', '0.022725852', '0.0025077248', '-0.031887226', '-0.02387138', '-0.02136665', '0.040030837', '0.005000857', '-0.021814808', '-0.017393094', '-0.033312596', '-0.010718362', '-0.046712294', '-0.0073088226', '-0.007694303', '-0.049920212', '-0.04475169', '0.0070077293', '0.027598305', '0.03732274', '0.0008058518', '-0.019340795', '-0.014118086', '0.061403837', '0.004300617', '0.037275657', '0.016978199', '0.055925652', '0.016488736', '0.011467195', '-0.016631503', '-0.06049043', '-0.0024033138', '0.054595273', '-0.008516002', '0.0018049557', '0.01130346', '-0.008611929', '0.034697898', '0.0012144467', '0.00087955024', '0.03841669', '0.038291015', '-0.026337955', '0.018561816', '0.011765314', '-0.037578937', '0.03186302', '0.019011896', '-0.06931848', '0.014750598', '-0.03298984', '-0.02332927', '-0.0063168025', '-0.015402261', '-0.010456239', '0.0061812527', '0.015926192', '-0.06894998', '0.06650067', '-0.0044081593', '-0.036840674', '-0.012149989', '0.026708333', '0.007997036', '0.013311412', '0.044720303', '0.003848504', '0.04359379', '0.031409405', '-0.0058189803', '0.009463203', '-0.042637274', '0.033106882', '0.014531242', '-0.028730677', '-0.0033229978', '-0.0144826975', '0.0058756624', '-0.0150499', '-0.027218197', '0.005566313', '-0.03181967', '-0.017908754', '0.021410188', '0.03322897', '0.014958733', '-0.040046297', '0.03881224', '0.0018426365', '-0.040334113', '-0.031365424', '-0.018425677', '0.056959473', '-0.012158644', '0.044479292', '0.016954457', '0.027653662', '0.0029833228', '0.04418064', '0.02162656', '-0.014140792', '-0.053917494', '-0.006316451', '-0.05659326', '0.025878739', '-0.042097125', '0.008586861', '-0.019149594', '0.021906013', '-0.029288143', '0.013388009', '-0.03228668', '0.020472623', '0.026099132', '0.03527352', '-0.035827838', '-0.023211103', '0.016445808', '-0.009593895', '-0.007621651', '-0.00090238376', '-0.019567274', '0.026132366', '-0.014664798', '-0.026756454', '-0.043192964', '0.03880536', '0.007525017', '-0.08630034', '-0.039919734', '0.0015960267', '-0.058813367', '0.021702683', '0.032446623', '-0.051475234']
12, ['-0.0041553685', '-0.0012775507', '-0.008686072', '0.013618304', '0.011217112', '-0.007906462', '-0.010294349', '-0.034108132', '-0.007798976', '-0.006417293', '0.065213256', '-0.005070491', '0.014347526', '-0.01212395', '-0.0025272844', '0.061199278', '0.0046328837', '0.018541086', '0.0219986', '0.040174928', '-0.0101019675', '-0.029300002', '0.0024247456', '0.019321265', '0.02801295', '0.052980725', '0.0066273753', '0.009863247', '0.026009826', '0.029539607', '0.0030025279', '0.048558224', '0.021848844', '0.024694819', '0.010290318', '0.027392678', '-0.037744284', '0.062102087', '0.0147014195', '0.0025025678', '-0.0078044245', '0.026509281', '-0.0035864478', '-0.03336381', '-0.012874499', '-0.054505806', '0.026840338', '0.0005676156', '-0.008685015', '0.054540996', '0.012429503', '-0.045358587', '-0.010052458', '0.010119201', '-0.025893044', '0.023872796', '0.019123605', '-0.034079615', '0.014948973', '0.024415623', '-0.019956645', '-0.009753805', '0.022602148', '0.0054546962', '0.018488653', '0.0077324775', '0.037974723', '0.029022757', '0.018917942', '-0.024366792', '0.020192187', '-0.06435983', '0.04692781', '-0.062803835', '-0.007901834', '0.00902024', '-0.016789662', '-0.005871993', '-0.030770008', '-0.011074876', '-0.018922817', '-0.015998317', '0.04355574', '-0.035231814', '0.030526748', '-0.0048615825', '0.020091796', '-0.04223036', '0.01110746', '-0.046488173', '0.056742333', '-0.0051779076', '0.0039917724', '0.022656335', '-0.02195101', '-0.027163234', '0.038695183', '-0.008926972', '-0.013124701', '-0.044458907', '-0.0012515136', '-0.017401436', '0.010909791', '-0.050320398', '-0.061979085', '0.0061502596', '-0.013820582', '0.018426498', '0.025980806', '-0.0013594857', '0.00911482', '0.012776148', '0.0012854404', '0.0062260088', '-0.012433921', '0.005483032', '0.030633973', '-0.013495708', '0.025408395', '-0.002061853', '0.01853694', '-0.020805815', '0.0046469006', '0.03626269', '0.034974277', '0.044935066', '-0.025823506', '0.02646922', '0.020057824', '-0.043932494', '0.0032693695', '0.04344504', '0.048518304', '-0.032010414', '0.03517763', '0.020501489', '0.048451915', '0.00067188294', '0.0025853894', '-0.044655085', '-0.013715503', '-0.005735324', '0.016708925', '-0.01190563', '0.010763249', '-0.01013247', '0.011899929', '0.06766267', '0.0048901443', '-0.0008915088', '-0.014487767', '0.0471208', '0.031244453', '0.027137535', '-0.050804716', '-0.014467261', '0.036283307', '0.020210749', '0.061476246', '-0.01548986', '-0.014418408', '0.025345627', '-0.049121328', '-0.01935338', '-0.027523076', '0.029349921', '-0.0392165', '0.0033390154', '-0.03835731', '-0.013829573', '0.025389634', '-0.024961423', '-0.01767539', '0.012653076', '-0.02003575', '0.011331874', '-0.0060502505', '0.023026446', '-0.011539195', '-0.011389161', '-0.017444845', '-0.028564725', '-0.010476782', '-0.018696949', '-0.014100422', '0.020813731', '0.0010197848', '0.0068521295', '0.05181707', '0.017357515', '0.007528292', '-0.020025782', '-0.022075884', '-0.01718702', '-0.0135189425', '-0.0015531129', '-0.051170513', '-0.052897867', '-0.030875888', '-0.032034617', '0.0668224', '-0.024703497', '-0.014420505', '-0.041471437', '0.03796233', '0.057879552', '-0.004128648', '-0.025440175', '0.058725927', '0.040369757', '0.033388216', '-0.047213882', '-0.004590709', '0.0042287786', '0.008421821', '0.008387595', '-0.012446353', '0.00350061', '0.062091395', '-0.022747979', '-0.04733165', '0.0010178923', '0.0010786931', '0.010099349', '0.003795057', '-0.0373229', '0.019301739', '-0.02825164', '-0.021590114', '-0.012637434', '-0.0012089035', '-0.012641992', '0.030511439', '-0.0055188793', '0.008265564', '-0.015060453', '-0.0048907436', '0.01258382', '0.043014474', '0.018601408', '0.033339087', '0.0069910395', '-0.022216646', '-0.016856648', '-0.01856018', '0.009257182', '0.03416424', '-0.0019382796', '-0.012722097', '-0.020820767', '-0.02416044', '0.012870855', '0.036937784', '-0.016207546', '-0.02714755', '-0.04520392', '0.04417114', '0.0143204145', '-0.011225644', '-0.020065565', '-0.030402252', '-0.013690957', '0.002867891', '0.043166623', '0.007897568', '0.032117933', '0.016814526', '-0.06110275', '0.02417395', '0.00070449704', '0.028496306', '0.0069546723', '0.02223312', '0.032846563', '-0.017237347', '-0.032662', '-0.030741753', '-0.019512774', '-0.0014380878', '0.016377777', '0.00829205', '0.022253342', '0.019713543', '-0.0012865191', '-0.053360473', '-0.004950759', '-0.0066605266', '-0.00018533893', '0.041367143', '0.014490672', '-0.0095956', '0.02675323', '-0.0256525', '0.0051932205', '-0.055444475', '0.026136154', '0.007965399', '0.04047798', '-0.043364245', '-0.03449337']
13, ['-0.094249204', '0.038256414', '0.019638035', '-0.026522433', '0.019569801', '-0.0012198675', '0.015808', '-0.01952115', '0.026274344', '-0.019453267', '-0.017311411', '0.045461677', '-0.041799765', '-0.027579943', '0.034082726', '0.05773884', '0.013952953', '0.022661615', '0.007686401', '-0.03345686', '0.016771298', '0.014968462', '0.007075705', '0.0031657072', '-0.035242066', '0.03745376', '0.0046503725', '0.009690655', '-0.027304368', '0.017801564', '0.03510521', '-0.031283118', '0.03425293', '0.0012240695', '-0.04798677', '0.008944497', '0.0072273808', '0.0066478224', '0.012539803', '0.015541181', '0.046727985', '0.05644598', '0.02378737', '-0.011347581', '-0.0008373941', '0.0071116197', '-0.020250294', '-0.012245273', '-0.013092595', '0.017715754', '0.015797773', '0.047389958', '0.013692133', '0.055078078', '0.045926932', '-0.007754285', '0.013861316', '-0.009925601', '0.043984078', '-0.02037517', '0.049093936', '-0.017614039', '-0.022950191', '0.032421473', '-0.050852895', '-0.05137394', '-0.025990097', '-0.021396436', '-0.028870003', '0.0049406984', '0.072402075', '-0.044987187', '0.0050940183', '-0.017162252', '0.0121732205', '-0.005026467', '0.02935673', '-0.062464464', '0.012164778', '-0.0048974506', '0.041128956', '-0.053564623', '0.041963566', '-0.0053169127', '0.018438106', '0.017513083', '0.023009244', '-0.014516031', '0.00803036', '-0.0041287523', '0.04580631', '0.046104606', '-0.03971191', '-0.024394562', '0.023025438', '0.07035189', '0.008155262', '-0.0034680092', '-0.02259542', '-0.008089974', '-0.028067121', '-0.025181843', '-0.06407726', '0.018890955', '0.053643845', '-0.004360826', '0.0167372', '0.05008726', '0.016873406', '-0.049351126', '0.04997517', '0.054656073', '-0.010246833', '0.059880074', '-0.0018697133', '0.024844607', '-0.016521584', '0.032489356', '0.020784974', '-0.0037873627', '0.015418096', '0.017116362', '0.015344349', '0.0042232457', '0.034785718', '-0.035168305', '-0.054783028', '-0.01483251', '-0.024313819', '-0.047012027', '0.022968996', '0.01320493', '-0.032689486', '-0.073126875', '-0.01155693', '0.005748813', '0.011839296', '-0.015395532', '-0.00026213846', '0.008668873', '-0.035030168', '0.06351216', '0.0069972696', '0.008417756', '-0.008755009', '7.008431e-06', '0.01726327', '-0.01587681', '-0.046619605', '-0.015405571', '0.004933095', '-0.033758618', '0.0591712', '0.006031026', '0.012101025', '-0.03577219', '0.014289736', '0.025066976', '0.01368019', '0.02393543', '-0.010354106', '-0.0436176', '-0.030032612', '-0.05850372', '0.0062396764', '-0.028914241', '-0.025538195', '0.011940161', '0.02088574', '0.036001306', '-0.032072213', '0.029402701', '-0.039920285', '0.010458895', '-0.022261275', '0.008559773', '-0.016309936', '-0.04520495', '0.0039660716', '-0.0798579', '-0.026641114', '-0.04111709', '0.0005873865', '0.033679843', '0.050327294', '0.0021734487', '-0.0031587714', '0.01376674', '0.019382067', '0.02003319', '0.034573223', '0.013221279', '-0.020876408', '-0.023641253', '-0.014040782', '0.01935929', '-0.0017218852', '-0.020622604', '-0.04756579', '-0.03432186', '0.04907414', '0.033768278', '-0.021903103', '-0.021686755', '0.022995582', '0.06943071', '-0.030858126', '-0.04240529', '-0.022922125', '0.028447451', '-0.027860625', '0.017156221', '0.026902368', '0.02818016', '0.005539957', '0.024799561', '-0.024271425', '0.025547635', '-0.058397323', '0.04278652', '-0.050758917', '-0.05416954', '-0.030397104', '-0.03820767', '-0.028527368', '-0.024576984', '-0.056444168', '0.06425034', '-0.027164387', '0.0651004', '-0.0037411726', '-0.066740565', '0.019976221', '-0.006141746', '-0.029161062', '0.031364657', '-0.03478778', '0.06047739', '0.025164098', '-0.04433685', '0.058951024', '-0.0064168843', '0.0024935494', '-0.0010554795', '-0.015725521', '0.014870455', '0.022260435', '0.0043200795', '-0.029063717', '8.6827655e-05', '-0.006835289', '-0.031000096', '-0.0798831', '-0.09935696', '-0.0476622', '0.050418638', '-0.030045694', '0.016584847', '-0.016547665', '0.046179827', '-0.0011364586', '0.0111608505', '0.0018590317', '0.0042546857', '-0.025320254', '-0.04724804', '0.0030954217', '-0.015022001', '0.0037395568', '0.0075685172', '0.005057974', '-0.030797184', '0.018404424', '-0.005146568', '0.008463655', '0.011407429', '-0.0420469', '-0.002528918', '0.020182574', '-0.005169071', '0.022596775', '-0.047269274', '-0.017822111', '-0.012982965', '-0.031016007', '0.012377404', '0.035984673', '-0.0005558812', '0.0034315824', '0.0050330474', '-0.028263612', '-0.009974601', '-0.03472746', '0.015110261', '0.008139539', '0.009169503', '0.0053505055', '0.019097552', '-0.00536009', '-0.014116331']
14, ['-0.019815825', '0.06059591', '0.02734684', '-0.01681723', '-0.057590198', '-0.015191282', '0.023945902', '-0.023919867', '-0.021332836', '-0.070708215', '0.002107612', '-0.04835692', '-0.011884275', '-0.05806869', '-0.03879353', '-0.048009712', '-0.026325814', '0.024755662', '-0.058406446', '-0.009405419', '-0.007190838', '0.037746634', '-0.00841527', '0.029516203', '0.0051341634', '-0.013948117', '0.017308233', '0.017697163', '0.06922319', '-0.028562348', '-0.024562692', '-0.009460146', '0.009865273', '-0.0011774478', '-0.027933173', '0.043299805', '-0.001624497', '0.016602512', '0.039593928', '-0.017785542', '0.013518051', '0.0021470804', '0.0088020945', '-0.050075192', '0.012626463', '0.055597', '0.041721027', '-0.06062641', '0.045418944', '-0.061446708', '0.025598899', '-0.011355477', '0.013021136', '-0.0055271243', '-0.03722061', '0.02169096', '-0.01768447', '-0.0020962383', '0.023935167', '-0.0071275476', '0.0057356954', '0.019973366', '-0.0003249009', '0.04219037', '-0.002612219', '0.046351563', '0.05514403', '0.0101676425', '0.03644669', '-0.07584991', '-0.015629195', '0.018317042', '-0.020018205', '0.033395037', '0.01198643', '0.024522316', '-0.017933732', '0.02644958', '0.014762221', '-0.010289153', '0.008472533', '0.01995758', '-0.009674788', '0.043190055', '-0.042197037', '0.028928855', '-0.06092563', '-0.0019865185', '-0.019435966', '0.0068668514', '-0.051633894', '0.075954996', '-0.049262423', '-0.004990352', '-0.020838989', '0.0153715415', '0.0030851264', '-0.06656912', '0.083421074', '0.052252457', '0.012608486', '-0.0034535765', '0.04172031', '0.030889593', '0.06078199', '-0.026443865', '0.027907122', '-0.010851456', '-0.030132303', '0.05131341', '-0.04764389', '-0.024345767', '0.0024461066', '-0.07150915', '0.026616322', '-0.012719084', '0.013937731', '-0.0196463', '-0.05580105', '0.0041075842', '0.06682049', '0.0062176804', '0.02134632', '-0.016671842', '-0.013303207', '0.032375306', '0.01638053', '-0.02682898', '-0.037545618', '-0.003637168', '0.018399796', '0.0014307739', '0.028785277', '-0.02489195', '0.010544582', '0.0010526401', '-0.008457784', '-0.05124638', '-0.031509113', '0.022461325', '-0.028514164', '0.00020304121', '-0.05540922', '0.027014563', '0.021100946', '0.0019751915', '0.04499121', '-0.015768252', '0.06643515', '-0.039430957', '0.024622813', '-0.012847564', '-0.026311418', '0.039070737', '-0.025062323', '0.009961071', '0.062036242', '-0.026455117', '-0.013712856', '0.015714047', '-0.060663484', '-0.009530846', '0.054928765', '-0.021600202', '0.012276194', '0.013029402', '0.03693214', '-0.010185054', '0.0025088424', '-0.016245237', '0.0044155098', '-0.004134999', '0.051393345', '0.011288441', '0.0009012566', '0.016737543', '-0.048479002', '-0.0065653464', '0.034450565', '0.0053280056', '-0.04042464', '-0.016974457', '-0.03357801', '0.035988335', '-0.08896552', '0.015610285', '-0.0558942', '-0.029161239', '0.0064607793', '-0.056215446', '-0.010023644', '0.054971296', '-0.014150616', '-0.043936048', '0.05873138', '-0.0030784372', '0.020996412', '-0.007939918', '0.01967687', '0.02123117', '0.031577993', '0.012968457', '-0.038183592', '-0.016149148', '0.015480084', '-0.059162386', '0.035185646', '-0.018631587', '-0.02562071', '-0.04107525', '-0.0074951365', '0.07557679', '-0.054818813', '-0.048799027', '0.026783833', '-0.013957664', '-0.011187176', '8.9632216e-05', '-0.05449755', '-0.02597559', '-0.03910069', '0.0012785497', '0.033346027', '0.012686093', '-0.003120773', '-0.0022307083', '-0.008791073', '-0.029243477', '-0.016411', '0.029286256', '-0.041393336', '-0.06502757', '0.022878941', '0.011087949', '0.026919805', '-0.01860627', '0.011218092', '0.0033673467', '0.0072431318', '-0.0055478206', '-0.009366942', '-0.06767224', '0.017103886', '-0.016987419', '0.0061760615', '-0.037799526', '-0.08931383', '-0.051323533', '-0.045694303', '-0.030840501', '0.0133578', '0.022874502', '0.029517004', '-0.0036721814', '0.019078681', '-0.065752454', '-0.029756596', '0.07899934', '-0.02594966', '0.00799853', '0.0062538004', '0.04450314', '-0.02726298', '0.030426053', '-0.076752', '0.009722093', '0.011552466', '-0.045050208', '-0.018701276', '0.010445976', '-0.025472993', '0.038624484', '0.088994816', '0.012743598', '0.041510712', '0.056110483', '0.018418051', '0.032951783', '-0.025571804', '0.01570426', '0.073813036', '0.00044345253', '-0.03641041', '-0.052044526', '-0.008592427', '0.022862991', '-0.010687341', '-0.009567809', '0.038126413', '-0.061915163', '-0.051010597', '0.006917248', '0.0011778494', '0.016202616', '0.029681237', '0.002967722', '-0.0029803591', '-0.004258889', '0.0068467963', '-0.015542238']
15, ['-0.048531044', '-0.020393996', '-0.026922999', '0.023492808', '0.0021169398', '0.008537382', '-0.019045768', '0.054960635', '0.0072950907', '-0.020973315', '0.06650626', '0.030604675', '0.022287004', '0.0073887464', '0.028644977', '-0.015583636', '-0.025961118', '-0.028705569', '0.052483737', '0.004410306', '0.07010127', '0.05877949', '-0.042096034', '0.008218554', '-0.033700585', '0.09683911', '-0.013114376', '0.006924437', '0.033390656', '-0.058047082', '-0.09601765', '-0.032207347', '0.0069287145', '0.0012545977', '-0.02549596', '0.013921511', '0.005018264', '-0.0038091887', '0.011100067', '-0.023736708', '0.024082072', '-0.029190259', '-0.049585856', '-0.03975584', '-0.08177516', '0.003646906', '-0.024210334', '-0.016963612', '0.0015344034', '0.03771345', '0.0022814479', '0.047287244', '0.023066116', '0.026199542', '-0.014043471', '0.002569389', '0.018380571', '0.019993512', '0.00049208954', '-0.017478915', '-0.03927972', '0.035886705', '0.05142051', '0.06412824', '0.005898738', '0.03289647', '-0.010279913', '0.020698274', '0.03824421', '-0.004934196', '-0.017413616', '0.02395995', '-0.01744156', '-0.026778694', '0.011335207', '-0.0589987', '-0.009902327', '-0.06431958', '-0.018989129', '-0.039795347', '-0.0080722105', '-0.03230104', '-0.0822905', '-0.06906842', '0.028871348', '0.021444377', '-0.07009863', '-0.0011293673', '0.0072681867', '-0.012315432', '0.032151327', '0.01998203', '-0.008763411', '-0.0033356785', '-0.021331882', '-0.033290315', '0.015587461', '0.020845238', '0.025252605', '0.013682944', '-0.0088678505', '-0.0602963', '-0.054556247', '0.09140231', '-0.036440153', '-0.0295204', '0.02830516', '0.0005574118', '-0.01675423', '-0.04936898', '0.032211144', '0.036141492', '-0.02917322', '-0.0082327705', '0.039648842', '-0.017922772', '0.021596238', '0.04383742', '-0.0073778667', '-0.05629878', '-0.018125167', '0.026500283', '-0.044341348', '0.024008317', '0.07757918', '0.010736813', '-0.057894472', '0.011928461', '-0.010980023', '-0.019491512', '-0.014630303', '-0.0052334312', '0.031158127', '-0.015021555', '0.0069163083', '-0.032586522', '-0.060665447', '-0.021266615', '0.0031026748', '-0.03467934', '-0.052228905', '0.0045781014', '0.02057027', '-0.09049207', '-0.0018596292', '-0.020570781', '0.01796609', '-0.029660976', '-0.013904471', '0.0041030003', '0.016536186', '0.014044081', '-0.050548844', '0.050270014', '0.06585472', '-0.008431595', '-0.0011052818', '0.02024494', '0.013548188', '-0.015726348', '-0.0004083904', '0.016983801', '0.029126264', '0.0068689906', '-0.04823641', '0.034965027', '0.0028001897', '0.05787734', '0.018652441', '-0.0040783067', '0.0028776969', '0.015155715', '0.03422275', '0.024890892', '0.06132483', '0.036231156', '0.052864097', '0.03891874', '0.019474497', '0.011627009', '0.058303863', '-0.051740993', '-0.03020256', '-0.025475418', '0.009385024', '0.024384815', '0.0076801274', '-0.03883488', '0.015732486', '-0.064246334', '0.039971102', '-0.054965485', '-0.028815985', '-0.04342998', '0.0049452675', '0.071763285', '-0.037947256', '-0.09150148', '-0.026848206', '-0.005444112', '0.026419034', '0.03143891', '-0.063301004', '-0.01952199', '-0.009527569', '-0.04620157', '-0.024404021', '0.000581929', '-0.002081532', '0.024969028', '0.009567663', '-0.042184062', '-0.034008153', '0.106198244', '-0.0019841364', '0.021184301', '0.03690615', '0.01679721', '-0.014474538', '-0.017310621', '-0.020086542', '-0.03819809', '0.055003792', '-0.08618978', '0.022971159', '-0.0053792717', '-0.029702552', '-0.006287977', '0.009341287', '0.0021958025', '-0.079244345', '-0.03392033', '-0.061183568', '-0.037409473', '-0.04391981', '0.0017956209', '0.03017643', '-0.013230048', '0.006330287', '0.047917847', '0.060626734', '0.011466726', '-0.01811936', '-0.014700387', '-0.008936269', '-0.032326423', '0.037599918', '0.0081116995', '0.00050544296', '-0.04747952', '-0.011640885', '0.053242', '-0.033864703', '-0.05553362', '0.008447813', '0.027545542', '0.042121522', '-0.045280673', '-0.03820223', '-0.0032576553', '-0.018472765', '0.031547923', '0.011448586', '-0.038794845', '-0.056526978', '0.052776538', '0.06694216', '-0.037367906', '0.038873836', '-0.019783981', '0.024364337', '-0.04132666', '-0.0092454', '-0.041582912', '0.0015650522', '0.0012650144', '-0.006820612', '-0.011044202', '-0.011295412', '-0.02887161', '0.10575241', '0.004575861', '-0.031061247', '0.016462352', '-0.04912648', '0.00901988', '0.046723112', '-0.010842821', '0.03897902', '0.01979852', '-0.006017938', '-0.021176262', '-0.035563484', '0.10782901', '0.023147734', '0.0022118415', '0.07911653', '0.003702252', '-0.057665873', '0.008603389']
16, ['0.0022412268', '0.0021700764', '0.014115219', '-0.0072769695', '-0.0019947246', '0.019498967', '-0.007295886', '-0.027251273', '-0.033476043', '-0.028560365', '0.00964508', '-0.0050022006', '-0.028451178', '0.01956705', '-0.060026985', '0.021306843', '0.015467679', '0.042152368', '-0.0028677508', '0.0011240647', '-0.01637229', '-0.061835278', '0.029164758', '0.009411292', '-0.031106127', '-0.027932828', '0.005104859', '0.03269178', '0.017993914', '-0.04211028', '-0.06180134', '0.041515008', '0.03219974', '0.019267848', '-0.055215724', '0.0048674857', '-0.05786309', '-0.010477423', '0.034785856', '0.0015644165', '-0.016772851', '-0.032734536', '0.004923368', '-0.0188459', '-0.01264157', '0.008064712', '-0.02568421', '-0.0133743305', '0.027142657', '-0.047354672', '-0.030546341', '-0.003015894', '-0.021900767', '-0.083175674', '-0.0013243238', '0.004305058', '-0.0040934063', '-0.041977413', '-0.008616492', '-0.0130156325', '-0.07788896', '-0.0056822314', '-0.016471572', '0.010185196', '-0.016788397', '-0.03304169', '-0.0013971159', '-0.0050274874', '-0.0035092277', '-0.01353118', '-0.0021535945', '-0.057868656', '-0.04878039', '0.036374588', '0.023609227', '-0.019932015', '0.010101854', '-0.015983688', '-0.033529043', '-0.0023130963', '-0.032429095', '0.034421317', '-0.02194046', '0.003305689', '0.015306209', '0.0019208482', '-0.039317675', '-0.026277656', '-0.003177646', '-0.08172002', '0.052041087', '-0.03372203', '0.031106353', '0.028464815', '-0.008314211', '0.06463708', '0.04040022', '0.0078320755', '0.0052487836', '-0.03467448', '0.022672603', '0.016245704', '0.008391968', '-0.0005115915', '0.017791845', '0.0129411025', '-0.03938024', '-0.029698808', '0.017555462', '0.030653112', '0.042193297', '-0.07988155', '-0.013401965', '0.03416208', '0.015587991', '0.04304967', '-0.017613897', '-0.03463741', '-0.021310663', '0.016344186', '-0.03228191', '0.014559425', '0.018692931', '0.0035352185', '0.01454481', '-0.001609677', '-0.06565005', '-0.026343824', '0.0035533682', '0.0070970207', '-0.031651985', '0.0025179083', '0.07631432', '-0.040969327', '0.032349993', '0.016622793', '0.08292714', '-0.0146641275', '-0.020234982', '-0.050197598', '-0.003834512', '-0.01451514', '-0.003413456', '-0.016543062', '0.017704044', '-0.014693199', '0.053336393', '0.026724067', '0.057644747', '0.028130991', '-0.0050881435', '-0.027011784', '0.0016941492', '0.023824658', '0.063968495', '-0.059016276', '-0.004997591', '-0.060676336', '-0.0063252077', '0.017940912', '0.0003074996', '0.00866392', '-0.021960767', '0.0018079554', '0.0011955975', '0.010588901', '-0.02494083', '-0.01796268', '0.0072665624', '0.015062523', '0.056565296', '-0.029150836', '0.06036557', '0.010532396', '-0.042972315', '0.054601267', '-0.0009836305', '-0.0072646914', '-0.00595996', '-0.026939187', '-0.021308087', '0.002433191', '-0.02820485', '-0.023816919', '-0.015101797', '-0.012388437', '0.014821945', '-0.027520748', '0.032178454', '-0.041748222', '-0.024682768', '-0.023767238', '0.03401032', '-0.016812934', '-0.01842769', '0.023054682', '-0.0010988275', '0.010034121', '-0.0043810406', '-0.0039552096', '-0.00872158', '0.01393494', '-0.043954566', '0.03882639', '0.004968834', '0.015618075', '-0.0021208348', '-0.022866637', '-0.025864117', '-0.0033891033', '0.022082265', '0.032063782', '-0.021749275', '0.0080928635', '-0.0700396', '0.021617461', '-0.018979907', '-0.032404993', '-0.024342392', '-0.016030628', '-0.021269292', '0.010660292', '-0.037699856', '-0.010970703', '0.033826564', '0.025831807', '-0.044504363', '0.06555399', '-0.020909196', '0.021292042', '-0.03268535', '0.0049854484', '0.032324433', '-0.013241746', '0.010039524', '-0.000576031', '-0.024855219', '-0.0030884065', '0.0018240222', '0.035438146', '0.0022431745', '-0.0024045384', '0.0014522483', '0.026763752', '-0.023339113', '0.014935359', '-0.009574416', '-0.016668878', '-0.060607024', '0.029034268', '0.0034680334', '0.02372322', '0.07481444', '0.05125994', '0.038092542', '0.05937442', '-0.0024021917', '-0.024355285', '-0.07117335', '0.0056201187', '-0.016286539', '-0.024196725', '0.003925698', '0.009362864', '0.060875956', '-0.011336476', '-0.0051305257', '0.003983823', '0.044382576', '-0.018294437', '0.026392192', '0.0258754', '-0.053360287', '-0.009805974', '-0.0011957323', '-0.02161805', '0.04071145', '-0.0018168015', '-0.0448542', '0.014121586', '0.006114939', '-0.067664266', '0.029867202', '-0.013841879', '-0.027324231', '0.020372098', '-0.027896615', '0.039597787', '-0.029124137', '-0.035903465', '0.02530631', '0.032338478', '-0.0043977564', '-0.014946334', '-0.03084061', '0.004990133', '0.0113611305', '-0.0057381326', '0.04861745', '0.07247055']
17, ['0.01002551', '0.024446206', '-0.006710071', '0.027259028', '0.002899472', '0.016445545', '0.029005961', '-0.011267488', '-0.018576909', '0.030125594', '-0.0112433', '0.011756144', '0.023493107', '-0.0010488608', '-0.024414247', '-0.02841922', '0.0029891247', '0.002679211', '0.032110743', '0.0018738864', '-0.016398128', '0.011252432', '0.00070862577', '0.050684404', '-0.018808262', '0.012857441', '-0.0050709145', '0.001150601', '-0.008296829', '-0.015987244', '0.020914419', '0.019188717', '-0.008460108', '0.04098125', '0.013012108', '0.0002283426', '0.0060802563', '-0.016270444', '0.02881488', '-0.01649066', '0.058633827', '0.02827378', '-0.016511867', '0.02811214', '-0.022281798', '0.029420996', '-0.012791217', '0.049026236', '0.02897392', '0.02456884', '0.024571285', '-0.053804856', '-0.0050428472', '-0.0021250683', '-0.0072204154', '-0.003943857', '-0.043802217', '0.012540963', '0.0142368395', '0.0053035184', '0.037006475', '0.0023597444', '0.004785409', '-0.014039303', '0.019908527', '0.017436577', '-0.0065586646', '0.0046395482', '-0.020975038', '-0.02069611', '0.023888629', '-0.0028107413', '0.005771712', '0.028750097', '0.007288388', '-0.038419437', '-0.006005217', '-0.041855186', '0.012192528', '-0.020584729', '-0.012146994', '0.00056437426', '8.13665e-05', '0.0010817536', '-0.028506303', '0.03168577', '0.008047675', '-0.007377592', '-0.05070364', '0.016034985', '7.88242e-05', '0.0063239615', '-0.029163893', '-0.0019761352', '-0.020660354', '-0.007488083', '0.004930984', '-0.007100615', '0.00065124076', '0.061304208', '-0.029902125', '-0.0376281', '0.04331162', '-0.004487605', '0.0019014053', '0.02006502', '0.041005388', '-0.014844361', '0.020904694', '-0.0056037726', '0.0029188995', '0.009727813', '0.031500403', '-0.008519046', '-0.016257564', '0.015188602', '0.018784333', '-0.01631166', '-0.0024976383', '0.026102152', '0.03672271', '-0.020387908', '-0.013753507', '0.022860864', '-0.011320114', '-0.012685072', '0.037726495', '0.004651013', '-0.041515708', '-0.007928929', '0.029532496', '0.03130317', '0.011652638', '0.031694975', '-0.05567003', '-0.01677601', '-0.016249413', '-0.0036550267', '-0.02605785', '0.06036912', '0.010031988', '0.025784623', '0.023502013', '0.00076387526', '-0.014224814', '-0.020645646', '-0.011233653', '0.0022249597', '-0.052987136', '-0.013530477', '0.03880252', '0.010533503', '0.05729161', '-0.0030285334', '-0.0348167', '0.043014012', '-0.02141038', '0.03569217', '-0.013216155', '0.035471715', '-0.0038360776', '0.021488065', '0.012295235', '0.01117885', '0.018833797', '-0.0004464771', '-0.021279838', '-0.0024544506', '0.022187682', '0.026996983', '-0.029752504', '0.01578096', '0.034800023', '0.01947765', '-0.008927669', '-0.03800923', '-0.004558582', '0.03512806', '0.03777627', '0.0231072', '0.01589424', '-0.0012436542', '-0.013951999', '0.020481575', '-0.048112854', '0.04590066', '0.029428696', '0.03960892', '0.010316144', '0.028860658', '0.02425574', '-0.03134637', '-0.0007492498', '0.0060841944', '-0.0036380053', '-0.027427115', '-0.009218291', '-0.051574167', '0.017425314', '0.02447455', '0.018267535', '-0.012761328', '0.0043179276', '0.03817156', '0.002074172', '0.016405215', '-0.00878334', '0.004848139', '-0.022615561', '-0.0021095092', '-0.005171143', '0.06328035', '0.05189385', '-0.033819217', '0.029981568', '0.0012530964', '0.009622125', '-0.02470107', '0.04409375', '-0.019808384', '0.051094417', '-0.0030363498', '-0.0055389004', '-0.00069411565', '0.021538433', '-0.056516957', '-0.0014385232', '-0.019826483', '-0.04517917', '0.0038078853', '0.026235888', '0.035139635', '-0.017985187', '0.029925581', '0.0019778272', '0.01699792', '0.0058334903', '0.008642606', '-0.026426041', '0.02649629', '-0.005112957', '0.026899923', '0.0014782125', '-0.015117788', '0.03314892', '0.026648145', '-0.0025170606', '-0.05580318', '0.052116886', '0.023889435', '-0.036110137', '0.022379816', '0.0133186495', '-0.014187977', '0.008113512', '-0.010488518', '-0.003069828', '0.004539792', '0.008398909', '0.00062239426', '-0.04172892', '0.037914976', '0.014224397', '0.0023483757', '0.0007837618', '0.021362476', '-0.033566497', '0.023147047', '-0.008424241', '0.008211514', '0.048985895', '0.024946218', '-0.00068915356', '-0.030581936', '-0.022037411', '-0.010192797', '-0.06878852', '0.0062806862', '-0.02197843', '0.03406383', '0.012315647', '0.011682044', '0.01808913', '-0.0023473345', '0.020798584', '0.031471424', '0.009312502', '0.0034745105', '0.042475596', '0.011586915', '-0.032452736', '-0.0053400965', '0.006976846', '0.040804025', '-0.029844485', '-0.025323259', '0.01769274', '-0.0234324', '-0.027178569', '-0.031195631']
18, ['0.008068119', '-0.019807873', '0.03686052', '-0.009441744', '-0.031360634', '-0.02938907', '0.016333774', '0.0039832816', '0.0066948044', '0.0068069436', '-0.038271647', '-0.003014367', '-0.029595241', '-0.011943452', '-0.025108665', '-0.026936915', '-0.008677531', '-0.016980309', '-0.026220163', '0.043474905', '-0.049102537', '0.023621412', '0.0026923872', '0.016976392', '-0.0096031055', '0.0048049837', '-0.022375481', '0.036124386', '-0.03086466', '-0.07017287', '-0.03199778', '-0.0011864144', '0.06213284', '0.007425153', '0.016610814', '0.055701014', '-0.014857098', '-0.02827529', '-0.008463714', '-0.008808187', '0.020510172', '-0.009270414', '-0.012303399', '0.03967755', '0.037883222', '-0.005707335', '0.020565908', '-0.03180912', '-0.0018361789', '-9.098744e-05', '-0.012954675', '-0.010981759', '0.028640816', '0.0110829575', '0.032696836', '-0.026268968', '-0.045899015', '-0.010880503', '0.025852218', '-0.023653727', '0.008739751', '-0.003377557', '-0.03926673', '-0.0059488937', '-0.023902632', '-0.0095309485', '-0.060044758', '0.035204984', '-0.050975047', '-0.035920378', '0.010008486', '0.00028272587', '-0.009135653', '0.02170202', '0.01044257', '0.0077057104', '0.038364124', '-0.0070876773', '0.03274357', '-0.05142356', '-0.015703753', '-0.040416628', '0.053396873', '-0.0118298475', '0.047798328', '0.00665831', '0.02092732', '-0.029269092', '-0.016577182', '-0.045225214', '-0.001146275', '0.062821396', '0.019530417', '0.0127125615', '-0.04411227', '-0.02568003', '0.051705733', '0.017856719', '-0.05090207', '0.03209243', '0.025896743', '-0.00094313273', '-0.006045542', '0.067403756', '0.008566933', '0.05074011', '0.008986028', '-0.02924089', '-0.0059421347', '-0.0068662795', '-0.02509786', '-0.027559362', '-0.033322014', '0.030651595', '-0.012148425', '-0.004029459', '0.005902525', '0.037887543', '0.023547338', '-0.0043800636', '-0.019430375', '-0.024768107', '0.0062645557', '0.037129104', '0.009323178', '0.034899265', '-0.049694024', '-0.010883141', '0.049258526', '-0.01926136', '-0.020199796', '0.004875931', '-0.051095556', '0.011663275', '-0.0056713754', '-0.009147857', '0.048081156', '0.0032542378', '-0.0026127961', '-0.0027355081', '0.040501367', '0.014771068', '-0.039269514', '0.005148802', '0.031403095', '0.015266033', '0.05348542', '0.042271115', '-0.028643984', '-0.047294736', '-0.0068965266', '0.062454615', '0.025198394', '0.0074458127', '0.005671769', '0.022703892', '-0.022069706', '-0.09092254', '-0.06044953', '-0.045548916', '0.016977264', '-0.016778886', '-0.04407292', '-0.0075487876', '-0.012920871', '-0.0062248325', '-0.025332455', '-0.051175315', '0.015230461', '0.013719886', '0.0028453518', '0.008554528', '-0.009758973', '-0.0034734088', '-0.014050417', '-0.036268294', '-0.02221763', '0.0017056772', '0.0409026', '0.025730096', '0.016306935', '-0.012823074', '-0.022901842', '0.02233588', '0.00680594', '-0.016296746', '-0.04111679', '-0.005024305', '-0.047004446', '-0.06396474', '0.07613221', '-0.005346723', '0.008263389', '0.031582717', '0.039521053', '0.05430257', '0.036921546', '-0.08462959', '0.076950476', '-0.010895421', '0.01723772', '-0.025122136', '-0.057805244', '0.05341042', '-0.019468231', '0.021361934', '0.035498023', '0.0010091135', '5.8028036e-05', '0.036605615', '0.04970956', '-0.017093265', '0.016353294', '-0.013710372', '0.051310755', '-0.0152073745', '-0.0334564', '0.027360754', '0.026443161', '0.0008771042', '-0.029600125', '0.0062716734', '-0.013821329', '0.016580097', '0.015784748', '-0.0006288156', '0.016253022', '-0.040898997', '-0.028224166', '0.034385532', '0.044819027', '-0.031282302', '0.046056032', '0.030192936', '0.016368724', '0.06475549', '0.027257686', '0.010009611', '-0.018542357', '0.035671398', '0.02856996', '0.060589142', '0.012097917', '0.010563366', '-0.011511485', '0.040792633', '-0.0035861088', '0.06997697', '-0.012132495', '0.0279208', '-0.003682947', '0.03977908', '0.028190918', '0.044695754', '-0.0019908026', '-0.018991947', '-0.030668842', '-0.008002669', '-0.022306837', '-0.0019202583', '-0.025349379', '-0.027912656', '0.028286073', '0.0068708984', '0.0012925529', '0.013599236', '-0.05755448', '-0.030556723', '0.043547664', '0.032623805', '0.026650699', '0.015983375', '-0.010315329', '0.034580942', '0.041819155', '-0.03452165', '0.019940348', '-0.051197518', '0.021530164', '0.022936577', '0.013469748', '0.028198821', '-0.00674625', '-0.032393124', '0.07383892', '0.03278272', '0.03676668', '-0.0053441925', '0.032827612', '0.003189952', '0.019112078', '-0.029465703', '0.0046147783', '-0.0074876985', '0.014406609', '-0.008634974', '0.00866162', '0.030068744', '-0.0037536707', '0.0058638765']
19, ['0.011922539', '-0.014530045', '0.015873656', '-0.050986897', '-0.036286186', '0.0122969095', '0.02487497', '-0.002136875', '-0.041341595', '0.02997655', '0.025834464', '-0.017893285', '0.015129798', '-0.0013254072', '-0.0016525993', '-0.0018134548', '0.03338146', '-0.016460046', '0.00030946775', '-0.020318832', '-0.0075728823', '0.06741287', '0.016057584', '0.0033733025', '0.04368458', '-0.033866454', '0.018878413', '-0.008851897', '-0.025143119', '0.018485958', '-0.078123376', '0.007069581', '0.03397008', '0.04910013', '-0.042005703', '0.012033371', '0.011513389', '-0.029494759', '0.020843424', '-0.114460364', '0.05420726', '-0.022378631', '0.028171169', '0.00062812853', '-0.04014684', '0.013596144', '-0.006616488', '0.030194769', '-0.05003424', '-0.027563147', '0.055059895', '-0.030770605', '0.07170776', '0.036143996', '0.035461873', '-0.050621297', '0.01377092', '0.022531135', '-0.028966367', '-0.00018506906', '-0.0058538364', '0.020353768', '0.022791533', '0.011653666', '0.010163409', '-0.04846188', '0.004200175', '0.020895913', '-0.013075227', '-0.016320545', '0.025311587', '0.05663519', '-0.03395803', '0.059795663', '0.03417436', '-0.04654731', '0.0041167587', '0.0065363687', '0.03330164', '-0.023045113', '-0.037365988', '-0.07953792', '0.01957462', '0.006155017', '-0.034992583', '-0.021618988', '0.07236075', '-0.023825642', '0.019810548', '-0.017596997', '0.050865304', '-0.0021278674', '-0.012598756', '-0.12856117', '-0.03576829', '0.027726801', '-0.025487246', '-0.027473718', '0.06372754', '0.028766174', '0.012136213', '-0.04844742', '0.02686234', '-0.059069492', '-0.04163414', '0.022954008', '0.0011698917', '-0.07896656', '-0.034820613', '-0.018531647', '-0.047790855', '-0.0005433835', '-0.026450997', '0.009516105', '0.011832342', '-0.0142956115', '0.04964409', '-0.04285662', '-0.04165356', '-0.0125896605', '0.0038037773', '0.008109321', '0.0008147015', '-0.0729104', '-0.05804731', '0.03558284', '-0.025065305', '-0.027507205', '0.0096420245', '0.019390602', '-0.008905682', '-0.01392875', '-0.00075503555', '-0.059695035', '0.0070017064', '-0.003936361', '0.040039886', '0.04195996', '0.021002544', '-0.08174381', '0.007470815', '0.009247152', '0.058988824', '-0.05836567', '0.05114431', '-0.0069772666', '0.014812812', '0.007573761', '0.06571998', '-0.011598655', '-0.018643513', '0.030121349', '0.043309513', '-0.07761176', '-0.02286451', '0.028963698', '0.016078822', '-0.04588716', '-0.020953547', '0.025650948', '-0.052649025', '-0.03091174', '-0.024685478', '-0.029050188', '-0.017580878', '0.028280605', '0.0028846234', '-0.029013872', '0.049495615', '-0.036484554', '0.020119183', '0.04912942', '0.017407477', '-0.039962534', '-0.013304942', '0.018349338', '0.016582638', '0.05321194', '0.03015194', '0.020847542', '-0.042408668', '0.045503385', '-0.052658513', '0.012090741', '-0.007288086', '-0.10403446', '-0.06206694', '-0.049247578', '-0.008689252', '-0.0590827', '0.025765497', '-0.02160248', '0.042541735', '0.012073975', '-0.020051507', '0.007412543', '-0.014344559', '0.015311926', '-0.020088779', '0.011360345', '-0.036347803', '-0.019700697', '0.0049622473', '0.010874455', '0.021682734', '0.033504922', '-0.03871897', '0.03241281', '0.0060738255', '0.07118061', '-0.0011929914', '0.05864512', '0.036366813', '0.02055762', '0.046141643', '-0.012417685', '0.005769855', '0.01596275', '-0.021777166', '-0.005469852', '-0.009308126', '4.403781e-05', '0.008458556', '-0.0007102918', '0.010674173', '-0.0013088449', '0.067214556', '0.039631985', '0.0068002474', '-0.007312654', '0.06478106', '0.02647171', '0.018044405', '-0.00077591196', '-0.054650344', '0.011982876', '0.023008943', '0.0035181495', '0.0060903225', '-0.01991886', '-0.034269124', '0.006703801', '0.026364623', '0.05853702', '0.03242445', '-0.014195334', '-0.042475335', '-0.016578786', '-0.03681853', '-0.018692015', '0.024355318', '-0.053890835', '0.03402115', '0.04695919', '-0.029637363', '0.016323417', '9.989515e-05', '0.022844106', '-0.06951216', '-0.01033113', '-0.004908219', '-0.010335839', '-0.033495847', '0.0001953473', '0.038214732', '0.009228926', '-0.009602481', '-0.009061459', '-0.007961256', '0.0051601566', '0.046450835', '0.003361453', '-0.07203815', '-0.008448851', '0.003764652', '-0.04696992', '0.040820558', '-0.019190466', '0.031414025', '0.04015772', '-0.029414006', '0.024975369', '-0.030730365', '-0.047259085', '0.005093512', '-0.023704601', '-0.030481704', '-0.047899466', '0.00919596', '0.049198218', '0.013217312', '-0.036219925', '0.041831776', '-0.014262964', '-0.018050065', '-0.04443836', '0.003557132', '-0.025203543', '-0.028577857', '0.06318161']
20, ['-0.04728624', '0.025725149', '-0.029925724', '-0.07548298', '-0.033754654', '-0.016510455', '-0.0009820302', '0.010398747', '-0.028131025', '-0.05332554', '-0.0056226584', '-0.012035583', '0.034230996', '0.004897407', '0.022039881', '0.005389964', '-0.025718756', '0.0049674544', '-0.013709379', '-0.05364748', '0.0055695926', '-0.08607002', '-0.012691575', '-0.01598953', '-0.030959122', '-0.06544965', '-0.008894539', '-0.0033545564', '-0.04986529', '0.013525775', '0.026321651', '0.015751371', '-0.052952357', '0.02735894', '-0.03335191', '0.013724326', '-0.038062967', '-0.0070232186', '0.023669362', '-0.014120484', '0.004256075', '-0.0010312409', '0.03749652', '-0.0012743284', '-0.023260051', '-0.006511706', '-0.07370586', '0.03592312', '0.0024056868', '-0.04869488', '0.0034657065', '0.058177065', '0.018709376', '-0.02758942', '5.7705263e-05', '0.009869685', '0.0058772378', '-0.008263861', '-0.00086604897', '-0.028977739', '0.0010513315', '0.009219644', '0.024605999', '0.025837854', '0.043904997', '-0.010377516', '0.011495743', '-0.02984852', '-0.055103596', '0.0014900785', '-0.0167582', '-0.00118868', '-0.02857986', '-0.024123726', '-0.016038496', '-0.006428906', '-0.03763292', '-0.0011705502', '-0.038378578', '-0.034328006', '-0.016648652', '0.02531545', '-0.056053203', '-0.019799449', '-0.026637224', '0.003656476', '-0.048643902', '0.008628779', '0.013118931', '-0.00709282', '0.0049969493', '-0.044535022', '-0.028059607', '0.025353134', '0.016243298', '-0.0068738153', '0.024473133', '-0.0052160397', '0.04317479', '-0.02134816', '-0.04954373', '-0.028819779', '0.02263376', '-0.057074923', '0.03614901', '0.02015108', '0.00533251', '-0.02149767', '-0.017350376', '0.0065475027', '-0.035126094', '-0.05713456', '0.038076423', '-0.008893002', '-0.025685754', '-0.009991679', '-0.045466613', '-0.017719876', '0.01571381', '-0.024978112', '0.011045837', '0.011955599', '-0.0034635665', '-0.009220048', '0.001460472', '0.011742656', '0.005871979', '-0.025173271', '-0.0034079324', '0.018178461', '-0.00752488', '-0.0029351271', '0.008570906', '0.056410428', '-0.028545365', '0.038228545', '-0.006122473', '0.017773611', '0.007002218', '-0.0052631353', '0.004416891', '-0.008016375', '0.010516609', '0.023190448', '0.034021948', '-0.021486', '0.006077731', '-0.016130118', '-0.073091485', '-0.002814895', '0.021913473', '-0.029419512', '0.024755867', '0.017612353', '-0.041271176', '0.024662139', '-0.0129801575', '0.036129117', '0.009342275', '-0.012705993', '0.08229586', '0.045873333', '0.05580042', '0.0043404265', '0.022607736', '0.010048247', '0.0038034862', '0.021420874', '-0.024470197', '-0.017056685', '0.052284285', '-0.028561799', '0.040736016', '-0.008500868', '-0.022825243', '0.021972166', '-0.007731952', '0.031462003', '-0.0048176595', '-0.023599815', '-0.032230273', '0.011757156', '-0.0181445', '0.0020262199', '0.021722535', '0.005036627', '0.0542342', '-0.030622011', '0.025236472', '0.015783407', '0.040377107', '-0.0066538192', '0.008929044', '-0.017738916', '-0.0069447877', '-0.04353237', '0.0058964477', '0.016112061', '-0.055597294', '0.013129336', '-0.027836476', '0.005054061', '0.037022676', '-0.015920503', '-0.056306295', '0.018512672', '-0.051452972', '-0.041464146', '-0.011934329', '-0.034536123', '0.021792589', '-0.0070791556', '0.0036401134', '0.0018777831', '0.03731183', '-0.049391408', '-0.0028138314', '-0.00722183', '0.008095177', '0.007285246', '-0.014355217', '-0.018079652', '-0.0064330525', '0.004803497', '0.021867068', '-0.00655425', '-0.0043177353', '0.01337539', '0.02795192', '-0.018746926', '0.059161697', '0.033951744', '-0.06706682', '-0.052322276', '0.038706798', '0.022661572', '-0.015722807', '0.002939508', '0.029768912', '-0.0108339805', '0.016381888', '-0.007658151', '-0.011505024', '-0.035395183', '-0.00901645', '-0.033673007', '-0.04250797', '-0.028190074', '-0.035122484', '-0.0064323083', '0.018314218', '0.018554287', '-0.015788937', '-0.01830576', '-0.06190666', '0.038486615', '0.032428823', '0.019807838', '0.015243593', '-0.04840464', '-0.009334968', '0.0021802702', '-0.0032127153', '0.003931371', '0.011411863', '-0.011690145', '-0.026708791', '0.043191746', '-0.01991071', '-0.030680029', '0.02753631', '-0.005225765', '0.026012616', '0.036842998', '-0.053837117', '0.017472677', '-0.04381123', '-0.0067272848', '-0.039084405', '0.033713687', '0.008955685', '-0.023296157', '0.03217248', '0.0031083662', '-0.012645846', '-0.011000688', '-0.025219483', '0.050165933', '-0.014736419', '-0.02302824', '-0.0297661', '0.02461263', '0.02909798', '0.06310962', '-0.039090235', '0.0022969597', '-0.003890895', '0.018430999', '-0.02111067', '0.04917701']
