0, ['-0.0023930173', '0.007504641', '-0.009314383', '-0.024528528', '-0.026336566', '-0.0060938415', '0.18657413', '-0.05355054', '-0.06634287', '-0.022392413', '0.00922414', '0.04828794', '0.0143113965', '-0.0011400753', '-0.060654853', '0.0047013774', '0.010378055', '0.033599578', '-0.016415915', '0.02140755', '0.039106738', '0.014628183', '0.05403098', '-0.032153085', '0.012934892', '-0.006629252', '-0.0111373095', '0.003355353', '-0.011810371', '0.08004926', '0.0130185755', '0.005810082', '-0.059064675', '0.012362507', '0.026628105', '-0.022806438', '0.034649577', '0.005458547', '0.0028402624', '0.047440995', '0.030874407', '-0.061479196', '-0.008374268', '0.043284878', '0.047500078', '0.013653776', '-0.015235172', '0.04578635', '-0.016225912', '0.015830452', '0.01213708', '0.0041787177', '-0.013242777', '0.0008782378', '0.004010206', '0.044631857', '0.04590983', '-0.07627901', '0.034276634', '-0.037994523', '0.052131373', '0.0029154348', '-0.035615407', '-0.035207245', '-0.0538856', '-0.022011818', '-0.018521024', '-0.071452424', '-0.051735535', '0.016820872', '0.020067528', '-0.06678634', '-0.026046896', '-0.047873903', '-0.013741375', '0.05531685', '-0.027517043', '0.0153857', '-0.007368307', '-0.01562605', '-0.0033816404', '0.017500158', '-0.038503565', '0.00316582', '-0.004345898', '-0.0331814', '0.021830095', '-0.040060926', '0.010077989', '0.0065034735', '-0.0022421635', '0.036455054', '0.0050074053', '0.015084195', '0.022074908', '-0.028447168', '0.10748944', '0.0034506938', '-0.021885656', '0.012325741', '0.018438358', '-0.023715185', '-0.016110167', '-0.026299972', '0.05090385', '-0.0015726206', '0.014968286', '0.017536419', '0.057207767', '-0.04162852', '-0.036344044', '-0.023077931', '0.04765581', '0.0025044964', '-0.046189032', '-0.019661285', '-0.0046344087', '0.0026853972', '0.024120793', '0.011941901', '0.046882667', '-0.022371737', '-0.0009953852', '-0.0029985681', '-0.033040334', '0.012157538', '0.05930312', '0.02708907', '0.04429162', '0.028950881', '0.056477346', '0.0145350015', '-0.003240992', '0.041847903', '0.01675404', '-0.04281066', '-0.05673526', '0.034671802', '-0.052264813', '-0.027908646', '0.03571849', '-0.0066375206', '-0.0067951167', '0.008091907', '0.005405432', '0.021610493', '-0.052475', '0.044032667', '-0.023166267', '-0.036925107', '0.040224202', '-0.012211284', '0.066777356', '0.0469631', '0.023720957', '0.007012163', '-0.0016049655', '0.03997376', '0.011616097', '-0.022096781', '0.010815249', '-0.013061416', '0.00832745', '-0.057344854', '-0.007158864', '0.0063874195', '-0.0485536', '0.022004351', '0.041935734', '0.030843558', '-0.036430296', '-0.040201087', '0.026402265', '0.05173668', '0.030031258', '0.0252429', '-0.015605298', '-0.0051806835', '-0.0057367603', '0.011905054', '0.012035217', '-0.04075388', '-0.012685447', '-0.0124611', '0.0076599345', '-0.005143858', '0.045869987', '-0.005904296', '0.026526086', '0.0024563994', '-0.020315388', '-0.023873799', '-0.0003960603', '0.011140305', '-0.05218071', '-0.04940946', '-0.039745357', '-0.022806002', '0.059603065', '0.043574538', '0.012855898', '-0.06158062', '0.016468365', '0.008244562', '-0.010697798', '-0.0072219716', '-0.058280602', '0.004490684', '0.01053002', '-0.0034304077', '-0.041850056', '0.03363854', '-0.0078016245', '0.028753875', '-0.028224478', '0.06418367', '0.0044437815', '-0.039408028', '-0.060285654', '0.007895781', '-0.009165381', '-0.025428079', '0.008843097', '0.033540048', '0.09236556', '-0.032448925', '-0.034606323', '-0.00873416', '0.0024450072', '-0.010986747', '-0.030189585', '-0.040849954', '0.062251307', '-0.0037570158', '0.006257047', '-0.025290731', '-0.023161063', '0.008980608', '-0.03416011', '-0.018439695', '-0.030762663', '0.0028559316', '-0.012076895', '-0.019548133', '-0.052769586', '-0.013674452', '0.02393946', '0.024654903', '0.029218242', '0.031294987', '-0.038439177', '-0.028787252', '-0.0034547262', '-0.024146328', '0.0027643568', '0.008624679', '-0.026522042', '-0.0020704174', '-0.024469793', '-0.04659786', '-0.039056633', '-0.04187697', '-0.07842395', '-0.022046622', '0.0013222815', '-0.012165947', '0.03777059', '-0.012304064', '0.0020737494', '-0.00015364512', '-0.014612315', '0.061738923', '0.012471692', '0.02096556', '-0.0064748824', '-0.0068316027', '0.008049409', '-0.024189502', '0.031486087', '0.034146782', '-0.031479917', '0.046791602', '-0.05000883', '0.034800947', '-0.005316618', '-0.029599145', '0.02678232', '-0.03499626', '-0.0070574093', '0.0346362', '-0.0062177735', '-0.0056764744', '0.025865583', '-0.008984722', '-0.0046970765', '0.0017140703', '-0.05110929', '-0.02038106', '-0.039059956', '-0.024337266']
1, ['0.03004408', '-0.0249658', '0.020349823', '0.004247251', '-0.06675583', '0.027779633', '0.20523062', '-0.011654535', '0.040674012', '0.017726798', '-0.017856922', '0.028130617', '0.010331565', '-0.022696402', '0.025285283', '-0.007834413', '-0.025199434', '0.055351734', '-0.032927707', '-0.022521572', '0.0055398727', '0.017196849', '0.02759207', '-0.011279252', '-0.034532502', '0.02252525', '-0.0298885', '0.004976612', '0.0120719755', '0.022721495', '0.08809438', '-0.008536742', '-0.025657145', '-0.03208061', '-0.007374907', '-0.04076887', '-0.008926145', '-0.06425034', '-0.08028222', '-0.010007891', '-0.020490156', '-0.00036572095', '0.0064450954', '-0.005371983', '-0.019695768', '0.017631438', '-0.0073357522', '0.0168693', '-0.0027593721', '0.004218109', '-0.032909233', '0.08597672', '0.01407249', '-0.07087396', '0.0022402455', '0.017401619', '0.022990802', '-0.0019616089', '0.002710525', '0.07013497', '-0.08692953', '0.019618925', '0.003565751', '0.010169299', '-0.00033220727', '0.0072563295', '-0.010893041', '-0.04291149', '-0.016016355', '0.0006703273', '0.021566693', '-0.018643122', '0.012421176', '-0.002215113', '-0.0012144791', '0.036355082', '-0.034568135', '-0.009081954', '0.044595517', '-0.013200344', '-0.09802177', '0.04080974', '0.040539555', '0.03733487', '-0.03169748', '0.007295964', '0.008616934', '-0.014502724', '-0.0048738243', '-0.036627788', '0.029964752', '-0.005752092', '0.07685399', '0.019489605', '-0.02607614', '0.0017844791', '0.11111853', '-0.02604971', '0.045185316', '0.016750488', '0.024425715', '0.028211357', '0.024036746', '-0.025650624', '0.040514827', '0.037175413', '-0.0246604', '0.024993898', '0.050635897', '0.05449782', '-0.02939645', '0.022701371', '-0.030525008', '-0.03908297', '-0.0043429197', '0.020376917', '-0.046002172', '-0.0033649115', '0.033702675', '-0.007533107', '0.011332568', '0.019930877', '0.031153765', '-0.06511746', '0.029996617', '-0.0053218096', '-0.012457565', '0.008518012', '0.008193912', '-0.022446286', '0.0136406515', '-0.003938324', '0.0007859399', '-0.029122565', '-0.01720766', '0.10049284', '-0.014458032', '-0.029657846', '0.007867798', '-0.015462458', '-0.070441775', '0.017574301', '-0.03421276', '0.017633714', '0.07843616', '0.030416582', '0.018836543', '0.015923813', '0.015541067', '-0.04241535', '-0.028276024', '0.014636079', '0.0156155545', '-0.032953054', '-0.04070922', '-0.0042629596', '-0.035699178', '-0.05857994', '0.04641926', '0.028859107', '0.01839265', '-0.025239848', '0.041976273', '0.04847201', '-0.03897141', '0.024415538', '-0.052002918', '-0.06178554', '-0.066407', '-0.007908297', '-0.037924357', '-0.024693193', '-0.022361392', '-0.061043125', '-0.015995711', '0.03078819', '0.018806605', '-0.07730283', '-0.014535081', '0.051148176', '-0.039844293', '0.07907401', '-0.019597357', '-0.010057811', '-0.01599156', '0.030311584', '-0.04611144', '-0.0013643389', '-0.06822754', '-0.0077551953', '0.03494325', '0.014812354', '-0.028480012', '0.028540445', '0.047605958', '0.023634888', '0.003976274', '0.023239134', '-0.014875812', '0.08468521', '-0.006153772', '0.031982508', '-0.013763408', '-0.027772209', '0.016584119', '-0.06305045', '-0.021265429', '-0.03561674', '-0.04535444', '-0.00041141553', '0.03427155', '0.029693943', '0.024814172', '0.05950878', '-0.049039964', '0.03100277', '0.039476436', '0.09245982', '0.03558218', '-0.018877769', '0.0019472651', '-0.04007007', '0.031746462', '0.017106563', '0.12676758', '-0.023271834', '0.056482688', '0.038020317', '0.027453404', '0.018575594', '0.00033340947', '-0.015352714', '-0.013344419', '0.0018104252', '-0.010422839', '-0.03779025', '-0.0017787317', '0.0032605894', '0.0055281506', '0.09592591', '-0.043737575', '-0.04443088', '-0.01814294', '-0.020870524', '0.035362393', '0.064267516', '-0.030256419', '0.013402895', '-0.007107564', '-0.035653383', '0.016854573', '0.0169524', '0.0360479', '0.03747633', '0.011454641', '-0.0007389311', '-0.0037192719', '-0.01290555', '0.06723154', '0.011801179', '0.028994104', '0.035345957', '0.0015742483', '-0.016517114', '-0.055557925', '-0.00792775', '0.012423461', '-0.023629049', '-0.0020022376', '0.020188242', '0.059754584', '-0.0124522615', '-0.021867977', '0.030899862', '-0.002552959', '-0.03718921', '-0.024589052', '-0.033733476', '0.020606868', '0.0010242981', '-0.09671064', '-0.011862895', '-0.007628998', '-0.057839163', '0.005662127', '0.004192991', '-0.04165437', '0.051984444', '-0.00727774', '-0.04477833', '0.04773947', '0.032312587', '-0.057784434', '0.06943964', '-0.10081527', '-0.027336724', '-0.07057099', '-0.087336004', '-0.075919986', '0.028771095']
2, ['0.027621655', '0.02746178', '-0.005044534', '0.039073557', '0.05404443', '-0.0031300022', '0.082780205', '0.01731872', '-0.012783227', '-0.059461612', '0.016389221', '0.0006503962', '-3.1358828e-05', '0.031615365', '-0.04054532', '-0.010739963', '-0.0017904966', '-0.05390081', '-0.03345786', '-0.018548314', '0.05572335', '0.03956666', '-0.009446782', '-0.006338467', '-0.02526269', '-0.08595123', '0.080898754', '-0.09140963', '0.015816158', '-0.08583321', '-0.05104656', '0.018346671', '0.03189199', '-0.035868414', '-0.032557655', '-0.012848073', '-0.010030133', '-0.06550421', '-0.013213833', '-0.06715794', '0.025250198', '0.040377777', '-0.047828477', '-0.028359134', '0.011716357', '-0.04484835', '0.015892828', '-0.048490334', '-0.022560798', '-0.0063610636', '0.0088185165', '0.11156269', '-0.00073815236', '0.034598496', '0.053539094', '-0.024263456', '0.028327025', '-0.01622731', '0.019216217', '-0.0070478762', '0.09197083', '-0.025815', '0.033392128', '0.029319558', '-0.03574851', '-0.024061449', '0.05388352', '0.095225744', '0.018633282', '-0.01829676', '-0.09674412', '0.0101422025', '-0.053683713', '-0.06608213', '0.021433497', '-0.036660545', '0.03723032', '0.009681413', '0.005710553', '-0.009868548', '-0.028495064', '-0.05006572', '0.001854192', '-0.0368677', '0.033567373', '0.0003421958', '0.09030257', '0.030353852', '0.059762865', '-0.008471197', '-0.019514903', '0.0050918157', '0.00095184136', '0.055338494', '0.022347976', '-0.025115395', '-0.009199658', '-0.045320272', '0.005050105', '-0.03276641', '-0.024253337', '-0.034219086', '0.024476707', '0.032410856', '-0.011138253', '-0.08371347', '0.0543967', '0.057256646', '0.053358898', '-0.04305873', '-0.051954515', '0.026050644', '0.016051114', '-0.011065189', '-0.040863656', '-0.063957945', '0.02700003', '-0.0036964065', '0.046138506', '0.020105748', '-0.043056678', '-0.011889256', '-0.036415696', '-0.018696591', '-0.01222104', '0.04826216', '-0.029502664', '-0.06555944', '0.033543065', '0.034902547', '0.060692698', '0.01959488', '0.00815969', '0.008951482', '-0.02685979', '-0.03239757', '-0.0066429265', '-0.07234771', '0.01593036', '0.073386334', '-0.010880619', '0.04095912', '-0.035382126', '-0.012366127', '0.020606212', '-0.034826223', '0.0068797898', '-0.071641676', '0.08688352', '-0.06464786', '-0.053288653', '-0.031512056', '0.047624104', '-0.018786503', '0.02314478', '-0.025368236', '-0.011441001', '0.014535521', '0.0026002754', '-0.06876732', '-0.009126573', '-0.077891275', '-0.04429741', '0.026182584', '-0.059352458', '0.06015106', '0.00901408', '0.013785562', '0.009082492', '-0.0018703418', '0.010283758', '-0.019078434', '0.0129317315', '0.035679016', '-0.028847715', '0.0665676', '0.0071416744', '-0.011678109', '0.011429645', '0.02883069', '0.018863942', '-0.021682896', '0.02899161', '-0.06962241', '-0.039234', '-0.047341783', '0.016156701', '-0.001762245', '0.034985244', '-0.0075606597', '0.015252369', '-0.07212611', '-0.02633157', '-0.006204121', '-0.009063775', '-0.013814991', '-0.0450111', '0.050434355', '-0.0061414293', '-0.025973268', '-0.018708589', '-0.019504407', '0.016353631', '0.043720976', '-0.021642195', '0.029477881', '-0.05655344', '-0.036700968', '0.08380295', '0.03823084', '0.030804861', '0.01890864', '-0.055285018', '0.0132170385', '0.008062842', '0.0604234', '-0.007199608', '4.346883e-05', '-0.057118524', '0.009265568', '-0.07849742', '0.067405425', '-0.009336029', '-0.013571237', '0.07860354', '0.06511655', '0.015706263', '0.056952655', '0.020209014', '-0.08116786', '0.026723595', '0.021785948', '0.083917886', '-0.013027951', '-0.014159007', '0.039306633', '-0.0005603116', '-0.038596086', '0.03822', '-0.014698121', '-0.04592361', '0.040315527', '-0.045507308', '0.106906965', '0.011390425', '-0.02595487', '-0.0147079965', '-0.04240555', '0.0046867123', '0.09306673', '0.027427789', '-0.079882026', '0.06551178', '0.035507105', '-0.018809896', '0.032892965', '-0.01955545', '-0.07571153', '-0.047767244', '0.05481707', '0.039399527', '0.06566522', '0.015939368', '-0.021036115', '-0.0070464234', '-0.010566875', '-0.09658059', '-0.031138124', '0.0048825135', '0.027507123', '-0.0008307292', '-0.031509496', '0.0066487864', '-0.015881224', '0.009952571', '-0.024279239', '0.07472173', '0.053717885', '0.048686143', '0.05511363', '0.034128077', '-0.017852396', '0.049799282', '0.010643052', '0.0024693166', '-0.021249358', '0.07128623', '-0.023809645', '0.027611481', '-0.012804765', '-0.07488368', '-0.016331596', '-0.0783635', '-0.0012028859', '-0.014283629', '0.034949336', '-0.059292752', '-0.035883345', '-0.0455051', '-0.026954649']
3, ['0.060743164', '0.045114752', '-0.07413191', '0.024021005', '0.053878378', '-0.026660826', '-0.005870955', '0.006793942', '-0.0030797112', '-0.12524047', '0.066276476', '0.10125384', '0.028314302', '0.05657817', '-0.04239792', '-0.050792117', '-0.034466773', '-0.023261515', '-0.000982953', '-0.037991997', '0.05332568', '0.01285215', '0.01699887', '-0.024306644', '-0.030732766', '-0.080726005', '0.0204077', '-0.051954616', '-0.052606173', '0.036311757', '-0.057398', '0.02208529', '0.023641797', '-0.07007143', '-0.048200414', '0.046176758', '0.045201078', '-0.031503104', '0.053949405', '0.0054407245', '-0.03822378', '0.07143328', '0.020268485', '-0.067332655', '-0.02290046', '-0.004063994', '0.0007107114', '-0.061625514', '-0.03359614', '0.003552024', '-0.0049316785', '-0.0010125856', '-0.045776755', '0.03607849', '-0.026148075', '-0.03213253', '0.06691922', '0.03978052', '-0.037737247', '0.13283215', '-0.011403942', '-0.08013206', '0.036450975', '-0.010515367', '0.01120691', '0.041293368', '0.003810164', '0.062087227', '-0.0028077941', '-0.03685479', '-0.031126626', '0.021842612', '0.0661092', '-0.017169943', '0.02864134', '-0.04543623', '0.025480986', '-0.01267575', '0.05542164', '-0.047974512', '0.023424685', '-0.11106229', '0.0022675837', '0.04529475', '0.09793211', '0.03880747', '0.04278333', '-0.03326986', '-0.042134505', '-0.038561307', '-0.04885114', '-0.036934428', '0.0036823049', '0.012991946', '-0.014963223', '-0.10206178', '-0.006450845', '0.037107427', '0.04008471', '0.03257352', '0.027763302', '0.020627232', '0.004833923', '-0.00070080155', '-0.065764375', '-0.04253676', '0.038810294', '-0.04780767', '-0.0067026964', '-0.085054204', '0.030215275', '-0.054636113', '-0.030969478', '0.006973212', '-0.06370878', '0.10460916', '0.14857006', '0.023066606', '0.013550774', '0.030331744', '-0.040812787', '-0.012477452', '-0.054316655', '-0.09564016', '-0.041475356', '-0.07661694', '0.002153509', '-0.020815276', '0.0041034804', '-0.020725982', '0.03099213', '-0.045580067', '-0.02676566', '0.010984944', '0.056486223', '-0.006355387', '-0.0019225114', '0.01765952', '0.035337158', '0.15884997', '0.065041475', '-0.02777664', '0.020248478', '0.059823878', '0.02108369', '-0.050821673', '0.0027049026', '-0.020583164', '0.097679675', '0.025776247', '-0.024328936', '-0.046236053', '0.040635698', '-0.002130406', '0.038019307', '-0.064500526', '-0.046424173', '-0.027941737', '-0.07449058', '0.004686562', '0.045588538', '0.005917496', '0.014220774', '-0.02429282', '0.0347372', '-0.0036012174', '-0.023006745', '0.04061615', '0.043037523', '-0.08683129', '0.028264333', '-0.039121315', '-0.025984699', '-0.03788342', '-0.071443565', '0.020389207', '-0.022485616', '-0.03796389', '0.077941924', '-0.036787275', '-0.0033156436', '0.07040818', '0.033401515', '-0.03496725', '-0.0028988267', '-0.071140446', '0.035011802', '-0.040593613', '0.038377274', '-0.028832728', '-0.052582417', '-0.053304117', '0.07620474', '-0.041570894', '-0.021817692', '-0.034680746', '-0.0034899237', '-0.006809759', '0.017561896', '-0.10380023', '-0.052454475', '-0.0065318467', '-0.030704422', '0.031049212', '0.040993933', '0.02175478', '0.006318358', '0.051706586', '0.07858796', '0.026552433', '0.07252049', '0.0037349202', '-0.08717795', '-0.03073717', '-0.0060098814', '-0.0047929734', '0.00930057', '-0.055427905', '0.021088632', '0.041653927', '-0.040342838', '-0.008045569', '0.037426855', '0.016453823', '-0.048684325', '0.051379904', '-0.016069513', '-0.014007999', '-0.01730682', '-0.017604189', '0.073498726', '-0.012887245', '-0.022946015', '0.019488899', '-0.030466175', '0.1154986', '0.0048078606', '-0.012137848', '-0.01910887', '-0.07227001', '-0.09997529', '0.037657462', '-0.07158531', '0.09044889', '0.07847879', '-0.026244236', '-0.0016722926', '-0.057182487', '-0.02594636', '0.07478211', '0.0135865', '-0.031785656', '-0.013157873', '0.007175596', '-0.00042823332', '0.04128323', '0.035957046', '-0.045202732', '-0.008295998', '0.02679938', '0.05429902', '-0.010398017', '-0.080733255', '0.0073188217', '0.052688222', '0.014319957', '-0.034158397', '-0.07494547', '0.0013879127', '-0.0026209096', '0.04557268', '0.00049580995', '-0.061562166', '0.04463358', '0.008070628', '0.014193611', '0.05037826', '0.08115143', '0.010180516', '-0.019649839', '0.07275849', '-0.020336017', '0.05175907', '0.023883373', '-0.05839949', '-0.0042749825', '0.026481964', '0.061726406', '-0.02878309', '0.0047673103', '-0.019756753', '-0.021099467', '-0.08214511', '-0.052984808', '-0.021585634', '0.0073732706', '-0.043005466', '-0.00439165', '0.08036301', '-0.035575364']
4, ['0.052946135', '-0.010304165', '0.026074622', '-0.042406313', '0.110217795', '0.005377848', '-1.10708', '0.15804762', '0.03629198', '-0.025311856', '-0.0115840705', '0.003045444', '0.0174445', '0.019816706', '-0.008758644', '0.0017005423', '-0.037281163', '-0.0050840657', '-0.052652046', '-0.042364493', '-0.0693814', '0.029629942', '0.0024015463', '-0.013781414', '0.017924005', '-0.08957722', '0.050206903', '0.037022103', '-0.031237563', '-0.046610788', '0.034463897', '0.00081707013', '-0.009503746', '0.020453963', '0.028735228', '0.030717269', '0.004578855', '0.0018774647', '0.0027925943', '0.0004472764', '0.010778716', '-0.026291225', '0.019875934', '-0.048035767', '0.027499177', '0.00093009946', '-0.026208034', '0.009707749', '-0.0044547454', '-0.05516746', '-0.013873155', '0.0006681038', '0.0069688484', '0.030432915', '-0.0026057388', '-0.0027061389', '0.045017097', '-0.009008502', '-0.047414467', '0.059193794', '0.0142812645', '-0.024681207', '-0.086258896', '-0.013282088', '-0.0757166', '-0.047974594', '-0.015398733', '-0.0461166', '-0.0024568844', '0.02708369', '-0.011399329', '-0.046127953', '0.040708296', '0.025659777', '-0.025270453', '-0.019300338', '-0.021547567', '0.0053897942', '0.0025731113', '0.056689873', '-7.532696e-05', '0.016190756', '0.03315396', '0.11469737', '-0.03429987', '0.019153938', '-0.01525191', '0.024143705', '-0.016864853', '-0.01577191', '-0.040390037', '0.04478887', '0.027823132', '-0.019483978', '-0.0011537091', '-0.066761106', '-0.8065239', '0.04273061', '-0.021828076', '-0.0007748549', '0.07031977', '-0.040126197', '0.039539292', '-0.004399503', '-0.010699282', '0.03978842', '-0.06833257', '0.013153809', '0.0019629367', '-0.03588909', '0.027856724', '-0.026309818', '-0.0071723796', '0.038631406', '-0.06708813', '0.030469181', '0.0075704763', '-0.056080192', '0.023935879', '0.009582937', '0.041749', '-0.05095019', '0.0137613695', '-0.06519574', '-0.010517489', '-0.002576831', '0.019241692', '0.010222085', '0.006238853', '0.051865015', '-0.02353392', '-0.033099074', '-0.09077553', '-0.00577634', '-0.070982166', '-0.007973667', '-0.0015034047', '0.026914204', '0.004341758', '0.046671804', '0.020574441', '-0.013004624', '0.025377491', '-0.0052148243', '0.042130012', '0.07743448', '0.0294556', '-0.0399634', '0.089513384', '-0.045418646', '0.052962776', '-0.0341886', '-0.04229404', '0.01488083', '0.04454651', '-0.0034558293', '-0.0045426856', '0.032324787', '-0.022748543', '-0.04799075', '-0.0037392254', '0.014849039', '0.05398354', '-0.0012142893', '-0.02259588', '-0.008699903', '-0.02084804', '-0.012144327', '0.06348737', '0.06780413', '-0.07609169', '0.01390257', '0.03170563', '0.012205064', '-0.01363225', '-0.017292418', '0.03595952', '0.031133804', '-0.03512995', '-0.02301434', '-0.026789216', '0.054606955', '-0.019904174', '0.052505802', '-0.030674558', '0.037061073', '0.03613925', '-0.012295322', '0.036246084', '-0.057897575', '-0.030424189', '-0.020345993', '-0.07035537', '-0.008150197', '-0.009790846', '-0.042432196', '0.0031190175', '0.009386431', '-0.06461252', '0.044511463', '0.14052545', '-0.090091206', '-0.033180982', '0.022749381', '-0.008398624', '-0.021786723', '-0.018492432', '-0.026567494', '-0.015746722', '-0.019462097', '-0.0042742887', '-0.04389005', '0.015622325', '-0.10804516', '0.004735499', '0.043645408', '0.0018605004', '-0.060844634', '-0.028511617', '0.006740988', '-0.031870443', '0.025954144', '0.03740557', '0.0029984326', '-0.63362235', '0.035680916', '0.055462126', '-0.0147558665', '0.012596189', '0.023848854', '0.005436659', '-0.039615307', '-0.038508244', '-0.004659905', '-0.016886996', '0.057900157', '0.0040006307', '0.012151614', '-0.0042157494', '0.009150556', '0.03204662', '-0.016453592', '-0.024240147', '-0.09626995', '-0.013169192', '0.019028556', '0.056627505', '0.027835358', '0.011406401', '0.010045391', '0.04821446', '-0.01198895', '-0.005272537', '0.007744461', '0.035667643', '0.030196391', '-0.008529895', '-0.061722096', '0.024598312', '0.01183738', '-0.020458605', '0.06619894', '-0.04309733', '-0.018407404', '0.03457582', '-0.025927648', '0.04069277', '-0.0442138', '-0.030421278', '0.024152994', '0.008816877', '-0.021141196', '0.020983709', '-0.02869072', '-0.017180054', '0.03361243', '0.026515966', '0.1103898', '-0.04965906', '0.034165315', '0.23924032', '-0.00076201616', '0.07105547', '-0.007914826', '0.00845299', '0.11492998', '0.028384715', '-0.029617699', '0.009656214', '-0.034124993', '0.08055986', '-0.08712864', '-0.046180014', '0.01841805', '0.04532181', '-0.041504044', '0.0030270237', '-0.007269496', '0.000881479', '0.0051775593']
5, ['-0.010894937', '0.0073225447', '0.0037877099', '-0.03720996', '-0.040194318', '-0.011018751', '0.1972916', '-0.015799882', '0.012452432', '0.03853185', '0.024744712', '0.018285876', '-0.030780176', '-0.0014359136', '0.039837193', '0.05134145', '0.0381017', '0.0022520581', '0.014559659', '0.0012323306', '0.02790328', '0.0030039384', '-0.004057893', '0.024155218', '-0.003228972', '0.024108047', '0.023322534', '0.051644325', '-0.0346422', '-0.05749924', '0.024149306', '-0.045380842', '-0.07345869', '0.0018411626', '-0.006418081', '0.008861086', '0.026542377', '0.056481376', '0.00076880044', '0.053481966', '0.036064085', '-0.0028533624', '0.009321019', '0.011266477', '0.0066463854', '-0.018089192', '-0.01910336', '0.017225722', '0.06640879', '0.06390143', '-0.008432927', '0.030042613', '0.018084072', '-0.008963295', '0.032074295', '-0.0065084123', '-0.016639356', '-0.029381953', '-0.03253529', '-0.028693639', '0.011885283', '0.029365083', '-0.0013667428', '-0.009805105', '-0.03232869', '-0.009978816', '0.010678644', '-0.0076826885', '-0.018914305', '0.003807387', '0.06736234', '-0.026483336', '-0.0031050604', '0.02073777', '0.03315679', '0.0701871', '0.010770798', '-0.045670457', '-0.001995538', '0.046217166', '0.042497996', '0.049107715', '-0.0036775158', '0.00330798', '-0.008964186', '-0.04657716', '-0.0117892865', '-0.0007403008', '-0.039009165', '-0.012110601', '-0.028967666', '-0.039743736', '-0.031358', '-0.009900727', '0.020696284', '0.048777755', '0.1300245', '0.03234523', '-0.039278865', '0.0029840986', '0.025468113', '-0.033083595', '-0.01739037', '0.026661519', '-0.019170284', '0.052242346', '-0.020478662', '-0.018019851', '0.017756741', '0.003077224', '-0.036659658', '-0.0011977721', '0.032381155', '0.03374278', '0.018225376', '-0.023253122', '-0.04653824', '-0.04831043', '0.013363257', '0.04676233', '-0.008423275', '-0.006435138', '-0.005913171', '0.026832052', '0.015042734', '-0.0014778111', '-0.052686214', '0.012815256', '-0.028050104', '0.028150069', '0.050607435', '0.021805447', '0.02007192', '0.0028502275', '-0.008762475', '0.020196028', '0.0021687625', '-0.059223253', '0.009161488', '-0.020762892', '0.074179135', '-0.000115618604', '0.021560073', '0.017001586', '0.020755988', '0.008882483', '0.039741054', '0.054721545', '-0.029802697', '-0.009608953', '-0.014515115', '0.03480795', '0.008089205', '-0.016412845', '-0.05561118', '0.029156368', '-0.018306393', '-0.015382082', '0.027239913', '-0.002016572', '0.0020927722', '0.029494043', '-0.020278182', '0.0038420244', '0.010273822', '0.009731266', '0.014618756', '0.022183334', '-0.063479036', '-0.030629596', '0.055998143', '0.010424163', '-0.003460639', '-0.027289031', '0.015954714', '-0.040647168', '0.0014410005', '-0.031991404', '-0.028876236', '-0.041075267', '0.09534436', '-0.04769982', '0.039711915', '0.017950201', '0.009513672', '-0.00091177755', '0.030741526', '-0.037308507', '0.026262071', '-0.046173297', '-0.01889213', '-0.036058787', '-0.010515267', '0.027230805', '0.016626174', '0.021190893', '0.027640713', '-0.03331619', '0.026722573', '0.028463019', '0.026310926', '0.0007186324', '-0.03395898', '0.0095936945', '-0.03057898', '0.069010675', '0.01604783', '-0.05586601', '-0.016746514', '-0.044626474', '-0.041068316', '0.015774963', '0.0289919', '0.023095712', '0.027646745', '0.06890158', '0.0154008325', '0.083947346', '-0.0026943807', '0.0022679474', '-0.011964613', '-0.008433934', '0.024219098', '-0.05341072', '0.14482117', '0.00069096807', '0.021048648', '-0.017146533', '-0.0009678791', '0.02004865', '0.016424993', '-0.0064937933', '-0.029076671', '0.011398341', '0.0141870435', '0.015151032', '0.0153361475', '0.011189127', '0.068923324', '0.028884314', '0.04949059', '0.0021190066', '0.047633514', '0.035805162', '0.014255765', '0.07301413', '-0.019107556', '0.034063138', '-0.04781445', '0.02530949', '0.019395934', '-0.0030210002', '0.013027926', '0.024384761', '0.0055045346', '0.024732687', '0.018969268', '0.030134572', '0.012992526', '0.002180844', '-0.007890221', '0.050283205', '0.025224695', '-0.022124289', '-0.030064764', '-0.026685944', '-0.012738167', '0.010296631', '-0.023901494', '0.0034982054', '0.018466434', '0.0125552295', '0.034935154', '-0.01479075', '-0.0021600772', '-0.041817907', '0.02513971', '-0.040887605', '-0.009289612', '0.0067298072', '-0.0124816075', '0.051267143', '0.019783378', '-0.039151724', '-0.019956041', '-0.014959723', '-0.003954882', '0.0115161985', '0.0022968908', '0.015181227', '0.031080727', '0.0065912167', '0.021694157', '0.04071598', '0.008747195', '-0.010600884', '-0.019648228', '0.03801785', '-0.023724752', '-0.022121085']
6, ['0.05298141', '-0.008380051', '0.02063091', '0.016454926', '-0.05874139', '0.064231865', '0.20316818', '-0.031911436', '-0.0041018827', '0.037162486', '0.0088927485', '0.055355415', '0.008441145', '0.002111237', '-0.021522796', '0.053218257', '0.00023519289', '0.07743188', '-0.028780408', '0.005905892', '-0.04674983', '-0.0064831935', '0.056605887', '0.042960897', '-0.033753216', '0.02479397', '0.00796802', '0.047712374', '0.012903631', '0.042821668', '0.039183218', '-0.0446196', '0.043685887', '0.054411445', '0.02664547', '-0.013704486', '-0.018902816', '0.06302974', '0.013060334', '0.008562471', '0.07161447', '0.01639269', '0.001427303', '0.013741268', '0.012644889', '0.034368616', '-0.035964113', '-0.017320355', '0.00952637', '0.030546064', '0.021058168', '0.037304062', '0.037068736', '0.02119525', '-0.052020315', '0.008103438', '-0.031141572', '0.037691083', '-0.006383275', '0.014844475', '-0.064913705', '0.05642317', '-0.01649292', '-0.018127214', '-0.0059743277', '-0.048215408', '0.008844222', '-0.059581213', '-0.0071409913', '0.059407525', '0.05775141', '-0.018686455', '0.003256465', '-0.012360272', '-0.025368769', '0.063157536', '-0.02925611', '0.020817433', '-0.011175277', '-0.037827928', '0.01182889', '0.028385416', '0.010787002', '0.043603394', '-0.02686007', '-0.0023051207', '-0.0687307', '0.0067982054', '-0.015831027', '-0.013016268', '-0.05555002', '0.00035890768', '0.017497262', '-0.032863647', '-0.0039612507', '0.037224192', '0.14053734', '0.013203777', '0.0055664796', '0.024856288', '0.016934276', '-0.03106298', '0.0061602904', '-0.04836434', '0.060238294', '0.06613439', '0.006830598', '0.03808076', '0.032851607', '-0.023590365', '-0.004123605', '-0.009531469', '0.0032100554', '-0.01472044', '-0.009838053', '-0.009044773', '-0.040765684', '0.0057103406', '-0.04704357', '-0.022464681', '0.06290936', '-0.014740285', '-0.02688708', '-0.024969947', '-0.0020959189', '-0.0455341', '0.048009504', '0.047645807', '0.026605364', '-0.007624114', '0.0201857', '-0.019911585', '-0.03694672', '0.0041806884', '-0.0008052838', '0.019752935', '-0.0057943296', '-0.041408166', '0.0077291364', '-0.035307597', '0.0015276683', '-0.032234356', '0.0046590115', '0.028280986', '0.011410851', '0.03279197', '-0.009883708', '0.010982103', '-0.062967256', '-0.026204657', '0.0034024392', '0.023952903', '0.0014529801', '0.024757521', '0.017576905', '0.001679022', '0.032469086', '-0.0007257527', '0.024947083', '0.044899356', '-0.013168632', '0.02150799', '-0.016553396', '-0.061672043', '0.01525324', '-0.04067212', '-0.040801898', '-0.0021355378', '0.03927686', '0.0023177115', '-0.0025897243', '-0.013363129', '0.038106285', '0.0028744983', '0.013242915', '0.033648666', '0.01041834', '-0.009650835', '0.02068582', '-0.010053704', '-0.031211672', '0.015844036', '-0.0049913623', '0.0554348', '0.012405071', '0.059431776', '0.0022474583', '-0.0050188005', '-0.030027939', '-0.023343626', '-0.02266001', '0.008915538', '0.04943711', '-0.05432797', '0.007045508', '0.015013609', '-0.051075917', '-0.034778807', '-0.031005733', '0.059342556', '0.028517496', '-0.06081321', '-0.036406852', '-0.05845385', '-0.012710904', '0.0147137735', '0.036877245', '0.012041813', '-0.014367497', '-0.0058241594', '-0.0099457465', '0.004951502', '0.031700917', '0.008856892', '0.012458156', '-0.025446508', '0.06354469', '0.057400607', '-0.008503581', '-0.013377528', '-0.004184109', '-0.01991493', '-0.003103019', '0.05677028', '0.1156926', '-0.049579594', '0.030808555', '-0.03508545', '0.0364921', '0.02327837', '0.0072183823', '-0.03553993', '-0.03143147', '0.033280093', '0.032861818', '-0.017498478', '-0.017427681', '-0.0032519717', '-0.0020502426', '0.03137398', '0.03672086', '-0.042604238', '0.02262197', '0.013032534', '-0.032189965', '0.019578157', '-0.020797545', '0.03320576', '-0.0470578', '-0.061465204', '-0.045150913', '-0.028457776', '-0.027759898', '0.0029244823', '-0.0005709816', '0.013994488', '-0.0013641', '-0.0045933314', '0.01275552', '-0.028285401', '-0.007850407', '0.065354325', '-0.00023870879', '0.022658892', '0.016495382', '0.04176873', '-0.015009242', '0.008502432', '0.033404395', '-0.028676445', '-0.039491132', '0.0085726455', '0.02005506', '-0.045194022', '-0.04317523', '0.027452268', '-0.037302736', '-0.01700279', '-0.036681484', '-0.031968605', '-0.05601341', '0.01812816', '0.004919027', '0.04361964', '0.008835052', '0.016856246', '-0.07732344', '0.037394144', '0.01483827', '-0.011066555', '0.019065678', '-0.007460266', '0.04488079', '0.021955578', '-0.037071716', '-0.01130893', '0.039801832', '0.036348645', '0.030436855', '0.010392765']
7, ['0.009079547', '0.028262105', '0.04612355', '0.060601704', '-0.0065740305', '0.0062428843', '0.20936862', '-0.03200049', '-0.0137173105', '0.006421847', '0.010274284', '-0.042997196', '-0.031631347', '0.010924241', '0.022214891', '0.033113234', '0.04225611', '0.016072324', '-0.086162016', '-0.023811275', '-0.023201589', '-0.004543513', '0.008309217', '-0.018185573', '0.01293129', '0.05830462', '0.016504792', '0.02918572', '0.01936663', '0.041471887', '0.06752036', '-0.053255454', '0.045981523', '0.017714944', '0.034982614', '-0.03341054', '-0.014023859', '0.0482339', '-0.015769007', '0.0106060505', '-0.018987153', '-0.03851065', '0.013099847', '0.03892496', '-0.007416794', '0.025767269', '-0.0066280947', '-0.0015730724', '0.009276109', '-0.011328594', '-0.020194467', '-0.036532674', '0.0014019812', '0.03701058', '0.017872272', '0.04917723', '-0.03191307', '-0.008094295', '0.015316392', '0.018364836', '0.029840173', '0.035076533', '0.0034026292', '-0.046813175', '0.017028112', '-0.068274595', '0.05492845', '-0.012233805', '-0.0055304323', '0.023739267', '0.0840183', '-0.036970936', '0.0063125724', '-0.02875447', '0.05930501', '0.068689935', '-0.07016092', '-0.026007049', '0.007777147', '0.044296104', '0.027170861', '0.048021547', '0.04712516', '0.049687736', '0.02376517', '-0.027831312', '0.008132568', '0.05447431', '-0.054138277', '0.014610638', '-0.062793225', '0.07185852', '0.026086528', '-0.018723514', '-0.008709755', '0.041308902', '0.12301756', '0.0089992145', '-0.00065930723', '0.01657076', '-0.003519169', '0.009638348', '0.020531684', '0.00027660304', '-0.011163745', '-0.007891167', '-0.031884875', '0.018442923', '-0.035830487', '0.016112838', '-0.0051644603', '-0.020444306', '-0.011582619', '-0.024861546', '0.028495625', '-0.025466608', '-0.013522043', '-0.02355159', '-0.03826173', '-0.039773393', '-0.04589589', '0.0061663412', '-0.0027073235', '-0.009686078', '-0.02627984', '0.06975625', '-0.037345126', '0.041598983', '0.008991397', '-0.003252007', '0.0055630244', '-0.046845067', '-0.000378423', '0.02523196', '-0.017392538', '-0.041813426', '0.034102008', '-0.033103462', '-0.01732592', '-0.12080644', '-0.050587855', '-0.008029691', '0.020110765', '-0.0023786833', '-0.018328229', '-0.008108297', '-0.027665565', '0.036203902', '-0.06703714', '-0.008445427', '0.006524034', '-0.024007484', '0.011043802', '0.043289356', '0.020497765', '0.021604849', '0.04198732', '0.035334513', '0.104276635', '0.06017981', '-0.026733918', '0.032425124', '-0.02350862', '0.023316126', '0.029134862', '0.005737563', '0.053571824', '-0.023113476', '-0.05646969', '0.009805207', '-0.007319284', '-0.017002657', '-0.044238266', '0.07306006', '0.0007167785', '-0.051421184', '-0.023218049', '0.014521537', '0.006983695', '0.0005008265', '-0.020107366', '-0.033664163', '-0.00056472764', '-0.05242725', '0.034933742', '0.083886035', '-0.0061930134', '0.010068748', '-0.00793489', '-0.020459972', '-0.026571307', '0.048669454', '-0.030239124', '0.013812187', '0.023105117', '0.034407813', '0.014257918', '0.013265044', '-0.036218967', '0.065074466', '-0.022736654', '-0.009090999', '-0.016666554', '-0.013726051', '-0.045518525', '-0.040957235', '0.021575605', '0.035130136', '-0.039012197', '0.033120826', '-0.01926536', '-0.059794635', '0.037334587', '0.05684404', '-0.030063039', '-0.0007895989', '0.033784397', '0.031159882', '0.041449405', '-0.009573701', '0.003956507', '0.001321709', '0.014831656', '0.003969398', '0.1007968', '0.036521483', '0.08302288', '-0.02781019', '0.0017902976', '-0.032281037', '-0.05392114', '0.017603777', '-0.015094639', '0.04294841', '-0.011362438', '-0.035551626', '0.027903233', '-0.026493883', '0.025529824', '0.034254782', '0.020833127', '0.03691446', '0.09752969', '0.051738165', '0.031996146', '0.021098632', '-0.048188042', '0.035214454', '0.0065343906', '-0.02187391', '-0.006798859', '0.036022443', '0.04764542', '-0.04321084', '-0.02669437', '0.021511124', '0.0026989207', '0.02426021', '0.032871068', '0.017729262', '-0.001244438', '0.020691767', '-0.023502793', '0.0031353086', '-0.0007702223', '0.03273271', '0.015234606', '-0.0017224016', '-0.021551589', '-0.015333878', '-0.008312523', '0.016917199', '0.04733825', '-0.060717255', '-0.016572097', '-0.008698829', '0.017606992', '-0.04825387', '-0.031703293', '0.01962733', '-0.09437293', '-0.04268684', '0.03883351', '-0.018917723', '-0.002285253', '-0.0026482022', '-0.04713905', '0.01195811', '-0.0014888541', '0.00413008', '-0.013437285', '-0.019567233', '0.011067678', '0.019425709', '0.025251694', '-0.024095768', '0.037757963', '0.0306217', '-0.01942989', '0.07210936']
8, ['-0.050498016', '-0.016657542', '-0.016927442', '-0.014438642', '-0.007149439', '-0.040896073', '-7.600938e-05', '0.0026617593', '-0.02460723', '-0.022758601', '0.00964368', '-0.009018804', '-0.0083848825', '-0.037923977', '-0.031908654', '-0.06553347', '-0.028823866', '0.02625686', '-0.017895194', '-0.041910578', '-0.019341413', '-0.0068223383', '-0.02098769', '-0.048301738', '-0.043859173', '-0.020239273', '0.037346102', '0.018153157', '0.043316577', '0.024190564', '0.00683142', '-0.0090926215', '-0.044206176', '-0.010276262', '0.035108928', '-0.057441782', '-0.042771675', '0.013875392', '0.02017493', '0.03394259', '0.00450248', '0.026208576', '0.0050316374', '-0.012843193', '-0.0055525554', '-0.0007173093', '0.017063778', '-0.051667094', '0.060356177', '-0.0064461525', '0.023959931', '0.015924549', '0.03758055', '-0.06718576', '0.05850463', '0.03428841', '0.044444293', '-0.050291985', '-0.029379496', '-0.018953742', '0.033846743', '0.018043185', '-0.030979492', '-0.024040135', '0.030411787', '-0.01740128', '0.045449622', '-0.031318318', '-0.025710396', '-0.035747018', '0.0042065284', '-0.037863515', '0.052852288', '0.045421675', '-0.024212891', '-0.037154872', '0.009554505', '0.0041376543', '-0.008995594', '-0.0024538902', '0.02392362', '-0.0036568742', '-0.018017791', '0.0131247835', '0.039504584', '-0.042476382', '-0.02756948', '-0.01078852', '0.000544117', '0.0025293576', '-0.080522165', '0.047511186', '0.0576933', '0.012200968', '0.016880209', '0.04627749', '0.02443257', '-0.048206523', '0.030376479', '-0.03722913', '0.03176497', '0.013628283', '-0.0034591097', '-0.046469685', '0.0035854892', '-0.0005908862', '-0.03112922', '-0.039789043', '-0.00833084', '0.048754744', '-0.001133626', '0.009954972', '-0.01678556', '0.0016165859', '0.023991102', '0.028216116', '0.008138684', '0.036918327', '0.03773423', '0.0115861995', '-0.012811491', '0.036686826', '-0.041067734', '0.027034199', '0.018599978', '0.0036025322', '0.009308495', '-0.045608867', '-0.008709582', '0.024754968', '-0.037230544', '0.02672055', '-0.010010018', '0.0303632', '-0.025810668', '-0.009025091', '0.059218828', '0.024716774', '-0.02310751', '0.0322537', '-0.021704733', '0.041629322', '0.015783576', '-0.061083436', '-0.00835544', '-0.04163506', '0.019235922', '0.0534319', '-0.043317366', '0.030253835', '-0.06879186', '0.0054304088', '-0.005071799', '-0.024579085', '-0.030351162', '0.04998695', '-0.0051873815', '-0.007977013', '-0.013179862', '0.023594508', '0.035569515', '-0.017470315', '0.022826804', '0.022188192', '0.017086918', '-0.005838009', '0.01679269', '-0.012127794', '0.0009472706', '0.04927445', '0.04675462', '0.019935379', '-0.05321271', '0.025520923', '0.027663305', '-0.020711862', '0.03383767', '0.007649632', '-0.044143047', '-0.047582995', '-0.02213304', '-0.018688863', '0.04302825', '0.006651749', '0.008265788', '-0.036251124', '0.0017551794', '-0.0029182467', '-0.011022135', '-0.033310413', '-0.00359656', '0.011404814', '-0.028433546', '-0.022950679', '0.024795778', '0.043438897', '0.007884519', '0.009390169', '-0.015652893', '-0.017484171', '0.070464715', '-0.03721698', '-0.023804262', '-0.008128523', '0.04800614', '-0.00018808876', '-0.035211656', '0.047313474', '0.028641865', '-0.050053727', '0.019856323', '0.042157546', '-0.022606818', '-0.0076849232', '0.0030698234', '0.02868841', '0.063550785', '-0.060013693', '0.013517901', '0.05165368', '0.033149607', '-0.0034757028', '0.05665001', '0.020786373', '0.026479688', '0.025613133', '0.041063767', '0.031152591', '0.0025422627', '0.035543814', '-0.035976876', '0.011821935', '-0.0020946844', '-0.0068519074', '0.015633926', '-0.013541364', '0.0019728', '-0.04053278', '0.010943425', '-0.022776455', '-0.04492465', '-0.0041610827', '-0.023535125', '0.011767014', '-0.006473905', '-0.035997577', '-0.0048873466', '0.04496782', '0.021206545', '0.014426728', '-0.0012128338', '-0.042893194', '-0.02612211', '-0.011015765', '0.0013299109', '-0.026491983', '-0.022392763', '-0.042015944', '-0.016638659', '-0.041093986', '-0.038875487', '0.04056524', '-0.06808761', '0.022608675', '-0.065746464', '-0.0090092', '-0.004773995', '-0.034295704', '-0.014224707', '0.08264474', '-0.053754073', '-0.020519203', '0.016854232', '-0.008001364', '0.016802212', '-0.040457398', '0.0113790035', '-0.054771185', '0.0129227955', '-0.038038112', '-0.021433752', '-0.024978312', '-0.03366727', '-0.004135172', '0.018456075', '0.015417206', '-0.008363174', '-0.07143478', '-0.011621687', '0.012425083', '-0.018033117', '0.07069027', '-0.03679814', '0.06427471', '0.01867216', '0.039985664', '0.05934745', '-0.0071313404', '-0.018739179', '0.025043963']
9, ['-0.022312855', '-0.041772965', '0.025290934', '0.035133656', '-0.0065369885', '0.024680654', '0.026798056', '-0.08339287', '0.0012942665', '0.0125201', '0.013947043', '-0.017602487', '-0.07238569', '-0.06647525', '-0.06945892', '-0.031606648', '-0.0050607785', '0.00976693', '-0.027319323', '0.060172606', '0.0014520139', '0.052337658', '-0.00021300105', '0.0029435523', '0.0067686625', '0.03400512', '0.042237476', '0.03107251', '0.020159509', '-0.04932714', '0.034300502', '0.031011945', '-0.033124227', '0.040559776', '0.013239254', '0.018260662', '-0.014720189', '-0.03908213', '0.020584254', '-0.05914622', '-0.009762327', '0.026446357', '-0.031018656', '0.022078628', '0.015137485', '0.0025747854', '0.021944221', '-0.0030240119', '0.0056387796', '-0.01543147', '-0.07428884', '-0.07079545', '-0.051657073', '0.0011159503', '0.008415363', '-0.0037959192', '0.06129813', '-0.02053293', '0.06976789', '0.016260834', '-0.012313407', '-0.03177945', '-0.02771232', '0.031462226', '0.037629772', '0.02212385', '-0.08341433', '0.03147992', '-0.0362053', '0.021669602', '-0.012328682', '0.0071531013', '-0.026883833', '-0.06269751', '0.0056352005', '-0.07245347', '-0.002167499', '0.042085275', '-0.01157348', '0.023361344', '-0.03751847', '-0.04030405', '0.020248339', '0.036263507', '0.020522768', '0.0031499795', '-0.04517114', '-0.027836103', '-0.066684954', '-0.012446186', '-0.015299234', '0.05408109', '-0.008373403', '0.0049644345', '-0.00022720445', '3.136851e-05', '0.0044025253', '0.037896816', '-0.026174337', '-0.0061899954', '0.03231958', '-0.02366463', '-0.010871202', '-0.017211933', '0.030337907', '0.005932482', '0.004756141', '-0.012184192', '0.03874516', '0.045631096', '0.0024691927', '-0.03453947', '-0.027242392', '0.095629595', '0.048019372', '-0.013195167', '0.023309935', '-0.04641518', '-0.025544632', '0.05491876', '-0.019111214', '0.014681474', '0.020918112', '0.020501934', '0.0067890934', '-0.040315047', '-0.01804865', '-0.024473054', '-0.03892002', '0.0110351555', '0.0067782355', '-0.011232346', '-0.017972365', '-0.029014433', '-0.012302163', '-0.025689317', '0.033122525', '-0.03426267', '0.008107012', '-0.0017489609', '0.0030236805', '-0.078239635', '-0.021196274', '-0.018007277', '0.060817376', '0.03310883', '-0.03285901', '-0.035784848', '-0.041187964', '0.029854596', '-0.006266904', '0.023161108', '0.018827446', '0.018507816', '0.0027181439', '0.023491804', '0.0047048125', '-0.021928133', '0.04089567', '-0.012604439', '-0.019922292', '0.014321014', '0.02449341', '0.0029181766', '0.030046549', '0.025549034', '0.03849583', '0.047670472', '-0.041478943', '0.04236', '-0.029203271', '-0.016037596', '-0.011497838', '-0.043099966', '0.07435708', '-0.030099995', '0.074485436', '-0.021012468', '0.0775467', '-0.002134736', '-0.010183165', '-0.0030780782', '0.0050338684', '-0.009544307', '-0.0010206967', '0.015118256', '0.014602439', '-0.0034680485', '0.0033991493', '-0.025445467', '0.0015145121', '0.01804986', '-0.05888821', '0.024003185', '0.009673924', '0.027235823', '-0.022998553', '0.05138981', '-0.008666747', '-0.0019081138', '-0.0032221489', '0.04705966', '-0.016447091', '0.068782955', '0.010294702', '0.016538806', '-0.034093764', '0.0012365835', '0.030486623', '0.015352885', '0.00484803', '-0.046674866', '0.0060674706', '0.015121968', '-0.012468314', '-0.034433395', '0.04161932', '0.01499778', '-0.015471567', '0.011421652', '-0.004776094', '0.0043169516', '0.009169408', '0.04970587', '0.0059123375', '0.018161276', '-0.058240253', '-0.0051927543', '-0.008905148', '-0.0070296573', '-0.0404045', '0.0016554852', '0.016399711', '0.012952216', '0.08426566', '-0.0011052217', '-0.012803056', '-0.017324757', '-0.008852285', '0.007654612', '-0.034773163', '-0.0008237052', '0.013367013', '-0.02298549', '-0.03716716', '0.029959928', '-0.016468178', '0.037513305', '0.00021255012', '-0.032433793', '-0.025653122', '-0.002161895', '-0.005391773', '-0.040734746', '-0.028300535', '0.007750241', '0.028480506', '0.032000035', '-0.022317635', '0.01746686', '-0.06887555', '-0.012972383', '0.025594953', '0.00534268', '-0.08168578', '-0.026170922', '0.027578548', '-0.014299945', '0.005357421', '-0.0253547', '-0.009419847', '-0.016496161', '-0.020279592', '0.0022117952', '0.052023377', '0.006747448', '0.040733818', '0.03181057', '-0.045840725', '-0.021335563', '0.039304174', '0.014871943', '0.013881494', '-0.039793175', '0.00038314867', '0.0017079477', '0.009367259', '0.016155759', '0.045996293', '-0.033820093', '-0.023760429', '-0.0014494671', '-0.0123390155', '0.04222683', '0.035039175', '-0.031723965', '-0.032389145', '-0.0034925202', '-0.07272077', '-0.016618107']
10, ['0.018349232', '0.040494237', '-0.085655086', '-0.00017953478', '0.013579761', '0.027815782', '-0.00648385', '0.013354599', '-0.035490453', '-0.05990668', '0.028111681', '0.0068203374', '0.0015901725', '0.04308771', '0.005953857', '-0.012507761', '0.07883531', '-0.013481405', '0.0048125368', '0.0030193194', '-0.025789244', '0.009411618', '-0.042471338', '-0.0059664226', '0.046708778', '-0.022632228', '0.04606282', '0.028281704', '0.008424427', '0.038826786', '-0.05206039', '-0.020936444', '-0.034311175', '0.027967043', '0.040410522', '-0.027594427', '-0.014287955', '0.036898527', '-0.074626', '-0.012543308', '-0.038802166', '0.009477949', '0.020227471', '0.0392007', '-0.076479085', '0.0027055407', '-0.04479082', '0.015287304', '-0.0012602605', '-0.024698822', '0.026332846', '0.010432578', '0.011936521', '0.024468772', '0.04021116', '0.024604037', '0.027621718', '0.007218973', '-0.067215815', '0.0031729902', '-0.019930104', '0.016418668', '0.022277389', '0.001897792', '-0.065722734', '-0.014046521', '0.004001317', '-0.006515223', '0.057350833', '0.012773758', '0.015307016', '-0.005143456', '-0.015342896', '0.0033148034', '0.009394157', '0.016270403', '0.018608449', '-0.0034804612', '-0.0007185361', '0.014432081', '0.007792421', '-0.012014337', '0.024008846', '-0.06857988', '-0.039113954', '0.023636637', '-0.03407483', '0.026742762', '-0.014888112', '0.051102515', '0.017084016', '-0.034087766', '0.032562245', '-0.011320355', '-0.015140582', '0.023541458', '0.028727653', '0.0046062195', '-0.015833251', '0.03382457', '-0.025444843', '0.0012759592', '0.07328463', '-0.046105884', '-0.052893307', '-0.012568341', '0.020049552', '0.031011317', '-0.002050888', '0.019122465', '0.036848657', '0.017649652', '-0.00534355', '-0.01174958', '0.020065246', '0.039971467', '-0.04307861', '0.02861178', '0.03433069', '0.026803466', '0.036988486', '0.035268717', '-0.015715957', '-0.04892515', '0.048081', '0.019375794', '0.043640275', '-0.0498017', '-0.029032933', '-0.05917401', '-0.05333357', '-0.017306153', '0.010791012', '-0.024494028', '-0.0786429', '-0.006753418', '-0.027585339', '-0.013132697', '-0.002268642', '-0.06836086', '0.044848736', '-0.011268651', '-0.013565515', '0.013139802', '-0.010029628', '-0.015925867', '-0.0008953878', '-0.02628484', '-0.030884696', '0.014455582', '0.04197551', '0.02993712', '-0.024732416', '-0.060829476', '-0.021571243', '-0.0096972585', '-0.017879482', '-0.042795636', '0.027560636', '0.00673068', '0.035831228', '-0.03341503', '0.008490771', '-0.085398056', '0.10081628', '-0.042307265', '-0.014860036', '0.047946233', '0.009820869', '0.021393215', '-0.0023696814', '0.008007718', '0.010264866', '-0.005354007', '-0.05464062', '-0.025299167', '0.048862983', '0.0145095065', '-0.0086682', '0.017551027', '0.0014668024', '-0.016500626', '0.00045632044', '-0.006161607', '-0.0423577', '-0.027881755', '0.027437028', '0.021890562', '-0.0052116467', '-0.0016971896', '0.030696502', '-0.004889167', '-0.03022426', '0.030889912', '-0.04226534', '0.0024027207', '0.05908558', '0.010117173', '0.016947225', '0.06425867', '0.06701787', '0.018004468', '0.019491661', '0.0029932838', '-0.022098582', '-0.0533158', '0.010090503', '-0.050221343', '-0.009912355', '0.0021885557', '-0.046234388', '-0.018650215', '-0.0027133715', '0.029215086', '-0.109468535', '-0.011237343', '-0.0076405727', '0.027294228', '0.018975182', '0.090340815', '-0.016293785', '0.010649851', '0.0048734564', '0.0019066477', '-0.035360947', '0.041041695', '0.033734206', '-0.011567652', '-0.13069145', '0.0023378613', '-0.061589547', '0.014539671', '-0.04434373', '0.10987908', '-0.07903988', '-0.04074259', '-0.003236969', '-0.005595327', '0.056645274', '0.029576631', '-0.017627914', '0.021852912', '-0.03639696', '-0.04309503', '0.04367406', '0.04498706', '-0.021644067', '-0.032893226', '-0.040299878', '-0.0035690058', '0.06411014', '0.059131686', '0.024131054', '-0.052417785', '-0.021442106', '0.026558658', '0.074884176', '0.020455187', '-0.025075242', '-0.02294307', '-0.048649944', '-0.026925161', '0.020563796', '-0.00021817803', '0.050429333', '-0.024672575', '-0.009457193', '-0.0015755777', '0.046870086', '-0.049035322', '-0.03152242', '0.008937373', '-0.06288476', '0.04847871', '0.012275183', '0.0026987263', '0.030266967', '-0.04863223', '0.00209992', '-0.02028678', '0.016671857', '0.0047913766', '-0.04685855', '-0.03883178', '0.011290481', '-0.028756555', '0.071075715', '-0.0036261631', '-0.08275237', '0.021289214', '0.051769357', '-0.017755823', '0.009105611', '-0.027139237', '-0.021112865', '0.012888349', '0.0021519514', '0.09322646', '-0.016179552', '0.024556966']
11, ['0.007094329', '-0.041548077', '-0.009347404', '-0.062371224', '-0.02573934', '-0.029953633', '0.0136261275', '-0.04851085', '-0.042736184', '-0.02958769', '0.029289506', '0.00928831', '-0.030326523', '0.015726892', '0.006978577', '-0.031033065', '0.043608915', '-0.007238765', '0.032333877', '0.028580235', '0.02757467', '-0.024399508', '-0.0025144762', '-0.03214529', '-0.013173103', '0.009674706', '-0.021948589', '0.03612775', '0.025690675', '0.031054242', '0.025772322', '0.06650215', '-0.02822303', '0.063721485', '0.052198894', '0.005344088', '-0.0014025804', '-0.041510947', '-0.05348819', '-0.02542196', '-0.0607415', '-0.028129995', '-0.03996128', '0.032645505', '-0.045941614', '0.047135543', '-0.01290073', '-0.04518018', '-0.008763682', '-0.029394552', '-0.007117332', '-0.057230417', '-0.041074026', '0.02560268', '0.009527213', '0.038627397', '0.012414924', '0.0073954575', '-0.0017246832', '0.011861547', '-0.01344323', '-0.04652806', '-0.11341098', '0.05316104', '-0.030237524', '-0.0032200632', '0.017240005', '-0.06548238', '-0.09195405', '-0.0373925', '-0.03014358', '0.037119843', '-0.035985325', '0.055881124', '-0.0053401054', '-0.007933056', '0.034304183', '-0.031224843', '0.0034300745', '0.09995172', '-0.0003192121', '-0.040994503', '0.0017588111', '0.018381912', '0.007948926', '0.014265889', '-0.026893774', '-0.045304403', '0.0017003895', '-0.03086261', '-0.020360976', '-0.013091382', '-0.04718897', '0.028867649', '0.03468377', '0.027921176', '0.0071388166', '-0.017488368', '0.023553215', '0.034195382', '0.006225454', '-0.012910644', '0.06514252', '-0.023677833', '0.033609726', '-0.00548609', '-0.07249714', '0.016800573', '0.015752178', '-0.00900456', '0.0028546327', '0.018091675', '-0.0014541562', '0.07037671', '0.044293627', '-0.06616884', '-0.07162558', '0.02009673', '-0.04326327', '-0.03748641', '0.003286302', '-0.0046789646', '-0.024263516', '-0.030683212', '0.044654243', '0.008310315', '-0.04256667', '-0.0017604858', '0.030891424', '-0.056235928', '-0.0037557099', '0.01818815', '-0.019961461', '-0.021224372', '0.034192447', '-0.059023444', '0.015943905', '-0.029638357', '0.008083781', '-0.024952378', '-0.019350294', '-0.05462543', '0.010812357', '-0.025431607', '0.054117788', '-0.0879155', '0.02506943', '0.012418421', '-0.01802242', '0.06677581', '-0.03192026', '-0.049465407', '0.014920926', '-0.01625723', '-0.016537916', '-0.018753659', '-0.021839464', '0.052316025', '0.05842502', '0.019826347', '-0.04093811', '-0.010228377', '0.03546646', '-0.0769786', '-0.062058996', '-0.035725813', '0.00685391', '-0.012239991', '-0.010482592', '-0.015644895', '0.03334508', '-0.09811872', '-0.0042267423', '-0.0070191473', '0.030687232', '0.034425545', '-0.035846528', '-0.036424078', '0.024169143', '-0.031000786', '0.07305944', '-0.023358319', '-0.0031747688', '-0.0051188036', '0.06470638', '-0.014983802', '-0.0040470487', '0.05622574', '0.054793514', '-0.0051470953', '0.068484336', '-0.013414452', '0.02389603', '-0.0044364003', '0.00079399353', '-0.0009163176', '0.021065718', '-0.023339665', '0.011655936', '-0.009048041', '-0.017967077', '-0.05424811', '-0.015248173', '0.039518543', '0.04265348', '0.062021747', '0.01255852', '0.050956205', '0.0012387846', '-0.0039982987', '-0.0629026', '-0.08167649', '0.010625275', '0.06863989', '-0.059668534', '0.0044015865', '0.019388827', '-0.06387777', '-0.028797315', '-0.0031117264', '0.031139925', '-0.033997886', '0.0355513', '0.015962256', '-0.017766124', '-0.023060277', '-0.021798374', '0.03297512', '-0.05503706', '0.05402801', '0.012791144', '-0.03336193', '-0.010674877', '-0.023987416', '0.04768974', '0.0019319709', '0.029692778', '-0.008616872', '-0.04142077', '-0.012076848', '0.004040083', '0.027091485', '-0.05554507', '-0.008126911', '-0.026923899', '0.014567681', '0.01762503', '0.02099139', '-0.0077562593', '-0.011993376', '-0.014188784', '-0.014928157', '-0.022751544', '-0.02343615', '0.0014998991', '0.010059941', '0.009194984', '-0.019156843', '0.043234717', '0.035531852', '-0.0017854397', '0.028996522', '-0.00558359', '-0.10155935', '-0.06681866', '-0.039052498', '0.027651735', '0.05544147', '-0.017828785', '-0.047616787', '0.009312794', '-0.003930953', '-0.031729456', '0.028701806', '0.015506623', '-0.013347049', '-0.038655866', '0.032381188', '0.031346973', '-0.011287588', '-0.034021683', '-0.03740852', '0.022259094', '0.015629638', '0.030498153', '-0.06944958', '-0.01626707', '0.008196516', '-0.014215329', '-0.042863052', '0.032559913', '0.01628949', '-0.024424506', '0.02475765', '-0.035476875', '0.019554315', '-0.061304595', '0.048837963', '-0.012724703', '0.004314674']
12, ['-0.05818722', '0.02407008', '0.07402071', '-0.013831966', '0.039255273', '0.011796664', '-0.029863352', '-0.041967127', '-0.048168644', '-0.01315604', '-0.0677422', '0.0023376134', '0.020982124', '0.01693376', '-0.0071582277', '0.06361724', '0.048863225', '0.0065366677', '-0.049116272', '-0.054735087', '0.0052228705', '0.004461144', '-0.044393364', '0.025278393', '0.069221444', '-0.06346211', '-0.010452362', '0.041510433', '-0.003856349', '-0.021551259', '-0.0033273995', '0.12236958', '0.03200926', '-0.039448094', '0.015736468', '0.0009003362', '0.009269554', '0.030790532', '-0.01664232', '0.06998716', '-0.06094497', '-0.004691051', '0.008259116', '0.021589795', '-0.008638003', '0.024561675', '-0.049269404', '-0.04255059', '-0.007942023', '-0.020319846', '-0.020038044', '-0.016220735', '-0.0077825906', '-0.0439333', '-0.060810346', '0.041838903', '-0.07947635', '-0.019911945', '-0.040591016', '-0.004582309', '-0.010574634', '0.07725246', '0.04440952', '-0.0077343257', '-0.013778966', '0.0067927195', '-0.007139665', '-0.02422167', '0.009341899', '-0.02928533', '0.011023557', '0.012380389', '-0.002802271', '0.024352938', '-0.014187062', '0.011555235', '0.02538866', '-0.050822128', '-0.036648158', '-0.026572363', '-0.022237763', '-0.002055398', '0.029396102', '0.032462463', '0.021053486', '0.008791759', '0.06817101', '0.013497057', '0.02784398', '-0.011851723', '0.0020539071', '0.010586208', '0.016689677', '-0.033164315', '-0.04116245', '-0.013692451', '-0.02729389', '0.021731012', '-0.033958018', '-0.07426331', '-0.03561653', '-0.014497306', '0.01427315', '0.0069995243', '0.002720313', '0.041307773', '-0.030938886', '0.031389866', '-0.039512005', '0.0331285', '0.020268746', '-0.02267107', '-0.0017957385', '-0.020989256', '-0.024433935', '0.018149551', '0.040767033', '0.04004391', '0.0069004735', '-0.001396119', '-0.07984289', '0.042532332', '0.0010469717', '0.05546033', '-0.0015158886', '-0.007795127', '0.022517415', '0.0084116375', '0.073582515', '-0.03110875', '-0.02528625', '-0.009929901', '0.01886931', '0.020141123', '-0.006986732', '-0.04281576', '0.02934737', '-0.0014885656', '-0.013620954', '-0.016377885', '0.030337289', '0.010499378', '-0.020508831', '-0.08256215', '0.021300144', '0.023688663', '0.017639557', '0.007993988', '-0.05718927', '-0.009128555', '-0.042849366', '-0.025669726', '-0.02008469', '0.01176297', '0.025963513', '-0.04303622', '-0.07280534', '0.041396983', '-0.017242065', '0.04013406', '-0.06774349', '0.020371716', '0.030538311', '-0.022813372', '-0.03389798', '0.04343213', '-0.016731158', '-0.038276695', '0.045091465', '0.027691856', '0.024952129', '-0.0019349611', '0.04425814', '-0.025300922', '-0.06854061', '0.013627042', '0.03326351', '-0.052549746', '-0.04615906', '-0.0138048595', '0.03487164', '-0.010731693', '0.02114959', '0.026922483', '0.018529724', '0.028768638', '0.010243865', '-0.012161105', '-0.0056501753', '-0.021208115', '-0.007808443', '-0.029283706', '-0.04221245', '0.021869252', '0.021736922', '-0.012512259', '-0.0025227298', '-0.07530993', '-0.013104514', '0.007224176', '-0.027336493', '0.021656686', '-0.014158809', '0.03990028', '0.054640297', '0.0012604786', '0.038797893', '-0.040692635', '-0.034250133', '0.033621192', '0.02083261', '-0.04719997', '-0.022692079', '0.006848653', '0.02168703', '0.036718413', '-0.01111248', '-0.022353897', '-0.006261779', '0.0050031655', '-0.014392757', '-0.026553405', '-0.027769072', '0.071677186', '0.014598092', '-0.025339935', '-0.018184742', '0.013908886', '0.031995416', '0.04134915', '0.012477873', '0.012513418', '0.015195838', '-0.020742625', '-0.020533621', '0.028890735', '0.0040420666', '0.004038015', '0.014735499', '0.013830144', '-0.02281334', '-0.019902036', '-0.031370696', '0.060438853', '-0.011787736', '-0.015103092', '-0.015868166', '0.010503245', '0.03741008', '-0.0017314454', '0.028342094', '0.026134184', '0.01746658', '-0.00420635', '0.07530499', '-0.00889428', '0.06810655', '0.022141404', '0.025412798', '-0.004966617', '0.06887312', '0.014279457', '-0.019209843', '-0.057570107', '-0.066744156', '-0.00020195651', '-0.046696037', '0.00064470107', '-0.03035216', '0.011793004', '-0.015090357', '-0.031852912', '0.04111845', '0.030778326', '-0.009062912', '-0.020800956', '0.03052569', '-0.015211836', '-0.026635742', '0.02761444', '-0.094891034', '-0.03612111', '0.0013238889', '-0.04879601', '-0.011205705', '-0.00069766556', '-0.022798587', '-0.03585847', '-0.03368336', '-0.017458914', '0.0559654', '0.0024440929', '-0.013003403', '0.02818039', '-0.037662733', '-0.010866101', '-0.017392967', '0.016304934', '0.030017005', '0.029494558']
13, ['0.011531008', '0.010774299', '0.026081547', '0.0013832978', '0.018650036', '-0.009644457', '0.004623179', '-0.05820648', '-0.0033083316', '0.0020348737', '-0.032514058', '0.06907448', '-0.071158126', '0.014190551', '0.00386011', '0.010518897', '0.028824436', '-0.008973768', '-0.04070085', '-0.087063536', '-0.021212123', '0.049759384', '0.037117813', '-0.028417498', '0.048812468', '0.018090373', '0.025809092', '-0.05728015', '-0.019528793', '-0.013593855', '0.036098633', '0.03175625', '-0.037598588', '-0.032784455', '0.020158824', '-0.0022489422', '-0.025388451', '0.05745637', '0.020965748', '-0.024976581', '-0.08418502', '-0.011364984', '0.005439218', '0.015639752', '0.008143885', '-0.00069907686', '-0.053676784', '-0.04586262', '0.013483916', '-0.014029096', '-0.0952739', '0.012554678', '-0.007275718', '0.001966753', '-0.05783762', '-0.04828013', '-0.0154324435', '0.09194477', '0.019848073', '-0.028542558', '0.020440314', '-0.0035146724', '0.028293196', '0.013528511', '0.016140344', '0.026974037', '-0.0013257329', '-0.05549428', '-0.0073431293', '-0.006475338', '0.063436754', '-0.055766486', '-0.051138893', '-0.012623889', '0.032094393', '0.0056223883', '0.042531915', '0.00045824912', '-0.046231754', '0.0025022326', '-0.044823095', '0.050543692', '-0.0069730375', '0.028527355', '-0.026335834', '0.004184829', '-0.0064057373', '-0.023702228', '-0.025520427', '-0.0055515203', '0.004649786', '0.029452931', '0.006160876', '0.042733625', '-0.014546931', '0.051649474', '0.03793615', '0.024113165', '-0.045837615', '-0.028146602', '0.0024606986', '-0.0499004', '-0.022751048', '-0.015392315', '0.07652438', '0.01136362', '-0.0095214145', '0.034818545', '0.02494569', '0.049270827', '-0.04596436', '0.0059817387', '0.008275435', '0.0089446455', '-0.019513244', '0.013817034', '0.01158641', '-0.057843093', '-0.021967435', '-0.022950824', '0.013554636', '0.013601202', '0.037933055', '0.00697473', '-0.026136609', '-0.03443857', '-0.011899937', '0.0027032008', '0.007825942', '-0.023882456', '-0.026515244', '0.008183131', '-0.017261164', '-0.011433598', '0.020739174', '-0.012421904', '-0.0010209259', '0.02487295', '-0.07834737', '-0.07007866', '-0.01000454', '0.0032798962', '-0.01780017', '0.057159618', '-0.024166703', '0.014267856', '0.006909725', '0.0026389696', '-0.03568197', '-0.089572445', '0.017801624', '-0.03921549', '-0.010179121', '-0.04334497', '-0.045153715', '0.021112716', '0.023165004', '-0.051470574', '0.014613072', '0.008668617', '-0.022133445', '-0.004600118', '-0.03213742', '-0.011062792', '0.022373026', '0.033686798', '-0.031185452', '-0.05587219', '0.016573908', '-0.014810957', '0.01564651', '-0.00662397', '0.004214005', '0.012748508', '0.0046879835', '0.012299705', '0.024376547', '-0.025932273', '-0.021422887', '0.00372618', '-0.071063444', '0.017824672', '0.014428905', '-0.061224874', '0.043567877', '-0.047416765', '0.02200747', '0.016614934', '0.027666941', '0.033325408', '0.008490236', '0.03536168', '-0.032368846', '0.00042083202', '-0.06505832', '0.0077517703', '0.0112643875', '-0.007373675', '-0.010512031', '-0.037609976', '0.023640625', '-0.0077987504', '-0.009692809', '0.016198276', '-0.027897608', '-0.042495847', '-0.020187505', '0.0046575563', '0.04287135', '0.019327454', '0.032815535', '-0.018095829', '-0.0020907836', '0.027233366', '0.043952078', '-0.039663184', '-0.024271665', '0.04806492', '-0.026643204', '0.006548067', '0.052907158', '-0.0266423', '0.020172711', '0.050118797', '0.033798918', '-0.00096844224', '-0.014928504', '-0.015780794', '-0.008197842', '-0.017915754', '-0.04420307', '-0.060875233', '-0.005562652', '0.041648638', '-0.0011203539', '0.01563026', '0.022661025', '0.05681956', '0.03291074', '-0.01922018', '-0.011800306', '0.050255533', '0.017856011', '0.008621577', '-0.05013218', '-0.041883256', '0.051986825', '-0.005534848', '0.06708818', '-0.042907696', '0.031983223', '0.030065298', '-0.033206884', '0.0061939247', '0.028311778', '0.026828488', '0.052267544', '0.005064988', '-0.020349685', '-0.00034977074', '-0.035624534', '-0.005122176', '0.04387298', '-0.0071566305', '-0.045989614', '0.070192546', '0.022743756', '0.034279753', '-0.037562992', '-0.013433567', '0.016368177', '-0.044120442', '-0.00462975', '0.0020116635', '-0.02767231', '-0.03388223', '0.059182048', '-0.020926176', '-0.025258813', '-0.003596231', '-0.022469282', '-0.0015679182', '0.039578628', '0.0033198076', '-0.0251111', '0.006089357', '0.024349814', '0.0016134795', '-0.016741736', '-0.007663316', '0.013563787', '0.0024214908', '-0.0058800722', '0.03081544', '0.033009075', '0.0057481285', '0.02129364', '-0.0024895333', '0.013262527', '0.025277194']
14, ['-0.0074501685', '0.003183765', '0.02758065', '0.028024342', '0.039277542', '0.04130925', '0.008827529', '-0.03720549', '-0.06006034', '-0.039502252', '0.0471005', '-0.0041303365', '0.06802352', '0.060382847', '-0.024882657', '-0.027413048', '0.01563043', '0.025508258', '0.021779256', '0.028422674', '0.02124038', '0.017201182', '0.0061156317', '0.048604134', '-0.020580485', '-0.03939398', '-0.02239756', '0.09115736', '-0.009688482', '0.056111135', '0.029286075', '-0.02445381', '0.019369334', '0.089556865', '-0.0052866344', '-0.007837708', '0.027614478', '-0.07850759', '-0.036565017', '-0.044773735', '-0.020805886', '-0.0153393755', '-0.0649941', '0.069745995', '0.019479886', '-0.010521266', '-0.01357041', '-0.0039617983', '-0.0134926615', '-0.05676673', '0.013226654', '0.018080596', '-0.01448031', '0.014892419', '-0.0021942006', '-0.004424733', '0.07983504', '-0.026249105', '0.07434288', '-0.0063410923', '0.023420757', '-0.03205352', '-0.020870421', '0.066399656', '0.0015590676', '0.0024021314', '0.010111118', '0.03775876', '-0.022697922', '0.00939375', '-0.023232931', '0.060745426', '0.029816676', '0.01846001', '-0.043373223', '-0.029296424', '-0.041131634', '0.024907432', '-0.0035143234', '0.019459259', '-0.0049329833', '-0.107459314', '-0.058988903', '-0.03745272', '0.028016245', '-0.03485029', '-0.058641937', '-0.0021390885', '0.019411046', '0.05303785', '-0.06668907', '0.02308184', '0.020968327', '-0.057777524', '-0.048576575', '-0.011141025', '-0.040973645', '-0.05697068', '0.008649541', '-0.021506669', '-0.00025204435', '0.04412094', '0.07698104', '0.015520625', '-0.026562892', '0.036570944', '-0.037544645', '0.06148395', '0.02837861', '0.016246218', '-0.0022101607', '-0.044392597', '5.579739e-05', '0.026412005', '0.0226844', '0.044996276', '0.043675743', '0.028450536', '-0.025053257', '0.05834371', '0.0020366237', '-0.017269796', '-0.05383172', '0.06595248', '0.028139088', '0.044594236', '-0.02743843', '0.05533651', '-0.017831126', '0.031826545', '-0.016015276', '-0.015914492', '-0.06910118', '-0.019195396', '0.0035311766', '-0.032220732', '-0.035368063', '-0.094162874', '0.02438052', '0.06778087', '0.019688694', '-0.016163953', '-0.0053282776', '-0.07149356', '-0.01426462', '-0.0393646', '0.03471578', '-0.021814266', '0.030393597', '0.010013881', '-0.04480646', '0.02580552', '-0.0248877', '0.031882614', '-0.0060219145', '0.041029543', '-0.031750973', '0.011870264', '0.06776732', '0.045058288', '0.011444616', '0.0013971248', '0.073357426', '-0.020571278', '0.034640606', '0.014058521', '0.07643318', '0.022844542', '-0.039881106', '-0.023984918', '-0.0032612637', '0.015665375', '-0.0150446575', '-0.0002946455', '0.013810069', '-0.01100258', '0.015958505', '-0.023745226', '0.0067104804', '-0.008974386', '0.0050318046', '-0.021563979', '-0.040947948', '0.059915703', '0.03673339', '-0.0043924754', '-0.0013027405', '0.004205033', '0.057602745', '-0.012772247', '0.05642075', '0.0145433275', '0.026623305', '0.026654067', '-0.053458862', '0.069300435', '-0.045536894', '0.0039753695', '0.032816812', '0.07141562', '-0.005868447', '0.051295232', '-0.01972853', '0.039301462', '0.04072226', '0.039140884', '-0.009882199', '-0.0034023756', '-0.021479582', '-0.009527105', '-0.031695746', '-0.027327465', '-0.022123164', '-0.0085107945', '-0.039193615', '0.01508322', '0.04661322', '0.0016623929', '0.07955516', '0.06747257', '0.02516878', '-0.043267854', '0.034726944', '-0.018498702', '-0.020230772', '-0.031237226', '0.00091965566', '-0.0056765233', '-0.0505017', '-0.015353702', '0.01053239', '0.025381532', '0.0016999961', '0.030909285', '0.031245315', '0.029599106', '-0.057876192', '-0.02428855', '-0.035231013', '0.0676773', '-0.053654194', '-0.04689568', '0.03072432', '-0.026108053', '-0.0011479848', '0.057787906', '-0.04623608', '0.08501747', '-0.024409676', '-0.0067364876', '0.008111851', '0.000909808', '-0.02173896', '-0.034939036', '-0.009905167', '-0.0026649327', '0.051942542', '0.010668992', '0.046282325', '-0.019351332', '0.017217716', '0.0077850064', '-0.02675274', '0.027234975', '-0.027799927', '-0.03318037', '0.012330592', '-0.043175824', '0.042148102', '-0.029063007', '-0.028332893', '0.020674396', '-0.044136465', '0.025093222', '0.03377789', '-0.0042664316', '0.038387977', '0.025341911', '0.013778877', '0.0040803626', '-0.0016998497', '0.008266281', '0.017430963', '-0.05255226', '0.027808215', '0.039048452', '-0.06116729', '-0.016671428', '-0.013331111', '-0.034738723', '-0.034622617', '0.062845424', '-0.003786451', '0.010332569', '0.0084163435', '0.035538666', '-0.014781962', '0.0103325', '-0.034610495', '0.075217895']
15, ['-0.023078656', '0.05159678', '0.027121946', '0.055742968', '-0.006057872', '-0.011475063', '-0.0034797017', '-0.015996858', '-0.05785809', '-0.017621802', '0.013219588', '-0.004788371', '-0.035837952', '-0.06625786', '-0.008021121', '0.031122575', '0.02550344', '0.022633104', '0.009670814', '0.0049877358', '-0.019609392', '0.056532037', '0.005762243', '-0.021345876', '0.007919202', '-0.054647654', '0.014909663', '0.025091633', '0.001668308', '0.02164145', '-0.011368923', '-0.039470375', '-0.039547138', '-0.0030571306', '0.0019183039', '0.007217149', '-0.07389922', '0.0044547827', '-0.051682293', '-0.044933565', '0.018853048', '0.03992914', '0.04458652', '-0.010755686', '0.041182145', '-0.05774097', '0.007668783', '-0.011957717', '-0.002171595', '0.01933349', '0.013363696', '-0.02380723', '0.0016630234', '-0.044689454', '-0.017128091', '-0.019052023', '-0.016084969', '0.008175939', '0.034137934', '-0.053664215', '-0.003044478', '-0.00020438955', '0.039288763', '0.023247903', '0.007326022', '0.0095465155', '0.024062615', '-0.038426585', '0.037510026', '0.02391062', '0.01628862', '-0.043913692', '0.034318637', '0.0698281', '0.020649754', '0.044267602', '-0.023319688', '-0.0031011966', '-0.019065749', '0.017871674', '0.0045711403', '-0.0047230613', '0.0057578166', '-0.020716922', '-0.03373015', '-0.028848754', '-0.022015432', '-0.027446104', '0.011251371', '-0.009814482', '-0.05812676', '-0.04230726', '-0.018440032', '-0.017107239', '0.0037516165', '0.016612584', '0.014274925', '-0.045196824', '-0.037803184', '-0.053278137', '-0.012766158', '0.015940957', '-0.012146761', '0.050123252', '0.030617349', '0.026625698', '-0.011661865', '0.023334058', '0.03900781', '-0.02169674', '-0.0028714566', '-0.02989047', '-0.013507874', '-0.013527341', '-0.049420066', '0.0031959787', '0.031039124', '0.0065316004', '-0.044112477', '-0.015222802', '-0.052201223', '-0.040162597', '0.048509344', '-0.013507677', '-0.07171223', '-0.005270344', '0.028291585', '0.025830686', '-0.006848817', '-0.0021264406', '0.029638413', '-0.048044436', '0.00042565668', '0.019459296', '0.041487787', '-0.0056491373', '0.023678744', '0.0002462021', '-0.001188478', '0.008673094', '0.0050165863', '0.02870622', '0.017016003', '-0.00041249092', '-0.05172553', '0.029460208', '0.026679914', '0.009411912', '0.01775005', '-0.018571079', '0.014723509', '-0.011773522', '-0.017824203', '-0.02966584', '-0.024545178', '-0.010902433', '0.015903393', '-0.0618073', '0.05897887', '0.01479363', '0.04621963', '0.008173424', '0.03252589', '0.022691868', '0.009985956', '-0.03873774', '0.014185579', '0.046005707', '0.015651228', '-0.016920688', '0.020589419', '0.034425914', '-0.00087707955', '0.031095589', '-0.036042552', '0.0015374338', '-0.007746951', '-0.07176327', '-0.036188863', '0.00542301', '-0.058564696', '0.03750776', '-0.053841945', '0.02392207', '-0.016149938', '0.019287067', '0.03879865', '-0.055611745', '0.03980647', '0.05602544', '0.031814855', '0.016658582', '-0.025036903', '0.053115744', '-0.018588085', '-0.0138354', '0.049068086', '-0.011505781', '-0.0310452', '0.02782457', '0.029185617', '-0.05198904', '0.05331619', '-0.025334928', '-0.028725661', '-0.028054822', '-0.076292455', '-0.0055999476', '0.05231377', '-0.012621063', '-0.019602684', '0.004508969', '-0.030621655', '0.030376615', '-0.021367185', '-0.014716174', '-0.0038351777', '0.027898012', '0.08107027', '-0.030217169', '-0.016688567', '0.011314587', '0.05810436', '-0.0021891864', '-0.004739608', '0.040676042', '-0.03899762', '0.031126555', '-0.058557905', '-0.04536089', '0.043407466', '0.022351148', '-0.03371494', '0.058858003', '-0.03958394', '-0.01833554', '-0.027484942', '-0.023828436', '0.024218353', '-0.032933395', '-0.0057592057', '-0.020479063', '0.00967285', '-0.027147498', '-0.011182865', '-0.008253837', '-0.015214466', '-0.003429884', '0.021485226', '0.01217838', '0.07463533', '-0.055746038', '-0.036113787', '-0.06665803', '-0.08322813', '0.06436772', '-0.014312264', '-0.02697934', '-0.006339367', '-0.024479808', '-0.033757098', '-0.013118043', '-0.027367234', '-0.015202758', '-0.017139997', '0.0035285251', '0.03129718', '-0.030224852', '0.03310429', '0.039717503', '0.050555296', '0.041639633', '0.03232493', '-0.007780997', '0.04512099', '0.0056245183', '-0.011490038', '-0.01034701', '0.012715795', '-0.0033579373', '-0.03344171', '0.06810451', '0.037562873', '0.005396066', '0.0020161679', '-0.02830746', '-0.041430444', '0.00287334', '-0.03364539', '0.0019474011', '-0.056099884', '-0.0040052594', '-0.011915269', '0.04085891', '0.022840327', '0.060418602', '-0.01577568', '0.0075411177', '-0.016722357', '0.007995605']
16, ['-0.017578341', '0.072411284', '0.045295477', '0.008734761', '-0.03848785', '-0.019856043', '0.036752414', '0.023166267', '-0.04087811', '0.02884857', '-0.023064362', '-0.008104776', '0.037444558', '-0.024447449', '-0.07483865', '0.021449333', '-0.009998282', '-0.044512708', '-0.020908223', '-0.033492807', '-0.008948033', '-0.0844085', '-0.01656312', '-0.023837352', '-0.034574796', '0.0108102625', '-0.040250283', '-0.040022008', '0.020499097', '0.024931984', '-0.016303279', '0.04265319', '-0.007355389', '0.0054894104', '0.008065445', '0.0032400547', '-0.010480644', '0.02241731', '-0.016448978', '-0.06564116', '0.007958827', '-0.03095261', '0.026053648', '-0.014592041', '0.005075445', '-0.05015016', '-0.039587792', '0.062239777', '0.040549025', '-0.012000743', '-0.015470347', '-0.009437923', '0.010337531', '0.024979522', '-0.007453494', '-0.04768014', '-0.046108015', '0.019194182', '-0.043228965', '-0.016785018', '0.039732512', '-0.05792668', '-0.042506862', '0.023409117', '0.0066583287', '-0.024152672', '-0.009246672', '0.0011418376', '0.002849719', '0.012685825', '-0.047501575', '0.018220497', '-0.0022850833', '-0.038574584', '0.011790878', '0.035169277', '0.018661838', '0.024664734', '0.015022729', '-0.005754345', '0.02769037', '0.0072585284', '0.034587033', '-0.009715289', '0.045423202', '0.043179754', '0.03121946', '0.02947059', '0.04280709', '0.011057197', '0.0050871638', '0.00073898345', '-0.014946354', '-0.051940728', '0.003503758', '0.030144442', '0.0100516', '-0.0055150464', '0.010167814', '0.024857327', '0.03580436', '-0.018508164', '-0.07561318', '0.015118974', '0.01836336', '0.024637438', '-0.07829244', '-0.046457782', '0.031669848', '0.0019844049', '0.024412118', '-0.019824935', '-0.05536854', '-0.0039800215', '-0.030491149', '-0.029285418', '-0.0058722235', '-0.03344048', '0.0020845286', '-0.020889329', '0.116475075', '-7.225541e-05', '0.025823005', '-0.006166918', '0.010128114', '-0.022429029', '-0.025668893', '0.0013029998', '-0.025899516', '-0.0003793589', '0.029208511', '-0.11244337', '-0.002715454', '-0.009334469', '-0.011288026', '0.088504836', '-0.004229585', '0.021687852', '-0.0495481', '0.0077597103', '0.013596058', '0.014045263', '0.017019076', '0.018597154', '-0.03423402', '-0.009398053', '0.010549828', '-0.0042484216', '-0.04229537', '0.005550206', '-0.006737376', '0.0090532685', '-0.030639216', '-0.008849868', '-0.042923752', '0.0070763356', '0.032898195', '0.04350316', '0.009913874', '0.02013739', '-0.012446976', '0.0121515095', '0.002459611', '0.006684107', '0.018394962', '-0.03458222', '0.04270271', '0.024533993', '-0.02193918', '0.011132094', '-0.03817313', '0.036992166', '-0.019295223', '-0.016262576', '0.0091095865', '-0.0103919655', '0.0071922736', '-0.005947054', '-0.0101029705', '0.029824955', '0.035181914', '0.011140109', '-0.02771651', '0.024917929', '-0.010002804', '0.005707959', '-0.012150075', '0.04196829', '0.017150424', '-0.002084996', '0.003995971', '-0.012405573', '0.059549365', '-0.015594639', '-0.027480112', '-0.026729317', '-0.07140168', '-0.03791346', '-0.011558907', '0.03610554', '0.021469256', '0.041190743', '0.035973735', '-0.0032975276', '0.030593336', '0.032131046', '0.020225922', '0.013350655', '0.0053287814', '-0.0003330767', '0.0022312077', '0.00870065', '-0.0017757233', '0.00941702', '0.008818196', '0.040852882', '-0.044722', '-0.056743924', '-0.027579555', '-0.0036735462', '0.07082263', '0.0069945212', '-0.04922363', '-0.021532623', '0.015825476', '0.022645175', '-0.039465275', '0.024631279', '-0.022483911', '0.009336945', '0.008943327', '-0.029524792', '-0.052101206', '-0.0075059906', '-0.0049992404', '-0.008753709', '-0.020167988', '0.02616529', '-0.004753801', '0.0635576', '-0.009844742', '0.012712106', '-0.0018268974', '0.01319644', '-0.031544358', '0.046014886', '0.016410535', '0.009052345', '0.0074860617', '-0.013959279', '0.031622697', '0.0034347868', '0.06916001', '0.018834341', '-0.045426577', '0.030014342', '-0.051402085', '-0.010649889', '0.03048566', '0.041950647', '-0.008902405', '0.03277219', '0.011262488', '-0.019778239', '-0.0216288', '-0.086546436', '0.04154542', '-0.00591109', '-0.010627446', '0.042056993', '-0.015240654', '-0.02037858', '0.010491768', '0.05403227', '-0.019906286', '-0.045101658', '-0.0049263905', '-0.033766836', '-0.021721698', '0.0035214273', '-0.070382535', '0.029635128', '0.022084195', '-0.04105621', '0.0022006312', '0.02179346', '0.0058627073', '-0.058009528', '0.019980112', '0.029822951', '-0.022269163', '-0.042094138', '0.023087615', '0.017000582', '-0.0009206924', '0.01774371', '-0.0069529954', '0.010038031', '0.02988917', '-0.026704084']
17, ['-0.015835663', '0.031114018', '-0.05433845', '-0.020638814', '-0.04672855', '0.05353994', '-0.008496214', '0.025293088', '0.01875523', '0.034980074', '0.030959556', '0.064916976', '0.0866542', '-0.025072474', '0.003374647', '-0.012047961', '0.016144719', '-0.015085952', '-0.020364895', '-0.021840777', '0.02748475', '-0.008961673', '-0.018524772', '-0.018179957', '-0.013682271', '-0.0069205365', '-0.04175902', '-0.059273925', '-0.021649156', '0.0075423503', '-0.0040849256', '-0.022704288', '-0.00012376008', '-0.04334241', '0.0033966873', '-0.024902737', '0.008191194', '0.07242499', '-0.043985125', '-0.025739703', '0.007622073', '0.03776733', '-0.019749241', '-0.014260173', '-0.028443418', '0.04533005', '0.0068571987', '-0.0075641247', '0.0039365846', '0.042033035', '-0.004650293', '-0.04717022', '0.009523883', '0.04439481', '0.002326498', '-0.015411428', '-0.003242654', '0.018134477', '0.018574808', '0.011716574', '-0.02173797', '-0.015800964', '0.03944611', '-0.03178734', '-0.048026588', '-0.037158217', '0.06912242', '0.00808891', '-0.037374236', '-0.032740768', '-0.00623315', '0.019497868', '0.00977361', '0.020999799', '-0.034275196', '0.0012430545', '-0.005943128', '-0.041939683', '-0.001185596', '-0.019427055', '0.014118512', '-0.025404597', '0.02257083', '-0.011605466', '0.01323894', '0.02690979', '0.023762546', '-0.042852454', '-0.018945174', '-0.015750173', '0.008835614', '0.015018119', '0.026533088', '0.026179068', '0.072177574', '-0.027872372', '-0.029510837', '0.02746317', '-0.008309399', '-0.007959585', '-0.0045206943', '0.012560026', '-0.012887171', '0.02563468', '0.059479106', '-0.01688937', '-0.026400516', '0.042850606', '0.012831621', '-0.034618687', '-0.03305419', '-0.0026814532', '0.029876374', '-0.026054407', '0.037470225', '-0.06121825', '-0.03394325', '0.020074196', '-0.0016766911', '0.027618237', '0.01665124', '0.026103906', '-0.04371606', '0.021444172', '-0.022341425', '0.00036920852', '0.016794566', '0.018229708', '-0.03875901', '-0.0016903043', '0.035413563', '0.022133382', '-0.009979919', '-0.020580165', '-0.037836872', '-0.019810615', '0.055767644', '-0.0393784', '0.0010944699', '0.058737487', '0.015962543', '-0.00062870636', '0.03970641', '-0.011739938', '-0.020590506', '0.024684818', '0.004952907', '0.04526047', '-0.011183648', '-0.012956123', '0.03661498', '0.01465261', '-0.045834996', '0.0492757', '0.040821906', '-0.008353615', '-0.0140538635', '0.0544975', '-0.015693553', '-0.05603733', '0.05948022', '0.026878115', '-0.048125144', '0.03160032', '0.008506191', '-0.0019989752', '-0.056734603', '0.010444871', '0.010262374', '-0.01776388', '-0.015184391', '0.0338004', '0.009468622', '0.00038322562', '0.033293582', '-0.05041219', '-0.046429336', '0.0222549', '-0.02272071', '0.03914663', '-0.029918011', '0.0010052399', '0.028355604', '-0.0035520575', '-0.0045016645', '0.016172906', '-0.0017616058', '-0.0018351362', '0.042951234', '0.022190742', '0.015640331', '-0.0195626', '0.026835082', '0.03575096', '-0.025951661', '0.028078463', '-0.001042326', '0.004661186', '-0.037221488', '0.05422868', '-0.006129995', '-0.009922742', '-0.026939144', '0.04122354', '0.014307897', '0.031943116', '-0.020700758', '-0.038285974', '0.0072981883', '0.045904573', '-0.0030999028', '0.021940324', '0.06355297', '-0.016263973', '-0.036521472', '0.006266948', '-0.0070339064', '-0.0036481463', '0.028893348', '0.03241888', '0.012934135', '0.021847336', '-0.010733517', '0.0058978354', '0.045254882', '-0.030366885', '0.020116683', '-0.022720484', '-0.023363966', '0.036327694', '0.0020628036', '-0.05343857', '-0.03763289', '-0.029899456', '0.014464099', '-0.022892332', '0.024023753', '0.0072488165', '0.0044621006', '0.03638468', '0.04810186', '0.0021651185', '-0.016851174', '-0.01157251', '0.008523659', '-0.022070503', '-0.014922004', '-0.012319951', '0.019943736', '-0.007652776', '0.021107178', '0.0750977', '0.015738048', '0.06241514', '0.028690603', '0.02294428', '-0.007039703', '-0.0007699052', '0.035637163', '0.01307983', '-0.020194046', '0.059337832', '-0.031711325', '0.023927232', '-0.0350231', '-0.009031701', '0.03343067', '0.010504358', '0.0108847665', '-0.032141916', '0.010525947', '0.014184789', '-0.048998285', '-0.019705843', '-0.0007161867', '0.049318388', '0.0021548644', '-0.05232379', '-0.01706801', '-0.0026609555', '-0.0023405994', '0.021403452', '0.034114204', '-0.028095942', '0.00074325', '-0.03682469', '0.039782017', '-0.006693708', '-0.038348045', '0.019176392', '0.007918304', '-0.050198704', '0.0551988', '-0.012325216', '0.0032944782', '-0.013103961', '-0.011503017', '0.030013455', '0.0058976766', '0.0054195607']
18, ['0.03599307', '-0.009352877', '0.033413626', '-0.014257096', '-0.10317884', '0.0530476', '0.015628763', '-0.03423579', '-0.032466322', '-0.04057369', '0.013162503', '-0.050319064', '-0.0071321703', '0.0012438087', '-0.028078716', '-0.0030194325', '0.025113948', '0.021866195', '0.033129998', '-0.005317898', '-0.06182671', '0.037574325', '-0.049118612', '0.08460203', '-0.0061099096', '0.020162996', '-0.020522153', '-0.0105822245', '-0.047039285', '0.032927003', '-0.0793323', '-0.024175603', '0.0070417416', '-0.031349912', '-0.0116053', '0.04544291', '-0.0059004426', '-0.001197744', '0.059620664', '0.036898695', '-0.06626408', '-0.01666373', '0.050410837', '-0.035581194', '0.01934043', '0.03539291', '-0.012194273', '-0.049003616', '0.005807966', '0.055340946', '5.7032692e-05', '-0.0049877726', '-0.019977221', '0.03399326', '0.030486356', '0.009501434', '0.059309993', '0.019177552', '0.026761241', '0.006935954', '0.024465453', '0.038314294', '0.051532555', '0.013993611', '-0.00524247', '-0.039916273', '-0.023458216', '0.032673646', '-0.01274209', '-0.028387621', '-0.026483933', '0.03143203', '0.053097337', '-0.05281167', '-0.06421991', '0.0246728', '0.010386797', '-0.031032186', '0.04922853', '-0.029170068', '0.0041694655', '0.022785287', '0.004251805', '0.01790311', '0.037372287', '-0.0040042386', '-0.017889842', '-0.008058418', '0.02644225', '-0.027175292', '0.028413652', '-0.045587804', '-0.02518548', '-0.023522135', '-0.038055394', '0.001918393', '-0.054302458', '-0.02051942', '-0.021826476', '0.058872685', '0.00063650403', '-0.02722279', '0.038144328', '-0.09605702', '-0.030346842', '-0.017250976', '0.015959023', '0.029146917', '0.002001977', '0.025295034', '-0.04596201', '0.04739608', '0.022257237', '0.002147846', '-0.0069218595', '-0.020024672', '0.007308979', '0.012829336', '-0.05453396', '0.026132587', '-0.08214518', '0.0038861856', '-0.011294445', '-0.013172589', '-0.012709374', '-0.00014386284', '-0.027777873', '-0.0010982885', '0.0027678988', '0.008931285', '0.032319292', '-0.034329895', '-0.040656723', '0.025621675', '-0.018962808', '0.028000679', '0.0070152692', '0.02233824', '-0.012912502', '0.0013663566', '-0.031851206', '-0.038133886', '-0.039129402', '-0.051992837', '-0.022016052', '-0.06708701', '0.049306445', '0.021753615', '-0.03301971', '0.052822966', '-0.012013343', '0.031024607', '0.008727299', '0.017479032', '-0.03431061', '0.010473222', '-0.017651116', '0.048655566', '-0.03417168', '-0.028349893', '-0.034635358', '-0.003940902', '-0.056281354', '0.0072735865', '0.005981611', '-0.036522713', '0.0044103106', '-0.011136532', '0.034216326', '0.0037815066', '0.019554596', '-0.06518971', '-0.014680682', '0.0132191405', '0.01750137', '-0.02638847', '-0.019683387', '-0.044044904', '0.020200677', '0.039845582', '-0.045513712', '-0.04446767', '-0.005650794', '0.00034869823', '-0.033415698', '0.032342445', '0.046405632', '-0.016025798', '0.0147292735', '-0.028911013', '-0.037880138', '-0.066347204', '0.026194997', '0.007091872', '0.04960034', '0.010328696', '0.032273754', '-0.0027364977', '-0.005918268', '0.04536688', '-0.0008926288', '-0.020893058', '0.13026063', '-0.029282326', '-0.024587002', '0.00074258377', '0.057018995', '-0.03280272', '-0.03279422', '-0.024646997', '-0.034353666', '-0.0047346437', '-0.015999215', '0.029100368', '0.0014614895', '-0.033249598', '0.025364477', '-0.009032851', '-0.033569682', '0.051546298', '-0.007125793', '-0.03003204', '-0.015096122', '-0.099318646', '-0.006154264', '-0.004113086', '-0.004416647', '0.07741668', '-0.0416231', '0.065857634', '-0.024144826', '0.008588695', '0.044906966', '-0.019530242', '0.0029878798', '-0.010153713', '-0.032524664', '-0.022934195', '0.0469466', '-0.023143278', '-0.055360757', '-0.057924014', '0.054044783', '0.031059675', '-0.046185937', '-0.025477076', '-0.022368222', '-0.025828281', '0.0036163852', '0.04420521', '-0.019637378', '-0.017623918', '-0.015063381', '0.03312678', '-0.04575601', '-0.050323464', '-0.081202574', '-0.023250796', '-0.023754656', '-0.023457862', '0.009267805', '-0.024501408', '0.028017957', '-0.0031032546', '0.015202126', '0.050216883', '0.024760291', '-0.05731377', '0.00944186', '0.07160982', '-0.018032301', '0.015426275', '-0.014330068', '-0.012454443', '-0.020886369', '0.0016749675', '0.043083075', '0.049749352', '0.0131392935', '-0.03466356', '-0.019404396', '0.019522643', '-0.0068075308', '0.07176727', '-0.037721854', '8.19462e-05', '0.0033113076', '0.08889744', '-0.017194144', '0.05710824', '-0.0108092055', '0.013695907', '0.035317216', '-0.019585405', '0.014134487', '-0.03562228', '-0.043669518', '-0.044112265', '-0.025425069', '-0.041257896']
19, ['0.022351475', '0.03586588', '-0.013616699', '-0.006462093', '0.019124893', '-0.010807766', '-0.0115112625', '-0.03630092', '0.0029172467', '0.033686407', '-0.027687188', '0.008697145', '-0.008480141', '-0.017891139', '-0.003596931', '0.005324027', '-0.015952224', '-0.05897851', '0.014371508', '0.00024524023', '-0.0049877036', '-0.0226304', '0.021920694', '-0.018217376', '0.047856152', '-0.016472481', '0.0006441018', '0.06651334', '0.025743704', '-0.02300411', '0.058539383', '-0.0038663426', '0.035910644', '-0.07636481', '-0.013030852', '-0.0014980928', '0.07742287', '-0.024245592', '-0.05103074', '0.071886756', '0.030417351', '0.030978184', '0.0075860512', '-0.038458627', '-0.01265113', '0.037631325', '-0.009713773', '-0.04143259', '0.02002382', '-0.018863749', '0.03396484', '-0.015463989', '-0.03420137', '0.04612687', '-0.06129984', '-0.052552078', '-0.022583', '0.0019091751', '0.06215993', '-0.061453536', '0.004645429', '-0.02563543', '0.037990473', '-0.041280475', '0.02062443', '0.0543397', '0.014201804', '0.00036411578', '-0.059735566', '0.09592551', '-0.039339248', '0.03690117', '0.026479987', '0.023515727', '-0.012825961', '0.011887307', '0.026278688', '0.031295158', '0.005576207', '-0.034850918', '-0.008436763', '-0.016465453', '0.009491255', '-0.021447275', '-0.027704343', '-0.024925612', '0.04739118', '-0.011978098', '-0.0142696565', '0.012152366', '0.0281654', '-0.0051123733', '-0.023643', '0.0013509245', '0.027876053', '0.03926866', '0.04578748', '0.03700419', '-0.009182682', '0.007882229', '-0.019623406', '-0.02358823', '0.002813779', '0.01546694', '0.0016167569', '-0.03985606', '-0.019093817', '-0.0013570247', '-0.010750136', '-0.046616785', '0.03545622', '-0.1004154', '0.033856783', '0.05526928', '0.06810349', '-0.036165487', '-0.027062356', '-0.055669636', '-0.025200386', '-0.0022795268', '0.03368075', '-0.041291945', '-0.07814259', '0.022033013', '0.029578088', '-0.014752441', '-0.029799588', '0.018492011', '0.006832733', '0.0055666845', '-0.01060067', '-0.040911406', '-0.014889586', '-0.021069203', '-0.0588106', '-0.00810843', '0.042849094', '0.014023302', '0.002120605', '-0.0010491874', '0.031469528', '0.01793872', '0.014722647', '0.016152607', '-0.010480638', '0.016564932', '0.052393414', '-0.022469245', '0.03294568', '-0.0072783693', '-0.03404487', '-0.0229319', '0.018837636', '0.00969618', '-0.038802795', '-0.070937455', '0.061363805', '0.014984558', '0.015820863', '-0.036407404', '-0.014812513', '-0.037107404', '-0.0017553704', '0.0108106835', '-0.0035918427', '0.016030595', '-0.019216325', '-0.0025317783', '-0.06251056', '0.012680532', '-0.030031838', '-0.043189112', '0.07030005', '-0.011336858', '-0.025182532', '-0.0068001472', '-0.02443697', '0.028894575', '0.019096995', '-0.017602488', '0.0011429095', '0.012532645', '0.008422289', '-0.00076043775', '0.0033578658', '-0.022958571', '-0.06496947', '-0.02795185', '0.018191297', '-0.003321571', '0.014741145', '0.013202764', '-0.054957196', '0.018900232', '-0.013952157', '0.0076380707', '-0.0127466265', '0.0061078584', '0.013135178', '0.03211172', '-0.075146884', '0.02133077', '-0.043187603', '-0.049495462', '-0.030399038', '-0.0085929055', '-0.097919926', '-0.028705666', '-0.017811395', '-0.008156842', '-0.00560956', '0.055179436', '0.04226989', '-0.022592453', '0.01100733', '0.017069682', '0.005291246', '-0.0049470025', '-0.0149013605', '0.040510923', '0.01613036', '0.032165248', '-0.0029846195', '0.0018204923', '-0.002895207', '-0.021459395', '0.0075081596', '-0.007962927', '-0.0152463345', '0.015735464', '-0.012498765', '0.030375656', '-0.033153057', '0.08432052', '-0.0026089083', '-0.061344042', '0.030113492', '-0.014981628', '-0.048322573', '0.037029877', '-0.012302696', '-0.031005567', '0.034306046', '-0.00064466946', '-0.005344657', '0.007194', '0.028111907', '0.012367315', '-0.03884736', '0.031692903', '-0.015552253', '-0.069401845', '0.03321484', '0.06462893', '-0.024295054', '-0.034130268', '-0.03902046', '0.029890193', '-0.030228479', '-0.018948238', '0.030792037', '0.060235575', '0.02912681', '0.051314265', '-0.050216503', '-0.051635243', '-0.030105948', '0.01914046', '0.054327436', '0.049615886', '0.004918201', '0.00755844', '0.061258752', '-0.025976611', '-0.022721263', '-0.012714631', '-0.030253043', '0.011982949', '0.023382584', '-0.06723657', '-0.039599933', '0.006610609', '-0.011695596', '0.00072331616', '0.01600983', '0.006632293', '-0.02183833', '-0.024358299', '0.018692633', '0.018786442', '-0.030320235', '0.0504128', '0.013663144', '0.02841208', '0.059131302', '0.04918039', '-0.009135393', '-0.014336937', '0.081559084', '0.008263486']
20, ['-0.05165807', '-0.025652606', '-0.072965115', '0.0588459', '-0.07290507', '0.042550292', '-0.020026958', '0.0040812576', '-0.031142075', '-0.017162627', '0.011590028', '0.048936084', '-0.05410789', '0.00046821812', '0.01991028', '0.019712493', '0.034098364', '-0.018456552', '0.016287262', '-0.0008869296', '0.0949214', '-0.019838799', '0.044159923', '0.00016146843', '-0.03657873', '0.01746409', '0.018452466', '-0.014192643', '0.024070019', '0.030228963', '0.054875642', '0.039783634', '-0.010159653', '-0.015864242', '0.044506703', '-0.042861104', '-0.059276268', '0.013046981', '0.047252424', '0.04815749', '0.027184835', '0.024825139', '-0.10747743', '-0.00456797', '-0.015381135', '-0.06992594', '-0.047464475', '-0.0058164927', '-0.031839073', '0.034645196', '-0.040925685', '-0.07447022', '-0.032719567', '-0.038920213', '-0.022717936', '-0.09851904', '-0.017207166', '0.020713504', '0.015887726', '-0.057495102', '0.011713689', '0.014180439', '-0.022299297', '0.0050965236', '0.030383395', '0.012486491', '-0.046541058', '0.012558215', '0.011176624', '0.022363765', '-0.066071585', '-0.026922427', '0.059540883', '-0.051484127', '-0.046644285', '-0.018632032', '0.012032785', '0.014033867', '0.010393705', '-0.046599705', '-0.0147482995', '0.019852731', '0.007370228', '-0.01559528', '-0.047134604', '0.0019502863', '-0.022166954', '0.011801439', '-0.042954184', '-0.034565963', '-0.042133085', '0.04234024', '-0.0504504', '-0.010052848', '0.02733327', '0.024220152', '0.018110583', '0.0073901066', '0.0055055018', '-0.053309552', '0.037625637', '0.0010268623', '-0.037960835', '-0.008100339', '-0.05918014', '0.011732603', '-0.006537132', '0.024174105', '-0.05635971', '0.04325156', '0.027497308', '-0.07072139', '-0.03744632', '-0.037843693', '0.04266158', '-0.012497315', '0.025147542', '-0.037528656', '0.011701584', '0.022605302', '-0.06210262', '0.060623143', '-0.048918046', '-0.067355014', '-0.048975755', '0.08000764', '0.023539431', '0.030338565', '-0.02853483', '-0.035975374', '0.055493742', '-0.018981496', '-0.053269655', '0.017203335', '-0.034246136', '0.03439167', '-0.0015360209', '-0.09194835', '0.0111523075', '0.01809036', '0.08198398', '-0.02598027', '-0.020794293', '0.015702333', '-0.05380385', '-0.006455737', '0.04849579', '-0.004911281', '0.012770403', '-0.031857308', '0.022691224', '-0.030746862', '-0.057319146', '-0.0075981505', '-0.013608315', '-0.03400795', '-0.050584197', '0.049873106', '-0.024804173', '-0.004885377', '0.05804898', '0.0039103776', '0.0066869543', '-0.012143298', '-0.08190894', '0.032887127', '0.010238047', '0.0366195', '-0.020804461', '-0.0036601273', '0.036392555', '0.00188881', '0.0018415755', '0.022418007', '0.05787377', '0.0037921802', '0.022946337', '-0.065548494', '-0.05242081', '0.016098332', '0.014901795', '-0.020808175', '0.048236407', '0.060292386', '0.03393493', '0.0044999183', '0.0047162073', '0.001369941', '-0.021549687', '0.043944165', '0.042120975', '-0.007783033', '-0.019131528', '-0.04640092', '-0.02904737', '-0.047880553', '-0.04699547', '-0.054675218', '0.024453053', '-0.0789509', '0.04859805', '-0.00035481856', '-0.009162743', '-0.033517264', '0.010240925', '0.00022383331', '-0.016609974', '-0.018267637', '0.025791213', '0.040095616', '0.013685766', '-0.016012298', '0.00249616', '-0.052714717', '0.034775052', '-0.022534693', '-0.048969414', '0.013260431', '0.05921873', '-0.0026251825', '0.012943606', '0.0567797', '-0.02218975', '-0.03418985', '0.0189339', '0.037525915', '-0.06249712', '-0.054558653', '0.00081251643', '0.028057404', '-0.0010573573', '0.02989907', '0.046738196', '0.01516979', '0.012093253', '-0.07707159', '0.04965628', '-0.03679144', '-0.036924135', '0.0068071303', '0.0017149393', '0.0009422471', '-0.0048155757', '-0.010623538', '-0.032144386', '-0.007066552', '0.013111186', '-0.0028744342', '-0.007219934', '-0.0009916343', '0.000102006175', '0.05318927', '0.02156009', '-0.005457731', '-0.011224755', '-0.025093261', '0.012943605', '-0.023827203', '0.06439399', '0.001225576', '0.008742106', '0.050193362', '0.019075403', '-0.055259705', '0.03368295', '-0.04643699', '0.010099592', '-0.026322672', '0.02624236', '0.013886834', '-0.09182869', '0.026122712', '0.032540258', '0.015200109', '-0.032062586', '-0.020751687', '-0.0064548925', '0.0074993237', '0.032712817', '-0.00747857', '-0.013673381', '-0.06693004', '0.018836875', '0.058150288', '0.060248103', '-0.008899081', '0.03377781', '0.024057677', '-0.02201151', '0.022977484', '-0.01259744', '-0.026070034', '-0.016775634', '-0.06276677', '-0.033236034', '-0.028143663', '-0.017405432', '0.018597867', '-0.04765804', '0.014665796']
