0, ['-0.026829643', '0.0014789862', '0.03830111', '-0.02821766', '0.045833394', '0.0038510354', '0.040029563', '0.02684928', '0.035218228', '-0.009687262', '0.11532714', '-0.0140183475', '-0.065975085', '-0.018000914', '0.0050794613', '0.023188524', '-0.016651787', '0.020383347', '0.019349858', '-0.016396767', '0.014214313', '-0.03541444', '-0.0133816805', '0.026425218', '0.023781074', '-0.010501566', '-0.06391027', '0.021409886', '0.06514679', '0.040931646', '-0.041105688', '0.029349856', '0.041187316', '-0.04163646', '-0.04798512', '0.018236728', '-0.0466093', '0.04510478', '0.02921487', '0.047516294', '0.054101896', '0.0019727536', '-0.12873347', '0.040812954', '0.019742442', '0.01325614', '0.016970761', '0.029145712', '-0.001197606', '0.06013515', '-0.022863919', '-0.027536595', '-0.03472357', '0.01746302', '0.019606298', '-0.11925382', '-0.0005684039', '-0.035117418', '-0.07798329', '0.03298326', '0.006240903', '-0.10397912', '0.0108928345', '0.009057218', '0.069301955', '-0.015691025', '0.037213486', '0.025213895', '-0.010873869', '0.04175752', '-0.0115164835', '-0.0632366', '-0.06655086', '-0.024145326', '-0.001008469', '0.05657774', '0.041406944', '0.008392902', '-0.0016036918', '-0.0064895186', '-0.03078974', '-0.043620832', '-0.11461354', '-0.03127617', '-0.04341837', '0.0048448048', '-0.012741781', '-0.041900434', '-0.08495653', '-0.030154044', '-0.03654673', '0.045797717', '0.06431847', '-0.013647107', '-0.033680324', '0.058054462', '0.0057198037', '0.0072915577', '0.028423091', '-0.042385507', '0.02852272', '0.026350932', '-0.050951324', '0.007340752', '0.056372497', '-0.038512137', '0.044095617', '-0.01354433', '0.020842345', '0.0093453005', '-0.010049745', '0.0047022495', '-0.06580383', '-0.06880532', '-0.04532984', '-0.061175622', '0.08694555', '0.0036828353', '-0.013883193', '-0.011497154', '-0.05918112', '0.10304948', '0.022046885', '0.0033805298', '-0.03881169', '-0.055602957', '-0.0058865724', '0.020562513', '-0.060252853', '0.054187607', '0.038984716', '-0.019832483', '-0.016161444', '-0.00017943588', '-0.018709254', '0.07992513', '0.005438191', '0.038842946', '-0.02706591', '-0.028050616', '-0.04218797', '0.006530507', '0.10078435', '0.014050089', '-0.020970983', '0.006378644', '-0.01819932', '0.10474072', '-0.010488264', '-0.004962083', '0.09973417', '0.0052264608', '-0.015300119', '0.03663568', '0.02799892', '0.0041383463', '0.011119303', '0.04189759', '-0.028889434', '0.02268835', '-0.020573212', '-0.06597135', '-0.056615796', '0.05529787', '-0.046509173', '-0.086253636', '-0.046576604', '-0.038810182', '-0.04369106', '-0.032801926', '0.020884192', '-0.0600111', '0.03446', '0.035545263', '-0.007993073', '0.022704411', '0.06476646', '-0.0528256', '0.010717894', '-0.027126642', '0.0038246561', '0.007252009', '0.005043718', '0.06627955', '0.050030254', '-0.08246112', '0.035843235', '-0.0074528614', '-0.033086166', '0.043600235', '0.02559527', '0.037072677', '0.026019083', '-0.029813439', '-0.021330126', '-0.0029163943', '0.04476931', '0.04200848', '-0.004914325', '-0.035199013', '0.03133283', '-0.09096204', '-0.06919315', '0.030921869', '-0.043150924', '0.045844063', '-0.010331469', '0.014831691', '0.021965161', '0.027878236', '-0.014225636', '0.006256108', '-0.0014746923', '-0.019865852', '0.0020893486', '0.037313316', '0.0024460293', '-0.056160495', '0.025750589', '-0.023339141', '-0.04334285', '-0.062109705', '0.013418725', '0.007618058', '0.013376099', '0.00890132', '-0.05386935', '0.061618343', '-0.012526757', '-0.0103912465', '0.028510757', '0.0031205278', '0.06771126', '0.015510073', '0.06233421', '0.014482999', '-0.00946815', '-0.042343874', '-0.018576924', '-0.0060009155', '-0.006478331', '0.06957988', '-0.015815886', '0.03885415', '0.025126442', '0.023135046', '-0.024409862', '0.022350185', '-0.031860393', '0.11342839', '-0.016304603', '-0.010592537', '-0.03265873', '-0.045775987', '-0.025384476', '-0.011195254', '-0.023411164', '-0.012872021', '0.011892845', '-0.003937623', '-0.020287655', '-0.097013175', '-0.019080691', '-0.020873923', '-0.026994606', '-0.015588622', '-0.028919995', '0.036493026', '0.026937427', '-0.03643599', '0.033754632', '-0.016068231', '-0.04952324', '0.006948146', '-0.03314318', '-0.020175252', '0.03294194', '-0.01623241', '0.07060114', '0.055430792', '0.07215489', '-0.07604461', '0.0045313025', '0.0041348026', '-0.05661572', '-0.031757653', '-0.032438166', '0.025761059', '0.045539677', '0.04987161', '0.015950872', '-0.04981507', '0.06953231', '-0.015019562', '0.0007852516', '-0.015165794', '-0.07284046', '-0.04678861', '0.038953234', '0.0043923357']
1, ['-0.065607674', '-0.018086351', '-0.039380178', '0.003639269', '0.020847501', '-0.015407644', '0.02086604', '0.048365112', '-0.0643892', '0.014848164', '-0.010443822', '-0.049264345', '0.059739154', '-0.06324055', '-0.06219084', '-0.019353563', '0.0014783144', '0.009722543', '0.04339528', '-0.021177586', '-0.072110415', '-0.03616275', '-0.07462722', '-0.024749575', '0.008479968', '-0.050829317', '-0.047478054', '0.008283656', '-0.009618063', '0.0066248146', '0.07726856', '-0.02975734', '-0.0059319786', '-0.033247553', '-0.021756433', '-0.037205603', '-0.07154611', '0.024045926', '0.04289014', '0.003618829', '0.06817888', '-0.08070846', '0.021680687', '-0.009156549', '-0.023703966', '0.027094547', '-0.02525695', '0.01918941', '0.07621787', '-0.04328244', '-0.04365277', '-0.03700947', '0.03605964', '-0.007169563', '0.06355884', '0.00020701352', '-0.036761977', '-0.035710298', '0.035057746', '-0.039834812', '-0.061582852', '-0.0573094', '0.0047915564', '-0.05319457', '-0.029626716', '0.0050893584', '-0.005092278', '-0.055261273', '0.016977038', '-0.0034379319', '0.040796988', '0.048622116', '0.09121273', '0.0072809006', '-0.0615843', '-0.026400633', '-0.01817098', '0.07105913', '-0.037973117', '-0.015326733', '-0.03217796', '-0.029228443', '0.021711383', '-0.04960478', '-0.027597647', '-0.052528076', '-0.033328824', '0.0509677', '0.017082307', '0.03874233', '0.0072326465', '0.039722234', '-0.03680814', '-0.008831391', '0.008286874', '0.033417843', '0.030309089', '-0.01158301', '-0.0781381', '0.015583181', '-0.032356184', '-0.04748531', '0.015109157', '0.028861798', '0.023489714', '-0.019607807', '0.015640236', '0.06053037', '0.02316378', '0.020025846', '-0.07032383', '-0.02858801', '-0.018671839', '-0.0043384577', '0.04365199', '-0.027086474', '0.04945227', '0.06760438', '-0.01877951', '0.01917875', '-0.027931174', '0.030067567', '-0.06720846', '-0.053220686', '-0.019002156', '0.037032165', '0.01705286', '-0.07768951', '0.10166454', '0.043552954', '0.05549349', '-0.0045314264', '0.0716456', '-0.06053801', '0.017569968', '0.011779293', '-0.046623107', '0.012162066', '0.040042523', '-0.059260562', '-0.01786301', '0.01716907', '-0.0072832014', '-0.018923908', '-0.00825944', '0.03667692', '-0.045398306', '0.024960032', '0.015182359', '-0.0011139262', '-0.056315657', '-0.0056627844', '0.08956085', '0.018852664', '0.059550207', '-0.015215525', '0.010653847', '0.06554595', '-0.07528874', '0.020345619', '-0.011025812', '0.02211385', '-0.06083547', '0.03157534', '-0.004976353', '0.02137717', '-0.020294372', '-0.0015835402', '0.0007430588', '0.00014283678', '-0.07211611', '-0.075041674', '-0.009107093', '0.0661202', '0.0034146316', '0.045545854', '-0.012746899', '0.0078988485', '0.02762121', '0.013655392', '0.08618382', '-0.009737041', '-0.013352618', '-0.04581618', '0.060770784', '0.077398695', '0.038633317', '0.013416648', '-0.017028118', '0.049600657', '0.00029328163', '0.012158721', '0.01114436', '0.027910506', '0.0065694014', '0.07516013', '-0.0034103226', '-0.009895989', '-0.04584227', '-0.027113201', '-0.029294753', '0.017570145', '0.008446119', '0.016359812', '-0.07058084', '-0.018445859', '-0.025803695', '0.041988548', '0.044173326', '0.008975022', '-0.011995181', '0.025797477', '-0.012465867', '0.011217258', '0.074168734', '0.07408106', '0.0064234296', '-0.012606713', '0.022692746', '-0.0036196094', '0.005063735', '0.0046165804', '0.03824759', '0.06709407', '0.018536827', '0.072996065', '0.067776784', '-0.020671412', '-0.024391888', '0.07230347', '0.0011897827', '0.052212954', '-0.031480033', '0.008671381', '0.014625654', '-0.0021452925', '0.085712075', '-0.013586716', '-0.0084636', '-0.028020697', '0.041639958', '0.029178876', '-0.058059964', '0.00982834', '0.0017817849', '-0.10388652', '0.0064186775', '-0.03971185', '-0.06436925', '0.019238995', '0.01198759', '0.028832968', '0.094616205', '-0.0038472177', '-0.017413506', '-0.0001872983', '-0.05628965', '0.022345578', '-0.038983323', '-0.021590896', '0.0068311645', '0.014101688', '-0.032435898', '0.02307444', '-0.00964297', '0.0085128965', '-0.07703797', '0.009323348', '-0.012059705', '-0.0012895307', '0.004364289', '0.04602368', '-0.013317143', '-0.034072652', '0.004453054', '-0.01378009', '0.024292579', '-0.02221959', '0.02552265', '0.030383972', '0.001742242', '0.023915138', '-0.012835439', '-0.044166904', '0.06520828', '-0.07352895', '0.04223483', '0.0034210873', '-0.020241', '0.00031847146', '-0.04361105', '0.048024762', '-0.007844716', '-0.0968251', '0.0637107', '0.02537694', '-0.041848734', '-0.06773809', '-0.02055552', '-0.0033163067']
2, ['-0.020024337', '-0.0011760273', '0.011727905', '-0.074248575', '-0.0118537415', '0.05306738', '-0.004208063', '-0.11106865', '-0.01176561', '0.030713037', '0.017049138', '0.05577581', '-0.01843412', '-0.020455657', '-0.08888972', '0.038364846', '-0.030516401', '-0.017196968', '0.015250381', '-0.062402386', '-0.05310839', '0.035289414', '-0.06395781', '0.06526895', '0.0016020489', '-0.040721916', '0.03685366', '-0.0722174', '-0.05848824', '0.03485215', '-0.033059154', '-0.0019805916', '-0.08008058', '-0.045634273', '-0.07599895', '-0.02745311', '0.02765509', '-0.09388496', '-0.04325486', '-0.021243095', '-0.018579217', '0.07563941', '0.052621655', '-0.08523479', '-0.04002353', '0.0078660995', '0.015220776', '-0.08160153', '0.018096926', '0.024074392', '0.012330052', '-0.07238224', '0.0042560226', '-0.02170351', '0.023599287', '0.025866354', '0.0651593', '0.011253313', '-0.059194967', '0.02964425', '0.03200661', '0.0428203', '0.010493217', '0.027950121', '0.021779222', '0.057721738', '-0.05100621', '-0.029473566', '0.10644675', '-0.0032213489', '-0.055739567', '-0.013970618', '0.050185904', '0.011503151', '0.022389026', '-0.01705437', '0.024307124', '0.0952141', '0.01623827', '0.05913982', '0.067256674', '0.0048963297', '-0.0031832533', '0.03103791', '0.042532727', '-0.029915314', '-0.045657706', '-0.03930338', '0.1095441', '0.00354434', '0.0044805785', '-0.06890873', '-0.049136993', '-0.035889234', '0.021399334', '-0.06045107', '0.011669544', '-0.0009903817', '-0.0026644662', '-0.03220034', '-0.00030907293', '-0.00895863', '-0.017443826', '0.007262588', '-0.027544964', '0.094554804', '-0.030180046', '-0.092759274', '0.0028306148', '0.007132556', '-0.0012004231', '-0.0083559705', '-0.039695475', '0.058646746', '-0.0065506627', '-0.07681251', '-0.1091013', '-0.06232577', '0.0210696', '0.028064158', '0.05213738', '0.0053316173', '-0.01655879', '-0.12154688', '-0.003965258', '0.05767018', '-0.01956443', '0.00013803461', '0.004384947', '-0.06445216', '-0.07553734', '-0.014288912', '-0.012835766', '-0.0275484', '-0.022510242', '0.01943387', '0.021829309', '-0.009188673', '0.04858849', '0.025185423', '0.01904325', '0.03267745', '-0.0049884277', '-0.082058124', '0.046890844', '-0.04042379', '-0.083942205', '-0.036880724', '0.023193171', '0.01372202', '0.04455848', '-0.023084262', '-0.018797819', '0.05406833', '0.04429762', '0.029804729', '0.06353088', '-0.019754574', '-0.07000044', '0.03203218', '-0.104413144', '-0.03200952', '-0.024654914', '-0.01933745', '-0.06871877', '0.026205728', '-0.010365711', '-0.054990686', '-0.05264245', '0.032152258', '-0.034928393', '0.033725403', '-0.037954435', '0.026061723', '-0.041303616', '0.06390027', '0.018642327', '0.028805995', '0.028926967', '-0.008321875', '0.016504765', '-0.026016543', '0.033608254', '-0.0523169', '-0.013272221', '-0.03325527', '0.016060323', '0.028377542', '0.060098715', '-0.0054496964', '0.015332393', '0.0063070334', '-0.026480615', '-0.03327625', '0.04074311', '0.014181377', '0.043778285', '0.07852607', '-0.052995525', '0.022527223', '0.04259517', '0.025990732', '0.026326016', '0.00034036138', '-0.03931738', '0.014502957', '-0.029270612', '-0.028336136', '0.010215767', '-0.03674723', '0.0085002575', '0.022988742', '-0.012342471', '-0.050953764', '0.056950204', '-0.0017229081', '-0.12010501', '-0.024991903', '0.0071460456', '-0.0076837046', '-0.056322787', '-0.06282399', '0.0017325537', '-0.0016173747', '0.0712949', '0.08387451', '0.017265312', '0.027317634', '-0.017118676', '-0.04685466', '-0.00966914', '-0.020786097', '0.027527444', '0.004481506', '-0.011814162', '0.0055334386', '-0.029187033', '-0.02963696', '-0.034502126', '0.0072499267', '-0.025283374', '0.016430767', '0.02197719', '-0.045572832', '-0.005435773', '-0.058853332', '-0.017943496', '0.07405706', '-0.0104833925', '-0.036298472', '0.03673637', '-0.00480856', '0.01696018', '0.06436599', '0.02121371', '0.018069172', '0.07314549', '0.004684381', '0.06444844', '0.0014517837', '-0.04285325', '-0.0093141375', '-0.009055121', '0.03203428', '0.042224914', '-0.006810356', '0.012560704', '-0.016365325', '-0.034049716', '0.004854428', '-0.033753876', '0.02253243', '0.0003315302', '0.0070154523', '-0.05033739', '-0.0047444515', '0.05624273', '0.025874862', '0.015261574', '-0.002339704', '0.030232653', '0.077832915', '0.025532544', '0.07335244', '-0.064718656', '0.05942143', '0.04515547', '-0.040182367', '0.03239823', '0.020554056', '-0.063312314', '-0.03560228', '-0.0171487', '-0.08400785', '0.0039794315', '-0.035058584', '-0.024339769', '-0.020466221', '-0.018759103', '0.07354492']
3, ['0.039589785', '0.06905925', '-0.00040464447', '0.07000501', '0.035344984', '-0.024618346', '0.018688727', '-0.049242847', '-0.0582672', '0.015165629', '0.011234145', '0.037881892', '-0.0451334', '-0.026925849', '-0.057999916', '0.031330384', '-0.064971834', '0.037551217', '-0.013092829', '-0.05397112', '-0.0064108823', '0.00097367686', '-0.045492377', '-0.04316011', '-0.0059416424', '-0.060271952', '-0.021328798', '-0.031069381', '0.0642305', '-0.035929244', '0.04183041', '-0.018649988', '-0.035218064', '-0.037588876', '-0.026163809', '0.043665376', '0.05250868', '-0.066341326', '0.0054367594', '-0.007639122', '-0.051360574', '0.007411758', '-0.041483626', '-0.015097225', '0.0055858283', '0.016741592', '-0.056777872', '-0.0069225496', '0.056354083', '-0.014246341', '-0.0062433947', '0.05355932', '-0.07963016', '0.0024362474', '-0.009530963', '0.0009644742', '0.031827673', '0.044532754', '0.0006405202', '-0.07421428', '-0.0041270023', '-0.05263545', '-0.06530074', '0.013758852', '0.0114681525', '-0.026581954', '-0.033027638', '0.028101275', '0.00576108', '0.011865766', '-0.041318603', '0.011837264', '0.004930907', '0.045846056', '0.03490721', '0.008593637', '-0.012486277', '0.0300526', '-0.051511712', '-0.03723336', '0.035011977', '0.026540989', '-0.016520457', '0.041685842', '0.041328322', '0.03841511', '-0.078040004', '0.00065106136', '0.029763315', '-0.057344582', '-0.039523665', '-0.074913315', '-0.0031959054', '-0.07598706', '-0.05350171', '0.054056343', '-0.025083037', '-0.058454815', '0.107034706', '0.0104619665', '0.030795757', '-0.0642746', '0.0021043082', '0.057707842', '0.027866645', '-0.014169312', '0.010122401', '-0.008931067', '-0.008385998', '-0.02076666', '-0.10243069', '0.0069496986', '-0.01240653', '0.008878173', '-0.06880642', '0.043491624', '0.0164348', '0.028561728', '0.071892805', '0.0648961', '0.0058555664', '-0.02872223', '0.022419441', '-0.04750849', '-0.0024767388', '-0.042783413', '1.0501044e-05', '-0.004861942', '-0.006749483', '0.013203828', '-0.023060123', '-0.02378416', '0.013197052', '0.04102949', '-0.013349915', '0.036166385', '0.026137667', '0.05470011', '0.0070896107', '-0.0021897035', '0.017033365', '-0.036087207', '-0.019430539', '0.013384987', '-0.033484362', '-0.045654517', '-0.004179665', '0.03550857', '-0.0410671', '0.015014897', '0.0038727033', '0.005783366', '-0.039115455', '0.0003073671', '-0.078498624', '0.019823883', '-0.005324851', '0.013163402', '0.018968465', '-0.039465874', '-0.01730188', '0.001841495', '-0.012126238', '-0.056032155', '0.04011317', '-0.022523716', '0.031608228', '0.005399514', '-0.008828661', '0.0014083794', '0.033595845', '-0.017406387', '-0.020802535', '-0.00804458', '0.075204566', '0.01739543', '-0.0053762104', '0.039131448', '-0.08121619', '0.05748185', '-0.0073962295', '0.033783633', '0.019286089', '0.009554553', '-0.045488667', '-0.0017968145', '0.024759911', '-0.021699138', '0.03045511', '-0.020563086', '0.07393814', '-0.075406566', '-0.052790496', '-0.0336838', '0.0043230904', '-0.08067993', '0.06930188', '0.044664454', '0.04003628', '-0.05010427', '-0.027846858', '-0.02579163', '0.030076308', '-0.038209442', '0.05522739', '0.050034374', '-0.07626822', '0.0738762', '0.0174283', '0.07910571', '-0.047800135', '-0.03179807', '0.01656627', '-0.061623823', '-0.051701378', '0.0029634647', '-0.019243188', '0.02921139', '-0.0081354445', '-0.06456269', '0.032505028', '0.08076246', '0.0633277', '-0.036725722', '0.042324755', '-0.030133374', '-0.02115051', '0.010282008', '-0.0074893273', '-0.02467872', '-0.02049037', '-0.013555396', '-0.00900289', '-0.038915753', '-0.018273968', '-0.03351081', '0.0052101593', '0.030418659', '-0.028566297', '0.027431242', '-0.0727916', '0.02172952', '0.022014882', '-0.032937903', '0.05160666', '0.02588365', '-0.009601328', '0.09681308', '-0.05051611', '0.060420435', '0.017648583', '0.05164619', '0.046494663', '0.004686649', '0.045848683', '-0.08001123', '0.0265522', '-0.109895416', '-0.009497073', '-0.0050636823', '-0.021030623', '-0.037617218', '0.01373421', '-0.023497682', '-0.010922046', '0.00537608', '0.06849958', '-0.01794809', '-0.041915648', '0.039717827', '0.0585057', '-0.035652395', '0.047760315', '0.036359433', '0.027210157', '0.023912448', '0.007243631', '-0.035893153', '0.03364761', '-0.032005697', '-0.016432876', '-0.017514383', '0.010180216', '0.029890727', '-0.019512482', '-0.030423855', '0.010239706', '0.03601085', '0.012156941', '0.021567767', '0.028043453', '-0.063565336', '-0.020547526', '0.040372923', '0.043904763', '-0.012741392', '0.054121535', '0.0057690204', '0.030940918', '-0.076867834']
4, ['-0.048935454', '-0.009746322', '0.018247353', '-0.0101672895', '-0.05052782', '0.02952481', '0.041362636', '0.061802138', '0.011159171', '-0.065305695', '-0.047669396', '-0.039801612', '-0.011314642', '-0.04000262', '0.03352617', '0.0003618023', '-0.014508748', '0.01982153', '0.05750131', '-0.029549731', '0.04040789', '0.015207898', '-0.006920807', '-0.00024683867', '-0.031993885', '0.0006397894', '-0.08059869', '0.026348006', '0.02057073', '-0.021775601', '-0.10365097', '0.045875285', '0.019059673', '0.032455646', '0.051417936', '-0.075118944', '0.064110294', '0.025686402', '0.019949147', '0.013869654', '-0.037776444', '-0.021063793', '-0.03320226', '0.039017685', '0.06572392', '-0.018877082', '-0.00460096', '-0.014092791', '-0.035569724', '0.07842522', '-0.0531014', '0.037550256', '-0.03026199', '-0.0077040424', '0.029242408', '0.04423303', '0.008633807', '-0.025334666', '0.0443941', '-0.012867873', '-0.07694809', '0.033861205', '-0.048147086', '0.07520679', '-0.01889656', '-0.023883924', '0.02530845', '-0.082139894', '-0.0017958425', '0.034312673', '-0.022077842', '-0.05192011', '0.0033214844', '-0.018973507', '-0.05659508', '-0.04898992', '-0.032054547', '-0.027924493', '-0.016301453', '-0.07358821', '-0.045028348', '0.025032705', '0.040826537', '-0.041609984', '-0.007036861', '-0.031837452', '0.103567906', '-0.031270437', '0.0023447701', '-0.0667038', '-0.027419778', '0.0017405793', '0.057480328', '-0.03426913', '-0.008871996', '-0.009549589', '0.0061001265', '-0.056941975', '-0.045903794', '-0.054254044', '0.08714453', '0.0012553582', '0.039364126', '0.03372459', '0.055950616', '0.0412561', '0.03456874', '0.06557192', '-0.005204868', '0.09221118', '-0.01639884', '-0.05539223', '-0.01626635', '0.08229883', '-0.0072597186', '0.0700782', '0.033412047', '-0.03668001', '0.024495961', '-0.079892784', '0.040209442', '0.009554768', '-0.04566619', '0.08644319', '0.027217694', '0.09356259', '0.045565493', '-0.023410767', '-0.05920797', '-0.048904084', '-0.0012965556', '-0.0014591767', '0.01200683', '0.0047187624', '0.007136438', '0.09748253', '-0.016712822', '0.0147821475', '0.046340056', '-0.024187043', '0.046768438', '0.020455452', '0.016328929', '0.036532324', '-0.002532297', '0.046523433', '-0.0017010423', '0.0067315064', '-0.06405991', '-0.033575684', '-0.0066651623', '0.029424246', '-0.008862918', '-0.03008806', '-0.0036800446', '0.01194042', '0.046081208', '0.06628766', '0.008236451', '-0.009079431', '-0.0035270147', '0.041613307', '-0.00088741013', '-0.0034666734', '0.0015772991', '0.03140347', '0.049144186', '-0.007049377', '-0.0326518', '-0.0449182', '-0.053389337', '-0.039711114', '-0.050208285', '-0.08989203', '-0.037626058', '-0.021648688', '-0.07917272', '0.013170597', '0.038156025', '-0.008795564', '-0.008668129', '-0.036455993', '0.07861616', '-0.0153816175', '-0.003355128', '-0.0068505923', '-0.017321115', '0.032026917', '-0.022052772', '0.08417917', '-0.077062234', '0.07602086', '-0.029326037', '-0.004472991', '0.016478166', '0.0011133315', '0.0712993', '-0.038989447', '0.0017846543', '0.09486728', '-0.030564953', '-0.009092136', '-0.047928087', '-0.012236149', '-0.061045207', '-0.052530337', '0.0064561963', '0.046814255', '0.019520164', '0.04726089', '0.03397586', '-0.033201333', '0.028625777', '0.027757693', '-0.039564665', '-0.021494528', '0.026034437', '-0.037195303', '-0.0017979575', '0.048136752', '-0.010659886', '0.06533397', '-0.04270439', '0.035262644', '0.020736596', '-0.0014049985', '0.03206998', '0.034891125', '0.0073927823', '0.009557387', '-0.0057284', '0.049801122', '0.06588722', '0.08737851', '0.053590566', '0.027371021', '-0.056347474', '0.046837647', '-0.045407943', '-0.031141486', '0.095855564', '-0.012529898', '-0.029077198', '0.008753359', '-0.0860066', '-0.007139039', '0.005099364', '-0.060139127', '0.05051038', '-0.015967151', '0.009457272', '-0.0443381', '0.03950068', '0.01770705', '0.015911914', '-0.06919467', '-0.05394915', '-0.011947815', '0.03661822', '-0.000895558', '0.07385137', '0.009248569', '0.02744321', '-0.051903047', '-0.0943231', '-0.07546627', '-0.05315656', '0.036391333', '0.0537509', '0.004240914', '0.043176144', '-0.015226779', '0.008591206', '-0.011655317', '0.023481952', '0.02808639', '0.04851083', '0.040532637', '-0.056065366', '0.0018997418', '-0.023056634', '0.023735462', '-0.046449907', '0.037001718', '0.032784514', '0.0175394', '-0.055914346', '0.028624944', '0.02515776', '0.013397883', '0.011381752', '-0.09592075', '-0.04685255', '-0.036360327', '-0.011555317', '-0.008778617', '-0.00991784', '-0.029257838', '0.05090945', '-0.039659604']
5, ['0.08755836', '0.001897212', '-0.06911975', '-0.058004763', '0.020590624', '-0.019495355', '0.0095132245', '0.034421377', '0.027941832', '0.021094598', '0.02091567', '-0.0050160927', '-0.029364733', '0.008432489', '-0.02868553', '-0.006039517', '0.031752825', '-0.005559046', '-0.02154465', '0.087119445', '-0.0763424', '-0.004430516', '-0.011570228', '-0.011823196', '0.0134111745', '-0.014871161', '-0.02633058', '0.034931276', '0.020855324', '0.03696323', '-0.0037712024', '0.03100605', '-0.059364233', '-0.023579359', '-0.034505896', '0.03440212', '-0.055441085', '0.010319689', '-0.002837785', '-0.036153413', '-0.0841669', '-0.009801085', '0.024020432', '0.0100952005', '0.027893066', '-0.103783645', '0.05395104', '-0.07419693', '-0.04456392', '-0.02735425', '0.045363113', '-0.059244398', '0.045845795', '-0.039718144', '-0.036433365', '-0.050762024', '0.007958591', '-0.015620355', '0.019552013', '-0.020734996', '-0.01335465', '-0.02651893', '-0.018164443', '0.029845128', '-0.030521031', '0.018213814', '0.063052155', '-0.050125677', '-0.025855158', '-0.008164354', '0.018924164', '0.030095791', '-0.050292265', '0.010863702', '0.009628235', '0.05024792', '0.03302726', '-0.0719751', '0.052263588', '-0.043427594', '-0.007209335', '-0.008455138', '-0.024728144', '0.08037543', '-0.004112444', '-0.00065512565', '-0.023452032', '-0.08514703', '0.0018070001', '0.069113106', '-0.05397175', '-0.0011140116', '-0.079040036', '-0.045373373', '0.0068412265', '-0.0092097055', '0.032640107', '-0.084202975', '-0.05335377', '0.050247815', '0.04646467', '-0.044410814', '-0.035864163', '-0.044309217', '0.028405013', '-0.045832574', '-0.040109556', '0.0048172856', '-0.022908712', '-0.028364921', '-0.049738057', '-0.025915094', '0.055080667', '-0.014075711', '0.05302483', '-0.054033607', '0.004259266', '0.03229581', '-0.00013302034', '-0.006915277', '-0.040301934', '-0.001742055', '0.016289923', '-0.046241887', '-0.06612744', '-0.0152398655', '0.008816252', '0.02358349', '-0.061831344', '-0.069404125', '0.0036644076', '-0.0017995008', '-0.008357817', '-0.045064703', '-0.004965283', '-0.038648617', '0.05197742', '-0.0051918104', '-0.06856718', '-0.027416069', '-0.044518374', '-0.065473765', '0.020160059', '-0.0393502', '0.035149835', '0.016236901', '-0.040918633', '0.03578192', '-0.010388616', '0.029886767', '-0.029037895', '0.021101117', '-0.013276474', '-0.009515645', '-0.03819082', '0.031110076', '-0.044204086', '-0.039826132', '-0.034305736', '-0.05237264', '-0.06673573', '-0.017113496', '-0.003019287', '0.0044462057', '-0.018661251', '0.05335203', '-0.050675504', '0.055184983', '0.06537743', '-0.019126682', '0.058381703', '-0.008200364', '0.013820051', '0.039174158', '0.016591411', '0.049521767', '0.05345634', '0.0010113033', '0.00501029', '-0.044175733', '0.024642032', '0.029068489', '-0.008855556', '0.047598377', '0.034325738', '-0.026822679', '0.0036556313', '0.024135778', '0.033579525', '-0.044319235', '0.06994755', '0.019457562', '0.050140932', '0.0062576765', '-0.012149551', '-0.071980774', '-0.0149914315', '0.01702385', '-0.05357374', '-0.001211371', '-0.082104445', '-0.02722765', '0.06775664', '0.0067374334', '0.021090157', '-0.02973986', '0.018859431', '-0.018401375', '-0.010251484', '0.01979068', '-0.09103692', '-0.003447808', '0.018592395', '-0.012865237', '-0.03716448', '0.029906213', '0.070132144', '-0.013883079', '-0.067794375', '-0.00599374', '-0.010375177', '-0.04791734', '0.051398367', '0.02572982', '0.010194584', '0.008429762', '0.073176056', '0.0708356', '-0.008778694', '0.041157153', '0.0032628223', '-0.02478261', '-0.009271457', '-0.07493778', '0.044872686', '-0.03486363', '0.052420214', '-0.041891105', '-0.040480006', '-0.020714859', '-0.03091875', '-0.015110758', '-0.07454015', '-0.055586945', '-0.012044416', '-0.014457772', '-0.029568389', '0.053338487', '-0.0059974897', '0.003150023', '-0.024010435', '0.027891008', '-0.01993067', '0.057816718', '0.0018584151', '0.060007144', '0.04516042', '0.032614753', '-0.07333629', '-0.003951453', '-0.0033310896', '-0.007655299', '-0.0044757766', '-0.009976712', '-0.048351835', '-0.0014175717', '0.037050042', '-0.021261483', '0.042257547', '-0.0072580692', '0.030828536', '-0.0052549373', '-0.0024126116', '-0.047622867', '0.033795375', '-0.05621142', '-0.04025248', '-0.05098315', '0.01327972', '0.028891979', '0.0512716', '0.048725862', '-0.011870903', '0.007864988', '-0.093057856', '0.017795423', '-0.020642277', '-0.033903934', '-0.018400915', '-0.036256477', '-0.007950973', '-0.023749543', '-0.0021411513', '0.00046556906', '0.003391897', '-0.042845875', '-0.091286264', '0.06865532', '-0.042706005', '0.011209446']
6, ['2.0007556e-05', '0.007518775', '-0.01472715', '-0.024676958', '0.04032037', '0.050162945', '0.053497758', '-0.039628725', '0.04075716', '-0.0039872765', '-0.021295518', '-0.0066534835', '-0.009156111', '0.035294283', '0.016056938', '0.007115931', '-0.005308701', '-0.022318296', '-0.013460284', '-0.009764218', '-0.0016952243', '0.002397232', '0.03693315', '0.029212546', '-0.0075789015', '0.009003925', '0.019829726', '-0.005241425', '0.043344665', '-0.0060189334', '0.02474624', '-0.041155253', '0.010243266', '0.04894375', '-0.0006802601', '0.023097124', '0.016116375', '0.014099849', '0.055108156', '0.05426177', '0.004350633', '-0.016394459', '-0.026120678', '0.007001764', '-0.043787975', '0.0024931785', '-0.029706653', '0.00014793224', '0.045384295', '0.013824277', '0.0004238322', '0.0013459976', '0.0014177687', '0.036785107', '0.04239037', '-0.03247002', '0.0372303', '0.09512653', '-0.0046988213', '-0.006917758', '0.0032005352', '-0.016751984', '0.05340759', '-0.027865518', '0.035719525', '-0.07722894', '0.029758936', '-0.018844292', '-0.020396996', '-0.050464053', '0.012693882', '-0.048624333', '0.019196613', '0.010923875', '-0.013777692', '0.035723165', '-0.0077204625', '0.010031162', '0.060833298', '0.036189556', '-0.034886118', '0.028434677', '0.012108355', '0.049575124', '0.032226104', '0.0073906886', '-0.012160981', '-0.017013468', '0.012139332', '0.001435444', '0.02391334', '0.04001584', '0.012006059', '-0.011997316', '-0.006371643', '0.015880685', '0.022881063', '0.00025409213', '-0.07023757', '-0.011580484', '0.078929596', '-0.0076827263', '-0.05354569', '-0.015161938', '0.003636421', '-0.00042732042', '-0.028499603', '-0.0121763125', '0.011273001', '0.037428703', '0.0073391185', '-0.003181273', '-0.09784742', '0.0075251004', '0.016748436', '-0.061690472', '-0.013395916', '-0.06399477', '-0.034852743', '0.017577931', '0.034816623', '0.03233713', '0.046045016', '0.010734496', '-0.015628017', '-0.0035867714', '0.018156085', '0.0019325503', '0.026273634', '-0.03792005', '-0.0072105816', '-0.026355559', '0.011461394', '0.0147311855', '-0.028615164', '0.044786997', '-0.006748036', '-0.031626232', '0.0033325441', '-0.014893859', '-0.01782298', '0.028177341', '0.026195489', '0.03036333', '-0.0268163', '-0.011953419', '0.0060591972', '0.0382043', '-0.052090034', '-0.03378611', '0.009921066', '0.0109180305', '0.012427937', '0.031232962', '0.013862667', '0.0005294226', '0.00018050977', '0.007829132', '-0.039936278', '0.048847232', '-0.028427808', '0.01620759', '0.026235217', '-0.016769141', '0.011586034', '0.01840868', '0.0009783201', '0.0037339672', '-0.009678107', '0.013908978', '0.046964686', '0.012148214', '0.009031016', '0.020616932', '-0.010166794', '0.0060181757', '0.039937694', '0.02255715', '0.04430749', '0.032685764', '-0.0074164113', '-0.045479227', '0.042306382', '-0.019965056', '0.04182312', '-0.024496654', '0.019243252', '-0.016995247', '0.0134959845', '0.014623889', '-0.012232358', '0.06313166', '0.023300653', '-0.03994745', '0.0006260183', '-0.01629491', '-0.006302617', '-0.03868286', '-0.018473005', '0.01045678', '0.014573251', '0.0010088198', '0.05045781', '-0.013672404', '-0.038628113', '0.018095817', '-0.007392863', '-0.03976892', '0.0010796105', '0.06001436', '-0.03684191', '0.024661439', '-0.025303505', '-0.019785114', '-0.0064757853', '-0.01642655', '0.021427596', '0.035261117', '-0.040592983', '0.003806317', '-0.021681596', '-0.017364059', '-0.047974482', '-0.04267454', '0.026206061', '0.000120229495', '0.021369899', '-0.008947882', '0.03274512', '0.017307993', '-0.0071916175', '0.028819371', '-0.0022252908', '-0.035020743', '-0.05167745', '0.051494047', '-0.025123836', '-0.0077817924', '0.055521004', '-0.0013627324', '0.038540103', '-0.019953888', '0.07686069', '0.04187593', '0.038383026', '-0.027580872', '0.043058656', '-0.024742896', '-0.023934841', '0.02629196', '-0.013314208', '-0.02171597', '-0.020594547', '0.036297936', '-0.03517273', '-0.004449817', '-0.0021287068', '0.018824117', '0.009333966', '0.03476496', '-0.009905974', '-0.004356693', '0.013108661', '0.022764042', '0.0006479186', '0.043571893', '0.048659198', '0.04539278', '-0.027083622', '-0.031908263', '0.06021742', '-0.0026258747', '0.04352589', '0.0018157865', '0.002482213', '0.04826054', '-0.012934792', '0.05204088', '0.00025730865', '0.08378812', '0.013001308', '-0.00044524553', '-0.008581952', '-0.051184837', '0.0077753896', '-0.0152488565', '0.00013009377', '-0.008028061', '0.0046421615', '0.0030209508', '-0.0113360705', '-0.03282088', '-0.0062544122', '-0.034220647', '-0.028520409', '0.015951842', '0.050076738', '0.021680955', '-0.0052797864', '0.004079301']
7, ['0.09594994', '0.025541795', '-0.023079386', '-0.007577074', '0.037714962', '-0.027783295', '0.015554948', '0.06513716', '-0.011388185', '0.051460154', '-0.02843905', '0.037966818', '-0.07177507', '-0.031909447', '0.04213372', '-0.12503831', '0.000962987', '0.025513899', '0.022054179', '0.025341434', '-0.0399257', '0.010222936', '-0.023055369', '0.062298823', '-0.014737646', '0.009308328', '-0.018215694', '0.021781208', '0.0034076495', '0.0014030134', '0.0040843235', '0.016591815', '-0.01788623', '-0.009662956', '0.015544056', '-0.083767146', '-0.022387015', '-0.031833645', '-0.029522473', '-0.042837575', '-0.074879624', '0.01799201', '0.031686448', '0.009695603', '0.046588972', '-0.0034461864', '-0.03559993', '-0.046035323', '-0.06732434', '-0.110892296', '-0.0022292899', '0.0016951171', '-0.057578903', '-0.016010096', '0.05327701', '0.02352035', '-0.110814616', '-0.022428682', '0.06800923', '0.08431854', '-0.011585789', '-0.034312416', '-0.055820346', '-0.05995447', '-0.04185262', '-0.026325528', '-0.049665365', '-0.06568172', '-0.010594332', '-0.0026882803', '-0.0013052523', '-0.0048182877', '-0.0013441963', '-0.0038497061', '0.02971516', '-0.034027223', '0.036982697', '-0.022491125', '-0.021683818', '-0.016059153', '0.07489785', '-0.0026166697', '-0.068095475', '-0.0019362291', '0.038478952', '0.049668524', '-0.006805967', '0.074732944', '0.04595323', '0.071403965', '-0.02328347', '0.019476768', '0.04953991', '0.01050738', '0.057103064', '0.04681318', '0.011163575', '-0.009736688', '0.02824744', '0.04853237', '-0.039947864', '-0.003106143', '-0.05811892', '0.004247703', '-0.027319044', '-0.032973044', '-0.03422527', '0.034766126', '-0.07255794', '-0.000190756', '0.040954366', '0.058912072', '-0.021245183', '0.015097688', '-0.017604735', '0.00048241264', '0.05188336', '-0.01647971', '-0.05480035', '-0.082752675', '0.014137433', '-0.019384217', '0.057767406', '-0.0183502', '-0.011067378', '0.010542232', '-0.013286973', '0.029690834', '0.048756517', '0.0028169442', '-0.0307251', '-0.018273877', '0.009623384', '0.06586703', '0.030567504', '-0.009989773', '0.04151065', '-0.045159932', '-0.08369554', '0.015582051', '-0.039019667', '-0.003824156', '-0.0035011536', '0.048335288', '0.046293244', '-0.02285429', '-0.013199993', '-0.005958435', '-0.09235397', '-0.00973349', '-0.05706523', '-0.029405842', '-0.055053525', '0.048364487', '-0.021911798', '-0.051009383', '0.04933666', '0.030956848', '-0.041367937', '0.013017753', '-0.068991095', '0.016527543', '0.019507283', '-0.06654154', '0.066873446', '-0.028887177', '0.0060561723', '-0.0030644978', '0.0376349', '-0.0067774747', '-0.037073195', '-0.014738032', '-0.060094543', '0.036412995', '-0.03865156', '0.0012251583', '0.020520875', '-0.03093897', '0.016035806', '0.06674066', '0.04678458', '0.025358241', '0.030838685', '0.030506395', '-3.8826634e-05', '-0.040144738', '0.02798194', '0.061893955', '0.02811829', '0.08802356', '0.06914578', '-0.046966217', '0.06282052', '0.019167826', '0.04539435', '-0.027390838', '-0.057624027', '0.009675424', '-0.0055934372', '-0.023597224', '-0.036233835', '-0.046465658', '0.0038449538', '-0.005219651', '0.0493125', '0.0040193168', '-0.006558031', '0.03696892', '-0.00041747894', '0.05935408', '0.07350198', '-0.025549112', '-0.039136413', '0.05078418', '-0.030239923', '0.048806604', '0.04553628', '0.022556553', '-0.05864459', '-0.014311239', '0.065651275', '-0.057193413', '-0.023259487', '-0.014033876', '0.0079534715', '-0.03387031', '-0.05280424', '0.0062816446', '0.029111605', '0.05875392', '-0.021492992', '0.060543854', '-0.0019655614', '-0.049857967', '-0.02115766', '-0.048732784', '0.07358122', '-0.020296361', '-0.027726235', '-0.101393625', '-0.07099342', '-0.004881576', '-0.016065447', '0.038530424', '-0.041206658', '0.004498976', '0.056031886', '-0.03121365', '0.010638996', '-0.016666953', '0.0025694508', '0.0056178947', '0.00049678574', '-0.043984298', '-0.013209454', '0.0340961', '0.06839934', '-0.10178278', '0.05219262', '0.047635734', '0.035696525', '-0.012080359', '0.026990985', '-0.065367036', '0.037637528', '-0.03508464', '-0.021037217', '0.014919421', '-0.010549424', '-0.012924311', '0.043647934', '0.02813809', '-0.022968937', '-0.061292175', '-0.029969463', '-0.016619472', '-0.001932438', '0.016326075', '-0.025152061', '0.012029042', '0.04236683', '-0.0018576555', '-0.015906535', '-0.04013085', '0.039376467', '-0.008859858', '0.032758582', '-0.003242305', '-0.02033017', '0.022604523', '-0.079076685', '-0.0058246697', '-0.00046682102', '0.0030701333', '-0.025304234', '0.016006444', '0.009146731', '-0.004644178', '0.041177522', '-0.053292334']
8, ['-0.02907205', '0.0037093933', '-0.034932815', '-0.03126267', '-0.03702659', '-0.053104762', '0.03389322', '0.016242191', '0.03716642', '0.009298728', '-0.025716197', '0.022598203', '-0.022660498', '-0.00043983973', '-0.0010623151', '0.06376205', '0.017499903', '0.035365127', '-0.04657929', '0.02144644', '0.024132188', '0.024515556', '0.026949', '0.046955567', '-0.006547535', '0.0076770433', '-0.00091273966', '0.023916597', '0.0045821234', '0.038165424', '0.01457042', '0.0041368958', '-0.028418409', '0.024536112', '-0.010379918', '-0.0043012933', '-0.052974623', '0.0123820165', '-0.019031666', '-0.0027174503', '-0.02368187', '0.05001465', '0.0020801914', '0.014028604', '-0.027428968', '-0.023452276', '0.031325433', '0.0015436444', '-0.047286525', '-0.048604675', '0.0022921877', '0.017843872', '0.0046244827', '-0.0058215023', '-0.022601746', '-0.02481011', '0.04312027', '-0.010986053', '-0.03162624', '0.039074764', '-0.057099916', '0.020094797', '-0.0065305717', '0.0015408983', '-0.034011677', '-0.0045773378', '-0.0069988635', '0.078760274', '-0.014470259', '0.0035545912', '0.011621116', '0.027261188', '-0.013757927', '-0.0013873142', '-0.019867593', '0.032786448', '0.023699641', '-0.037569094', '0.015346737', '0.024293719', '-0.0003466474', '0.0073277294', '-0.02910683', '0.03623748', '0.024976315', '-0.0036251696', '-0.017659483', '-0.01158136', '-0.0031334518', '-0.02186552', '-0.01890323', '-0.019777186', '0.07307058', '0.0063697128', '-0.00041946443', '0.015832746', '0.039442826', '0.014636163', '-0.008477311', '-0.031140752', '-0.008083427', '0.018386273', '-0.004994846', '0.013349782', '0.00459122', '0.03166404', '-0.014935775', '-0.007564615', '0.054589268', '0.0023984509', '-0.03734103', '-0.02246606', '0.004966398', '-0.019040365', '-0.0045149554', '-0.013536507', '0.009926768', '-0.007966861', '0.010638802', '0.0043501044', '0.008055132', '-0.023838807', '0.030254185', '-0.015347659', '-0.0020564068', '-0.0066100657', '0.020458357', '0.031467304', '-0.004180428', '0.018672032', '-0.03044536', '0.011994912', '-0.0020309784', '0.022583334', '-0.041437376', '0.04100078', '0.0067148656', '-0.00238634', '-0.0041598855', '0.015845694', '-0.057361815', '-0.018338645', '-0.031224767', '0.008587932', '-0.026655875', '0.046828803', '-0.01158315', '-0.0023549628', '0.008972236', '-0.003474815', '-0.005206931', '0.008439591', '0.0373886', '0.032708548', '0.00957105', '-0.05987949', '-0.018552791', '-0.061122395', '-0.042356413', '0.012570537', '0.07861726', '0.009023748', '0.002274653', '-0.011683429', '-0.014499732', '0.022100087', '0.027130548', '-0.007913896', '0.027783055', '0.0525963', '-0.0375904', '0.009304153', '0.02100388', '-0.00036466503', '0.015047928', '-0.013258912', '0.036699153', '0.012407933', '-0.007585897', '-0.025088066', '-0.063167155', '-0.05369252', '-0.069561794', '-0.02847837', '-0.036086246', '0.048001416', '-0.022797393', '0.024324223', '-0.05417352', '-0.0021191796', '-0.0001897365', '-0.0074323206', '0.025661463', '-0.021395314', '0.037616193', '0.024935724', '-0.026982572', '0.03318987', '0.0033147344', '0.021038301', '0.010032858', '0.021648167', '-0.02157448', '-0.024557231', '0.027023839', '0.011415897', '0.020799123', '0.026017154', '0.02399475', '-0.027539685', '-0.025970595', '-0.022186011', '0.007433879', '0.06762439', '-0.03679184', '-0.04789199', '0.02463395', '0.03216637', '0.0062809135', '0.0355319', '0.008322269', '-0.0053328257', '0.0078113', '-0.009535726', '0.044998504', '0.006521953', '0.04281752', '0.03241637', '-0.020857202', '0.031470098', '-0.064184286', '0.052720144', '-0.012056344', '0.061301004', '-0.005644532', '0.0136182', '-0.01372704', '0.016583923', '-0.012416598', '0.01309236', '0.00934376', '-0.06100307', '-0.012714831', '0.010336114', '-0.004220228', '-0.041957356', '-0.020292759', '0.03234852', '-0.027523369', '-0.045769636', '-0.0158701', '0.00011124517', '-0.0655959', '0.016546786', '0.036099337', '-0.007821621', '0.008930515', '0.006708336', '0.021832112', '0.030932708', '-0.028900072', '-0.03584006', '0.0020063135', '-0.004219447', '0.0057915933', '0.0061886455', '0.024949024', '-0.0033412143', '0.022576343', '-0.045693617', '-0.0036828392', '0.02327985', '0.03323029', '-0.012949688', '-0.0070376783', '-0.049434442', '-0.014367699', '-0.037950836', '-0.07605836', '-0.026839606', '0.015071421', '-0.047553975', '-0.010259423', '0.05177103', '-0.037058722', '-0.0270095', '0.0012868381', '-0.010508473', '0.056307487', '-0.008411367', '0.00036348042', '-0.015432528', '0.00521356', '0.04421603', '0.021015376', '0.0024339063', '-0.023207704', '-0.024673054', '0.011804463', '-0.032758433']
9, ['0.0024395236', '-0.04951449', '-0.047564372', '0.0009248884', '-0.032717258', '-0.026733259', '0.044541616', '-0.031533536', '0.041109934', '-0.035660442', '0.0043623946', '0.008815522', '-0.03152989', '0.0009828467', '0.075355984', '0.0039428608', '-0.06561668', '0.01237369', '-0.0020908462', '-0.056875702', '-0.05264487', '-0.046010792', '-0.021845656', '0.06488199', '-0.043539252', '0.03201643', '-0.09171087', '-0.065718554', '0.10740097', '-0.048702184', '-0.055188056', '0.017983794', '0.009377694', '-0.050451122', '-0.015525945', '-0.020167736', '-0.007342838', '0.021543564', '-0.054159585', '-0.037555423', '-0.030048197', '-0.016527895', '-0.038864665', '0.0026829115', '-0.025202129', '-0.003973489', '0.0049920804', '0.00841701', '0.0034924406', '0.025083791', '0.007624922', '0.012741433', '0.05208998', '0.00789053', '0.056640875', '-0.030003566', '0.013515444', '-0.0428084', '0.053288184', '0.0789736', '-0.022790262', '-0.060393356', '-0.002606667', '0.10163499', '-0.018340852', '-0.008450095', '0.03452792', '-0.0305912', '0.019295165', '-0.02689049', '0.014714572', '-0.012643108', '-7.544304e-05', '-0.05819732', '0.07149088', '0.024728691', '0.014734694', '-0.049791716', '0.024394048', '-0.06599626', '-0.06709068', '-0.015860615', '-0.028473452', '0.0051944936', '0.04626299', '0.05367142', '-0.06555709', '-0.021745011', '-0.05898481', '0.020449977', '-0.0253561', '-0.01568212', '0.010760703', '-0.0006627847', '-0.059752677', '0.030076994', '-0.00091596827', '-0.07108329', '-0.016280096', '0.019368416', '0.00018285903', '-0.0511168', '-0.049939305', '0.05638291', '0.020572364', '-0.052458465', '0.02641144', '0.031981602', '0.07179869', '0.034435727', '-0.047087062', '-0.019249147', '-0.036008116', '0.0036380857', '-0.03257631', '-0.02338746', '-0.019760368', '0.0433222', '-0.0036291105', '0.07946854', '0.003650586', '0.006231478', '0.05852553', '0.0075661778', '0.0132938', '0.014917822', '0.030343795', '-0.035501845', '-0.0072158314', '0.030449491', '0.04077402', '-0.044357076', '0.047533114', '0.017905578', '0.018367443', '0.009812253', '-0.048556823', '-0.057954866', '-0.00724236', '-0.048738953', '-0.042428654', '-0.005207464', '0.0036283657', '-0.016169462', '-0.039311282', '0.053893734', '-0.018969664', '0.054736607', '-0.017627297', '-3.120266e-05', '0.008915298', '-0.0116656935', '0.0405206', '-0.024415445', '0.05622896', '-0.00051552913', '-0.026760053', '-0.014759724', '0.0004757308', '-0.050994154', '-0.015614478', '-0.09574677', '-0.04026973', '-0.03305916', '-0.0074002123', '-0.009636389', '-0.04441307', '-0.0019801753', '-0.007140884', '0.084186085', '-0.027488023', '-0.034746163', '0.06192444', '0.039772984', '0.078613855', '0.002194616', '0.017080449', '0.0018145285', '-0.025642632', '-0.02619657', '-0.03264387', '-0.028991634', '-0.04346964', '0.04988748', '0.012687474', '-0.05644434', '-0.022426251', '-0.0063193897', '-0.008182997', '0.0046572406', '-0.018247778', '-0.016556937', '0.015602438', '-0.015362511', '-0.027650049', '-0.03048728', '0.09505514', '-0.019452633', '0.043908667', '-0.0037486264', '0.04336553', '-0.07567262', '-0.0642718', '-0.05111303', '0.04797135', '-0.027646072', '0.011451405', '0.056002516', '0.013225073', '0.02430419', '-0.012733415', '0.0038555947', '-0.026268505', '0.01814321', '0.028545415', '0.026903428', '-0.0065445765', '0.057935305', '0.019510517', '-0.0019212085', '-0.0014054797', '0.08206696', '0.018020082', '0.01770678', '-0.005875436', '-0.002317796', '-0.097248554', '0.07326978', '0.01518306', '-0.02044556', '-0.09163504', '0.010833004', '0.02173247', '-0.0029581496', '0.066146396', '-0.06157358', '-0.049559854', '0.0344154', '0.026512537', '0.00246125', '-0.015642732', '-0.049911745', '-0.022268', '-0.06598298', '0.010968094', '-0.03286733', '-0.00792231', '0.01338458', '0.0024222448', '0.0220185', '0.022732714', '0.03221521', '0.04922991', '-0.013425612', '-0.021081856', '0.023314567', '0.06751869', '-0.030604085', '-0.040317487', '0.00034012744', '0.028490871', '-0.044530343', '-0.034170777', '-0.06637295', '-0.007697242', '-0.042489134', '-0.0031998712', '-0.007363879', '0.039229836', '0.052086968', '-0.0004013489', '0.06798565', '0.02763778', '-0.013054797', '0.030273456', '0.0081194285', '0.0034518903', '-0.042817473', '0.023866326', '0.0029994734', '0.033280563', '-0.008727425', '-0.048547186', '0.034043923', '0.012964653', '-0.08055396', '-0.021265242', '-0.011607531', '-0.0038988912', '0.050351713', '0.002809799', '-0.060253944', '-0.07741821', '-0.01776887', '-0.0037532423', '0.025904069', '0.10021054', '0.015922243', '0.004142118', '-0.009183633']
10, ['-0.047981273', '-0.042968526', '0.0043632137', '0.021644697', '-0.08042825', '-0.105371326', '0.014911643', '0.04797993', '-0.07161462', '0.017298596', '-0.024466563', '0.06686357', '-0.011128691', '-0.012831818', '0.055342134', '-0.044804197', '-0.002968167', '0.0833257', '0.026218329', '0.045821298', '0.10521022', '0.02359269', '0.011218792', '0.004570394', '-0.023171188', '0.016015185', '-0.038506914', '-0.031782', '-0.008776596', '0.029667059', '0.032167394', '0.041606504', '-0.0015890232', '-0.0430341', '-0.011057683', '-0.01973819', '-0.0067212237', '0.04024822', '-0.0056957644', '-0.0390656', '0.016234599', '0.02210358', '0.076224506', '0.030042412', '0.06977954', '-0.0032067366', '-0.021485366', '0.024095638', '-0.030698083', '-0.009554491', '0.022632344', '0.0817003', '0.045455515', '0.039605025', '0.025089756', '-0.034760885', '-0.009046363', '0.030893676', '-0.030521683', '-0.036302578', '-0.0058382466', '-0.06493524', '-0.051481843', '0.10945668', '0.068788216', '-0.008853502', '-0.03504326', '-0.020634305', '-0.032301363', '-0.056060147', '-0.0062893205', '0.06754206', '0.016506648', '-0.03520079', '0.0040023113', '-0.037770357', '-0.04785706', '-0.0013521056', '0.02751736', '-0.020081915', '0.030282589', '0.016767722', '0.015364836', '0.015850509', '0.06663584', '-0.004687623', '-0.054523375', '0.028067203', '0.02091936', '-0.013466953', '0.02841471', '0.04522274', '-0.008647881', '0.016751746', '0.029860117', '-0.017465472', '-0.013122776', '0.062797', '0.00018807723', '0.0024510378', '-0.04770527', '0.048201274', '0.11511105', '-0.012472144', '-0.00357574', '-0.050133135', '-0.026880559', '0.07421194', '0.047833387', '0.04843702', '0.07640237', '0.0070782136', '0.021404658', '-0.02879679', '-0.001986334', '-0.02707178', '0.035727855', '0.026889846', '-0.015580084', '-0.029755529', '0.0050583435', '0.001789253', '-0.08423329', '-0.0017489899', '-0.025816387', '0.0150824385', '-0.00038100698', '0.02447912', '-0.03906866', '0.0056027165', '-0.010098013', '-0.0053282357', '0.06865709', '-0.018586684', '-0.016450329', '-0.021711864', '-0.028223969', '-0.032617692', '-0.056784783', '0.030068062', '0.002965441', '-0.038374558', '0.008847447', '0.05701004', '0.002303361', '0.026732085', '-0.047070418', '0.09349335', '0.012281402', '-0.10434711', '0.012236364', '0.020878412', '-0.02869697', '-0.02465594', '-0.034645617', '0.026578631', '0.028352935', '-0.01818035', '0.009345857', '-0.010399375', '0.121715374', '0.06692458', '0.023579283', '0.0424559', '0.099146195', '-0.031383477', '-0.048697405', '-0.023259059', '-0.036416575', '-0.09846134', '-0.029382845', '-0.10202337', '0.011448033', '-0.010312179', '-0.057479754', '-0.008112197', '-0.012852729', '-0.012131471', '-0.03458215', '0.033855155', '0.019033534', '-0.00032131717', '-0.05644169', '-0.010464964', '-0.04135692', '-0.04273046', '-0.019030388', '-0.013768501', '0.008870174', '0.037010383', '-0.0018963282', '0.02247334', '0.011812415', '-0.03914279', '0.04520995', '0.014054673', '-0.010719739', '0.024428304', '0.046147346', '-0.03349416', '0.06442852', '0.05829366', '-0.0010884417', '-0.033635452', '0.0016336326', '0.030355874', '-0.037257046', '0.01142106', '0.053320047', '0.058550257', '0.05256787', '-0.04458659', '0.028133435', '0.004053547', '0.021913804', '-0.017291512', '0.039283667', '0.05116911', '0.018490635', '-0.00072812237', '0.010719902', '0.021970559', '0.014156256', '-0.044023134', '0.019355267', '0.015275783', '-0.062136926', '-0.085139684', '0.005307028', '0.009058743', '0.04370018', '0.069567785', '-0.10838741', '-0.03576232', '0.017071718', '-0.03706202', '0.010167079', '0.037081275', '-0.035773862', '0.041665368', '-0.018829143', '-0.012766543', '0.06799821', '-0.0019704832', '0.041830473', '0.003970001', '-0.06009385', '0.002207563', '0.01345091', '0.05416037', '0.01148916', '-0.019676536', '0.0029957495', '-0.058358084', '-0.03500974', '-0.032037295', '0.012173843', '-0.039121155', '-0.04463044', '0.031624295', '-0.03812548', '-0.007849277', '0.0016702914', '0.009546092', '0.030870948', '-0.01588037', '0.047645625', '-0.03934818', '0.023897203', '0.0022786062', '0.0060683805', '0.03367501', '0.044036806', '-0.0019000553', '0.030077038', '0.051985137', '0.026049042', '-0.06624375', '0.028689144', '-0.06822855', '-0.022572964', '-0.038540404', '0.017912248', '-0.042329524', '0.08561539', '-0.051399663', '-0.051542874', '-0.0018807335', '0.022618063', '-0.048715588', '0.006153014', '0.04641608', '-0.027221309', '-0.04303981', '-0.006118652', '-0.03421563', '0.031485748', '-0.08787907', '0.049844395', '0.06380455']
11, ['0.05650321', '0.01801935', '-0.009247247', '0.04495264', '0.08009135', '0.02529493', '-0.013057735', '0.02587999', '0.037525594', '0.014694921', '-0.03715121', '-0.002346582', '-0.030684233', '-0.017432112', '0.045805972', '-0.012542548', '-0.0076437737', '0.013369479', '-0.007181046', '-0.0033518143', '-0.01680001', '-0.10505971', '-0.055916663', '0.014033726', '0.05303017', '-0.0007655916', '-0.003777733', '0.04890242', '-0.10145961', '-0.036612183', '-0.023622511', '0.055659417', '0.01782017', '0.02715718', '0.004918049', '-0.037185483', '-0.011905989', '-0.025891988', '0.070890516', '0.07415078', '-0.020029986', '-0.066508204', '-0.034507263', '0.0043538813', '0.074559286', '-0.033162568', '0.008288664', '0.03162655', '0.02871217', '-0.0408555', '-0.013197562', '-0.0012196448', '-0.05050519', '0.061685037', '0.03140318', '0.00039905802', '0.0029813251', '0.058352098', '-0.019648794', '0.044070352', '0.039445758', '0.009885357', '0.031747796', '0.009635749', '0.009294911', '0.05253867', '-0.06611471', '-0.020009374', '0.02471524', '-0.008550015', '0.10083532', '-0.032896545', '-0.019350596', '0.018381173', '0.015676301', '0.025926191', '0.00030857153', '0.070559144', '0.008448118', '-0.03712424', '-0.062316343', '0.009815592', '-0.031077161', '-0.0092761945', '-0.011312419', '-0.045402028', '-0.032965522', '0.04185021', '-0.04904023', '0.053047106', '-0.044261027', '0.012367975', '-0.0063114082', '0.030867433', '-0.041465722', '-0.09608208', '0.007303552', '-0.0003650886', '0.026126344', '-0.02013228', '0.045595497', '0.0338146', '-0.012977714', '0.017417552', '0.03340282', '0.101222694', '0.0021559922', '0.054978866', '-0.051258076', '0.0074913055', '0.016845293', '0.009666876', '-0.0018637906', '-0.0037267196', '0.04771055', '-0.012912041', '0.07518868', '-0.025297102', '-0.07847154', '-0.08195645', '0.030000048', '-0.023883853', '0.001301315', '0.0670402', '-0.0001420359', '0.014131108', '0.01339556', '-0.028679281', '0.05518203', '0.029188348', '-0.048193723', '0.029644405', '0.015124633', '0.01681965', '0.05523795', '-0.00041272643', '0.042209286', '-0.044456925', '-0.031334132', '0.049869966', '0.07525451', '0.09041324', '-0.027076177', '-0.0340748', '0.049467064', '0.03623725', '0.055112433', '0.07134753', '-0.045061313', '0.019573456', '0.040916264', '-0.0068495725', '-0.04036572', '0.01733657', '0.11050116', '0.00633406', '-0.0062211035', '-0.10552047', '0.006247404', '-0.07424932', '0.08186968', '-0.09233635', '-0.022339141', '-0.013697409', '-0.0033261261', '0.03136776', '-0.001956205', '0.007971426', '0.040355857', '0.02575433', '-0.063119315', '-0.0184295', '0.035608392', '-0.03380951', '-0.07404688', '-0.03202594', '-0.047418877', '0.046815395', '0.04401503', '-0.01737269', '0.0025571978', '0.0031832694', '-0.013194398', '0.035141993', '0.058564153', '0.03129513', '0.034457233', '0.0197201', '0.030770818', '-0.0456218', '0.013163688', '0.075353056', '0.048173595', '0.00774273', '0.08463197', '-0.0062884144', '0.00754294', '-0.1406111', '0.027373824', '0.026615484', '-0.07018588', '0.0048148967', '0.014895416', '0.0044921497', '-0.06650431', '-0.0046636206', '0.010457909', '0.015259144', '-0.0103845745', '-0.05595265', '0.015176316', '0.025864258', '0.014165926', '-0.0055399593', '0.038319133', '0.008265886', '-0.05302666', '-0.00033469155', '-0.033462018', '0.08025296', '-0.009633467', '-0.06387478', '-0.07451239', '-0.05286848', '0.02671585', '0.001979896', '-0.020149775', '-0.0017602934', '0.046782892', '0.046444785', '0.0037865015', '0.028321218', '0.07149917', '0.059949446', '0.025047079', '0.029937262', '-0.06599639', '0.038633354', '-0.007866961', '0.011090654', '-0.044604894', '0.0672049', '9.0933376e-05', '0.02270279', '-0.005352618', '-0.01695937', '-0.018074727', '-0.0030302436', '0.034918323', '-0.038253963', '-0.006235507', '-0.008746371', '-0.0885967', '-0.0054314886', '0.04978308', '-0.038833156', '0.06009192', '0.05946228', '-0.037052304', '-0.0384753', '-0.03595718', '0.09385718', '0.017020646', '0.04689192', '0.038032617', '0.015821524', '-0.012602043', '-0.012813814', '0.06710508', '0.01325989', '-0.030621534', '0.028306318', '0.02911144', '0.0042289663', '-0.019200686', '-0.039354455', '-0.018834509', '0.028106729', '-0.0077852733', '-0.032353554', '-0.03886942', '-0.00439269', '-0.08929761', '-0.05033271', '0.02715121', '0.026405826', '-0.009935305', '-0.062396318', '-0.079096735', '0.033378065', '-0.055991247', '0.005631299', '0.010827792', '0.0034842596', '-0.03901187', '0.022726577', '-0.032314524', '0.05962096', '-0.0682113', '0.002457619']
12, ['0.0136929285', '0.042258333', '-0.021940386', '0.012129268', '0.03184852', '0.021463763', '-0.0006048501', '-0.026685417', '-0.040633984', '-0.031575378', '-0.09112076', '-0.009474914', '0.069397725', '-0.031048229', '-0.10471319', '-0.06058063', '0.07668738', '-0.022851428', '-0.028312517', '0.053640045', '0.067507334', '0.037532266', '0.04257496', '-0.010032011', '0.043772675', '0.001286955', '0.027256355', '-0.007412021', '-0.059774067', '-0.00069097703', '0.0097959', '-0.058414854', '0.100364886', '0.04834011', '-0.0071635656', '-0.0039922222', '0.044018358', '-0.025391398', '0.033379376', '0.049671717', '-0.0029139828', '0.0032491677', '0.045126557', '0.00457704', '0.02696227', '0.013220335', '-0.075532086', '-4.1431973e-05', '-0.06624515', '-0.023071544', '0.015987484', '0.03003457', '-0.03996363', '-0.0052241147', '-0.02440492', '0.087332025', '0.081125215', '0.025530064', '0.063469075', '-0.08457174', '0.01974738', '0.0456186', '0.03189903', '-0.022471854', '0.019417483', '-0.013064022', '-0.005264609', '0.015815262', '-0.06774107', '0.02925561', '0.0042243167', '0.030079773', '0.039094377', '0.04180405', '-0.05200731', '0.025531646', '-0.03016554', '0.035657607', '-0.008177861', '0.0763659', '0.060755454', '0.015986566', '-0.0031534815', '0.060936604', '0.02125212', '-0.032845024', '-0.004519057', '-0.024462542', '0.04665849', '-0.017513197', '0.037921596', '0.043522846', '0.011951628', '8.178138e-05', '0.04618185', '-0.020293528', '0.08304041', '0.035528507', '-0.01073847', '0.028913688', '0.08165249', '-0.024411509', '0.02679486', '-0.029243767', '0.003731276', '0.011640844', '-0.09928851', '-0.07005936', '-0.060069393', '-0.04224729', '0.018514816', '-0.036636848', '0.046077263', '0.04230409', '0.058100075', '0.035127006', '-0.035780147', '-0.015699822', '-0.015006022', '-0.008661632', '0.030659076', '-0.048256878', '-0.05734258', '0.007143533', '-0.0023356602', '0.01476483', '0.023931947', '0.0141078625', '-0.013726005', '0.006778755', '-0.021135278', '0.012487425', '0.0017903167', '-0.04959013', '-0.030044213', '-0.005909474', '0.04524988', '0.058041353', '-0.04947142', '-0.004583422', '-0.037976943', '-0.051107373', '-0.04862298', '0.10884296', '0.012466729', '-0.08340355', '0.037239466', '-0.057900235', '-0.013556225', '0.012625253', '-0.0724612', '-0.022218136', '0.034562808', '-0.01382452', '0.017307013', '-0.011985577', '0.038296923', '0.0314731', '-0.02563839', '-0.027375212', '0.09055247', '0.060302675', '0.027241621', '0.0010246694', '0.056016956', '0.018114783', '0.06920879', '0.032758854', '0.0027419473', '-0.08444034', '0.030156355', '-0.0023976406', '-0.11419108', '-0.043827206', '-0.031706534', '0.06661102', '-0.0051455447', '-0.0021369907', '0.0049739857', '0.06273511', '-0.07484453', '-0.025703562', '0.061969705', '-0.079723984', '-0.020037206', '0.05209481', '0.03267501', '0.0236651', '-0.03562185', '-0.04122794', '-0.010797149', '0.00031376496', '0.02748792', '-0.033599023', '0.051117543', '0.015305394', '-0.06739674', '0.017717313', '-0.0019062766', '0.026497507', '-0.07416025', '0.07481807', '0.032768566', '0.030048374', '-0.0032275252', '0.017213006', '-0.039508868', '-0.0612347', '0.02949826', '0.055899557', '0.01372512', '-0.029721823', '0.013246614', '-0.00669659', '-0.073871225', '-0.004880229', '0.020615153', '-0.017517982', '-0.011618199', '0.0057352055', '0.03001913', '-0.013837198', '-0.012429642', '-0.014439437', '0.04129453', '-0.07358999', '0.099516325', '-0.010624104', '-0.0053489273', '0.04762194', '0.07750224', '0.0638688', '0.006595722', '-0.048517723', '-0.10226908', '0.08655206', '0.031252477', '-0.0059456057', '-0.052931294', '-0.020372478', '0.022900825', '-0.03874113', '0.035972305', '0.057716936', '-0.06868124', '0.0027342339', '0.00016250879', '0.034923524', '-0.019415397', '-0.09860978', '-0.027154649', '-0.057585254', '-0.027651155', '-0.0024928162', '0.04757223', '0.0047674454', '-0.06235042', '-0.010970224', '-0.009909474', '-0.02505235', '-0.015189092', '0.043347917', '0.02766242', '0.013604513', '-0.022689665', '0.02107536', '0.02066895', '-0.021126878', '-0.0037626487', '-0.009042756', '0.03809677', '-0.0050000623', '-0.015998848', '0.03346948', '0.029217938', '-0.02383839', '-0.018072996', '-0.020197418', '-0.040535457', '-0.005181018', '-0.026899518', '0.05020269', '0.065822765', '-0.025211137', '0.0037779238', '0.025300123', '0.036286503', '0.006511284', '-0.04651747', '-0.05119926', '-0.012614185', '0.06481142', '-0.012927869', '0.073754676', '0.042442154', '0.0077302405', '-0.0512356', '-0.029155498', '-0.009596037', '-0.00011474249']
13, ['-0.040589184', '-0.063531205', '-0.017284734', '0.005886359', '0.028161092', '0.035591263', '0.027347567', '0.040146146', '-0.01791383', '0.03747486', '-0.00221762', '0.020258954', '-0.033298977', '-0.049267784', '0.013045551', '0.014546709', '0.01661155', '-0.038528476', '0.005023741', '0.07959862', '0.004901606', '-0.018854076', '0.030482773', '-0.0540619', '-0.04432796', '0.11138553', '-0.036182266', '0.026772287', '0.062583834', '0.0100191785', '-0.033749092', '0.03344999', '0.010416214', '-0.027759988', '0.005108858', '-0.049717702', '-0.044860773', '0.035432164', '0.008873644', '0.10261732', '-0.023594199', '0.039142027', '-0.026666727', '-4.567753e-05', '0.020140246', '0.003550346', '-0.046282686', '0.0043327985', '0.019063238', '-0.0427767', '-0.009830846', '0.065872245', '0.009994729', '-0.012419892', '-0.008617501', '-0.011534331', '0.022764536', '-0.083269194', '-0.02284126', '-0.03063685', '0.029853938', '0.015979256', '0.045801993', '0.03826749', '0.008782734', '0.009422842', '-0.013739304', '-0.04480809', '0.010528236', '0.045147236', '-0.045576107', '0.010965592', '0.007816843', '0.0219721', '0.04149309', '0.04597131', '-0.06973725', '-0.009100179', '-0.01691468', '0.05513345', '-0.06398962', '0.03675941', '-0.0069904076', '0.026269639', '0.040990297', '0.033965975', '-0.02490626', '0.022314124', '0.04767631', '0.035439406', '0.027032586', '-0.018096395', '0.01576253', '-0.0034588608', '0.008820636', '0.009268019', '0.023928331', '-0.06222008', '-0.031507235', '0.028391467', '-0.032845866', '-0.009680951', '0.030782351', '0.003061322', '-0.027595472', '0.016582713', '-0.020304795', '0.0048746224', '0.009819909', '-0.010685735', '0.04355486', '-0.018966885', '0.037561756', '-0.04023341', '0.02253249', '-0.012205644', '-0.048897535', '0.009372217', '-0.027442744', '0.037935488', '-0.0087526115', '0.042823765', '0.027060073', '-0.027252058', '-0.016029507', '-0.06997265', '-0.040465754', '0.020205995', '0.0003998569', '0.0009463598', '0.04173544', '0.0029700203', '-0.06843895', '-0.012662219', '0.002453538', '0.034359444', '-0.039713748', '-0.019105583', '-0.0071869507', '-0.0481992', '0.02958544', '-0.030873872', '-0.06482543', '0.022394275', '0.044730466', '0.013554012', '0.009567482', '-0.03405605', '0.013785128', '0.067556396', '0.024846975', '-0.011787659', '0.055441763', '0.066549085', '0.059409395', '-0.07993581', '-0.047150355', '-0.066836864', '-0.026594741', '0.021751508', '0.043118145', '0.016579833', '0.008156616', '0.06981967', '0.012566086', '0.005723625', '0.041364934', '-0.03899191', '-0.048314787', '0.06065319', '-0.010266492', '0.009184521', '-0.043475725', '0.06576922', '-0.029247098', '0.029450994', '-0.048193794', '0.009449983', '0.031455003', '-0.0002660585', '0.018386347', '0.05201152', '0.043338392', '0.021888327', '-0.016743012', '0.00013662831', '-0.039331153', '-0.0075499006', '-0.024011254', '-0.02330726', '-0.025805775', '-0.016739966', '0.050289046', '-0.034248482', '-0.014822829', '0.064767286', '0.017992606', '-0.048382346', '0.009447499', '-0.0062651434', '-0.020234788', '0.07288819', '-0.047778647', '-0.07200334', '-0.030908858', '-0.005597868', '-0.020664612', '-0.007401958', '-0.03485361', '-0.018825999', '0.10910684', '-0.0006582794', '-0.016163668', '0.058010016', '0.046472467', '0.0146568', '0.002277715', '0.02268518', '-0.035193115', '-0.024062196', '0.060772568', '0.056370128', '0.04271297', '0.023515698', '-0.008920239', '-0.021037444', '-0.056236945', '0.0430768', '-0.068701215', '0.011772456', '-0.012442779', '-0.02106023', '0.019924287', '0.03102954', '0.039460666', '-0.078971505', '-0.085828885', '0.01788812', '-0.0005610772', '-0.066427805', '-0.060344763', '-0.052418284', '0.014360736', '-0.05087218', '0.0016596916', '-0.10905445', '-0.03169238', '0.0801598', '-0.02976951', '-0.021452995', '-0.047172546', '-0.013787988', '0.038564865', '-0.01773768', '-0.0033971227', '0.041230164', '0.0015731547', '-0.023183657', '-0.06683737', '0.010833842', '-0.018652562', '-0.0296344', '-0.028078632', '-0.013793146', '-0.023683142', '0.04143733', '0.020772124', '-0.0015096363', '-0.011434675', '0.070406534', '0.060093705', '-0.027778385', '0.024887469', '-0.0021528355', '0.0025043108', '-0.050660722', '0.003683007', '0.0070396517', '0.05303215', '-0.017252974', '0.002881193', '0.07263057', '0.032104287', '0.039235514', '-0.058828887', '0.01972811', '0.0018090679', '0.048593596', '-0.01071941', '0.010304185', '-0.049489446', '0.036642097', '-0.024441732', '-0.005567925', '-0.025918195', '-0.026560841', '0.059923016', '-0.018359665', '-0.040738333', '-0.01815256']
14, ['0.03963967', '0.0068473658', '0.0006792336', '-0.030203441', '-0.019742511', '-0.025036268', '0.059419934', '-0.037359208', '-0.011757283', '0.04966169', '0.01747075', '-0.013689141', '-0.0036783419', '-0.040395677', '-0.034647133', '-0.063334666', '-0.0586861', '-0.021583453', '0.06246973', '-0.0005083885', '0.046759367', '-0.0035412253', '0.047587648', '-0.00046760624', '-0.021786332', '-0.0065515903', '-0.029167606', '-0.008070128', '-0.06912974', '-0.0034538973', '-0.071965195', '-0.0766716', '0.032652065', '-0.031698935', '-0.057847913', '0.03738276', '0.016874027', '-0.065534495', '-0.00035618004', '-0.029754562', '-0.00054652523', '-0.019903481', '0.04018547', '0.0053144014', '0.0288695', '-0.006494031', '0.06790704', '0.040967073', '-0.05175701', '0.00505687', '-0.060995907', '0.08398975', '0.01688883', '0.0018977975', '0.0034860517', '-0.09726635', '-0.0015510322', '-0.06717573', '-0.04024689', '-0.012389303', '-0.077684864', '0.028123666', '-0.00855336', '-0.0005607071', '-0.019088749', '0.14204492', '0.0005709385', '0.002594099', '-0.018336173', '-0.049931787', '-0.06616911', '-0.059764855', '0.021220587', '-0.084421694', '0.010387945', '0.02446716', '0.0015106153', '-0.0016872357', '0.049381234', '-0.028248364', '0.031461976', '0.025610274', '-0.006568699', '0.017727016', '-0.016735092', '0.04934027', '-0.020056268', '-0.043425087', '0.010249955', '-0.009797447', '0.04551307', '0.029428119', '-0.020683696', '-0.014340576', '-0.08612314', '0.039027747', '-0.08427014', '0.12981384', '0.01804603', '0.045062512', '-0.014550179', '0.0030737985', '-0.008366698', '-0.04308454', '-0.011759481', '-0.037201192', '0.055396378', '0.03687711', '0.042940542', '-0.023025526', '0.040581543', '-0.024712054', '-0.01267685', '0.028105307', '-0.02970276', '0.00052496785', '0.03311983', '0.024252728', '0.063068345', '0.017203517', '-0.097971834', '0.01712223', '-0.06475468', '-0.014691765', '0.08679408', '-0.027315587', '-0.008051457', '0.009033469', '-0.021727787', '0.036011364', '0.009575848', '0.011616058', '0.045527454', '0.029840767', '-0.043027386', '-0.022429017', '0.034154717', '0.023580072', '0.0044405665', '-0.006793963', '-0.023526587', '-0.005918724', '0.031820398', '0.043269835', '0.0057974425', '0.024343928', '0.07872162', '-0.078134574', '-0.048006423', '0.012751453', '-0.05180999', '-0.0884748', '0.07054697', '-0.029144505', '-0.029302523', '0.03917756', '0.020962495', '0.013056728', '-0.030488623', '-0.0021558024', '-0.015975108', '0.030877944', '-0.013590075', '-0.043590896', '-0.02974388', '0.007163237', '0.02501317', '0.016838545', '0.10464883', '0.016065242', '0.0033209163', '-0.009194688', '0.027240282', '-0.032159958', '0.066720836', '-3.967597e-05', '-0.018516004', '-0.04909461', '0.037766777', '-0.024580283', '-0.006656769', '0.038846284', '0.02092377', '0.024267718', '0.014189215', '0.0011623476', '-0.005124348', '-0.00923838', '-0.026167508', '0.010577957', '0.044088453', '-0.0037437344', '0.03821239', '0.002378768', '0.0060823667', '-0.017526994', '-0.07387627', '0.0026498272', '-0.065866366', '-0.051978912', '0.05231469', '0.03412748', '-0.024323922', '0.124259174', '0.040405493', '-0.09780112', '0.03608722', '0.032937758', '-0.012118107', '0.033083405', '0.036411535', '-0.030581575', '-0.012648442', '-0.03381539', '-0.048678245', '0.06322362', '-0.06641847', '-0.017230399', '-0.049806677', '-0.04242518', '-0.09866014', '-0.047943633', '0.020815264', '-0.012897357', '-0.04348945', '-0.02759892', '0.022131715', '-0.03222154', '-0.0047175763', '0.02851639', '0.011187302', '0.047894903', '0.039882477', '-0.028240778', '-0.021444619', '0.010540271', '0.06870444', '0.0533115', '-0.021544138', '0.074318394', '-0.058419835', '0.072243854', '-0.024658205', '0.023618829', '0.022602588', '0.044741966', '0.026242035', '-0.048533984', '0.047211416', '-0.0045388406', '-0.04107803', '0.019082349', '0.052168358', '-0.049778305', '-0.00015799003', '-0.060206015', '-0.06513822', '-0.060101986', '-0.015660526', '-0.02720264', '-0.009264196', '0.028715776', '-0.021863572', '0.013861897', '0.06504528', '-0.031811547', '-0.050447695', '-0.028631112', '0.028775642', '-0.014533919', '-0.01529645', '-0.024988146', '-0.03291294', '0.04534437', '0.055651855', '0.0423148', '-0.027331715', '-0.053491425', '-0.046885762', '0.04480119', '0.049128607', '-0.026240578', '-0.03911244', '0.03717267', '-0.0855994', '0.0018181136', '-0.019053703', '-0.05349748', '-0.015567273', '0.047445733', '0.03275048', '0.04932966', '0.011417627', '0.004931003', '0.024548851', '0.10491724', '-0.009242911', '-0.039808523', '0.020386357', '-0.037228197']
15, ['-0.01676648', '0.02410721', '-0.0024751325', '0.0013311505', '0.017352203', '0.022541003', '0.03170596', '-0.010102618', '0.00947558', '0.034679476', '-0.067727685', '0.014397343', '-0.01297009', '0.0299929', '0.023402568', '0.025846517', '0.071457334', '-0.03720078', '0.038993407', '0.017290335', '0.024382198', '0.02371762', '0.0018393317', '-0.01940458', '0.02943043', '-0.047234606', '0.07158916', '-0.0034110136', '-0.053317692', '0.008023319', '0.0590124', '-0.01767423', '-0.04815442', '-0.0069291787', '-0.0060352753', '0.014164828', '0.008447266', '-0.015621043', '0.011988371', '0.030178882', '0.03439524', '0.0060362257', '0.0051933387', '0.029709047', '-0.011539211', '-0.018625055', '-0.041516982', '0.008340417', '-0.022987785', '0.03099712', '0.04768942', '0.026650364', '0.0044270786', '0.030061062', '-0.06628942', '0.05291775', '-0.024442846', '-0.020704525', '0.00371933', '-0.028323596', '-0.0086758025', '0.028597327', '-0.020873165', '-0.031212114', '0.0323354', '-0.025457155', '0.022769064', '-0.036023673', '-0.0006904534', '-0.023972914', '0.021824783', '-0.019471522', '0.00542004', '0.016173178', '-0.012506055', '0.02355558', '-0.01836486', '-0.014615564', '0.026499385', '2.488322e-05', '-0.015947461', '0.035136107', '0.02283035', '-0.02544057', '-0.029001128', '0.006002968', '-0.07713753', '0.0011296107', '0.016563056', '0.12258105', '-0.0019447512', '0.0021282858', '-0.022245118', '0.027829565', '-0.050262775', '-0.01087251', '0.032917827', '-0.036445998', '0.024061013', '-0.04261156', '-0.039076608', '0.013531225', '0.001825428', '-0.037211254', '0.048688963', '0.003190148', '-0.011596202', '0.036915265', '0.022572834', '-0.055877008', '0.040220555', '0.058807332', '0.03565517', '0.011159323', '0.02381978', '-0.077190354', '-0.019083316', '0.007175163', '0.005776724', '-0.012766871', '-0.060891137', '-0.0052642734', '-0.020165863', '0.05355086', '-0.061579034', '0.029330213', '-0.05395501', '-0.042791814', '0.0033396191', '-0.033703994', '0.0120046735', '0.026723063', '-0.03459684', '-0.00804815', '0.031505812', '0.030431546', '-0.001415921', '-0.015603077', '-0.016055971', '-0.0051461197', '0.01729629', '-0.013499328', '0.026610304', '-0.055143807', '-0.010515096', '0.072352245', '0.019390969', '0.016256042', '0.010011971', '-0.02133891', '0.021968683', '0.010569802', '0.010502073', '0.012643653', '-0.019404469', '0.020841496', '0.037188057', '0.0065700985', '-0.009262105', '-0.031897258', '-0.022436608', '0.03349781', '-0.00530582', '0.041588128', '0.058578677', '-0.02484039', '-0.023002079', '-0.01794617', '-0.010232886', '-0.052168354', '0.048764132', '0.011157724', '-0.046916217', '-0.032394644', '-0.0123657035', '0.0007227209', '-0.01226946', '0.027420005', '-0.04919899', '0.03216549', '0.05199073', '-0.013551142', '0.042491358', '-0.017314712', '-0.0046781115', '0.06547743', '-0.03247164', '0.027982205', '-0.002227541', '-0.011579302', '0.018916657', '-0.027856585', '-0.09930709', '0.007270812', '-0.00046687567', '-0.008030501', '-0.04316161', '-0.0058709676', '-0.042614635', '0.06318844', '0.0053849504', '-0.010669942', '0.0377369', '-0.0434935', '-0.050827697', '-0.0001881568', '-0.011944708', '0.017828254', '-0.04325907', '0.06528669', '0.0045158626', '0.081084795', '-0.028111422', '0.00816813', '-0.008065341', '-0.022900136', '0.053573087', '-0.017342106', '-0.0067671016', '-0.053202134', '0.02327836', '0.046082847', '0.07719898', '-0.05444844', '0.018771991', '-0.00053263817', '-0.002190545', '0.03878065', '-0.007952235', '-0.030321324', '0.039708197', '-0.03232289', '0.0105762025', '-0.052226298', '-0.0020729238', '-0.073597044', '-0.0027214072', '0.02759977', '0.01533405', '0.0046181367', '-0.027016416', '0.023282396', '-0.067134924', '-0.007899395', '0.020945124', '-0.018985828', '0.010816965', '0.0037686152', '0.079313055', '0.055100475', '-0.02808977', '-0.058054976', '-0.012680114', '-0.030643793', '0.048752278', '-0.054953393', '-0.05106861', '-0.06192874', '-0.031180466', '0.008701943', '0.011905384', '-0.05453904', '0.053475905', '-0.031805445', '-0.032825533', '0.05750776', '-0.0025936684', '0.0241117', '-0.020954812', '-0.0095944395', '0.001050312', '0.026137734', '-0.0030631013', '-0.0394355', '0.02431087', '-0.028781036', '-0.008025146', '-0.0055205273', '-0.009341605', '-0.060257006', '-0.012987424', '-0.0049007223', '0.034016922', '0.014272367', '0.040360887', '-0.026778884', '0.031576913', '-0.020217778', '-0.030731091', '-0.01626692', '-0.047233604', '-0.05101189', '0.04838037', '0.02037868', '0.031178117', '0.033652417', '-0.03708228', '-0.044508044', '-0.018322391', '-0.0037363262']
16, ['-0.05283401', '-0.0741941', '-0.0022254242', '-0.010859801', '-0.034906812', '0.03294262', '-0.007521868', '-0.0002174909', '-0.041714862', '-0.047506247', '0.008188273', '0.058653653', '-0.019513939', '0.025624195', '0.109025754', '0.05634798', '-0.0075724362', '0.051492427', '-0.04551291', '-0.06120029', '0.016563468', '0.016844122', '0.03085493', '-0.0027641926', '0.033696022', '0.017581882', '0.014731216', '0.09156535', '0.0056704194', '-0.04463803', '-0.053132612', '-0.0773123', '0.027648173', '-0.0545342', '0.04575479', '0.0016263762', '-0.04667638', '0.07962701', '0.011617201', '-0.047340203', '-0.0007704945', '-0.05979598', '-0.07601032', '-0.040881634', '0.017315887', '0.04270565', '0.020195808', '0.011624042', '-0.017244196', '-0.054293454', '0.027994873', '0.012524746', '-0.06525484', '-0.0015913567', '-0.031412434', '-0.03497699', '0.060220417', '0.043058846', '-0.015351555', '-0.044945117', '0.04449152', '0.018945709', '-0.044566974', '-0.015702758', '0.020088395', '-0.0043821717', '0.009736558', '-0.04931387', '-0.016822197', '0.091622524', '0.0432945', '-0.009848124', '-0.018681485', '-0.0428046', '0.03130576', '-0.02178634', '-0.0064850743', '0.014527855', '-0.05499384', '-0.0583536', '0.005374161', '-0.04506477', '0.04119209', '0.032914154', '-0.01729345', '0.022786591', '-0.018339712', '-0.0007367342', '0.025507754', '0.012331538', '0.072713174', '-0.035381384', '0.04705988', '0.0245858', '-0.028726762', '-0.014738826', '0.041770503', '-0.0004762146', '-0.03676144', '0.06934608', '-0.09008151', '0.0040409053', '0.010581359', '-0.06977146', '0.026234677', '-0.036732763', '-0.042201146', '-0.0065757837', '-0.12928975', '-0.024803095', '-0.0017881201', '-0.03708', '-0.044233415', '0.009044627', '0.040176056', '0.0056657675', '0.023906266', '0.052369162', '-0.014189272', '-0.034893125', '0.01440778', '-0.021340698', '0.045479555', '0.05806959', '0.040586017', '0.032525416', '0.009120121', '0.04167127', '-0.037848108', '-0.0076916087', '-0.0050316043', '0.042894214', '0.012116055', '0.04502181', '0.026511766', '-0.08435655', '0.022815734', '-0.026314994', '-0.044788614', '0.017712377', '-0.033555847', '0.02600221', '0.027088467', '-0.0071337805', '-0.0625503', '0.062050622', '0.009019861', '0.0035751404', '0.003106634', '0.029083725', '0.0022345376', '-0.036893215', '0.0425993', '0.022454048', '-0.0032604297', '0.04607159', '0.040043015', '0.023678435', '0.072268985', '-0.05663438', '-0.011115808', '0.062095333', '-0.022820825', '-0.040059038', '-0.032276914', '0.0030837092', '0.038562108', '-0.025080664', '0.022303205', '-0.0028406475', '0.021591611', '-0.031555284', '-0.015568347', '-0.008943978', '0.07606549', '0.019893132', '0.056151453', '0.03573395', '-0.016836021', '-0.0035575079', '0.03399029', '-0.06787409', '-0.008764037', '-0.032885183', '0.05607868', '-0.015728775', '-0.009748297', '0.023136387', '0.013342775', '-0.0894268', '-0.032887403', '0.036250975', '-0.046866037', '0.011589119', '-0.033144444', '0.011360276', '0.014028297', '0.031580523', '0.0064765406', '-0.018136328', '0.00056788407', '-0.001407202', '-0.03872891', '0.018533746', '-0.07479077', '-0.09170206', '0.052687347', '0.017505195', '-0.029133663', '0.05416338', '0.044784013', '-0.011269627', '0.026530199', '0.008941121', '0.024379998', '-0.04820322', '-0.008789966', '-0.08159768', '0.023576865', '-0.019784207', '0.006004686', '0.019139025', '0.035230175', '0.05765263', '0.022143919', '0.023846854', '-0.058453012', '-0.05958885', '0.010237719', '-0.036359355', '-0.03743749', '-0.013253588', '0.02121168', '0.052692007', '0.060258042', '-8.907912e-06', '0.0054095928', '-0.038683694', '-0.061654523', '-0.05115315', '0.034498803', '-0.023419926', '-0.049637944', '0.039733294', '0.006528693', '0.025979452', '0.028105771', '0.038421117', '-0.013672516', '0.004275671', '-0.042809967', '-0.00950392', '-0.052764557', '0.015358634', '0.037360046', '0.0212263', '-0.04815148', '-0.00089410605', '0.06466147', '0.0032377252', '-0.03061672', '0.0020192978', '-0.028865328', '0.07383733', '0.024619589', '0.083102286', '0.06921582', '0.030826846', '-0.024713233', '-0.01196298', '0.022528607', '-0.01702804', '-0.016972367', '0.011394897', '0.006745603', '0.008341332', '0.08006312', '0.0010354422', '0.06477429', '0.08180714', '0.0822833', '-0.020135919', '-0.0065447427', '0.04273598', '-0.09373239', '0.034858145', '0.026116362', '-0.032516178', '-0.018279573', '-0.058031574', '0.0076370644', '-0.026883705', '0.025230682', '-0.04165457', '0.062665', '0.028530827', '0.07666167', '0.028882865', '-0.0005302374', '0.019451665']
17, ['0.055042807', '0.030447822', '0.0045856214', '-0.032851547', '0.01952642', '-0.023317426', '-0.0184284', '-0.01384134', '-0.014171385', '0.055375695', '0.0024230308', '-0.015115777', '0.0380719', '-0.06244521', '-0.024791341', '0.013416738', '-0.0015405032', '-0.08868968', '0.0041803853', '0.011882778', '0.010399786', '-0.0477993', '-0.037016194', '0.011664673', '-0.018450772', '0.065373525', '-0.008024649', '-0.03172774', '0.009739262', '-0.00089918915', '-0.01345928', '0.02640359', '-0.039429475', '-0.02046109', '-0.04960634', '-0.01570138', '-0.027866386', '-0.05453297', '0.026280355', '0.045432623', '0.017423667', '-0.028389266', '-0.031335074', '-0.02692076', '0.03407128', '0.023729313', '0.03347945', '-0.007466319', '0.029526003', '-0.06639893', '-0.006020609', '-0.007896803', '0.02863955', '0.019134708', '-0.030865408', '0.018654099', '-0.0014476386', '-0.011867455', '0.020803832', '0.036542587', '-0.034099616', '-0.0034043335', '0.016360201', '0.0062305667', '-0.04327176', '0.03299025', '-0.007993312', '-0.048951477', '-0.032945074', '0.048974976', '0.009558467', '-0.02912327', '-0.051652055', '-0.019669121', '0.024150208', '-0.018523764', '0.056036122', '-0.024407646', '0.00025923192', '-0.04397375', '-0.02647967', '0.0014322959', '0.019327186', '0.004909636', '-0.0090708835', '0.0015048936', '-0.024675937', '-0.05175263', '0.0017528073', '-0.034021325', '-0.0013792812', '0.031013643', '-0.00206521', '-0.019334208', '-0.041990414', '0.022019241', '0.048509654', '-0.020712413', '0.008489795', '0.06680029', '0.029224796', '-0.043304186', '0.0024612246', '-0.05081799', '-0.010828092', '-0.0657655', '-0.011035319', '0.06706147', '-0.012998763', '0.017493699', '0.025596688', '0.044900168', '-0.013319933', '0.049423706', '0.055133693', '-0.010319921', '-0.06961536', '-0.014360563', '0.017332751', '-0.021055259', '0.04788148', '-0.0750374', '0.00094686315', '0.021031851', '-0.011018241', '-0.065425135', '0.0034616175', '-0.05062532', '-0.047937058', '0.0074236877', '0.03820306', '-0.03703385', '-0.007653456', '0.022057574', '-0.037581857', '0.018142119', '0.0038125182', '0.05037111', '-0.017113458', '-0.015834909', '-0.04250921', '-0.014199987', '-0.04033751', '-0.044992015', '0.027475065', '-0.04029535', '-0.00013775607', '-0.007369545', '-0.0011489759', '0.074339435', '-0.010002066', '0.021618014', '-0.05249419', '-0.029186336', '-0.0016977174', '0.0461886', '0.032917753', '0.00018155297', '0.0018949802', '-0.021426123', '0.010458628', '-0.025978727', '-0.00549759', '0.0036176767', '-0.023172371', '0.035231132', '-0.019874725', '-0.040278982', '-0.058409978', '-0.011871441', '-0.01400633', '0.0044622924', '0.0074809496', '-0.002256761', '-0.019672407', '0.031697225', '-0.0034623754', '-0.009467973', '-0.022869894', '0.08574757', '0.058220074', '-0.035445735', '-0.03155768', '0.029575825', '-0.039856575', '0.013723813', '-0.019682655', '0.08704919', '0.0014779246', '0.033989903', '-0.057370927', '-0.024460891', '-0.03759402', '-0.04691363', '-0.06978759', '0.06530497', '0.0067615705', '-0.02437695', '-0.017927606', '0.04347151', '-0.03201385', '0.059040762', '-0.03625429', '-0.014303217', '0.025756177', '0.052889135', '0.033609573', '-0.036716264', '-0.043562524', '0.05065174', '-0.005003727', '-0.017856129', '0.06709337', '0.020879677', '-0.011011014', '-0.008918697', '-0.0046843104', '0.027107505', '-0.0059422227', '0.032419223', '0.04509985', '-0.023775527', '0.0028861214', '-0.027243648', '0.047651', '0.019862182', '0.0031760589', '0.0033834507', '-0.031840604', '0.03715364', '0.0065958435', '0.004463088', '0.02020595', '0.00012738182', '0.026059493', '0.04292743', '-0.013250048', '-0.016839974', '0.028798498', '0.07233475', '-0.0071937162', '0.058033697', '-0.06387531', '-0.022691721', '0.005582597', '0.021125713', '-0.051728543', '0.01855582', '-0.017768009', '0.0034805695', '-0.015108298', '0.049892616', '-0.00847463', '0.026787968', '0.008340592', '0.0019643097', '-0.048157968', '0.00737781', '0.048325837', '-0.038332693', '-0.020480338', '0.0045777555', '-0.043751355', '0.0061048903', '-0.03356625', '0.022938281', '-0.02318654', '0.042277347', '0.023157606', '-0.019870227', '0.060748458', '0.018113397', '-0.0053892173', '0.07826025', '-0.04737304', '0.05960431', '-0.040130377', '-0.00055019686', '0.02930186', '-0.008185787', '0.03151046', '0.020983998', '0.010940193', '-0.0123634', '0.036453106', '-0.017966224', '0.006951566', '0.038746163', '0.013754295', '-0.0007247108', '0.006620221', '-0.021303901', '0.016831141', '-0.017552756', '-0.03912119', '0.019508304', '-0.032358885', '-0.0072578974', '-0.018454727', '0.019028775']
18, ['-0.02679512', '0.0056864675', '-0.049862426', '0.00532214', '-0.0149352485', '-0.04519534', '0.012582352', '-0.04077319', '-0.02157858', '0.047446106', '0.012745647', '0.06905789', '-0.012090495', '0.007835362', '-0.032908462', '-0.0017509819', '-0.055380818', '0.023279386', '0.0075369673', '-0.027900964', '0.048115928', '0.03991985', '0.030191263', '-0.036311787', '-0.018291002', '0.07040038', '0.039873928', '0.012477838', '-0.009446159', '0.0035921459', '-0.002598089', '-0.039118882', '0.055541117', '-0.0333891', '-0.043564167', '0.04790979', '-0.036200196', '0.054726295', '0.0073259505', '-0.051912434', '-0.021639913', '-0.023688173', '0.022333652', '-0.015760697', '0.006396982', '0.017085224', '-0.006901705', '-0.015890678', '0.024725812', '-0.039477922', '0.007878613', '-0.006919618', '0.030023674', '0.028893368', '0.06817693', '-0.0005195197', '-0.0018789222', '-0.02397971', '-0.0012694317', '-0.051352397', '-0.012764436', '-0.050020617', '-0.019842211', '-0.026915377', '-0.05862688', '-0.02748908', '0.06765539', '-0.0034990145', '-0.008417162', '0.011179437', '-0.0087251235', '0.07929655', '-0.055158537', '-0.01752642', '0.024245905', '-0.0017903693', '0.045937937', '-0.020835016', '-0.08389558', '0.07336097', '-0.028707989', '-0.024099294', '-0.031671245', '0.021961026', '0.0017670805', '0.00820607', '0.03208049', '-0.06973759', '0.021501698', '0.056655787', '-0.030030033', '0.014894151', '0.055752106', '0.0057767835', '-0.0046197567', '-0.03271111', '0.016191028', '3.9719587e-05', '0.01833905', '-0.084047966', '-0.016380023', '-0.024942553', '-0.026869694', '0.046077948', '0.053875376', '0.042898927', '0.010235822', '-0.03883612', '-0.058274794', '0.02295244', '0.0356529', '0.053310562', '0.051617026', '-0.0064314087', '5.0788126e-06', '-0.009375874', '-0.0398148', '0.13095465', '0.047529507', '-0.015012074', '-0.06498248', '0.037829544', '0.021247495', '-0.061120976', '-0.021211565', '-0.024422254', '0.0609182', '0.038759112', '0.008836336', '-0.013773449', '0.021392198', '0.008912932', '-0.012729864', '0.022026261', '0.064926535', '0.050986707', '-0.029961934', '-0.01706181', '0.08534584', '-0.006115967', '0.05627946', '0.008787865', '-0.02182027', '0.042695478', '0.009206602', '-0.063703984', '-0.08325114', '-0.03623386', '-0.013493401', '0.011890106', '0.04765738', '-0.015610472', '0.0016524132', '0.04729953', '0.005508725', '-0.037168816', '-0.030567598', '0.004790053', '0.012345926', '-0.030087227', '-0.00058579195', '0.039701015', '0.04473466', '0.072471745', '-0.028894605', '0.011787181', '0.03055544', '-0.019787148', '0.009150794', '-0.006157216', '0.011932879', '0.071864456', '-0.045191813', '-0.018525615', '0.015644096', '0.009659655', '-0.01653705', '0.007492866', '-0.0034078585', '-0.014938095', '-0.010723825', '-0.0030382406', '-0.013999695', '0.005303518', '-0.075078554', '0.01904109', '0.047015645', '-0.006913405', '0.016195431', '0.064875625', '-0.008763333', '0.039860938', '-0.045179978', '0.01686756', '0.007693368', '-0.06938677', '0.032892972', '-0.05104885', '-0.008117689', '0.022459507', '0.011497341', '-0.06460125', '0.062788285', '0.063798875', '0.06100368', '0.03606175', '0.058587383', '0.015999286', '-0.024569195', '-0.07037128', '0.060090914', '0.017022574', '-0.0077734566', '0.04173514', '0.10486737', '-0.044705484', '0.07671767', '0.050538745', '0.011291808', '-0.006246866', '0.0028629967', '-0.055665053', '-0.058923736', '0.022529665', '0.016286198', '-0.01712047', '0.007959448', '0.022529148', '0.047575653', '0.034539312', '-0.06263673', '0.020860719', '-0.057284303', '0.01059212', '0.039303098', '0.03164661', '-0.02182481', '-0.045644186', '-0.034551635', '0.016931279', '0.07312688', '0.009230567', '0.048045464', '-0.026762499', '-0.098359324', '0.03693926', '0.007986215', '-0.028958468', '-0.095334254', '0.04421781', '-0.05418052', '0.05352192', '-0.0036212187', '0.07938357', '0.02414068', '0.028740924', '-0.005305126', '0.05687254', '-0.01518394', '0.006084105', '-0.074090615', '-0.015363985', '0.067029364', '-0.0434336', '-0.00854458', '-0.031194756', '0.0071953773', '-0.067604765', '0.06372005', '0.00021399229', '-0.010825313', '-0.01634222', '0.012809891', '0.00251659', '-0.052202318', '0.0068461928', '-0.02582184', '-0.038498197', '-0.050019916', '0.037798107', '-0.02117301', '0.002658126', '-0.067758225', '0.03651467', '0.024121197', '-0.022312602', '0.026757272', '0.004319234', '-0.04937256', '0.04891184', '-0.03167213', '-0.025456132', '-0.049425308', '0.030747043', '0.058435902', '-0.013709721', '0.01017846', '0.00701619', '0.011849329', '0.05071603']
19, ['0.009904641', '-0.064345345', '-0.01610505', '-0.000139231', '0.098564066', '0.06401917', '-0.0024307834', '-0.027191991', '-0.080259085', '-0.038795557', '-0.02159577', '0.05307861', '-0.009662577', '-0.0019353584', '-0.012373678', '0.025632612', '0.07282193', '-0.0034630918', '0.04603071', '0.040575404', '-0.005270546', '0.017345827', '0.019809369', '-0.06565311', '0.022906508', '-0.084403254', '0.052261416', '-0.02983259', '0.04970977', '-0.011977283', '0.02518245', '0.06168206', '0.015585776', '0.045144994', '0.0077906824', '0.004466135', '0.020705562', '-0.065812424', '0.07532752', '-0.051514946', '0.052148186', '0.02322296', '-0.028433837', '-0.04291617', '0.035383467', '-0.044589564', '-0.04029908', '-0.0022823256', '-0.026639456', '-0.050615177', '-0.029727798', '0.04080719', '0.043605674', '-0.008380554', '0.05897095', '0.0016966236', '-0.03318305', '0.013494466', '0.0020229232', '-0.035884947', '-0.0632017', '0.0035979182', '-0.01517366', '0.021534497', '-0.038758457', '-0.045523845', '0.00063340814', '0.04837355', '-0.006032279', '0.064318664', '0.022642093', '-0.07958421', '0.029273177', '-0.017705625', '0.029298292', '-0.06769252', '0.05976504', '-0.021477802', '-0.032580666', '-0.08298357', '-0.027312007', '-0.03634819', '-0.077001974', '0.038132958', '0.04492892', '-0.013713373', '0.06971969', '-0.006643485', '-0.025846664', '0.06677043', '0.08158102', '-0.0031284788', '-0.07283731', '0.07339682', '-0.04964212', '0.027850121', '-0.024436828', '0.012539998', '0.0006812886', '0.0053497883', '0.03666524', '0.011696483', '-0.024840908', '-0.04561484', '-0.03748178', '0.005888522', '-0.02622264', '0.0035534075', '-0.009710428', '-0.007159413', '-0.026273029', '-0.026385557', '0.024523675', '-0.008064048', '-0.035849728', '0.03415888', '0.01102617', '-0.07106821', '0.026760725', '0.017334858', '-0.048739683', '-0.04109525', '-0.025243465', '0.0045153485', '-0.06224474', '-0.07483661', '-0.015964385', '0.024055846', '-0.03641382', '-0.041813627', '-0.0038463934', '0.0011680869', '-0.06515576', '0.05730927', '-0.05090579', '0.07392463', '0.067000434', '-0.03429019', '-0.11709914', '0.003246787', '0.0662029', '-0.08660885', '-0.03605342', '-0.010221592', '-0.014197268', '-0.011254217', '-0.046929717', '-0.054558214', '-0.0071617984', '-0.046423566', '0.008384864', '-0.029728593', '0.044108283', '-0.029078683', '-0.009953482', '-0.005624887', '0.0022055353', '-0.0068295137', '-0.028582796', '0.019579677', '-0.046931453', '-0.033111576', '0.06262687', '-0.01976883', '-0.023010692', '0.017940791', '0.03267335', '0.07485561', '0.053559117', '0.0119867055', '-0.0011103437', '-0.028208314', '0.036486283', '-0.031096155', '0.04450814', '0.009264985', '0.00078174745', '0.03776164', '-0.063650444', '0.023500202', '-0.006108917', '0.006156478', '0.010927366', '0.09669773', '-0.0033697814', '-0.03975176', '0.028341586', '0.0293661', '-0.031553097', '0.05505091', '0.014502471', '-0.020961741', '0.04840292', '-0.03928014', '-0.07151247', '-0.019679215', '0.045054283', '0.022835154', '-0.008974171', '-0.061787345', '-0.010901758', '0.041284088', '-0.002934841', '-0.024564032', '-0.009481988', '0.009921079', '0.021939097', '-0.08409692', '0.008741667', '0.06709052', '-0.047240634', '0.042221863', '0.012973248', '0.008297284', '-0.003330591', '0.0062771672', '0.032685846', '0.08240492', '0.044689287', '0.012972226', '0.023762874', '0.046285104', '0.027424345', '0.04007181', '0.013888668', '-0.022879053', '-0.060309157', '-0.01554769', '0.012760318', '-0.0432191', '-0.019580802', '0.035563555', '0.119161546', '0.039986175', '-0.029937256', '0.0016106563', '0.0439302', '-0.011391742', '-0.0110337585', '-0.020955365', '-0.0019528772', '-0.029084096', '-0.0041976757', '0.058635797', '-0.0068314113', '-0.015093368', '0.0027030122', '0.022130243', '0.03273235', '0.027769132', '-0.02427874', '-0.012254935', '-0.03985595', '-0.05658695', '-0.016690113', '-0.057845253', '-0.01719686', '-0.001820581', '-0.022156136', '-0.00504073', '0.0392269', '0.08068903', '0.018150976', '-0.02020607', '-0.041267797', '-0.033420075', '0.016413365', '0.027951928', '-0.0141522745', '0.044080485', '-0.010036617', '0.030344727', '0.038504433', '0.005893993', '-0.017361082', '0.074908264', '0.04456081', '-0.00591245', '0.026106633', '-0.023846976', '0.034370665', '0.012562832', '0.0058183405', '0.11756225', '0.005118457', '0.08139699', '0.007357963', '-0.039753154', '-0.011237529', '0.013437739', '0.03163071', '0.018560328', '-0.032011908', '0.020723859', '-0.038558085', '0.027439997', '0.022546941', '-0.0360615', '0.046979435', '0.031136574']
20, ['-0.02056279', '-0.083782256', '0.020291032', '0.016285554', '0.057393424', '-0.059644744', '0.021206869', '-0.040499315', '0.031055251', '0.04962502', '-0.017825106', '-0.03751028', '-0.019430673', '0.0058905846', '0.026365655', '0.027190767', '-0.026716147', '0.062186703', '0.04006671', '0.009842343', '0.018204365', '0.028052377', '-0.057252143', '-0.022671407', '-0.063040994', '-0.0449817', '-0.02704512', '0.06409715', '0.0030673507', '0.045243435', '-0.036486737', '-0.076687574', '-0.013472401', '0.0027683608', '-0.047473077', '-0.019671554', '0.00063608174', '0.025782885', '-0.036614858', '-0.05814338', '0.04048745', '0.007973252', '0.03391104', '-0.028298663', '0.0067913937', '0.00068637484', '0.020379776', '0.0035088814', '-0.05140771', '-0.044055004', '0.038417827', '0.00045308212', '0.035420287', '0.014816483', '-0.014954284', '-0.022321561', '-0.056056745', '0.0061012977', '-0.007607643', '-0.04054917', '-0.025097083', '-0.04307829', '0.0071624187', '-0.068143085', '-0.07533119', '0.0013015099', '0.008907887', '-0.04089643', '0.016699458', '0.06429651', '-0.031313647', '0.001403181', '0.057373244', '0.041707303', '-0.01784854', '-0.003787286', '-0.01733709', '0.0048086513', '0.024617745', '0.002800599', '-0.0019476817', '-0.018021353', '-0.018912176', '0.045765806', '0.06332423', '-0.0022186353', '0.00962305', '-0.029235581', '-0.013723769', '-0.02732337', '-0.008711854', '-0.01272336', '-0.0022436383', '-0.04292916', '-0.10714108', '0.02787752', '0.012947607', '0.024657955', '0.011016567', '0.009240298', '0.014613047', '-0.0074777785', '-0.017274925', '0.023058847', '-0.04200072', '-0.009185745', '0.017082881', '0.04942489', '0.06795725', '0.00475588', '0.020816201', '-0.034686822', '-0.0038875763', '0.0107992925', '0.022331895', '0.029299324', '0.013046545', '-0.024691472', '-0.02417322', '-0.0005408184', '0.030431746', '0.031633638', '-0.014984176', '-0.038613353', '-0.059401304', '-0.042644393', '-0.0045324625', '0.07870045', '-0.05345288', '-0.032302294', '0.019720286', '-0.06941999', '0.030642167', '-0.07283394', '0.09992063', '-0.016244644', '-0.03448464', '0.059317295', '0.0886244', '-0.032227583', '-0.024232501', '0.021579398', '0.015386134', '0.033959307', '-0.06435467', '-0.021560961', '0.030519245', '0.021865372', '-0.032775313', '0.008357036', '0.0007420874', '0.027839107', '0.031035155', '0.06796782', '0.0161231', '0.007931588', '0.017640907', '0.013441999', '0.0037473277', '0.03714521', '0.04725143', '-0.051189557', '0.027330939', '-0.048664115', '0.0125497', '-0.021865156', '-0.019558467', '0.014370708', '-0.025643542', '-0.026417775', '0.05250752', '0.023887465', '0.05135826', '0.011449784', '0.008565823', '0.0075079817', '0.048790958', '0.05028879', '-0.055335008', '0.039622124', '0.030243386', '0.045453243', '0.040856175', '-0.0009918236', '0.005183909', '0.018628024', '-0.04138408', '-0.004441381', '0.030747365', '0.035345975', '0.036636356', '0.022003895', '0.034910593', '-0.00083681114', '0.033637203', '0.029996328', '-0.14010984', '-0.039018948', '-0.015233803', '0.00063486816', '-0.044298965', '0.012517222', '0.023641966', '-0.0421153', '0.021832474', '-0.01624555', '-0.010810962', '-0.036597136', '0.038285077', '-0.023690239', '-0.00044188552', '-0.038683303', '-0.013029464', '0.04358989', '0.06256521', '-0.05002048', '-0.06428043', '-0.013681094', '0.010608399', '0.00019632216', '0.051577352', '-0.0023864491', '0.0033201359', '0.0023850035', '-0.015250819', '-0.018472116', '0.01200438', '0.0022974927', '0.039641358', '0.033485636', '0.031154923', '0.013465465', '-0.05357972', '0.0022079963', '0.0019150118', '0.06411397', '-0.036299672', '0.053301707', '0.02410451', '0.05077722', '-0.053463735', '0.00031726487', '0.013409731', '0.030499294', '-0.0133280195', '-0.0041588224', '0.042198054', '0.01627318', '0.04697189', '-0.10613372', '-0.07391719', '0.020026267', '0.015134162', '-0.04995301', '0.06744787', '0.077664', '-0.026895404', '0.012456406', '-0.00012165053', '0.0012581047', '0.019548371', '-0.032463085', '0.030722765', '0.018207803', '-0.024240596', '-0.059610285', '-0.025692957', '-0.011541702', '-0.0401316', '-0.047936767', '-0.00593327', '-0.00019531613', '0.024480332', '0.013383054', '0.031977426', '-0.024201749', '-0.042557746', '-0.0050402037', '-0.0038261325', '-0.0016833401', '-0.009660401', '-0.032921605', '-0.057912614', '0.025903897', '0.015144179', '0.098096885', '-0.039254405', '-0.004597283', '0.039951466', '0.002182133', '0.023324098', '-0.010116405', '0.044475358', '0.011123867', '0.04024936', '-0.010819129', '0.025329193', '-0.028923815', '-0.031498384', '0.04273079']
