0, ['0.006867369', '-0.025262577', '-0.0064083748', '-0.03477518', '-0.023177946', '-0.02247984', '-0.0010393689', '-0.031596564', '-0.055909224', '-0.0051846495', '-0.048536517', '-0.00064688706', '0.008037499', '-0.026214354', '-0.0457991', '0.031856094', '-0.030106552', '-0.026519274', '-0.0018675104', '0.028799525', '-0.0054348675', '0.007461067', '0.017041909', '-0.003911566', '0.011360424', '0.019944778', '0.061206527', '-0.06347412', '0.048932105', '0.0519279', '0.037668657', '-0.014089686', '-0.029118396', '-0.027176863', '0.0033581213', '-0.028578771', '0.005664099', '0.035595857', '-0.016435927', '-0.04156452', '-0.014572229', '-0.02876671', '0.056736458', '-0.00377656', '-0.0030330454', '-0.008309585', '-0.02305846', '-0.012283759', '-0.0060816687', '-0.04236128', '0.012689', '-0.03422071', '0.058003463', '-0.014922279', '-0.027147477', '0.03597616', '-0.040436678', '0.006445072', '-0.013272855', '-0.050451413', '-0.0011935886', '-0.014758795', '-0.008442479', '0.02138287', '-0.017143367', '-0.012620435', '0.02517761', '-0.018993236', '-0.018706571', '0.03194415', '-0.01644809', '0.019179748', '-0.035850957', '0.023327632', '-0.024087489', '0.03368517', '0.028006038', '0.02665625', '0.015508992', '0.049367536', '0.03836349', '-0.010816064', '-0.017880855', '0.010851775', '-0.006185777', '0.016099347', '-0.012120917', '0.007386758', '0.0078073214', '-0.011184349', '-0.008922653', '0.0019292451', '0.003618537', '-0.038285635', '-0.0050480855', '0.0129412245', '0.04625205', '-0.0006409305', '-0.010554843', '0.015188177', '0.047534294', '-0.047018003', '-0.027431866', '-0.0030688841', '0.012047083', '0.030877132', '-0.00175959', '0.013136116', '-0.010577388', '0.028533246', '-0.016962878', '0.03193154', '0.068330936', '-0.0037988818', '0.027533973', '0.02300525', '-0.05970819', '-0.016294055', '0.018001903', '0.01627338', '0.011019433', '0.0478216', '0.011774767', '-0.0009258381', '-0.040824', '-0.034203283', '-0.014355897', '0.030464614', '0.004657829', '0.014304212', '0.01854613', '0.03643269', '0.0018843639', '-0.03594965', '-0.020210192', '0.016942251', '-0.00914714', '0.020462953', '0.05835728', '-0.08713749', '0.02300778', '-0.04134883', '-0.037113614', '0.065803334', '-0.03553047', '-0.023351094', '-0.0072092554', '0.011708341', '0.033731297', '-0.036168486', '-0.037141915', '0.043347567', '-0.029451571', '-0.056288753', '-0.040279295', '0.040667575', '-0.002496489', '0.006680977', '0.013129779', '0.010979715', '-0.0123329675', '-0.0026949418', '0.010860158', '0.042157788', '0.036301617', '-0.016638467', '-0.013752582', '-0.042039447', '0.022849645', '-0.010205156', '0.059676696', '0.045503825', '-0.032644536', '-0.020098556', '0.030320734', '-0.05200736', '-0.028400313', '-0.07351008', '-0.025777508', '0.029981868', '0.005103661', '-0.03573318', '-0.0029357963', '-0.052723628', '-0.0334466', '-0.030265126', '-0.031291083', '0.04557025', '0.04727177', '0.04051017', '0.034559414', '-0.002057301', '-0.04123055', '-0.02478917', '-0.037207365', '0.06979692', '0.046013195', '0.024361765', '-0.02774718', '0.008497408', '0.016912358', '-0.004945684', '0.02886975', '-0.034486897', '0.009123519', '0.04926759', '-0.016875256', '-0.0057521416', '0.060855094', '0.02874843', '0.015670625', '-0.03683984', '0.068366095', '0.030897414', '0.021334058', '0.033354897', '-0.011291785', '0.05282662', '0.01087173', '-0.009011399', '0.008024497', '0.0024455423', '-0.002121686', '-0.015602611', '0.01229533', '-0.02607356', '0.022396762', '0.046438213', '0.00086240354', '-0.031539578', '-0.014235458', '0.033989526', '-0.0015382357', '-0.007855117', '-0.009432976', '0.014127412', '-0.056975488', '0.03468718', '0.03483603', '0.037327476', '0.053522304', '-0.012040353', '0.03516672', '-0.039733104', '0.05353276', '-0.0063071684', '0.004155483', '-0.00052771624', '-0.021101931', '0.053690933', '0.035188206', '0.04239585', '-0.01236792', '0.008217978', '0.04961269', '-0.009343106', '0.050521877', '-0.0462402', '0.004326071', '0.022513656', '-0.025259696', '-0.018727379', '0.05052914', '-0.039647542', '0.045216057', '-0.045043655', '0.009301648', '-0.02198049', '-0.045558922', '0.03361554', '0.03586526', '-0.011896885', '-0.009324878', '-0.03651179', '-0.023961175', '-0.02146319', '0.025398167', '-0.03048266', '-0.009293046', '-0.021138852', '-0.0007271543', '-0.005488124', '0.061661962', '-0.0040913015', '-0.044035558', '0.015561696', '-0.036744297', '-0.009674686', '0.0059604817', '0.09472586', '0.013793727', '-0.014653067', '0.04239682', '-0.03925526', '0.019337246', '0.022589551', '0.048019476', '0.05099552', '0.004763682', '0.04585401']
1, ['-0.03683059', '-0.020224644', '-0.026432473', '0.010256589', '0.018092712', '-0.038059965', '-0.034191657', '-0.007000772', '0.016324691', '-0.05027847', '0.07942252', '-0.054709114', '-0.052563287', '-0.010514814', '-0.015832666', '0.052093018', '-0.0149203185', '-0.025482448', '-0.042854685', '-0.01500824', '0.0036138615', '-0.027287079', '0.024748396', '0.035440177', '0.016667454', '0.042198077', '0.0134144705', '0.0466696', '0.018450418', '-0.033906963', '0.025283841', '-0.025041122', '-0.020403171', '-0.051371194', '-0.012017479', '0.03373893', '-0.012932572', '0.018536616', '-0.016856378', '-0.042374246', '0.05224433', '0.02329007', '0.006031922', '-0.01344035', '-0.002015143', '0.078401156', '0.0007110439', '-0.00790841', '0.002444001', '0.018499231', '0.06346869', '-0.07289425', '0.03273057', '-0.008225649', '0.007232352', '0.0067656827', '0.06870227', '-0.035716552', '0.059938837', '0.007316782', '0.03241831', '0.020011928', '-0.017254485', '-0.0030124604', '0.016476892', '0.053602085', '0.0069288467', '0.022495385', '0.0029043911', '0.078150526', '-0.0039967983', '0.017526763', '-0.03857261', '0.029097257', '-0.04150029', '-0.005295417', '0.0033275536', '-0.034775015', '0.009657227', '-0.014639579', '-0.049212575', '0.026103271', '-0.027309567', '0.057155043', '-0.0042379103', '-0.057940517', '0.02347', '0.020250048', '-0.087314084', '-0.018450595', '0.047800675', '0.013881072', '-0.0068866913', '0.03163411', '0.04522944', '-0.021316655', '-0.016615067', '0.051146783', '0.050926678', '0.007820418', '0.020493716', '0.106486335', '-0.01699829', '0.040991865', '-0.05052513', '-0.054296218', '0.037409652', '0.032557964', '-0.06497788', '-0.027379083', '0.016488925', '-0.003530817', '0.024965797', '-0.008157064', '0.055316586', '-0.02656882', '-0.029205725', '0.009112316', '0.03656545', '0.013056544', '-0.0551165', '0.1138613', '0.0048757913', '0.011245635', '-0.04322307', '-0.017127156', '0.017442789', '-0.025334952', '-0.038091026', '-0.042307526', '0.01271566', '0.05486213', '0.024599206', '-0.0284978', '0.01658164', '-0.025031809', '0.00012497434', '-0.03585598', '0.013029634', '0.0143806385', '0.004077011', '-0.014598573', '0.07518452', '0.053123027', '-0.03439404', '0.026763165', '-0.069725834', '0.020942796', '-0.0034511706', '0.011340491', '-0.0045018024', '0.021824505', '-0.018845743', '-0.031865884', '0.034257274', '0.029146729', '-0.014781097', '-0.028208934', '0.091703385', '0.03751311', '-0.006464131', '0.011557231', '-0.028253468', '-0.024836926', '-0.016565384', '0.02476722', '-0.0022281688', '0.0012989988', '0.009749442', '-0.009316357', '-0.0013625191', '-0.007475672', '-0.038465448', '0.045232873', '0.06948412', '-0.031410117', '0.0017356781', '0.018814279', '0.03311473', '-0.005534567', '0.04082803', '-0.08180984', '0.0756622', '0.026436346', '0.05784568', '0.0027151837', '0.00061401067', '-0.049956203', '0.029250113', '-0.051675152', '0.027725358', '0.04446192', '-0.04786437', '0.043428354', '-0.035327177', '0.022330081', '0.07407004', '0.054278962', '-0.016530175', '-0.05828715', '-0.019620612', '-0.063133955', '-0.06679358', '-0.050842237', '-0.024339873', '-0.018352797', '-0.052161105', '-0.044132926', '0.052987427', '0.07328218', '0.014420935', '-0.0081708925', '-0.0008152279', '-0.014985097', '0.0053916476', '-0.016095327', '0.021611415', '0.03713328', '0.041603677', '-0.054036714', '-0.01197241', '0.07049924', '-0.01196763', '-0.011182576', '0.003062298', '0.0067357784', '-0.050179675', '0.025862094', '0.008173508', '0.045012265', '-0.0043726284', '-0.00942184', '-0.00908027', '-0.009238414', '0.028317133', '0.054717284', '0.05256559', '0.020410897', '-0.024716055', '-0.01366639', '0.038031235', '0.015516349', '0.028640762', '0.050126232', '0.049455017', '0.039319694', '0.037863404', '0.037920255', '-0.0041144', '0.024751542', '-0.011760834', '0.037514273', '-0.053344008', '0.018432984', '0.009206038', '-0.0049708835', '-0.0037703249', '0.013892232', '0.06746615', '-0.0043171286', '-0.08609381', '-0.029329862', '0.019184545', '-0.044338096', '-0.0048254323', '0.06455663', '0.07777845', '-0.0050696004', '-0.041973565', '-0.0017223629', '-0.0038485094', '-0.067176595', '-0.024672598', '-0.038120758', '-0.0038921372', '-0.017971495', '-0.0025901722', '0.04166423', '0.008010569', '-0.053722892', '0.08591299', '-0.008436301', '-0.009862091', '-0.014135237', '-0.015800726', '-0.05314835', '0.00917912', '-0.021635668', '-0.030427542', '-0.01889442', '0.01676567', '0.012141567', '0.006863861', '-0.016506068', '0.03215645', '0.027720658', '0.06924417', '-0.010904667', '-0.03346064', '0.058870386']
2, ['0.06225627', '-0.07405865', '0.015111905', '-0.041826326', '0.0028348947', '0.02809661', '-0.01533801', '-0.0030707228', '-0.0049055642', '0.0087038', '0.020701826', '-0.0040511778', '0.02898988', '-0.032301083', '-0.035822146', '0.016487839', '0.03343875', '-0.04633541', '0.02836405', '-0.036665335', '0.045022253', '-0.033606604', '-0.008285822', '0.06700883', '0.0020626974', '-0.026220791', '0.026182296', '-0.006629072', '0.00848083', '-0.06223312', '-0.009445194', '0.02172058', '0.033532947', '0.01975184', '-0.017859953', '-0.01606359', '0.032006852', '-0.030285202', '0.0072729937', '0.060540635', '0.08405298', '0.00023216991', '-0.015977517', '-0.011823232', '-0.0051362445', '-0.02128396', '-0.011537852', '-0.0066702124', '-0.04426769', '-0.027960353', '0.020432584', '-0.03294192', '0.039091542', '0.04374853', '-0.0014808606', '0.012827309', '0.0025276782', '0.03387178', '0.0019627097', '-0.002271638', '0.03643262', '0.04296062', '0.07395144', '-0.06278914', '0.074310176', '0.0023660015', '-0.0016233851', '-4.2845473e-05', '-0.09462488', '-0.013826517', '-0.069108665', '-0.03979553', '0.035392966', '-0.026822124', '0.001800227', '0.037963018', '0.0008031241', '-0.026107294', '-0.063386954', '0.006205833', '-0.0019633286', '0.0023203476', '-0.033742987', '-0.003187665', '-0.03557661', '0.037211694', '-0.014842923', '-0.016607136', '0.03357932', '0.010390412', '-0.009854027', '0.008720867', '0.0054980614', '0.011373158', '-0.010121529', '0.068499565', '0.026840506', '0.017371962', '0.038790237', '0.0219958', '0.033849884', '0.0027962371', '-0.03427139', '0.006893068', '0.004640479', '-0.022343423', '-0.018038593', '-0.006685146', '-0.06577131', '0.009155971', '0.034095805', '-0.030473435', '0.022365639', '0.044225138', '0.027882926', '0.01337258', '0.017926611', '-0.028036537', '0.013331154', '-0.015255841', '-0.0196614', '-0.04223309', '-0.050780043', '0.03231867', '0.031966448', '-0.009612112', '-0.026293742', '-0.04389873', '0.034085397', '-0.028365932', '0.033752967', '0.03281903', '-0.025179496', '-0.029357921', '-0.05637143', '0.012438188', '0.03203074', '0.014156474', '0.014391007', '-0.023116311', '0.042644307', '-0.01271743', '0.019794513', '-0.014580167', '0.044456765', '0.032079577', '0.076752596', '-0.043608718', '-0.11393927', '0.025685607', '0.043121696', '0.03763245', '-0.024717571', '0.008885895', '-0.040912464', '0.017043332', '-0.027880069', '0.0127329575', '0.009735753', '0.018953195', '-0.0100547625', '-0.048834372', '0.052541714', '-0.017661696', '0.014093284', '0.046486013', '-0.009515233', '-0.0049196584', '0.007834969', '0.058086023', '0.033932485', '-0.055862512', '0.065786384', '0.032302193', '0.0051461724', '-0.016057743', '-0.020367878', '0.02288906', '-0.0070235413', '0.016949145', '-0.018252205', '-0.037726138', '-0.03443428', '0.04109098', '-0.013562013', '-0.029083466', '-0.030295795', '0.025145723', '0.007276946', '0.047735922', '0.016520314', '0.033336226', '0.028568357', '-0.016875817', '0.009447688', '0.038870625', '-0.032814037', '-0.0056196316', '0.006441985', '0.008253722', '-0.011173652', '-0.0063513736', '-0.010809811', '-0.033242475', '-0.029692745', '0.048909966', '-0.054402083', '0.01005773', '0.05549662', '0.031252317', '-0.012827437', '0.026246376', '0.043423407', '0.0056712455', '0.019160068', '-0.014313225', '-0.0036783037', '0.019763054', '0.041223697', '-0.017743386', '-0.010526347', '0.030193713', '0.026617121', '0.009978631', '0.04514033', '-0.042828906', '0.067297876', '-0.08622919', '0.03725742', '0.011378517', '-0.055753693', '0.04688247', '0.020442257', '0.021075232', '-0.043437045', '0.019941395', '-0.015397287', '0.04710001', '-0.0042759823', '0.035497047', '-0.0043819062', '0.02172551', '-0.044246662', '0.0366169', '-0.007473372', '0.05516495', '0.030443968', '0.02714981', '-0.0069267564', '-0.024766784', '-0.010767231', '-0.036795117', '-0.031115554', '-0.0106726205', '0.016299333', '-0.03047102', '0.049431138', '0.029417804', '0.021582015', '0.014203165', '0.010025987', '0.02434775', '0.029920198', '0.007915069', '-0.008619613', '-0.040045805', '0.005380172', '0.053352606', '0.05099034', '-0.009656483', '0.03860533', '-0.057359368', '-0.013169238', '0.038576018', '-0.053259913', '-0.0012594807', '-0.022960601', '-0.005080415', '-0.008162934', '-0.034040034', '0.003922574', '-0.08197736', '-0.011161455', '-0.005603877', '0.019794162', '0.0017716046', '-0.034301065', '-0.057358555', '-0.014293699', '0.027802536', '0.025080949', '-0.022587385', '0.0036511996', '0.034463543', '-0.021702148', '0.0370275', '-0.0010842781', '0.06933114', '-0.035176363', '0.073782474']
3, ['-0.0042793956', '0.046453305', '-0.001576174', '0.012017229', '-0.0037383123', '0.023577148', '-0.027629806', '0.01535943', '0.022028338', '-0.072003536', '-0.030170003', '0.042129613', '-0.014196965', '0.03865591', '-0.039980598', '-0.012480595', '0.028567858', '-0.014420014', '-0.065148205', '-0.079460576', '0.028984264', '0.020340445', '-0.1101966', '0.049930073', '0.10152794', '0.000883825', '0.007135621', '-0.003864104', '-0.008636755', '-0.04906572', '-0.0098863635', '0.0632607', '-0.036632106', '0.0061286264', '0.0043521645', '0.0376481', '0.06682966', '0.027129017', '-0.0767129', '-0.059006006', '-0.019489063', '-0.03493642', '0.0111205', '0.043491367', '-0.037807807', '-0.0021334032', '0.02534504', '0.008566135', '0.0095937755', '0.050641757', '0.05377792', '-0.02181547', '0.0006061863', '0.094346136', '-0.10198196', '-0.06366271', '0.007143113', '-0.046205897', '-0.05041922', '0.03386374', '-0.006788514', '0.014265896', '-0.042483207', '-0.0026651463', '-0.023014864', '-0.030521262', '-0.021409597', '0.0031810538', '0.002184819', '0.061495338', '-0.04520433', '-0.023804009', '0.008459692', '0.07090798', '-0.0108079845', '-0.005899288', '0.005739199', '0.020948062', '-0.06409726', '-0.008082561', '0.005860678', '-0.03649657', '0.05032493', '-0.06105455', '-0.0231929', '0.060727783', '0.01324819', '-0.0028593163', '-0.02200189', '0.081535295', '-0.055106707', '0.019856816', '-0.1077078', '-0.034981787', '0.06300036', '0.14075963', '0.011201806', '0.04729031', '0.04850993', '0.03265747', '-0.034533374', '-0.04025201', '0.003985596', '0.057666786', '-0.09262105', '0.004628214', '-0.07022435', '-0.001724669', '-0.062224615', '-0.0062549124', '-0.104294516', '0.019298654', '0.046706583', '0.041184977', '-0.07089522', '-0.017806953', '-0.029947998', '-0.00257041', '0.047980282', '-0.00014352812', '0.021597348', '-0.074305005', '-0.0019012647', '-0.05667884', '-0.02570326', '-0.016884862', '-0.0018445358', '-0.033180807', '0.03878238', '0.07062094', '-0.018419549', '0.019651707', '0.028678156', '-0.038179748', '-0.04077671', '-0.12302379', '-0.04509058', '-0.09987148', '0.015324905', '-0.010842063', '0.004394915', '-0.033888765', '-0.020734502', '0.011293076', '-0.11522971', '-0.03494013', '0.047976475', '0.010364871', '-0.060600422', '-0.0450663', '0.078446425', '-0.02150248', '-0.1263119', '0.0469826', '-0.10833104', '-0.03162273', '-0.022098', '0.02176129', '0.114469714', '-0.00999709', '-0.028452316', '-0.007054569', '0.04559049', '-0.05751187', '-0.1195659', '-0.07468892', '0.06845771', '-0.015154123', '0.03571632', '-0.07980483', '-0.033501018', '0.08828304', '0.0378904', '-0.010091073', '-0.006564847', '-0.008126216', '-0.02353912', '-0.07479902', '-0.036114614', '-0.0092398105', '0.016803822', '-0.025170596', '0.033208933', '-0.037767235', '-0.04128201', '-0.023108583', '-0.022650238', '0.01111741', '0.019333016', '-0.032093186', '0.034474574', '0.0034782002', '0.04261083', '0.048994005', '-0.068879016', '-0.10194423', '0.027507585', '0.0492972', '0.09174729', '0.013491211', '-0.05789554', '0.042091515', '0.01692714', '-0.062812075', '0.013927132', '0.056123488', '0.07533019', '0.040226474', '-0.042987928', '0.007314986', '-0.07039554', '-0.03915811', '-0.013088829', '0.06836677', '-0.001157835', '0.03906432', '0.06947291', '0.019475112', '-0.040627237', '-0.027134733', '-0.027861599', '0.059500773', '-0.037777036', '-0.09502863', '-0.034779105', '0.024628574', '-0.0024444284', '-0.0016537964', '-0.04891854', '0.011365013', '-0.009776122', '-0.017558169', '0.029926203', '0.018709412', '0.08094825', '-0.042662196', '0.07906289', '-0.07568384', '0.0586102', '-0.04588407', '-0.01001679', '-0.1270588', '0.0008859312', '0.03857803', '0.08267129', '-0.06497089', '-0.06998607', '-0.024913523', '-0.0920156', '0.016827751', '-0.0068215877', '0.0836051', '-0.0390857', '-0.026515666', '-0.09135726', '0.01029901', '-0.03265396', '0.0022362089', '0.0145098055', '0.06181263', '-0.013142358', '0.032997385', '-0.01300435', '-0.16123402', '0.05168718', '-0.046973623', '-0.021632077', '-0.023590649', '0.046564754', '0.021056375', '0.06223916', '0.090562895', '-0.072411776', '0.055178776', '0.029000353', '0.025351416', '0.013610067', '0.06636482', '-0.024303047', '0.0044077327', '0.026992368', '0.056458652', '0.0039562983', '-0.08513569', '0.032306988', '-0.06451815', '0.03213938', '0.019205632', '0.011513112', '0.000595106', '0.056332093', '-0.08494523', '0.011237184', '-0.04116496', '-0.0076933913', '0.11366557', '-0.037727557', '0.06445691', '0.049989846', '-0.03945231']
4, ['0.012786392', '-0.035675168', '0.023748808', '-0.023947366', '0.0549662', '0.03545565', '-0.023022592', '-0.003933072', '-0.04622435', '0.049020432', '-0.0014266373', '-0.10024868', '0.0268095', '0.027510114', '0.041447483', '0.02754682', '0.013193962', '0.04867958', '0.084776185', '0.04127727', '-0.012203652', '0.010790845', '-0.0010807842', '-0.053487305', '0.030892063', '0.0074518407', '-0.009957189', '0.0821766', '-0.04171789', '0.010670972', '-0.038759287', '0.02909913', '-0.03747235', '0.06708304', '-0.0830802', '-0.011875697', '-0.033807863', '-0.005856135', '0.040989645', '0.021067016', '0.041240938', '0.011557954', '-0.065469295', '0.00010379752', '0.017250149', '0.03032412', '0.014565706', '0.11751858', '0.080891475', '-0.061333757', '-0.13322006', '-0.042616833', '0.011037991', '0.00803451', '0.07327954', '0.030311551', '0.056733254', '0.027530512', '-0.030881692', '0.034064434', '0.06348351', '0.027899247', '0.066545956', '0.00047221995', '0.037181392', '0.02524729', '-0.08994994', '0.02118806', '0.018979445', '-0.0139212925', '0.09986851', '0.02419994', '-0.049346697', '-0.03328913', '0.04174459', '0.025702523', '-0.04841311', '0.019505665', '-0.07131586', '-0.04582056', '0.00774316', '-0.016169045', '-0.021002015', '0.041049253', '0.0015531649', '-0.0051409486', '0.0064823725', '-0.02123657', '-0.023322921', '0.081552275', '-0.033462275', '0.06565505', '-0.0026224782', '0.008533494', '-0.008446992', '-0.045686107', '0.025240166', '0.010222319', '0.0090611605', '0.01024674', '-0.011569335', '0.07197526', '-0.056766585', '-0.0004139921', '-0.0010143957', '0.044675805', '0.09059175', '0.012215409', '-0.016249502', '-0.029717043', '-0.029136492', '-0.031781957', '-0.07414045', '0.032560702', '-0.007895111', '-0.046143208', '-0.0019014118', '0.013873944', '-0.085535966', '-0.08076066', '0.017439997', '0.043404333', '0.010905617', '0.05484494', '0.022486353', '0.008193267', '0.037815228', '-0.049744803', '0.07268797', '0.024794973', '0.07856187', '0.028065972', '0.013762926', '-0.047495656', '0.029567372', '0.018786414', '-0.057319827', '-0.039470073', '-0.051905166', '-0.0066936715', '0.034571484', '0.01186325', '0.004318848', '-0.09554434', '0.050512493', '0.07514514', '-0.05328549', '-0.016119711', '-0.0028237207', '0.04027418', '-0.010933683', '0.014760028', '0.045337446', '0.03379303', '0.023666345', '0.04445072', '-0.023110991', '-0.031220322', '0.026999315', '-0.009552077', '0.058776136', '-0.047174335', '-0.02274831', '-0.0102666505', '0.048658367', '0.06730211', '-0.047653142', '0.04691833', '0.008497022', '0.11361071', '-0.019736884', '-0.08828238', '0.017849693', '-0.054632872', '0.026729926', '0.01809537', '-0.02832068', '0.029115047', '0.043163758', '-0.013487898', '0.12807164', '-0.015457504', '-0.044410206', '0.006286701', '-0.028234532', '0.048422933', '0.047484905', '0.010677678', '-0.019417098', '-0.018925402', '-0.04347885', '0.05328505', '0.016716914', '-0.010494669', '-0.0071169864', '-0.068661086', '0.018241573', '-0.046622988', '0.027860371', '0.010305066', '0.06375507', '-0.018064108', '0.013178391', '-0.006400322', '-0.010533881', '-0.0005450571', '-0.010998082', '-0.0042738947', '0.0008111604', '-0.053262703', '-0.030810384', '0.09404357', '-0.0032819076', '0.013420857', '-0.06268235', '-0.00613826', '-0.0075351447', '0.028324867', '-0.02200799', '0.0034252403', '0.024805458', '-0.035104048', '-0.04796233', '0.01415773', '0.05282211', '0.07332237', '0.011904143', '-0.06942804', '0.062222537', '0.012624724', '0.014581843', '0.001980856', '0.06801038', '0.031188048', '0.01792465', '0.047697555', '-0.05707049', '-0.007147507', '-0.04998617', '-0.04488167', '-0.017348073', '0.09909204', '-0.042496793', '-0.0076932157', '-0.029064981', '-0.046140227', '0.017474674', '0.03459198', '0.061710972', '-0.023353495', '-0.012850946', '-0.031676903', '0.046785492', '0.023498315', '0.03503072', '0.044932257', '0.014090601', '-0.010404537', '-0.0054139826', '-0.058646906', '-0.00371243', '-0.0072923335', '-0.022917325', '0.0021997618', '0.036875054', '-0.029690629', '0.039071113', '0.026111366', '0.007295663', '-0.011528734', '-0.057522565', '0.003152414', '0.015596674', '-0.01330537', '0.03691867', '-0.07734335', '-0.0006939645', '-0.00020044688', '-0.05609946', '0.024805486', '-0.06972753', '-0.005660506', '-0.07475434', '-0.05768902', '-0.010712483', '-0.018562725', '-0.06269744', '-0.04539369', '0.012823283', '0.029358335', '0.0075109364', '0.048231', '0.049770333', '-0.008876292', '-0.039592773', '0.003177459', '-0.004017153', '0.06376319', '-0.115154505', '-0.014075107']
5, ['0.031545743', '-0.017582651', '0.009226079', '0.03430057', '-0.009238028', '-0.051324077', '-0.0017245125', '0.012954252', '-0.049493723', '-0.0088296635', '-0.001100283', '-0.072064325', '0.0015391278', '0.024424266', '0.0059517184', '-0.032951124', '0.009028762', '0.10928298', '-0.031077981', '-0.005410221', '-0.022368204', '0.0043703443', '0.030247465', '0.025858853', '-0.032802578', '-0.039945204', '-0.042204905', '0.02463408', '-0.033780154', '0.019729495', '-0.047428396', '-0.04185292', '-0.011629256', '-0.04424065', '0.043357536', '0.025763307', '-0.06909147', '-0.045768645', '-0.0825984', '-0.008728998', '-0.01655568', '-0.026405342', '0.02158797', '-0.05858697', '0.071067244', '0.019960426', '0.02580115', '-0.0004610252', '-0.013829043', '0.048162017', '-0.0625471', '0.041830864', '0.0028569766', '-0.056646515', '0.013556144', '0.07805817', '-0.020085324', '-0.025952', '-0.03245767', '0.021178583', '-0.013301802', '0.006544349', '-0.01914465', '0.036499195', '-0.007390363', '-0.017764382', '0.0073187044', '-0.03439848', '0.050619915', '0.05023056', '-0.04544742', '-0.01725467', '-0.04636807', '-0.018727807', '-0.00035689707', '-0.012162283', '-0.08148923', '-0.0019863797', '-0.035443418', '-0.04369095', '0.026769593', '-0.058109943', '0.060421564', '-0.023587232', '0.058019634', '0.058687467', '-0.045415543', '0.03280263', '-0.030649781', '0.044023264', '0.037427038', '-0.04082993', '-0.0024044947', '0.014979854', '0.019233936', '0.031997234', '0.00547995', '0.078655556', '-0.09090988', '-0.03813762', '-0.014627892', '-0.050039332', '0.013099232', '0.031925686', '-0.021856703', '0.007107658', '-0.038363542', '0.029136064', '0.0023701466', '0.016245626', '0.0012352079', '-0.03188195', '0.020399028', '-0.028475882', '-0.037573922', '0.019005083', '0.049458332', '-0.002123424', '0.0048263357', '0.064508215', '-0.02137995', '0.012472077', '-0.008352073', '-0.007817069', '-0.075687796', '-0.04102053', '0.003306389', '-0.002865352', '0.002737368', '0.010392603', '0.025059521', '-0.012124687', '0.06064297', '-0.054778796', '0.08675263', '0.029900685', '0.008212783', '0.032361947', '-0.0050647296', '-0.0012197224', '-0.02047277', '0.0011295568', '0.049557254', '0.009605472', '0.042059824', '-0.02227876', '-0.044097017', '-0.061475396', '0.022534322', '-0.0435304', '-0.060562', '-0.06018289', '-0.022029916', '0.008673615', '-0.0051278193', '0.0058002104', '-0.08887117', '-0.013081022', '-0.0017813545', '-0.012614819', '0.09434308', '0.025859734', '-0.03327622', '-0.08570172', '0.0107579185', '-0.020468017', '-0.023945723', '0.018599203', '0.016392497', '-0.006300414', '0.015252654', '0.08912361', '-0.00093556114', '-0.011383192', '-0.029396143', '0.0078245755', '0.016411293', '-0.02553734', '0.043187287', '-0.0006198467', '0.03478205', '0.02848785', '0.02742928', '0.0026519487', '-0.034368824', '0.05221697', '-0.011871571', '-0.02748503', '0.0013680873', '0.019107927', '-0.03868636', '-0.038215987', '-0.00033574458', '-0.04219975', '-0.0018467626', '-0.009995223', '-0.025489673', '0.00034495725', '-0.05103548', '0.007709344', '0.03409465', '-0.009343821', '0.017862871', '0.048941884', '-0.023914618', '-0.011287768', '0.03324399', '0.049272012', '-0.037704587', '-0.008969358', '0.0112293735', '-0.04112104', '-0.06482474', '-0.044596873', '-0.044133637', '0.0019124908', '-0.0064830016', '-0.03231465', '0.020464363', '-0.04322842', '-0.023814507', '-0.00029054785', '-0.06928005', '-0.013654532', '-0.020689664', '0.044382114', '0.02105066', '0.059115216', '0.019437473', '0.030513732', '-0.008251432', '0.0125790285', '-0.014607706', '-0.04789788', '0.003773147', '-0.034762166', '0.042124745', '0.03066857', '-0.05055285', '-0.04003659', '0.020415615', '-0.059495766', '-0.05013422', '0.04238606', '0.02598914', '-0.017375585', '0.05671853', '-0.010105062', '-0.01965951', '0.07999371', '-0.003997453', '0.025725331', '0.024096122', '0.07438391', '-0.058936458', '0.028830756', '-0.0019514816', '0.016404893', '-0.0005573898', '0.03535541', '0.028217299', '-0.0029213026', '0.0005879859', '0.091367766', '0.06971084', '0.032225095', '-0.006703006', '0.043275826', '0.038887776', '-0.07113851', '-0.011860709', '0.017426865', '-0.0150584355', '-0.025569482', '0.0152110355', '0.07047403', '0.011930947', '-0.027120871', '0.017434848', '-0.009913321', '0.072772406', '-0.036419082', '0.035407882', '0.06173954', '-0.040813908', '0.048705652', '0.037717786', '0.05941897', '-0.013013934', '0.0028428105', '-0.024078652', '-0.05768321', '-0.11089452', '0.069388755', '0.015850455', '-0.04897426', '0.058942635', '-0.010803302', '0.010761647', '-0.03611464']
6, ['-0.014452611', '-0.002871003', '-0.011541885', '-0.034086116', '-0.00028296106', '-0.011178886', '-0.019634938', '-0.005276833', '-0.046656076', '-0.012919735', '-0.020445088', '-0.008784973', '-0.027189564', '0.0047510024', '-0.019839741', '-0.030891655', '0.019839281', '-0.062112693', '-0.024289554', '0.024079371', '-0.0048177014', '-0.0016275481', '0.013984598', '-0.0131406505', '0.044057045', '0.019300217', '-0.03314413', '-0.018576726', '0.0181585', '0.030221041', '0.025396543', '-0.026785495', '-0.06597399', '0.008129859', '0.043368187', '-0.03270665', '0.042663217', '0.040807042', '-0.044097073', '-0.0008651022', '-0.0017653329', '0.018594675', '0.07359699', '0.07843894', '0.026937265', '0.04361439', '0.051610928', '-0.019750247', '0.017203469', '-0.03501539', '0.025841108', '-0.030367082', '0.0042059785', '0.014801872', '-0.021112388', '0.06396273', '-0.006277764', '-0.028374746', '0.02203588', '-0.03823938', '-0.04469951', '-0.04136468', '0.045026366', '0.008280408', '-0.008037109', '-0.04210286', '-0.025783686', '-0.0060437424', '-0.014989696', '0.009783871', '0.053259753', '-0.034382194', '-0.06267358', '-0.03553606', '0.007208764', '0.04556347', '-0.07138021', '-0.00073103985', '0.019837288', '-0.008805585', '-0.009379032', '0.012925857', '0.0006040196', '0.0049085966', '0.009507292', '0.0042005684', '0.059492297', '-0.016326113', '-0.005670078', '-0.004679469', '0.0778449', '0.016811632', '-0.020824598', '0.0130336825', '-0.042373758', '0.013416782', '-0.020886995', '-0.027354946', '0.029172154', '0.025733298', '0.02581278', '0.022327328', '0.013111482', '0.006016363', '0.03831728', '0.034451485', '0.041350495', '-0.023038693', '-0.00088629255', '0.008998446', '-0.009751121', '-0.024356412', '0.01754629', '0.0006038754', '-0.03138476', '-0.11542242', '-0.01749211', '0.056721464', '0.070129484', '-0.052645158', '-0.0012980275', '0.05691854', '0.003737671', '0.018768983', '-0.019689443', '0.024473662', '-0.007489031', '0.005512602', '-0.01517451', '-0.05281681', '0.027071996', '0.017509438', '-0.020752331', '0.003232709', '-0.04828255', '-0.0346658', '-0.046575543', '-0.03248095', '-0.015529634', '-0.00019313766', '0.031057607', '0.020557005', '0.0445588', '-0.03981608', '-0.0067582233', '0.037490156', '-0.08683512', '-0.014854552', '0.028425053', '0.0074423556', '0.013754399', '0.01757901', '0.058170576', '-0.003196148', '0.020145977', '-0.01595627', '0.056321356', '0.023992421', '-0.0052356436', '-0.014850424', '-0.0013442731', '-0.055112734', '0.013642651', '-0.017351158', '-0.03755796', '0.019271111', '-0.061909664', '-0.022288267', '0.010904472', '0.02868751', '-0.0075576403', '-0.008192634', '0.01273982', '0.00089285534', '0.048406612', '0.0016799154', '-0.04958904', '0.015170482', '-0.0055075986', '0.06292582', '0.038314957', '-0.04775727', '0.01203288', '-0.018997291', '-0.011948287', '0.005011029', '-0.00089338084', '0.013013916', '-0.018335525', '-0.005574975', '0.010500179', '0.020517051', '0.0024536217', '0.035838008', '-0.022130622', '0.02202604', '-0.05159781', '0.023154106', '0.030423788', '0.014708202', '0.033864185', '-0.09016844', '0.044011652', '-0.0049899737', '-0.03713293', '-0.057848897', '0.009518617', '0.022791194', '-0.03431262', '0.004298511', '0.01756595', '0.029680397', '0.01682211', '0.011896337', '0.004011119', '0.059536546', '0.02333868', '-0.01800265', '0.028530898', '0.0030719792', '0.069111444', '0.002974585', '-0.04418306', '0.031205261', '0.064479195', '-0.035725553', '-0.01802211', '0.0006548938', '-0.030072497', '-0.04724399', '0.0102432035', '0.012266246', '0.001641671', '-0.026214419', '0.014325679', '-0.034663163', '-0.0057296986', '-0.09431815', '0.06744153', '-0.024877505', '-0.0025230565', '0.008428141', '-0.014879932', '-0.03588478', '0.028985135', '-0.013892398', '-0.008002613', '-0.007848374', '0.042332016', '-0.0053271134', '0.03667121', '0.062215604', '-0.008946159', '0.006481311', '0.022165209', '0.05526705', '-0.022690713', '-0.048132665', '0.0147353', '-0.011870956', '0.0029272928', '-0.01598899', '-0.005858958', '-0.029224932', '0.0475084', '-0.015509139', '0.05127997', '0.0094346395', '0.03082451', '0.07446447', '0.06992272', '-0.038870372', '0.02327421', '0.009818559', '0.07225159', '-0.069810234', '-0.044736013', '0.012892359', '-0.03460861', '0.073820464', '-0.02492018', '0.014661962', '0.006076392', '-0.021480618', '-0.004541045', '0.03036832', '-0.0070391633', '0.038537644', '0.03472995', '-0.021879368', '-0.005226447', '0.034049153', '-0.034289613', '-0.03267746', '0.036146075', '0.021861104', '0.030672481', '0.028482793', '0.035036627', '-0.027397417']
7, ['0.01164762', '-0.032000456', '-0.052277163', '0.011506683', '-0.09213446', '-0.010880607', '0.0003459878', '0.009724396', '0.025427993', '-0.028922027', '-0.10968055', '-0.04120918', '-0.010468757', '-0.0233563', '-0.026110748', '-0.0148518495', '-0.0324919', '-0.027355408', '0.048712324', '-0.05532022', '-0.036216248', '0.015241236', '-0.055743687', '0.013194004', '-0.025570098', '-0.019977784', '-0.07403603', '0.00010124052', '-0.07227201', '-0.03153481', '-0.039912786', '0.02769529', '-0.014124808', '0.027870553', '0.011158416', '-0.002829912', '-0.044648413', '0.053899027', '-0.014547646', '0.013504365', '-0.06724479', '-0.012554039', '0.02261141', '0.004651301', '0.008168807', '-0.02867229', '-0.029548641', '-0.009956726', '0.06097643', '-0.027828738', '-0.08433817', '0.009864038', '0.02510697', '-0.04249905', '0.00025274573', '0.005893336', '0.027044961', '0.053852603', '-0.033669464', '0.052916553', '-0.045605514', '-0.06381035', '0.027958112', '0.006511497', '-0.0131547805', '0.011911248', '-0.026419288', '0.033518687', '-0.05853649', '-0.0025093725', '0.011156914', '-0.01155086', '-0.015331695', '0.03156775', '-0.06727763', '-0.017852308', '0.023326622', '-0.005673245', '0.04678414', '-0.032784473', '0.0036925066', '0.025859853', '-0.011531044', '0.008037915', '0.045902926', '0.047811482', '0.06779309', '-0.00944616', '0.04003121', '-0.074570544', '0.007194832', '0.041957226', '0.0566599', '0.03052509', '-0.019320134', '0.013657052', '-0.047456834', '-0.046026397', '0.058287818', '0.03505758', '0.005679219', '-0.011791276', '0.03228578', '-0.018051563', '0.07039964', '-0.0064022793', '-0.025419712', '0.009038081', '0.07989387', '0.0065206834', '-0.09407048', '0.04803309', '0.07135256', '0.013359352', '-0.038187314', '0.0017787312', '0.03937187', '0.1130887', '0.07302007', '0.02498944', '-0.002895861', '-0.029802665', '0.045408998', '-0.021196943', '0.009390474', '0.0007494684', '0.037254293', '-0.05490118', '0.039832875', '0.007571658', '0.008925768', '0.010525105', '0.011912522', '-0.0029110806', '0.018068936', '0.10526823', '-0.005909762', '0.036510747', '-0.040687077', '0.020686362', '-0.029447392', '0.035341177', '0.0091623515', '0.029590601', '0.03648229', '-0.003936621', '-0.025406485', '0.017435893', '-0.03509169', '-0.054185662', '-0.038904354', '0.04665317', '0.00059642777', '-0.01011049', '-0.051020943', '0.009352161', '-0.08357023', '-0.078253716', '-0.029757148', '-0.005435483', '0.0022287685', '-0.004121123', '0.02725991', '-0.025228364', '0.004182369', '0.012143922', '-0.06502502', '-0.06587183', '-0.078436494', '0.021692345', '-0.031184128', '-0.042611733', '-0.026281709', '-0.07411623', '0.003881922', '0.05434655', '0.015651384', '0.0047476212', '-0.022393934', '0.04288005', '-0.009035917', '-0.009471259', '-0.035055652', '-0.06410138', '0.024075521', '-0.014304253', '-0.043971222', '0.024690798', '-0.015316215', '0.0037654622', '0.039471965', '0.049952284', '-0.033329215', '-0.021914886', '0.028943561', '-0.002700267', '0.0050459057', '0.034633502', '0.020301597', '0.008695578', '0.00016181194', '-0.00879378', '0.04276433', '-0.019348864', '-0.006017674', '0.041323997', '0.060326897', '-0.0017587183', '0.018837249', '-0.010932875', '-0.027881939', '0.02953964', '0.03935805', '0.043927465', '-0.021231852', '0.015530766', '0.019181708', '-0.0543186', '-0.060831986', '-0.0014271087', '0.041552093', '-0.01885491', '-0.0037646508', '0.00474329', '0.005944096', '0.025039097', '0.035669703', '0.04347914', '-0.017131565', '0.010307803', '0.0017387382', '0.023289474', '-0.032091703', '-0.08908959', '-0.013923192', '0.055399973', '-0.010620279', '0.031823486', '0.026581986', '0.0069437553', '-0.032445118', '-0.05383135', '-0.020883285', '-0.0145542035', '-0.045815665', '-0.025196373', '0.020240668', '-0.036549695', '-0.00033504178', '-0.035092056', '-0.0543321', '-0.00932875', '0.012434631', '0.051074002', '-0.011039845', '-0.05056061', '-0.014205319', '-0.027187549', '0.044691507', '0.0007149503', '0.033070464', '0.0074295616', '0.009128012', '-0.04625965', '-0.045294173', '0.014514848', '-0.0050668223', '-0.06766382', '-0.013595606', '0.039755337', '0.00077852106', '-0.083957516', '-0.02591149', '0.030905142', '0.006067701', '-0.08640513', '-0.0060870834', '-0.024682108', '-0.067857556', '-0.08497151', '-0.08647497', '0.04621943', '0.0024443998', '-0.0131826475', '-0.029786883', '0.058688', '0.024453286', '0.012776839', '0.012397603', '-0.039535113', '0.052678917', '0.011363021', '-0.03312391', '-0.0020736032', '-0.022395993', '0.04454763', '-0.0296579', '-0.08497257', '-0.014362111', '-0.042369332']
8, ['0.03680191', '0.02060899', '-0.047516268', '-0.013900346', '0.01940506', '0.04867796', '0.12345482', '-0.082714796', '-0.008214016', '-0.042439763', '-0.016304534', '0.076859094', '-0.0028790683', '-0.04151067', '0.038772292', '-0.007794795', '0.013235092', '0.028174749', '-0.050930444', '-0.059416205', '0.0034919805', '0.06845326', '-0.046165466', '-0.01043951', '-3.9055572e-05', '0.012769013', '-0.047894754', '-0.06561119', '-0.016543075', '0.00017881012', '-0.010681173', '-0.015925545', '0.0038297272', '0.02002874', '0.016369361', '-0.021112569', '-0.04078313', '0.061582252', '0.019695222', '-0.0145923905', '-0.06817493', '0.052567616', '-0.018101064', '-0.06463185', '-0.03473284', '-0.016357075', '0.023798203', '0.06659529', '0.012042687', '-0.026258778', '-0.030551132', '0.005738877', '0.012049013', '0.029686842', '-0.018069195', '-0.061031144', '0.060093515', '-0.012689583', '0.013952767', '-0.029947754', '0.018855328', '-0.0039521367', '-0.033426095', '-0.10240065', '-0.005156801', '0.033847924', '-0.007086304', '0.06479442', '0.026751088', '0.005518141', '-0.052773833', '0.0027010695', '0.043721344', '-0.015712239', '-0.077243336', '-0.036971044', '-0.02601626', '0.05709227', '-0.031008527', '-0.0097216405', '0.04020226', '0.031447496', '-0.011891263', '0.02422983', '-0.043750092', '0.049535457', '0.000867965', '-0.023219243', '0.0028582313', '0.010197941', '-0.0022635132', '0.0057800035', '-0.02416658', '-0.0057660514', '-0.013479373', '-0.013727636', '0.06762523', '0.048876636', '-0.023649529', '-0.033365093', '-0.06455299', '-0.00043482656', '-0.0023929032', '0.039475873', '-0.07450985', '-0.010510785', '0.00092262594', '-0.0069564953', '-0.06304051', '-0.0007847571', '0.03425439', '-0.02145645', '-0.026343439', '-0.04214627', '0.0049932976', '0.024481298', '0.014737234', '0.019096933', '0.05365808', '-0.019053476', '-0.009874572', '-0.013183695', '0.009066329', '-0.006720463', '0.015897883', '0.038182482', '0.028707813', '0.06667316', '-0.04564778', '-0.040392954', '-0.071927555', '0.041575376', '-0.024417449', '0.022695122', '-0.04182928', '-0.04350703', '-0.015196412', '0.02328139', '-0.02461608', '0.029771645', '-0.016830167', '-0.03319166', '0.022882022', '-0.0014922633', '0.03541485', '0.006431989', '0.015255748', '-0.046955112', '-0.06409306', '-0.004378914', '0.00021989572', '0.032815512', '0.007108121', '-0.04517736', '-0.0059307064', '0.01298701', '-0.02963807', '-0.037111457', '-0.0442516', '0.00042209192', '0.03859913', '0.015540462', '0.031796183', '0.00028606705', '0.03280809', '-0.029282534', '-0.01296436', '0.013218097', '-0.011951962', '0.058698267', '0.0058314083', '0.03736387', '-0.009486832', '0.00938662', '0.056473486', '-0.014618466', '0.0532957', '-0.039160125', '0.021290356', '0.01515403', '0.026862621', '-0.03773764', '0.0015586141', '-0.02463753', '0.03763146', '-0.01207015', '0.054341413', '0.06425532', '0.037104145', '-0.045716822', '-0.1490058', '0.024600433', '-0.0166212', '-0.1181307', '-0.027954798', '0.029749524', '0.0114516225', '-0.009132592', '-0.06255661', '-0.00016299012', '0.09012822', '-0.016883235', '0.009841538', '0.050215546', '-0.046158824', '-0.05109197', '-0.01641279', '-0.07029351', '-0.0040318067', '0.038087487', '-0.023708424', '-0.013261524', '0.023894107', '0.0972762', '-0.029475443', '0.018250294', '-0.00083209714', '-0.0008701339', '-0.002900992', '-0.0063739615', '-0.0121474415', '-0.012688745', '-0.0127953', '0.0049975235', '0.0404932', '0.019205233', '0.06621112', '-0.013745999', '0.061421234', '0.001275658', '-0.011924935', '-0.046787165', '0.022623975', '0.029728035', '-0.021376982', '0.041471396', '0.00092613033', '0.0027211918', '-0.049212854', '0.00023475', '0.068371244', '0.014566099', '-0.045582414', '-0.06528004', '-0.05067033', '-0.029009406', '0.026828188', '0.041169237', '0.026008643', '-0.02876737', '-0.032686457', '-0.017785737', '-0.0083414465', '-0.016435508', '0.0022407235', '-0.02979335', '0.004896047', '-0.0638041', '-0.021653648', '0.044166114', '-0.076599546', '0.00846052', '-0.039894618', '0.024322866', '-0.019467209', '0.050602574', '0.0654701', '-0.017188195', '-0.03289057', '-0.0010975137', '0.0073331087', '0.01596171', '-0.07709456', '0.04580759', '-0.018320382', '-0.030015673', '0.00067144766', '-0.0615551', '-0.021503508', '-0.034308', '0.017496977', '-0.027092997', '0.03150612', '0.09492863', '-0.045723688', '0.034037925', '0.009911444', '-0.040151767', '0.06921714', '-0.024108749', '0.020346032', '0.009175346', '0.045119684', '0.008421693', '0.014896539', '-0.023299538', '-0.015025412', '0.013117434', '0.006648888', '0.0108733475']
9, ['-0.06165335', '-0.039911974', '0.029476408', '0.010187925', '-0.027693106', '-0.0077311206', '0.120741986', '-0.07422362', '0.026273273', '0.021648264', '-0.046345945', '-0.058436923', '0.0086084', '-0.06010235', '-0.015455125', '-0.0026296515', '0.020403793', '0.09563326', '-0.0030878237', '-0.033349212', '-0.0030396094', '-0.017622627', '-0.014023195', '0.053732544', '-0.03975532', '0.027471822', '0.037741054', '0.029748216', '0.022593252', '0.0138623165', '-0.008329313', '-0.0028548723', '0.013199357', '0.005573215', '0.07456559', '-0.045852892', '-0.026458913', '0.010951909', '-0.034916095', '0.0017923445', '0.022758221', '-0.03239989', '-0.024962893', '0.0075103063', '-0.022102544', '0.0047200783', '-0.017939335', '0.027586158', '0.0013161714', '0.04496782', '-0.0057470137', '-0.08693916', '0.007433722', '-0.04075276', '-0.055150345', '0.030884396', '-0.047241747', '-0.025414174', '0.00033112965', '-0.034897156', '-0.048027806', '0.024202785', '-0.046425335', '-0.028914114', '0.024003671', '-0.014430432', '-0.021780642', '-0.014749138', '-0.023887208', '-0.01359262', '0.070757', '-0.007298138', '0.018414898', '0.029348746', '0.0014428986', '0.017684521', '0.036351345', '-0.049142893', '-0.030173939', '-0.07438449', '0.020131713', '0.03420494', '-0.041660193', '-0.005515552', '-0.041874763', '0.030420579', '-0.07517038', '0.016969278', '-0.019225977', '-0.006180735', '0.0343943', '0.0022524998', '-0.015998345', '-0.014844958', '0.053496376', '0.08251182', '0.114460476', '-0.00017817899', '-0.044114072', '0.06184924', '-0.024428565', '-0.039896626', '0.007567919', '0.007419563', '-0.030936487', '0.022617465', '0.013931507', '0.059533108', '0.084633864', '0.02069076', '-0.019668529', '0.01761103', '0.0021549242', '-0.013295348', '0.052969508', '-0.014019472', '-0.021778867', '-0.024297874', '0.022066373', '0.014519138', '0.0075316806', '-0.024899991', '-0.05190452', '0.044586975', '-0.015626345', '-0.00021239217', '0.03154617', '0.009045708', '0.004430087', '-0.0116919605', '-0.0004243994', '-0.015068892', '0.03752975', '-0.016328562', '-0.013440009', '-0.008237541', '-0.028843464', '-0.0071296114', '-0.008895435', '-0.10778863', '0.022054303', '-0.0077036656', '0.017111076', '0.032539234', '-0.01050982', '0.052578624', '-0.013316656', '-0.010518522', '-0.007927752', '0.0011895759', '0.047254078', '-0.029793825', '-0.022454426', '-0.040147316', '-0.036658768', '-0.0051540285', '0.051952004', '-0.033056248', '0.001593676', '-0.001735993', '-0.014579605', '-0.007508318', '0.011766067', '-0.081578195', '0.027657574', '-0.016349994', '-0.07214883', '0.051324345', '-0.06634232', '-0.032036718', '0.0045542708', '0.041893043', '-0.025251301', '0.04826157', '-0.059378654', '0.046368904', '0.015092098', '0.017883368', '-0.022562692', '0.0036434063', '-0.012303694', '-0.01704196', '-0.011428885', '0.034373228', '0.003261167', '0.09661928', '0.008490259', '0.010793831', '-0.012886839', '0.018032255', '0.02654713', '-0.011965719', '-0.0490403', '0.01734887', '-0.019418934', '0.055680268', '-0.009407843', '-0.027730007', '-0.0099858595', '0.04358845', '0.07944447', '0.018409392', '-0.014384569', '-0.035505354', '-0.032676302', '-0.03100926', '0.0019254833', '-0.09950843', '-0.0036998882', '0.029871413', '0.024416048', '0.046504036', '0.016014427', '-0.026910102', '-0.011533651', '-0.02363734', '0.02184721', '0.02340699', '-0.0023215052', '0.03254501', '0.040143754', '-0.039345752', '0.07005936', '0.010476257', '0.031784073', '-0.017580004', '-0.009502849', '-0.035857677', '0.024343798', '0.01699103', '-0.018699026', '-0.020134004', '0.026349604', '-0.026075147', '0.015017552', '-0.061885707', '-0.0067256195', '0.04382187', '-0.02703055', '0.0484944', '-0.015803646', '-0.0044252435', '-0.031887982', '-0.050089307', '-0.0017820451', '0.04290498', '0.026781157', '0.041319247', '-0.026696589', '0.033380993', '-0.026422396', '0.0005629075', '0.08150336', '0.015673794', '0.015284867', '-0.053653732', '-0.010881305', '0.007789652', '-0.02784771', '-0.04054752', '0.013688443', '0.002549782', '-0.018730676', '-0.08611821', '-0.015617659', '-0.0011048006', '-0.08099297', '0.06855657', '0.0306179', '0.012650836', '-0.044165246', '-4.8873717e-05', '0.007078039', '-0.0070737633', '0.02339316', '-0.013927371', '-0.021056134', '-0.053259503', '0.030613277', '-0.0060227104', '-0.042100158', '-0.0029507214', '0.026487496', '0.015717706', '0.018768845', '0.016594386', '0.0011156678', '0.016663333', '-0.02250634', '0.022489775', '-0.0006533675', '-0.026715275', '0.066951', '-0.03287623', '0.010805061', '0.013080874', '-0.013716579', '-0.013862165', '-0.030800592', '0.009722965']
10, ['-0.009668988', '0.019743701', '-0.04825063', '0.016288575', '0.016329855', '-0.03393107', '0.08845896', '-0.007622841', '-0.10887432', '-0.026504721', '-0.027573215', '-0.008117836', '-0.0048446124', '-0.03310804', '-0.022780238', '-0.005540068', '-0.07502359', '0.052629873', '0.031331994', '0.0013931895', '0.08687964', '-0.0025421386', '0.01685945', '-0.021606801', '-0.035619006', '-0.07184556', '-0.0015817923', '0.016301269', '0.017510768', '0.036315564', '0.021893868', '0.034377936', '0.015669407', '-0.07933104', '-0.0397597', '0.040987957', '-0.03743523', '0.0050828713', '0.039447412', '0.023036718', '-0.004136052', '-0.015520723', '-0.043188196', '-0.02505212', '-0.023597734', '-0.050078325', '0.0040413737', '-0.03605279', '0.012714273', '0.016860828', '0.005087935', '0.102534', '-0.033760287', '-0.026051115', '-0.035723664', '-0.04566805', '-0.0013938503', '-0.0064117983', '-0.04141691', '-0.024403475', '-0.00044222578', '-0.10177403', '-0.060258016', '0.047479577', '0.041335654', '-0.01422234', '0.058920383', '0.017684743', '-0.030013982', '-0.067967825', '-0.07465632', '-0.04144323', '-0.02175055', '-0.027793854', '-0.0074081672', '-0.043976028', '0.0013000481', '0.006967595', '-0.02833136', '-0.00042350005', '-0.005421508', '-0.082338974', '-0.034319393', '0.045671064', '0.11332169', '-0.0045285732', '0.023689682', '-0.028740294', '0.016188703', '0.010205619', '-0.052170523', '0.014648431', '-0.007928846', '0.046422184', '-0.0013316798', '0.010172445', '-0.03115705', '-0.013152113', '0.030813197', '-0.056791563', '-0.023606697', '-0.012378826', '-0.012287718', '0.025943074', '0.012812014', '-0.01831037', '0.009674774', '0.035416994', '0.038287576', '0.009661513', '0.06469629', '-0.029274067', '-0.02572742', '-0.037458032', '0.003274339', '-0.011616146', '0.09977742', '0.106003895', '0.080343194', '-0.0027108425', '0.009518603', '0.03672552', '-0.032631688', '-0.024786076', '0.12401012', '-0.043903362', '-0.0017563388', '-0.020774553', '0.052241057', '0.0024462605', '-0.016792875', '0.00880004', '-0.011072676', '0.030451396', '-0.052959107', '-0.016733719', '-0.008376994', '-0.046554998', '-0.016839953', '0.14796515', '0.057723604', '0.033299882', '0.0006147113', '-0.014177533', '-0.025368527', '-0.009259775', '0.035542384', '-0.05153621', '0.03447285', '0.052340068', '0.014109251', '-0.024688376', '-0.02654142', '-0.017624183', '-0.019526536', '-0.03734707', '0.0056311917', '0.04437249', '0.058989406', '0.030005652', '-0.034605734', '0.042679388', '0.0063367486', '-0.019176036', '-0.056724004', '-0.01674537', '-0.026820693', '0.046818413', '0.08239515', '0.010601349', '0.030585878', '-0.0065711644', '0.043193273', '-0.044326887', '-0.058359295', '0.048892718', '-0.07485364', '-0.016002398', '0.07888857', '-0.024594722', '0.0167488', '0.012524012', '0.026048142', '0.003622396', '0.026978437', '-0.0006624247', '-0.019910188', '0.031751465', '-0.039986305', '0.057807606', '0.032476697', '-0.070124716', '0.040421925', '0.0051751602', '-0.0043008896', '0.032813765', '0.025657633', '0.02582504', '-0.014276731', '-0.048187632', '0.02540412', '0.012981099', '0.055356853', '0.024933046', '0.053999767', '-0.007757685', '-0.024658633', '0.043904148', '0.018052213', '-0.025845436', '0.028757716', '-0.01374195', '-0.028686209', '0.052387353', '0.029462086', '0.058335993', '-0.018242154', '-0.019852633', '-0.0026237923', '0.04852328', '-0.08698392', '0.0020919847', '0.019062191', '-0.018762752', '-0.16262871', '0.055132482', '-0.039759617', '-0.03372005', '-0.08101722', '0.037264656', '-0.031408228', '0.08077139', '0.05946612', '-0.004480578', '0.012911215', '0.03377946', '-0.024993539', '0.006068129', '-0.021452593', '-0.06839199', '0.004505865', '0.043712974', '-0.06003306', '0.01827621', '-0.012515775', '-0.0057986546', '0.09087908', '-0.04104938', '-0.07290112', '0.021098405', '-0.034622453', '0.05108158', '-0.040070217', '0.026650783', '-0.0051150434', '-0.037756555', '0.0036818406', '-0.046120215', '-0.014990577', '0.10546605', '0.0048485813', '0.033573817', '-0.02429764', '-0.1457602', '0.05541424', '-0.04514816', '-0.07281901', '-0.011341956', '0.032932185', '0.07089059', '0.02244549', '-0.0055729486', '-0.06463595', '0.0070093856', '-0.030196337', '-0.002360742', '-0.049637605', '0.0070159547', '0.06051919', '-0.029754186', '0.020038502', '-0.06968646', '-0.013712259', '0.049647953', '-0.028789934', '0.008660217', '-0.032087643', '0.0033298642', '-0.012510536', '0.028535115', '0.04297799', '-0.004136287', '-0.03666635', '0.0023898596', '0.074045524', '0.069614075', '-0.04753516', '-0.026735894', '0.05560341', '-0.035069898']
11, ['-0.023360725', '-9.784332e-05', '0.027172932', '0.016017254', '-0.03845369', '-0.0065921596', '0.14385894', '-0.004226759', '-0.029388413', '-0.011650414', '-0.060450215', '0.0021890707', '0.04532589', '-0.05680608', '-0.013497184', '-0.041994937', '-0.010403852', '0.017890776', '-0.030173328', '0.020290527', '-0.055758975', '0.007522349', '-0.016957566', '-0.049878795', '5.0535557e-05', '0.037342902', '0.008983188', '0.06413501', '-0.008365636', '0.02948907', '0.05440844', '0.0276344', '0.0026882815', '-0.044904124', '-0.0052661705', '-0.02126659', '-0.058900535', '-0.0051214597', '-0.06308336', '-0.011674266', '0.005114832', '0.004637189', '-0.020900153', '-0.0018496523', '-0.023694333', '0.026384266', '-0.010605861', '-0.03523143', '-0.012805551', '0.0131481085', '-0.0018230119', '-0.024248442', '-0.0015288761', '-0.061069008', '-0.021655697', '0.10285395', '-0.02099198', '0.041111123', '-0.0023103743', '-0.0036623108', '0.00344379', '0.03112255', '-0.022833725', '0.02823022', '-0.006368762', '0.03688111', '-0.013660248', '0.039159942', '0.02718565', '-0.034209374', '-0.016990408', '-0.013206448', '0.025999155', '0.04604773', '0.031988025', '-0.06011137', '-0.050255384', '-0.041992854', '0.054445617', '0.0064693983', '-0.035007793', '0.06560355', '0.018571518', '-0.013909725', '0.054593727', '0.034798186', '0.009529762', '0.036661595', '0.017661197', '-0.09168045', '0.020307438', '0.045072567', '0.0431123', '0.067461714', '-0.020359991', '0.04845618', '0.042149298', '-0.0005944535', '-0.00035255536', '0.063727796', '0.037305664', '-0.013131608', '0.004305392', '0.044346996', '-0.022063678', '0.002926496', '0.030516364', '-0.018954754', '-0.0008930551', '0.047966223', '-0.02917724', '0.035850912', '-0.026996475', '-0.009525679', '0.014683112', '0.026264112', '-0.049636357', '0.010670044', '0.042868145', '0.04636396', '-0.023263054', '0.058674186', '0.056618243', '0.019715108', '0.018271396', '-0.018440315', '-0.032349456', '0.011612596', '0.019150985', '-0.029117562', '0.001391909', '0.012242207', '0.017425917', '-0.016271481', '0.059796993', '0.08073981', '0.0451311', '0.013621084', '-0.0026382653', '-0.009675081', '-0.039611857', '0.006278117', '0.011934525', '0.015652793', '0.010651039', '0.010786249', '-0.026891898', '-0.043021534', '0.030877316', '-0.037262887', '-0.020609925', '-0.05552143', '-0.005854204', '-0.02960194', '0.06325515', '0.0023916212', '-0.0098762065', '-0.005858103', '0.023049569', '-0.022904517', '-0.023238966', '-0.023165092', '0.015830461', '0.0021726948', '-0.009689009', '0.0070481524', '-0.026897024', '-0.017200863', '-0.013601753', '0.0689668', '0.017496804', '0.035952974', '-0.029860739', '-0.0025216136', '-0.044760384', '0.07625343', '0.028542528', '-0.008974089', '0.021930415', '0.056601267', '-0.004698603', '-0.027003339', '-0.029919654', '-0.043066427', '-0.03907933', '0.041715726', '-0.019819468', '-0.067349456', '-0.023123464', '-0.01122488', '0.04265942', '-0.01413034', '-0.023800509', '-0.021767233', '0.018762298', '0.032401647', '0.009551382', '0.021678593', '0.0047457', '0.03536874', '0.012729399', '0.06360986', '0.0051759854', '0.0029149402', '0.02686394', '-0.039858513', '0.016064234', '0.001535101', '-0.017162243', '0.055730082', '0.03180359', '0.018699123', '-0.0093622', '0.02822768', '0.028544264', '0.032114156', '-0.0017477478', '0.039300747', '0.0022459268', '0.0027552752', '0.023364075', '-0.016542025', '0.019744543', '-0.007684722', '0.0011581535', '0.014529201', '0.0074164537', '0.051266864', '0.0013876562', '-0.0023896452', '0.030296337', '0.002308818', '0.0009494265', '-0.03430964', '-0.024750495', '-0.0053368667', '-0.053753775', '-0.021659492', '0.01399287', '0.039140716', '-0.06486084', '0.04520972', '-0.033198867', '-0.04929252', '0.052271947', '0.024769003', '-0.024883322', '0.027102053', '0.0687555', '-0.009631971', '-0.0034164635', '0.030332794', '-0.015327462', '0.0050871964', '-0.010858257', '-0.034992956', '0.034865085', '0.024183342', '-0.009643249', '0.047927953', '0.016001178', '0.023935871', '0.035723496', '-0.06585706', '-0.0025283326', '-0.060614396', '0.004203984', '-0.042757757', '-0.054882966', '0.039692', '0.005199374', '-0.040736664', '-0.015744157', '0.032395594', '0.008406872', '-0.03830682', '0.031728774', '-0.021072859', '-0.009193292', '-0.05558519', '-0.07033108', '-0.004865932', '0.04201622', '-0.0015468356', '-0.022169277', '0.070632696', '-0.042017397', '-0.036749084', '-0.035046276', '-0.03035732', '0.01270753', '-0.03370903', '-0.002211402', '0.05996849', '-0.030172462', '0.084895216', '0.014641839', '-0.04262688', '-0.03723311', '0.023763794']
12, ['0.017238885', '0.036004577', '-0.024074333', '0.03503691', '0.0055721076', '-0.021070823', '0.15503281', '-0.061337944', '0.026828706', '0.020455444', '0.018095454', '-0.08025329', '0.018832987', '-0.016834142', '-0.037342135', '0.051625133', '-0.009411437', '-0.04207061', '-0.002780348', '0.036026414', '-0.0284955', '-0.045371614', '0.0061922185', '0.010354506', '-0.0035627815', '0.011571408', '0.018846251', '-0.051193886', '0.031922393', '-0.00418268', '-0.004530465', '0.03247533', '0.03241681', '0.061228957', '0.025394965', '0.018575635', '0.012466683', '0.043558456', '0.015074415', '0.019000605', '0.008660019', '-0.07086974', '0.012120335', '0.054518644', '0.0007774253', '0.034669835', '-0.014755201', '0.040732846', '0.0009747362', '0.004667183', '-0.006665615', '-0.03806372', '-0.009080185', '-0.0006676141', '-0.040850203', '0.0057844454', '0.0031373382', '0.035608474', '0.040597904', '0.010334887', '-0.017823089', '-0.04867964', '-0.03751953', '0.0023726898', '0.03486678', '-0.019410595', '-0.028103523', '-0.005525257', '0.017945629', '-0.027534889', '0.04961146', '0.016977414', '-0.025154056', '0.010817612', '-0.053731747', '-0.012192442', '0.007439966', '0.06487168', '0.039797295', '0.0047925184', '-0.039375544', '0.0059829378', '-0.031613726', '-0.009866557', '-0.05684902', '0.0026410287', '-0.06146', '-0.0023991987', '0.014930923', '-0.06209985', '-0.089470424', '0.07270096', '-0.034856994', '-0.0010127585', '5.5420573e-05', '0.04230707', '0.16020769', '-0.008955312', '0.029565986', '-0.019407716', '0.043935787', '0.0389269', '-0.05832972', '-0.002630653', '-0.013724882', '0.021678431', '0.0002790223', '-0.01789666', '0.060668033', '-0.037336156', '-0.010486069', '-0.02123036', '-0.016703224', '-0.017499626', '0.0034372748', '0.009641315', '0.03174179', '-0.043855544', '0.0056859995', '-0.015177399', '0.061833553', '-0.020291582', '-0.0003526608', '0.037700046', '-0.022314457', '-0.02593268', '0.04341823', '-0.03178701', '0.034616545', '0.046087693', '-0.027641432', '-0.029926527', '0.012681793', '-0.012399908', '0.0033869538', '-0.0063265534', '-0.022622459', '0.034049947', '0.00533176', '-0.032868445', '-0.009423732', '0.0061067278', '-0.02306766', '0.032692965', '-0.009525085', '0.009726667', '-0.019089874', '0.012682106', '-0.06562706', '0.073365435', '0.0237127', '0.0084655', '-0.042617775', '-0.050405443', '0.09270421', '0.044100963', '0.013500043', '0.010591352', '-0.017528852', '0.006253306', '-0.008551437', '-0.007160972', '-0.04972667', '0.037338372', '-0.003142145', '0.009219582', '0.010866902', '-0.011544892', '-0.029145028', '0.038611263', '-0.05025952', '0.020802392', '0.027140701', '-0.009025341', '0.009886863', '0.021775974', '0.03480335', '0.023698566', '-0.002967133', '-0.029776955', '-0.07010134', '0.002538015', '-0.013005052', '-0.015095822', '-0.050630495', '0.014364617', '0.05072257', '0.013720563', '-0.025741689', '-0.022259574', '-0.021686872', '-0.019529548', '0.02226299', '-0.018103631', '0.0009967099', '0.042853232', '-0.027845714', '0.0151566', '-0.003770396', '-0.01611295', '0.008508582', '0.0070327134', '-0.041755628', '-0.0194223', '-0.033770792', '0.008543639', '-0.007568732', '-0.0124263335', '0.02337253', '-0.07617004', '0.016610855', '-0.056533262', '0.030581875', '-0.039526027', '0.0034690248', '-0.012367866', '0.047436953', '0.0009888757', '0.024523597', '0.038590264', '0.0036755204', '-0.029276079', '-0.011589397', '0.009682727', '0.013320616', '0.06637001', '-0.00229582', '0.030894168', '0.016512431', '-0.04745378', '-0.04873999', '0.04552452', '-0.004832259', '-0.026508566', '-0.038703308', '0.0028312602', '-0.009264726', '0.022014631', '0.02485604', '-0.006464271', '0.058275625', '-0.029113347', '-0.024030073', '-0.040375955', '-0.06594079', '0.014798345', '-0.06576996', '0.005656485', '0.0060518044', '0.009328759', '-0.021589434', '0.0130314855', '0.009370519', '-0.045223236', '0.050277796', '0.0065299934', '-0.024777602', '0.017202029', '0.00020524341', '-0.007994463', '-0.015171041', '-0.023027875', '-0.016747577', '-0.012247174', '0.0021454236', '0.06324956', '0.007183545', '-0.011564458', '0.03516292', '-0.012919477', '-0.034784667', '0.027920919', '0.009680296', '0.023660822', '-0.005903215', '-0.03935631', '-0.022643412', '0.001190441', '-0.042223614', '0.019564584', '-0.04837012', '-0.007987899', '0.024936123', '0.0039760997', '0.030293489', '0.04395918', '0.008275383', '-0.010279128', '-0.015983133', '0.011195712', '-0.043278255', '-0.019822953', '0.0074779233', '-0.025452537', '0.077797405', '-0.04120552', '-0.038113963', '-0.02045752', '-0.0022407866', '0.012624499']
13, ['-0.07332618', '0.008001492', '0.019730512', '-0.03947064', '-0.11829251', '-0.01115209', '-0.9302905', '0.18202612', '0.0030511208', '-0.05100526', '-0.08543347', '-0.04800051', '-0.11209603', '-0.047320727', '0.04769964', '0.115331635', '0.0304278', '0.08267174', '0.0070236153', '-0.05529489', '-0.022785049', '0.07559411', '-0.04030876', '-0.0027276038', '0.00029167658', '-0.013024463', '-0.008100119', '0.00021173745', '0.012660222', '-0.016776947', '-0.07393602', '-0.016149528', '0.012793166', '0.1155934', '-0.011228314', '0.00012202332', '-0.038279083', '0.0018595969', '-0.06807164', '-0.0401986', '0.0301915', '-0.0075032827', '-0.059222274', '-0.012108164', '-0.03195306', '-0.00451465', '0.0877598', '-0.069500774', '-0.046323676', '0.06290998', '0.0064853295', '-0.07393293', '-0.035828292', '0.044427313', '-0.011405218', '-0.001092105', '0.024455152', '-0.017115876', '0.019366857', '0.069849126', '0.020152818', '0.013590377', '-0.02592', '-0.049140513', '-0.061652508', '-0.013093962', '-0.024478707', '-0.044668283', '-0.015447221', '0.023796149', '-0.008425883', '-0.0766217', '0.042944375', '0.023841772', '0.015465861', '-0.069117025', '-0.029465958', '-0.02411018', '0.015403269', '-0.00029795346', '-0.016305547', '-0.28277427', '-1.5966485e-05', '-0.0048992555', '-0.029009737', '-0.0023663642', '0.054882023', '-0.0026975796', '0.0040016966', '-0.039538905', '-0.014042607', '0.060821448', '0.04234091', '-0.032597106', '0.02498769', '0.07163424', '-0.579702', '0.003520074', '0.034217555', '-0.06024778', '-0.07062941', '0.09764951', '0.001332623', '0.025360389', '-0.03757855', '-0.03598772', '-0.041654576', '-0.1672275', '0.10150101', '0.025018016', '0.006169793', '-0.048312295', '0.048420068', '0.043104142', '-5.6103967e-05', '0.03584031', '-0.039897505', '-0.0013567415', '0.0459538', '0.010264254', '0.013860357', '-0.028575454', '-0.024956416', '-0.13416879', '-0.0037847562', '0.0060871933', '0.09918712', '-0.034006238', '0.046935182', '-0.02325798', '-0.008550944', '-0.028803345', '-0.027034156', '0.09031127', '0.04335755', '-0.001936978', '-0.008041168', '0.06955149', '-0.062283345', '-0.12423622', '0.0093457', '0.041620344', '0.023583967', '0.042211253', '0.016662223', '0.009970378', '-0.012598243', '0.036823675', '0.17637572', '0.0128510585', '0.036136124', '0.042817436', '-0.0020445785', '-0.0073125893', '-0.054989126', '0.08323597', '0.012806778', '0.017720317', '-0.002419769', '0.08282639', '-0.008208892', '-0.0074118106', '-0.01973658', '-0.033341203', '0.004307836', '0.02327399', '0.018435096', '0.008465656', '0.08591431', '-0.054932814', '-0.057820383', '0.030948237', '-0.0074253995', '-0.03500682', '-0.0070631187', '0.03128356', '0.07300715', '0.028716626', '-0.08816343', '-0.02531488', '0.027600309', '0.036257766', '-0.036947403', '0.008762102', '-0.07417275', '0.025620315', '-0.025955934', '0.023887271', '-0.072010905', '-0.027575396', '0.045848258', '-0.07969972', '-0.017542155', '-0.014335649', '-0.012321633', '-0.057237934', '0.026162123', '0.026828133', '4.869616e-05', '0.034509975', '0.0056031877', '-0.027305242', '0.08210828', '-0.041895743', '-0.059039757', '0.0069146683', '-0.041309305', '0.025616061', '-0.05286905', '0.045973048', '0.034871247', '-0.011031083', '0.058595594', '-0.04643581', '-0.081388585', '-0.028131384', '0.026239717', '-0.012704692', '0.024115581', '0.021841519', '-0.04945444', '0.035225336', '0.028762909', '0.025180275', '0.02386218', '-0.011916912', '-0.020273902', '-0.0049172617', '0.0040808627', '-0.10526648', '-0.026785411', '0.054755025', '0.0017851291', '-0.008813023', '-0.014168421', '-0.09807352', '0.026381638', '0.011457761', '-0.046511635', '-0.026928207', '-0.03516333', '0.06718596', '-0.11549687', '0.030200692', '-0.0053173644', '0.0305592', '0.030221514', '-0.019432684', '0.015746577', '-0.04751772', '-0.024761848', '0.040786475', '0.00015314479', '-0.022732044', '0.026102152', '-0.054607153', '-0.13744754', '-0.06683859', '0.029406082', '-0.0040759025', '-0.019309027', '-0.0128249815', '0.010311529', '-0.06255464', '-0.026130607', '0.056708053', '-0.03955753', '-0.032073073', '0.01915046', '0.067122824', '-0.024870178', '-0.03627699', '-0.09944235', '-0.051538173', '-0.014559136', '-0.0136666605', '0.008259934', '-0.0026527843', '-0.067671455', '0.027504876', '0.31648946', '-0.06330543', '0.0024939515', '0.044011638', '-0.06489941', '0.053649154', '0.054018997', '-0.019162465', '-0.007860357', '0.050071444', '0.074016824', '-0.025154429', '0.012259816', '-0.038515117', '0.10254499', '0.021826694', '0.025625624', '-0.010065446', '-0.05284537', '0.010496323']
14, ['0.037229843', '-0.034552302', '-0.017122768', '0.009818979', '0.03817226', '-0.013348166', '0.12291014', '0.045260623', '0.06193174', '0.053655196', '0.0745444', '-0.007572883', '0.057952285', '-0.017132029', '0.05190068', '-0.07180731', '-0.0071380893', '0.00039861363', '0.050536517', '0.020969145', '0.03080015', '0.014070295', '0.07069358', '0.029580623', '-0.049970858', '0.0028108072', '0.044146318', '0.024039311', '-0.042364884', '-0.0022220463', '-0.0335855', '0.00033458814', '-0.097438276', '-0.06530623', '-0.019305745', '-0.06542047', '0.025066592', '-0.04020425', '0.029181568', '0.03874915', '0.011085401', '0.005844373', '-0.01014119', '0.03286336', '-0.0026791939', '0.016891986', '0.098394446', '0.013471134', '0.07142928', '0.024957435', '-0.02693249', '-0.028729238', '0.0103991', '-0.00862358', '-0.00019818473', '-0.019545712', '-0.028599808', '0.037552305', '-0.016225005', '-0.062379252', '-0.011555065', '-0.024080416', '-0.023806218', '-0.0049280673', '0.02215568', '0.022186154', '0.035889097', '0.057386983', '-0.047487017', '-0.04278302', '0.014662853', '-0.02903194', '0.01546408', '-0.014381163', '0.06718159', '0.01426495', '-0.0030744881', '0.050203145', '-0.027806308', '-0.041040186', '0.044014383', '0.079036996', '0.014188411', '-0.03777583', '0.046258893', '-0.0817251', '-0.08804503', '-0.016701544', '-0.044091787', '0.01311531', '-0.006986433', '0.027095119', '0.0036363585', '0.048398226', '-0.004569801', '0.014624854', '0.09510819', '0.03139752', '-0.086955264', '-0.025815958', '0.0077230027', '-0.048079956', '0.010908228', '0.013696906', '-0.027404653', '-0.0010989731', '0.041922692', '-0.0142081035', '0.07237437', '0.019783711', '0.024228951', '-0.050276596', '-0.009777317', '-0.01849023', '0.01766667', '0.009336835', '-0.018865494', '-0.006067788', '-0.06000304', '0.039313555', '0.07090372', '-0.017705953', '-0.03718865', '0.018633349', '0.006401703', '0.043228332', '-0.003961329', '-0.011545499', '-0.027262762', '0.03011759', '-0.056197632', '0.002405049', '0.023692338', '0.021904616', '-0.018046118', '0.0057086237', '-0.025215715', '-0.0056938366', '0.05677012', '-0.05367157', '-0.050714083', '0.019535245', '-0.05514182', '0.04508225', '0.011411693', '-0.06241195', '-0.026350316', '0.057224263', '-0.09257886', '0.028761338', '-0.06813671', '-0.019644285', '-0.00961037', '0.0041309665', '-0.06521039', '0.0051958393', '0.027249064', '0.026957357', '-0.0392301', '0.019323658', '-0.037372243', '0.0034814612', '-0.03996245', '-0.03503865', '0.0276936', '-0.060971163', '-0.06105445', '-0.032690797', '-0.11303637', '0.0047806166', '-0.018902048', '0.010621742', '0.028394781', '-0.049938105', '-0.009173893', '0.04654292', '0.031994957', '0.0031986618', '0.004410061', '-0.023162212', '-0.004992873', '0.026157672', '0.013309943', '-0.0032450105', '-0.047677632', '-0.046541378', '0.018573456', '0.018015752', '-0.026812004', '0.025000647', '-0.013585131', '0.020247182', '0.018756464', '-0.0029990005', '0.040318806', '-0.047786444', '-0.0052824975', '-0.051802564', '0.026366608', '-0.03415884', '-0.035942312', '0.014336768', '-0.10275267', '-0.06375207', '0.038911104', '0.037135035', '-0.015896015', '-0.008522377', '0.04015121', '-0.04458724', '-0.0438791', '-0.0083836075', '0.024044603', '0.0156572', '0.0023796607', '0.042524032', '-0.021079618', '-0.03562131', '0.02081942', '-0.00500224', '0.04736987', '-0.054017358', '0.00068369956', '-0.05025595', '0.022534806', '0.025421156', '0.011879414', '-0.07434584', '0.020407232', '0.012411218', '0.0025584158', '-0.018886453', '-0.025859108', '0.016783627', '-0.0014487271', '-0.027038692', '-0.037621062', '-0.00039122757', '-0.029648755', '0.034041934', '0.028290916', '0.043695774', '0.032469522', '-0.029806735', '-0.02222277', '-0.05673306', '0.0074107572', '0.035347484', '0.08380233', '-0.016442029', '-0.004132081', '0.010885994', '-0.026761213', '0.024043191', '-0.028174963', '0.01838135', '-0.07229962', '0.04423156', '-0.033487197', '-0.04573145', '0.07081237', '0.009214974', '-0.0033735065', '0.07508321', '-0.0402866', '-0.07149143', '-0.07118115', '0.0490884', '-0.03866633', '0.070160836', '-0.02007008', '-0.026824271', '0.026760682', '-0.0073507507', '-0.0012222896', '0.013294127', '-0.0337449', '-0.045377202', '0.001402863', '0.03292084', '-0.052793097', '-0.02691934', '-0.05652799', '0.04777163', '0.062035862', '0.012397444', '0.009751501', '0.038803898', '-0.00031645084', '0.014969888', '-0.04591126', '0.0067631514', '0.035456914', '-0.0051770667', '-0.041768074', '0.004530566', '0.039467342', '-0.019409884', '0.04233334', '-0.03206152']
15, ['-0.0036946547', '0.07933785', '0.043580495', '0.02748384', '0.009781397', '0.065998994', '0.12498801', '-0.05022093', '0.054913398', '-0.03460317', '-0.01611623', '-0.05854351', '0.004315671', '-0.01984129', '-0.009924017', '0.018985355', '0.031794943', '0.030796606', '-0.036709785', '0.0027349312', '0.00498859', '0.050782546', '0.010662689', '-0.018247277', '0.037085608', '-0.046758913', '-0.00026697837', '-0.039324965', '-0.03421603', '0.056481432', '-0.005760348', '0.033298016', '0.034571547', '0.006953969', '-0.021285279', '0.012951834', '-0.03552013', '-0.04537021', '0.0059281373', '-0.036544513', '0.004379877', '-0.06650722', '0.041866403', '0.009716494', '-0.003548233', '-0.010300988', '0.055344548', '0.06438569', '-0.0062663285', '0.016661271', '0.07637865', '-0.018559383', '0.038372263', '0.017531514', '-0.011766069', '0.029879207', '-0.003662744', '-0.024195326', '0.01822415', '-0.029495088', '-0.04180558', '0.018161934', '0.0057043433', '-0.033065133', '0.009610777', '-0.030823302', '-0.07558708', '0.035655476', '0.0025710352', '-0.028658863', '-0.0070613725', '0.026709434', '-0.004921798', '0.00951136', '0.051590044', '0.0076511055', '-0.061371386', '-0.036502402', '-0.011253632', '0.037198797', '-0.05819463', '0.04334935', '0.05251478', '0.012130973', '-0.027510682', '-0.042988185', '-0.03869755', '0.009975715', '0.028727824', '-0.008510278', '-0.03330498', '0.003308501', '-0.048518214', '-0.011954151', '0.031037943', '0.01500589', '0.067982264', '0.0354424', '-0.053251326', '-0.036954533', '0.042627804', '-0.009373341', '-0.023708174', '0.06180387', '0.018138291', '-0.017533544', '0.022454329', '0.042403836', '0.0021853708', '-0.019768827', '-0.045187023', '-0.014122997', '-0.0047115018', '0.000100117366', '-0.011086114', '-0.0054219733', '-0.043020215', '-0.07645293', '-0.043122377', '0.0031012096', '0.005740837', '0.0039256224', '-8.432474e-05', '0.035755634', '-0.017291872', '0.006020574', '0.06352657', '-0.016582651', '0.011083552', '-0.043965787', '0.069461174', '-0.052598476', '-0.001212825', '0.017490357', '-0.024963362', '-0.015734646', '-0.049246', '-0.025739146', '0.021495622', '0.0035451876', '-0.07149504', '-0.051170178', '-0.029504837', '0.041383862', '-0.057569485', '0.02885351', '0.019206757', '-0.043535233', '0.020936145', '0.008082773', '0.029904263', '-0.02878147', '0.018011514', '0.052743588', '0.045895424', '0.012401788', '0.055577844', '-0.0030770914', '-0.020077951', '0.0036550616', '0.033713948', '-0.024794584', '0.045651767', '-0.010065739', '-0.065188676', '-0.02333598', '0.011144209', '0.024610847', '-0.005877332', '0.019265585', '0.06430092', '-0.0044442457', '0.03405713', '0.012538813', '0.042175394', '-0.05278674', '-0.019011432', '0.024118593', '-0.0009448642', '0.03453289', '0.011409045', '0.024335211', '0.012167047', '0.028822813', '-0.026035806', '0.023555992', '-0.025487006', '0.02050378', '-0.010583626', '-0.0018407296', '-0.104510136', '-0.009639314', '-0.034639344', '-0.0108576', '-0.036053546', '0.016360693', '-0.048416123', '-0.034351494', '-0.022485225', '0.0010710375', '0.032005023', '0.03501931', '-0.0016562555', '0.022877852', '-0.03765633', '-0.06221244', '-0.033930205', '-0.072794326', '0.0069423523', '0.07727125', '0.023945054', '-0.023726929', '-0.033490233', '-0.053884305', '0.06146364', '-0.04425976', '-0.037179817', '0.043132726', '0.044915646', '0.010541378', '-0.04470912', '0.065890335', '-0.04655263', '-0.011484585', '0.047240954', '0.00022354786', '-0.0047853626', '-0.005870238', '-0.00622869', '0.016327433', '0.016157283', '-0.022582073', '0.014778014', '-0.016195593', '0.018789807', '0.021792645', '0.020596217', '-0.006000651', '-3.402649e-06', '-0.0061016213', '0.026257377', '0.011328222', '0.023421424', '0.022894522', '0.017580643', '-0.02027386', '0.027842976', '0.0020912874', '0.017316438', '0.05160484', '0.03181789', '-0.007930965', '-0.018223654', '-0.035888012', '0.012542987', '0.05402742', '-0.060193434', '-0.018233122', '-0.0014178486', '0.029234374', '0.018056182', '-0.008457037', '0.014924276', '-0.03376773', '0.061088406', '-0.01995397', '0.029268414', '0.01845482', '-0.006079176', '0.004097288', '0.035048943', '0.040599067', '0.024306143', '0.019495012', '0.009980122', '-0.008936013', '0.023360712', '0.007812394', '0.034765396', '0.084577546', '-0.027832909', '-0.027714472', '-0.0368766', '-0.04288416', '-0.008698615', '-0.03300634', '-0.013322505', '0.023697307', '-0.037412155', '0.043457076', '-0.030961987', '-0.028449528', '0.013517358', '-0.054213736', '-0.013434476', '-0.032780774', '-0.028743263', '0.0072552157', '-0.06236982', '-0.033279397']
16, ['0.023447579', '0.052463695', '-0.054278597', '0.03299609', '0.014505839', '0.02514242', '-0.0044400548', '-0.013368459', '0.03550046', '0.028903203', '-0.06817385', '0.029414652', '-0.07550961', '0.04328354', '0.049020097', '0.03839732', '0.010640972', '0.021957545', '-0.011701655', '0.02819514', '-0.015870437', '0.053780418', '-0.010699996', '0.017671805', '0.033066034', '0.022744067', '-0.013079025', '0.025050892', '-0.02284378', '-0.05790863', '-0.025400463', '-0.011862785', '-0.010908675', '-0.035600446', '-0.009211494', '0.040848665', '-0.042783584', '0.020677917', '0.015938513', '-0.015130841', '0.048414186', '0.027564688', '0.0070035444', '0.0025695951', '-0.0021032193', '0.03490415', '0.029780496', '0.005209195', '-0.015789488', '0.0055319113', '-0.028295632', '-0.023770006', '0.07165092', '0.024137985', '0.019002216', '-0.008805975', '-0.04248661', '0.014977405', '-0.0135542', '-0.014676701', '-0.05231647', '0.011860479', '0.013275656', '-0.08087708', '-0.020947538', '-0.0041380427', '0.012397897', '0.07076151', '-0.03276239', '0.02931303', '-0.020090971', '-0.041313224', '-0.0026647975', '0.06891371', '0.040998425', '0.04694313', '-0.004664055', '-0.057483286', '-0.06621171', '-0.039318614', '0.030102607', '-0.008066851', '0.030716773', '0.03441479', '0.013543235', '0.018680466', '-0.008950917', '0.022292487', '0.01518062', '0.016609384', '-0.010449137', '-0.011833554', '0.027851196', '-0.064855404', '-0.02465343', '-0.07604538', '-0.03977556', '0.032342292', '-0.06301998', '0.007280475', '-0.03751648', '0.009400573', '-0.031188825', '0.010475735', '-0.0004291709', '0.022152917', '0.054252073', '0.018844383', '0.04817869', '-0.07277791', '0.013792839', '0.007197885', '0.03745489', '-0.011663932', '-0.025812885', '0.037227966', '-0.009253528', '0.05978791', '0.027635356', '0.047466245', '-0.11293281', '-0.04037633', '0.01355879', '-0.017427562', '0.045510706', '0.07033408', '0.035379972', '0.018783651', '0.02868168', '-0.046657886', '0.00744053', '0.04563984', '0.045374736', '0.002046358', '-0.019891797', '-0.003269271', '-0.017485656', '0.0026430413', '-0.011697445', '-0.03739131', '-0.0120762', '-0.041419186', '-0.047915574', '0.009054971', '0.053036295', '0.060546424', '-0.039623216', '0.010449983', '-0.018592743', '-0.034057528', '0.027534539', '-0.004014169', '-0.04846273', '0.046331856', '-0.06392477', '-0.09686794', '-0.063411735', '-0.037738085', '-0.0051931464', '-0.0008525467', '-0.003273572', '-0.045839902', '0.018594785', '-0.051076367', '-0.027330393', '0.024701225', '0.021402966', '0.009783684', '-0.007820773', '-0.002172403', '0.02685213', '0.049406752', '0.06400162', '0.021023473', '-0.010065518', '-0.017290065', '-0.046488192', '0.034584142', '-0.02640963', '-0.022540342', '-0.047557265', '-0.009490117', '-0.022205766', '0.029719565', '0.05448501', '0.04680048', '0.04313907', '-0.029291498', '0.03524618', '-0.078429185', '-0.0197196', '-0.024184354', '-0.005930132', '-0.015594174', '5.2164676e-05', '-0.07939564', '0.02354139', '-0.046969984', '0.036723714', '0.0005460298', '0.0033960105', '-0.0041633975', '-0.011068475', '-0.015284681', '0.056397986', '-0.060077347', '0.05574197', '-0.010870998', '-0.012044336', '0.032164317', '-0.06980695', '0.024011426', '0.016433474', '0.03755734', '-0.04787201', '0.0065962365', '0.034609128', '0.047144935', '-0.043232407', '0.03459934', '-0.0035355545', '0.026758544', '-0.00590807', '-0.009061016', '-0.022476342', '-0.005300331', '0.063315235', '-0.021985272', '0.010925457', '0.056343786', '0.013274549', '0.021473357', '0.010313897', '-0.01164125', '0.00712225', '0.04875902', '0.07324559', '-0.013813326', '0.048060913', '0.03335747', '-0.04477234', '0.02165352', '0.0027788966', '0.0057211556', '0.008560388', '-0.009240704', '0.0064690863', '0.024599258', '-0.00859212', '-0.033227604', '0.007873541', '0.021535512', '0.034130525', '0.059888646', '-0.02932899', '-0.024977894', '-0.014702811', '-0.014397115', '0.02317054', '0.024235265', '0.0248006', '0.009066452', '0.021830188', '-0.068963386', '0.03270457', '0.003504722', '0.0429052', '0.0031669892', '-0.015575954', '0.03501137', '-0.06965954', '-0.008984816', '0.013010645', '-0.030280152', '-0.013682506', '-0.026973957', '-0.018920815', '-0.04929915', '-0.006223775', '0.02747909', '-0.037008557', '0.008235792', '-0.028557787', '0.034322795', '-0.0051680696', '-0.005577693', '-0.024681212', '0.051190704', '-0.008133038', '-0.0604402', '0.060291108', '-0.033773284', '0.03547506', '-0.021516427', '-0.019560596', '-0.020331874', '-0.032033145', '-0.0065466473', '0.04839477', '-0.048835877']
17, ['0.0060738036', '-0.0012572386', '-0.0007259609', '-0.062135797', '-0.02521351', '0.050701406', '0.004178735', '-0.09314507', '-0.008285825', '0.02939416', '0.03267595', '0.042348284', '0.020058442', '-0.036279097', '-0.028709566', '-0.013103673', '-0.013272865', '-0.02724148', '0.0113526005', '-0.049236648', '-0.072382055', '0.027274031', '-0.07062986', '0.043697473', '0.0111889485', '-0.011155336', '0.03929916', '-0.08214913', '-0.015296713', '0.021390224', '-0.02182272', '0.040664855', '-0.058161974', '-0.03270784', '-0.0426939', '-0.0401571', '0.0060609393', '-0.059998527', '-0.020236645', '-0.046253566', '-0.032762025', '0.03786635', '0.061465755', '-0.07517787', '-0.041115142', '-0.013498471', '0.0196221', '-0.0346817', '-0.04237797', '0.05532072', '-0.02139634', '-0.064988874', '0.046558022', '0.008566597', '0.0058214506', '0.0048227613', '0.02355648', '0.0032415758', '-0.017651012', '0.059847355', '0.036862515', '0.06912005', '-0.0024558315', '0.040834274', '0.013880147', '0.029087206', '-0.021383708', '-0.037167165', '0.10409586', '0.029043011', '-0.028769486', '-0.033481937', '0.01799284', '0.06407627', '0.0552192', '-0.055355072', '-0.0047204304', '0.06575851', '0.010118586', '-0.02742221', '0.054798394', '-0.0059443926', '0.047266383', '0.002625498', '0.011621579', '-0.023640454', '-0.030029355', '-0.022321053', '0.0603835', '-0.007805344', '-0.008653598', '-0.07229816', '-0.06098009', '-0.053141568', '0.040698152', '-0.06837462', '-0.019569695', '0.011931268', '0.016392607', '-0.04444782', '-0.013027615', '0.030363597', '0.016089339', '0.017409174', '-0.04744149', '0.097177796', '-0.03367253', '-0.063606575', '-0.006733376', '0.0009402465', '0.02226793', '0.02826873', '-0.016814196', '0.024826387', '0.022352958', '-0.07101556', '-0.09826552', '-0.04642199', '0.027473908', '0.023760216', '0.051267322', '-0.027690737', '-0.024230087', '-0.10791254', '0.0035510426', '0.039722536', '-0.01615835', '0.0023827045', '0.005054905', '-0.0019319761', '-0.0584119', '-0.0029283527', '-0.0013576805', '-0.023857938', '-0.072627366', '-0.0028275796', '-0.00048570934', '0.0008379543', '0.03323716', '0.0016969827', '0.03431838', '0.0056886952', '-0.01302265', '-0.084068775', '0.08311162', '-0.04270772', '-0.045153853', '-0.0024952183', '-0.0035407483', '0.015821263', '0.017926713', '-0.015580745', '-0.05484254', '0.061705157', '0.061134916', '0.04545019', '0.026227394', '-0.036145322', '-0.026775163', '0.051227033', '-0.11908764', '-0.035725538', '0.03271201', '-0.004696716', '-0.06399626', '0.018412871', '0.027503146', '-0.047264777', '-0.070882335', '0.052969348', '-0.050707538', '0.0797027', '0.0011312704', '0.020532351', '-0.03343524', '0.029777912', '-0.035180558', '-0.0034339847', '0.041579954', '-0.04488177', '0.0056111086', '-0.023567205', '0.0033355022', '-0.026026292', '0.01215964', '0.0011845756', '-0.010037667', '0.028578462', '0.08415408', '0.0297291', '-0.0053805276', '-0.013240804', '-0.041581012', '0.024444437', '-0.00074483326', '0.025737531', '0.004284367', '0.089414634', '-0.06842155', '0.01183282', '0.053018343', '-0.013975686', '0.028631644', '0.026196225', '-0.017649353', '0.027503673', '-0.048184823', '-0.05526736', '-0.0069931806', '-0.046305675', '0.011083443', '0.052505564', '0.0013605448', '-0.054728538', '0.05178665', '1.1330012e-05', '-0.062218428', '0.039182577', '-0.020097725', '0.053063583', '-0.0846466', '-0.039492693', '0.0012275667', '-0.0067406087', '0.029573178', '0.07015797', '0.07761077', '-0.0025470613', '-0.0031542445', '-0.034798134', '0.038650535', '-0.018139001', '0.04027513', '-0.011534103', '-0.017009094', '-0.007153665', '-0.012097521', '-0.030294772', '-0.020876799', '0.00969016', '-0.023325691', '-0.02753163', '0.047418933', '-0.07574786', '-0.0690703', '-0.05141021', '-0.034431856', '0.050670624', '-0.025966533', '-0.030010285', '0.013880564', '-0.0033154537', '0.024990581', '0.052462164', '0.0061224606', '0.037056353', '0.043180063', '0.0029602102', '-0.007792122', '0.014213434', '-0.009622683', '0.008078666', '-0.020606644', '0.01432588', '-0.0032861645', '-0.0022972699', '0.0050250636', '-0.0019266588', '-0.009154929', '0.0054968344', '-0.03771875', '0.011080613', '-0.038672384', '0.02236486', '-0.041183747', '0.050246827', '0.01145221', '0.034529652', '0.025557712', '0.0011322671', '-0.000551626', '0.105477735', '0.0665633', '0.09698514', '-0.03883516', '0.056114487', '0.022539359', '-0.037751332', '0.079942815', '0.058073264', '-0.027052363', '-0.027556838', '-0.011579153', '-0.038577862', '-0.018392976', '-0.054998156', '-0.053178236', '0.00306038', '0.011449878', '0.06196634']
18, ['0.043246068', '-0.07766113', '0.10689245', '-6.544411e-05', '0.0151930675', '-0.020722989', '-0.02893988', '0.009699911', '-0.049492307', '0.056844942', '0.051742386', '-0.009955798', '0.026988462', '-0.029135592', '-0.05750247', '0.021675408', '-0.03426945', '-0.040283848', '0.03287396', '0.005940015', '0.07441694', '0.02049162', '-0.02594116', '0.008774247', '0.0031566697', '0.006384666', '0.022192953', '-0.04754202', '0.06761628', '0.0037640566', '0.013608721', '0.031769555', '-0.0014841981', '-0.017227244', '0.10867084', '0.05445203', '0.012792136', '-0.041003317', '0.011234893', '-0.032465313', '0.06063692', '0.03174079', '-0.031956617', '-0.007858441', '0.06757672', '-0.03417743', '0.03953736', '0.040572114', '0.024014443', '-0.05007478', '0.10202653', '0.010339851', '-0.1293297', '-0.056911405', '-0.051893573', '-0.014482073', '0.011283631', '-0.019171959', '0.072387084', '-0.09280237', '0.020421103', '-0.038988307', '-0.0025674838', '-0.0052222074', '0.02886282', '-0.018501438', '0.015494325', '-0.039876122', '0.0013838651', '0.0037773421', '0.02953648', '0.043407425', '-0.061593067', '0.018859906', '0.019039238', '0.04277026', '-0.037894692', '-0.013564816', '0.04552912', '-0.06291256', '-0.02713204', '-0.05288196', '0.004743747', '-0.08085857', '0.056490604', '0.0422863', '-0.070852086', '-0.047134735', '-0.06168658', '0.036852136', '0.014245767', '-0.015986066', '-0.031466097', '-0.020843994', '-0.015644003', '-0.0059343227', '0.06917303', '-0.07687621', '0.025144365', '0.008772594', '-0.08147994', '-0.025630943', '-0.021430217', '-0.037230354', '-0.0055154623', '-0.004513037', '0.035888582', '0.04878831', '-0.007031675', '0.0030973307', '0.107527815', '0.006910324', '0.116303995', '0.036851134', '-0.070393115', '0.027727477', '0.096299216', '0.07314032', '-0.021129156', '0.04113438', '0.062166907', '-0.039207447', '0.058010977', '0.019640608', '-0.0777211', '0.018618874', '0.014931014', '0.008974745', '-0.037475575', '0.07526833', '0.037536975', '0.07411117', '-0.05773675', '0.07972295', '-0.08031721', '-0.07070845', '-0.10325989', '0.009274407', '-0.0141049065', '0.023194322', '-0.008007316', '0.031099416', '0.011506383', '-0.01410007', '0.0019190084', '0.02199697', '0.033387467', '0.03347201', '0.07917559', '0.028602008', '0.0299316', '0.02631958', '0.030180894', '-0.045325164', '-0.01799858', '0.011381279', '0.007390128', '0.052548144', '0.009071248', '-0.07185987', '-0.03734519', '0.045681488', '0.0005227164', '-0.045397643', '0.08044239', '-0.008609778', '0.009243099', '0.031724725', '0.006847258', '-0.0711189', '-0.014069853', '0.12919022', '0.051646523', '0.0072116167', '0.05981404', '0.060302306', '0.014486722', '-0.007828255', '-0.026409179', '0.0039737304', '0.017027216', '0.032882445', '0.058378305', '-0.014075743', '0.03981844', '-0.03534433', '0.14129013', '0.08935085', '-0.066763304', '-0.05593232', '-0.0060797175', '-0.0055171256', '0.025764657', '-0.057146978', '0.045010276', '-0.04152225', '-0.03667524', '0.0008596089', '-0.014123122', '0.03036537', '-0.05888807', '-0.061159845', '0.03147243', '0.06237289', '0.038721174', '-0.03196818', '-0.041826524', '-0.032233484', '0.008390676', '0.04400671', '0.04476618', '-0.027310321', '0.047540683', '0.082205795', '0.038031157', '0.026423095', '-0.013014948', '-0.074190386', '-0.04915832', '0.01775745', '0.0051651075', '-0.015654335', '-0.024365824', '0.08990295', '-0.03778204', '-0.025209747', '-0.08162181', '-0.037195135', '0.007913997', '-0.059390884', '-0.012542732', '0.0024325978', '-0.027676634', '0.054974414', '0.03846337', '0.0443534', '-0.030586759', '0.018515272', '-0.051134948', '0.08426258', '-0.03716642', '-0.028105952', '-0.026713628', '0.050772935', '-0.04612518', '0.027869105', '0.051507335', '-0.004736741', '-0.018891053', '0.024870662', '-0.04543005', '-0.017031316', '-0.01288929', '-0.028626865', '-0.03842933', '0.022558589', '-0.036160152', '-0.07797581', '0.011688443', '-0.015595172', '-0.028832013', '-0.03805964', '-0.028393758', '0.049978107', '0.05838347', '-0.02179174', '0.027707776', '0.008130265', '-0.03346267', '-0.011172309', '0.07294816', '-0.024386864', '0.04770304', '0.103677996', '0.050931774', '0.055400144', '-0.07283726', '0.09897566', '-0.05368085', '-0.04451655', '-0.0051549855', '-0.04274524', '-0.020946514', '0.05099011', '-0.029276367', '-0.009298031', '0.024201276', '0.0030136185', '0.1244154', '-0.02706347', '0.024665572', '0.025518645', '0.018626824', '0.07443584', '-0.011321239', '-0.017532023', '-0.044734128', '-0.037694547', '-0.027942393', '-0.014071899']
19, ['-0.004596348', '0.022974925', '-0.01764187', '0.004831312', '-0.011163976', '0.07089083', '0.03660442', '0.02016646', '0.0014948327', '0.030960845', '-0.053475674', '0.01613012', '0.02513249', '0.006775097', '0.07121112', '0.01615691', '0.0572547', '0.024416625', '-0.024978295', '0.016782625', '0.017636664', '0.0004496235', '0.03977032', '-0.020488802', '0.030514069', '0.070130706', '0.043858074', '0.059653684', '0.042714443', '-0.02592484', '0.029523896', '0.0006934709', '-0.0074269776', '-0.011431934', '0.011017155', '-0.03176412', '-0.030557627', '0.09474757', '-0.03216452', '-0.033085614', '-0.020658148', '0.03763268', '0.0067142164', '0.011639388', '0.0035201265', '-0.0061571044', '0.008855206', '-0.007873807', '0.028277475', '-0.055526406', '-0.07013959', '0.07674808', '0.0028175565', '0.025363475', '-0.014436762', '-0.06266003', '-0.04579639', '0.028733313', '-0.0013387275', '-0.053905062', '0.002197957', '-0.0026667372', '-0.0032967054', '0.013332477', '0.0048142658', '-0.062447373', '0.033229623', '0.007858801', '-0.013840882', '0.012878407', '-0.019178253', '-0.0055533806', '-0.053818606', '-0.010436265', '0.001571871', '-0.0021428873', '-0.053289495', '0.022463491', '-0.047723096', '0.032385226', '0.050929993', '0.0037134693', '0.024392793', '0.04683511', '-0.016711162', '0.015491436', '0.041348927', '0.04129862', '0.0030260514', '0.04853761', '-0.043118116', '0.0049210195', '0.010604167', '-0.060626693', '-0.07309191', '0.011163459', '0.028889792', '0.01713528', '-0.050960563', '0.0055750804', '-0.028248617', '-0.045988277', '-0.06127138', '-0.01906084', '0.0089688385', '-0.0076687117', '-0.02960439', '0.04576174', '0.018560898', '-0.043882117', '-0.014864687', '-0.06561731', '-0.016876739', '-0.070833124', '0.051700376', '0.017149815', '-0.0012944455', '0.023358732', '-0.045674738', '-0.03764513', '0.03836832', '-0.030585658', '0.00064473756', '0.048860785', '0.014784117', '0.0031286727', '0.010854048', '0.0137344105', '-0.05962494', '0.0031315554', '-0.006320905', '0.013400155', '0.008737127', '0.06342829', '0.048504747', '-0.022554286', '0.031169867', '0.0087815095', '-0.0613792', '-0.00074523856', '-0.037822623', '-0.025016267', '0.024771065', '0.008795224', '0.0067801545', '0.023389196', '-0.03539984', '0.041972596', '-0.07374873', '-0.0252908', '-0.0001093218', '0.020784361', '-0.022325873', '-0.0067173005', '-0.06571559', '0.017890032', '0.05734579', '-0.06367392', '-0.016357131', '0.016077833', '-0.029536774', '0.043463193', '0.0071037863', '-0.043053403', '0.015779259', '0.011623003', '0.013342821', '-0.008342899', '-0.018079605', '-0.013392006', '-0.034414686', '-0.028842952', '0.0014815946', '0.04250138', '0.06165643', '-0.0957482', '0.012089977', '-0.00315467', '0.050313026', '0.026330521', '-0.032235693', '-0.040023495', '0.021057712', '0.034605075', '-0.009519501', '0.029348096', '-0.008437807', '0.03003325', '-0.055240523', '-0.05510078', '-0.06851429', '0.042037137', '0.0011790794', '-0.020238504', '-0.05074159', '-0.004468529', '-0.041406516', '0.02264166', '-0.014877169', '0.008390826', '0.0008155717', '0.028342957', '-0.06799604', '0.024782015', '-0.008160965', '0.00018934793', '0.057863753', '-0.009213623', '0.007451536', '0.036340218', '-0.030784443', '0.030510515', '0.056932382', '0.036203433', '-0.008559824', '0.011093977', '0.038408026', '-0.029857945', '-0.047246728', '-0.033993073', '0.049156863', '-0.017478563', '0.033824313', '0.0063974047', '0.002429228', '0.0070675057', '-0.0151501065', '-0.030519014', '0.030341476', '-0.022117075', '-0.0631963', '-0.01084744', '-0.02309741', '0.014580094', '0.009692711', '-0.028790692', '-0.048059188', '-0.032845005', '0.035870757', '-0.009736108', '0.037859507', '-0.011025724', '0.028784657', '0.041583877', '0.0061908797', '0.012518225', '0.01184903', '-0.0069241775', '0.015622484', '-0.028986286', '0.003342846', '-0.014552334', '-0.014605353', '-0.025998138', '0.01014332', '0.03373576', '0.017313767', '-0.002352389', '-0.023950705', '-0.0068153273', '-0.032140974', '0.018875416', '0.0074039833', '-0.0013418542', '-0.04587203', '0.001802198', '0.098955914', '-0.01857148', '-0.023296578', '-0.038785033', '-0.013521623', '-0.016995052', '0.01567559', '-0.03764003', '-0.026323171', '-0.04856834', '-0.027851855', '-0.046455294', '-0.015853329', '0.066923395', '0.012609892', '-0.009938995', '0.056613386', '-0.009043397', '-0.01633053', '-0.00880619', '0.033728067', '0.021171592', '0.0025324346', '-0.026155712', '-0.012255659', '-0.033550363', '0.04160954', '-0.05026269', '0.07864277', '-7.53219e-07', '0.065502256', '0.040410277', '0.040114272', '-0.0031551688']
20, ['-0.023677278', '0.006891163', '0.06031714', '0.056716792', '-0.005150456', '-0.048518017', '-0.003884675', '0.07609114', '0.0057123736', '0.039600153', '0.0067122723', '-0.087870196', '0.040453963', '0.014492518', '-0.026391005', '0.023381865', '0.011261446', '-0.0040948926', '0.066484846', '0.07067591', '0.010366876', '-0.0475529', '0.036885977', '0.044147816', '0.026033234', '0.010072751', '0.085048206', '0.074332885', '0.028379424', '0.0065296157', '0.009867414', '0.025337193', '0.008684107', '-0.037931822', '-0.010274636', '-0.0008325892', '-0.025973605', '-0.027459789', '-0.017819395', '-0.004837496', '0.099881396', '-0.09944645', '-0.012144926', '0.06180663', '0.03136676', '0.005393186', '0.004333479', '-0.03991885', '0.006803166', '0.035107072', '0.0020005512', '-0.00924161', '0.00041773124', '-0.015550053', '-0.014520177', '0.042599592', '-0.08096638', '0.065156154', '-0.024372373', '-0.009886555', '-0.026013141', '-0.013479581', '-0.002633156', '0.065416336', '0.006451405', '-0.014795035', '0.024965744', '-0.04259157', '-0.032636896', '-0.0135560045', '0.034160595', '-0.0076948227', '-0.014949913', '0.05421147', '0.09163144', '0.036752105', '-0.010805928', '-0.0051223575', '0.00068186567', '0.02856911', '-0.009167866', '0.008629957', '-0.011563232', '-0.02386775', '0.029083522', '-0.06046412', '-0.023482045', '0.039013926', '-0.013346237', '-0.020064056', '-0.044894718', '0.016802978', '0.0070183272', '-9.054391e-05', '0.0139063345', '0.046309654', '0.042905875', '-0.00950536', '0.01863439', '0.026444169', '0.060962945', '-0.018498842', '-0.003446418', '0.014850275', '0.06017913', '-0.004957405', '-0.016061584', '0.030391868', '0.05403207', '-0.017224835', '-0.017137349', '-0.02328408', '0.012976419', '0.009162273', '-0.0061254385', '-0.01700668', '0.013370187', '-0.005529195', '-0.070253104', '0.016545469', '0.0051967553', '0.003260039', '-0.03181416', '0.014867763', '-0.002392612', '-0.048986137', '-0.033633348', '-0.053994857', '0.04289643', '0.027106732', '0.07997346', '-0.059031513', '0.0376772', '0.003814742', '0.023419097', '0.006561602', '0.017331375', '-0.020159371', '-0.0015602082', '-0.057772584', '-0.025959382', '0.02238902', '-0.013420643', '0.032307092', '-0.06815822', '0.00566962', '0.0035836636', '0.06550028', '0.014650302', '0.02296474', '-0.016175667', '-0.052408714', '-0.037750006', '0.054914277', '0.01737548', '0.016630378', '0.033668946', '0.014068283', '0.0068848925', '0.011568448', '-0.063690305', '-0.01131229', '-0.020021487', '-0.008085096', '-0.032101996', '0.048435595', '0.012317595', '0.006632099', '-0.025909033', '-0.02726853', '-0.003434013', '-0.020847177', '0.020915616', '0.008227049', '-0.038627062', '-0.004784342', '-0.07170753', '0.04996811', '0.01964833', '-0.011575929', '-0.036150567', '0.01801653', '0.013495878', '0.04992984', '-0.04732139', '0.047060564', '-0.03089313', '-0.05573101', '-0.042386685', '0.039194338', '0.103254154', '-0.010061306', '0.032258723', '0.093318164', '0.014865815', '-0.026459716', '-0.016405374', '0.0073913424', '0.043286476', '-0.0064881705', '-0.053783003', '0.024437103', '-0.024469243', '-0.06468841', '0.046414606', '0.03824336', '0.0013523628', '0.043471195', '0.015403216', '-0.01299276', '0.004036963', '0.02216319', '-0.017960394', '-0.081879154', '0.04925041', '0.0069939056', '0.029415749', '0.03153868', '0.028752008', '0.017600304', '0.011750341', '-0.015924515', '0.018356455', '-0.020650089', '-0.04243563', '0.0094363', '-0.034081284', '0.0047900365', '-0.028923696', '0.0005608396', '-0.0058985036', '0.065459356', '-0.025929185', '-0.04115419', '0.042239472', '-0.020151122', '-0.01937608', '0.00064861536', '0.04404812', '0.029360726', '-0.030289097', '-0.010240339', '0.034365315', '0.028514057', '0.0221225', '0.049362674', '-0.04017497', '-0.04152573', '-0.04076269', '0.02225397', '0.037420407', '0.02236408', '0.04573752', '-0.008031514', '0.011117133', '0.04881221', '-0.010739228', '0.03787524', '0.0006744408', '-0.013200474', '0.08847309', '-0.03092179', '0.037947007', '-0.039473265', '-0.0010333426', '-0.06781924', '-0.047994316', '-0.000588935', '0.034440573', '0.04015243', '-0.029150767', '-0.012969219', '0.097768955', '-0.046927456', '0.002257388', '-0.0015453593', '-0.02624175', '0.016266327', '0.033489197', '0.024389666', '-0.07623093', '-0.0022278642', '-0.034328237', '-0.09564788', '0.03609831', '-0.020139154', '1.01815285e-05', '0.049451288', '-0.058725584', '0.018282142', '-0.03129813', '-0.015950594', '-0.052443262', '-0.03467739', '0.015050396', '0.046890497', '0.0038943596', '0.016989378', '0.018082775', '-0.009555921']
