0, ['0.13225526', '0.0031776018', '-0.002127387', '-0.04956489', '0.11018223', '0.035679962', '0.019182', '-0.19496737', '-0.18358418', '0.036282893', '0.04815431', '-0.087009855', '-0.0681429', '-0.06397809', '-0.052027605', '0.012672034', '-0.06689984', '-0.0028608746', '0.21439663', '-0.042995352', '-0.18610676', '0.03386712', '-0.19784524', '0.13228859', '-0.028867304', '0.1586524', '0.10789148', '0.13544732', '-0.17044908', '-0.010282626', '-0.08065365', '0.034696598', '0.11112649', '-0.00061572355', '0.042012922', '-0.07717341', '0.14198256', '0.05037526', '-0.3319376', '0.10692447', '0.14561693', '-0.029336851', '-0.035229184', '-0.056549214', '0.05601745', '0.005893733', '-0.0845806', '-0.023992265', '-0.120054886', '0.04474764']
1, ['-0.29040158', '0.16717596', '0.026759127', '-0.07745058', '-0.050298203', '0.08354581', '0.06298743', '0.09200643', '-0.0775492', '0.10106349', '-0.060023323', '-0.054409105', '0.13857816', '0.05440586', '-0.08546277', '-0.07475279', '-0.023903634', '0.14490348', '-0.18835014', '-0.028137688', '-0.036706246', '0.12118169', '-0.026521431', '-0.3383473', '0.24469471', '-0.11139117', '0.0095116915', '0.19206244', '0.25472954', '0.24511407', '0.109590076', '0.16229796', '0.06591545', '-0.05134331', '-0.2928604', '0.08018867', '-0.03438873', '-0.06248119', '0.2606769', '-0.0024434116', '-0.008196266', '-0.11017507', '-0.14586341', '0.11007158', '0.0864219', '0.17072685', '-0.06650686', '0.05596666', '-0.03389446', '-0.097417116']
2, ['0.011302258', '-0.030995408', '0.033299275', '0.11727839', '0.2639633', '0.1556443', '0.11624378', '-0.15152833', '0.08743296', '0.105599165', '0.09682391', '0.13296714', '0.12079719', '0.045553844', '0.07446588', '0.078731276', '0.17577356', '-0.21048792', '0.08634929', '0.15845844', '-0.21414936', '-0.34377307', '-0.26352707', '-0.057149295', '0.11899792', '-0.14479826', '-0.30131707', '-0.014145276', '-0.04396477', '0.019524192', '-0.024469225', '-0.10025045', '0.07552675', '0.06086488', '0.037138987', '0.14575143', '0.049340352', '0.0033132702', '-0.09451624', '0.0077300826', '-0.035623625', '0.15673912', '-0.11173136', '0.08966174', '-0.11515605', '-0.025691587', '0.022006778', '-0.00989946', '0.20393483', '-0.2609029']
3, ['0.09961959', '-0.21416767', '-0.058380794', '0.009565558', '0.09995915', '-0.0122051565', '-0.079032116', '-0.21670337', '0.12424692', '-0.17827936', '0.07649121', '0.23069449', '0.09573663', '0.44116405', '-0.18248178', '-0.054030377', '-0.07068155', '0.11539896', '-0.15619157', '-0.01186832', '-0.02459194', '-0.08672139', '0.096330896', '-0.13625221', '0.10945899', '-0.14762646', '-0.11266567', '-0.054551072', '-0.083152', '0.17463832', '-0.048551984', '-0.045172267', '-0.08870114', '0.034323793', '0.18092358', '0.030559741', '-0.06774275', '0.40103462', '-0.14766747', '-0.0042197453', '-0.05508905', '-0.04382212', '0.13144234', '0.07334878', '0.22853866', '0.084470816', '0.13670431', '0.12513176', '-0.008396885', '0.23813075']
4, ['0.038194954', '-0.02946135', '-0.13425077', '0.040494446', '-0.08852241', '-0.03838684', '-0.048755158', '-0.02712999', '0.248027', '-0.14365047', '-0.33790225', '0.19872959', '-0.035428166', '-0.30029255', '-0.06927986', '0.09253724', '0.18123433', '-0.14149758', '-0.2903541', '-0.0361783', '0.15833858', '0.25686964', '0.08610745', '0.09674283', '0.026784826', '-0.03133206', '-0.10279725', '-0.07018352', '-0.14441447', '0.14393401', '-0.09539718', '-0.065223485', '0.048481867', '-0.1116853', '0.29813752', '-0.012263651', '0.02684572', '-0.24253748', '-0.090947405', '-0.19711599', '0.030394025', '0.1316413', '-0.13597365', '0.14110288', '-0.1184407', '0.13280554', '0.046576306', '-0.36502293', '0.13711488', '-0.044269577']
5, ['-0.038831934', '0.024097271', '0.29054555', '-0.19282047', '0.1517802', '0.035993524', '0.092399366', '-0.16610025', '0.062177744', '0.21183643', '-0.11066919', '-0.19133669', '0.3513414', '-0.15947004', '0.23132999', '-0.09139128', '0.055817917', '-0.053433105', '-0.04716151', '-0.124800496', '0.18226121', '-0.101419754', '-0.017428154', '-0.21529296', '-0.038845703', '0.14789596', '0.16976997', '-0.108242124', '-0.13626663', '0.029484645', '0.15697278', '0.2077984', '0.032454666', '0.23815453', '0.15826106', '-0.18250754', '0.20862387', '-0.04834468', '-0.011546602', '-0.14351745', '-0.088616', '-0.11965782', '0.20435648', '0.13316126', '-0.1902092', '-0.15997952', '-0.024612691', '0.22743416', '-0.048942707', '0.0036593347']
6, ['-0.07809878', '0.13522312', '-0.101386085', '0.07331186', '0.025652247', '0.018431019', '-0.18368973', '0.20753533', '0.083663344', '0.008797958', '-0.057462443', '0.00440481', '0.05291515', '0.13553363', '-0.0027844682', '-0.011568217', '0.22676471', '-0.37158963', '0.31088567', '0.029521719', '0.16275997', '-0.15036814', '-0.016074492', '0.048548903', '0.14872473', '0.053596914', '-0.019029073', '0.12438236', '-0.053736653', '-0.20212606', '-0.03071468', '-0.17448498', '0.11273877', '0.058755964', '-0.1380053', '-0.18349294', '-0.1592375', '0.17817084', '0.0018400223', '0.1791375', '-0.00689689', '-0.067850016', '0.015792329', '-0.11916669', '-0.06653388', '-0.18044493', '0.099908546', '-0.033250622', '-0.1919045', '-0.05806878']
7, ['0.0462332', '-0.13093714', '0.0070958002', '0.2423574', '-0.31667668', '0.0833717', '-0.015704729', '0.23527996', '-0.28628215', '0.18988618', '0.02625941', '-0.12997447', '-0.041735634', '-0.05768386', '-0.08550279', '-0.14249463', '-0.062023286', '0.28906226', '0.1161001', '-0.03874064', '0.0016221764', '0.071687475', '-0.011699131', '0.03748277', '-0.078202926', '0.15296295', '-0.24514812', '-0.01060033', '0.1448856', '-0.13284242', '0.12153227', '0.08188257', '-0.13357118', '0.18471032', '0.15707114', '-0.02386828', '0.04768466', '-0.032556795', '0.07337774', '-0.087606736', '-0.11939025', '-0.3503299', '-0.07940275', '-0.1459879', '0.061926026', '-0.22111687', '-0.066157304', '-0.11338202', '0.056002203', '0.17844053']
8, ['0.013501823', '-0.10840845', '-0.016261432', '0.10939667', '0.02774282', '0.029731255', '-0.19124179', '0.059850294', '0.00559094', '-0.15811282', '-0.06486519', '0.22434683', '-0.25138155', '-0.13321842', '0.0020326225', '0.1554417', '0.18202671', '-0.116526216', '-0.017257685', '0.012941695', '-0.03817493', '-0.0012634133', '-0.05856526', '-0.18300258', '0.09833693', '0.09930807', '0.029144594', '-0.017648501', '-0.030680163', '-0.13950719', '-0.115491964', '-0.13852887', '0.22925921', '-0.0766632', '-0.05092835', '-0.1269011', '-0.007823487', '-0.11497944', '0.23334748', '0.13797496', '-0.16868608', '0.09645757', '-0.1464148', '-0.1220432', '0.038351808', '-0.037105653', '0.13197617', '0.16032945', '-0.17408033', '0.36462274']
9, ['0.09569045', '0.13547705', '-0.11799086', '-0.22140421', '-0.12502176', '0.13178328', '0.117610365', '0.08879682', '-0.25580424', '0.026965193', '-0.20293109', '0.17741217', '-0.089125395', '0.119098514', '-0.013885968', '-0.15145959', '0.05385231', '0.014231218', '0.08672186', '-0.066305555', '-0.08686255', '0.09582039', '-0.024411745', '-0.12306627', '0.3364898', '-0.14754838', '-0.22295877', '0.18020229', '-0.17221811', '-0.0945413', '0.059294377', '-0.2775465', '-0.2144355', '0.13697693', '-0.027424643', '-0.10676163', '0.22735323', '0.027371196', '-0.07237511', '0.0048253713', '0.0435562', '-0.010012698', '0.023913546', '0.011139463', '-0.36547086', '-0.12537825', '0.118312545', '0.21121834', '0.14253043', '-0.06282711']
10, ['0.15565051', '0.088682495', '0.019699452', '-0.0006293204', '0.065197095', '0.101520814', '0.15722665', '-0.041716486', '0.11521758', '-0.40075392', '-0.09491831', '-0.009231378', '-0.1236368', '0.08562852', '-0.35749176', '0.31993258', '0.19773452', '0.06132753', '0.19909357', '-0.14987794', '-0.110668816', '-0.061509885', '-0.041510757', '-0.04276242', '-0.083937906', '0.072986506', '0.038895156', '0.35882932', '0.20344885', '-0.05481261', '0.14902434', '0.14279523', '0.053518016', '-0.035586618', '-0.17487052', '0.14659856', '-0.1463645', '0.08140377', '0.040383335', '0.012542885', '-0.0978869', '-0.08424037', '0.012050233', '0.19447123', '-0.2830863', '-0.040677126', '0.121450245', '-0.14838098', '0.00046165823', '-0.18181883']
11, ['-0.10488347', '0.06594579', '0.060197562', '-0.15275808', '0.013473355', '-0.11560311', '-0.29308426', '0.29324424', '0.13707256', '-0.10289237', '0.012397286', '-0.2048083', '0.24342982', '-0.017247649', '-0.13978505', '0.140867', '-0.12104197', '-0.0133284405', '0.17372453', '0.05304111', '-0.026420997', '0.0059829126', '-0.2933118', '0.08905325', '0.050234105', '-0.060439013', '0.21806428', '0.010079467', '-0.17512499', '0.08324102', '-0.11113462', '0.025080297', '0.065142594', '0.019204976', '0.17266583', '0.04744234', '0.031030582', '0.22909991', '0.09938947', '-0.1005303', '-0.055929635', '0.10654589', '-0.15830828', '0.040321223', '-0.046055846', '-0.11403716', '0.104392186', '-0.01113221', '0.063230865', '-0.026126338']
12, ['-0.0035198922', '-0.040303618', '-0.01281963', '0.15833355', '0.2954537', '0.08838344', '0.07570515', '0.07598276', '0.17066763', '0.1314978', '0.16661131', '-0.21430847', '0.058576465', '0.10159702', '0.15671293', '-0.262692', '-0.09484079', '0.049324375', '-0.06963346', '-0.024574064', '0.030416455', '0.04383739', '0.037362162', '0.13763551', '0.14693972', '-0.029832786', '-0.09036771', '-0.19320682', '0.03213168', '-0.06727431', '-0.14435841', '0.20374121', '-0.20717357', '-0.21217601', '-0.2629873', '0.0337988', '-0.023151327', '0.21874925', '-0.07162724', '0.17924687', '0.08990084', '0.10401829', '-0.011752423', '-0.13004993', '-0.052648775', '-0.045269735', '-0.058079004', '-0.1064884', '0.18314745', '-0.057508703']
13, ['0.096169814', '-0.16713776', '0.22079135', '-0.06633632', '0.044857778', '0.120158106', '0.30147827', '-0.37761012', '-0.055749003', '-0.0071742465', '0.017396696', '-0.03712812', '-0.079699874', '-0.1898551', '-0.093221225', '0.07336112', '-0.22588323', '0.36822042', '-0.26156294', '-0.016533382', '-0.20316815', '0.12850319', '-0.063932635', '-0.13175786', '-0.10326274', '-0.0005315536', '0.0291162', '-0.116729684', '-0.10246003', '0.15887955', '0.04874122', '0.24499021', '-0.03481475', '0.010753616', '0.1879018', '0.19096902', '0.3242625', '-0.12148089', '-0.057811808', '-0.19780922', '0.0473823', '0.035875224', '-0.011548277', '0.11407433', '0.037957124', '0.20257431', '0.01059474', '0.077985846', '0.22046812', '0.04032347']
14, ['-0.11747656', '-0.0013122607', '0.01020633', '-0.061545942', '-0.03956612', '0.026801843', '-0.20568384', '-0.12866993', '0.14153309', '0.113763854', '-0.07814782', '0.20881622', '-0.053062037', '-0.045309976', '-0.09992651', '0.014704427', '0.055307627', '0.053327315', '0.20615669', '-0.01907517', '0.1227007', '-0.18660422', '0.095769666', '0.008606912', '-0.21114273', '0.06715041', '-0.14631991', '0.106231526', '0.0895885', '-0.10066345', '-0.13697615', '-0.065901205', '0.13977903', '0.15973017', '-0.031518236', '-0.030566357', '-0.2201855', '-0.007782098', '-0.032792654', '-0.08408503', '-0.018878927', '-0.08316895', '0.0042435224', '-0.18783547', '0.09899538', '0.14115684', '-0.08864526', '0.024361188', '-0.031836648', '-0.05205344']
15, ['-0.25350332', '0.21653406', '0.058075648', '0.29954115', '-0.23231423', '-0.17538038', '0.05458034', '0.0137278065', '-0.16073197', '0.07285113', '-0.04599476', '0.15810172', '0.090878546', '-0.06485817', '-0.045773886', '-0.049168177', '-0.17193751', '-0.2063918', '0.115260996', '0.06081517', '-0.1110204', '-0.116151564', '0.08559733', '0.18402025', '-0.03514616', '0.08963339', '0.14309873', '-0.2232897', '0.008277714', '-0.10418352', '0.18546858', '-0.10644414', '0.08512641', '0.1297712', '0.090514064', '0.064635806', '0.011355845', '-0.0042459927', '0.069086455', '-0.10218337', '0.23680457', '-0.16851623', '0.39324898', '0.26018226', '0.23596628', '0.08869344', '0.16419494', '0.08525286', '0.38909408', '-0.15282792']
16, ['0.10669914', '-0.20834714', '-0.14764333', '0.008841095', '-0.28735563', '0.01942038', '-0.11754063', '0.033350173', '-0.039937705', '0.14114465', '0.13627735', '0.17093787', '-0.1370468', '0.12359602', '0.09385525', '-0.0040408066', '0.012363903', '0.2873475', '-0.10970631', '-0.26227197', '-0.078384645', '-0.08770383', '-0.28726837', '0.10042458', '-0.111506715', '-0.11620995', '-0.018835131', '0.18070811', '0.0765922', '0.06198783', '-0.084201895', '0.11942815', '-0.067416154', '0.20366833', '0.050822288', '0.15162386', '0.007913997', '-0.105443306', '-0.04930204', '-0.078895554', '0.008494652', '0.109414116', '-0.22022909', '0.09638292', '0.3326783', '-0.055618927', '0.03802679', '0.17965834', '0.017686073', '-0.114612386']
17, ['0.004668547', '-0.012159098', '-0.06877225', '0.013341554', '-0.19596063', '0.023872634', '0.1809436', '-0.06503339', '-0.10392257', '0.024226427', '-0.13865623', '-0.0017113484', '-0.058573563', '0.12504008', '-0.1442388', '-0.13464381', '-0.0110008875', '0.02110355', '0.08208953', '0.078140415', '0.043444563', '0.15360224', '0.051329266', '-0.050808027', '-0.12322392', '0.29074594', '0.21292391', '-0.03869959', '-0.10130428', '-0.02951808', '-0.27261943', '0.12803777', '-0.07919103', '0.1321295', '-0.08398461', '-0.0003568734', '-0.026803147', '0.08807528', '0.08112434', '0.028225733', '0.09868374', '-0.056990247', '0.051956605', '-0.02973708', '0.06448954', '0.054466873', '0.031187382', '-0.04765714', '-0.041812543', '0.051498823']
18, ['-0.08006079', '0.17381856', '-0.019077156', '-0.2700484', '0.29260662', '-0.10485076', '0.11805355', '-0.32775638', '0.27651864', '-0.10036911', '-0.090846695', '0.18053171', '0.012880014', '0.12122077', '0.030306349', '0.050193783', '0.11029809', '-0.32688037', '-0.058265205', '0.031588692', '-0.012957443', '-0.041960865', '-0.048963428', '-0.0845869', '0.081483826', '-0.04267559', '0.29228377', '0.054625772', '-0.24824938', '0.18480466', '-0.1631702', '-0.06867397', '0.15841505', '-0.09555466', '-0.20401654', '-0.06956969', '0.020538097', '0.106731534', '-0.085987024', '0.105714425', '0.15384889', '0.26001546', '0.074164174', '0.13722298', '0.028875811', '0.27905574', '0.08426906', '0.09082834', '-0.107368775', '-0.1566376']
19, ['0.18664809', '-0.05415727', '0.12620342', '0.08532317', '0.18507737', '-0.20018186', '-0.032575864', '-0.08037689', '-0.26842818', '-0.009713817', '-0.18105239', '-0.051181152', '-0.22329769', '0.020446392', '-0.053819936', '-0.36163086', '-0.10054111', '0.02408586', '-0.24847513', '0.042861894', '0.17775562', '-0.16203104', '-0.2718435', '-0.2779294', '-0.22929433', '-0.15282553', '0.018632552', '0.0020439934', '-0.12994851', '-0.114387244', '0.15379062', '-0.095444806', '0.19218989', '-0.020483416', '-0.19716918', '-0.1459572', '-0.09772507', '0.16897638', '0.07080121', '-0.22312921', '0.036697872', '-0.1217422', '0.12273652', '-0.19224618', '0.0980318', '-0.08496398', '-0.07653883', '-0.11617063', '0.0665359', '0.12872152']
20, ['-0.021189334', '-0.12109724', '0.063418135', '-0.10440552', '-0.062043797', '0.04175918', '0.07352958', '0.039924614', '0.07214116', '0.07739736', '0.137458', '-0.0037854023', '0.0652387', '0.04800793', '-0.024879938', '-0.008745114', '0.14635271', '0.23600775', '0.10032076', '0.04937847', '-0.119400226', '-0.11697038', '0.05883627', '0.29300806', '0.027293663', '0.13854343', '-0.026101576', '0.06205108', '0.13434333', '0.2023393', '0.10070984', '-0.028126145', '0.05053931', '0.033857197', '-0.0378858', '-0.08172316', '0.11978964', '0.1321154', '-0.008442122', '-0.104055084', '-0.009222467', '-0.15550072', '-0.07905009', '0.0067267767', '-0.2879249', '0.05916149', '-0.16948305', '-0.020388711', '0.1634428', '0.2199676']
21, ['-0.084564075', '0.10300099', '-0.20439166', '0.11668064', '-0.1930943', '-0.134777', '-0.18910533', '0.20138207', '-0.050970335', '0.124078214', '-0.10127201', '0.10510769', '0.16174035', '0.07753703', '-0.08627438', '-0.21696444', '0.082576826', '-0.064866945', '0.1007958', '-0.019403119', '-0.12938936', '-0.03884184', '0.046437927', '0.07112354', '0.0719696', '0.08177136', '-0.10622322', '0.07330276', '0.2699262', '-0.03364292', '-0.010791207', '-0.15986286', '-0.028377168', '0.03401763', '-0.055025674', '-0.016889045', '-0.28667617', '0.11727696', '0.13367973', '0.13391158', '-0.072806366', '0.015808998', '0.0027618164', '0.064438365', '0.020794159', '-0.085160814', '-0.032450248', '-0.1820597', '0.0756039', '-0.016132722']
22, ['-0.14067847', '0.015371389', '0.16527742', '0.08839917', '-0.03600493', '-0.0574329', '0.04788812', '-0.009462195', '0.10694754', '-0.04748423', '0.102286234', '-0.28383312', '-0.030341435', '0.070731215', '-0.115326695', '0.27530512', '0.008712429', '-0.1155274', '0.091167614', '-0.09101181', '-0.032846127', '0.17825781', '-0.007912199', '-0.13743046', '-0.020191459', '0.09845667', '-0.20828784', '0.031647164', '0.102027446', '0.050601006', '-0.2134169', '-0.23178096', '-0.34261176', '-0.10467279', '0.22569291', '-0.1153347', '0.22864868', '-0.06404622', '-0.068146095', '0.16825567', '-0.112348594', '-0.18873695', '0.11144585', '-0.15607148', '0.33556855', '0.11017752', '-0.025705684', '0.04162039', '0.0008075314', '-0.20394734']
23, ['0.08458818', '0.04596492', '0.023198383', '0.12727463', '0.01937449', '0.20329732', '0.2387964', '0.066718645', '-0.09336406', '0.08603797', '0.056724798', '0.0945222', '0.011967472', '-0.028672585', '-0.030322134', '0.13991256', '-0.34722567', '0.09782026', '0.27451974', '0.2084418', '0.06970307', '0.036467317', '0.13660528', '-0.11271342', '0.086345054', '-0.037286103', '-0.20239724', '-0.14803776', '-0.23935865', '-0.16970718', '0.045380626', '0.13459064', '0.098904364', '-0.094154395', '0.056896165', '0.16729155', '-0.11053412', '0.06836033', '0.00032463114', '-0.22175623', '-0.13341893', '-0.0669053', '-0.34159055', '0.01833589', '0.0910618', '0.004688137', '0.2241929', '0.019878572', '-0.22341253', '-0.1844132']
24, ['-0.057799134', '-0.24187724', '-0.49162596', '-0.109506294', '0.094164446', '0.031960387', '0.014164075', '0.098906964', '0.12012076', '-0.065164424', '-0.18512279', '-0.19760744', '0.05259154', '-0.17157273', '0.104549326', '-0.18985458', '-0.058301594', '-0.17035131', '-0.13651258', '-0.059315264', '0.057110872', '-0.07550531', '-0.1387946', '0.008700734', '-0.15365377', '-0.0323054', '-0.17500988', '0.014646031', '0.12506005', '-0.10185019', '-0.08026872', '0.16925456', '-0.027788458', '0.10594875', '0.057443853', '0.05537474', '0.09844549', '0.005624101', '-0.1839727', '0.041974936', '-0.082357496', '-0.051681', '-0.08067217', '0.17709932', '0.03316516', '-0.025383398', '-0.017871808', '0.12815039', '-0.011447592', '-0.015666872']
25, ['-0.03742167', '-0.08901015', '-0.008558592', '-0.09773233', '0.064386904', '-0.034038853', '0.022708034', '0.13438366', '-0.057971496', '0.10073208', '0.04597683', '0.019137675', '-0.034708295', '0.018664371', '0.122637', '-0.06366317', '-0.038057912', '0.18502177', '-0.096915275', '0.17233022', '-0.16093026', '0.09405783', '0.0079763215', '0.0941107', '-0.01482438', '-0.20139866', '-0.158724', '0.018693127', '0.10267845', '0.17037179', '-0.2921091', '-0.18633871', '-0.0022906847', '-0.0758498', '0.03814547', '0.03509732', '-0.058170736', '-0.07454715', '-0.016057184', '-0.08842319', '-0.13841332', '0.02764428', '0.008944442', '0.013162176', '0.07288947', '-0.04871845', '-0.22931322', '-0.24865761', '0.12236438', '-0.0780861']
26, ['-0.11600758', '0.21284814', '0.11012554', '0.01448714', '0.19505395', '-0.045635387', '0.26274404', '-0.07952089', '-0.03550275', '-0.047438975', '-0.04832521', '-0.13163306', '0.09935528', '-0.047122426', '-0.09201181', '-0.067037076', '-0.067996226', '-0.10697862', '0.055568382', '0.3188963', '0.0051879287', '0.13668303', '0.22642988', '-0.09339052', '0.08290708', '0.17277318', '0.06867458', '-0.21492416', '-0.035696946', '0.05696117', '-0.02255932', '-0.09974545', '-0.017203819', '-0.18972372', '-0.06229175', '-0.16282488', '0.011327517', '0.13607901', '0.09872438', '0.09910351', '-0.065546', '-0.15116324', '0.23855807', '-0.10368955', '-0.26236135', '0.06407823', '-0.09397494', '-0.2986211', '0.041518133', '0.14353606']
27, ['-0.14915198', '-0.009918876', '0.07801025', '0.2750333', '-0.23750852', '-0.059266265', '-0.15485992', '-0.32670563', '0.19089441', '0.004058414', '-0.050259646', '-0.047738213', '-0.123837106', '0.101737395', '-0.018797573', '0.0014406897', '-0.1868546', '0.06106571', '0.16020039', '0.04229347', '0.032064434', '0.2166885', '-0.039306555', '0.23374256', '0.045816388', '0.03245926', '0.05600159', '0.036245935', '0.035160735', '-0.023546394', '0.026094204', '0.09309005', '-0.103962205', '-0.055898935', '-0.12291246', '0.09375494', '-0.10463695', '-0.14674641', '-0.25470117', '0.003151024', '0.1152517', '0.12394682', '-0.117050044', '0.0046900096', '-0.15308838', '0.017106378', '0.04905066', '-0.020776162', '0.05507291', '-0.05145943']
28, ['-0.06217185', '0.04996623', '-0.015571985', '-0.20676439', '-0.37721354', '-0.10253017', '-0.06301895', '-0.04041858', '-0.1796564', '-0.1017357', '-0.19940373', '0.23950501', '-0.10487404', '-0.07895657', '-0.21923698', '0.25134796', '0.119642965', '-0.014833537', '0.09888454', '0.088610314', '-0.12786904', '-0.05531948', '-0.14614247', '-0.15024959', '-0.16092543', '0.019440003', '0.061566442', '0.17818703', '-0.063622184', '0.08800407', '0.020373642', '-0.24077097', '0.20326725', '0.24993598', '0.2944009', '0.0143955685', '0.019202491', '-0.20369372', '0.10680778', '-0.20655935', '-0.1755145', '-0.075601034', '0.030324768', '0.11995169', '0.025348106', '0.0028120817', '0.10009834', '0.058890082', '-0.08959194', '0.012019492']
29, ['0.017936239', '-0.04102473', '-0.15060541', '0.008810115', '-0.059316132', '-0.30439106', '0.26489708', '0.27967066', '0.031967063', '0.02622193', '0.16474229', '0.022990176', '-0.16961338', '0.07149427', '-0.22234264', '-0.20720036', '-0.062327594', '-0.021760114', '-0.16434969', '-0.19799532', '-0.028973566', '0.23231494', '0.047666192', '0.031976137', '-0.1888248', '0.11350531', '-0.18880714', '-0.07937214', '-0.027812175', '0.2493385', '0.12383729', '0.012524507', '0.051136855', '-0.027634399', '0.16463546', '0.030526442', '-0.04654165', '-0.040763352', '0.06323234', '0.17766981', '0.17488328', '0.22655833', '0.12836793', '-0.24527133', '-0.12619707', '0.07720372', '0.043714363', '-0.066371284', '-0.17525938', '0.14039901']
30, ['0.2218054', '0.045384448', '-0.029008836', '0.1549089', '-0.087101296', '-0.08692917', '-0.045106526', '0.09582621', '-0.037241966', '0.023377279', '0.28631392', '0.26880124', '-0.01587608', '-0.039701223', '0.2928102', '0.18222018', '0.24016407', '0.037207898', '-0.30111408', '0.014659914', '-0.04993991', '-0.053857468', '-0.028688984', '-0.015931154', '0.2341257', '0.12467177', '0.19057272', '-0.19464183', '-0.059828363', '0.0046765856', '-0.18301225', '0.08830398', '-0.10044798', '-0.10697939', '-0.06324364', '-0.027786236', '0.09191488', '-0.073122516', '0.02100104', '0.11547243', '-0.09594231', '-0.024294294', '0.0045615793', '0.06113238', '0.011816151', '-0.16542825', '0.0046098735', '-0.118879825', '-0.024950787', '-0.027200198']
31, ['-0.058412224', '-0.09958955', '0.08607922', '-0.039628778', '-0.040151924', '0.08864406', '0.15192379', '0.023600733', '-0.27495316', '0.14365205', '0.20952426', '-0.16945998', '0.16623065', '0.19464983', '0.014497069', '-0.020378564', '0.06635321', '0.16937117', '0.18146554', '0.072888575', '-0.007506298', '-0.27408156', '-0.12327843', '-0.13254909', '0.010803231', '-0.0029450192', '0.037033595', '-0.0036168923', '-0.0009591109', '-0.056069892', '-0.06631604', '-0.0014471974', '-0.09412051', '0.08270215', '-0.14161126', '0.005190471', '-0.017548213', '0.25377136', '0.11916013', '0.13966699', '-0.1120961', '-0.06469011', '0.13033758', '-0.17636545', '0.10693254', '-0.11160246', '-0.06570082', '0.2622936', '-0.07352079', '0.05542044']
32, ['0.12721619', '0.13946348', '0.049672082', '0.020490535', '-0.11672058', '-0.2280399', '0.06137929', '0.0059150676', '0.08463684', '0.10245257', '-0.110532455', '0.017252257', '0.013017855', '-0.228512', '0.4002918', '0.05791629', '-0.14197402', '0.037785843', '0.067509405', '0.08985353', '0.09125455', '-0.005247971', '-0.09960274', '-0.07764978', '0.121006794', '0.028541513', '0.04474697', '-0.15343516', '0.28938055', '0.23418047', '-0.12871769', '-0.069809765', '-0.10686499', '0.30573204', '0.06324104', '0.20919299', '-0.0998917', '0.1887385', '-0.04598064', '0.074938126', '0.1786506', '0.103475586', '0.14744401', '-0.011394906', '-0.01603791', '0.027625745', '0.20588847', '-0.103300065', '-0.14540742', '-0.08345319']
33, ['-0.21694043', '-0.06175504', '0.041534334', '-0.041543484', '-0.014940514', '0.0024829837', '0.067193985', '0.07527442', '0.12071251', '-0.15591872', '-0.35331035', '-0.32455572', '0.1737133', '-0.15462904', '-0.24017313', '-0.064595', '-0.009610127', '0.021634804', '0.20969833', '0.05717619', '0.068370886', '-0.0635993', '0.09742737', '0.16768044', '-0.18207343', '-0.11738379', '-0.14160049', '-0.013235244', '-0.09792898', '-0.028582262', '0.047350783', '-0.24602573', '0.057506546', '-0.0056523774', '0.22992817', '-0.084575556', '-0.16093406', '-0.008122573', '0.1012754', '0.008163409', '-0.071947664', '0.06372822', '0.055784293', '-0.12836745', '-0.23657191', '0.28836215', '0.05734872', '0.05649165', '-0.03410395', '0.12404232']
34, ['0.15077269', '-0.098514825', '-0.027104277', '-0.030879099', '0.029808402', '0.058835737', '-0.21843709', '-0.06408941', '0.023615737', '0.10696427', '0.052790407', '-0.031497817', '0.03954443', '0.0926599', '0.038908757', '0.1915852', '-0.0044502113', '0.15198803', '-0.047078263', '-0.01912619', '0.09374073', '0.22638607', '0.12844943', '0.038656503', '0.0544531', '-0.029396478', '0.0011979877', '0.17416073', '0.10087319', '-0.112682946', '-0.17773552', '0.1105661', '-0.106699124', '0.10566194', '0.036652632', '-0.12224648', '-0.19421072', '0.032693762', '-0.10022944', '0.0270589', '-0.009175095', '0.13006555', '-0.091505624', '-0.20338964', '-0.25997782', '-0.04460972', '0.06517066', '-0.07091699', '-0.2136615', '0.06663534']
35, ['-0.23117118', '0.19530693', '0.281628', '-0.0027741955', '-0.1742516', '-0.012212048', '-0.11574295', '-0.105937034', '-0.15891922', '-0.06608566', '0.03808461', '0.1658662', '-0.058410842', '-0.1414603', '-0.16380723', '0.013281869', '-0.17743704', '-0.07045612', '-0.041789282', '-0.3033128', '0.1731846', '-0.366527', '0.047714446', '-0.021855043', '0.072188035', '-0.05560819', '0.0034286568', '-0.111828126', '-0.037349697', '0.02127675', '-0.12468545', '0.16348925', '-0.1316941', '-0.073817626', '0.043774508', '-0.06602871', '0.09938724', '0.09205423', '-0.059740704', '0.24131507', '0.20748048', '0.04826953', '-0.36301255', '-0.0050208275', '-0.030383466', '-0.1485359', '0.08429009', '-0.105526105', '0.2792738', '-0.022661837']
36, ['-0.25673723', '-0.0070784367', '-0.108818', '-0.07602504', '-0.02116981', '-0.11161445', '-0.015999362', '0.14830025', '-0.014357996', '-0.109864555', '0.38110948', '0.049130723', '0.21848826', '0.1199042', '-0.015824953', '-0.025932817', '-0.04457972', '-0.008190344', '-0.07437185', '0.08292789', '-0.14592579', '-0.029263986', '0.028135685', '0.15091681', '-0.20593715', '-0.036145844', '-0.03660908', '-0.15825808', '-0.12956841', '0.082089186', '-0.03479184', '0.048618093', '-0.017215563', '0.04255797', '-0.18592182', '-0.04798712', '-0.14626917', '-0.45066106', '-0.027064823', '0.018960306', '0.14377172', '-0.0802564', '0.14960693', '0.008663928', '-0.120501', '-0.11806164', '0.014032552', '0.2911859', '-0.20970072', '-0.12450983']
37, ['0.13879746', '0.07222294', '-0.18261434', '0.14838284', '0.109714866', '-0.088576235', '-0.07207377', '0.0389924', '-0.04188971', '0.4089091', '-0.04185351', '0.079580896', '0.00810078', '0.21908884', '0.086696476', '0.10132513', '0.1658393', '-0.109700635', '0.13973688', '-0.052126143', '0.1965079', '0.2185429', '-0.09557092', '-0.06045964', '-0.07650424', '0.19901568', '0.25678033', '0.07377785', '-0.08447794', '0.18441863', '-0.049497716', '-0.04629899', '0.04845067', '-0.14331749', '0.07571813', '0.09517973', '0.12680152', '0.091716744', '0.16555527', '0.017418928', '-0.07730672', '0.007580587', '-0.10602878', '0.09642321', '0.09341658', '0.08252674', '-0.20944396', '0.17707455', '0.3710207', '-0.023065448']
38, ['0.18362284', '0.10177151', '-0.026908586', '0.04493755', '-0.13065788', '0.1411431', '-0.052666735', '-0.18118955', '0.14205003', '0.11733704', '-0.107890844', '-0.13196388', '0.27385566', '0.106065154', '0.02479045', '-0.06717571', '-0.0668954', '0.08882552', '-0.14162682', '0.15054224', '-0.15248576', '-0.13908449', '0.008928839', '0.1902391', '0.17243278', '-0.021473462', '0.25323862', '0.0043676104', '-0.049317285', '-0.09398973', '-0.018191066', '-0.22826986', '-0.03482914', '-0.079844736', '-0.16019629', '-0.124233365', '-0.04127968', '-0.27822974', '-0.16414373', '-0.08170324', '-0.14739908', '-0.2278171', '-0.049733143', '0.16129553', '0.29278454', '-0.16793658', '0.26968914', '-0.18596508', '0.043594185', '-0.00047888616']
39, ['0.030593185', '0.11940868', '0.07556256', '0.12956369', '0.01598033', '-0.11514814', '0.004278711', '0.31191295', '-0.0553543', '-0.0656198', '0.0015832123', '-0.14133537', '0.0658036', '-0.077031806', '-0.01635791', '-0.024075165', '0.18517071', '-0.046268743', '-0.15215869', '-0.0010612886', '-0.34462288', '-0.058999732', '-0.14805453', '-0.043648306', '0.12026756', '0.04591963', '-0.0291357', '-0.16572475', '-0.061689604', '0.00877938', '-0.109213464', '-0.06434728', '0.11532304', '0.0065355394', '0.12515894', '0.085319646', '0.11057403', '0.11388294', '0.1857303', '0.097632185', '0.069428466', '-0.041979708', '0.025150867', '0.20422558', '0.090013154', '-0.09253368', '0.0933409', '0.1176668', '0.0002483298', '0.058855608']
40, ['0.25425306', '-0.017485175', '-0.14427781', '-0.36808696', '0.010226359', '-0.056605', '0.23391886', '0.1817481', '-0.2118183', '0.015801491', '0.11354453', '0.19659767', '0.15073457', '-0.14164782', '-0.06364684', '-0.024178661', '0.04348676', '0.0272762', '0.035340242', '0.0111723915', '0.12665053', '-0.11973766', '0.021861034', '-0.05140586', '-0.054378886', '0.05469485', '-0.09453124', '-0.08731041', '-0.16862728', '0.14549786', '-0.15629844', '-0.21703061', '0.11061971', '-0.14198813', '-0.08800778', '0.049112182', '0.09437585', '0.007978113', '-0.05046519', '0.021835895', '0.081821606', '-0.075604685', '0.09985911', '-0.041164715', '0.051339444', '-0.115315385', '-0.24215825', '-0.23185562', '-0.037626103', '-0.08042091']
41, ['-0.17669874', '0.20922954', '-0.19608709', '0.00413486', '0.09014709', '0.12219069', '-0.10146397', '-0.13519628', '-0.2388546', '0.035363637', '-0.073680095', '-0.083234034', '-0.2448756', '-0.09209343', '0.2893176', '0.06315941', '0.2235174', '-0.0025644863', '-0.13191614', '-0.031725604', '-0.208293', '0.10422609', '0.20146574', '0.111589305', '-0.0060944576', '-0.42366585', '0.030391796', '-0.01126635', '-0.24013662', '-0.19069855', '0.511945', '0.080425106', '-0.22478332', '0.028681716', '0.016025318', '-0.066334024', '0.17785943', '0.35160643', '0.047550514', '-0.12007625', '-0.007691454', '0.20919779', '-0.11347958', '-0.02255404', '0.09796072', '0.17328334', '-0.10833813', '-0.13922289', '-0.09704566', '0.12591602']
42, ['-0.15154834', '-0.060988348', '-0.08466803', '-0.012921819', '0.04755526', '0.03292473', '0.079458475', '-0.0013994032', '-0.24926406', '0.16380212', '-0.098130465', '-0.07177002', '0.008309045', '-0.069536775', '-0.10780245', '0.019509288', '0.011950546', '-0.09720375', '0.031706803', '-0.00065329066', '0.05028982', '0.050058473', '-0.19964147', '-0.07537835', '0.1569136', '0.09768384', '0.0120313205', '-0.064000584', '0.20024511', '0.19774659', '-0.16919063', '-0.07120053', '0.013552478', '-0.12076149', '0.03394948', '-0.12744965', '-0.20006076', '-0.10462395', '-0.3045326', '-0.06356114', '-0.124858335', '-0.072350755', '-0.004679871', '0.019756276', '-0.106353946', '0.04577096', '0.09578548', '0.16024975', '-0.028379338', '-0.043315668']
43, ['0.012533189', '-0.16825533', '0.12447402', '0.1695224', '-0.17658046', '0.0124375345', '-0.075306244', '-0.07400322', '0.26129514', '0.11276266', '0.07285876', '-0.022106484', '0.10335117', '-0.10072263', '0.0022081544', '-0.02245565', '-0.051571336', '-0.045391317', '0.052784726', '0.04975862', '0.09946071', '0.24382253', '0.035166204', '-0.017746974', '0.16662173', '0.08007003', '-0.0844165', '0.11004632', '-0.06355369', '-0.009372342', '-0.090839826', '-0.08797091', '0.20755304', '0.012884896', '-0.1545317', '0.016841825', '-0.0018881954', '-0.08562696', '-0.06856657', '-0.13863546', '0.27763984', '0.083727375', '0.11117179', '0.012700406', '-0.26198375', '-0.2793558', '-0.10449227', '0.23463164', '0.21997182', '-0.050213583']
44, ['-0.007883469', '0.37792602', '0.04556678', '-0.03422751', '-0.20474575', '-0.32381475', '0.006872617', '-0.36720958', '-0.011734795', '0.27169648', '-0.1975777', '-0.13817602', '-0.24949922', '-0.046710286', '-0.0041924343', '0.25700462', '0.25105405', '-0.23884909', '0.034298364', '0.37555593', '-0.34246004', '0.06339975', '0.36566943', '0.1181439', '-0.40980995', '-0.3703809', '-0.18504323', '0.07529017', '-0.05199865', '0.0024556913', '-0.072314836', '0.19693026', '-0.3240819', '0.3684', '0.13499235', '-0.27838278', '-0.032566123', '0.13173118', '0.02274161', '0.19385381', '0.056515086', '0.38867983', '-0.017721912', '0.11804587', '0.31778446', '-0.117545', '-0.098657645', '-0.054717116', '-0.057607118', '0.09665557']
45, ['0.17359316', '-0.13910808', '-0.11168427', '0.09406857', '-0.03807685', '0.14108609', '0.25281584', '0.095270544', '-0.11166615', '-0.06040991', '-0.033522487', '-0.12322677', '-0.009800595', '0.23229402', '-0.17294222', '-0.0889465', '-0.16148588', '-0.1632968', '-0.17029487', '-0.2346514', '0.013942696', '0.1544537', '-0.10668847', '0.01100898', '0.32036906', '0.14832841', '0.24147688', '0.013199077', '0.019975407', '-0.021669133', '0.31756848', '-0.14304009', '-0.056318495', '0.035919238', '0.023878295', '0.08196089', '0.19135645', '0.025181774', '-0.061373692', '0.13669786', '0.17339554', '0.12769933', '-0.050686814', '0.18362683', '-0.21794437', '-0.02573251', '0.46612653', '0.05013045', '-0.07301915', '-0.0427725']
46, ['-0.12804511', '-0.20609444', '0.07186146', '0.21131076', '0.16841824', '-0.045698922', '-0.07846118', '-0.07795494', '0.22885187', '-0.035360955', '0.16434002', '-0.102885514', '0.011425959', '-0.20901662', '-0.09766943', '0.15896463', '-0.06943062', '-0.06062421', '0.021776207', '0.08408953', '0.06505488', '-0.07931517', '-0.06559116', '0.10508269', '-0.21943487', '0.26149946', '0.15995313', '-0.15592289', '0.1900126', '0.07395284', '-0.17863487', '0.18361633', '0.36816838', '-0.1466558', '-0.041230768', '0.12737359', '-0.2401227', '-0.0065880883', '0.07160493', '-0.030926155', '-0.010465218', '-0.015994353', '-0.010699189', '-0.037697084', '0.22775166', '0.16487071', '-0.05080916', '-0.13445261', '-0.0068605724', '0.057500094']
47, ['-0.05250088', '-0.21294777', '0.026440578', '-0.05406811', '0.08830678', '0.18406372', '0.031423043', '0.1267918', '-0.04228283', '-0.19410686', '0.0073993346', '0.04317495', '-0.10072344', '0.124178685', '0.041929416', '-0.19097407', '-0.14459719', '0.06108467', '0.0874531', '0.015692618', '0.047951553', '-0.026793862', '-0.11098763', '0.08128491', '0.124885194', '0.22897577', '0.07885222', '-0.006736557', '-0.050722435', '-0.08258599', '-0.32351077', '-0.14812745', '0.12273168', '0.06285607', '-0.037125137', '0.20374687', '0.13920993', '-0.0592569', '0.14552476', '-0.0018079', '-0.028831916', '-0.1584169', '0.011564901', '-0.025923515', '-0.21495283', '0.1377737', '0.026831351', '-0.01876555', '0.1508179', '-0.17117895']
48, ['0.15585597', '0.008998113', '0.31774744', '0.15932037', '0.030416997', '-0.07653962', '0.034138106', '-0.23722042', '0.090654165', '-0.14798087', '0.2013797', '0.25483063', '-0.19400093', '0.07323287', '-0.054318458', '0.25037327', '-0.06252103', '0.22302027', '0.10246428', '-0.14506912', '0.24150117', '-0.11967419', '-0.20856668', '-0.031780414', '-0.069074705', '0.02322867', '0.15040177', '-0.09846408', '-0.16398665', '0.011935969', '0.21055458', '0.06843609', '-0.089767255', '0.14636692', '-0.006356623', '-0.2105417', '0.035269722', '-0.1082934', '0.018145893', '-0.08681368', '0.051943257', '-0.18503185', '0.08132491', '-0.06262382', '-0.09828581', '0.16186151', '0.05692587', '0.25011358', '-0.04241352', '0.11980061']
49, ['0.23609647', '-0.095240325', '-0.21285906', '0.09886882', '0.10433431', '-0.04257643', '0.12004323', '0.11882544', '0.21362048', '0.04324913', '-0.05641977', '-0.15965424', '0.14580251', '0.09189052', '0.15001434', '-0.0377748', '0.24253005', '0.15755175', '0.0088101225', '0.26013753', '-0.20000462', '0.25475228', '-0.1874405', '0.070743784', '-0.026511943', '0.10852474', '0.05541215', '-0.025640829', '0.0416779', '0.046822175', '-0.028788129', '-0.2110135', '0.04816234', '0.12702964', '-0.023699043', '0.06609607', '-0.14345193', '-0.07945279', '-0.024733035', '-0.1639948', '-0.17166428', '-0.020959422', '0.2960176', '0.08226883', '0.010669461', '0.114537016', '0.025593534', '0.07762174', '-0.29173797', '0.029289462']
50, ['0.07020536', '0.027213505', '0.2657846', '-0.027081966', '0.11952719', '-0.26089934', '-0.106425844', '0.04502584', '-0.10566038', '-0.1805921', '-0.1692905', '0.06697808', '0.036809266', '0.13538165', '0.3390906', '0.12224786', '-0.20701948', '-0.0801049', '0.037861735', '-0.15002032', '0.2847997', '-0.06738611', '0.06382399', '0.3649825', '0.094566934', '-0.018137574', '-0.23289637', '0.063597895', '0.14785968', '-0.044169497', '0.059502438', '-0.029666323', '-0.052394908', '-0.100327164', '-0.20352681', '-0.06832981', '0.109059334', '-0.21577215', '0.22880937', '-0.015832659', '0.15723719', '0.056169424', '-0.06955046', '0.14440604', '0.012081247', '0.24500674', '0.10688619', '0.12318601', '0.17526813', '0.18040106']
51, ['0.008502071', '0.021746075', '-0.051656585', '-0.22452477', '0.13432653', '0.3035438', '-0.026038902', '-0.080884665', '-0.093881615', '-0.1438592', '0.02776217', '0.09124877', '0.006620733', '-0.17708696', '-0.093975745', '-0.098715276', '0.14377598', '-0.07262193', '-0.024431577', '0.043023806', '-0.010569533', '0.059993166', '0.14485581', '0.043643348', '0.24332578', '0.24770817', '0.045519967', '-0.09218902', '0.012199626', '0.20959228', '-0.016204104', '0.10721879', '0.04534497', '0.31014273', '0.105795875', '0.005044512', '-0.12535763', '-0.00041586751', '-0.0034120614', '0.14098468', '0.018107051', '0.049477644', '-0.13107619', '-0.17104007', '0.24687128', '-0.21165171', '0.07580123', '0.028697018', '0.2672809', '-0.033235323']
52, ['-0.22947359', '-0.2106549', '0.014684047', '-0.23853485', '-0.13668087', '-0.032934126', '0.009657121', '-0.22847775', '0.14493918', '0.14172104', '0.11374127', '0.10050366', '-0.111254774', '-0.15342122', '-0.08660349', '-0.07383497', '0.0023831832', '0.12587513', '0.07965594', '-0.055488788', '0.099216715', '0.023654798', '-0.23570128', '0.0063851625', '0.07005928', '-0.047150366', '0.045478016', '-0.117262684', '0.07995508', '-0.20981562', '-0.007058581', '-0.12602584', '-0.020711124', '-0.12172494', '-0.09207916', '0.01029755', '0.16732712', '0.021036338', '0.10555342', '0.29363236', '-0.0012866396', '-0.021106478', '-0.03604337', '0.19975269', '-0.04611935', '-0.05517246', '0.092280515', '-0.122566685', '-0.051449396', '0.08034039']
53, ['-0.15705216', '0.22510698', '0.049062572', '0.19761541', '-0.03823087', '-0.13188282', '0.060846265', '0.056346286', '0.011099582', '0.0327698', '-0.05800784', '0.02038793', '-0.037680417', '0.048097424', '-0.038716454', '-0.16096288', '0.26193964', '0.2431819', '-0.11276057', '-0.13993342', '0.008603835', '-0.1265891', '-0.16709106', '0.086646914', '-0.058910865', '0.14527263', '-0.090102345', '-0.20822422', '-0.10191648', '0.09249485', '-0.17788239', '0.07697779', '-0.0794373', '-0.09772329', '0.14869437', '0.064306736', '-0.10713618', '0.13373557', '-0.31128082', '-0.13793376', '-0.071733855', '-0.11701912', '-0.036590952', '0.19190098', '-0.19990176', '-0.04214974', '0.0019131689', '-0.032348346', '-0.005577148', '-0.10217519']
54, ['-0.05160673', '0.16870518', '-0.10485003', '0.17577244', '0.027498461', '-0.085461065', '0.05194313', '-0.09783849', '-0.24876449', '-0.17428543', '-0.14214818', '0.1215735', '-0.021287752', '-0.028310223', '0.008098556', '-0.06431144', '-0.12518303', '-0.011907298', '-0.054855872', '-0.11548496', '0.108647555', '-0.002539942', '-0.15000287', '-0.3220847', '-0.09544916', '-0.020565653', '-0.019751715', '-0.004075813', '-0.06436895', '-0.2150821', '-0.2358856', '-0.042111684', '-0.027396264', '-0.14743368', '-0.11472528', '0.20309691', '-0.080469646', '0.055142645', '-0.032088965', '0.14332305', '0.01011965', '0.112081334', '0.031503607', '0.12138802', '0.3279966', '-0.010593837', '0.0129249515', '-0.11794045', '-0.11623378', '-0.21036774']
55, ['0.08827295', '-0.037347883', '0.11798688', '0.08292019', '-0.25778243', '-0.00752058', '0.21265821', '0.2588872', '0.1809397', '0.16052385', '-0.074929744', '0.10686813', '0.11756964', '-0.018707057', '-0.08256791', '-0.12700595', '-0.12214577', '-0.23875955', '0.07614526', '-0.084034465', '-0.28063214', '-0.24245596', '0.07724129', '-0.18414631', '-0.048535775', '0.014946461', '0.21575665', '0.06196515', '0.08048197', '-0.008624294', '-0.15447791', '0.12017494', '-0.07550699', '0.031750936', '-0.09098082', '-0.07684264', '0.16524419', '-0.006590739', '-0.17112122', '-0.08243632', '-0.06117406', '0.16010605', '-0.12723918', '-0.06797707', '0.004792333', '0.13484074', '-0.15510188', '-0.16397943', '-0.05170726', '0.097112395']
56, ['0.20206751', '0.014464528', '-0.0654009', '-0.08954436', '0.019734437', '-0.10795474', '0.0084483065', '-0.05777046', '0.010910626', '0.28460762', '0.11191772', '-0.0049819676', '0.08908149', '-0.24141894', '-0.123077184', '0.17774144', '0.058433108', '-0.1445839', '0.058753956', '-0.1303796', '-0.11584229', '0.08680544', '0.13742125', '0.04177126', '0.115292765', '-0.30320245', '-0.2684315', '-0.020949984', '0.15462242', '0.18912072', '0.6551709', '0.078608185', '-0.013204589', '-0.27118102', '-0.042943772', '-0.29320553', '-0.2615985', '0.038931586', '-0.2967164', '-0.04670923', '0.055334803', '0.08493491', '-0.028741248', '0.102797', '0.20883961', '-0.05917496', '-0.030545183', '0.14641796', '-0.079044916', '0.12872799']
57, ['-0.19734001', '0.12848668', '0.05362272', '-0.06946692', '-0.08593818', '0.3814031', '0.2139268', '0.20504668', '0.11612398', '-0.028806238', '0.14715938', '-0.21763083', '-0.30275607', '0.13663991', '0.10623548', '0.1620707', '0.1688515', '0.068555444', '-0.14544433', '0.034559708', '0.30233243', '0.04716126', '0.030811157', '0.2526414', '-0.05598599', '-0.01879703', '-0.13041835', '0.029461222', '-0.13638845', '0.0054305647', '-0.11070625', '-0.029128049', '0.25711966', '0.28895828', '-0.15095402', '-0.103335544', '0.28757694', '0.08236769', '0.010988439', '-0.112867296', '0.25650892', '-0.18452887', '-0.014856824', '0.009096439', '0.19712146', '0.04254455', '0.020486014', '-0.02955573', '-0.21140115', '-0.15339144']
58, ['-0.09481095', '-0.05973799', '-0.03957913', '-0.15845583', '-0.022524795', '-0.31244156', '0.15602528', '0.033991925', '-0.046816204', '0.019704029', '-0.020859327', '0.061227076', '0.07370565', '0.07216816', '-0.052338395', '-0.06130925', '-0.050631765', '0.045570873', '0.18896641', '0.09054644', '-0.19589294', '0.0010289468', '0.036056194', '0.19132553', '-0.021849884', '0.16127697', '-0.17305578', '-0.024067035', '-0.11243653', '-0.029956287', '-0.33622435', '0.046892367', '-0.2025268', '0.17753868', '-0.18889837', '-0.0905052', '-0.029699152', '-0.12222118', '0.14406274', '-0.07348432', '0.10891394', '-0.086137496', '-0.1422565', '0.12457065', '0.09537057', '0.009042532', '0.15576617', '0.06955668', '0.057584446', '0.17633803']
59, ['0.10450455', '-0.24688074', '0.10471365', '-0.006560735', '-0.035681006', '-0.0010609184', '0.037546072', '0.25092503', '0.08382711', '-0.117942475', '0.117484175', '0.07882665', '0.09033662', '0.077464126', '-0.20309651', '-0.1756695', '-0.20814392', '0.0028908267', '0.09834931', '-0.044262372', '0.13198243', '-0.022916472', '-0.1465852', '-0.023741493', '0.11690582', '0.25826845', '-0.02404325', '-0.0508074', '0.079485886', '0.15726492', '-0.23356254', '-0.13842195', '0.12347174', '-0.0064555155', '-0.05960044', '0.052326225', '-0.12076431', '-0.22514695', '-0.05427829', '0.00675329', '0.01933998', '-0.19305575', '0.026058722', '-0.040216897', '-0.087186895', '-0.10092543', '0.06475168', '0.08371942', '0.10792679', '-0.14966248']
60, ['-0.25500593', '-0.0035810554', '0.042957477', '-0.23078826', '0.05573177', '0.017178608', '-0.2111212', '0.07979058', '-0.09923626', '0.08480746', '0.19836372', '0.11398162', '-0.058573823', '0.23457094', '-0.07513656', '-0.10369427', '0.08091868', '-0.17580064', '-0.21436086', '0.25231662', '-0.17548344', '0.104948856', '0.18272574', '-0.022824524', '-0.2853935', '0.0012822208', '0.2479454', '0.059046365', '0.19798578', '-0.26067027', '0.04249953', '0.0680249', '-0.11903136', '-0.087091826', '0.23644796', '0.3424899', '0.105463065', '-0.09275805', '-0.081701905', '-0.1391589', '-0.048826005', '0.033977237', '-0.0054505863', '-0.19381401', '-0.11484735', '-0.14284778', '0.122851096', '-0.024511334', '0.0016460618', '-0.1848023']
61, ['-0.31074902', '0.025097193', '-0.18998623', '0.19326061', '-0.14048268', '-0.09360085', '0.02991603', '-0.0016585302', '0.058158018', '-0.36542213', '0.051289666', '0.09470881', '0.12696663', '-0.06761486', '0.19181755', '-0.08217837', '-0.1091321', '0.2697422', '0.09125584', '-0.09332981', '-0.11314147', '0.12026193', '0.21349742', '-0.16928674', '0.15088962', '0.003271433', '-0.015483444', '0.2235966', '-0.25713673', '-0.054586813', '-0.21617211', '0.033602566', '0.06277085', '0.07281116', '-0.0033071015', '-0.006172289', '0.050459083', '-0.027370537', '-0.008572483', '0.111785196', '-0.3261247', '0.14658195', '0.12480268', '-0.12812671', '0.009030662', '-0.17013332', '-0.16464053', '0.12806721', '0.10056329', '0.059248425']
62, ['0.2521849', '0.010485913', '0.1374348', '0.06276466', '-0.0740332', '0.03890463', '-0.034145717', '-0.03458521', '0.03833714', '0.033179406', '-0.342059', '-0.1217408', '-0.09216894', '-0.08932007', '-0.0023829523', '-0.009424591', '0.054004986', '0.13946183', '0.16746497', '-0.05221804', '0.07210837', '-0.030093396', '-0.059450477', '-0.0040621986', '0.2540088', '0.05583465', '0.03821187', '0.09027512', '0.021359187', '-0.051784527', '-0.13624834', '-0.15270819', '-0.09892782', '0.08935802', '0.11983028', '0.015800977', '0.08274982', '0.37526408', '-0.0067116036', '0.004835381', '-0.11828978', '-0.037792187', '-0.2116332', '0.042262655', '0.16702431', '0.008697456', '0.03782131', '-0.24685314', '0.2110094', '0.025727028']
63, ['0.23700869', '-0.12406066', '0.05395025', '0.11181511', '-0.07882893', '0.2120482', '-0.21492918', '-0.0043550646', '-0.1699249', '-0.038314953', '0.10443236', '-0.17237955', '-0.13137628', '-0.050917182', '0.05703123', '-0.14607596', '-0.1267321', '0.07803809', '-0.027068427', '0.029713873', '-0.12904035', '0.024406316', '0.06247907', '0.11811562', '-0.22130482', '-0.022424128', '0.034519956', '-0.105949365', '-0.20348063', '0.2636216', '0.059033994', '-0.14601715', '-0.295415', '0.17672054', '-0.05282311', '-0.2011299', '-0.27729264', '-0.073239155', '0.2563092', '0.27833787', '-0.026842816', '0.1257143', '-0.2131861', '0.21270093', '-0.23797055', '0.0049709287', '-0.1650059', '0.075308576', '-0.12469825', '-0.36945465']
64, ['-0.020879293', '0.14509833', '0.082092114', '0.16222969', '-0.052453395', '0.35597834', '-0.0667394', '0.09307934', '0.14070119', '-0.020676702', '0.026311275', '-0.00458189', '-0.12682237', '0.001317989', '-0.016571727', '-0.120036304', '-0.012232656', '0.09598947', '-0.12738876', '-0.155466', '0.13538335', '0.04020228', '0.024611328', '-0.13042645', '0.19892217', '0.017853653', '0.252402', '0.044317573', '0.08994143', '-0.052285254', '0.13173665', '0.02832582', '0.19711138', '0.05858168', '0.30206525', '0.0034040415', '0.039592378', '0.0692716', '-0.24033275', '0.20903541', '-0.10311743', '-0.07163281', '0.16373836', '-0.24976665', '-0.08332905', '-0.010823729', '-0.15257558', '-0.006396896', '-0.03146575', '-0.1935093']
65, ['-0.03625495', '-0.014437653', '-0.20238267', '-0.11156873', '0.009471286', '0.11186783', '0.044143885', '-0.06211668', '-0.051085018', '0.11690256', '-0.11137235', '0.2709874', '0.11946167', '0.0983098', '0.121355295', '-0.22169474', '-0.010010993', '0.21388578', '-0.014290906', '0.06513263', '0.12851965', '-0.10879757', '0.024842773', '0.026415693', '0.091320135', '-0.03683919', '0.16769843', '-0.006851164', '-0.02302447', '0.025567', '0.11348542', '0.23546359', '0.22414808', '0.086626045', '-0.15502429', '0.14300708', '-0.23285371', '0.10118169', '0.031778708', '-0.15037756', '0.034344018', '0.1023662', '-0.15663394', '0.10889059', '-0.18068784', '-0.15556213', '0.012157446', '0.036522366', '-0.0075160475', '0.23378706']
66, ['-0.12301723', '-0.026001908', '0.038500253', '0.31879252', '-0.14194311', '-0.34431192', '0.10266888', '0.031757608', '0.13318846', '0.1678529', '-0.0029304947', '-0.053548284', '0.06820888', '0.1876191', '0.17332469', '0.1327224', '-0.15172595', '0.13630845', '0.019450309', '-0.10926075', '0.056961205', '-0.10051788', '-0.2899477', '-0.1138037', '-0.21388833', '-0.15349804', '0.02613649', '0.054041807', '-0.005802629', '-0.3095567', '-0.0637829', '-0.102930136', '-0.11466622', '-0.32570004', '-0.13493168', '0.028245866', '0.16803408', '0.024083328', '0.0056137857', '-0.1202494', '0.015514687', '-0.101666115', '0.12460152', '0.26671', '-0.27472287', '0.2356433', '-0.078577675', '-0.061865907', '-0.30520833', '0.05273718']
67, ['-0.20204769', '0.068804145', '-0.15310974', '-0.06824761', '-0.15637983', '0.18562283', '0.1048951', '-0.0074613458', '0.19852719', '0.10894313', '0.18046258', '0.08439907', '0.16921961', '0.0563823', '0.062442355', '0.24284562', '-0.019960022', '0.0152389435', '0.21953544', '-0.021028042', '-0.099496074', '0.124410376', '0.21171324', '0.18810736', '0.20229012', '0.20391004', '0.032724332', '0.03534744', '0.08288165', '0.09543852', '-0.09076719', '0.12776718', '-0.11847263', '0.08277754', '0.1480731', '0.078621395', '0.07081121', '-0.06290309', '-0.010605888', '0.19315074', '0.027183842', '0.0014303105', '-0.123606615', '0.09937847', '-0.017619854', '0.08511901', '0.04716535', '0.08685832', '-0.026964488', '-0.06149513']
68, ['-0.009319237', '-0.010309519', '-0.19318864', '-0.21179006', '0.25050965', '0.10458145', '0.13219492', '0.1160518', '-0.3747413', '-0.016539909', '0.020289892', '0.00910814', '-0.055626687', '0.025767252', '0.019031659', '0.07182253', '-0.063259095', '-0.1442278', '-0.07975579', '0.062223736', '0.008340196', '-0.28047612', '-0.078709364', '0.027602598', '-0.073544994', '0.11104989', '0.06359053', '-0.22167921', '0.18868895', '0.07616412', '0.068864085', '-0.016815891', '-0.093542196', '-0.05027305', '0.101323724', '0.021570165', '0.06551876', '0.06028257', '0.14083256', '0.15102638', '-0.06319589', '-0.24554645', '-0.15533765', '0.03754126', '0.15790711', '0.34939918', '0.07474261', '-0.21886775', '-0.1650004', '-0.0009598778']
69, ['-0.07263131', '-0.05731895', '-0.12301075', '-0.016612573', '0.12718643', '-0.10826012', '-0.036302004', '-0.15450762', '0.11810042', '-0.026624655', '0.15736905', '-0.14137398', '-0.074388385', '-0.2933878', '0.24967855', '-0.07657945', '0.05211376', '0.011197954', '0.13902724', '-0.27655834', '-0.19863649', '0.043728594', '0.167799', '-0.12143071', '-0.07753938', '0.302231', '0.03677168', '0.2591647', '-0.13024268', '0.003054512', '0.09391589', '-0.1734325', '-0.2550987', '-0.19562468', '-0.108998656', '0.10977943', '-0.11128568', '0.051446903', '0.20461972', '-0.25669828', '0.19415547', '-0.21711844', '-0.152925', '-0.24769244', '0.05621063', '-0.18363169', '0.19331439', '0.052702107', '0.027661178', '-0.10969703']
70, ['-0.07606852', '-0.19195914', '0.06405452', '0.05031282', '0.13330406', '-0.012651099', '0.015122992', '-0.09993367', '-0.25982854', '-0.08086568', '-0.007393093', '-0.14363706', '0.2884081', '0.011887087', '-0.06769249', '0.24657603', '-0.0119224535', '-0.0883142', '-0.19145492', '0.04898282', '0.15751271', '0.056894287', '-0.09815486', '-0.19172603', '0.14882535', '-0.034100156', '0.028415505', '0.13246316', '0.031604342', '-0.23153904', '-0.053054817', '0.044464998', '0.010609632', '0.16290727', '-0.06839217', '-0.08788347', '0.039972648', '-0.10329763', '-0.07131482', '-0.033787668', '0.16383386', '0.03597325', '0.056227125', '-0.0048548467', '0.01846247', '-0.23913546', '-0.052960724', '-0.016571388', '0.13021529', '-0.06359278']
71, ['-0.12936835', '0.09924715', '0.14714094', '-0.036496744', '-0.11479918', '-0.13587494', '-0.041692253', '-0.015034616', '0.15382253', '0.056310095', '-0.08041134', '-0.03157842', '-0.19614832', '0.031180324', '-0.038011815', '-0.1477456', '-0.04952789', '-0.1541653', '0.20322298', '0.20995693', '-0.10369104', '0.061908267', '-0.006248728', '0.0072672125', '0.11407541', '0.037614986', '-0.24102513', '-0.11106472', '-0.17263244', '0.06361403', '-0.1379882', '0.14329757', '0.28189605', '-0.0052524423', '-0.038806047', '-0.02133854', '0.051582646', '-0.052525748', '-0.024148632', '0.17986615', '-0.024267895', '-0.023092212', '-0.032287076', '-0.07626349', '0.24023184', '-0.12695235', '-0.19205761', '0.13857014', '0.15166426', '0.13873371']
72, ['0.19116938', '-0.017190572', '-0.0800759', '-0.0012109424', '-0.01758903', '-0.053947076', '0.0043824995', '0.058193658', '-0.098038286', '0.033749383', '-0.056854945', '0.19068491', '-0.07946607', '-0.12899344', '0.080905184', '-0.21624467', '-0.01542503', '-0.028687574', '-0.016759386', '0.105418324', '-0.1421306', '-0.14842714', '0.010736212', '0.1598874', '-0.16593382', '0.0544347', '0.25514114', '0.10030442', '-0.110911846', '-0.19033512', '0.13122775', '0.19491445', '0.2936608', '0.17335701', '-0.21140434', '0.11921427', '-0.0963888', '0.07667661', '0.1892908', '-0.068760574', '0.24857402', '0.12144517', '-0.098827615', '0.06613452', '-0.20098102', '-0.021462109', '-0.0012340269', '-0.046097983', '-0.010651044', '0.044625178']
73, ['-0.01973005', '-0.1198582', '-0.021948555', '0.057741128', '-0.21567734', '0.09566012', '0.33640364', '0.112438746', '-0.020628905', '0.051106457', '-0.036357682', '-0.2762532', '0.11788168', '-0.13133657', '0.0021138024', '0.09392389', '0.13383996', '0.08111588', '-0.04690438', '0.09127593', '0.09247524', '-0.2533071', '0.1591348', '0.16547829', '-0.21219003', '-0.10984098', '0.07067107', '0.20187712', '0.020485474', '0.019636177', '-0.15701051', '-0.07435113', '0.05603418', '-0.23644203', '0.07880718', '0.028640106', '-0.19528279', '0.13028984', '0.096540205', '0.1684685', '-0.04737096', '0.23005922', '0.017463654', '-0.08151968', '0.030669332', '-0.082014844', '0.15352099', '0.22445987', '0.050770044', '0.030187322']
74, ['-0.19887652', '0.054024715', '0.010324793', '-0.14715832', '0.114914335', '-0.24670066', '0.20895639', '0.14787583', '0.14342336', '-0.022114294', '-0.05026368', '0.1419489', '0.08187846', '0.019114759', '-0.013003544', '0.06045991', '0.09688577', '0.01309333', '0.105642736', '-0.012959757', '0.012211432', '-0.016494472', '-0.023916256', '-0.014768906', '0.14555737', '0.014227867', '-0.07615072', '0.14365984', '0.18903773', '-0.19994847', '-0.09220659', '0.13569975', '0.14317735', '0.013413022', '0.020502303', '0.087763384', '0.14747173', '-0.012821643', '-0.18228133', '-0.19889213', '-0.048199248', '-0.15117255', '0.12461291', '-0.2625121', '0.17373486', '-0.056679696', '0.12519649', '0.044322927', '0.099614985', '0.30244014']
75, ['0.083105244', '-0.1803816', '-0.07708885', '-0.13325498', '-0.01605876', '-0.010960483', '0.00671473', '0.16277297', '-0.07192704', '-0.29345337', '-0.12457445', '-0.03126701', '-0.20298485', '-0.010428596', '0.101620525', '0.03659611', '-0.10728845', '-0.17274609', '0.3369837', '0.24142753', '0.18179792', '0.26442277', '-0.102280125', '-0.01199891', '-0.08772842', '-0.4317535', '0.22758943', '-0.16807902', '-0.07078668', '0.10776155', '0.24913648', '0.14330834', '-0.37895885', '-0.054226566', '-0.09774371', '0.045596696', '0.0013631169', '-0.18639642', '-0.19386344', '0.10445157', '-0.24071176', '0.052210804', '0.04826603', '-0.14034301', '0.020886047', '-0.13316998', '-0.25505027', '0.106455676', '0.037892614', '-0.115225494']
76, ['0.24727556', '0.23041782', '0.09006771', '-0.075656675', '-0.02022614', '-0.124354325', '-0.21820244', '-0.0161626', '0.19502403', '0.116824925', '-0.034765497', '-0.040023725', '0.062117364', '0.08331073', '-0.14287809', '-0.023744682', '0.0031238117', '0.04350522', '-0.15389752', '0.26716617', '0.006906247', '-0.10225649', '0.05867386', '-0.17066824', '-0.16749614', '0.10153361', '-0.17092986', '0.109864235', '0.1229041', '-0.057250775', '-0.05896138', '0.039739218', '-0.10107986', '0.09741925', '-0.0031275959', '0.06846424', '0.06419507', '0.053434364', '-0.028712828', '0.16600116', '0.11861331', '-0.2881586', '-0.19932786', '0.06275492', '-0.018131616', '-0.03655587', '-0.06737005', '0.3037318', '-0.16706413', '-0.08267173']
77, ['-0.12342265', '0.0938095', '-0.14090303', '0.009729041', '0.24752739', '0.022512693', '-0.24892662', '-0.18953012', '-0.17559323', '-0.25677752', '0.1172312', '-0.044130266', '0.04767935', '-0.078392416', '0.14340705', '0.07138593', '-0.16804387', '0.2128019', '0.0010736303', '-0.015576605', '-0.014191344', '0.03632152', '-0.1388442', '0.23776731', '-0.018798519', '-0.014424345', '-0.14802328', '0.07183775', '0.09994595', '0.03410175', '0.23491648', '-0.17521907', '0.074267335', '-0.013424384', '0.24020986', '0.09410534', '-0.008874658', '0.058475047', '-0.14875416', '0.09205458', '0.029263584', '-0.12392463', '0.057044283', '0.09767998', '-0.15744996', '-0.03653948', '0.022007355', '0.037127487', '0.015458353', '-0.073522836']
78, ['-0.22869143', '-0.06911907', '0.3001367', '0.018962959', '0.096155', '0.09422294', '-0.06133463', '-0.021411851', '0.0042565987', '-0.005464008', '-0.18888813', '-0.020617673', '0.08093314', '0.27695498', '0.18253797', '-0.06893261', '0.11648782', '-0.07208206', '0.17165148', '-0.23736674', '-0.06924268', '0.01275063', '0.07405983', '-0.09102612', '-0.12085921', '0.17362702', '-0.02954682', '-0.15072425', '0.072362386', '0.13901131', '-0.050833922', '-0.17556371', '-0.026479872', '0.07551749', '0.015005225', '0.13551953', '-0.0015051763', '-0.12417227', '0.014344698', '0.0052220346', '-0.11505734', '0.24644522', '-0.1684701', '0.06694762', '0.14738825', '-0.19236478', '-0.07261751', '-0.056364913', '-0.31574088', '0.24431981']
79, ['-0.05511419', '-0.18952096', '-0.19846635', '0.012156025', '-0.15297915', '0.065204084', '-0.1156504', '-0.09886141', '0.048116535', '0.09365561', '0.17468716', '-0.025410144', '0.09131182', '0.038821403', '-0.07044342', '0.033189386', '-0.058909655', '-0.1261073', '-0.039898217', '-0.22980402', '-0.14075166', '0.06121065', '-0.13466132', '-0.18156128', '0.06350027', '0.07408567', '-0.1989488', '-0.063757464', '-0.265593', '0.02358771', '0.037303388', '0.14745094', '-0.034263406', '0.24476115', '-0.071473345', '-0.26456058', '-0.11266134', '0.15248881', '0.11708784', '-0.15335582', '-0.14867719', '-0.09499788', '0.11621836', '0.011529054', '0.0024744712', '0.23265038', '-0.063086346', '-0.25720084', '-0.023356982', '-0.22424047']
80, ['-0.093504705', '-0.15275809', '-0.17628905', '0.0764943', '0.009617592', '0.17033045', '0.06330836', '0.04319364', '-0.08650905', '0.083249174', '0.07707746', '0.1466998', '0.3926102', '-0.013382791', '0.08368422', '0.16196798', '-0.02907636', '0.056240488', '-0.07446822', '-0.082540885', '0.31679946', '-0.18825981', '0.19645993', '-0.087676525', '-0.10726398', '-0.007927128', '0.23389049', '0.124489985', '0.23784451', '-0.012030589', '-0.042485278', '-0.106868364', '-0.3152614', '0.1244883', '0.060926042', '0.06954191', '-0.10770229', '0.05598814', '0.08938954', '-0.18840772', '0.13517478', '0.02184242', '0.058625214', '0.0056768944', '-0.053961944', '0.10635239', '0.059082706', '-0.09992344', '0.02011463', '-0.16733176']
81, ['-0.16782978', '-0.095317595', '-0.19548623', '0.037820794', '-0.18099095', '0.09975503', '0.105034575', '-0.0068055354', '0.09636477', '0.19973043', '0.08776008', '0.067083694', '-0.030481426', '-0.22013804', '-0.19242881', '-0.112736866', '0.11758384', '0.04972755', '-0.0016533937', '0.15622285', '-0.14181958', '0.013438457', '-0.00082130445', '-0.22468059', '-0.03215566', '0.04863085', '0.096981175', '-0.07640174', '0.10160332', '-0.0036922481', '-0.10495539', '-0.07853639', '0.008846099', '0.030720767', '0.09351595', '0.11618713', '-0.033040904', '0.18147469', '-0.1151497', '0.10848131', '0.046375655', '0.00471257', '0.038226508', '0.054656822', '0.032113805', '-0.14936398', '-0.010256321', '-0.12553073', '-0.14978333', '0.03522019']
82, ['-0.15260169', '-0.08349325', '-0.056913372', '0.08873005', '0.021004194', '0.25505096', '-0.13575685', '0.11795931', '-0.07250736', '-0.05976954', '0.110693395', '-0.06192248', '0.08639671', '0.25776652', '-0.43922442', '-0.07941019', '0.17675564', '-0.01366203', '-0.11075839', '-0.052061006', '-0.13570441', '-0.12940082', '0.13391493', '0.16768692', '-0.114641994', '0.008269431', '0.0014369953', '0.12323509', '-0.31955448', '-0.19183731', '-0.015781669', '0.09088719', '0.058036964', '-0.2836135', '-0.06866103', '-0.20512782', '0.0038120928', '-0.26836514', '0.055043552', '-0.030092403', '-0.10389689', '-0.09643495', '-0.2393784', '0.03037541', '0.028979423', '-0.017107096', '-0.123832345', '0.15048927', '0.10629723', '0.06781917']
83, ['0.025968455', '0.20263132', '-0.040703118', '-0.041012805', '0.1894371', '-0.12464766', '-0.322765', '0.045118093', '0.14648944', '-0.013528018', '-0.016928388', '0.330864', '-0.11522892', '0.07157263', '0.039367557', '-0.14319085', '-0.13649261', '-0.06295262', '0.041285757', '-0.027901633', '-0.16921046', '0.20568867', '-0.09848924', '-0.09205523', '0.16306859', '0.100056335', '-0.13513221', '-0.10492847', '0.0962667', '-0.014941956', '0.14274333', '0.12991413', '-0.028348414', '0.26363844', '-0.025745805', '0.056018382', '0.13446398', '-0.20053428', '-0.1537584', '-0.18620872', '0.07806443', '-0.22004187', '-0.084008805', '0.08471424', '-0.0023259583', '0.06524193', '-0.12804112', '-0.29963252', '-0.12095883', '-0.003984684']
84, ['0.1294345', '0.1912164', '0.055926733', '-0.27398455', '-0.30261692', '0.04441995', '0.022689074', '-0.042283315', '-0.013390294', '0.17366487', '0.09667059', '-0.124483764', '-0.20985359', '0.25412276', '0.24631166', '-0.03364647', '-0.19217001', '-0.24645047', '0.0047544865', '0.006717447', '-0.064711064', '-0.07388252', '-0.07479229', '0.031069681', '-0.18700978', '0.010691568', '-0.2909985', '0.18979713', '0.09026008', '0.12955995', '-0.13375424', '0.29084918', '0.077333525', '-0.061030727', '0.029062929', '-0.0033515359', '-0.04782801', '0.06218484', '0.15611221', '-0.04448311', '-0.22657107', '0.12998177', '0.31667686', '-0.025345579', '-0.033425428', '-0.28690925', '0.2968303', '-0.1598615', '0.13295089', '0.0041092625']
85, ['-0.005619736', '-0.28558403', '0.17508808', '-0.122605905', '-0.30975285', '-0.16852663', '-0.09664585', '0.016880099', '-0.19088069', '0.08702977', '-0.07145685', '-0.1407497', '-0.0073238667', '-0.030239591', '0.03734619', '-0.07232539', '0.21097752', '0.04030438', '-0.045177', '0.17717882', '-0.07602973', '-0.094263874', '0.03193749', '0.081164576', '0.30304438', '0.08632956', '0.003752269', '-0.0036848558', '-0.11149277', '-0.03837263', '-0.007986067', '0.09496469', '0.034379803', '-0.056083005', '-0.13280368', '0.296231', '-0.07182413', '0.07053903', '-0.06932257', '0.005504799', '0.035571717', '0.16436653', '0.014279501', '-0.24959986', '0.016999016', '0.3567949', '0.08388932', '0.13500328', '-0.018761737', '-0.2822846']
86, ['0.015745867', '0.15779288', '0.17241102', '0.05542149', '0.10553804', '-0.051851023', '0.13770293', '0.20358585', '-0.031328827', '-0.08106093', '-0.19258986', '-0.010591105', '-0.044295434', '-0.04808415', '0.07425291', '-0.07790347', '0.079857185', '0.13671628', '0.07120425', '0.2772616', '0.112457454', '-0.13417386', '0.1555666', '0.18756926', '-0.12087548', '-0.0354158', '0.1679699', '0.13325292', '0.3036496', '-0.023116058', '-0.08735825', '-0.13832675', '0.026642157', '-0.15204526', '0.07200872', '0.31888947', '0.065301456', '-0.147351', '-0.15289605', '0.17033738', '0.1977967', '0.10924969', '-0.12340749', '-0.043801025', '0.07643381', '-0.2923718', '0.040415157', '0.3044536', '-0.015457558', '0.2424363']
87, ['0.16006535', '-0.03841321', '-0.020424124', '0.18768457', '-0.11826785', '0.03004255', '0.14583907', '0.107722096', '0.10609665', '-0.030836856', '-0.11640088', '-0.056130446', '-0.016635735', '-0.18391986', '0.047135446', '-0.055498797', '-0.10853482', '0.20333067', '0.16178375', '-0.1716489', '0.105339065', '-0.11287281', '-0.05342616', '0.08261638', '0.22572382', '0.046187263', '-0.17976929', '0.03608153', '-0.117170446', '0.20369056', '-0.1897643', '-0.04141714', '0.07692209', '0.15596253', '-0.1835073', '-0.2750658', '-0.13999549', '0.04827965', '0.07968662', '0.12053248', '0.06782781', '-0.035639033', '-0.03152171', '0.13173196', '0.1426469', '0.08330075', '-0.053629413', '0.07629767', '-0.008802697', '0.12693407']
88, ['-0.23129001', '0.061448462', '-0.053951632', '-0.24934334', '0.056616165', '-0.008166423', '0.19325578', '-0.15283145', '-0.045060027', '0.06781947', '-0.13065016', '-0.37070677', '0.09091302', '0.22144753', '-0.32090566', '-0.1862993', '-0.29867053', '0.012647644', '0.28287703', '0.023066217', '-0.006324501', '0.12242088', '-0.048108518', '0.049837083', '-0.25658396', '-0.07125709', '-0.123286344', '0.24655199', '0.0992516', '0.1569606', '0.01079204', '-0.069570534', '-0.08186652', '0.16425985', '0.004540729', '0.11967126', '-0.01565285', '0.1114042', '-0.052052025', '-0.10937088', '0.15077594', '-0.022346424', '0.00023715272', '0.07414996', '-0.00022331275', '0.00757841', '-0.0765626', '-0.015840022', '0.17088464', '-0.09374301']
89, ['-0.044396166', '-0.01773657', '-0.0315486', '-0.07654225', '0.0124347815', '-0.3310703', '0.17630738', '-0.059032172', '-0.18609981', '0.07773107', '0.06523074', '-0.12380274', '-0.05652851', '-0.0019203371', '0.028149115', '0.153995', '-0.05397382', '-0.052200377', '-0.14240848', '0.014773773', '0.12790123', '0.09397873', '0.09468047', '0.03436796', '0.0013398404', '0.24345009', '0.10235149', '0.10403225', '-5.49852e-05', '0.07874816', '-0.20571004', '0.045547787', '0.094587445', '-0.090286925', '-0.01717053', '-0.10967705', '-0.0028133574', '-0.11419586', '0.031274945', '0.1285372', '-0.12154822', '-0.025092693', '-0.075093426', '0.16920082', '-0.052938256', '-0.1404804', '0.14560914', '-0.09610621', '0.0119530065', '-0.019839186']
90, ['0.1188613', '0.0059106536', '0.23866987', '0.00047283355', '0.008580955', '0.12323017', '-0.23582502', '0.11140052', '0.24752532', '-0.10526787', '0.12423218', '-0.19155566', '0.040156595', '-0.096401714', '0.12616861', '0.10861684', '0.09197182', '-0.031971857', '-0.26185578', '-0.15769294', '0.2530651', '-0.09417293', '0.05173213', '-0.16849804', '-0.039383728', '-0.5107162', '-0.10343207', '0.04292591', '0.23637593', '0.105210274', '0.9680307', '-0.1727091', '0.06185589', '-0.19422905', '0.0911125', '0.15774782', '-0.057733238', '-0.06768783', '0.12269512', '0.028405573', '-0.25768092', '0.051867917', '0.11949162', '-0.0554219', '0.04160812', '-0.13563153', '-0.20365955', '-0.059232354', '0.046337124', '-0.27526397']
91, ['-0.13514985', '-0.14884521', '-0.111097716', '0.24140069', '0.19685698', '-0.049977202', '0.07230316', '0.06791745', '0.014099568', '-0.098077156', '-0.047502007', '0.077893764', '0.20631143', '-0.27679065', '-0.25375807', '0.057790253', '0.19553064', '0.1846963', '0.04783908', '0.04406168', '0.07854021', '0.051130954', '0.1326894', '-0.0010255511', '0.17686439', '0.08749091', '0.27803937', '-0.12730469', '-0.0769151', '-0.072422326', '-0.078039646', '-0.21805157', '-0.09825151', '0.10266012', '0.0076368153', '-0.012722557', '0.008796921', '-0.098006636', '-0.06125375', '0.08246629', '0.1830174', '-0.06955938', '-0.30242088', '0.021020364', '0.11847416', '0.26512203', '-0.26894897', '0.11584223', '-0.09776976', '0.03570397']
92, ['0.0041698976', '0.12001603', '-0.07875006', '0.09530221', '0.17313059', '-0.038736787', '0.025616473', '-0.03395936', '-0.29088143', '0.07232611', '0.37229595', '-0.066291705', '-0.07598781', '0.1374484', '0.10892781', '-0.0074799308', '-0.2803131', '-0.037718322', '0.17395063', '0.069811754', '-0.24590434', '-0.032730896', '-0.1144278', '-0.0424826', '0.051338956', '0.21558292', '0.1842739', '0.12975231', '0.16038439', '0.014637845', '-0.08770872', '0.06463913', '0.073093005', '0.080474', '-0.15364455', '-0.049521927', '0.08153013', '0.13675721', '-0.031703345', '0.2554974', '0.006078927', '-0.07759873', '-0.015547661', '-0.049192723', '0.058982015', '-0.10179082', '-0.08069863', '0.10761175', '-0.08813423', '0.12800187']
93, ['0.079280816', '0.28226328', '-0.05773914', '-0.1293833', '-0.2247213', '0.3530176', '-0.20675978', '-0.10168856', '-0.090218306', '-0.1938908', '-0.051244814', '-0.010859582', '0.15589957', '-0.13311674', '0.024434444', '-0.041929577', '0.028527621', '-0.14796668', '0.028773623', '-0.10244067', '-0.046941616', '0.03962907', '-0.2203749', '0.06947572', '-0.02976188', '0.09897931', '-0.005329663', '-0.08926217', '0.11463771', '0.010399912', '-0.32848728', '0.06889458', '-0.14717795', '-0.30877712', '-0.033504516', '-0.00502546', '-0.022013739', '-0.062534675', '0.10863091', '-0.12823032', '0.22144929', '0.028686527', '0.22895448', '-0.15079075', '0.007823988', '0.19814146', '-0.0407682', '0.07318635', '-0.033183735', '0.31363186']
94, ['0.26524758', '-0.20792234', '-0.076970525', '0.0494155', '0.045843493', '-0.097964734', '0.094763376', '-0.11203317', '0.04100075', '-0.0067662844', '0.10548023', '0.0014991806', '-0.08862948', '-0.061350234', '0.08006961', '0.07897499', '0.07788568', '-0.20927796', '0.18685499', '0.008981943', '0.055120643', '-0.11780799', '0.050215147', '0.3008601', '-0.20956592', '0.21392797', '-0.039577108', '-0.1338683', '-0.2944814', '-0.18609852', '-0.21352178', '-0.08112101', '-0.047828797', '0.09119659', '0.35003158', '-0.10891688', '0.07610494', '0.034368258', '-0.13129012', '0.058529545', '-0.062981345', '0.096856765', '0.10602452', '-0.088445246', '-0.077527285', '-0.1770456', '0.07783013', '-0.111446396', '0.091309026', '0.11206002']
95, ['-0.05128115', '-0.024634052', '0.050491523', '-0.18166372', '-0.16575925', '-0.17250758', '0.14301205', '0.1064181', '0.31535596', '0.020409778', '-0.13863431', '0.026080333', '0.11735384', '0.0613589', '-0.11274685', '-0.02528', '0.26781726', '-0.027648795', '-0.16014743', '0.009150079', '0.29455316', '-0.04297039', '0.25518823', '-0.13394184', '0.01474119', '-0.05625856', '-0.1765531', '-0.098407425', '-0.109826975', '-0.044946063', '-0.14998527', '0.08311996', '-0.19529395', '0.034361843', '0.028130012', '0.008840945', '-0.041905012', '-0.11168334', '0.38683963', '-0.06669108', '-0.2179424', '-0.07299318', '-0.037911333', '0.07279382', '-0.007440328', '-0.043872353', '0.09045264', '-0.037395775', '0.14715585', '-0.05637125']
96, ['0.31579447', '0.26630104', '0.06499542', '0.2991868', '0.13323835', '-0.018006727', '0.027336115', '0.25467137', '-0.149925', '-0.24291901', '-0.18160017', '-0.053381544', '0.18052228', '0.30949605', '0.1651554', '0.117981195', '-0.057190552', '-0.030343018', '-0.042907458', '-0.043813583', '-0.0011909374', '-0.13994394', '0.17510436', '0.116520226', '-0.041522462', '0.053811047', '-0.012692054', '0.12021749', '-0.13464268', '0.21391383', '-0.041524455', '0.18751706', '-0.042144757', '0.14251763', '0.03290563', '-0.0234865', '-0.17857806', '-0.016850382', '-0.13953324', '-0.34121135', '0.040616143', '0.08064447', '0.036951598', '-0.20856759', '0.10797416', '0.180662', '-0.038679384', '0.13280615', '0.08674144', '-0.13153003']
97, ['-0.007062009', '-0.114789456', '-0.114022575', '0.0085678445', '-0.16321284', '0.06332696', '-0.032422245', '-0.022028873', '-0.03512555', '0.110652864', '0.037178688', '0.011370196', '0.16892922', '0.18250331', '-0.0069531277', '0.08163881', '-0.068140745', '-0.008743778', '0.021177493', '-0.08644008', '0.22162549', '0.05112765', '0.003347117', '-0.007133928', '0.068497114', '0.17638259', '-0.06337193', '0.032220818', '-0.061308518', '-0.006100916', '0.09453142', '-0.12829824', '0.2996599', '-0.22371805', '-0.075434044', '0.18758206', '0.15082094', '0.10318176', '-0.1739408', '-0.10432848', '0.18074597', '0.10344525', '-0.052928437', '-0.09868095', '0.03062352', '-0.0070027155', '0.0019437959', '-0.10197648', '-0.0951063', '0.04669816']
98, ['0.15620713', '0.031805165', '0.13455676', '-0.081801325', '0.18987603', '0.09780732', '-0.025859939', '0.04322794', '0.00071236154', '0.3223831', '0.060389835', '0.13106345', '-0.009403048', '-0.061507363', '-0.06790768', '0.019107712', '-0.18121475', '0.04870743', '-0.014897238', '-0.06900093', '-0.07010218', '0.20034346', '0.0060001994', '-0.024400298', '0.012018006', '-0.19428179', '0.085386775', '0.02936134', '-0.018412428', '-0.30740717', '-0.16843036', '-0.0011084342', '0.08254568', '-0.11729682', '0.2711149', '-0.15397294', '-0.1153266', '0.013981786', '0.24799848', '0.05830934', '0.116905436', '0.18732914', '0.10360671', '-0.00035583883', '0.015610652', '0.10157413', '0.11408318', '0.06864884', '-0.06924484', '-0.06763745']
99, ['0.0393375', '0.09598065', '-0.14950638', '-0.015578901', '-0.14578865', '0.115319416', '0.1716289', '-0.049019534', '0.27886117', '0.045843475', '0.08643586', '0.07185605', '0.04968149', '-0.0034797653', '0.0074706627', '-0.067582175', '-0.048908', '0.014468531', '0.225876', '-0.03596449', '-0.004557871', '-0.10726689', '-0.15236296', '-0.050630655', '-0.022466617', '0.04382613', '0.08533038', '-0.22708468', '-0.091516435', '0.13356714', '0.25109592', '-0.0060571143', '-0.018280389', '-0.38616467', '0.018458016', '0.19477738', '0.1367045', '0.09097455', '0.14154066', '0.026834054', '0.011487075', '-0.080900386', '0.0022021018', '0.178272', '-0.05195844', '-0.022443755', '0.17374784', '0.26496786', '0.026395785', '0.10935395']
100, ['-0.09498531', '-0.06567051', '0.048972998', '-0.09728143', '0.004150764', '0.14158693', '-0.14526464', '-0.19732456', '-0.112572014', '-0.0047793156', '-0.016971057', '0.039536767', '0.090289064', '-0.110365145', '0.21070021', '0.25232768', '0.053564858', '0.10057481', '0.1774376', '0.27023637', '-0.0038797453', '-0.11749054', '-0.043928787', '-0.03677538', '0.036136415', '-0.096377574', '0.10406344', '-0.007251376', '0.03459433', '-0.13703011', '-0.17733854', '0.0645109', '-0.013442212', '-0.0512901', '-0.13591403', '-0.0038579486', '0.03552277', '0.036690924', '0.02662086', '-0.10519773', '-0.12209477', '-0.12073193', '-0.026229106', '0.08971903', '-0.03515185', '-0.057680976', '-0.17394745', '0.0050737234', '0.09898839', '-0.05141223']
101, ['-0.078893326', '-0.33509785', '0.027556889', '0.11324438', '0.26933587', '-0.46340984', '0.29479146', '0.05424308', '0.097877294', '0.20774423', '0.103117615', '-0.030930756', '-0.10153523', '0.15006582', '-0.057040002', '0.10070897', '-0.08810849', '0.16227002', '0.025008654', '0.13434915', '0.06772729', '-0.061462168', '0.29104757', '0.0021231598', '0.017041225', '-0.054188006', '0.08648523', '0.07855788', '-0.17957453', '-0.048426654', '0.23246726', '-0.13782436', '0.18531205', '0.3478844', '0.0675945', '-0.056361984', '0.053360928', '0.0806294', '-0.051790465', '0.24125278', '-0.14803699', '0.062098555', '-0.2412411', '0.112969466', '0.02953358', '-0.18706995', '0.0036910595', '-0.11469443', '0.030170782', '-0.26002845']
102, ['-0.08868086', '-0.06662554', '0.21629576', '-0.065178044', '-0.17204057', '-0.007750055', '0.041669074', '-0.002111677', '0.05702664', '-0.39056924', '0.05616846', '-0.109800726', '0.08834037', '-0.2039055', '-0.047316913', '-0.009366625', '-0.1704763', '0.18833221', '-0.17113926', '0.0865639', '-0.26450962', '-0.29383826', '0.077816814', '0.101478264', '0.12924807', '-0.2112034', '-0.15171145', '-0.121069185', '0.050949533', '-0.15310442', '-0.034069348', '-0.03192117', '-0.025053773', '0.20241551', '-0.04224981', '-0.09667885', '-0.13235654', '-0.05022672', '-0.1773817', '0.060097925', '0.20158671', '0.07308231', '0.09519708', '-0.123461075', '-0.11657914', '-0.112457536', '0.3050395', '-0.15490936', '-0.40269354', '0.022754174']
103, ['-0.047786836', '-0.07406781', '-0.044260476', '-0.14215584', '-0.12653914', '-0.22940098', '-0.16074105', '-0.09554317', '0.09109907', '-0.002513982', '-0.010431124', '-0.031536903', '0.00043422685', '0.1438074', '-0.003311874', '-0.14452149', '0.27847335', '-0.021322027', '-0.2232098', '-0.21806957', '-0.10407542', '-0.04992663', '-0.17507845', '0.12562591', '-0.10798686', '0.095502235', '0.26072413', '0.16430426', '0.21574262', '0.15889993', '-0.08752812', '-0.16693193', '-0.07826381', '0.119111925', '-0.08603771', '-0.18625893', '0.14654693', '0.009759932', '0.028958516', '0.2740286', '0.24573824', '0.10852784', '0.35965654', '-0.07683553', '-0.0005076147', '-0.004028257', '-0.19039859', '-0.04719798', '0.21716207', '0.20063737']
104, ['0.07216093', '-0.11790476', '0.025169175', '-0.042679712', '-0.069544554', '0.083992496', '-0.23829368', '-0.06143613', '-0.0053340215', '-0.052230064', '0.025430245', '-0.04422729', '0.05324072', '-0.005551825', '0.13159317', '0.02509242', '-0.2520439', '-0.17307618', '-0.051113438', '0.19044721', '-0.12184123', '-0.08697806', '0.3322544', '-0.07506613', '0.017349169', '0.08107749', '-0.09610508', '0.08323178', '0.0019526335', '0.08130567', '-0.09829803', '-0.1826875', '0.18717834', '-0.18287061', '-0.011868447', '-0.043855466', '0.072737545', '0.11126276', '-0.049357522', '-0.0092771705', '-0.053481266', '-0.17177938', '-0.05762612', '0.2011284', '-0.12844792', '0.00402974', '-0.042110067', '0.14823808', '-0.052977283', '0.0336645']
105, ['0.15597978', '0.22467965', '-0.21356732', '0.06482028', '-0.022922179', '-0.15094899', '-0.063001625', '-0.17305297', '0.010045236', '0.0464259', '0.020214751', '-0.14126195', '0.41272095', '0.031683095', '-0.077133246', '0.054951496', '-0.053573307', '0.14278398', '-0.0019930417', '0.18122041', '0.059470113', '-0.10839966', '-0.18080953', '0.071040235', '-0.02223134', '0.11816627', '-0.17614658', '0.077932425', '-0.101699196', '-0.1548867', '0.20368147', '0.05681061', '0.006679644', '0.02231844', '0.031572603', '0.05046911', '0.07045026', '-0.35428828', '0.17367986', '0.27391896', '-0.24946916', '0.12218058', '-0.09677126', '-0.26470008', '-0.10017355', '0.081499174', '0.019259106', '-0.123463795', '0.06968396', '0.05067056']
106, ['-0.2544325', '-0.26689264', '-0.072768874', '0.13131545', '0.081633', '0.1521557', '0.211535', '0.07552372', '-0.17380331', '-0.15418771', '0.10960401', '-0.0065129898', '-0.08597629', '-0.01825106', '0.12255798', '0.051333055', '-0.03539689', '-0.122086726', '0.26030052', '-0.19397984', '-0.092824414', '0.08241332', '-0.14854746', '0.14405155', '0.13243338', '-0.11706948', '0.208978', '-0.06775303', '-0.10851627', '0.06711329', '0.003629731', '-0.039489236', '0.12123063', '-0.07779416', '-0.044382703', '-0.04951494', '-0.11390331', '-0.056195244', '0.010212564', '-0.18067323', '-0.07728553', '0.25274', '0.14972962', '-0.16417359', '-0.008780167', '-0.04526587', '0.10593167', '-0.24462682', '0.12980358', '0.1401444']
107, ['-0.055802885', '0.17008148', '0.041042734', '0.023826143', '-0.044879496', '0.06309218', '0.005828093', '-0.05788909', '0.2492899', '-0.006368699', '0.06444208', '-0.0034817394', '-0.021146556', '0.112332895', '-0.1069443', '-0.0719954', '0.048970174', '0.047420237', '0.1139468', '0.03095948', '-0.09273269', '0.03985465', '-0.07770998', '-0.14697078', '0.05077887', '-0.1104979', '0.21307966', '-0.002043505', '-0.17865522', '-0.04340399', '-0.18026395', '0.07780705', '-0.08859695', '0.10552086', '-0.081719734', '-0.0045976946', '-0.0950925', '-0.012082219', '-0.123068646', '-0.07419559', '-0.027228033', '-0.104367346', '0.055826273', '-0.009555176', '0.16956802', '-0.3307903', '0.079783745', '-0.021719621', '-0.025573183', '-0.12464179']
108, ['-0.17324232', '-0.0715076', '0.04133969', '0.011422378', '0.10028084', '-0.11748001', '-0.080997035', '0.17521785', '-0.11501323', '-0.13507697', '0.18067622', '0.14371525', '-0.19991454', '-0.10654062', '0.060872745', '0.19306484', '0.05725125', '-0.14668678', '0.22101952', '-0.042616807', '0.065592915', '0.055824384', '0.023180874', '-0.16221838', '-0.15300506', '-0.02123645', '-0.22575353', '-0.030949049', '0.028533034', '0.1882133', '-0.18251173', '0.15308301', '-0.010594094', '0.08617415', '0.12766609', '0.1413687', '-0.016653147', '0.24119547', '0.15568034', '0.14998162', '0.16937597', '0.21839793', '-0.03974446', '-0.13797191', '-0.31320223', '0.09330001', '-0.25555637', '0.25005057', '-0.0038280212', '-0.0072330004']
109, ['0.12658386', '-0.09660889', '-0.053322922', '0.15460859', '0.00023352313', '0.2328871', '0.33703393', '-0.38946605', '-0.066554494', '0.10547419', '-0.052004375', '0.30729225', '-0.34794608', '0.06868958', '0.086264156', '-0.16691089', '0.10833075', '-0.02664459', '-0.057850182', '0.03472078', '-0.06690686', '-0.07283613', '0.33140156', '-0.097438306', '-0.061411746', '0.10392978', '-0.32203916', '0.017692368', '0.2383885', '-0.122478165', '0.062341567', '-0.10285104', '-0.035977855', '-0.04822977', '-0.28410912', '-0.010717353', '-0.069987066', '-0.34886998', '-0.08216438', '0.094172664', '-0.0123125985', '-0.18587701', '0.14620136', '-0.026974162', '-0.06488264', '0.10748771', '0.03492067', '0.0656985', '0.052541777', '0.04564587']
110, ['0.2549558', '-0.13725244', '0.25284448', '-0.15534931', '0.024852531', '0.059638247', '-0.051022027', '0.05559672', '0.112904176', '0.27864015', '0.026927331', '-0.1252897', '-0.111736596', '0.15954432', '-0.26277938', '0.033770286', '0.11198856', '-0.23910046', '0.06972245', '0.11399945', '0.04373401', '-0.053933945', '-0.14345959', '0.18596937', '-0.059143666', '0.033046067', '0.060987156', '-0.18228512', '0.09910306', '0.11757774', '0.04336456', '-0.060978174', '-0.15368101', '0.0050032935', '-0.09291966', '-0.072749026', '-0.07825625', '-0.065866716', '-0.03178252', '-0.17736065', '0.2875567', '-0.20150001', '-0.19634405', '0.069314525', '-0.031981874', '-0.04202975', '0.21014601', '-0.02938241', '-0.012686994', '-0.022062467']
111, ['0.0085571455', '0.1698392', '0.054156106', '-0.18612745', '-0.2018831', '-0.20222779', '-0.27674022', '0.12939833', '-0.043079514', '-0.12142103', '-0.105774954', '-0.22217998', '0.11117757', '-0.024561642', '-0.11655556', '0.0067693', '-0.20264232', '0.15655728', '-0.13868001', '0.0002093967', '0.16125162', '0.28825447', '0.21729079', '0.03826481', '-0.021392219', '0.027507436', '0.27056074', '0.11006305', '-0.042540178', '0.08911188', '-0.022950647', '0.05060655', '-0.02775714', '-0.16987073', '-0.0017438494', '-0.1765732', '0.04451385', '0.028042497', '0.052436035', '-0.07491787', '0.06735589', '-0.26883137', '-0.015758386', '0.096496165', '0.07725118', '-0.02518593', '0.017313842', '0.03984444', '-0.186415', '0.18888538']
112, ['0.17914188', '-0.15035328', '0.05448581', '-0.21491264', '0.25346228', '0.13218938', '0.049128912', '-0.052245956', '0.18594228', '-0.077739164', '-0.05641138', '-0.079405926', '-0.109925024', '0.011402', '-0.087799326', '-0.0055379914', '0.13582426', '0.11840158', '-0.07610205', '-0.043596394', '-0.015062487', '0.027801111', '-0.15903951', '-0.1870196', '-0.017904777', '0.02213484', '-0.104621544', '0.09084704', '-0.027313793', '0.07545752', '-0.25252637', '0.1436946', '0.021233642', '-0.04873134', '-0.096629106', '0.03108627', '0.105962254', '-0.0015243519', '-0.00841245', '0.052908093', '-0.14748468', '0.2048525', '-0.28310612', '-0.21943209', '-0.0894706', '0.046794966', '-0.04629638', '0.003236771', '-0.24029498', '0.13789336']
113, ['0.1872126', '-0.1959397', '0.13036025', '-0.25101697', '0.037814975', '-0.005151331', '-0.053311948', '-0.0050207274', '-0.060526323', '-0.019317249', '-0.16638185', '-0.011130905', '0.13559695', '0.04516003', '-0.025378287', '-0.09077724', '0.11209372', '-0.019480906', '0.15955134', '-0.3253358', '-0.07799792', '0.05797727', '0.25228468', '0.13449936', '-0.006082021', '0.16207282', '-0.07638122', '-0.04787381', '0.17410992', '-0.27875546', '0.12083057', '0.3579999', '0.13629803', '-0.039910015', '0.02751569', '0.21898945', '-0.028531251', '0.02078216', '-0.14067295', '0.10979742', '-0.114044875', '-0.009955542', '0.26121518', '0.2994985', '0.21013495', '0.034543045', '-0.13802229', '0.017613938', '-0.1690413', '-0.17921944']
114, ['0.064600244', '0.21071237', '-0.1668543', '0.21399477', '0.26870367', '0.22335792', '0.12542573', '0.07791638', '0.2119963', '-0.0065128854', '0.05040695', '0.17734791', '0.021808881', '-0.03501741', '-0.10386415', '0.027719785', '-0.18696284', '-0.07203577', '0.024594195', '-0.09061321', '0.051318128', '0.07279693', '0.014727155', '-0.06457084', '-0.3578009', '-0.010133603', '-0.0015706097', '0.023958752', '0.22808641', '0.050728105', '-0.13084824', '-0.02324653', '0.02583639', '0.119842514', '0.07792069', '-0.2474655', '0.03746544', '-0.09706335', '0.08822055', '-0.009351569', '0.057483155', '-0.06515326', '0.019880889', '0.25297013', '0.05319785', '-0.3627092', '-0.09991164', '-0.13785583', '0.0076512997', '0.27900913']
115, ['-0.115256734', '-0.13635483', '-0.0038746574', '-0.06511077', '-0.03770975', '-0.01605716', '-0.14506972', '-0.018869868', '-0.063293315', '0.36421052', '0.019363', '0.10226306', '0.101966344', '-0.07026417', '0.103521205', '-0.24146554', '-0.11984546', '-0.13821569', '-0.109169014', '0.11811501', '0.046005893', '0.036373798', '0.0032191044', '-0.028155742', '0.076641336', '0.07030545', '-0.01983156', '-0.19857168', '-0.101070955', '-0.036203373', '-0.14043723', '-0.21362296', '0.090052165', '0.079576634', '0.05333873', '-0.023162737', '0.12644833', '-0.06224904', '-0.053446952', '-0.027024325', '0.15536211', '0.18658811', '-0.051648658', '-0.22134532', '0.2070788', '0.10046308', '0.041452695', '0.1256659', '-0.07488698', '0.043609466']
116, ['0.051147826', '0.2205792', '0.4814499', '0.14800112', '-0.19126362', '-0.08260103', '0.07533356', '-0.0417531', '-0.12712556', '0.15074268', '0.17247894', '0.22813806', '-0.06519865', '0.21724236', '-0.1867076', '0.13382514', '0.09872039', '0.14390066', '0.086689025', '0.17382243', '-0.13601094', '0.1475701', '0.12755346', '-0.06543219', '0.10928578', '0.07813589', '0.110841304', '-0.053370208', '-0.12309184', '0.18221393', '-0.09398974', '-0.20052403', '0.060943358', '-0.0934988', '-0.1006347', '0.053943604', '-0.06373062', '-0.00039201477', '0.1943287', '-0.028045183', '0.09648009', '0.22619556', '0.06533321', '-0.25794965', '0.01834854', '-0.011973202', '-0.04708335', '-0.1954901', '-0.014186707', '-0.0029372196']
117, ['-0.2958158', '-0.15412946', '0.15301429', '0.34208474', '0.11705639', '0.14945506', '-0.19418505', '-0.053524096', '0.17022456', '0.01894035', '-0.20430763', '-0.20979694', '-0.2346085', '0.07861273', '0.0042670895', '-0.13255018', '-0.026482124', '-0.20780227', '-0.17682362', '0.05998945', '-0.2056303', '0.07880374', '-0.050228372', '-0.042565998', '0.112326786', '0.106146894', '0.14560744', '-0.04113357', '0.32468885', '-0.19442432', '0.025693212', '0.2347229', '0.06052381', '0.26730302', '0.10905372', '0.016137052', '-0.030638797', '0.09277536', '0.14425378', '-0.04009175', '-0.10575811', '0.02353651', '-0.027160631', '0.09240127', '-0.09194133', '0.23571932', '0.29924598', '0.27904266', '0.076202825', '0.060327113']
118, ['0.22962902', '0.06161355', '-0.34871835', '0.002998023', '-0.12617138', '-0.18204163', '0.09630441', '0.11962031', '0.05069306', '-0.03975867', '0.16553703', '-0.03562445', '-0.07056987', '-0.3560645', '-0.29552513', '0.044381626', '-0.07398614', '0.12584126', '-0.21160714', '0.36051887', '0.036073394', '-0.0511243', '-0.08151267', '0.18623969', '-0.023622094', '-0.15934482', '0.028512415', '0.24331293', '-0.025041746', '-0.21724275', '-0.054241557', '0.3015113', '0.11598268', '-0.029903678', '-0.0047060666', '-0.08626607', '-0.01029242', '0.17941265', '-0.009497936', '0.028820153', '0.13121143', '-0.23083645', '0.18020375', '-0.19240887', '-0.13815063', '0.25616673', '0.08659387', '0.111591846', '0.26767874', '-0.27281335']
119, ['-0.11967572', '-0.10760689', '-0.0061580455', '0.115129426', '-0.21106924', '-0.19715942', '0.14591852', '-0.04823098', '0.04642876', '-0.33930883', '-0.08806017', '-0.07522784', '0.07932006', '0.04319322', '-0.024635166', '-0.01643629', '0.17299044', '-0.011148908', '0.078954354', '0.08269474', '-0.06210526', '-0.26194832', '-0.08327814', '0.017745215', '0.027656399', '0.24253482', '-0.023918783', '-0.1433344', '-0.08493673', '0.26452342', '0.07348578', '-0.045638587', '0.051670007', '0.18012115', '-0.38725856', '0.27824205', '0.19242193', '-0.011612178', '-0.09571441', '0.049174726', '0.06718106', '-0.015932152', '-0.055946015', '0.10549573', '0.1609085', '-0.09811415', '-0.13590582', '-0.041687883', '0.11836031', '-0.03371103']
120, ['-0.061410174', '-0.22898212', '0.12505895', '-0.06390998', '-0.010209767', '0.09227828', '0.03915275', '0.19794662', '-0.021594511', '-0.04293844', '0.028206915', '0.07185334', '-0.34397045', '-0.027359787', '0.026530733', '0.013529916', '-0.0070427987', '-0.16721249', '0.045585938', '-0.055312086', '-0.09390632', '0.14149037', '0.19543909', '-0.030355606', '0.011660828', '-0.1327422', '0.21862578', '0.0118946275', '-0.0037258219', '0.069367394', '-0.20009498', '-0.019177256', '0.02617498', '-0.089875996', '-0.04243186', '-0.106573164', '-0.061594907', '0.19161311', '-0.16159433', '-0.23364478', '0.1938668', '-0.15963545', '0.08619557', '0.19434066', '-0.0026324226', '-0.04624123', '-0.015972566', '0.095299445', '-0.0322038', '-0.013334131']
121, ['-0.09966894', '0.18660176', '0.027794296', '0.009009509', '-0.029490352', '0.024799611', '0.17259465', '0.17186442', '-0.085743435', '0.20526624', '-0.054957375', '-0.2406401', '-0.00035762388', '-0.38744873', '0.07197967', '0.005551515', '0.15034725', '-0.09862358', '0.13312893', '0.006745239', '-0.060007956', '0.083228104', '-0.1615685', '0.06174966', '-0.05283753', '0.16310483', '0.070457354', '0.094143935', '0.005313559', '-0.15361157', '-0.013175287', '0.07513512', '0.09310283', '-0.01726282', '-0.06485689', '-0.06363311', '0.11955614', '-0.40015185', '0.056656003', '0.02528128', '0.06342638', '0.0020524408', '-0.10669581', '-0.07062151', '-0.20748976', '-0.03980296', '-0.10833348', '-0.13010406', '-0.005682126', '-0.2114216']
122, ['0.2814772', '-0.21773088', '-0.06594871', '-0.09698278', '-0.041066643', '0.2063347', '0.03790586', '0.009436878', '0.325839', '-0.17979331', '0.17040648', '0.031949345', '0.024060056', '0.008590187', '-0.011841827', '0.04406628', '-0.2252143', '-0.12198257', '0.17035462', '0.17547853', '-0.14725888', '0.09381581', '0.17051283', '0.020598631', '-0.060654726', '-0.13507573', '0.020518064', '0.11899249', '-0.09101458', '-0.22312157', '0.12888299', '0.0027569996', '0.059319437', '0.16126405', '-0.15360284', '0.13656317', '0.26343235', '0.015972039', '0.42592618', '0.0720578', '0.22866286', '0.098462306', '0.064210914', '-0.107495576', '0.26328757', '0.13086903', '-0.09244436', '-0.085245356', '0.07925867', '0.11800069']
123, ['-0.006717157', '0.17029673', '0.022136513', '0.06549046', '0.124192804', '0.047504667', '0.14718805', '-0.08747528', '0.052062623', '0.19595943', '0.11518511', '0.0019521856', '0.2730573', '0.0456652', '-0.08539268', '-0.007571217', '0.04076317', '0.13407847', '-0.1515581', '-0.24202193', '-0.1754477', '-0.22772248', '0.07875727', '-0.00077544886', '-0.022173217', '0.1878161', '-0.06516849', '0.25792587', '0.018742528', '-0.09298055', '-0.018040147', '-0.13179149', '0.1597687', '0.04734686', '0.19229363', '-0.03383466', '0.0278214', '-0.016824331', '0.004873193', '-0.06597236', '0.17328185', '0.0064018434', '-0.014974242', '0.0015869234', '-0.044267863', '0.096328445', '0.18116823', '0.0015564966', '-0.07036455', '0.03850409']
124, ['-0.14746618', '0.00030861626', '-0.2791661', '-0.02745206', '-0.21915811', '-0.11498327', '0.0024830007', '-0.026382716', '0.1357757', '-0.09847588', '0.026305739', '-0.11035341', '-0.09649003', '0.14518544', '0.18875118', '-0.022662306', '-0.086262226', '-0.08892725', '-0.08313152', '0.19121644', '0.21764722', '-0.17114653', '0.109144695', '0.007345893', '-0.1037403', '0.17235523', '0.09009719', '-0.001286886', '-0.01692639', '0.24333805', '0.12272142', '0.090307675', '-0.14318736', '0.033226125', '-0.06254102', '-0.05741321', '0.12350919', '-0.0716281', '-0.3126364', '-0.05562437', '-0.26811188', '-0.22511107', '-0.11255695', '-0.26929948', '-0.14793865', '0.07186947', '0.14248559', '0.033784036', '-0.07882168', '0.12733705']
125, ['-0.11598453', '0.04265786', '-0.12708531', '-0.05156314', '0.1922544', '-0.03741186', '-0.061955016', '-0.22668868', '-0.13408865', '-0.08646336', '0.039246257', '-0.055738848', '-0.13972007', '0.046597965', '-0.0024439867', '0.074169844', '0.24853697', '0.24632336', '-0.057340614', '0.1154216', '0.35699967', '0.27797225', '-0.20867176', '0.1507825', '0.0387362', '0.017406866', '-0.17651989', '-0.20398617', '-0.20496985', '-0.056691147', '-0.009649349', '-0.07759172', '0.025077669', '-0.045726605', '0.045251567', '0.055134904', '-0.19662058', '-0.044170506', '0.20136099', '0.1071295', '0.055938773', '-0.13797566', '0.13448708', '0.12718384', '0.07336512', '-0.0895923', '0.20165333', '0.16391389', '0.05764343', '-0.058329377']
126, ['-0.030051023', '0.061708353', '0.05465579', '0.03625521', '-0.15254351', '0.10005639', '0.095863536', '0.11429651', '-0.124036334', '0.09140261', '-0.09019772', '0.1669751', '0.12557618', '0.30448028', '-0.20812234', '0.12058066', '-0.13577855', '-0.031196136', '-0.06738221', '0.3190579', '0.17244275', '-0.03942244', '-0.13696735', '0.12122141', '0.090445876', '-0.24235035', '0.04069321', '-0.18050979', '0.10357365', '-0.09426442', '-0.13762502', '0.24049535', '0.2696711', '0.22968858', '0.16106111', '-0.1407084', '0.10992988', '-0.13063519', '-0.19342422', '0.2962168', '-0.1304886', '0.17867559', '0.16074985', '0.21935406', '-0.11813172', '0.209481', '-0.19806452', '-0.035400018', '0.00610039', '0.13369232']
127, ['0.19105598', '-0.19979817', '-0.027097674', '0.088566504', '0.06377534', '-0.36747268', '-0.069536194', '-0.07915867', '-0.111957446', '-0.012818556', '-0.038260356', '0.19000463', '0.19204843', '-0.15582563', '-0.13783894', '-0.2019518', '-0.21101965', '-0.01935141', '0.2049995', '0.028889185', '-0.37275082', '-0.016159032', '-0.018901542', '-0.17354453', '0.045191914', '0.051523782', '0.17726646', '-0.0057352134', '-0.010173339', '-0.036063183', '-0.048697285', '0.021352056', '-0.28199893', '-0.16781135', '0.14873193', '0.013617712', '-0.22335106', '-0.1663012', '0.009121615', '0.11494865', '-0.2380513', '0.14218368', '-0.03620465', '-0.058745224', '-0.19579522', '-0.007710848', '0.0067548803', '0.035694167', '0.25147095', '0.09248675']
