0, ['-0.012332401', '0.0022903655', '0.04035098', '0.058433246', '-0.020073267', '0.07773748', '-0.0034577255', '-0.036466815', '0.03997783', '0.0036900097', '0.08278196', '-0.03578387', '-0.006971872', '0.02839264', '0.023416553', '-0.05267312', '-0.030122502', '0.028101357', '0.045435287', '0.00024914477', '-0.04029411', '-0.023227392', '-0.07764551', '0.04670083', '0.009738537', '-0.020542817', '-0.0598119', '-0.014051', '-0.031263404', '0.046920136', '-0.035930745', '-0.06623698', '-0.03377111', '-0.021263203', '0.08317772', '-0.062018298', '-0.030149482', '0.045859896', '-0.059061293', '-0.005648525', '0.046039034', '0.029437074', '0.034462474', '0.010279477', '-0.04916061', '0.01534955', '0.015939271', '0.085192256', '-0.057146847', '-0.03460517']
1, ['-0.05118713', '-0.036097854', '-0.015431026', '0.13350551', '0.024832828', '0.062534735', '0.034998666', '-0.08742736', '0.074370384', '-0.060909882', '0.08112489', '-0.032145534', '0.05932323', '-0.07498367', '-0.029504223', '-0.02543468', '-0.010840083', '-0.0032933045', '0.024180157', '0.042294927', '-0.03988154', '-0.004592442', '-0.080998115', '-0.0804688', '0.061031148', '-0.046867255', '0.017054616', '-0.004793133', '-0.04616935', '-0.07643245', '-0.017541973', '-0.027065473', '-0.0018896686', '-0.025203975', '0.012756943', '-0.09284188', '-0.017055633', '-0.041618146', '0.00860809', '0.05026292', '0.017210633', '0.03127219', '0.06878761', '-0.05643778', '0.06876227', '-0.022225875', '-0.013000463', '0.11333859', '0.0010277487', '0.01699032']
2, ['-0.026365304', '0.026255673', '-0.03401646', '0.08187786', '0.04635899', '-0.018924924', '0.012164742', '-0.059592634', '0.073167495', '-0.07129264', '0.018055957', '0.119098544', '-0.03465996', '0.06730809', '-0.02192443', '-0.08715708', '0.006831191', '-0.03081502', '-0.100391746', '0.030556401', '0.053370662', '-0.0838562', '-0.019390685', '0.03593529', '0.0011204124', '-0.041105084', '0.0038762544', '-0.036361862', '-0.002023278', '-0.038927495', '0.0009753614', '0.035284437', '0.026604895', '0.06191725', '0.05885185', '-0.0210421', '0.003287074', '-0.0042009526', '-0.11018409', '0.028753549', '0.038337078', '0.030740568', '0.023658121', '0.03076589', '0.06881182', '-0.0208571', '0.019685896', '0.00075494486', '0.059476893', '-0.015093166']
3, ['0.004008282', '0.06717485', '0.07553849', '0.11168731', '-0.064105034', '0.056998014', '-0.010631109', '-0.11093683', '0.06525138', '-0.07444423', '-0.0075064814', '0.07583959', '-0.0028606066', '0.12500371', '-0.023726549', '0.011549339', '0.016099047', '-0.013471981', '-0.029019078', '-0.07306065', '0.012154621', '-0.040919017', '-0.040560372', '0.092431605', '-0.031322833', '-0.009684872', '0.097479686', '0.06946084', '0.07351237', '-0.10344526', '0.007459634', '0.064603806', '-0.016973056', '0.018311948', '0.07736921', '0.0733714', '0.053118706', '-0.053068105', '-0.13032746', '-0.01619098', '0.06542797', '0.07686732', '0.057448413', '0.06515679', '0.09822925', '-0.018723534', '0.014589158', '-0.08583608', '0.07157359', '-0.08337354']
4, ['-0.060615666', '0.06493603', '-0.0073884497', '0.07137588', '-0.037885398', '-0.015404041', '0.040723223', '0.049674895', '-0.06564686', '-0.04849034', '-0.0174582', '-0.027780244', '0.059299737', '-0.016655823', '-0.013850509', '0.025507294', '0.07424808', '0.003938155', '0.024075007', '0.034113992', '-0.054585483', '-0.017814146', '-0.114430636', '-0.08421589', '0.08112926', '-0.061578985', '0.0448187', '0.006442698', '-0.086125694', '-0.035233486', '0.10381585', '-0.005582372', '0.047540873', '0.08339448', '0.0417394', '-0.054316618', '0.02748365', '0.03229901', '-0.021134136', '-0.0512098', '-0.03247593', '0.060005113', '0.034962192', '-0.025840757', '0.04462008', '0.038534414', '-0.030239025', '0.03884872', '-0.10117032', '0.006841841']
5, ['0.048670307', '0.023428645', '-0.018536517', '0.16427365', '-0.08363165', '0.04832094', '-0.07887479', '-0.08625595', '0.046852153', '-0.046197917', '0.006307158', '0.07385839', '-0.032901477', '0.13078447', '0.11043308', '-0.085036166', '-0.032882653', '0.026468046', '-0.15798627', '0.010679573', '0.036933534', '-0.09325381', '0.061360538', '0.014475613', '-0.023238407', '0.020016342', '-0.027508048', '-0.05334139', '-0.005870145', '-0.02507994', '0.007255372', '-0.0451475', '-0.049140763', '-0.07324655', '0.10503665', '0.07479728', '0.045235727', '0.043023612', '-0.15523143', '-0.009398601', '-0.04291868', '0.010510614', '0.0033990294', '0.00584781', '0.09333255', '0.065849535', '0.00052181695', '-0.038694076', '-0.03558362', '-0.03085137']
6, ['-0.06121242', '0.09627381', '-0.09432395', '0.04771757', '-0.090062164', '0.011921006', '-0.0020976153', '0.005480553', '-0.011983447', '0.012891094', '0.06290446', '0.0462651', '-0.0005888596', '0.037297193', '0.024494756', '-0.114850596', '-0.027562078', '0.067038596', '-0.07087281', '0.06819977', '0.013366315', '-0.029231425', '0.006661649', '0.09081', '-0.025152465', '-0.042886578', '-0.12395133', '-0.05348078', '-0.040668193', '0.043181557', '0.05581686', '-0.04343324', '-0.07020087', '0.05588523', '0.031566378', '-0.12758102', '-0.008147466', '0.05160158', '0.04332574', '0.026850719', '0.032646097', '-0.05923497', '0.068059936', '0.05035283', '-0.06790401', '0.046549186', '-0.053109825', '0.032703247', '0.06562904', '0.03645312']
7, ['-0.025063008', '0.016021607', '0.06900746', '-0.0073208516', '0.10976201', '0.037555292', '0.011457689', '0.024921348', '0.16960616', '-0.019045992', '0.13324016', '-0.06853487', '0.0019465106', '0.028585235', '-0.007005248', '-0.068493836', '-0.007188508', '-0.05255827', '0.023994135', '0.08602344', '0.0021495502', '-0.07281706', '-0.05938315', '0.036403995', '-0.06438017', '-0.027374549', '-0.018689668', '-0.06807212', '-0.116838396', '0.09480905', '-0.010499735', '-0.07680392', '0.11110364', '0.04685742', '0.07374883', '-0.01060608', '-0.057647824', '0.11017557', '-0.04579687', '0.010850733', '0.10593444', '0.0627783', '0.0038544864', '0.024675522', '-0.0009501916', '-0.09405756', '0.029095395', '0.0629697', '-0.12526518', '-0.0950095']
8, ['-0.1266016', '0.042815235', '-0.118602164', '0.069663905', '0.0760727', '-0.03675326', '-0.028941864', '0.063458316', '0.044889834', '-0.012490547', '0.047331657', '-0.0606768', '0.033457983', '-0.014229958', '-0.074588925', '-0.05680111', '-0.09847178', '-0.04820862', '0.065244965', '-0.026024517', '-0.026258755', '0.12453468', '-0.07090571', '-0.113291174', '-0.14568229', '0.06517601', '-0.10497921', '-0.05998583', '0.043562166', '0.07571119', '-0.12863149', '0.020427516', '0.031692106', '-0.06315734', '-0.032645233', '0.05423995', '-0.07844342', '-0.068474434', '0.0907983', '-0.095922954', '-0.041748676', '-0.0039932285', '-0.009029765', '-0.009258571', '-0.01658123', '0.05962039', '-0.027393874', '-0.039603364', '0.0070331227', '-0.061612237']
9, ['0.09131866', '0.09909367', '-0.113432765', '0.017233364', '0.056906357', '-0.019547667', '-0.022901034', '-0.020639315', '-0.09449485', '-0.050388914', '-0.022902325', '0.0017750676', '-0.0073180525', '-0.011161559', '0.08690848', '-0.01712716', '0.1306236', '0.13471334', '-0.028445886', '0.030113587', '0.04008425', '-0.043072358', '-0.118015535', '0.06776435', '0.095122844', '0.049206313', '-0.01656577', '-0.017259998', '-0.010729545', '0.0795343', '-0.051615655', '-0.05306889', '0.060417987', '0.07372821', '-0.10517458', '0.017496636', '0.019675594', '0.013150961', '0.0026143228', '0.031693324', '-0.029536918', '-0.02616381', '-0.050668888', '0.07459764', '-0.061216358', '-0.014503272', '0.007613292', '-0.014482115', '0.06339124', '-0.047367904']
10, ['-0.075530104', '0.03294212', '-0.063662186', '0.0235315', '0.008376911', '-0.043089397', '-0.03083079', '0.015193318', '0.05947686', '-0.036938857', '-0.025588725', '-0.041575704', '-0.033314265', '-0.012844813', '-0.034964267', '0.07979794', '0.17642266', '0.079972096', '-0.07519947', '-0.01860958', '0.08399385', '0.10593782', '0.03842658', '0.11667953', '-0.046766322', '0.056332234', '0.048348945', '-0.023727637', '-0.09311691', '0.017318482', '-0.09494839', '0.035501737', '0.0762547', '-0.05718206', '-0.023158211', '0.0018808284', '-0.002615671', '-0.08694825', '-0.030232133', '-0.104230314', '0.001541703', '0.057106636', '-0.13835907', '0.02672978', '-0.06839177', '0.03732167', '0.05943805', '-0.009589937', '-0.07088229', '0.006263264']
11, ['0.01199748', '0.08955383', '-0.028333478', '-0.056822244', '0.117377095', '-0.079420984', '-0.03582441', '0.055305712', '0.14595804', '-0.01766325', '-0.045812167', '-0.0010512621', '0.04237417', '0.014915366', '-0.09227406', '0.011531019', '0.12994426', '-0.07937684', '0.013428846', '0.07514623', '0.043299083', '-0.021078026', '-0.05664973', '-0.032592665', '-0.051697355', '-0.023373015', '0.13733038', '0.016878799', '-0.062043868', '-0.06103497', '-0.007837592', '-0.010178447', '0.2009484', '0.11893039', '-0.04539587', '0.07439689', '0.031108983', '-0.021192782', '-0.0065288013', '-0.07525757', '0.047881972', '0.061246432', '-0.066759445', '0.025124073', '0.11139202', '-0.10630388', '0.060149945', '0.0146091515', '-0.03299045', '-0.034961242']
12, ['0.14015071', '-0.005377247', '-0.099406615', '-0.07740654', '0.08290009', '-0.060337372', '0.014888967', '0.034222025', '0.101070926', '0.08823413', '-0.0753218', '-0.15996568', '-0.024006741', '-0.04608435', '-0.061882954', '-0.008700249', '0.063743345', '-0.06526407', '-0.05708023', '-0.026269153', '0.07134449', '0.12243824', '0.017231666', '-0.02318557', '-0.15381448', '-0.06866107', '0.01776954', '0.013983626', '-0.060761116', '0.07395266', '0.02138603', '-0.115400456', '-0.003048645', '-0.015124886', '-0.005303573', '-0.04926175', '0.077297084', '-0.049892902', '0.050608516', '0.043541864', '0.04129491', '0.028978337', '-0.035546843', '0.03511332', '0.21523863', '0.05997623', '-0.08228943', '0.012827928', '0.009422159', '-0.0600959']
13, ['-0.0027680674', '0.056550782', '-0.103688195', '-0.0026403994', '0.022959253', '-0.04343664', '-0.04529616', '0.016741935', '0.038538855', '-0.0036037469', '-0.0033420126', '-0.035580803', '0.01615093', '-0.03742146', '-0.020557182', '0.0037223871', '0.066926435', '0.009409322', '-0.008038434', '0.03655502', '0.032715794', '0.062363885', '-0.04467483', '-0.026305243', '-0.044135768', '0.035903625', '0.015106286', '-0.033958092', '-0.011978993', '0.06742558', '-0.052858807', '-0.042404257', '0.05622751', '-0.0067039276', '-0.040210318', '0.028693797', '0.013393279', '-0.014426581', '0.019997241', '-0.045116663', '-0.012692742', '0.0017153543', '-0.036013126', '0.013064967', '0.023450805', '0.010223393', '-0.011418588', '-0.009266059', '0.014419458', '-0.02077731']
14, ['-0.015671968', '0.12046037', '-0.00252171', '-0.13390201', '-0.0187341', '0.0015260625', '-0.03113543', '-0.015036076', '-0.0675479', '0.0034331388', '-0.06282979', '-0.0056262296', '0.0011490099', '-0.09423417', '0.068176284', '-0.024663253', '-0.055086654', '-0.08030983', '0.033123214', '0.10147239', '0.053660408', '-0.029827325', '-0.02243512', '-0.14180505', '0.046482176', '-0.017491281', '-0.021994442', '-0.075626574', '0.038820907', '0.1227081', '0.0065284967', '-0.035141893', '0.06773947', '0.041035276', '-0.068685174', '-0.015312954', '0.026828911', '0.07859747', '0.11400395', '-0.022375736', '-0.06977531', '0.002983533', '0.017091334', '-0.028628534', '-0.04068749', '0.071070306', '0.013449238', '-0.04573985', '0.023706408', '0.010245544']
15, ['-0.04686458', '0.042010702', '-0.07733583', '-0.023793861', '-0.05824725', '-0.116488144', '-0.08994614', '-0.0023229073', '0.07573969', '0.09112135', '-0.0020443238', '-0.028561689', '0.046960376', '-0.056655', '0.038177848', '-0.028012918', '0.10970777', '0.0026096285', '0.1041167', '0.012571386', '0.04849129', '0.050363515', '-0.08288149', '-0.04635175', '-0.018290896', '0.12091289', '0.09616929', '-0.046143115', '0.010489361', '0.08420436', '-0.102161445', '-0.04580577', '-0.016011827', '-0.053722072', '0.00976728', '0.10451907', '0.015559519', '-0.028690547', '-0.026847387', '-0.03176112', '-0.0714516', '0.006921115', '-0.028462484', '-0.07560511', '0.06292023', '-0.00967343', '0.026524348', '0.06728484', '0.027506614', '-0.032661416']
16, ['-0.039877538', '-0.010728795', '0.041678', '0.05803399', '-0.08708553', '0.0209253', '0.005441832', '0.06266016', '0.081719786', '0.013211357', '-0.016279407', '-0.0832323', '-0.04567996', '0.04434435', '-0.02611294', '-0.02842183', '0.01796481', '-0.017356724', '0.044725835', '0.02434212', '0.039014585', '0.010681202', '0.04441265', '0.022301368', '0.013744422', '0.056759737', '-0.03132237', '0.054914746', '0.02172393', '-0.018938256', '-0.089744665', '-0.019339059', '0.076672', '0.12059703', '-0.03876984', '-0.0008196753', '0.026495676', '0.028713053', '-0.0038140651', '0.027993925', '0.0040288623', '-0.007946734', '-0.0070142113', '0.029191786', '0.019226376', '-0.041873623', '-0.019798763', '-0.026473796', '-0.0008996401', '0.022072257']
17, ['-0.13689896', '-0.08444867', '0.06033263', '0.08368844', '-0.09305067', '0.014102458', '0.06251004', '0.05269238', '0.03937246', '-0.0739318', '-0.0711515', '-0.070709005', '-0.0785259', '-0.03574988', '-0.08179244', '-0.004996169', '0.055688795', '-0.056931563', '-0.020511148', '-0.032259014', '0.067847095', '-0.13278267', '-0.01773253', '0.063988164', '0.050682075', '-0.022583475', '0.04497764', '-0.050086427', '-0.013272905', '-0.0395811', '-0.09099138', '-0.051454227', '0.014725361', '0.15902124', '0.003112377', '-0.014512768', '-0.026672497', '0.084580265', '-0.043931033', '-0.058311544', '0.09662483', '-0.035416547', '-0.019357227', '0.118795745', '0.07014835', '0.0059049632', '0.13528207', '-0.03645241', '0.047508184', '-0.03264972']
18, ['-0.13823497', '0.115913294', '0.09257327', '0.0734145', '0.006316768', '-0.11654796', '-0.021902151', '-0.069458686', '0.20983069', '-0.03918448', '0.07675872', '-0.117797434', '0.017719511', '0.06828707', '0.045733605', '0.029224548', '0.07025714', '-0.013070912', '-0.044444054', '-0.100635014', '-0.07498248', '-0.031440884', '-0.032037828', '-0.002314174', '0.051182237', '0.03655912', '-0.01381305', '0.09794114', '-0.03382516', '-0.015590952', '-0.10535219', '-0.024033302', '-0.025211556', '0.07058492', '-0.13190751', '-0.023528319', '0.033550367', '-0.041060746', '-0.113676205', '0.03735308', '0.027700037', '0.087617226', '-0.015084233', '0.013970084', '0.0061852178', '-0.08168285', '0.045597233', '-0.11172935', '-0.103363544', '-0.06693029']
19, ['0.035886932', '-0.08525063', '0.035111263', '0.06907076', '-0.0321753', '-0.12718643', '-0.062136784', '0.067042634', '0.055370945', '0.03478485', '0.029403232', '-0.01388775', '-0.059523053', '-0.030538246', '0.03846376', '0.03062249', '0.042813003', '-0.026822343', '0.05775989', '-0.017728454', '-0.08645426', '-0.025703924', '0.090994634', '0.07959198', '-0.054420926', '0.10802468', '-0.018124778', '0.09303139', '0.022073714', '-0.051606074', '-0.027535224', '-0.09952065', '0.053023387', '0.087809496', '-0.02468915', '0.0033027257', '0.04710056', '0.025344718', '0.043134984', '-0.0512494', '0.055436593', '-0.05006247', '-0.037215296', '0.10041662', '-0.047022488', '0.06530018', '-0.0699797', '-0.07273626', '-0.014255549', '-0.00028942947']
20, ['0.0098628355', '-0.010908892', '0.029832993', '0.054534167', '0.04076068', '-0.041863535', '0.040011518', '-0.07091869', '-0.012280484', '-0.053966433', '-0.0020732495', '-0.066733696', '0.0039412905', '-0.044719663', '-0.024505664', '0.047539726', '-0.047517307', '-0.08455106', '0.057829093', '0.024503585', '8.178964e-05', '-0.02695636', '0.09872192', '0.0015861057', '-0.013998899', '0.12484689', '-0.021150867', '0.07731223', '-0.062262833', '-0.031851627', '-0.03802436', '0.038268466', '0.07636667', '0.085447736', '-0.0023222018', '0.005482924', '-0.010807789', '0.030482333', '-0.0068942364', '-0.042342037', '0.009063707', '0.065945536', '-0.07711741', '-0.016820375', '-0.01997328', '-0.062658325', '0.067557685', '-0.09928978', '0.04934716', '0.019496923']
21, ['-0.0069701932', '0.015972223', '0.046356935', '-0.060684923', '-0.06618029', '-0.026521962', '-0.084754795', '0.070673324', '0.034286372', '0.008339413', '-0.053071655', '-0.011290937', '-0.06686411', '0.066689126', '-0.08217869', '-0.09969031', '0.09942596', '-0.039416894', '0.01949514', '-0.09068548', '0.011821819', '0.040924624', '0.023397794', '0.02202217', '0.045719422', '0.10398334', '0.095072046', '0.0862937', '0.004996334', '-0.048878618', '-0.03745188', '-0.060136374', '0.047078487', '0.0974982', '-0.08099936', '-0.018736964', '-0.0007613138', '0.030681824', '0.03962064', '0.020543674', '0.111098684', '-0.061007366', '0.00018101522', '0.10871336', '-0.034383558', '-0.031176336', '0.0028037676', '-0.0053270664', '-0.031770635', '-0.001495385']
22, ['0.009926669', '0.07227929', '0.16571356', '0.037328', '-0.03503014', '-0.034893114', '0.017826127', '0.13305438', '0.027687903', '0.026905853', '-0.08127089', '0.004776093', '-0.07720005', '0.13073438', '-0.10369504', '-0.07313748', '0.046773214', '0.009282868', '-0.0054761297', '0.11959425', '0.13731523', '0.017009815', '0.0639472', '0.017662035', '0.07317039', '0.041655295', '0.018308833', '0.017439272', '0.012692503', '-0.023214636', '-0.07712963', '-0.06692412', '0.15643032', '0.08543909', '-0.09985296', '-0.014776459', '-0.0020832347', '-0.026935803', '0.022883222', '0.07336261', '0.0533917', '0.006186156', '-0.03010978', '-0.00857894', '-0.029685838', '0.0049366006', '-0.05560485', '0.051192768', '-0.029326348', '0.07559922']
23, ['-0.012392082', '0.06228437', '0.043771476', '-0.010189015', '-0.0251688', '0.05697195', '-0.02553943', '0.026541727', '0.15522645', '0.020408032', '-0.010184017', '-0.05829234', '-0.010650112', '-0.10383853', '0.048445236', '-0.08810521', '-0.0028677837', '-0.08836346', '0.051963', '-0.013395178', '0.063944615', '0.0028850564', '0.06325983', '-0.025867155', '-0.057300232', '-0.16262813', '-0.011114312', '-0.061920594', '0.028258944', '0.027902512', '0.31510553', '0.065844096', '0.049712926', '-0.09440989', '0.01844111', '0.010130952', '-0.03677146', '0.01058208', '-0.009838819', '-0.012058208', '-0.015594413', '0.004805175', '0.07642335', '0.07745417', '0.0588865', '-0.10408263', '-0.04438427', '0.062212385', '0.037574463', '0.06072282']
24, ['0.05516378', '0.038138192', '-0.038189087', '-0.040992953', '-0.048800167', '-0.0640966', '0.023905257', '0.022284701', '0.028718267', '-0.07396525', '-0.047748014', '0.02031646', '0.063750125', '-0.08561919', '-0.06058229', '-0.09248104', '0.014208933', '0.00011982898', '-0.025853572', '0.061827842', '-0.11486141', '-0.07780425', '0.02614089', '0.0009683846', '0.09856482', '-0.10247515', '0.11892483', '-0.026911886', '-0.028433977', '-0.067654535', '0.044737782', '0.016982984', '-0.061119765', '-0.081425495', '-0.011109511', '0.027028708', '0.05114279', '0.019391162', '0.023577958', '0.011403706', '-0.06503412', '-0.012668606', '-0.0025503174', '0.020808632', '-0.016053123', '-0.028518327', '-0.054877397', '-0.03863978', '0.030170256', '0.07655883']
25, ['0.034304146', '-0.052795023', '0.06656382', '0.022756211', '0.093048446', '0.044284545', '0.035414837', '-0.012899453', '0.012673335', '-0.06572395', '0.018509531', '0.044953406', '0.0008176086', '-0.024920512', '-0.05349014', '-0.030376848', '0.02819618', '0.024849335', '0.045740124', '-0.03588313', '-0.079782985', '-0.031604793', '0.020863183', '-0.0051995963', '-0.0045243995', '0.04561492', '0.04946939', '-0.043562714', '0.010454252', '-0.05504255', '-0.031600896', '-0.0038179066', '0.049721643', '-0.067439936', '0.049104847', '0.11991554', '-0.03816529', '-0.073263556', '0.02070621', '-0.05172276', '-0.032384407', '0.0064388365', '-0.024969038', '-0.03697354', '0.06725232', '-0.023197114', '-0.026525136', '0.0067805913', '-0.10183803', '0.06124749']
26, ['0.061206616', '-0.032467946', '0.010979076', '0.033300895', '-0.08644619', '-0.052050497', '0.07373352', '0.09469645', '-0.07866975', '-0.029329056', '-0.030505115', '0.07278308', '-0.06962114', '-0.013764663', '-0.025234831', '-0.049823377', '-0.036916595', '0.010783312', '0.007677079', '-0.01092072', '0.030198995', '-0.0007215659', '0.030015042', '0.009453557', '0.022267884', '-0.050527412', '-0.032711126', '-0.02862057', '-0.0059817377', '-0.030910619', '-0.05825733', '-0.041302595', '0.0486486', '-0.04482529', '-0.023299405', '-0.014056224', '-0.0503402', '-0.046789203', '0.008376202', '-0.060853567', '0.022159642', '-0.045440495', '0.089056715', '-0.01623624', '0.00012369177', '0.024039892', '-0.054440908', '0.04465772', '-0.08710168', '0.06439887']
27, ['-0.065080024', '0.072886996', '0.0033191293', '0.040930565', '0.020156378', '0.013377343', '-0.011159488', '-0.02441773', '-0.049481377', '-0.053351894', '0.0021214534', '-0.02006548', '-0.005777671', '0.02049814', '-0.012261855', '-0.031341597', '0.012050471', '-0.035293978', '-0.0037411612', '-0.06226928', '-0.08015083', '0.043242168', '-0.033006314', '0.020185327', '0.060931783', '0.023196455', '-0.023833308', '-0.0070583373', '-0.053424604', '-0.0103657255', '-0.066911295', '-0.012627835', '0.025544157', '-0.0027468097', '0.06611097', '-0.0049610515', '-0.016330393', '-0.04015379', '-0.007972671', '-0.040602945', '-0.021659767', '0.0030608764', '0.08230842', '-0.005707381', '0.017529096', '-0.0028047378', '-0.042129673', '0.0049180253', '0.009269086', '-0.021560604']
28, ['-0.00026053205', '-0.033763733', '-0.0010403444', '0.011444537', '-0.028532876', '-0.035453506', '0.060276337', '-0.056735367', '-0.058197163', '-0.00640252', '0.041205097', '0.013257412', '0.005870863', '-0.08371055', '-0.012226208', '-0.050216027', '-0.015574328', '0.017324207', '-0.027095975', '0.026587749', '-0.10572825', '-0.0471522', '0.019960565', '0.03801014', '-0.019455772', '0.051541064', '-0.05673712', '-0.10067262', '0.058012888', '0.028609848', '0.03564121', '0.014836102', '-0.0095756585', '-0.0057129744', '-0.016256899', '0.021043425', '-0.08503866', '-0.11879909', '0.07270865', '-0.037523523', '-0.022765545', '-0.026896002', '0.02035136', '0.03665127', '-0.05247543', '-0.01488235', '-0.0003220737', '-0.016688364', '-0.063043654', '0.051961005']
29, ['0.03050439', '0.042719446', '-0.009064176', '-0.019058593', '0.029938325', '-0.050054483', '0.072569236', '0.1372081', '-0.02056801', '-0.124111675', '0.028326187', '-0.10744754', '0.0156026', '-0.019562062', '-0.046860963', '-0.03529859', '0.10416559', '-0.04930023', '-0.11961233', '0.079749', '-0.07559632', '-0.05998158', '-0.020819392', '0.061591867', '0.008263271', '-0.016534457', '-0.05238686', '-0.022173142', '-0.023677103', '-0.0106608495', '0.10544497', '0.020123536', '0.09550713', '-0.06302074', '-0.052728213', '0.07308563', '-0.055389367', '-0.102629565', '0.0668323', '0.006903098', '-0.021722935', '0.016716424', '0.048383072', '-0.047304746', '-0.09879229', '0.030829454', '0.025989728', '0.08083335', '-0.1488357', '-0.04374466']
30, ['0.01872853', '0.057377648', '-0.045491032', '0.09393272', '0.13517115', '-0.026849087', '-0.10552095', '-0.03120576', '0.049151983', '-0.060584564', '-0.046414077', '0.0583949', '-0.019972842', '-0.019372918', '0.047588125', '0.016676078', '0.0054420237', '-0.051217515', '0.010017534', '0.015697995', '-0.021578718', '0.10876628', '-0.006796288', '-6.767722e-05', '-0.011342366', '0.008805199', '-0.027073706', '-0.032775376', '0.018568374', '0.12465756', '-0.10721551', '-0.01686332', '-0.07453663', '-0.001002418', '0.02901169', '-0.0034425186', '-0.096468575', '-0.11392489', '0.02125022', '-0.088158764', '-0.037580144', '0.0130254', '-0.07341511', '0.039753325', '-0.02252587', '0.008070455', '-0.16112791', '-0.024994021', '0.029774962', '-0.00039020387']
31, ['-0.088820234', '-0.039379988', '-0.05134665', '-0.021866532', '0.066190794', '-0.0706719', '0.069661416', '-0.09186437', '0.00635999', '0.05142896', '0.040462486', '0.083670065', '-0.07218835', '-0.04351382', '-0.09052458', '0.021186726', '0.002763509', '0.061245095', '0.006104093', '0.07695593', '-0.025462758', '0.05194286', '0.09138649', '0.05617389', '0.06664732', '-0.07562012', '-0.02709642', '0.035665415', '-0.0027835877', '-0.045558274', '0.070130035', '-0.013933474', '0.09485197', '-0.086720966', '0.025390321', '0.057946794', '-0.086730056', '-0.0049904305', '0.026954267', '-0.08201708', '-0.009494837', '-0.029111745', '-0.05070116', '0.05554163', '-0.09273336', '0.046790015', '0.039158065', '0.0022194725', '-0.0039938884', '-0.032768715']
32, ['-0.08178526', '-0.02532598', '-0.10846294', '-0.05308417', '-0.020880383', '-0.121293694', '0.033858918', '-0.04904907', '-0.10423924', '0.07992176', '0.064803354', '-0.008392633', '-0.074787445', '0.033395085', '0.038064342', '-0.019375471', '0.08338063', '0.089910075', '-0.00046923428', '-0.14218369', '0.020555245', '0.007165747', '0.07451213', '-0.0037813215', '-0.0891778', '0.061582584', '-0.036261052', '-0.016652057', '-0.10619958', '0.010924303', '0.055308014', '-0.08000641', '-0.079704024', '0.009809131', '-0.088237464', '0.04390997', '-0.020720707', '0.10549091', '0.16125746', '0.14110522', '0.062939554', '-0.007524205', '0.0024622662', '-0.043642547', '0.19463243', '-0.021752754', '-0.05162702', '0.021864165', '0.068059534', '-0.081414975']
33, ['-0.022607949', '-0.0063318275', '-0.030540168', '-0.049901295', '0.024786731', '-0.041939676', '0.0391693', '-0.006976132', '-0.028272685', '0.05581352', '-0.02976076', '-0.04669785', '-0.0040291427', '0.019545833', '-0.042199112', '-0.017218184', '-0.039286744', '-0.01847375', '0.022106268', '-0.01247981', '-0.07415639', '0.059318792', '0.06613608', '0.01831511', '-0.017105242', '0.010524038', '0.071250536', '-0.015836991', '-0.059914578', '-0.06768791', '0.022043338', '0.024427556', '0.01235961', '-0.04276449', '-0.035809003', '0.0053166132', '0.0001894047', '0.010470044', '-0.038908463', '0.05195657', '0.045770653', '-0.00013592125', '0.00056442095', '-0.017729701', '0.09915192', '-0.022305682', '-0.018902238', '0.06604261', '0.022621872', '-0.025603354']
34, ['-0.035896733', '-0.035316557', '-0.063167244', '-0.06522886', '0.048816692', '0.07651501', '-0.043025285', '-0.05717562', '-0.034469612', '0.020099685', '-0.006950265', '-0.041466672', '0.12528916', '0.063780814', '-0.057762854', '-0.033433776', '-0.06816334', '-0.037646204', '-0.10710357', '0.07042935', '-0.16586648', '0.09654669', '0.044137474', '0.030378724', '0.061155695', '0.01387835', '0.071646385', '-0.050000753', '0.024778496', '0.0123564135', '0.028677821', '0.047136698', '0.0115636485', '-0.04337671', '-0.03763245', '0.065438695', '-0.08792855', '-0.07580004', '-0.037144434', '-0.0030097282', '-0.005777792', '0.057391483', '-0.012374343', '0.03018159', '0.018732654', '-0.025711369', '0.028369177', '-0.006880757', '0.09431156', '-0.080066755']
35, ['-0.1173637', '0.0070062475', '0.0014401875', '0.01895058', '-0.044243027', '-0.08402977', '0.027874297', '0.026121253', '-0.06614862', '0.007031067', '0.009725418', '0.067227826', '-0.045395613', '0.065197855', '-0.007632537', '-0.066752784', '-0.054396737', '0.016881162', '0.07270025', '-0.0088116415', '-0.13587457', '0.0033066662', '0.014323353', '-0.0069564646', '0.036844563', '0.1018335', '0.0452783', '-0.03583425', '-0.031876076', '-0.054409914', '-0.088015914', '0.02945748', '0.0754961', '-0.016938005', '-0.06744746', '0.0688069', '-0.055952024', '0.036585588', '-0.054343462', '0.04624014', '0.025029354', '-0.03173207', '0.040196005', '-0.0075005195', '-0.02547574', '-0.059244398', '0.019584836', '0.070995376', '0.01458793', '-0.0016810991']
36, ['0.026764756', '0.0016362238', '-0.0030495424', '-0.08520729', '-0.0554255', '0.022330588', '-0.018404724', '0.07121744', '-0.011584595', '0.07576262', '-0.06932491', '-0.056499615', '-0.028371457', '0.11449876', '-0.012414726', '-0.025990313', '-0.08886853', '0.08150081', '0.057367906', '-0.0720361', '-0.05193259', '0.067231484', '0.014487734', '0.065920405', '-0.0024716204', '-0.04255828', '0.0008738422', '0.07992147', '0.0024960877', '-0.093745284', '-0.0521037', '-0.03980466', '0.024678059', '0.04958563', '0.014170345', '-0.05795349', '0.010650922', '0.021815967', '0.00017167669', '0.027638713', '0.0012804494', '-0.074676715', '0.04777809', '0.054320503', '0.038653262', '-0.043575153', '-0.033737134', '0.055178598', '0.0043606693', '-0.021687903']
37, ['0.07296506', '-0.09021946', '-0.06259285', '-0.08094891', '0.023990402', '-0.02063808', '-0.059752468', '-0.05553419', '-0.050801113', '0.005651661', '-0.12967841', '-0.070025414', '-0.08705137', '-0.08554437', '-0.05419308', '0.0014453485', '0.025442766', '0.0011710923', '-0.0200318', '0.10285464', '-0.07449381', '-0.030950151', '-0.08369085', '0.10525945', '-0.118057616', '-0.033608306', '0.024188915', '-0.025596133', '-0.02743818', '-0.08276654', '0.054373726', '0.023843676', '0.12936908', '0.0376488', '0.002339397', '0.029272549', '-0.12300426', '-0.023808677', '-0.0063002473', '-0.036738746', '-0.009210232', '-0.0089086415', '0.029855985', '-0.06792134', '0.12370956', '0.13355197', '-0.018196505', '0.020368552', '0.03779659', '-0.046207476']
38, ['0.10310203', '0.05937043', '-0.005433707', '-0.0038856342', '0.033434093', '0.04917334', '0.13532746', '0.03582805', '-0.009442857', '0.032678295', '-0.1269944', '-0.060448896', '0.069010004', '-0.0058337795', '-0.068412565', '-0.07397657', '-0.060501985', '0.051705923', '0.00081991614', '-0.0998832', '-0.068989776', '-0.0077015418', '0.08315749', '0.09092754', '0.0787406', '-0.08034997', '-0.026008723', '0.08475101', '-0.03616123', '-0.09657798', '0.05975211', '-0.06306698', '0.032257903', '-0.041034818', '-0.07001818', '-0.0700978', '0.01615804', '0.019388273', '-0.09948115', '0.04409983', '0.17604135', '-0.0075481413', '0.011189194', '0.07657707', '0.059489068', '0.009270899', '-0.02949827', '0.14956826', '0.06774986', '-0.0025940875']
39, ['-0.09782732', '-0.018101117', '-0.026391657', '-0.06695093', '0.0022387144', '0.05097648', '0.021718752', '0.0433396', '-0.08910434', '0.0016572964', '-0.0012862617', '0.00781913', '0.055689417', '0.07398553', '0.04530456', '0.0037950147', '-0.04300933', '0.08273593', '0.010987906', '0.05281594', '-0.007622596', '-0.0033997225', '0.026227586', '0.045265146', '-0.00026115877', '0.007665555', '0.05644465', '-0.049842004', '-0.037717696', '-0.11530601', '-0.05346632', '0.065353714', '0.025861016', '0.016521089', '-0.033489924', '0.09528522', '0.0017751066', '0.018084543', '-0.079527944', '-0.08000564', '0.028353928', '-0.030942073', '0.01715648', '-0.07306576', '-0.031669233', '-0.0024928504', '-0.017664941', '0.06629303', '0.0012999466', '-0.032280352']
40, ['-0.11111688', '-0.007558448', '-0.1266715', '-0.022532558', '0.009060611', '0.014064684', '-0.034488037', '-0.03865319', '0.027431289', '0.055199116', '-0.01391267', '-0.047286108', '0.11707317', '0.025339076', '0.02227958', '-0.027044553', '0.008452292', '0.0020226291', '-0.04284705', '0.0417069', '-0.04187285', '-0.006771784', '0.023232434', '0.031129595', '-0.108221985', '0.0094087245', '0.07286291', '0.024282446', '0.08627452', '0.06493552', '0.037443023', '-0.06597116', '0.01067157', '-0.101643026', '0.08063319', '-0.050426304', '-0.10586779', '-0.048550706', '-0.0363284', '0.028949006', '-0.09805563', '0.011570923', '0.07095414', '-0.011639939', '0.0050230916', '-0.014023401', '-0.0721118', '-0.11735705', '-0.044530075', '0.05941449']
41, ['-0.050616454', '0.030173907', '-0.04519227', '0.09391084', '-0.03409727', '-0.008695224', '-0.011928744', '0.084935576', '-0.024180148', '-0.052074086', '0.05967393', '0.111314915', '0.0402827', '0.030201156', '-0.04012542', '0.08157126', '0.01673325', '0.06802749', '-0.10285622', '-0.08996562', '-0.008590752', '-0.058336608', '0.0033776949', '-0.07778227', '-0.049734954', '-0.047715843', '-0.011153306', '0.082319476', '-0.004602195', '-0.043907613', '0.019689392', '0.05367533', '0.006316586', '-0.02442291', '0.04786935', '0.023675852', '-0.06726987', '-0.060189534', '0.08569763', '0.005916844', '0.037491202', '0.00031788278', '-0.048885874', '0.05584416', '-0.008451535', '-0.04595371', '-0.05798028', '-0.01375793', '-0.029890725', '-0.07094766']
42, ['0.08535642', '0.012161625', '-0.063017935', '0.010020985', '-0.032339178', '0.045944188', '-0.079896', '-0.094029576', '0.023684451', '0.054947983', '-0.042725414', '0.024265965', '-0.01744482', '-0.10318649', '0.09271117', '-0.04019395', '-0.058289163', '0.0026069772', '0.019020852', '0.02307625', '-0.028498922', '-0.05169', '-0.08201431', '-0.05759961', '-0.07204996', '-0.04015177', '0.01230851', '0.04527652', '-0.020665774', '-0.091559656', '0.0038461818', '0.013649446', '-0.06786993', '-0.014570255', '0.0583141', '0.027747978', '-0.09478813', '0.033063665', '0.1037854', '0.015604147', '0.1122805', '0.0037638647', '-0.026238056', '0.06271866', '0.0043499144', '-0.055179458', '0.084337175', '0.18395957', '-0.06382394', '-0.019210495']
43, ['-0.03847708', '-0.026663214', '-0.023667041', '0.0045044655', '-0.0032489437', '0.027677095', '-0.004812593', '-0.019712131', '0.029939376', '0.021726388', '-0.025304675', '-0.0016043666', '0.004430428', '-0.03288187', '0.03029073', '0.029871002', '0.0007609992', '0.0004477715', '-0.01461018', '-0.03980613', '-0.0040565557', '-0.039035104', '-0.0075862017', '-0.0017487424', '-0.011458608', '-0.043131623', '0.013437116', '0.025315668', '0.062957935', '-0.009385287', '0.040713422', '0.059605837', '-0.010285769', '-0.021182422', '0.07472269', '-0.0172341', '-0.06253247', '-0.028173843', '0.0105669135', '0.046886187', '0.009739374', '0.031816214', '-0.03817298', '0.02428677', '0.05464033', '-0.032321017', '0.009562155', '0.024025554', '-0.04213308', '0.018126799']
44, ['-0.09689102', '-0.05277338', '0.00043254028', '-0.038717337', '-0.0342972', '-0.0011709218', '-0.0013125415', '0.044559944', '-0.04675258', '-0.06129894', '-0.052103877', '0.006934856', '-0.0072273416', '-0.07389573', '0.037459478', '0.050098605', '0.0135709895', '-0.057802428', '-0.013974107', '-0.1138313', '0.030951843', '-0.047044955', '-0.011901978', '0.03925032', '0.08070907', '-0.12235983', '0.0077759717', '0.015173584', '0.03988959', '0.08863518', '0.009884365', '0.047392838', '-0.088559136', '-0.0056288443', '0.040831104', '-0.07026568', '-0.12897205', '-0.10636455', '-0.06810078', '0.11412756', '0.06500175', '0.18364033', '-0.13956344', '0.00031309325', '0.020980088', '-0.12552916', '0.05370394', '0.049116734', '-0.058404367', '-0.0112008555']
45, ['-0.027198564', '-0.16016395', '-0.08716068', '-0.025859019', '0.036045186', '-0.08927054', '-0.0011397223', '0.03310393', '0.076851025', '0.03635982', '0.014936053', '-0.05782067', '0.044011112', '-0.027564233', '0.0646433', '-0.05076481', '-0.11538285', '0.05709451', '-0.042466965', '-0.090389974', '0.028949123', '-0.01030644', '-0.023670282', '0.0081546195', '-0.06004728', '-0.03565923', '0.034658596', '0.05303134', '0.13675302', '-0.022541957', '0.089350134', '0.13813248', '-0.040509887', '0.07923142', '0.13075405', '0.052640904', '-0.06310936', '-0.026098981', '0.009090046', '0.06997028', '-0.06013426', '-0.027819328', '0.045482095', '0.06530974', '0.054871164', '-0.07959974', '-0.0070173307', '-0.0060798326', '0.068107896', '-0.091018625']
46, ['-0.024318354', '-0.045594625', '-0.012497939', '-0.020859063', '0.002625348', '-0.02836742', '0.09171743', '-0.026532324', '-0.026377035', '0.10655708', '-0.0055599054', '0.0137775615', '-0.018487904', '0.048323303', '0.04223432', '0.04939026', '0.02495833', '0.06701393', '0.011425436', '-0.07537094', '0.025336415', '-0.04398236', '-0.09461521', '-0.016433308', '0.04919392', '0.03198485', '0.036549315', '0.052909195', '0.011945369', '-0.0030589204', '-0.03033587', '0.021042317', '0.009007471', '-0.06427519', '0.0005541972', '-0.040589213', '-0.0005912157', '0.004593573', '0.019540144', '0.00485985', '-0.017595733', '-0.0052543995', '-0.059212893', '-0.026401784', '0.06829025', '-0.0136853205', '0.043702137', '-0.020305641', '-0.024448054', '0.11424987']
47, ['-0.02420131', '0.013392805', '0.049323466', '0.14549358', '0.053928737', '0.14224742', '0.019101772', '0.028560273', '0.07814852', '0.046713226', '0.009945346', '-0.0077991146', '-0.12546176', '-0.059501607', '0.05744744', '0.01671827', '0.0014665045', '-0.085205525', '-0.0038926806', '-0.015405089', '-0.0969444', '-0.100606225', '0.053654224', '0.035078444', '-0.027989957', '0.009152398', '0.023207685', '-0.088584654', '0.02887078', '-0.109028935', '0.060840208', '0.03640558', '0.046332095', '-0.0023021393', '0.12623005', '-0.023309544', '0.05969498', '0.035529085', '0.06589234', '0.045129687', '-0.0006770423', '-0.04091352', '-0.11236743', '0.047206886', '0.13744827', '-0.01277459', '-0.0042078756', '-0.14568019', '-0.029080393', '0.02338365']
48, ['0.059286974', '-0.11039485', '-0.09796943', '0.047177512', '-0.07201199', '0.03963908', '-0.109178945', '-0.06600032', '0.06402777', '-0.06832882', '0.11040576', '0.024752624', '0.063957766', '0.017874751', '0.06484224', '0.09916712', '-0.004770913', '-0.046355695', '0.062383745', '0.012923858', '0.004169827', '0.027304675', '0.0038507562', '-0.001060951', '0.09534775', '-0.032437187', '-0.0821259', '-0.056951243', '-0.058937036', '-0.016629424', '-0.054859053', '-0.033499118', '-0.058968417', '0.03353638', '-0.054563794', '-0.040987708', '0.024740342', '-0.0020660239', '-0.07485231', '0.024225397', '-0.013655013', '0.002016663', '0.08068978', '-0.061471358', '-0.025557205', '0.0025306474', '-0.012175457', '-0.034471184', '0.0071386187', '0.0077606747']
49, ['0.059132796', '0.04926169', '-0.08242215', '-0.044488348', '-0.07443422', '0.030553576', '-0.029084219', '0.040101994', '-0.054048788', '0.02481323', '-0.035712034', '-0.05522292', '0.06455411', '0.046434145', '-0.01191015', '-0.014073357', '0.00065030064', '-0.008296031', '0.06529336', '0.039396357', '-0.06397138', '0.016049622', '0.0348283', '0.0745989', '-0.0068794503', '-0.026831', '-0.04400576', '0.0016559932', '-0.061337765', '-0.01907211', '-0.011254956', '-0.0020983615', '0.03767177', '0.026907496', '0.024668036', '0.023024574', '-0.03411145', '-0.018304838', '-0.028911756', '-0.022079702', '-0.0628456', '-0.008146279', '0.053412613', '0.01843982', '-0.0019540847', '0.0036902856', '0.00614631', '-0.08929593', '0.014461957', '-0.07173821']
50, ['0.05192468', '0.12338361', '-0.013286472', '0.07330614', '-0.028329713', '-0.06179274', '-0.024689436', '0.029480875', '-0.024243461', '0.017182307', '0.020984104', '-0.03924508', '0.020102974', '0.017159324', '0.031431563', '0.07999226', '0.05210616', '-0.021702444', '0.10222019', '-0.010325187', '0.058373164', '-0.05800045', '0.038192473', '0.005366727', '-0.07135462', '0.056843325', '-0.05901141', '-0.028600316', '-0.033967074', '-0.020263102', '-0.012153783', '0.023167057', '0.0056027495', '0.02373901', '0.002660126', '0.035739277', '-0.05134622', '0.05406969', '0.0392896', '0.030952623', '0.002105812', '-0.044604626', '0.018115288', '-0.0035802799', '0.037455402', '-0.05245552', '0.035093583', '-0.017716656', '-0.03163186', '-0.043605648']
51, ['0.020107664', '0.077755354', '0.012449682', '0.035313424', '0.016074201', '0.03457863', '-0.076894246', '-0.044699512', '-0.100442015', '0.015651254', '0.0038161213', '-0.055599794', '0.09897077', '-0.05745336', '0.0061016814', '0.046188023', '0.06855161', '0.07916702', '0.02432274', '0.016914109', '-0.114490554', '-0.0047296328', '0.047460057', '-0.07082486', '-0.0021729611', '-0.04091087', '-0.005825112', '-0.024147704', '-0.008574708', '0.022671875', '-0.05584761', '-0.026849024', '-0.058873028', '0.046045832', '0.036276996', '-0.047876034', '-0.0067102746', '0.054180525', '-0.007229561', '-0.036539935', '-0.04975262', '-0.04759829', '0.019778442', '0.01797109', '0.07643127', '-0.07760921', '-0.09984169', '-0.10120566', '0.011212678', '0.029442102']
52, ['0.11695233', '0.12163529', '-0.050306883', '-0.07899505', '-0.11382226', '-0.026011901', '-0.06757077', '0.07606879', '-0.047618598', '-0.013600731', '0.047911823', '-0.004276937', '-0.13101368', '-0.024968645', '0.12521437', '0.12138341', '0.14141779', '0.07341516', '0.06906898', '-0.014730307', '0.015871473', '0.06497946', '0.008324691', '0.080401376', '-0.07989389', '-0.030452814', '-0.03619415', '0.0069456315', '-0.08495453', '0.043906678', '0.008121158', '-0.0020986067', '0.00068070827', '0.09491246', '0.09652858', '-0.005060559', '0.063168816', '0.045708533', '-0.03362701', '-0.049435638', '-0.032993045', '-0.06738542', '0.112371065', '-0.052374974', '0.051154725', '-0.08252302', '-0.039343286', '-0.036563504', '-0.066287786', '-0.005014765']
53, ['-0.0010494125', '0.0053779534', '-0.10072977', '-0.0854868', '-0.06571655', '-0.06249987', '-0.0066588675', '0.01522374', '0.0015493754', '0.070287116', '-0.06704075', '-0.08728265', '-0.06134273', '0.10614564', '0.065130465', '-0.01923971', '0.05641018', '-0.036735117', '0.05081736', '0.045095757', '0.010178003', '0.08091384', '0.023041686', '0.0880065', '0.06230238', '-0.03764243', '-0.08372933', '-0.027991315', '0.041048303', '0.11782869', '0.051586933', '0.06157565', '0.022340454', '0.08452455', '-0.05884318', '-0.022176664', '-0.094209716', '0.054661848', '-0.107018456', '-0.06541537', '-0.1165565', '-0.017378783', '0.086226925', '-0.0033975604', '-0.028885975', '0.0012568852', '0.043396976', '-0.13582233', '0.039263465', '-0.01792648']
54, ['-0.07872341', '0.21183419', '-0.0030598796', '0.11158123', '0.010111576', '-0.124510154', '0.051962856', '0.03952457', '-0.10296305', '-0.03244128', '-0.14420523', '-0.0013070309', '0.055629443', '0.053851057', '0.034691013', '-0.049485866', '-0.042048275', '-0.15842398', '0.11362927', '-0.02756507', '0.0086040655', '-0.017218774', '0.09865792', '0.18867655', '-0.057482798', '0.074254446', '-0.03579708', '-0.023148375', '0.15825804', '-0.0036094533', '0.03488394', '0.08812324', '-0.07352104', '0.010908142', '-0.14317685', '0.029496815', '-0.06945655', '-0.025657373', '0.15711437', '0.017099142', '0.17952774', '0.031200817', '0.0751104', '0.05529953', '-0.08207099', '0.23089427', '0.13673347', '-0.10385898', '0.090202175', '0.05328878']
55, ['-0.006147136', '0.03705697', '0.015390755', '0.0031611633', '-0.043730207', '-0.027553137', '-0.0024289822', '0.011127527', '-0.016726587', '0.006104989', '0.038730048', '-0.0113355005', '-0.030859618', '-0.0062711155', '-0.04320454', '0.015569111', '-0.015408686', '-0.08538556', '0.04033517', '0.00033652116', '-0.11595043', '-0.014884939', '0.036595147', '-0.037499778', '0.016306581', '0.018524898', '0.03524229', '0.0065134456', '0.018129745', '0.014326156', '-0.051149093', '0.036400374', '0.06820906', '0.044823527', '-0.01603712', '-0.029705113', '-0.013567575', '0.002456529', '-0.09226073', '-0.006224499', '0.03252877', '-0.060549296', '0.09900042', '-0.01404673', '0.02004316', '0.011955632', '0.029372456', '0.0052741854', '-0.016704641', '-0.02617049']
56, ['-0.049059544', '-0.05250582', '-0.0025094359', '-0.037014663', '-0.07709553', '0.0926423', '0.16206414', '0.10682083', '0.045558743', '-0.088147394', '0.06593081', '-0.059816964', '0.10758542', '0.00022152835', '-0.04152874', '0.050501', '0.026242388', '-0.04072174', '-0.0728015', '-0.11402755', '0.050229855', '0.0065022246', '0.13308112', '-0.012613787', '0.08173677', '0.02957049', '0.06611084', '0.03060601', '0.02904173', '0.03780442', '0.021913134', '-0.039673164', '0.042548273', '0.0136012295', '-0.055106472', '-0.07923653', '0.05372992', '0.029465936', '0.13518202', '-0.13182108', '-0.012102817', '0.04700913', '0.11883964', '-0.016097018', '-0.013104787', '0.08059777', '0.0860983', '-0.15788488', '-0.05856805', '0.07486571']
57, ['0.034558553', '0.047271308', '-0.068808354', '-0.021680798', '-0.084232874', '0.17517099', '0.12499073', '-0.023281133', '0.0150506785', '-0.002150749', '-0.008587141', '-0.05196052', '0.0029244842', '0.03035651', '-0.07977596', '0.052794334', '-0.00857895', '0.023486502', '-0.04310075', '-0.039139822', '0.11503081', '0.066410415', '0.026073923', '-0.07183085', '0.09122939', '0.014421027', '0.00137553', '0.04532547', '-0.014693213', '0.020114724', '-0.078398004', '0.064998485', '0.056737214', '0.059982665', '-0.002476111', '-0.07863045', '0.06405028', '0.05600398', '-0.035904314', '-0.05087295', '-0.06789611', '-0.0017046399', '0.048021846', '0.051212836', '0.06437969', '0.045033183', '0.047925204', '-0.002723625', '-0.058064155', '0.015311357']
58, ['-0.061836954', '-0.059464913', '0.094812356', '0.08682866', '-0.011467486', '0.016468614', '0.05744268', '-0.07900041', '-0.06665861', '-0.09914417', '0.058021337', '-0.06085407', '0.07935214', '0.026318336', '0.051335197', '0.020346291', '-0.015429269', '0.051304344', '-0.0065033166', '-0.059094444', '-0.032355722', '-0.06718624', '0.065748274', '0.02857705', '-0.00957374', '0.06262212', '0.0617662', '-0.018396482', '-0.042161852', '-0.046536867', '-0.038920697', '-0.0011569861', '-0.06548377', '-0.04739064', '-0.061078537', '0.024598908', '0.048242267', '-0.033335235', '0.07375399', '-0.058694076', '0.05708904', '0.11119555', '0.0050005782', '0.035521846', '-0.11378587', '0.08792281', '0.06512598', '0.09952987', '-0.09133749', '0.09198064']
59, ['-0.024065718', '0.002419479', '-0.0056401836', '-0.029673398', '-0.02532125', '0.05593578', '-0.063860014', '0.021685006', '-0.050002504', '-0.08549732', '-0.00626263', '0.0028435846', '0.05035141', '-0.049406923', '-0.13001385', '0.024819205', '0.016020881', '0.030921703', '0.09353591', '0.019411402', '0.029913137', '-0.016199866', '0.08187491', '0.038991008', '-0.023957081', '0.009485011', '-0.041531917', '0.0032552653', '-0.034927797', '-0.024830934', '-0.058399227', '-0.08610975', '-0.008246825', '0.04595686', '0.046400387', '-0.05232215', '0.02194403', '-0.039054897', '0.090937845', '0.07964598', '-0.030543745', '0.007080434', '-0.077514134', '0.11467868', '-0.030778034', '0.016798483', '-0.087392345', '0.0576251', '-0.057434067', '0.005068417']
60, ['-0.0048005856', '-0.0042879065', '-0.008018908', '-0.041213762', '-0.027901651', '0.06510712', '0.0019537362', '-0.0054048225', '-0.04242824', '-0.027418276', '0.055326194', '-0.053758603', '0.022057358', '0.014213049', '-0.008482728', '0.0010324734', '-0.00799432', '-0.008624255', '-0.016343212', '0.01970711', '0.03790963', '0.028113848', '0.031248095', '-0.006030732', '0.01916463', '-0.010179812', '-0.00733063', '-0.008467976', '-0.022456972', '0.0067880386', '-0.05550808', '0.023003738', '-0.034478337', '-0.0023348993', '-0.044156052', '-0.05541543', '0.043363284', '-0.008327701', '0.067621134', '-0.034753017', '-0.032378245', '0.026765436', '0.009491809', '0.031528175', '-0.032040518', '0.019302003', '0.021554565', '0.008293134', '-0.061175946', '0.027591197']
61, ['0.003090211', '-0.011746199', '-0.01711597', '-0.1677166', '0.006607617', '0.08571117', '-0.04152369', '-0.025024693', '0.02766736', '-0.033124804', '-0.032814406', '-0.09751435', '-0.027200742', '-0.050681997', '0.047726084', '0.02036724', '-0.008732376', '-0.10539382', '0.019556094', '-0.014389566', '0.040740773', '0.08556748', '0.058942754', '0.0063140183', '0.046446424', '-0.10804322', '-0.1434071', '0.036149714', '0.05034461', '-0.059143145', '-0.046190273', '0.14410746', '-0.06488539', '-0.08365592', '-0.1204368', '-0.045906667', '0.044602726', '-0.049464963', '-0.006330388', '-0.08020374', '-0.0033200362', '0.006545355', '-0.003991493', '0.060721178', '0.014553421', '0.044666022', '-0.02087604', '0.062009584', '-0.026912784', '-0.010119737']
62, ['0.09791156', '0.07442886', '0.01558855', '0.031693853', '0.0026582985', '-0.1451332', '-0.09603909', '0.036127053', '-0.035709817', '0.029982436', '0.09632759', '-0.042735737', '-0.023512285', '0.018894443', '-0.03078215', '-0.121062584', '-0.060024478', '-0.017808512', '-0.07455444', '0.046427157', '-0.043332923', '0.089749485', '0.0035731322', '0.03371188', '-0.020514825', '-0.031067453', '0.046186168', '0.03725858', '0.016404714', '-0.04510933', '-0.059165873', '0.0219612', '-0.08653532', '-0.06322279', '-0.057118837', '-0.07460962', '-0.042064507', '-0.008338571', '0.12083286', '0.081181414', '0.04766674', '0.12095147', '0.044440065', '-0.033557557', '-0.092166714', '-0.07768057', '0.025801264', '-0.026624562', '0.01645329', '0.05439925']
63, ['-0.045982346', '-0.019354338', '-0.041825008', '-0.10105605', '0.010196435', '0.03269799', '0.0005884982', '-0.014177628', '-0.016254347', '0.028509993', '0.08628746', '-0.017480541', '0.01511381', '0.07830239', '0.0360195', '-0.038408633', '0.055914257', '-0.0018420086', '-0.026605368', '0.046160072', '0.07320523', '-0.011144562', '-0.009796213', '-0.04654847', '0.027886838', '-0.027402816', '-0.0808316', '-0.11666996', '-0.102920376', '0.07462618', '-0.048787337', '-0.06586869', '0.0073657394', '0.048100676', '-0.019915465', '-0.07139454', '0.01347371', '0.009032844', '0.06532267', '-0.048341904', '-0.103987', '0.019897612', '0.011310794', '0.057646777', '0.06135929', '-0.08349949', '0.0814823', '0.046544373', '-0.14878494', '0.049182218']
64, ['0.13249308', '-0.009833515', '0.025877403', '0.0537948', '0.04862658', '0.048542667', '-0.011038058', '0.03787252', '0.027956242', '0.04130323', '0.0114738345', '0.05487896', '-0.0049736863', '-0.01301988', '-0.062132224', '-0.013206895', '-0.06419295', '0.14901654', '0.03328279', '-0.0680911', '0.03112779', '0.057738345', '-0.043574404', '0.06347338', '0.043911163', '-0.02105142', '0.0003786392', '0.05117026', '0.028563859', '-0.017059816', '-0.042580042', '-0.037666548', '-0.049518853', '0.043106776', '0.05441332', '-0.0810228', '-0.09481614', '-0.026976088', '0.029018003', '-0.08082393', '-0.046526942', '0.03499178', '0.033606574', '-0.07447614', '0.11848141', '0.0551374', '0.06182189', '0.040648118', '0.09417331', '0.015215716']
65, ['0.028401405', '0.047494706', '-0.077000245', '0.10928932', '-0.020647444', '0.060532324', '-0.043499097', '0.11809686', '0.033319682', '-0.09015354', '0.031505633', '0.014618145', '0.08429347', '-0.09447731', '-0.048708595', '-0.005856884', '-0.04527667', '-0.010548787', '0.011731917', '-0.047923822', '0.03429253', '0.032195963', '0.053586196', '0.019103102', '-0.071761556', '0.033853203', '0.07205371', '-0.012166847', '0.03256112', '-0.022808824', '0.014523295', '-0.0044506555', '-0.040231798', '0.0038855486', '0.01588576', '-0.025213381', '-0.09913575', '-0.006176011', '-0.06838005', '-0.009091883', '-0.022637915', '0.05430975', '0.06368859', '0.031397417', '0.016205063', '-0.047284435', '-0.037426118', '-0.03137574', '-0.034626223', '-0.10760546']
66, ['0.08227768', '0.016037617', '-0.0020803686', '0.073747054', '0.05581159', '-0.05732986', '0.036088016', '0.07232315', '-0.009892023', '-0.016344711', '0.021177832', '-0.04857914', '-0.001738562', '0.00706262', '-0.005331229', '-0.00506693', '-0.021919228', '0.085632995', '0.012482945', '-0.013357586', '-0.06027031', '0.0566449', '-0.02293935', '0.068417214', '0.03573422', '0.091521405', '0.03961978', '0.07691185', '0.022088077', '0.004736322', '-0.0855254', '-0.057333816', '-0.048110235', '-0.025204096', '-0.07476315', '-0.042441346', '-0.024265768', '0.012574305', '-0.06677809', '-0.034768682', '-0.014017601', '0.00015251664', '0.01429855', '0.011316237', '-0.0077405265', '0.034482166', '0.020069132', '-0.06836535', '-0.0012201113', '-0.05489641']
67, ['0.05091721', '0.03273337', '-0.008405882', '-0.013972953', '-0.10937504', '-0.010659521', '-0.024219576', '0.077743724', '0.015135887', '0.012360995', '-0.057703804', '-0.05810332', '-0.05470545', '0.011562765', '-0.06590281', '-0.08262023', '0.07650756', '0.03275648', '-0.0058023045', '-0.023016004', '0.10226812', '-0.0019991912', '-0.025029996', '0.12202322', '0.020404777', '0.09420351', '0.017484106', '0.05299553', '-0.023877433', '-0.04758726', '0.05569509', '-0.10623438', '0.05746511', '0.032247424', '0.006917084', '-0.0047087017', '0.04597724', '0.11070994', '-0.10939717', '-0.023904217', '0.031343237', '-0.0024575468', '0.054348823', '-0.03501021', '-0.014096521', '-0.07199434', '0.06964419', '0.010445502', '0.06300393', '-0.011269472']
68, ['0.04747537', '-0.04513189', '-0.0020953384', '0.022518132', '-0.055818368', '0.06522833', '0.061125085', '0.03051125', '0.01657416', '0.020416822', '0.016008034', '-0.107181564', '-0.0072361566', '0.041036513', '-0.071362056', '-0.032033943', '-0.033151973', '0.04720166', '-0.005226087', '-0.08211897', '-0.010161945', '0.015904127', '-0.03619167', '-0.03824101', '-0.018384643', '0.11499664', '0.013436484', '0.02691911', '-0.10137843', '0.015412002', '0.031281732', '-0.033287942', '-0.0065926216', '0.060534675', '-0.11978105', '-0.08150854', '0.056721013', '-0.028327154', '-0.0033735607', '-0.095161274', '-0.04495676', '-0.021598648', '-0.051312085', '0.008996499', '0.091165386', '-0.032418586', '0.032176998', '-0.010144031', '-0.047499333', '-0.014039216']
69, ['0.0037336873', '-0.045022592', '-0.033906896', '0.04749848', '0.005441479', '0.021218395', '-0.0056599528', '0.04531494', '-0.03548004', '0.024327148', '-0.04335876', '0.01185892', '-0.025638493', '-0.018876335', '-0.031485546', '-0.028979678', '-0.0152420625', '0.09985241', '0.071366236', '0.0039148745', '0.06058982', '-0.023471963', '-0.023559472', '0.014461075', '-0.054266024', '0.059683945', '0.07303687', '0.054552335', '0.02848331', '0.015893832', '-0.094322726', '-0.08625728', '-0.012367149', '0.020599118', '-0.033409443', '-0.041008294', '-0.0050142794', '0.04154038', '-0.07156842', '-0.028480338', '-0.06845601', '-0.015558783', '-0.067243665', '0.030129446', '0.072670214', '-0.039044395', '-0.059403855', '0.04259623', '0.05257785', '0.041654687']
70, ['0.05605064', '0.026008379', '0.009878873', '0.14792033', '-0.1507893', '-0.039878733', '-0.054554068', '0.06145808', '0.056807872', '-0.09011688', '-0.12859716', '-0.11179985', '-0.0702659', '-0.035069283', '-0.07383996', '0.013036177', '0.0017162566', '-0.024637843', '-0.029997248', '0.103570804', '-0.002914815', '0.024518885', '0.10502222', '0.06327874', '-0.13094768', '-0.03733044', '-0.040584594', '0.02323486', '0.0680133', '0.094308436', '0.021132868', '-0.052165527', '-0.105070464', '0.05665437', '0.042357586', '-0.025658814', '-0.061829314', '-0.049249414', '-0.11150279', '0.045897458', '-0.0441374', '0.096414864', '-0.029751632', '-0.012409644', '0.13432732', '-0.035961933', '-0.028986916', '0.108912714', '0.027803345', '0.013546556']
71, ['0.110006146', '0.040844597', '0.026908161', '0.03267702', '-0.019710254', '0.056793254', '-0.07208469', '-0.033366982', '-0.037838906', '-0.0362628', '0.007805275', '0.04387427', '-0.09539604', '-0.019966595', '-0.044949614', '0.006893999', '-0.08850405', '0.009396574', '0.1332769', '0.0017875853', '-0.0018929051', '0.07876335', '-0.105856955', '0.08970648', '0.052028693', '0.09154616', '0.0015778338', '-0.04718038', '0.0014364258', '-0.024207328', '-0.027028091', '-0.039140336', '0.026312796', '-0.03909269', '0.00031194754', '-0.049467985', '0.008226978', '-0.038571857', '-0.07349867', '0.051343992', '-0.030092318', '-0.013864986', '0.0038451778', '0.072945505', '0.045411825', '-0.089541614', '0.047541015', '-0.029319048', '0.025855653', '0.031206768']
72, ['0.015293077', '0.051238373', '0.069852166', '0.021027984', '-0.03773155', '-0.06601956', '0.01985552', '0.052126933', '-0.0629181', '0.039569963', '0.016971128', '0.025882132', '0.017791482', '-0.020335574', '-0.04146637', '-0.077375285', '-0.1340954', '-0.030078677', '0.09105177', '-0.053516533', '-0.12923831', '0.059252832', '-0.035694603', '-0.07805894', '0.047803216', '-0.0009997818', '0.042570215', '-0.031845775', '0.02129355', '0.0641557', '-0.014716514', '-0.018936273', '-0.044558566', '-0.023512429', '-0.02668275', '-0.020656528', '-0.049662467', '0.112499155', '0.0032418652', '0.09472531', '0.06675945', '0.025363313', '0.04627313', '0.015582804', '0.10063488', '-0.081158504', '-0.055637743', '0.026835134', '0.031148989', '0.0413964']
73, ['0.045362245', '-0.036812395', '-0.050562765', '-0.054404978', '0.07045888', '0.03249064', '-0.061668936', '-0.031524036', '-0.00016473314', '-0.13750927', '-0.003560222', '0.0766103', '0.022192545', '0.025979172', '-0.01438109', '-0.0031701433', '-0.103482015', '-0.10769456', '-0.06188125', '-0.016470078', '-0.093835354', '0.0074401535', '-0.086201936', '-0.0041250037', '0.05347701', '-0.02617518', '0.04260484', '-0.05452475', '-0.08031125', '-0.043330513', '-0.08953619', '0.042101517', '0.0756752', '-0.04095429', '-0.016597351', '-0.09514874', '-0.05286979', '0.04766376', '-0.013118239', '0.021724932', '-0.02653579', '0.011166407', '0.08198882', '0.08786098', '-0.02355671', '0.06899791', '0.049577974', '-0.044936795', '-0.07329663', '0.048232026']
74, ['0.06883855', '0.09178981', '0.006883738', '-0.0025430964', '-0.053843245', '0.10873003', '-0.028056424', '-0.017333081', '0.0487696', '-0.035334554', '-0.0037120979', '-0.027582705', '0.010724712', '-0.0346615', '-0.07222987', '0.058873564', '-0.10566', '-0.08831224', '-0.001401746', '0.0069783195', '-0.019082269', '0.079518095', '-0.1274489', '-0.03948925', '0.055576168', '-0.065164246', '0.062248006', '-0.012298751', '0.06951863', '0.059961293', '0.253136', '0.0053111208', '-0.08006611', '0.055137526', '-0.032549232', '-0.02137051', '-0.07636988', '0.019691551', '0.0016755298', '0.008048087', '0.0022490723', '0.031479184', '-0.022512512', '-0.019997936', '0.03489864', '-0.08868223', '0.08685278', '-0.07417241', '0.033690415', '-0.014979902']
75, ['-0.009470524', '-0.00085749873', '-0.010195287', '-0.015760174', '-0.034017567', '0.032024547', '-0.006384088', '0.02439512', '-0.06978582', '-0.017927056', '0.043422025', '0.06408544', '0.011600383', '0.032589577', '-0.028058572', '0.0065966006', '-0.059805047', '-0.0010590765', '0.040889703', '0.042279314', '-0.055220716', '0.076769866', '-0.038694855', '0.03228', '0.03571082', '0.013104808', '0.098476484', '-0.034336183', '0.0004563826', '0.017876396', '-0.020661358', '-0.048110686', '-0.0018384092', '-0.047529355', '0.0038764551', '0.021883484', '-0.048169304', '0.03236548', '-0.013707645', '-0.0112908585', '0.0060060797', '-0.021787105', '0.048597578', '-0.005497526', '0.020466471', '-0.010452008', '0.009120612', '-0.06257759', '0.004388185', '-0.010391254']
76, ['0.008115082', '-0.0069882064', '-0.015631344', '-0.033582162', '-0.024942247', '0.04317946', '-0.0074213194', '-0.036279872', '0.043189038', '0.058593784', '-0.035834666', '-0.038620137', '0.10133153', '-0.08453541', '0.06913731', '0.02156495', '-0.028396891', '-0.060354788', '0.041474797', '-0.018349923', '-0.011555082', '0.051374845', '-0.04902833', '0.10470292', '0.058741', '0.035694707', '0.08955212', '-0.04189944', '-0.036978293', '-0.087873414', '-0.025325442', '0.006856574', '0.02484608', '-0.115815334', '-0.049699727', '-0.07859755', '-0.0459542', '0.0029305718', '-0.040808607', '-0.058809213', '0.0076578893', '-0.021457203', '0.09111534', '0.02517651', '0.018761842', '0.07586923', '0.046683155', '-0.025376445', '-0.045457862', '0.029905919']
77, ['-0.099174984', '0.049860567', '0.042004727', '-0.08834927', '-0.043661695', '0.016400672', '0.011476025', '-0.052042462', '0.043926373', '-0.0008103861', '0.04093971', '0.051621106', '0.07113251', '0.094188385', '-0.06361291', '0.041681334', '-0.102994666', '0.033368107', '-0.0014975799', '0.09217754', '-0.0946574', '0.10157836', '-0.0027678916', '-0.056389302', '0.04083225', '-0.041526802', '0.051334564', '0.01636527', '-0.051172562', '0.019041115', '-0.08183529', '0.09929049', '0.015313515', '-0.0139155', '0.02547709', '0.10337132', '-0.040815875', '0.08373001', '0.06388222', '0.032459144', '-0.04438531', '0.0873788', '0.031598557', '0.028459042', '-0.059512466', '0.060870465', '0.010368413', '-0.0041708383', '0.03026475', '-0.07205728']
78, ['0.11349054', '-0.08386363', '-0.12617324', '0.07406445', '0.030770447', '0.105041884', '0.12926999', '0.060330767', '-0.12414057', '0.0005782208', '0.018784037', '0.050091453', '0.002542815', '0.024243185', '-0.02385689', '-0.00202223', '-0.028877819', '0.04619032', '-0.031378422', '0.03678241', '0.06018488', '0.052802123', '-0.024709769', '0.12915136', '-0.10504544', '0.0023067375', '0.088209994', '-0.00036111884', '0.023837518', '-0.005005448', '0.0042303083', '-0.12880956', '0.0021177754', '-0.107671544', '0.030610356', '-0.018471379', '-0.11662291', '-0.07387705', '0.022583412', '-0.061506506', '0.028651481', '-0.03297986', '0.06337876', '-0.002640329', '0.03786053', '-0.04715008', '0.09811052', '0.031058662', '0.03668813', '0.06253017']
79, ['-0.06577957', '-0.0154297855', '0.079307586', '-0.043135833', '0.022919862', '0.084365614', '0.046721134', '0.0030290317', '-0.11428084', '0.038075045', '-0.0030219022', '-0.047920857', '0.08201476', '-0.042535342', '-0.010706452', '-0.03293512', '-0.025380876', '-0.023248507', '0.059462376', '-0.036790874', '-0.0033185843', '0.11637413', '0.025462002', '0.11681787', '0.11411175', '0.10608907', '0.007882847', '-0.06541961', '0.036058027', '0.0149422875', '0.034291476', '-0.071630456', '0.047635168', '-0.11187931', '-0.057859816', '0.010299691', '-0.06627788', '-0.060639244', '-0.05987901', '-0.047638506', '0.107714124', '-0.033432342', '0.055908713', '-0.08320898', '0.09870812', '0.022014251', '0.019229801', '-0.025904946', '0.02737472', '-0.004217235']
80, ['-0.09250942', '-0.1056369', '-0.054533917', '-0.03753349', '-0.03401071', '0.023610177', '-0.042821735', '0.042350303', '-0.038636778', '-0.026472595', '0.08714633', '-0.008152011', '0.068210915', '-0.0026673647', '0.10627895', '-0.0005066654', '-0.036011063', '0.036523372', '0.040739767', '-0.048775807', '-0.032143045', '0.027991349', '-0.009655852', '-0.02626761', '0.12488141', '-0.023500064', '-0.0034659193', '-0.02696981', '0.04026349', '0.016912533', '-0.05180384', '0.014780502', '-0.034047525', '0.09292884', '-0.11067541', '0.01574226', '0.029718336', '-0.0023907265', '-0.006636754', '-0.016252743', '0.08703034', '0.0631498', '-0.06314081', '0.08488935', '0.08841129', '0.028670397', '-0.07322849', '0.06769224', '-0.030738408', '-0.03560202']
81, ['0.105059735', '-0.058037158', '0.062131826', '0.039916337', '0.0225695', '-0.013946173', '0.05579818', '0.045622844', '0.04503851', '-0.034420047', '0.018578503', '-0.12523998', '-0.055271305', '-0.02990742', '0.029958358', '0.036932316', '-0.03387948', '0.058560677', '0.042703737', '0.017595053', '-0.039133422', '-0.044012185', '-0.068901815', '-0.025413286', '0.08239185', '-0.10183547', '0.10973831', '0.09085218', '0.16260922', '0.06590767', '0.021974754', '-0.038082264', '0.010866519', '-0.05761368', '-0.05882939', '-0.023286568', '-0.034988116', '0.072651185', '-0.12619102', '-0.022224758', '0.025744477', '-0.0007068846', '0.033139586', '0.009528231', '-0.10337158', '0.13784298', '-0.06798656', '0.0034179012', '-0.028722366', '-0.101147704']
82, ['-0.025700329', '0.008894103', '0.03731277', '-0.02336814', '0.059811823', '0.021121416', '0.014450156', '0.014941432', '-0.031647053', '-0.057801906', '-0.005371337', '-0.10089721', '0.014034826', '-0.031304415', '0.049075596', '-0.015253671', '-0.017700557', '0.0032036903', '0.009205918', '-0.026739696', '-0.017201131', '-0.035594262', '-0.036400396', '-0.029298846', '0.06566704', '-0.03166784', '0.02117107', '-0.006246296', '0.051556885', '-0.039713074', '-0.023331093', '0.021148715', '0.0151036745', '0.0020358965', '-0.03739806', '-0.025103971', '0.007605634', '0.012966926', '-0.04367972', '-0.015048636', '0.018937642', '0.03908464', '0.00034138485', '0.022593522', '-0.00056062685', '0.04231824', '-0.031010602', '-0.0022462301', '-0.017298369', '-0.048396584']
83, ['-0.002057189', '0.052654587', '-0.03708713', '-0.101861924', '-0.0016194443', '0.086327724', '-0.13447015', '-0.063515425', '-0.09244995', '-0.0061736377', '0.02487035', '-0.004197247', '0.0074049383', '-0.01672976', '0.030313635', '0.029332656', '0.062630974', '0.0367091', '-0.054864682', '0.02048878', '0.006628529', '0.042775746', '-0.07604469', '-0.038798448', '0.025357049', '-0.006312936', '0.05560081', '-0.011124148', '-0.014308036', '-0.031535238', '-0.028755007', '-0.018880827', '0.034525156', '-0.04122158', '0.036451526', '0.0070099896', '-0.010037955', '-0.034680422', '0.05900702', '-0.05890501', '-0.037974168', '0.087937005', '-0.037702322', '-0.057109598', '0.039293133', '0.0632422', '-0.02630306', '-0.059695523', '-0.01148548', '-0.041580595']
84, ['-0.06952259', '-0.0037886167', '0.013952473', '-0.06648231', '0.0107250465', '0.07255218', '-0.007360667', '0.058334004', '-0.02946889', '-0.060544115', '0.013095014', '-0.12604754', '-0.02507983', '0.011625652', '-0.010511122', '-0.09639389', '0.011693066', '-0.041069683', '0.062091976', '-0.04909595', '-0.030163163', '-0.06666071', '-0.01552109', '-0.060612693', '-0.12939273', '-0.029233282', '-0.039989937', '-0.040881235', '0.050431825', '-0.08846488', '-0.047940668', '0.0778063', '0.033584144', '0.020150492', '0.0664998', '0.006544637', '0.019669896', '0.029232485', '-0.076786384', '0.03594641', '-0.016913127', '0.08015098', '0.026768774', '-0.041292537', '0.057419363', '-0.11567622', '-0.056768376', '0.06559775', '-0.13296176', '0.06352875']
85, ['0.034382503', '0.013933074', '0.021641294', '-0.050564792', '0.041946568', '0.054485045', '0.077645615', '0.0531618', '0.013077701', '-0.11012738', '0.026136698', '0.0108088665', '-0.11761924', '-0.08984784', '0.11781749', '-0.16108868', '-0.008900369', '0.0076973406', '-0.026404168', '-0.054697283', '-0.05346411', '-0.062099848', '-0.025577452', '-0.04741922', '0.053660564', '-0.06593489', '-0.012366156', '-0.03151179', '-0.05796084', '-0.0038112912', '-0.10324099', '0.026607035', '0.022425141', '-0.053366546', '-0.11268049', '0.0072497395', '-0.020865006', '0.0023869954', '0.02995104', '-0.12104951', '0.04833414', '0.018442828', '0.020712918', '-0.030630823', '0.028093193', '-0.061696384', '0.0069237333', '-0.047500465', '0.094057545', '-0.06013704']
86, ['-0.10001444', '-0.049055472', '0.052633885', '0.04318581', '0.1416593', '0.07757557', '0.014219585', '-0.030292533', '-0.047163278', '-0.01455503', '-0.04341043', '-0.1313432', '0.16846843', '0.043391455', '-0.07906547', '-0.11017038', '-0.070875116', '-0.04632878', '0.016922906', '-0.009487374', '-0.0519784', '-0.09242813', '-0.029220758', '-0.081781626', '0.11792872', '0.02382006', '0.029508177', '-0.035473935', '0.091308735', '-0.10243885', '-0.07031438', '0.010319991', '0.010911562', '-0.015325727', '-0.07262668', '0.007320806', '-0.05550958', '0.024119612', '-0.036646344', '0.036580674', '0.010403381', '0.061243985', '-0.077881984', '0.08358121', '-0.016712004', '0.02981221', '-0.01253407', '-0.025142977', '0.047124717', '-0.07397265']
87, ['-0.033604857', '0.13065965', '0.18920141', '-0.020010242', '0.0558117', '-0.14772303', '0.05040738', '-0.084557734', '0.015620917', '-0.104165375', '-0.062104836', '-0.17213272', '-0.010633875', '-0.006486624', '0.1390603', '0.117608696', '-0.035580136', '-0.040588476', '0.02116558', '-0.005935929', '0.04008966', '-0.006172871', '0.044385433', '0.051346574', '0.0767899', '0.090313435', '0.07655711', '-0.048378643', '0.06464439', '0.11955119', '0.05493783', '0.0040596556', '-0.03435144', '0.025531838', '0.044794578', '-0.1483808', '0.103724144', '-0.05867672', '-0.084955536', '-0.035178617', '-0.051297303', '-0.08121178', '0.10605299', '0.07003173', '-0.07067721', '0.17233384', '0.054635886', '0.047777515', '-0.0041690627', '0.00992729']
88, ['0.036835045', '-0.08027802', '0.060026485', '-0.05853376', '-0.101026766', '0.02050295', '0.0085237995', '0.044818643', '-0.045553345', '-0.012530775', '-0.060977984', '0.010499538', '-0.040424965', '-0.01038087', '-0.119450584', '-0.115459606', '0.021536533', '-0.015882133', '0.04150458', '0.04685796', '0.15837136', '0.06656983', '-0.04704434', '0.020571815', '-0.006831184', '-0.05792856', '0.014065169', '-0.04359999', '-0.06145852', '0.020242115', '0.015724009', '-0.012857262', '-0.025784489', '0.023341438', '0.061071277', '0.0829977', '-0.066847995', '0.038179364', '0.0392089', '0.01107072', '-0.026742319', '0.00950705', '-0.006450461', '-0.0055679316', '0.03342341', '-0.0615379', '0.047991026', '-0.040758405', '0.07822496', '-0.052335102']
89, ['0.09780421', '0.028625187', '0.040138442', '0.07002309', '0.046881735', '0.03452131', '-0.072802156', '0.028695203', '-0.022370828', '0.018036177', '0.10781898', '-0.05420646', '-0.00018878034', '-0.06045048', '0.039015766', '0.0017436836', '0.048361104', '0.020612672', '-0.06634019', '0.06605605', '0.028127331', '0.108804666', '0.019049093', '0.012665898', '-0.0460928', '-0.0026193645', '-0.08157827', '0.016412027', '-0.08290535', '-0.061132435', '-0.009305469', '-0.0024658092', '0.01458841', '0.0052157147', '0.08386834', '0.032254677', '-0.07399703', '0.012078449', '0.060608797', '-0.04406762', '-0.04457509', '-0.049358923', '0.029640129', '-0.051512387', '0.094924934', '-0.058541223', '0.019514091', '-0.046997502', '-0.03571492', '-0.111988254']
90, ['-0.03985532', '-0.049218934', '-0.025333228', '-0.06724864', '-0.10684345', '-0.09195164', '-0.0045626094', '0.0154425455', '-0.10204327', '0.047920216', '0.014567223', '-0.047805063', '-0.12103289', '-0.046089694', '0.13500296', '-0.07315747', '-0.0018856472', '-0.08425302', '-0.041456617', '0.0632212', '0.01604005', '0.102031074', '-0.0735691', '-0.002277691', '-0.10598494', '-0.005621165', '0.034380253', '0.060001355', '-0.032647993', '0.1137178', '-0.033947226', '-0.057273373', '-0.092680685', '-0.0064320327', '0.0018052661', '0.0662111', '-0.021118961', '-0.006650962', '0.019445872', '-0.11761508', '-0.031106131', '0.0310781', '-0.0042353338', '-0.053202868', '-0.09511089', '0.021365361', '0.09448619', '-0.07565285', '-0.02884221', '-0.120114274']
91, ['0.037563324', '-0.060656592', '0.018285317', '-0.09535639', '0.044884853', '-0.028169593', '0.058563467', '0.042494554', '0.0038160703', '0.013551217', '0.051305126', '-0.051250707', '-0.010486918', '-0.1165604', '-0.070466295', '-0.06642352', '0.034486316', '0.026174009', '0.0011062328', '0.012846014', '0.008185081', '0.07170341', '-0.097791865', '0.08992833', '-0.018541919', '-0.0087795695', '-0.0060380925', '0.07655011', '-0.025348226', '0.027425889', '-0.078005716', '9.3307804e-05', '0.035682112', '0.068310946', '0.038894325', '-0.057238314', '-0.1021944', '-0.029654222', '0.017507575', '0.004680886', '-0.0034370534', '0.026383212', '-0.0039512985', '-0.034161855', '-0.054314032', '-0.079810545', '0.08600788', '-0.06312645', '-0.008762761', '-0.0070627225']
92, ['0.0901511', '-0.05066691', '-0.021726009', '-0.06820069', '-0.064883076', '-0.07415529', '-0.03225487', '-0.011566023', '-0.039967645', '0.01802297', '0.024204561', '-0.05359939', '0.022843704', '-0.021105248', '-0.038373373', '-0.0885923', '-0.027664589', '-0.006424185', '-0.13068987', '0.06532781', '-0.0102260215', '0.028635314', '-0.047072235', '0.018339548', '-0.032357037', '0.012853864', '-0.016476028', '0.07321224', '-0.008574438', '0.016392184', '-0.08505743', '-0.04108049', '-0.030748973', '0.021616176', '0.056090835', '0.021643883', '-0.019043531', '0.029317992', '-0.060172364', '0.0016736059', '-0.0020896676', '0.008508706', '-0.0029894896', '-0.07243583', '0.04460353', '0.013090064', '0.11045756', '-0.10771856', '-0.070403375', '-0.007475295']
93, ['-0.016745985', '-0.014234861', '-0.04055427', '0.0038495196', '-0.01452951', '-0.06306712', '0.013928579', '0.039419103', '-0.071784414', '0.09908689', '0.007539534', '0.048348308', '-0.03142474', '0.0069267643', '-0.018136026', '-0.05121634', '0.073591776', '-0.05232352', '-0.04746154', '0.017093334', '0.07070347', '0.05413311', '-0.07657449', '0.023933256', '-0.018225001', '-0.02010442', '-0.12737432', '0.03578094', '0.0034761552', '0.07925946', '-0.01648262', '-0.074540205', '0.04908871', '-0.06931909', '0.017396115', '0.021967813', '-0.023082828', '0.005101768', '0.010636203', '-0.01976658', '-0.014102152', '0.10277894', '-0.067775436', '-0.07267691', '-0.07465497', '0.079496816', '-0.0030590738', '-0.118705615', '-0.002800511', '0.033399355']
94, ['-0.038163994', '0.00045912282', '-0.079700164', '0.032329064', '0.03025775', '-0.16565993', '-0.008491776', '0.0074338713', '-0.03374197', '0.05003746', '0.011662982', '-0.043284494', '0.044696543', '-0.022675904', '-0.00086846313', '-0.03685877', '-0.029147087', '-0.05593681', '-0.038934685', '0.11199304', '0.019429592', '0.063491', '-0.020720854', '0.117619276', '-0.00725832', '-0.0075975577', '-0.0544017', '0.10194517', '0.06810105', '-0.0020101494', '-0.035968557', '0.039886825', '0.054588247', '0.053226817', '-0.032348808', '-0.012749924', '0.03105545', '0.015510775', '-0.11891357', '0.13704501', '0.06818759', '0.0987574', '-0.05714788', '-0.020533845', '-0.040911395', '0.03402108', '-0.07266525', '-0.076933056', '-0.018390208', '0.07536443']
95, ['-0.018797608', '-0.07611467', '0.06430009', '0.029000456', '-0.015243459', '-0.09406332', '-0.10960794', '0.019226493', '0.033192016', '0.05810818', '-0.0062547545', '-0.07604394', '0.052406058', '-0.04653856', '-0.039540987', '-0.08748474', '0.021888943', '-0.025501914', '-0.041164964', '-0.06850693', '0.044968627', '-0.011955951', '0.02558972', '0.0718847', '-0.058941', '-0.05923524', '-0.027509792', '0.091072954', '-0.101495855', '-0.082766555', '0.029097728', '-0.011737295', '-0.021738209', '0.026940659', '0.058532625', '-0.101715475', '-0.112587914', '-0.009042265', '0.18219039', '-0.0032731628', '-0.11189212', '0.078290515', '-0.06787178', '-0.07806621', '0.011588157', '0.0114690345', '0.06831725', '-0.1227215', '0.047648158', '0.0049882624']
96, ['-0.110858954', '-0.003836932', '-0.03482721', '-0.016239092', '-0.0065559098', '-0.14032938', '0.006702619', '-0.08099239', '-0.0563303', '-0.08961641', '0.0041201087', '0.007915088', '-0.02786023', '-0.018237457', '0.1246157', '0.009944304', '0.038689177', '0.062985964', '-0.009448642', '0.016980344', '0.051268235', '-0.06784081', '0.016437478', '-0.08271679', '0.036242153', '0.0130227795', '-0.035553534', '0.08260011', '-0.14750127', '-0.06654763', '-0.013763421', '0.02870924', '0.070796154', '0.050726138', '-0.014455751', '0.013543828', '0.12551922', '-0.054471776', '0.06467521', '0.07796759', '-0.05754898', '0.03776125', '-0.08309846', '-0.12385522', '0.14802344', '-0.16904375', '-0.0017775204', '0.17205055', '0.056769554', '0.11971343']
97, ['-0.07317353', '-0.06812347', '-0.04894251', '0.04918038', '-0.11905702', '0.041018195', '0.10147396', '0.055768117', '0.057682235', '0.018131267', '0.034297794', '-0.16496028', '-0.009406131', '-0.058821965', '0.084726654', '0.07489062', '-0.04916593', '0.034401614', '-0.09239239', '0.036024634', '0.04308731', '-0.09159434', '-0.019146295', '0.004903045', '-0.06688138', '-0.09089348', '-0.08777293', '0.018552724', '0.031586215', '0.017194543', '-0.01749127', '-0.005494743', '-0.0011965374', '-0.051089805', '0.06964033', '0.016653176', '0.034843944', '0.025827505', '-0.05071834', '-0.013837079', '-0.11139338', '0.07522753', '-0.08142227', '-0.051792067', '0.07129989', '-0.10139734', '0.056471735', '-0.027794505', '-0.0051720426', '0.0070074056']
98, ['-0.09748341', '-0.049975675', '0.024190804', '-0.026386885', '0.022121213', '-0.07030587', '-0.045317546', '-0.013957347', '0.029150076', '0.036245283', '-0.033014663', '-0.0434732', '-0.06259692', '0.10820876', '0.10764817', '0.0072706137', '0.07936241', '0.0081314165', '0.02386553', '-0.014981558', '0.14376535', '0.03473238', '-0.019560138', '-0.04523035', '-0.001391734', '0.035241313', '0.0016656438', '0.028290356', '0.0066036023', '-0.040649164', '-0.053418882', '-0.02550791', '0.085255995', '0.03788047', '-0.039648473', '0.026836088', '0.025289385', '0.049656987', '0.08343768', '0.06156992', '-0.07377655', '0.024819467', '0.024680898', '-0.044969615', '0.054897413', '0.0051452424', '-0.082559526', '-0.043818936', '-0.03908325', '-0.034299698']
99, ['0.09558483', '0.016446348', '0.07725955', '0.031801578', '-0.10809135', '-0.043045256', '-0.011023328', '-0.09056955', '0.082437165', '0.05778543', '-0.108565226', '0.020177083', '0.017006213', '0.03564965', '-0.022948705', '-0.02244864', '0.08629308', '0.06822237', '-0.009675365', '-0.0036229999', '-0.04079734', '0.037850033', '0.030879261', '-0.073780514', '0.018769046', '0.07301673', '0.050721765', '-0.021729274', '-0.0064890753', '0.15603025', '0.04354293', '-0.020873882', '-0.06655068', '0.07796743', '-0.042998187', '0.027566507', '-0.095741995', '-0.0026116744', '-0.022750909', '-0.040262718', '0.030075427', '0.070865616', '-0.049774766', '0.006514519', '-0.10678892', '0.059605192', '-0.11234869', '-0.07973389', '-0.03544985', '-0.043225724']
100, ['-0.0053623263', '0.006537241', '0.007611237', '-0.0009568368', '-0.028726034', '-0.041459184', '-0.010842117', '-0.013479618', '0.0055961376', '0.025375599', '-0.01106899', '-0.037470702', '-0.022251265', '0.046027683', '0.050904147', '0.007695975', '0.039426774', '0.03626463', '-0.026086047', '0.011661396', '0.04499', '-0.039631438', '-0.0027031351', '-0.0155095775', '-0.00032629623', '-0.014298286', '-0.0115855215', '0.043145623', '-0.017946394', '0.0010245079', '-0.010256569', '-0.025734885', '0.030282803', '-0.0048843836', '-0.0031190594', '0.016891474', '-0.009822801', '0.012871639', '0.019940076', '0.049644724', '-0.010335568', '0.051457565', '-0.06283574', '-0.04351375', '0.019918682', '-0.060014635', '-0.0141386045', '-0.008054366', '-0.025986753', '-0.014845728']
101, ['0.053977605', '0.045189798', '-0.018851606', '0.012904245', '0.072738566', '-0.09634849', '-0.013633341', '0.087045506', '0.09109494', '0.069017075', '0.047388867', '-0.0314977', '0.005804157', '0.14421673', '-0.002775732', '0.039486397', '-0.017627876', '0.041572314', '-0.01681083', '0.11771919', '0.012121962', '-0.039678887', '0.0086227935', '0.10187886', '0.0056825476', '-0.06321736', '-0.10695374', '0.03257506', '0.065465316', '-0.019091561', '-0.12789273', '0.032118678', '-0.010369715', '0.07950609', '0.05446699', '0.010355159', '-0.036218382', '0.08312702', '0.0065210145', '0.08969992', '0.053946827', '0.021921553', '-0.06027604', '-0.050198436', '0.07469217', '0.049865745', '-0.0052552754', '0.008509764', '-0.017187368', '-0.035215165']
102, ['-0.07081824', '0.0070404317', '0.017224008', '-0.050576586', '-0.0590445', '-0.07195702', '-0.09590008', '0.008115387', '-0.10022811', '0.009634375', '-0.026120799', '-0.0059514237', '-0.04840466', '0.041026123', '0.07249423', '0.038539514', '0.0080845', '-0.053556804', '-0.101780266', '-0.079112396', '0.085122265', '-0.042419862', '0.0638794', '-0.005495065', '0.01738099', '-0.045118403', '-0.0027199832', '0.047838632', '0.041439764', '-0.026576163', '0.041107442', '0.027543979', '0.15032975', '-0.1337706', '0.016329464', '-0.00785638', '-0.086395144', '0.046969805', '0.0011693398', '0.08881086', '-0.07963597', '0.0704048', '0.0031190298', '0.08040771', '0.016040733', '-0.050404485', '-0.018267803', '-0.024477717', '-0.025942078', '-0.09537953']
103, ['0.003124784', '0.020475456', '-0.040083285', '0.00630432', '0.029373504', '-0.014667745', '0.01833093', '-0.043355916', '0.008998539', '0.051258802', '0.05535207', '-0.088683695', '-0.11793789', '0.092947', '-0.068521336', '-0.049800918', '0.097397365', '0.01859887', '-0.03653089', '-0.10012761', '-0.026333954', '-0.042747576', '-0.08998593', '-0.0135032255', '-0.03446409', '0.008492586', '-0.061105482', '0.058660697', '-0.004421991', '-0.03764825', '0.037827544', '-0.12892962', '-0.085045636', '-0.08024605', '-0.019249246', '-0.026451178', '-0.06668023', '0.035338614', '0.10141611', '0.11124777', '-0.009873464', '0.03257956', '-0.09616215', '-0.07730229', '0.02716231', '-0.107901625', '0.1237581', '-0.10900947', '-0.03447216', '-0.033497784']
104, ['-0.01419026', '0.023247654', '-0.079593405', '0.06223747', '-0.03963403', '-0.005972106', '0.09930596', '0.07004761', '0.033488467', '0.07775704', '-0.0059375265', '-0.0913059', '-0.017862331', '0.056718174', '0.0024985578', '-0.12762415', '-0.07441826', '-0.0032641457', '0.01436868', '0.05956038', '0.070749424', '0.082496256', '-0.016789023', '0.014534448', '0.009458438', '-0.04728151', '0.08197958', '-0.014720961', '-0.07568174', '0.0026237948', '-0.00060511555', '0.10178472', '-0.087601446', '-0.088416226', '-0.10205976', '0.018437518', '0.031355012', '-0.096165605', '-0.04260277', '0.011366328', '-0.027047986', '0.0052116155', '-0.16585939', '0.019873967', '0.068099566', '0.06831977', '0.07288379', '0.08953438', '0.018799923', '-0.008192748']
105, ['-0.027669596', '-0.04450933', '0.016807737', '-0.067330875', '-0.087420054', '0.0368063', '0.068206355', '0.03434266', '0.02895172', '0.087179154', '0.025939465', '-0.00037814377', '0.012903378', '0.08353243', '-0.026963819', '-0.09907531', '0.091963805', '-0.057366244', '0.028064258', '0.024901262', '0.043634433', '-0.019078303', '-0.014109304', '0.033677198', '-0.025581364', '-0.0076210047', '0.04391996', '0.056585364', '-0.032120973', '-0.008668078', '-0.0927158', '-0.09658589', '-0.01528607', '0.013456847', '-0.018169833', '0.01983746', '0.03612352', '-0.03916904', '-0.042010326', '0.061109792', '0.041474134', '0.119157344', '-0.01578311', '-0.051816717', '-0.08905174', '0.003376273', '0.019688798', '-0.027688596', '0.042140298', '-0.030510593']
106, ['-0.032887675', '-0.039674718', '0.010614384', '0.052511226', '-0.065475926', '0.00438043', '0.066766664', '0.05690596', '-0.014459044', '0.05199371', '-0.0013148612', '-0.03579738', '0.056326676', '0.034095515', '0.07248309', '-0.018281808', '-0.044896707', '-0.04274082', '0.0149527015', '0.10791843', '-0.011652686', '-0.037974298', '0.030535614', '-0.084423974', '0.043398157', '-0.082562305', '0.027159408', '0.060697976', '-0.00818495', '-0.003871273', '-0.09474244', '-0.13217708', '-0.012666548', '-0.03894824', '-0.06923747', '-0.029122615', '-0.0857645', '-0.09768351', '-0.039100155', '-0.0647259', '-0.14036721', '0.020823473', '-0.059146482', '0.03992363', '-0.00265675', '-0.0022852267', '0.119066104', '-0.03138946', '-0.060589414', '-0.096840896']
107, ['-0.02036613', '-0.021979637', '-0.054443255', '0.05037803', '0.008911319', '0.020677784', '0.06428841', '-0.15764931', '0.020718563', '0.10463869', '0.062200777', '-0.044597805', '-0.04433917', '0.112983234', '-0.0021923133', '-0.040208798', '-0.036445513', '-0.0033437063', '-0.014752777', '-0.06439816', '0.060936276', '0.078563966', '0.007313625', '-0.027793277', '-0.1167567', '-0.017714962', '-0.07197841', '0.1632016', '0.03177302', '-0.07222872', '0.14019823', '-0.03355375', '0.013447261', '0.015183914', '-0.0065983245', '0.01456266', '0.031121511', '1.5149949e-05', '-0.037286326', '0.0049903197', '-0.00036581806', '0.04742341', '0.06900902', '-0.019420002', '-0.08689302', '0.09457592', '0.0207819', '-0.09717396', '0.056929037', '-0.05862604']
108, ['-0.045492657', '0.0104487', '0.014266964', '-0.0076470436', '-0.060156614', '-0.05663997', '0.10022997', '-0.012502683', '0.08681987', '-0.03525342', '-0.027219897', '-0.117486894', '0.04869634', '0.0078012273', '-0.07646562', '-0.06745534', '0.053529233', '0.1303013', '-0.010895668', '0.034078334', '0.08356121', '-0.0090377', '-0.026576199', '-0.012412293', '-0.018742017', '-0.07357708', '-0.058501557', '0.013503895', '-0.09221126', '0.0704672', '-0.10632041', '-0.11506688', '-0.018339638', '-0.1406815', '-0.049667265', '-0.058449', '-0.0686328', '0.008233209', '0.0039025168', '0.012012195', '-0.07023464', '-0.01244573', '0.024418542', '-0.009506268', '-0.014388504', '0.11146574', '0.038487487', '-0.024314532', '-0.042407766', '0.04596113']
109, ['-0.06054309', '0.0005291154', '0.055788506', '0.032913007', '-0.053752206', '-0.0015388038', '0.00534769', '0.027712204', '0.09216655', '-0.07839867', '0.10302579', '-0.030643608', '-0.09624832', '-0.042482', '0.008563435', '0.015572183', '0.12182105', '-0.058782734', '0.021727664', '0.042435084', '0.07875906', '-0.04376901', '0.013448145', '-0.040812634', '-0.0022648876', '-0.027146377', '0.0049861', '0.033095535', '0.0046941587', '0.022988772', '-0.04510277', '-0.06468436', '-0.013450844', '0.025263796', '-0.068567164', '-0.0637126', '0.04039828', '0.009149241', '-0.05209064', '0.053382076', '0.07437853', '-0.008948486', '-0.02376473', '-0.13437398', '0.0062320004', '-0.033259343', '0.04145129', '0.05190637', '-0.08348988', '0.059535485']
110, ['-0.010588107', '0.0020666837', '-0.028097766', '0.03673882', '-0.028449098', '0.0069161416', '0.06326766', '0.009804402', '0.07723562', '0.04701325', '0.046004143', '-0.032710694', '0.008919144', '0.05398559', '-0.0050467844', '-0.056766205', '-0.0032301254', '0.036616735', '0.034568224', '0.075512476', '0.056018207', '0.015837284', '-0.0011609875', '-0.040368397', '-0.035870668', '-0.01270153', '0.048539322', '0.05433987', '-0.04049812', '-0.020228246', '-0.019025603', '-0.05851075', '0.018167999', '-0.040228754', '-0.067309506', '0.009456049', '0.026564024', '-0.019023243', '0.008489857', '-0.043423735', '-0.04144078', '-0.05514074', '-0.03007197', '-0.013915959', '-0.0032046146', '0.05283908', '0.024757383', '-0.028218504', '-0.006894469', '0.0025247326']
111, ['0.0011371151', '-0.035742674', '-0.05261976', '0.021487335', '-0.091572076', '-0.05408352', '0.1132321', '-0.0016914167', '0.067031875', '0.12447173', '0.01566059', '0.019381996', '-0.018608078', '0.05091609', '0.006715652', '-0.026919099', '0.03833388', '0.002502705', '0.047325246', '0.10204095', '-0.02587006', '0.060952432', '0.06062492', '-0.0018911832', '-0.113830835', '-0.0978226', '0.033436827', '0.06246273', '-0.11319155', '0.099825', '0.056461457', '-0.009537604', '0.00038146003', '0.013604978', '0.035471458', '0.049484324', '0.018473674', '0.019802483', '0.0016783372', '-0.18070987', '-0.034633256', '0.090924196', '-0.07576599', '0.082524665', '8.808061e-05', '-0.006878355', '0.032358345', '0.021178398', '0.09826688', '0.019257046']
112, ['-0.010730037', '-0.011627269', '0.11722109', '0.023502244', '-0.02965546', '-0.0116552925', '-0.016241802', '0.016244743', '0.06934849', '0.007551933', '-0.07490371', '-0.08781879', '0.093526535', '0.03308', '0.102139175', '-0.073349595', '-0.11264557', '0.039389838', '-0.009872245', '-0.16371526', '0.039762855', '0.01961939', '0.12685515', '0.0107506355', '-0.014369324', '0.08503308', '-0.0013743561', '-0.095663615', '-0.10283381', '0.003492314', '-0.0522801', '-0.03313522', '0.059565105', '-0.06695701', '0.011529434', '-7.7702345e-05', '-0.0038706185', '0.012278999', '-0.047662552', '-0.11630342', '0.011086074', '0.029049233', '0.030619983', '0.058613103', '-0.05182501', '0.014400958', '0.011262836', '-0.009308998', '-0.09599819', '0.00244564']
113, ['0.020802999', '0.008789857', '0.048022445', '-0.03723599', '-0.11755508', '-0.03392248', '0.006721096', '0.02522234', '-0.005956532', '-0.06728383', '-0.036718126', '0.009140305', '0.07355946', '-0.08436255', '-0.0517043', '0.044239003', '0.004682887', '0.06020573', '0.025851352', '0.0442555', '0.005763888', '-0.054342933', '0.047312487', '-0.07365518', '0.07494489', '0.02475025', '-0.076076746', '0.007538434', '0.060795985', '-0.038418166', '-0.020796465', '0.010807416', '0.08950234', '-0.047505606', '0.040984925', '0.036765166', '-0.10374847', '-0.0105945645', '-0.04120536', '-0.048080094', '-0.1142146', '-0.035984207', '0.10482625', '-0.108291306', '-0.115004905', '-0.107769884', '0.06315472', '0.06935229', '0.0789899', '0.0307482']
114, ['0.037829135', '0.016398791', '-0.009836252', '-0.048317976', '-0.0390685', '0.019638536', '0.041339315', '0.047678687', '0.031402662', '-0.038956862', '-0.022771535', '-0.059930976', '0.009669668', '-0.10581726', '0.020158824', '0.0821438', '-0.051802676', '-0.03454637', '0.102901556', '-0.036998093', '0.06993072', '0.082347915', '0.053283352', '0.0035705613', '0.030485567', '0.09179036', '0.057794712', '-0.050069626', '0.03928233', '-0.047576576', '-0.09712501', '0.053627186', '-0.06293748', '-0.047067042', '0.03814362', '0.000846859', '-0.05096496', '0.00048504694', '0.06672938', '0.023147352', '-0.0580806', '-0.029106043', '0.037104648', '-0.047490127', '-0.054351237', '-0.083124936', '0.09424627', '-0.14017075', '0.049402416', '-0.03585088']
115, ['0.086010896', '-0.0006870097', '-0.06633591', '-0.14111051', '0.025630841', '-0.0069089783', '-0.02939246', '-0.025574025', '-0.012649221', '0.024329638', '-0.07148802', '-0.046651278', '0.03837354', '0.013693812', '0.05532982', '0.06300067', '0.07319564', '0.051273238', '0.028536515', '-0.09985348', '0.069177225', '0.04858643', '0.05124951', '-0.011001589', '0.032943066', '-0.085433185', '-0.016648632', '0.0388463', '-0.0013583981', '-0.027383747', '0.09311994', '-0.010244178', '-0.03458519', '-0.060802657', '-0.006045408', '-0.035754066', '-0.039529532', '-0.050356', '-0.04039789', '0.0048040925', '-0.108830415', '-0.03472789', '0.06425433', '-0.008673628', '0.09124788', '0.00048248805', '-0.056134067', '-0.0153898755', '-0.0035039773', '-0.10447593']
116, ['-0.055967797', '-0.078940436', '-0.0851856', '0.069916725', '-0.011817276', '0.04821212', '-0.07208884', '0.0070924256', '-0.05893684', '0.051646657', '-0.014246147', '0.027511587', '-0.05103914', '0.045965463', '0.029322004', '-0.032267157', '0.054979663', '-0.14060861', '-0.024231117', '-0.007873606', '-0.042003047', '0.018363014', '0.009359697', '-0.071354404', '-0.04755446', '0.09798194', '0.1745298', '-0.06529594', '0.027718466', '-0.09064909', '0.010190348', '0.046869583', '0.064223975', '0.02465953', '-0.016332997', '0.09932358', '0.037884627', '0.024528457', '0.04865751', '0.01759845', '0.01372105', '0.0034841325', '0.03887683', '0.02248715', '0.047241185', '0.08070204', '-0.029620104', '0.10410632', '0.04708864', '-0.046672363']
117, ['0.0134873595', '-0.021902068', '0.001534895', '-0.038296442', '-0.028139573', '0.023582388', '0.043088276', '-0.016727783', '0.045179594', '-0.032587685', '-0.021373125', '-0.046235602', '0.039115902', '-0.02202759', '-0.0061490317', '0.009470667', '-0.019376744', '0.023121603', '0.019502517', '-0.055310253', '-0.0033537303', '-0.0017887327', '0.04857375', '-0.048006136', '-0.0031191343', '0.075014114', '0.044074543', '-0.0043422356', '0.0099726925', '-0.020635279', '-0.046442416', '0.008357592', '0.035719465', '-0.035368096', '-0.020517133', '0.017914262', '-0.006950614', '-0.02038603', '0.010897184', '-0.03164751', '-0.0404646', '-0.053718723', '0.04657724', '-0.00040526784', '-0.0047162487', '-0.02022209', '0.024811102', '-0.008112306', '0.0149043985', '-0.013612784']
118, ['0.041546136', '-0.02390016', '0.010209292', '-0.09697644', '-0.07071737', '0.030015485', '0.15434688', '-0.0129477065', '-0.025034457', '-0.08600381', '-0.0011326827', '-0.019824931', '0.029083515', '-0.003789922', '-0.112468466', '-0.04914042', '-0.07645582', '0.1174929', '-0.03527572', '-0.04975116', '-0.16270481', '-0.05301541', '0.0799465', '-0.068976015', '-0.02535064', '0.111147314', '0.022532126', '0.038968693', '0.08150538', '0.050065875', '-0.058616612', '0.03066461', '0.008390729', '0.01949231', '-0.064774655', '0.025247518', '0.018583462', '-0.07763802', '-0.04568025', '-0.026478797', '-0.037418768', '-0.11346873', '0.0053218594', '0.017540894', '0.02667392', '-0.06773849', '0.014240461', '-0.032461796', '0.037501216', '0.06586418']
119, ['0.08868395', '-0.07331813', '-0.0013179521', '0.035841785', '-0.0133724315', '0.04696174', '0.048500907', '-0.077301994', '0.19643098', '-0.06773506', '-0.030703733', '-0.09371252', '0.13059126', '-0.07246192', '-0.0030635067', '0.11196383', '-0.018002827', '0.10310859', '-0.056432094', '-0.029329957', '0.020788677', '-0.0015619252', '-0.012405219', '-0.12933764', '-0.06947978', '-0.037216257', '0.010172927', '0.020653864', '-0.065628566', '-0.07095825', '-0.02176194', '-0.04808896', '0.049670514', '-0.10696484', '-0.06610278', '0.009094724', '0.038108498', '0.036600307', '0.12700158', '-0.07221691', '-0.06474803', '-0.012074158', '0.06313653', '0.116330504', '-0.029167676', '0.09378859', '-0.05035133', '0.01630006', '-0.021964842', '0.03138916']
120, ['0.015852738', '-0.03025038', '0.011610322', '-0.09467149', '-0.022112966', '0.06076606', '-0.04507511', '-0.09830872', '-0.052577917', '0.01269925', '0.09071089', '-0.065341026', '-0.12674737', '-0.006939108', '0.029622085', '0.0061499844', '-0.076993406', '-0.011248358', '-0.0541017', '-0.008316849', '0.055773493', '-0.042339977', '0.09603173', '0.10927868', '-0.046109706', '0.04542701', '-0.08254484', '0.017620718', '-0.015547403', '0.10907482', '-0.00732376', '-0.042436607', '-0.07336969', '-0.07544915', '-0.010767819', '-0.07333624', '-0.020353304', '0.015500114', '-0.023783201', '0.0030588831', '0.06754233', '-0.09533026', '-0.009757018', '-0.03905491', '-0.12574358', '-0.025758265', '0.021562433', '0.07270033', '0.04490735', '-0.090809755']
121, ['0.050541863', '0.002806981', '-0.030497003', '0.075899996', '-0.026798883', '-0.016639126', '0.025030924', '-0.08188789', '-0.060838304', '0.02455374', '-0.048070688', '-0.011152404', '-0.014854767', '0.06241348', '-0.06569446', '0.07531792', '0.097108305', '0.05963668', '-0.042791143', '0.04511948', '0.04491224', '-0.008175182', '0.052134223', '0.035908487', '0.06014878', '0.038323417', '0.02135466', '0.041308433', '-0.06500849', '-0.032695666', '0.009560385', '-0.06562841', '0.030512413', '0.0915281', '0.016458848', '-0.06317447', '-0.08408139', '0.0062287087', '-0.002281723', '0.04616765', '-0.04950345', '0.009738812', '0.05154912', '-0.0062846537', '-0.01844584', '-0.039043244', '0.021107402', '0.027659658', '-0.005157546', '-0.053891882']
122, ['-0.049005654', '0.025441455', '-0.10191251', '0.07765033', '0.10824417', '-0.063117705', '0.004554034', '-0.05273524', '-0.019413637', '0.0607478', '0.059604984', '0.066647455', '-0.06785412', '0.019203192', '0.07744528', '0.038952086', '0.083139755', '-0.035715595', '0.000118495256', '-0.03528931', '-0.020579612', '0.05252143', '-0.00045776067', '-0.007949797', '0.02767794', '0.005570392', '0.036157552', '-0.030340951', '0.007306549', '0.021837553', '0.08230656', '-0.00079521857', '-0.057134554', '-0.015982954', '-0.061683323', '-0.07566971', '-0.043492574', '-0.039838433', '0.04786775', '0.031469304', '-0.027181186', '0.0748907', '-0.0098326495', '-0.027614227', '-0.07422369', '-0.0042730416', '-0.015973255', '0.032477442', '-0.09910119', '0.055469144']
123, ['0.005164842', '0.087072864', '0.0070514455', '-0.007851635', '0.122863494', '-0.007261773', '-0.014877988', '-0.017917255', '0.022058617', '-0.0957053', '-0.061106868', '0.10188428', '-0.0034877465', '0.035229094', '0.03266129', '0.088763505', '0.04219801', '-0.0120139085', '0.080597036', '-0.018093225', '0.05637483', '-0.021195583', '-0.0076202527', '0.03205403', '0.07310066', '0.0098376125', '-0.019531054', '-0.0038291041', '0.07675168', '-0.018376382', '-0.062434513', '-0.023581404', '-0.009389864', '-0.05035729', '0.026355956', '0.09826896', '0.0062893163', '0.033697788', '-0.032502588', '-0.038206864', '0.021637375', '-0.03377483', '0.06461326', '0.013228133', '-0.026114246', '0.049023412', '-0.01455878', '0.031804975', '-0.0032607124', '-0.027972752']
124, ['-0.06342926', '-0.037714504', '-0.12814173', '-0.100598454', '0.013531759', '0.060194977', '-0.020610826', '-0.08189505', '-0.09313437', '-0.06139581', '-0.04554656', '-0.0025634638', '-0.036997996', '0.0071595665', '-0.1058931', '-0.029106326', '0.032539662', '0.053528868', '-0.024062855', '-0.029091438', '0.0718837', '0.07165112', '-0.07313074', '0.024185859', '0.020167682', '-0.018692369', '-0.03168345', '-0.052252974', '0.07721121', '0.055965893', '0.016763812', '0.04838243', '0.027002793', '-0.014281023', '0.020556347', '0.088899955', '-0.12424232', '-0.0062024356', '-0.024384065', '0.06565015', '0.016769513', '0.010911415', '0.09601089', '0.011672882', '0.054382686', '0.03662931', '-0.0037452327', '0.058901206', '-0.036524307', '-0.05248807']
125, ['-0.0057669864', '0.035280645', '-0.01789869', '-0.020465124', '-0.042420436', '-0.079314776', '-0.059191987', '-0.07179515', '-0.007771099', '0.05590561', '0.025574358', '0.004908147', '-0.0071963063', '0.0053391643', '-0.023478603', '0.09405786', '0.0008841785', '0.021574307', '-0.026034487', '0.0037589045', '0.000116794305', '-0.02872901', '-0.053769574', '0.024447033', '0.060432527', '0.06449482', '-0.048457786', '-0.020505195', '0.061686635', '0.009068586', '0.008617772', '0.06499717', '0.0048708473', '0.0069679664', '-0.03817272', '0.019837135', '-0.00021365048', '0.0066328775', '-0.0030746497', '-0.022246672', '0.017508961', '-0.08724463', '-0.026841652', '0.067282595', '0.012220559', '0.02795583', '0.025407493', '-0.008937638', '-0.033736516', '-0.04173066']
126, ['0.030725516', '-0.069737375', '-0.081457846', '-0.07208899', '-0.061727174', '0.01268945', '0.073355444', '-0.01625465', '-0.06324589', '0.034648355', '0.038667493', '0.053843692', '-0.03811333', '-0.03871274', '-0.0024747788', '0.007730938', '-0.016570361', '0.0112857865', '0.036302257', '0.05463515', '0.017581822', '-0.10408168', '0.075607836', '0.04512561', '-0.025643094', '0.034448225', '-0.04406593', '-0.030013867', '0.035249837', '-0.08461148', '0.042949863', '0.0015357722', '-0.03993389', '-0.012705398', '-0.10471292', '0.0922848', '0.0068157045', '0.0048702206', '0.11035018', '-0.005350811', '0.07177014', '-0.08681124', '-0.025613114', '-0.015149676', '0.03215049', '0.03459579', '0.048956774', '0.014465329', '-0.05586149', '-0.022003846']
127, ['0.057657193', '-0.038737383', '-0.05816207', '0.0009257103', '0.04272236', '0.025680307', '0.06571512', '-0.021269253', '-0.072561376', '0.013547414', '0.000763381', '0.039756432', '-0.02058509', '0.048379045', '0.037586357', '0.033744644', '0.03784713', '0.01735276', '-0.05283718', '-0.016448872', '0.059000716', '0.0088922', '0.00848176', '0.04618881', '0.022614239', '0.039181773', '0.0031733112', '-0.02351865', '0.020347156', '-0.011498387', '0.003183518', '0.0022831624', '-0.048651498', '-0.007723905', '-0.05276899', '0.0462604', '-0.043571193', '-0.054919615', '0.018958777', '-0.06321129', '0.05300829', '-0.009259313', '0.033889983', '0.008983679', '-0.029441198', '-0.024380388', '0.039880536', '0.03453231', '-0.00044630215', '-0.041374806']
128, ['-0.03574198', '-0.00067379844', '0.023018252', '0.013060699', '-0.020883197', '0.026196988', '0.0048690867', '0.014073563', '0.0631317', '0.037793778', '0.006277238', '0.009935701', '-0.0369439', '0.051940426', '-0.07413895', '-0.04440118', '0.11999039', '0.048533175', '-0.008130445', '0.04299398', '-0.07388143', '-0.04101102', '0.018059893', '-0.041218936', '0.019152584', '-0.001017022', '0.003571801', '-0.024569424', '0.09398029', '-0.037670504', '0.07086922', '-0.00082063663', '-0.007919003', '-0.09010848', '-0.03939634', '0.02896351', '0.077825814', '-0.06459713', '0.003614102', '-0.03797443', '-0.027693762', '-0.051352046', '0.07888711', '-0.16836722', '0.11145502', '-0.05129389', '-0.08354875', '0.0301761', '0.027611483', '0.07762918']
129, ['-0.015876673', '0.020932373', '0.026223732', '-0.0025911862', '-0.017714458', '-0.007856187', '-0.037837084', '-0.03189904', '0.021197103', '0.03457331', '-0.047645252', '0.018863779', '-0.056368094', '0.019639218', '-0.021968983', '0.008416404', '0.023243647', '-0.004060618', '0.075775705', '-0.07459349', '-0.0068660374', '-0.032966904', '-0.024438096', '0.015476449', '-0.012578891', '0.03264632', '0.04395853', '-0.04330619', '-0.022082636', '0.004846477', '0.0051780147', '0.06033275', '0.026394421', '-0.051646795', '0.017110856', '-0.012946403', '0.03671146', '0.008871308', '0.035046745', '-0.045474257', '0.028527653', '0.042759966', '0.036138665', '-0.04284288', '0.05101229', '-0.0068859635', '-0.03156513', '-0.008900944', '-0.016218698', '0.03140871']
