0, ['0.055784967', '-0.15436971', '-0.067582', '0.013040105', '-0.041869566', '0.029219203', '0.10601451', '0.025190374', '-0.22086981', '0.047385402', '-0.06595979', '0.06380878', '-0.029173573', '0.09335194', '-0.0016414203', '0.046628337', '-0.03068485', '0.0875663', '0.054442707', '0.15481141', '-0.016807225', '-0.047483265', '-0.02721354', '-0.11711301', '-0.04027703', '-0.054154027', '0.07763277', '0.008805709', '0.09543208', '0.046926044', '0.120341614', '-0.08544433', '-0.006942211', '0.13130617', '-0.006998338', '0.11092098', '-0.12510459', '-0.05887919', '-0.022148687', '-0.10542162', '-0.1035022', '-0.0050472454', '-0.07363962', '-0.010146477', '0.010679418', '0.059841465', '0.03769225', '0.091140226', '-0.09142787', '-0.04179675']
1, ['0.024546726', '-0.09182506', '-0.16633222', '-0.09963898', '-0.013542852', '0.077216335', '-0.1021715', '0.042837057', '-0.15531804', '0.066942155', '0.0044567226', '-0.058080718', '0.071729206', '-0.040574174', '0.020782184', '-0.065006346', '-0.07777681', '0.048938625', '0.037350252', '-0.003955714', '-0.030433131', '-0.031830385', '0.014384053', '-0.017176522', '-0.12921095', '0.079299174', '0.0012623897', '0.15528654', '0.14434314', '-0.03236782', '0.117455035', '-0.04584715', '0.08113004', '0.105969295', '0.07150283', '0.16847833', '0.0026343393', '0.115495235', '0.15752238', '-0.0021630023', '0.1384162', '0.02462034', '-0.08060058', '-0.08239676', '0.038890306', '0.15407595', '-0.025745792', '0.19672416', '-0.045196306', '0.008692054']
2, ['-0.0054622316', '0.088255554', '0.026754752', '0.11353902', '0.028231034', '0.17242748', '0.16715181', '0.081260405', '-0.044901703', '-0.11670242', '-0.039378706', '0.08916116', '-0.009279432', '0.06322193', '-0.08006475', '0.0047467905', '0.023167685', '0.12078555', '0.075124554', '0.0823364', '-0.023880895', '-0.025528759', '0.07747295', '-0.12932137', '0.12314244', '-0.06317561', '0.04933788', '-0.051657654', '-0.044358376', '-0.15429679', '-0.027716983', '-0.050050963', '0.021753794', '-0.04286243', '0.023648988', '0.018852346', '-0.029899105', '0.024009548', '-0.014801715', '0.047887392', '-0.12036845', '-0.0824019', '0.011305217', '0.014266975', '-0.10871688', '-0.07554491', '-0.016558707', '0.008229312', '-0.036130466', '0.006769164']
3, ['0.07346831', '-0.030883469', '-0.052022524', '0.039333966', '0.060468163', '0.0032130342', '0.004244546', '-0.05759468', '-0.034119368', '-0.035491724', '0.05888576', '-0.0038589418', '-0.04887122', '0.04324998', '0.025455195', '0.098298796', '0.0012553863', '-0.035042785', '0.034070414', '-0.06000159', '-0.03279624', '0.08588083', '0.050367195', '-0.06798996', '-0.072436966', '0.080310225', '-0.08390282', '0.0238871', '-0.021272901', '-0.048289612', '-0.004999855', '-0.0045284256', '-0.029123383', '-0.027652243', '-0.011625503', '0.024846138', '-0.015204869', '0.018978048', '-0.0046832617', '0.011484759', '0.06353013', '0.04809215', '-0.07076715', '0.0074923486', '-0.08135599', '-0.091209546', '-0.013626665', '-0.09775775', '-0.08136707', '-0.00034457495']
4, ['0.107189596', '0.04342227', '-0.014277168', '-0.09877546', '0.06883694', '-0.10281134', '-0.04274361', '0.1592361', '-0.023305137', '0.020526139', '-0.0031627724', '0.026781237', '0.08373026', '0.039096102', '0.061978593', '0.0976246', '0.13127589', '-0.07640741', '0.039848648', '0.04312453', '0.08554421', '-0.07077805', '0.07957824', '0.12138387', '-0.10267335', '0.11145889', '0.10961991', '0.019288003', '0.046018388', '-0.09836727', '-0.07170501', '-0.13720946', '0.15356383', '-0.04195412', '-0.0009138046', '-0.08486227', '0.021701543', '-0.035438783', '0.06366088', '0.026352726', '0.044693824', '-0.089199506', '0.045259237', '0.050643314', '0.11197341', '-0.16223048', '-0.0386632', '0.0024027894', '-0.08973939', '0.15928146']
5, ['-0.036575', '0.043088358', '-0.10029897', '-0.100948855', '-0.037892476', '0.11098498', '0.119953714', '0.1443019', '-0.03618221', '0.012664276', '0.037923157', '-0.076404706', '-0.114225715', '0.04828991', '-0.044351954', '0.035909', '0.044861197', '-0.09923148', '-0.016990894', '0.048719145', '-0.09727569', '0.032125138', '-0.04862699', '-0.035234794', '0.084957056', '-0.06951614', '-0.012135902', '-0.08177073', '-0.15560164', '0.04603926', '0.0018896065', '0.04401709', '-0.07442629', '0.13508226', '0.08199169', '-0.15856978', '0.05459398', '0.004676824', '-0.034721833', '0.021401765', '-0.08372879', '-0.12527964', '-0.039672475', '0.122190654', '-0.08426065', '-0.06490691', '0.08221392', '0.11416078', '-0.021852009', '-0.14121972']
6, ['0.008820108', '-0.018699706', '-0.055225693', '-0.032670546', '-0.000153869', '0.19850513', '-0.08115716', '-0.00019030325', '-0.044038348', '-0.014543055', '0.11447587', '-0.04861112', '-0.010239575', '-0.13769849', '-0.02486502', '-0.024241257', '0.10049847', '-0.1195049', '-0.110142805', '-0.04152775', '-0.043246467', '-0.01935958', '0.0216979', '-0.039384264', '0.080717795', '0.03688462', '-0.112434395', '-0.016511928', '-0.033551104', '-0.054481912', '0.03299428', '0.13823955', '0.05452448', '-0.050062176', '-0.028631445', '-0.1293449', '0.008866567', '-0.028771255', '0.015992397', '0.1273518', '0.08120167', '0.03521858', '-0.07881071', '-0.0894091', '-0.19343124', '-0.07017055', '-0.080220625', '0.16556923', '0.06921649', '-0.0030750223']
7, ['-0.034857396', '-0.11342352', '0.14609642', '0.035076927', '0.049401745', '-0.049736723', '0.083235376', '0.09498567', '0.11225044', '-0.034129303', '-0.04633213', '-0.018249074', '-0.03174346', '-0.00727416', '-0.02957776', '-0.046786517', '-0.11805777', '0.036326345', '0.038020615', '0.0036046768', '0.06774497', '0.09403888', '-0.03326211', '-0.0010543488', '0.09249543', '-0.060827754', '0.06011238', '-0.12878947', '0.002426167', '-0.065155976', '-0.06284011', '-0.029088913', '-0.043849215', '0.0545727', '0.028741572', '-0.0024622234', '0.0069958027', '-0.07487783', '-0.03571966', '-0.09454649', '0.091197036', '-0.07023576', '0.0075970944', '0.014076047', '0.017731126', '-0.030019483', '0.054823965', '-0.02331047', '0.057326317', '-0.0031965766']
8, ['0.04481812', '0.14713818', '-0.1306822', '0.008722858', '0.0071175084', '-0.0354921', '-0.119556785', '0.0013205443', '0.05721181', '-0.038854238', '-0.02772518', '-0.04638424', '0.01233172', '-0.08439767', '0.053539246', '0.034549277', '-0.14906128', '0.0027224743', '0.002833465', '-0.07115482', '-0.12627149', '0.20078833', '0.10655598', '-0.06993871', '0.052199394', '0.0002032929', '-0.1399666', '0.099016204', '0.03824161', '-0.052668724', '0.20448937', '0.06047322', '-0.02061102', '-0.03516924', '-0.032095123', '-0.05743484', '0.028991314', '-0.0467238', '-0.090638444', '-0.049687155', '0.056212954', '0.010176039', '-0.16286148', '-0.0891532', '-0.064927585', '0.041895986', '-0.064364985', '-0.15923673', '-0.22190078', '0.12781957']
9, ['-0.0969015', '-0.05270407', '-0.06320481', '0.04237959', '0.115806036', '0.0038970464', '-0.033869937', '-0.04436269', '0.13136792', '0.025836097', '-0.03593106', '-0.19260609', '0.033125594', '-0.012747451', '0.06236682', '0.04799486', '0.11069961', '-0.07165875', '0.14930607', '-0.0061769024', '-0.046124566', '-0.04720781', '-0.03895013', '0.13866526', '-0.057414357', '0.18058069', '0.025755934', '0.078929', '0.08593974', '-0.13251163', '-0.053715497', '-0.06586', '0.019240681', '0.09412971', '0.055484768', '0.06901558', '0.042554837', '0.05328553', '-0.037314374', '0.0008581595', '0.043712538', '-0.057139162', '-0.01998925', '-0.07027867', '0.04632022', '0.07477297', '-0.017165402', '-0.059776768', '0.08846038', '-0.073133074']
10, ['-0.10523066', '-0.08356251', '0.047820974', '0.15051386', '0.13747497', '-0.18949151', '0.09909861', '-0.113562115', '0.110908225', '0.050568547', '0.19660448', '-0.009750427', '-0.023005052', '-0.010639575', '0.052243806', '0.11355135', '-0.18937206', '0.007919626', '0.007935339', '-0.20771319', '0.07612489', '-0.0047973115', '-0.02705831', '-0.004292351', '-0.040315595', '0.025004078', '0.12298991', '-0.029426144', '-0.09080097', '0.016068965', '0.034834284', '0.063037686', '-0.06147169', '-0.009738274', '0.032018725', '-0.08956334', '0.009382735', '0.009293398', '0.017572127', '0.031655964', '0.051136836', '0.027996596', '-0.0066511924', '-6.1565835e-05', '-0.036218036', '0.12265645', '0.03431403', '-0.105980396', '0.10915668', '-0.13576765']
11, ['-0.11815408', '0.12419446', '0.071882695', '-0.10635303', '-0.11846614', '-0.04383409', '0.10066938', '-0.07766316', '0.102386266', '0.15776907', '-0.018053507', '0.0089383805', '-0.14634046', '0.17561069', '0.05909062', '0.16761972', '0.14626399', '-0.13370986', '0.048807144', '0.10267782', '-0.11168548', '0.11814025', '0.037512425', '-0.044096436', '-0.12962382', '-0.0018773391', '-0.022412568', '-0.0013749509', '0.03358761', '0.10827445', '-0.094912425', '0.08948937', '-0.023211781', '0.1676836', '0.064638495', '-0.03090132', '0.023946356', '-0.15813558', '0.041429855', '-0.104489155', '-0.08606775', '0.12815368', '0.0024032418', '-0.08604288', '0.13180853', '-0.052759305', '0.066548735', '-0.111166805', '-0.055384777', '0.05558594']
12, ['0.04266259', '0.14538763', '0.08062446', '-0.054624468', '-0.08945775', '-0.0023750425', '0.16364163', '0.00783696', '0.012023502', '0.095574625', '0.009301234', '-0.046431836', '-0.11319981', '0.1914344', '0.013392151', '0.004446328', '0.024666946', '-0.054905523', '0.025969086', '-0.04832248', '-0.007040935', '-0.030580968', '0.0016730702', '-0.032945886', '-0.014093444', '-0.0128983185', '-0.10131382', '0.0109989345', '0.018003551', '0.0021088948', '-0.10665727', '-0.008443743', '-0.025424395', '0.056161188', '0.02384896', '-0.118335314', '0.16595095', '0.11140991', '-0.017454516', '0.15937571', '0.012626054', '-0.0026616023', '0.12578572', '-0.0037648196', '0.0610711', '-0.13930829', '-0.038104136', '-0.091407', '0.058158662', '0.107352644']
13, ['-0.008110261', '0.032331813', '-0.08224958', '0.016327322', '-0.10773755', '-0.0378534', '0.027364826', '0.031834226', '0.04527794', '0.090167426', '-0.032265782', '-0.08669978', '0.053321373', '-0.0049136067', '0.032499455', '0.07178435', '0.09350133', '0.030595774', '-0.014369734', '-0.066324785', '0.041103147', '0.057101794', '0.017170137', '0.02283244', '-0.02826512', '0.12150752', '0.0049945875', '0.095603555', '0.09806959', '0.016183313', '-0.07486712', '-0.016770266', '0.007384191', '0.006760138', '0.09657672', '0.0010626343', '-0.050826285', '-0.07551755', '-0.057426028', '0.035035178', '-0.004681645', '-0.010936734', '0.03113544', '-0.006777516', '0.022238443', '-0.00075144257', '0.061382707', '0.098916404', '-0.067263626', '-0.045954417']
14, ['0.066554226', '0.03179517', '0.08311295', '0.038625192', '-0.13935456', '0.0074845552', '-0.13537394', '0.044376075', '-0.010573615', '0.056373823', '-0.05210674', '-0.15719202', '0.0114502115', '0.068485975', '0.08230354', '-0.051994678', '-0.021282632', '0.07626849', '0.004485489', '-0.08847845', '-0.054519616', '-0.06606991', '-0.03775613', '-0.035317425', '-0.10465573', '0.020298542', '-0.0049454323', '0.045033146', '0.064787686', '0.0076314574', '-0.110998884', '0.0030520265', '-0.059782784', '-0.07942436', '0.0071680485', '0.038768854', '-0.04352868', '0.079862125', '0.04928968', '0.015119538', '-0.010605212', '-0.039745614', '0.028694514', '-0.015454566', '0.09923143', '0.11518631', '-0.11712334', '0.08733683', '-0.053181734', '-0.04179967']
15, ['0.08058871', '-0.09155873', '0.06745133', '-0.026837675', '-0.042928495', '-0.07338037', '0.038190927', '0.14729854', '0.067775875', '-0.054645747', '-0.034558248', '-0.028523082', '-0.001245012', '-0.007687648', '-0.028617201', '0.020277865', '-0.08175152', '-0.0052899932', '0.045236852', '-0.03637358', '-0.050146993', '0.013583053', '-0.06155735', '0.013913637', '-0.0027566599', '0.050249927', '-0.027096028', '-0.018271303', '-0.05271037', '0.0881471', '-0.10833583', '-0.038338147', '0.10014066', '0.038529895', '-0.023994578', '-0.020812782', '-0.041006688', '-0.13614652', '-0.0012825707', '-0.07035399', '0.07062802', '0.004882055', '-0.08363563', '0.040198587', '-0.018037703', '0.01898023', '-0.004194257', '-0.010316236', '-0.10215969', '0.0005416168']
16, ['0.051574655', '-0.083044134', '0.0342407', '-0.09551625', '-0.06624028', '-0.06237186', '0.022218153', '0.07864558', '0.0037579392', '-0.020677334', '0.03190344', '-0.09980194', '0.027366437', '-0.00667529', '-0.018921789', '0.061705183', '0.06469439', '-0.090128064', '-0.036663163', '0.06881957', '0.09680235', '-0.048121173', '-0.0372387', '-0.11553822', '0.0020969268', '-0.029613312', '-0.039337277', '-0.026967164', '-0.12175287', '0.1072997', '-0.07697179', '-0.12995733', '-0.03481307', '-0.070869096', '-0.06472619', '0.0016546998', '0.08745469', '0.106237076', '0.104981914', '0.01715949', '0.021148793', '-0.041942783', '-0.02878216', '-0.03040514', '0.09237987', '-0.06794345', '0.017206216', '-0.14706323', '0.03268903', '-0.067739315']
17, ['0.1072317', '-0.11343694', '0.13851967', '-0.19536634', '0.1403806', '0.04856592', '-0.086107925', '-0.014913236', '0.009737045', '-0.07264272', '-0.041734207', '-0.06778103', '0.07870254', '0.05106194', '-0.018251833', '-0.1239543', '0.01640837', '-0.0077904323', '0.057364933', '0.10806718', '-0.036999807', '0.024769178', '0.0266797', '0.13465957', '-0.07041153', '-0.09797726', '0.0133370655', '-0.05248725', '0.082088366', '0.030872969', '0.24452817', '0.024208315', '0.050971728', '0.0566349', '-0.036966227', '0.06988441', '-0.022021372', '-0.08367289', '0.0067863828', '0.055136148', '-0.008132562', '-0.009634087', '0.11747607', '0.032157898', '-0.07529908', '-0.06573135', '-0.15529032', '-0.16117366', '0.09100533', '-0.011467213']
18, ['-0.18110104', '-0.10289858', '-0.08562799', '-0.1275233', '-0.21372807', '-0.025272558', '0.0054962393', '0.021490535', '-0.14762825', '-0.045528278', '-0.049208425', '-0.045277245', '-0.13906507', '-0.08284766', '-0.08668525', '-0.02259844', '0.0030127778', '0.019615108', '-0.047535334', '0.013493233', '0.026084697', '0.039840266', '-0.09077166', '0.0014778443', '-0.100229785', '-0.15541999', '0.012620896', '0.12792605', '0.052911624', '0.008646509', '0.04988676', '-0.013738303', '0.06101753', '0.08189137', '-0.12431689', '-0.02685423', '0.097811565', '-0.09567086', '-0.011730458', '0.0058525004', '0.10991891', '-0.052249204', '-0.024980342', '0.046913974', '0.10310585', '-0.101210274', '-0.03513558', '-0.044535216', '0.0344537', '0.050235156']
19, ['-0.0357649', '-0.08479938', '-0.19143763', '0.12634318', '0.15407236', '0.055116266', '-0.052710433', '-0.033610005', '0.019053444', '0.022884198', '0.012490769', '0.004063245', '0.115365654', '-0.0863971', '0.027909338', '-0.06062934', '0.012805843', '-0.0010217702', '-0.1259164', '0.008708155', '0.13653927', '-0.06594957', '-0.07438595', '-0.11339602', '-0.06558584', '-0.034832623', '0.0042062504', '0.04359569', '0.056373555', '-0.096541524', '0.03111634', '0.06310852', '0.09668718', '0.07226781', '-0.024949368', '0.003802174', '-0.11740001', '-0.09029759', '0.10705054', '0.042876597', '-0.046634935', '0.0798523', '-0.04728657', '-0.1478635', '0.060068443', '-0.04675397', '0.0014202651', '-0.038672063', '0.08568494', '0.020047916']
20, ['0.10339348', '0.01863511', '0.13299', '0.02410011', '-0.06249496', '-0.1390042', '0.103682525', '0.01664312', '-0.10996758', '0.02797506', '-0.09583154', '0.11130067', '-0.14236501', '0.014409674', '0.097018555', '0.017712774', '-0.16784807', '0.022297684', '-0.0643762', '0.12505463', '0.020319497', '-0.012846604', '-0.056793258', '-0.08311507', '0.024708344', '-0.27993286', '-0.025537644', '-0.09744072', '-0.0584258', '0.16353013', '-0.11785505', '0.059868537', '-0.09194381', '-0.04017923', '-0.01551175', '0.0090074055', '-0.016316557', '0.051024284', '-0.1293581', '-0.0085903425', '-0.054567687', '0.17163987', '-0.040005192', '0.014482346', '0.0029696503', '0.08770561', '-0.02027524', '-0.15986434', '0.035203986', '-0.025825758']
21, ['0.028499585', '-0.10715801', '0.07072788', '0.02009187', '-0.092991866', '-0.01318858', '0.01513628', '0.04376039', '-0.047558144', '0.1466635', '-0.10754214', '0.032223642', '0.076965', '-0.026039612', '0.03340609', '-0.11669065', '-0.05709048', '0.05210391', '0.07361173', '-0.090530924', '0.09794395', '-0.09790733', '0.06450402', '0.0065044053', '-0.020023294', '0.032817747', '-0.06978058', '0.023982326', '0.0018931996', '-0.034388598', '0.075405836', '-0.016473288', '0.04965573', '0.09384855', '0.06852672', '-0.0030882698', '0.021084357', '-0.057560373', '-0.032440998', '-0.09955652', '-0.006280583', '-0.037728317', '-0.06157175', '-0.026323542', '-0.024578681', '-0.046336435', '0.0029192267', '0.018220063', '0.08152546', '0.071546756']
22, ['-0.0047979774', '0.020253899', '-0.030312516', '-0.043119516', '-0.114140145', '-0.12995966', '-0.07543682', '0.16788176', '-0.10884339', '0.025864275', '0.03663784', '-0.051439065', '-0.08804847', '-0.0832597', '-0.039018124', '-0.08373663', '0.023893422', '-0.090475075', '0.10598025', '-0.13301662', '-0.14487772', '0.061063524', '-0.15765963', '0.014732428', '-0.015004949', '0.069171175', '0.015944785', '0.013488933', '-0.00036730382', '0.025761604', '0.05001218', '-0.02649701', '-0.008620929', '0.011414276', '0.055024743', '-0.036941316', '-0.061966863', '-0.0018212476', '0.08782509', '0.09851969', '0.012112371', '0.010387804', '0.06304398', '-0.03976886', '-0.0048441263', '-0.08987269', '0.07600982', '-0.055876713', '-0.016560137', '4.8800607e-06']
23, ['-0.004530432', '0.01313818', '0.044118144', '-0.042894624', '-0.040151518', '0.08293241', '-0.13559067', '0.047244247', '-0.049489625', '0.019717786', '-0.105976716', '-0.02204116', '0.097044624', '0.13483869', '0.08271831', '-0.004324653', '-0.062760696', '-0.18038848', '0.1085283', '0.03227445', '0.13489023', '-0.05289592', '-0.055249583', '-0.11692869', '0.027552232', '0.020387718', '-0.15096311', '0.04489115', '-0.05929358', '0.022197144', '-0.035682768', '-0.10054499', '0.06995969', '0.10147305', '0.0805789', '-0.011062374', '0.0192961', '0.025815938', '0.012800307', '-0.046770666', '-0.05767101', '0.008816735', '0.06833927', '-0.078872986', '-0.14807047', '0.067902155', '0.025574919', '0.13719617', '-0.0020660632', '-0.07799434']
24, ['0.0111366', '-0.085652545', '0.057607614', '-0.02165479', '-0.1048015', '-0.028470721', '0.13344821', '-0.05575601', '-0.034497395', '0.042266835', '-0.059766702', '0.009758203', '0.12958054', '0.046756573', '-0.031325907', '0.074129984', '0.035004154', '0.07074968', '0.0033139577', '0.08254522', '0.059428982', '-0.0020870806', '0.11367645', '0.17681974', '-0.124179415', '0.050951745', '0.045142163', '-0.10497903', '-0.008494591', '0.031876244', '-0.0047325557', '-0.0046845083', '-0.056486733', '0.10894132', '0.09871506', '0.085556895', '0.055229627', '-0.07584862', '0.07104467', '0.024568548', '0.1294455', '0.048374522', '0.040999323', '0.14446197', '0.05557218', '0.045971654', '0.043038882', '0.006367335', '0.08570793', '0.077445105']
25, ['-0.17398603', '-0.14255163', '-0.13602516', '0.10623369', '-0.11529492', '0.035259634', '-0.04063667', '0.054557707', '-0.10205693', '-0.113800205', '-0.071721464', '-0.061987646', '0.05668232', '-0.056392074', '-0.040377136', '-0.0031905442', '0.04140717', '0.12029623', '-0.032136586', '0.13637632', '0.015074874', '0.02624895', '-0.016133461', '0.10111967', '-0.047268584', '-0.13207777', '0.0046614856', '-0.05825401', '-0.06360675', '-0.050167736', '0.093611434', '0.0006334314', '-0.018545287', '0.12742974', '-0.08755653', '0.076624475', '-0.05943346', '-0.04675208', '0.06311373', '-0.009150644', '0.12708566', '-0.035066966', '-0.068186685', '0.21531714', '-0.050422966', '0.08639084', '-0.021402491', '0.17859581', '-0.05060108', '-0.056291834']
26, ['0.08150534', '0.00857363', '0.075053416', '0.09365533', '-0.0417664', '0.025484452', '-0.030862266', '0.014001529', '-0.03149088', '-0.07908109', '0.01725811', '-0.017349605', '0.009169233', '0.10626367', '-0.052963983', '0.115940884', '0.09194258', '-0.07973618', '0.05690438', '-0.06750108', '-0.1259371', '0.012738904', '0.035008356', '0.02813176', '0.08301688', '0.08366541', '-0.069313355', '-0.050981335', '-0.098706156', '0.04669025', '-0.04649385', '0.06696986', '-0.15437585', '0.013512275', '0.081804395', '-0.106175795', '-0.04033785', '-0.051404826', '-0.09314211', '-0.03167335', '-0.049123865', '-0.030626247', '0.026438067', '-0.10417181', '0.07727223', '0.10977955', '0.08717561', '0.08267727', '-0.02365838', '0.022181395']
27, ['0.09872457', '-0.030562287', '0.031214952', '0.025157712', '0.10136975', '-0.10825488', '0.085515104', '0.015053835', '-0.011646552', '0.05585788', '-0.05434583', '-0.059413042', '0.03008221', '-0.02906557', '-0.072031304', '-0.12559229', '-0.07360093', '-0.025711492', '-0.06019494', '0.093025', '-0.065183066', '-0.04969277', '0.0767929', '0.1169889', '-0.099314995', '-0.05019385', '-0.080730274', '-0.0502621', '0.023748571', '0.012910172', '-0.049600627', '0.119625255', '-0.0016488646', '-0.031114796', '0.008668944', '-0.053086884', '-0.19452931', '-0.077475294', '-0.02228229', '0.13171642', '0.057025827', '0.10759929', '-0.023073386', '0.02488647', '-0.062440936', '0.05932484', '0.06944169', '0.011822621', '-0.01744158', '-0.0040177056']
28, ['-0.105772175', '0.04118317', '-0.063960284', '-0.007652883', '-0.010156095', '-0.05338033', '0.021939944', '0.09014851', '0.011805573', '-0.046436857', '-0.022376193', '-0.079658076', '-0.0002569834', '-0.049609557', '-0.00038139537', '-0.05886953', '-0.044443555', '-0.067698', '0.050991565', '-0.018003698', '-0.029873637', '0.06053251', '0.049704157', '-0.06945776', '0.07003848', '0.004735595', '-0.04146312', '0.036431823', '-0.04863254', '-0.06459066', '-0.050388407', '0.06832867', '-0.004696947', '-0.055197634', '-0.022760859', '-0.056298144', '0.0826582', '-0.05756749', '-0.06928606', '0.06596787', '-0.07815835', '-0.06393027', '-0.03336456', '-0.118385434', '0.12959361', '-0.11068312', '0.004282111', '-0.027055718', '0.02759389', '0.07005788']
29, ['0.102841474', '0.005559003', '-0.09344251', '0.10776456', '-0.031276166', '0.009506801', '-0.05140303', '0.08161153', '0.082375415', '0.09066482', '-0.06681414', '0.02270056', '-0.10498048', '-0.04047973', '0.09135949', '0.098404676', '0.080589205', '-0.089034535', '-0.10647879', '0.10066738', '0.113567986', '0.10466265', '-0.09331303', '-0.09662489', '0.022731382', '-0.022659447', '0.0633639', '0.04444445', '-0.030719772', '0.053961307', '-0.018853623', '-0.025509857', '0.06770368', '0.010263958', '-0.036274165', '0.026788553', '0.09684038', '-0.03437606', '0.035347123', '-0.066617474', '-0.01809691', '-0.030243438', '-0.10265096', '0.022749024', '0.05618539', '0.10834994', '-0.06287541', '-0.05713292', '0.07364289', '-0.12990206']
30, ['-0.06857635', '-0.08411321', '0.05757034', '-0.085683465', '-0.077114746', '-0.03368518', '0.10716374', '-0.05437868', '0.0021810026', '-0.0752005', '0.0123152', '-0.0899213', '0.092832595', '0.03391125', '0.0015126623', '0.028297', '-0.07291042', '-0.02193224', '0.015048727', '0.14328307', '0.0901149', '-0.045873687', '0.0688481', '-0.025970446', '-0.059202194', '-0.022556046', '-0.014466858', '-0.040480908', '-0.052936673', '0.08219974', '-0.00014641053', '0.045831554', '-0.053108152', '0.07553277', '-0.008637506', '0.09312776', '0.061208352', '0.0040636407', '0.012000164', '0.065725885', '0.03223765', '0.018350374', '0.055998344', '0.01972099', '-0.08900566', '-0.0388266', '0.027941676', '0.01706589', '0.077319056', '-0.106406264']
31, ['-0.09520049', '-0.003450499', '-0.07014532', '-0.051176652', '-0.09379859', '-0.0012672243', '-0.07550359', '-0.0071227904', '0.036883965', '-0.011206865', '-0.06768221', '0.13567302', '0.037525345', '0.05279984', '0.1050943', '0.012751779', '-0.00940929', '-0.073904075', '0.0505081', '0.08775938', '0.022573844', '-0.05172122', '0.031355593', '-0.05784578', '-0.0305616', '-0.012987933', '-0.10714534', '0.013778634', '0.19591987', '-0.04189173', '0.014503743', '-0.014266138', '-0.07168835', '0.089663036', '-0.18786548', '0.069897', '0.06770533', '-0.13167399', '0.04255349', '0.018453533', '0.003076245', '-0.09262959', '-0.06333659', '0.09572962', '-0.06541629', '0.031930856', '-0.046474386', '-0.09829993', '-0.059348132', '0.026012128']
32, ['-0.24665877', '0.0393203', '0.055433996', '0.05061963', '0.022073822', '0.0020105715', '-0.08506325', '-0.015418595', '0.0738735', '-0.039783973', '-0.076548345', '0.12282567', '-0.0025784853', '0.029606454', '-0.032111727', '-0.006923126', '0.18388087', '-0.007299907', '0.061251923', '-0.008058338', '0.07337323', '0.14594875', '0.039277717', '0.018865153', '0.16616069', '0.10829701', '0.15612072', '-0.1967093', '-0.08778641', '0.0887408', '-0.016536906', '-0.12974076', '0.17025909', '-0.014903263', '0.092754245', '0.10298049', '-0.014092065', '0.050917264', '0.019968892', '0.047714535', '0.011957222', '0.15002832', '0.021809788', '-0.07773038', '0.18300033', '0.076893866', '0.012630563', '-0.074234456', '0.014988436', '0.10754167']
33, ['-0.072902754', '-0.058139943', '-0.16504896', '0.07046157', '-0.024742419', '0.07458807', '0.022847', '-0.041157737', '-0.033848584', '0.0029247322', '0.001294292', '0.053519677', '0.045501012', '0.09002107', '-0.025083594', '0.026308969', '-0.07391102', '-0.009491298', '0.020759122', '-0.114403695', '-0.041892618', '0.019845868', '0.071578756', '-0.01485734', '-0.030702287', '0.07679435', '0.007376857', '0.08081529', '0.07578444', '0.13154377', '-0.06517626', '-0.035446968', '-0.017585473', '-0.023128465', '-0.0050412207', '-0.065898165', '-0.045151204', '0.023108829', '-0.052429773', '-0.04426851', '-0.03776776', '0.0054554516', '-0.009143122', '0.046617907', '0.029101828', '0.019245574', '0.010390668', '-0.09830049', '0.11999839', '0.09653945']
34, ['0.038829368', '-0.07498342', '-0.011009574', '-0.016322987', '-0.124462366', '0.051427573', '0.05609289', '0.074367024', '0.054643378', '-0.08905874', '-0.14138545', '0.026414214', '-0.089158356', '0.010062542', '0.11359414', '-0.08375123', '0.018477803', '-0.057001136', '0.15012422', '-0.12776838', '0.08905781', '-0.04777372', '0.17592856', '-0.02325987', '-0.24627116', '-0.09662991', '0.08703642', '-0.0013311321', '-0.14421101', '-0.065763414', '0.13945623', '-0.12775764', '0.041516665', '-0.07812989', '0.13052817', '-0.044879064', '0.0063882484', '0.052064527', '0.02685576', '-0.03776447', '-0.1388466', '0.0047744145', '0.20568898', '0.13456239', '-0.090830155', '-0.18788673', '0.041190773', '0.088326275', '-0.08620101', '0.083432786']
35, ['0.09950389', '-0.0069455006', '-0.12726699', '-0.07713008', '-0.059603024', '0.0766248', '0.02994628', '0.07492034', '-0.0798888', '-0.09233387', '-0.040942594', '-0.037920866', '0.072462864', '-6.173516e-05', '-0.016842633', '-0.03330479', '-0.0033065781', '0.080599256', '-0.019028693', '-0.15495737', '0.057755794', '-0.09580972', '0.023529813', '0.032774124', '-0.019568147', '0.102883756', '-0.017447', '0.036258236', '-0.08038838', '0.02317041', '0.039244354', '-0.034558713', '0.05334281', '-0.077213265', '0.07204644', '0.060644202', '0.008160091', '-0.03931512', '0.03868489', '0.111899406', '-0.055938188', '-0.023509435', '-0.044165254', '0.060958885', '-0.00090900756', '0.039900746', '0.106349595', '0.027497537', '-0.087135084', '-0.09561958']
36, ['0.052142054', '-0.1418425', '-0.12002542', '-0.19349112', '-0.091371894', '-0.0036206394', '-0.09016005', '-0.0029565508', '-0.02034124', '-0.15810245', '0.0386031', '-0.048231095', '0.09345019', '0.02659742', '-0.011030853', '0.03385905', '0.036805153', '-0.03699503', '-0.0914323', '-0.028922409', '0.079215035', '-0.09643705', '-0.11621332', '0.012324845', '-0.06396844', '-0.0517165', '-0.08234926', '-0.025370259', '-0.14517298', '0.024715267', '0.09158077', '-0.06382655', '0.021351486', '0.04947733', '-0.05991361', '-0.046215422', '-0.083254464', '-0.13087416', '0.0048056026', '-0.062875904', '-0.082469374', '-0.019727586', '0.1085521', '-0.01961957', '-0.015872777', '-0.0063756458', '0.16764992', '-0.06041554', '-0.14184283', '-0.14268948']
37, ['-0.0592175', '0.09836602', '0.0808444', '-0.039955325', '-0.03673315', '0.0631879', '0.11623327', '0.054923993', '0.028568722', '-0.060411297', '0.055499125', '0.1282107', '-0.07013389', '-0.12891449', '0.01176934', '0.09342714', '0.061763115', '0.0049519353', '0.08315345', '-0.06325271', '-0.003738608', '0.094108105', '0.08029117', '0.011213351', '0.11457283', '0.06938121', '-0.016556276', '-0.11433833', '-0.014442536', '0.07382186', '0.041918322', '-0.04794532', '0.07278546', '0.0028778077', '0.0018641882', '-0.012457756', '0.005900562', '-0.10280009', '0.07033266', '0.00704364', '0.11168474', '0.011061209', '0.02222715', '-0.048727628', '0.01795383', '-0.10421621', '0.11955184', '-0.11464246', '-0.054254916', '0.08833443']
38, ['0.046535864', '0.13418242', '-0.060046602', '0.057482317', '-0.045213275', '0.01476803', '-0.057158038', '0.16282955', '0.034975216', '0.04570233', '-0.039842602', '-0.0070722657', '0.10065283', '0.03808052', '-0.013928429', '-0.14429402', '-0.17847918', '-0.09254723', '0.04235955', '-0.010703688', '0.0577451', '-0.110378735', '0.04127158', '-0.057705276', '-0.12595512', '0.10279095', '0.038271297', '-0.029988145', '0.009047371', '0.03448158', '0.07512723', '0.10421242', '-0.00039515013', '-0.12522544', '-0.0005293241', '0.11184392', '0.072816364', '0.044599738', '-0.09876961', '-0.08435143', '0.08795244', '-0.08723409', '-0.15955466', '0.0041373144', '-0.07294652', '-0.026450299', '0.038381286', '0.174852', '-0.026452327', '0.041932493']
39, ['0.123640746', '0.1346727', '-0.0684808', '-0.028727803', '0.031825326', '0.081518516', '0.13411006', '0.03212065', '0.027879193', '0.09060954', '0.099815056', '0.06555146', '0.08638129', '0.049459655', '-0.030246753', '0.14805777', '-0.0027611505', '-0.009001991', '0.009208481', '0.1597853', '-0.1152834', '-0.30233577', '0.15972978', '0.09506448', '-0.0660467', '-0.03723852', '-0.026294485', '0.079371765', '-0.058284983', '0.016300205', '0.10155213', '0.019152818', '0.066494405', '0.0021701658', '0.03779976', '0.017976254', '0.09506475', '0.041151997', '0.109842815', '-0.015954453', '0.0057769674', '-0.02970492', '-0.20816764', '-0.007888003', '0.11753873', '0.116993226', '0.11052961', '0.009243078', '0.07751048', '0.019555997']
40, ['0.06850728', '-0.0050437404', '0.1501314', '-0.12982094', '-0.021063345', '0.10296083', '-0.0934972', '-0.013249379', '0.0994243', '0.11331663', '0.083122306', '0.003620423', '0.016673114', '0.109037295', '-0.0673925', '0.117935784', '0.018765897', '0.020733774', '0.0036475689', '0.055577748', '-0.046691544', '0.027720427', '-0.12482425', '-0.05140326', '0.07078331', '-0.053051226', '0.07778995', '0.026797595', '-0.02859338', '-0.021053737', '0.04246988', '-0.09718598', '0.0020715233', '0.028893817', '0.038317204', '0.1354279', '0.101427436', '0.11653175', '0.0061084926', '-0.12933742', '0.16611578', '-0.029126728', '-0.062799774', '0.06002734', '0.012221417', '0.028763033', '0.17171131', '0.08573099', '-0.06847208', '-0.102647655']
41, ['-0.09777326', '-0.036440223', '0.004993839', '-0.060727764', '-0.036986366', '0.058664475', '0.010925834', '0.072492875', '0.108655706', '0.03504215', '0.00043816926', '0.047562253', '0.061428394', '0.028809998', '-0.007154757', '0.05311316', '0.0849372', '-0.028014185', '0.066547625', '-0.056114476', '0.024990676', '-0.034582026', '0.0034980068', '-0.012073902', '-0.004068044', '-0.045723338', '0.05632564', '0.008847312', '-0.04136628', '-0.028276227', '-0.057224624', '0.024369918', '0.11496211', '0.001247308', '0.06766558', '0.071975656', '0.05515234', '0.030602321', '-0.07935038', '-0.0019783967', '-0.018822', '0.12612206', '-0.01819896', '0.021090789', '0.033576924', '-0.100254975', '0.016570788', '0.0009388793', '-0.020924283', '0.013959488']
42, ['0.12534007', '0.060028255', '0.168836', '-0.025926702', '-0.0030805394', '-0.1489133', '-0.07807691', '-0.10160186', '0.07373972', '0.21196687', '0.038878', '0.023005124', '0.020721035', '0.014539456', '-0.03768097', '-0.0021649513', '-0.004259749', '-0.07678618', '0.023220122', '-0.053608947', '-0.010451913', '-0.009156451', '-0.004277232', '-0.06671492', '-0.08238245', '0.14138073', '-0.09825458', '-0.08060193', '0.0553493', '0.056043524', '0.046088357', '0.013682123', '0.07945436', '-0.08631732', '0.09970483', '0.08211319', '-0.022625549', '0.084418185', '0.10410414', '0.05717685', '0.109081216', '0.08734964', '0.058322564', '-0.054089826', '0.1330694', '0.045206185', '0.07224794', '0.028707692', '0.035046615', '0.07616024']
43, ['-0.026261838', '-0.022046795', '-0.05044286', '-0.043682195', '-0.09163669', '-0.17447318', '-0.1598284', '-0.12008819', '-0.024976188', '0.04099332', '0.03219222', '-0.06422154', '-0.012645092', '0.1846088', '-0.11454731', '0.07672736', '-0.07846256', '0.05930591', '-0.06987088', '0.05348869', '0.036622543', '-0.024083016', '-0.027981667', '0.09059463', '-0.10457072', '0.059802394', '-0.11962106', '0.00908273', '-0.0054018144', '0.15887669', '0.049725514', '0.019563643', '0.09571435', '-0.022361511', '-0.030885952', '-0.08557567', '-0.087982915', '0.007883155', '0.019854346', '0.011658842', '-0.05824601', '-0.033878364', '-0.050457336', '-0.028703528', '0.13382114', '0.16205113', '0.07011519', '-0.04939663', '-0.04178082', '0.13393553']
44, ['-0.05577943', '0.08630064', '-0.0825214', '-0.014897576', '-0.04190477', '-0.06415689', '0.0843543', '0.020990882', '-0.08881655', '-0.13402212', '-0.15652993', '0.06199442', '-0.037936304', '-0.1234975', '0.035712145', '0.04554034', '0.11215232', '0.08709123', '-0.051153395', '-0.21416965', '0.07979928', '0.020025078', '0.1097005', '0.10208641', '0.13936484', '0.106826484', '-0.014788722', '-0.057732444', '-0.034197222', '0.11100404', '-0.037725814', '-0.12221163', '-0.078613035', '-0.03279007', '0.017468289', '-0.16349983', '0.049385983', '-0.056467187', '-0.028038574', '0.1009555', '0.04982759', '-0.1180429', '-0.009810604', '0.16941626', '0.052098867', '0.07450399', '0.08327696', '-0.0230129', '0.010614776', '0.082152516']
45, ['-0.1317728', '0.050730288', '-0.030641964', '0.14448673', '0.0027987857', '-0.07620852', '0.050246906', '-0.027467279', '-0.08667261', '0.07169066', '-0.055515356', '-0.015581403', '0.067578025', '-0.0150533235', '-0.0025984826', '0.015698174', '-0.1478774', '0.09072153', '0.03155579', '0.114299916', '0.08381664', '-0.10867942', '0.17409712', '0.031943396', '-0.028496288', '-0.047161583', '-0.124323346', '-0.0040258486', '-0.0024085967', '-0.05891789', '-0.016376428', '0.031536464', '0.11830868', '0.09835211', '0.02118177', '-0.090304494', '-0.05719081', '0.056918606', '-0.015545861', '0.20163816', '-0.031376194', '0.043536574', '-0.03803157', '0.06025443', '0.044838425', '0.054969117', '-0.069517165', '0.08091484', '0.03636767', '0.027831774']
46, ['0.00958939', '0.0658963', '0.037625108', '-0.035969924', '0.040522963', '-0.106325276', '0.047256798', '-0.08134667', '-0.005999838', '0.083637305', '-0.08872645', '0.10719772', '-0.10001466', '-0.037641283', '-0.025303092', '-0.009788139', '0.059974477', '-0.059226356', '-0.014979716', '-0.0268641', '0.034288924', '0.03180746', '0.045416795', '-0.11460439', '-0.0032861794', '0.061121617', '-0.017881127', '0.017346988', '0.041226603', '-0.06259796', '-0.031699542', '-0.02299693', '0.056329213', '-0.048481215', '-0.002775481', '-0.08800477', '-0.00066175655', '-0.07546908', '0.07102549', '0.115517676', '-0.043501675', '-0.06617922', '0.07366317', '0.106853835', '-0.0130243255', '-0.06796067', '0.06709209', '0.0348701', '0.07511178', '0.0301005']
47, ['0.15537386', '0.08256663', '0.10020583', '-0.07598952', '-0.11335784', '0.0063790055', '0.031233301', '-0.09788407', '0.036382485', '0.07785376', '-0.1692956', '-0.074153595', '0.07289833', '-0.083604485', '-0.021070475', '-0.0062341383', '0.104474485', '0.04417509', '0.041635923', '-0.060601193', '-0.03191519', '-0.12431325', '-0.04657294', '-0.0022279753', '0.06047648', '0.027019339', '-0.06327314', '-0.020122921', '-0.018675653', '0.071584575', '0.06125375', '-0.04915734', '-0.041365393', '-0.13132025', '0.007048705', '-0.066423565', '0.008711836', '0.0033959325', '-0.026431447', '0.0063035665', '-0.07954814', '-0.0065581556', '-0.04221993', '0.10367248', '-0.059050072', '-0.026133832', '0.08334851', '0.0021954752', '0.035858426', '0.075478025']
48, ['0.14571965', '-0.019227881', '0.15933603', '-0.14568916', '0.072757244', '-0.013367821', '0.13520533', '0.062725306', '-0.121080905', '0.11335136', '-0.16251095', '0.071257874', '0.099971734', '0.096565515', '0.01693203', '0.014347437', '0.045498006', '-0.00050367333', '-0.09908615', '-0.086373754', '-0.03614916', '-0.040564336', '0.15449437', '-0.096115', '0.09599653', '-0.05656093', '-0.05099714', '-0.030676285', '0.0029072294', '-0.07295834', '-0.04379345', '-0.05518334', '-0.091615014', '-0.04072645', '0.012264358', '-0.07044829', '0.18172944', '-0.011996343', '0.0675615', '0.08315135', '-0.099845015', '0.09134361', '0.039085202', '0.008829164', '0.040695824', '0.16230921', '-0.0757123', '-0.16754875', '-0.1289075', '-0.015728258']
49, ['0.11857177', '0.080739975', '-0.078882016', '0.055356637', '-0.09816306', '0.09805826', '-0.048449166', '0.051520266', '0.10161212', '0.05406032', '-0.08596014', '-0.028600872', '0.038834367', '-0.0060038813', '-0.11160049', '-0.033407453', '-0.048907787', '0.07116567', '-0.029253894', '-0.08309724', '-0.038088378', '-0.021250306', '-0.18290345', '-0.06740964', '-0.07353763', '0.0552596', '0.07004589', '0.008592926', '0.028354716', '0.02793458', '-0.04421772', '0.10585037', '-0.04528069', '0.134457', '0.14206189', '-0.028481213', '0.039275706', '0.063832164', '-0.06538292', '-0.10044375', '-0.06646611', '-0.055201974', '-0.046963282', '0.04705506', '0.038971428', '-0.16269934', '0.079931356', '-0.030535655', '-0.068004765', '0.041935105']
50, ['0.05332982', '-0.12931588', '-0.06757284', '-0.03616449', '-0.02210438', '-0.090917304', '-0.041629527', '-0.030010894', '-0.005163921', '0.05976812', '-0.018558653', '-0.024690578', '-0.04173389', '0.02005058', '0.06304227', '0.035518374', '-0.024500744', '-0.029154837', '0.032745883', '0.09961822', '0.0049389913', '-0.1807598', '-0.07801513', '-0.016588975', '-0.13546334', '-0.024932671', '-0.15444605', '0.070523486', '0.026308872', '-0.2280024', '-0.07916528', '0.13010193', '0.12665725', '0.014312177', '-0.116582476', '-0.003211199', '-0.027489057', '0.022043591', '0.057873618', '0.09365936', '-0.16161482', '-0.0133426385', '0.036590163', '0.04583852', '0.03560186', '-0.10365166', '0.03912045', '0.08120696', '-0.096174456', '-0.026322355']
51, ['-0.13178514', '0.08819096', '0.010691045', '0.009007042', '-0.033051368', '0.097685315', '-0.011763564', '-0.113031745', '-0.13107364', '0.036859676', '-0.05676554', '-0.07633215', '0.119405836', '-0.10611921', '-0.07694891', '0.120718144', '-0.035209052', '-0.028051954', '-0.0935489', '-0.012999427', '-0.030382637', '0.12219781', '-0.016623335', '-0.11410291', '0.1380629', '0.04580672', '-0.08160132', '-0.00043920166', '-0.036933675', '0.059465267', '-0.09101493', '0.073572345', '-0.030861799', '-0.08190118', '0.053426087', '-0.05050078', '0.012370402', '0.017959202', '0.079935454', '-0.073193125', '-0.012398482', '0.032418117', '-0.032019105', '0.050915334', '-0.03227673', '0.017707327', '0.07539788', '-0.033246037', '0.0925501', '-0.15658753']
52, ['-0.053864677', '-0.166844', '0.033615403', '0.054083224', '-0.04019386', '-0.0134304715', '0.060642168', '-0.010212526', '-0.15263304', '0.034799322', '0.015685907', '0.033766657', '0.043114934', '0.098744795', '0.03887371', '0.009975197', '0.13389483', '0.086597756', '0.03240165', '-0.059443798', '0.014499107', '-0.08166103', '0.08379247', '0.06785605', '0.059932206', '0.115018845', '-0.03904675', '-0.028451802', '0.008369236', '-0.05872645', '0.02683095', '-0.08221632', '0.22598511', '-0.15293562', '-0.056311347', '0.09538906', '0.0020224892', '0.0783635', '-0.12524569', '0.081359595', '-0.099851', '0.109981194', '0.11651733', '-0.076457925', '0.018123876', '-0.07446955', '-0.05257142', '-0.055396035', '-0.11697374', '0.059347995']
53, ['0.098727636', '0.1658684', '0.043659728', '0.039303936', '-0.15515536', '0.11698988', '0.012113918', '-0.028970052', '0.051212274', '0.10285297', '-0.16075224', '0.12081767', '0.04101388', '-0.051429067', '-0.09039843', '-0.07087367', '0.0891822', '-0.07704642', '0.022455519', '0.10760796', '-0.087566845', '-0.02214998', '0.10307551', '-0.06562105', '0.045257725', '0.09632586', '0.14200507', '-0.003336259', '-0.036754522', '0.042435564', '-0.10527552', '-0.08863913', '-0.024846837', '0.06465471', '0.009449136', '-0.047859777', '-0.005388874', '-0.03428841', '0.0055925343', '0.035361413', '0.06342314', '0.05512422', '-0.010094244', '-0.04454149', '0.03163361', '-0.14518291', '0.010594012', '-0.0062996102', '0.039289348', '-0.002990957']
54, ['-0.13485615', '-0.106797405', '0.045449987', '-0.060774248', '0.15060504', '-0.051912736', '-0.007190673', '-0.11518583', '-0.043516975', '-0.19498463', '-0.029263448', '0.058489945', '0.07056547', '0.10698416', '0.11394817', '0.15969817', '0.16665998', '-0.115165', '0.0814122', '0.016334632', '0.043559566', '-0.039603703', '-0.11356487', '-0.06900895', '0.13520344', '0.04234693', '0.1476094', '0.05758002', '-0.073928595', '0.1396893', '-0.121161886', '-0.041856512', '0.13712902', '-0.16102093', '-0.16063924', '0.017279321', '0.07127813', '-0.04082107', '0.0632211', '0.005252272', '-0.1407672', '0.13662449', '0.11616145', '-0.07149176', '0.100624815', '-0.07988157', '-0.024220018', '0.15255778', '0.152203', '0.11256848']
55, ['0.06125224', '-0.101737656', '-0.065245084', '0.04853835', '0.012021162', '0.09248581', '0.1846176', '0.074207045', '0.06439604', '0.074622646', '-0.018793168', '0.03333562', '0.06603753', '0.03286717', '0.011291424', '0.073855795', '0.028440384', '-0.1244074', '-0.029463243', '-0.11241665', '0.0033918472', '-0.07864693', '-0.024468081', '-0.06725628', '-0.01966911', '-0.085874386', '-0.04790758', '0.048172027', '0.11539716', '-0.10977061', '0.036972374', '-0.078727394', '-0.16730355', '-0.22968735', '0.029150805', '-0.008399324', '0.26562843', '-0.040962413', '0.060222905', '0.015494847', '-0.029931601', '0.00034101482', '0.0150791', '0.1562083', '-0.062205322', '-0.091068655', '0.09495007', '0.19474499', '0.10564997', '0.052807834']
56, ['0.012916449', '0.040602133', '0.039536472', '0.11076799', '-0.11317936', '0.0343835', '-0.03192365', '-0.010362005', '-0.05963283', '-0.010715016', '0.03708687', '0.013329654', '-0.12759402', '-0.030494926', '-0.09385326', '-0.072493166', '-0.08006973', '0.09481314', '0.13314474', '0.037952095', '-0.098164275', '-0.12414014', '-0.09226663', '0.06093717', '-0.058932155', '0.05675187', '-0.070244886', '-0.011949717', '-0.13334474', '-0.14725418', '-0.10289898', '0.14845356', '0.08190556', '0.12163632', '0.036045834', '-0.0068620364', '-0.0457467', '0.09321878', '-0.055057764', '-0.028040832', '-0.006444755', '-0.051556874', '-0.011734133', '-0.13084419', '0.006927425', '-0.19775225', '0.08278584', '-0.026508827', '-0.016369034', '-0.020501474']
57, ['0.05017472', '-0.084022254', '0.27367803', '0.15930918', '0.067352645', '-0.096600145', '0.104897276', '0.0599125', '0.021984382', '0.12282092', '-0.044139955', '-0.028198335', '-0.10329676', '0.028422797', '-0.10147807', '0.049708676', '-0.060128484', '0.11265356', '0.12102781', '0.18355717', '-0.05399324', '0.08777927', '0.24164468', '0.08632919', '-0.03498637', '-0.065146275', '-0.03391641', '-0.11437536', '-0.0007617112', '-0.017606044', '0.10257578', '-0.07428635', '-0.0801857', '0.007944385', '0.083550155', '0.01889297', '0.06440234', '-0.13759397', '-0.04214983', '0.091725565', '-0.061303277', '0.062452663', '-0.20663573', '-0.07470469', '0.12082987', '-0.115741424', '-0.087669104', '-0.04065135', '-0.04536372', '0.009464227']
58, ['-0.10846087', '0.054761317', '0.01175786', '-0.057626955', '0.042663686', '-0.046006884', '-0.0020369445', '0.16306417', '-0.20151004', '-0.11237356', '-0.0132851275', '0.135726', '-0.16387244', '0.033001017', '0.045859657', '-0.15174116', '0.023627706', '-0.046411704', '-0.18843469', '-0.07947177', '-0.20034522', '-0.028414669', '0.028699648', '-0.09378424', '0.047242504', '-0.14511634', '0.003015322', '-0.055440407', '-0.075340375', '0.009645078', '0.20935361', '-0.014282686', '0.011433846', '0.001470425', '0.08758528', '0.114571236', '0.16487771', '0.11612566', '0.11812602', '-0.075859636', '0.020364167', '0.09629502', '0.059682824', '-0.147533', '0.069047965', '0.03164068', '0.038290873', '-0.047148515', '0.00422584', '0.026000844']
59, ['-0.0050250576', '-0.053419676', '-0.06879972', '0.004031484', '0.15730166', '0.055508886', '-0.062002704', '-0.04926378', '0.11265586', '-0.1277774', '0.0742042', '0.018244898', '-0.12360892', '0.047124222', '0.025004392', '0.08287843', '0.034409206', '-0.08169246', '0.027362974', '0.09554648', '-0.15897311', '0.09108354', '-0.022007728', '0.025342215', '-0.014147004', '0.16354129', '0.110454105', '0.002868377', '0.047540575', '0.072709456', '-0.11359552', '0.020626115', '0.03059939', '0.0385624', '-0.026676422', '-0.021484178', '0.06963568', '-0.007027808', '0.15966634', '0.16136451', '0.025447844', '0.026898298', '-0.037978373', '-0.012733584', '0.051639717', '-0.040485404', '0.09862789', '0.16497743', '-0.10697901', '0.18563846']
60, ['-0.0103569515', '-0.034649517', '0.021074666', '0.010368788', '0.011236255', '0.019264173', '0.015864264', '-0.011221176', '-0.026389265', '0.00054495496', '-0.032412827', '0.005614915', '0.0017983372', '0.029968785', '0.021942096', '0.030735008', '0.039031178', '-0.004060461', '0.0070353705', '0.004480798', '-0.040258195', '-0.020610217', '0.035502065', '0.017963054', '0.029433493', '0.024625205', '0.021610769', '-0.024914952', '-0.010290955', '-0.018165907', '-0.0065636113', '-0.0040401234', '0.0033603734', '-0.020895913', '-0.006399797', '-0.0070533976', '0.03864876', '0.028421544', '0.035325676', '0.037637763', '-0.04623279', '0.0514328', '0.023896588', '-0.024524627', '0.06225964', '-0.040265188', '0.042557064', '0.015697708', '-0.031008651', '0.034470923']
61, ['-0.0509723', '-0.06041793', '-0.029168332', '-0.039971452', '-0.02975414', '0.10703268', '0.019007232', '-0.013012217', '0.12231288', '0.049915224', '-0.020545483', '-0.02172948', '0.097343035', '-0.12662253', '0.03398062', '0.08857453', '0.21806297', '-0.012475647', '0.11584721', '0.102430716', '0.0030645118', '-0.13027178', '-0.03951642', '0.15581334', '0.024259351', '0.044734303', '0.11093201', '-0.10923513', '0.03006905', '0.109028876', '-0.020203939', '-0.020610077', '0.09336892', '0.044164315', '-0.15663183', '-0.14310011', '-0.11513738', '-0.052719243', '-0.04709569', '0.014198713', '-0.027822625', '0.02241284', '0.11197022', '-0.13040845', '0.058525916', '0.17747654', '-0.09561112', '0.02011651', '-0.1674618', '0.03619186']
62, ['0.047397673', '-0.01449498', '-0.21857122', '0.14026421', '0.26647556', '-0.016671143', '-0.04096919', '0.05447748', '0.18511105', '-0.16354062', '0.014114242', '0.064368315', '0.05820701', '0.12990344', '0.2237129', '0.25027162', '-0.029389035', '-0.1046431', '-0.019281186', '0.08505941', '0.12897018', '-0.15422018', '-0.030651856', '0.12532097', '-0.124585904', '-0.042048287', '-0.07836431', '-0.054741144', '0.18616013', '0.09947468', '-0.13638139', '-0.119318165', '-0.19877897', '0.04337696', '-0.023731403', '-0.09071801', '-0.046959344', '-0.08977738', '0.10349409', '-0.03827504', '-0.04337519', '-0.24593139', '0.08754774', '0.17412144', '0.18371066', '0.13142285', '0.109060556', '0.14542843', '-0.06778593', '-0.015656043']
63, ['0.009127722', '-0.057130743', '-0.12312238', '-0.13636334', '0.08379351', '-0.053925946', '-0.08256246', '0.08035628', '0.017952172', '0.08038934', '-0.028268805', '0.0562293', '0.085949555', '0.06975641', '0.1703067', '0.04266504', '-0.03566147', '0.0022121242', '0.017565897', '-0.022780405', '-0.020221999', '0.085981555', '0.09461684', '0.1284713', '0.0869418', '-0.068490416', '-0.040676136', '0.062422067', '0.11366216', '-0.11164541', '0.02061373', '0.009382118', '-0.16691037', '0.12891206', '0.043738488', '0.009400261', '0.02220105', '-0.021359513', '0.20717628', '-0.0004749064', '-0.097774275', '0.045072522', '-0.013276235', '0.040620714', '0.14653759', '-0.08687278', '0.16642475', '-0.06873839', '0.04776618', '-0.031703245']
64, ['0.019176405', '-0.034866743', '0.04332864', '-0.05072065', '-0.10821254', '0.022787046', '0.003636493', '-0.01616246', '0.03752296', '-0.055412445', '-0.003060587', '0.07971412', '0.09414731', '0.015722543', '-0.028708914', '0.124380164', '0.029561866', '0.13321303', '0.1157369', '-0.013502362', '0.0217057', '0.11977624', '-0.010381038', '-0.023774432', '-0.0037076997', '0.15521295', '0.13209857', '0.005906049', '0.024925208', '0.13899712', '0.12432278', '-0.07108493', '-0.03892512', '0.11551477', '0.08832624', '0.120143294', '0.21287538', '-0.0079603335', '-0.046564545', '-0.066485696', '-0.019207072', '-0.111570835', '0.08175496', '0.135296', '-0.121212825', '-0.03380126', '-0.1654889', '-0.10032079', '0.05827281', '0.0050709564']
65, ['-0.13662495', '0.086619414', '0.1005725', '-0.093991876', '0.051313285', '-0.10013685', '0.052441142', '-0.02709021', '-0.069435745', '0.0047228634', '0.023853173', '0.059378006', '0.11840426', '0.09251854', '0.056618027', '-0.010673287', '0.04034067', '0.06818251', '0.079057604', '0.07076469', '-0.05294876', '0.024848778', '-0.07372667', '0.012479204', '0.05904602', '0.12428736', '0.025677443', '-0.089715466', '-0.039202366', '-0.08433652', '-0.15011251', '0.074366465', '-0.0120983925', '0.06405152', '-0.10999375', '0.07066969', '-0.05758297', '-0.03239711', '0.091099046', '0.019737944', '0.042864848', '0.011103583', '0.20285103', '-0.057589095', '-0.014843514', '0.038639326', '0.018333906', '-0.04882418', '-0.054792505', '0.020091752']
66, ['-0.13289167', '-0.031531367', '0.10364735', '0.083841644', '-0.08773956', '-0.06851576', '0.12329484', '0.008159933', '0.03596401', '0.041703835', '-0.019056426', '-0.09218088', '-0.011916988', '-0.0672522', '-0.13258894', '-0.049086653', '-0.06503935', '0.139836', '0.023937223', '0.053672336', '-0.011083628', '-0.045900475', '-0.029065149', '-0.009016915', '0.09530653', '0.026262296', '-0.022335777', '-0.0061021503', '0.070874356', '-0.051980563', '-0.04060755', '0.045442633', '-0.008969409', '-0.08878425', '-0.15644503', '0.009131806', '-0.028863208', '0.011067646', '-0.07258279', '0.10425406', '0.039139584', '-0.0583678', '-0.044414636', '-0.050130602', '-0.090848304', '0.11619525', '-0.015630957', '-0.10910749', '-0.05111755', '-0.027016817']
67, ['-0.07284842', '0.006427514', '0.18265021', '0.06663061', '-0.039005473', '-0.23214473', '-0.062189367', '-0.034023736', '0.17428306', '-0.17482734', '-0.11897286', '-0.0748454', '-0.0028164887', '-0.04188899', '0.13117035', '-0.09091648', '-0.24017037', '-0.1458807', '0.10187973', '-0.011528995', '0.13057932', '-0.047213573', '0.18239252', '0.065461', '0.0045392253', '0.09795731', '-0.20834479', '0.05042478', '-0.1218387', '0.02866116', '-0.041876096', '-0.13681175', '0.11700042', '-0.20672809', '-0.19040054', '0.049938317', '-0.06757068', '0.011632429', '0.028824806', '-0.01007536', '0.22248992', '0.036306307', '0.047609076', '-0.039504696', '-0.09807323', '-0.050274838', '0.08732665', '0.10427611', '0.054773394', '0.028284634']
68, ['0.0001598048', '0.17404354', '0.14404878', '-0.032067433', '0.10464447', '0.0029724347', '0.028486613', '-0.11921751', '0.029191641', '0.15931001', '-0.014024427', '0.07058854', '-0.015107726', '-0.0236434', '0.009783003', '0.0027462896', '-0.15983528', '0.04895589', '0.12144884', '0.050825663', '-0.14776683', '0.071850106', '0.07187963', '0.008765073', '-0.12747088', '0.07556106', '-0.03190466', '0.04363144', '0.041403867', '-0.023018692', '-0.0033779074', '0.14270027', '-0.095525265', '0.19933546', '0.1266304', '-0.05590456', '0.003127348', '-0.08750732', '0.06393565', '-0.0066903657', '0.0413375', '0.0104045365', '-0.06945006', '0.10108208', '-0.22239433', '-0.042594366', '0.010367579', '-0.03560483', '-0.026828522', '0.0005541572']
69, ['-0.06405506', '0.08672904', '0.015385702', '-0.07134392', '0.16861434', '-0.029986907', '0.06327564', '-0.023415077', '0.21068233', '0.07891795', '-0.12534852', '-0.07575432', '0.031327903', '0.10050421', '-0.16622186', '-0.049244042', '0.072042204', '0.052693576', '0.00707497', '0.034775555', '-0.02488012', '0.05302734', '-0.0960865', '-0.07951622', '0.028698957', '-0.08639188', '0.00089306483', '0.055244017', '0.0064023323', '0.02309187', '-0.104701616', '0.13602872', '-0.048650775', '-0.05560721', '-0.12789968', '0.03701313', '-0.093791746', '0.044725295', '0.041975215', '0.013877254', '0.03294462', '0.034355167', '-0.094498314', '0.031966165', '0.07470638', '0.11545046', '-0.01172316', '0.033619534', '-0.019288322', '-0.018589698']
70, ['0.06907995', '-0.07012362', '-0.07709327', '0.028174756', '0.012715184', '0.08866415', '-0.014681061', '0.021620704', '0.009107575', '0.10099377', '-0.07398465', '0.06561022', '0.07008718', '-0.21177848', '-0.10987359', '-0.09621904', '-0.017989988', '0.06513529', '-0.05687041', '-0.010231253', '-0.115360275', '0.1496079', '0.0477629', '0.11153491', '0.08274879', '0.028100204', '0.25296602', '-0.057788163', '-0.033539083', '-0.025801234', '0.076048106', '0.04991387', '-0.07539645', '0.093045294', '0.15715492', '-0.08465835', '-0.06285166', '-0.17429194', '-0.046373516', '0.029369704', '0.051814035', '0.09255086', '-0.08968422', '-0.012820037', '-0.0018001513', '0.06273126', '0.03720887', '0.0021326658', '-0.007583274', '0.04574981']
71, ['-0.026534863', '-0.0033302677', '0.053130344', '0.007573698', '0.04464614', '-0.010665535', '-0.022900846', '-0.00054309046', '0.059635673', '-0.00315007', '-0.05354647', '-0.0061531104', '0.023877937', '0.016091198', '0.025419269', '-0.030058531', '-0.038518626', '0.0060005276', '-0.0127152745', '0.052702993', '0.0043657953', '0.044736408', '0.033783335', '-0.005103954', '-0.0075865756', '0.05504316', '0.055267062', '-0.014112734', '0.017437845', '0.007896709', '-0.011299375', '0.018362364', '-0.01999791', '0.07085626', '0.02037322', '0.01374824', '-0.017649949', '-0.010947761', '0.019965418', '-0.008878536', '0.013411929', '-0.003986699', '0.05872506', '-0.019054294', '-0.033685006', '0.012248404', '0.010139584', '-0.012824056', '-0.00076917355', '0.027146256']
72, ['-0.028719064', '0.10014432', '-0.0014396134', '-0.057688836', '-0.049028814', '-0.23066656', '-0.011383617', '0.009948604', '0.07712065', '0.05545181', '-0.1899575', '-0.015535313', '0.09570628', '-0.07490065', '0.06733346', '0.010520102', '-0.10579712', '-0.11884733', '-0.013560623', '0.124733284', '0.22729', '0.04094654', '0.023332717', '0.0130333975', '-0.16669077', '0.08427281', '0.08309532', '-0.048244826', '-0.137516', '-0.04635792', '-0.078717515', '0.049413998', '-0.042617604', '0.13117994', '0.06347628', '-0.07375291', '0.037646614', '-0.12349281', '-0.09008144', '-0.19197117', '0.033471007', '-0.052293453', '0.08309731', '-0.08869316', '0.06961325', '0.025428412', '0.080867454', '-0.0464706', '-0.028159022', '-0.0026759906']
73, ['-0.041617695', '-0.09700072', '-0.06121096', '-0.03206819', '-0.1424847', '0.15683971', '0.03125974', '0.08955692', '0.07974992', '-0.06472744', '-0.09325975', '0.04773262', '-0.012271245', '-0.07851559', '0.05707974', '-0.010322984', '0.06535556', '0.017167978', '0.1276181', '-0.014755505', '0.09315633', '0.07695882', '-0.086196505', '-0.04845868', '0.12793112', '0.09696269', '0.14112528', '-0.045096', '-0.037359245', '-0.067858875', '-0.04050309', '-0.045435004', '0.004647901', '0.094370306', '-0.027763855', '0.09215283', '0.1015174', '0.008128413', '-0.019211186', '-0.080041245', '0.030977005', '-0.05599095', '0.043746408', '-0.076433465', '-0.022242589', '-0.06968524', '0.051038515', '-0.08552877', '-0.083077505', '0.08407341']
74, ['0.065137476', '-0.02966896', '-0.09138013', '0.11937069', '-0.033125427', '0.10527366', '0.008265849', '0.029257784', '0.042293932', '-0.035266075', '0.022308448', '-0.08616442', '-0.09664593', '0.083066486', '0.03821892', '-0.071261846', '-0.009078374', '-0.04962735', '-0.06559557', '0.14797257', '-0.15177271', '-0.12326309', '-0.022876758', '0.050319105', '-0.09104344', '0.1401775', '-0.038410734', '0.004130128', '0.06599377', '0.13064085', '-0.039046388', '-0.041476358', '-0.009373572', '-0.07572693', '0.009632793', '0.09398315', '-0.07213546', '0.039549287', '-0.060531702', '0.044723444', '-0.115146555', '-0.020467894', '-0.037848346', '-0.011998208', '-0.12427024', '0.010540881', '0.09739558', '-0.00091172784', '-0.013285337', '-0.03676461']
75, ['-0.02086083', '-0.044582542', '0.0940288', '0.19170836', '0.17639413', '0.0023078886', '-0.2178912', '0.071338065', '-0.0016889677', '-0.011258367', '-0.17668237', '-0.008489856', '-0.090780996', '0.015730744', '0.064361215', '-0.07518489', '-0.05659443', '-0.12243893', '-0.10016652', '-0.091334544', '-0.096490875', '-0.0070640463', '-0.01711182', '-0.034202296', '0.04562381', '-0.044756506', '0.027769499', '-0.02540618', '0.13012682', '-0.1010126', '0.08028031', '0.024514541', '0.032143094', '0.10791705', '0.124256425', '-0.16607437', '-0.16651708', '0.09693676', '0.011182105', '-0.0076160077', '-0.08662527', '0.12611759', '-0.025739452', '0.04987259', '-0.17890014', '0.0049988176', '0.077406526', '-0.052821826', '-0.08594236', '0.20598534']
76, ['0.14941029', '0.030592345', '0.026237428', '0.11441466', '0.096549526', '0.17782658', '-0.087475196', '-0.081732236', '0.15060346', '0.08657163', '-0.10200818', '0.036413178', '-0.007628371', '0.1268665', '0.08358855', '-0.046604387', '0.10328938', '0.06208963', '-0.15256087', '0.14483184', '-0.085547626', '0.04925347', '0.14640875', '0.10102839', '-0.09236516', '-0.005211987', '-0.11173653', '0.050963007', '0.10083535', '-0.13357252', '0.05294973', '-0.04109946', '0.014611282', '0.06193544', '0.07123542', '0.08350911', '-0.0757649', '-0.20937471', '-0.12594183', '-0.053293534', '-0.12100755', '0.06695095', '0.012057141', '-0.0931312', '0.09237207', '-0.040151168', '-0.025260223', '-0.112565935', '-0.034665477', '0.019568373']
77, ['0.011459426', '-0.11309061', '0.06609607', '0.054608352', '-0.01418698', '0.012989488', '-0.07086278', '0.14061387', '0.1450079', '0.05118468', '0.086959146', '0.050274476', '0.11277431', '-0.0582564', '0.07284107', '-0.041354503', '-0.011116857', '0.021934453', '0.03926758', '0.10667633', '-0.02518708', '0.1462895', '0.11405078', '-0.09338091', '0.038152754', '0.005459179', '0.0031761855', '-0.045860846', '0.09832528', '-0.0074583655', '-0.046784494', '-0.15236042', '-0.003766738', '0.03591348', '0.051227633', '0.09109107', '-0.06635798', '-0.008458055', '0.026983134', '-0.05211476', '0.034860294', '-0.086973265', '0.2729412', '-0.067069575', '0.09645974', '-0.07842218', '-0.11562948', '0.059914183', '0.009012616', '-0.10203718']
78, ['-0.17041579', '-0.13081618', '-0.04634931', '0.084056646', '0.07161513', '-0.1286824', '0.08166263', '0.06604525', '-0.046026755', '0.0009628822', '0.08556526', '0.12492684', '0.084127985', '-0.036333706', '-0.051938634', '0.034688745', '-0.024270158', '0.045768626', '-0.0189033', '0.046146836', '0.019430857', '0.014590385', '0.022889229', '-0.045586318', '0.08294415', '0.041834146', '0.057022713', '-0.113144554', '0.10666438', '0.042904772', '-0.07595316', '0.05999612', '0.035129488', '0.1711106', '-0.001497596', '-0.01380975', '-0.1054473', '0.008536316', '-0.08652484', '0.10039502', '0.0012032316', '0.00927687', '0.10017287', '-0.004247465', '0.121824965', '-0.09700187', '-0.060682926', '-0.12931523', '0.04254193', '0.055553537']
79, ['-0.03647777', '0.08241691', '-0.0625858', '-0.08141757', '0.10968742', '0.16190636', '0.05392263', '-0.08238723', '-0.21136294', '0.10996017', '-0.031833455', '0.124984436', '-0.047077127', '0.19519356', '0.08891254', '0.006902419', '0.17864525', '0.026570573', '0.013206441', '0.10038882', '0.086250566', '-0.036438126', '-0.03978802', '-0.05130436', '0.025416832', '0.011522468', '0.095264465', '0.064639606', '-0.020524316', '-0.06747672', '-0.09712081', '0.052602723', '-0.021277647', '0.101901494', '-0.05652605', '0.062107198', '0.057034425', '0.13748717', '0.11986727', '0.12521572', '-0.026310168', '0.08522207', '0.047527265', '-0.036962237', '0.019608492', '-0.006348588', '-0.051917765', '0.121467024', '0.12141488', '0.032463867']
80, ['-0.07864246', '0.06400597', '0.068323046', '-0.020984882', '-0.26121205', '0.2166792', '0.08794613', '0.059289843', '0.030971458', '0.07953716', '-0.0005109143', '-0.028517054', '-0.101338685', '0.035735104', '0.009992886', '0.0049234554', '-0.019979358', '0.02973541', '0.11845916', '-0.12262081', '-0.092124626', '-0.029273175', '-0.08100009', '-0.0066633523', '0.06399285', '-0.089822546', '0.02265989', '0.11947326', '0.047820184', '0.11102262', '0.06032178', '0.13859883', '-0.018606346', '-0.037210707', '-0.11155284', '0.08441808', '0.041543245', '-0.07413625', '0.18845794', '0.039807357', '0.023241112', '0.11380787', '-0.11401288', '0.10889652', '-0.04606326', '0.0827438', '0.014246802', '0.10125737', '0.08628629', '-0.05938742']
81, ['-0.023047505', '-0.1434761', '0.005946142', '0.10847696', '0.15976745', '-0.093281776', '0.041660905', '0.14943416', '0.030635044', '-0.10055357', '0.1337547', '-0.10016506', '-0.004679157', '0.091792636', '-0.022853794', '-0.13712813', '-0.12115017', '-0.0012734174', '0.034911875', '-0.033476654', '-0.12523471', '-0.07680804', '0.030629896', '0.083778284', '-0.03346848', '-0.057234973', '-0.09481683', '0.050238922', '-0.020441025', '-0.10658229', '-0.08471482', '-0.04356874', '-0.020812634', '-0.030261794', '0.050931923', '-0.022447431', '-0.047041696', '-0.045783482', '0.0074172565', '0.110137805', '-0.02301366', '0.04678921', '0.10492211', '-0.15403003', '0.1535345', '-0.08080023', '0.05824216', '0.14145093', '0.11633413', '0.06167873']
82, ['-0.026702287', '-0.04042887', '0.17700411', '-0.0011429345', '0.015470255', '-0.15901439', '-0.0069404426', '-0.025041146', '-0.101706706', '0.089635365', '-0.0441153', '-0.13432097', '-0.0088547105', '-0.045515105', '0.17486037', '0.06747186', '-0.11524975', '0.01098006', '-0.072970696', '0.023285812', '0.06687306', '0.065723814', '0.00834683', '-0.052151624', '-0.030355612', '0.070178665', '0.11021141', '-0.047071643', '0.12933217', '-0.0462294', '-0.043065254', '0.032794166', '-0.034875646', '-0.02349615', '0.0010559143', '-0.05581193', '-0.0003030274', '0.020633718', '-0.001409718', '-0.07386338', '0.012112248', '-0.019198311', '0.11822455', '0.12414727', '-0.08833146', '-0.026464662', '0.12130512', '-0.0012733785', '-0.14009924', '0.07273696']
83, ['0.0008245412', '0.016016724', '-0.016448338', '-0.13780718', '0.032484554', '0.012199456', '-0.027917428', '0.06473915', '-0.067794666', '0.06488194', '-0.023792202', '-0.024166372', '-0.15513301', '-0.023619931', '-0.026466265', '-0.021627748', '-0.004080648', '-0.0279351', '0.08181251', '0.010149549', '0.114823215', '0.13754606', '0.07994523', '-0.016565042', '-0.059028525', '0.07991077', '0.042703032', '-0.040766608', '-0.005831667', '-0.010931411', '-0.06714199', '0.054803763', '-0.011079178', '-0.058871765', '-0.061286334', '-0.021559268', '0.012294522', '0.06028551', '-0.035934642', '0.032831367', '0.069343135', '-0.20526576', '0.036356226', '0.06367166', '0.11876056', '0.07350681', '-0.1048216', '0.015849952', '-0.08304788', '-0.07097185']
84, ['-0.028625226', '-0.1506123', '-0.015880201', '0.098361954', '-0.046108466', '0.04696617', '0.050711963', '0.14051485', '-0.17656593', '0.00020878417', '-0.010541121', '-0.16708629', '-0.06101418', '0.029527243', '-0.15248656', '0.07884488', '0.045631327', '0.0872671', '0.09294443', '-0.07704295', '0.18376179', '-0.08314155', '-0.066702336', '0.03418797', '-0.07640693', '0.021593658', '-0.012021513', '0.026999474', '-0.0020152682', '0.009960085', '0.06589576', '-0.03828193', '-0.04611601', '0.10688805', '0.09057649', '-0.10600726', '-0.020921562', '-0.011754031', '0.12610552', '0.1365425', '-0.12111644', '-0.11144251', '-0.017398423', '-0.03338719', '0.12160591', '0.042431608', '-0.057389006', '0.120992154', '0.13671747', '-0.014997547']
85, ['0.037808117', '0.0206025', '-0.108353496', '0.09126747', '0.03158957', '0.049717635', '0.118844986', '0.14989612', '-0.094541535', '-0.048869237', '0.08913213', '-0.035207037', '-0.07841127', '-0.0765049', '0.057619784', '0.112665646', '0.035763085', '0.10072088', '-0.07700084', '0.02863325', '0.11051844', '0.09819138', '-0.10332284', '-0.004104504', '-0.007997778', '0.005911201', '0.02310097', '-0.06300775', '-0.06516165', '0.0088255005', '-0.050477132', '-0.037133127', '-0.030698907', '-0.020234095', '0.055995032', '0.029875094', '0.0055371677', '-0.01719914', '0.054514874', '0.09776275', '0.0019694394', '0.035360336', '0.050175086', '-0.003323136', '-0.11821149', '0.13962804', '-0.005327523', '-0.11897476', '-0.11336012', '-0.17361096']
86, ['-0.03747472', '0.09475992', '0.049542453', '-0.13308477', '-0.032655396', '-0.051826477', '0.07993934', '0.13918962', '-0.063963726', '0.0040206583', '0.01517493', '-0.14567286', '0.051959403', '-0.002784353', '-0.02969929', '0.08969984', '0.064866945', '-0.050174408', '0.072338484', '0.076210275', '-0.021575252', '-0.24668242', '0.054507546', '0.05131288', '-0.08200016', '-0.0023417643', '-0.04452187', '0.07974887', '-0.010169554', '0.18187384', '0.015201414', '0.033594888', '0.07515119', '0.013850516', '0.08165008', '0.03395341', '0.06284183', '0.07738117', '-0.13276742', '0.057873957', '-0.06135509', '0.045093827', '-0.1076158', '-0.059957057', '0.139816', '-0.14577292', '-0.013965787', '0.11849745', '0.051381662', '0.057866853']
87, ['-0.1563557', '-0.18071343', '-0.100995615', '0.040768143', '-0.06693277', '-0.091101', '-0.10975306', '0.036224727', '0.08573276', '-0.023746485', '0.061291303', '-0.045578867', '0.045000102', '-0.001174193', '0.02450674', '-0.060047947', '-0.056138746', '0.06312976', '0.03572426', '-0.027989084', '-0.09217249', '-0.031315215', '-0.043825835', '-0.027626235', '0.13395466', '-0.022922209', '-0.09317933', '-0.033835407', '-0.19538617', '0.033901554', '-0.10388817', '-0.05862089', '-0.11972734', '0.038078915', '0.07663539', '-0.057425227', '0.039780572', '0.042473845', '-0.1528801', '0.0049988576', '-0.15398803', '0.048495874', '-0.106405236', '-0.08002486', '-0.07006367', '0.09189246', '-0.009274588', '0.02517831', '-0.013062422', '-0.027635932']
88, ['-0.080794595', '0.04780867', '0.033270672', '0.15706836', '0.010052581', '0.067385636', '0.09929756', '0.06805541', '0.052612115', '0.041381143', '-0.07383616', '-0.094168626', '-0.1729656', '-0.04881195', '0.10265152', '-0.042003617', '0.075070836', '-0.12791206', '-0.17089526', '0.08914342', '-0.067035116', '0.01976487', '0.102651894', '0.034045663', '0.09351111', '-0.1536096', '0.07478652', '-0.08087851', '0.06656606', '-0.16694976', '0.0782804', '0.09289852', '-0.17126754', '0.08708651', '-0.102855675', '-0.016116856', '0.029141633', '0.12382718', '-0.056965914', '-0.1462522', '0.15935014', '-0.11454373', '0.16100116', '-0.060789727', '0.12690555', '0.29275167', '0.10850157', '-0.051679883', '0.036388144', '-0.14344777']
89, ['-0.037774786', '0.00595673', '-0.003101912', '0.0416074', '-0.016514247', '0.011914018', '-0.022156067', '0.020781416', '0.04699437', '0.00035213097', '-0.011394242', '0.0066756373', '-0.05031997', '0.007320022', '0.011677788', '-0.0015909722', '-0.027170861', '0.00018491215', '0.02522013', '-0.007173473', '-0.037537042', '-0.013885678', '-0.0072949147', '-0.017069856', '0.021905972', '-0.046649132', '-0.028683392', '0.0268365', '0.0065813', '-0.027959064', '-0.01623699', '-0.025036247', '-0.03591682', '0.0005535694', '0.00097406504', '0.005780849', '0.008228223', '-0.039534822', '-0.020834383', '0.03292092', '-0.028006272', '0.010661257', '-0.02701085', '0.036311984', '0.0278349', '0.025232136', '0.0046847193', '0.014767569', '0.011909879', '-0.02990549']
90, ['0.08514439', '0.099098586', '-0.022678135', '0.14004526', '-0.012807127', '-0.01939736', '-0.20621204', '0.09285914', '0.15176894', '0.06646017', '0.024783308', '0.17878695', '0.051895447', '-0.025998488', '0.10167058', '0.0051185745', '-0.056096848', '0.00028290797', '0.045675274', '-0.03328751', '-0.044890843', '-0.063530646', '-0.10795292', '0.1332589', '0.11650659', '0.011859247', '0.06120549', '-0.045242954', '0.12191586', '-0.09738147', '-0.082329065', '0.0973132', '0.048185855', '-0.00884652', '0.026701009', '-0.06404184', '-0.0577362', '-0.12816273', '-0.03605572', '0.105340496', '-0.055883385', '0.025899785', '-0.009097065', '0.1106714', '-0.039642487', '0.06848535', '-0.030652838', '-0.0013517491', '-0.014187717', '0.07326582']
91, ['-0.0019141034', '0.033567596', '-0.007431622', '0.04343186', '-0.017938716', '-0.065491065', '0.043953862', '0.07361918', '-0.04702187', '-0.0045567816', '0.033532143', '0.010413275', '0.07879449', '0.075906895', '-0.007157203', '-0.003991793', '0.019621883', '-0.053335506', '0.10006291', '-0.009287273', '-0.12645866', '-0.1748086', '0.0038251423', '-0.16818242', '-0.0016357398', '0.1279694', '0.004421342', '0.054761328', '-0.14274874', '-0.0039057247', '0.03713597', '-0.16215861', '0.039194092', '0.11430262', '-0.096192926', '-0.012062983', '0.044571836', '-0.14764452', '0.00944403', '0.095613725', '-0.13246237', '-0.006763956', '-0.05254356', '-0.08251484', '0.15126914', '0.0051703122', '-0.054717794', '-0.024944954', '-0.15671119', '-0.09855794']
92, ['-0.17043106', '0.034685854', '-0.09412597', '-0.018460091', '-0.082206786', '0.0027607337', '0.07512913', '-0.19087568', '-0.04315391', '-0.03847861', '-0.065347955', '-0.017297005', '-0.081931815', '0.020887293', '-0.11466911', '0.0028206133', '0.017269317', '0.045437284', '-0.060752716', '-0.10312563', '-0.0809529', '0.04404016', '0.10729247', '-0.09739883', '0.012750353', '-0.055413336', '-0.13938853', '0.15758696', '0.11209969', '-0.05057448', '0.085814714', '-0.036118507', '-0.19139703', '-0.056221105', '-0.01900837', '0.07350707', '-0.06259492', '0.105924785', '-0.08503739', '0.021348434', '0.0067109885', '0.039134458', '-0.03340236', '0.10066554', '0.012440969', '-0.12267117', '0.2161542', '-0.008695212', '0.0883609', '0.02155902']
93, ['0.026414296', '0.09314234', '-0.022606418', '-0.09419569', '-0.0616935', '0.058262814', '-0.122118495', '0.025460446', '-0.049197327', '-0.07154421', '-0.0760995', '0.051569108', '0.04593728', '-0.035039894', '-0.115799725', '0.027079491', '-0.022224255', '-0.050398402', '-0.006485989', '0.07438477', '-0.14431606', '-0.13602713', '-0.0049350937', '-0.028991086', '-0.008698265', '-0.11240532', '-0.023772474', '0.084224805', '0.060809262', '-0.0965103', '-0.12325504', '0.028681977', '0.024560904', '0.0455403', '-0.016933937', '-0.118856534', '-0.06129958', '0.03410015', '0.03784739', '-0.0038676062', '0.0031626343', '-0.051355127', '-0.002364503', '0.12130135', '0.087500736', '-0.028844312', '0.026548652', '-0.03057973', '-0.014587156', '0.106716']
94, ['0.0672377', '0.006388793', '-0.103700295', '-0.03930297', '0.030326065', '-0.13815743', '0.10111902', '0.09236558', '0.02476295', '0.14311267', '0.048668515', '0.007608416', '-0.013721165', '-0.02852273', '0.05335245', '0.011563946', '-0.006852329', '-0.0071607777', '-0.0044891536', '0.13650018', '-0.0037360112', '-0.060461286', '-0.0948389', '0.06800223', '0.120619066', '0.05061782', '-0.11065883', '0.015347302', '-0.069710165', '-0.057174772', '-0.05477032', '-0.120288275', '0.12666085', '0.028733257', '0.005417997', '-0.07307657', '0.13490033', '-0.010406131', '-0.1260062', '0.05512487', '0.009007938', '-0.08043738', '0.019404825', '-0.00569887', '-0.048490725', '0.05335645', '0.054827113', '-0.016071953', '-0.022518132', '0.021469384']
95, ['-0.17228939', '-0.13434511', '0.011822773', '0.06803196', '-0.09865906', '0.04844346', '-0.01087023', '-0.07877891', '0.21977554', '-0.15599905', '-0.06252969', '0.10560846', '-0.12434141', '-0.11826593', '-0.045256566', '0.010168077', '-0.046599757', '-0.048031222', '0.04166737', '-0.10961726', '-0.07123633', '0.12497042', '0.063002825', '-0.17867583', '0.041138332', '-0.107541606', '0.045865804', '0.06057685', '-0.04959992', '0.08588793', '-0.042017587', '-0.07231786', '-0.11938326', '-0.06803521', '-0.041837882', '0.029146831', '-0.037093263', '-0.12663397', '-0.10863307', '-0.044265855', '-0.01312839', '0.11648095', '-0.04307159', '0.04118341', '-0.22993971', '0.08055028', '-0.05960578', '-0.046620775', '0.0058592483', '-0.14869636']
96, ['0.05378647', '0.19443637', '0.10972599', '-0.062497262', '0.19092213', '0.12930873', '-0.09169211', '-0.041426223', '0.020846937', '0.09854298', '0.19596909', '-0.095887095', '-0.08950921', '0.0955789', '0.048015796', '-0.0032624665', '-0.13336748', '-0.022321366', '-0.11299333', '0.13055356', '-0.029536169', '0.076514386', '-0.030999327', '-0.002483839', '0.005301197', '-0.10814211', '-0.08956671', '-0.06245715', '-0.08271723', '-0.04703481', '-0.09258785', '0.024896499', '-0.075781375', '-0.036245424', '0.07469364', '-0.12193711', '0.06390487', '0.018709553', '0.1392097', '0.09023831', '-0.121838674', '0.0720947', '-0.07968789', '-0.16314061', '-0.07864099', '-0.0032440408', '-0.013561972', '-0.019439513', '-0.0011002072', '-0.069565825']
97, ['0.11038646', '0.14888932', '-0.045419022', '0.03271867', '-0.023716027', '-0.056031156', '-0.03687975', '0.021188797', '-0.12943506', '-0.112321354', '0.031714555', '0.0039032411', '-0.12391019', '-0.08335723', '-0.09659326', '0.09474715', '0.037270926', '-0.12028399', '-0.108705476', '-0.06727951', '-0.028461006', '0.0051283035', '-0.14185609', '0.03622342', '-0.019890869', '-0.027738634', '0.015778407', '0.04496843', '-0.1044757', '0.035431605', '-0.17526487', '-0.0044240085', '0.03363867', '-0.12052773', '0.03194537', '-0.121412', '-0.017296724', '0.04875725', '0.07426777', '0.008153084', '0.11805165', '0.13153134', '-0.0415886', '-0.088517256', '0.040498257', '0.04629014', '0.06697885', '0.025046265', '0.014672025', '0.06089968']
98, ['0.046330683', '0.065797724', '0.0120005105', '-0.014765548', '-0.06399757', '0.011912573', '0.100053735', '-0.13133952', '0.037839156', '0.03653782', '0.008015897', '0.013900005', '-0.016065042', '-0.022608636', '-0.035799406', '0.097397484', '-0.05299251', '0.032239188', '0.11731802', '0.122983426', '-0.06519508', '-0.018523656', '0.0845593', '0.019580271', '0.07957166', '0.115393385', '-0.024919916', '-0.037831035', '0.019348318', '0.16350186', '-0.11913727', '-0.02927108', '0.04633622', '0.09763521', '0.041581605', '0.071613915', '-0.088939175', '0.07613854', '-0.12692495', '-0.007184931', '-0.078382924', '-0.025550226', '-0.10063229', '0.07444648', '0.053488523', '-0.016879201', '0.0714631', '-0.0902649', '-0.04549802', '-0.13038597']
99, ['0.093532905', '0.054812625', '0.049949072', '0.14868663', '-0.09707868', '0.06331162', '-0.04565101', '0.08977979', '-0.14042135', '-0.029740868', '0.097943306', '0.03092694', '-0.110439144', '-0.06205863', '0.19269249', '0.014963475', '-0.15712842', '0.11684096', '-0.03624758', '-0.07816005', '0.03252283', '0.009163196', '-0.0713512', '-0.063280545', '0.021153448', '-0.1307751', '0.026401779', '0.02074855', '0.006094702', '-0.03847766', '0.07934999', '-0.055910848', '0.026009824', '-0.007446133', '-0.024962097', '-0.03853313', '0.13013355', '-0.059069622', '0.06662809', '-0.0045168307', '-0.0011440163', '0.002474658', '-0.01533687', '-0.004721203', '-0.09359529', '-0.027886933', '-0.111662224', '0.1116253', '-0.11002628', '9.4294664e-05']
100, ['-0.041487016', '-0.06598233', '0.11862666', '-0.05204628', '-0.009945703', '-0.01680871', '-0.10155876', '-0.020206563', '0.03622473', '0.021250984', '-0.10376038', '-0.16887102', '0.11676283', '-0.036226176', '-0.20325188', '-0.13268377', '-0.009441622', '-0.07195751', '-0.008921272', '0.009689054', '-0.06318145', '-0.019206988', '0.018905219', '-0.08304087', '-0.0073076626', '0.06843998', '-0.0546622', '-0.063061304', '-0.070642896', '-0.060526676', '0.00663761', '-0.024440324', '0.03360774', '0.08037524', '0.062123936', '0.034431618', '0.07107828', '0.010061242', '0.04226284', '-0.03215388', '0.08620944', '0.041460086', '-0.21401396', '-0.020093312', '0.024894152', '-0.0715812', '0.01007537', '0.08080313', '-0.07593177', '0.09559147']
101, ['0.029507933', '-0.047326494', '0.028914148', '-0.00544863', '-0.022550268', '-0.040913735', '-0.0519952', '-0.11462965', '0.18233506', '0.010996409', '0.101557985', '0.015747761', '0.0939525', '-0.058477193', '-0.14584987', '0.040403213', '-0.06444957', '-0.10346208', '0.066380255', '0.088428095', '0.0056032212', '-0.012828427', '0.04227235', '-0.014479674', '0.20935342', '0.039818052', '-0.04291414', '-0.062811315', '-0.11969575', '-0.0671522', '0.03853056', '-0.02509371', '0.06636024', '0.081025876', '0.006419689', '-0.075753674', '-0.022946363', '0.024623767', '0.118404254', '0.09248998', '-0.048159312', '0.0036910658', '-0.097661614', '0.0457468', '-0.078668095', '-0.09454302', '0.12776272', '0.0147701595', '0.0840741', '-0.08053018']
102, ['-0.004830946', '-0.10979564', '-0.07279596', '-0.04632962', '-0.12954749', '-0.008175009', '-0.020356715', '-0.023108287', '-0.00894648', '-0.08780626', '0.013146566', '0.075517505', '0.04420802', '0.002848312', '0.071554154', '-0.16328791', '0.042337574', '0.021359436', '-0.13869837', '-0.038226914', '-0.046560027', '0.009776311', '0.053719733', '-0.014611174', '0.098033704', '0.026136152', '0.040269054', '-0.0042471867', '-0.019870937', '-0.0020269947', '-0.16111964', '-0.07348473', '-0.015933994', '0.041828364', '-0.030368568', '0.0006176286', '0.033129357', '-0.029976545', '0.013042837', '0.06702171', '0.01019973', '0.07778604', '0.14180149', '-0.030216811', '-0.07155626', '-0.024232604', '-0.032266323', '0.12611023', '0.04407677', '0.036167994']
103, ['0.12065009', '0.06503531', '-0.09689713', '-0.07378814', '-0.0051932447', '-0.0038283404', '-0.01690823', '0.02215411', '-0.20807122', '0.005111125', '0.013825426', '0.047806744', '0.14296453', '0.0292848', '-0.06040859', '-0.059572212', '-0.15156537', '-0.06750339', '-0.03040419', '0.02244316', '0.1827629', '-0.009371717', '-0.14213488', '0.058129504', '0.07148445', '-0.01733999', '-0.16627985', '-0.14201356', '0.09805592', '0.09772666', '-0.040242482', '-0.09975389', '-0.031952515', '-0.19623314', '-0.022633329', '0.07881352', '-0.04800922', '-0.022877216', '-0.14142613', '-0.10085437', '0.122883335', '-0.028290154', '0.041029014', '-0.076866515', '0.0008270776', '0.009256297', '0.036176864', '-0.026933594', '0.09956049', '-0.020173829']
104, ['-0.03056669', '-0.05042309', '0.041330356', '-0.10129048', '-0.08772515', '0.0035507984', '-0.055643212', '-0.1316189', '0.043703116', '0.114806086', '0.03446921', '-0.03413724', '-0.043319557', '-0.08181411', '0.103876084', '-0.04414468', '0.012869356', '0.08578866', '-0.043669272', '-0.0046199034', '0.041340686', '0.017861668', '-0.06626992', '0.06620004', '0.053258784', '0.0226773', '-0.053511504', '-0.062666185', '-0.07091399', '-0.039733116', '-0.0975027', '0.018369911', '0.002486863', '0.120167755', '-0.05612063', '-0.01158221', '0.10025619', '-0.07565869', '0.124018386', '-0.0055741942', '-0.040341638', '0.053149365', '-0.10726843', '-0.0054314383', '-0.046156522', '0.01899174', '-0.027781853', '-0.1306498', '-0.0003972513', '-0.08730145']
105, ['0.045479894', '0.07486572', '-0.055428017', '-0.12308338', '0.0010933363', '0.11985435', '0.07826353', '-0.056461334', '-0.06118631', '0.020879583', '0.10595848', '0.042149976', '-0.05568114', '-0.014281572', '0.00050440483', '-0.04917293', '-0.07399011', '-0.024662849', '-0.02926174', '0.09362491', '-0.032892242', '-0.0414656', '0.014732148', '0.052381497', '0.044820216', '0.019572912', '-0.06252895', '-0.06319681', '0.002406038', '0.1276186', '-0.09953678', '-0.038969968', '0.031839773', '-0.044595603', '-0.021947287', '-0.017193776', '-0.024869187', '-0.014120603', '-0.012734114', '0.007947195', '-0.001655067', '-0.056086183', '-0.043844283', '0.033221062', '-0.0005701385', '-0.071836576', '0.08054341', '0.06888799', '0.040776934', '-0.04443003']
106, ['0.04592307', '0.056710534', '0.075121686', '-0.05967372', '0.081132114', '0.04589508', '0.024731146', '-0.012859401', '-0.08035847', '-0.0967254', '-0.031899553', '-0.04342589', '0.11824113', '0.042466346', '-0.15207693', '-0.010186833', '-0.0619093', '0.025791567', '0.07017511', '0.012234134', '0.022003634', '0.004011005', '0.03988699', '-0.028544199', '-0.029181223', '0.08781803', '0.06387306', '0.05528064', '0.066659175', '0.00026732203', '-0.054961886', '-0.0024190561', '0.005515788', '0.12880959', '-0.027557809', '0.04415689', '-0.056626663', '-0.011061174', '0.06341246', '-0.019519435', '0.05923262', '-0.04755732', '-0.029744044', '0.028446063', '0.018036818', '-0.08158991', '-0.021061335', '0.019882701', '0.006670818', '-0.06512775']
107, ['0.14827673', '-0.08189936', '0.067813896', '-0.048870992', '-0.09357705', '-0.14826307', '-0.057857435', '0.07399109', '-0.12392792', '-0.02684374', '0.06435873', '-0.020785198', '-0.085640855', '0.021684792', '0.037779335', '0.05687115', '-0.07122321', '-0.046637226', '0.052769005', '-0.11955963', '0.050739773', '0.082897134', '-0.043345187', '0.040622074', '0.013523324', '-0.2948346', '0.05600021', '-0.050961465', '0.011784507', '0.04929695', '0.36551657', '0.12927744', '-0.20667782', '-0.113687746', '0.06521819', '0.011650329', '0.060434666', '0.009603484', '-0.19579795', '-0.02717867', '-0.054122698', '0.10591515', '0.07181586', '-0.13236907', '0.019642899', '-0.035017315', '-0.120936364', '0.110292144', '0.058743358', '-0.011915924']
108, ['-0.107935466', '-0.05599255', '-0.016058741', '-0.041331578', '-0.04846552', '-0.0019139295', '0.00087365677', '-0.0015710596', '-0.05340943', '-0.0049325414', '-0.03907067', '-0.12662286', '0.14907074', '-0.04026419', '0.1051427', '-0.08318154', '-0.0016759548', '-0.020469392', '-0.048292473', '-0.10785716', '-0.057533693', '-0.07367818', '-0.05966144', '0.055711668', '0.07259206', '0.04884284', '-0.11639335', '-0.07345501', '0.1098432', '0.17695543', '-0.08218428', '0.033874795', '-0.003677056', '0.09604273', '0.047590025', '0.02758307', '-0.03312163', '0.03520439', '-0.02374254', '-0.059302688', '-0.04857915', '0.07399896', '0.043662034', '0.084599465', '-0.023726521', '-0.03519801', '-0.01443624', '0.072956406', '0.12747023', '-0.001061188']
109, ['0.02918151', '0.054980718', '-0.04474925', '0.0860016', '-0.1223609', '-0.06785594', '0.113008104', '-0.09677261', '0.032310534', '0.073679246', '0.08457409', '0.07443878', '0.049766723', '-0.04752159', '-0.0499426', '0.031650227', '-0.12882188', '0.07506107', '0.10878162', '-0.0047886735', '-0.096490845', '-0.06719645', '0.067408584', '-0.050350837', '-0.058144636', '0.011624114', '0.12650156', '0.004043386', '-0.013144091', '0.0148614785', '-0.1236868', '0.04561675', '-0.112360634', '-0.04158359', '0.092195004', '0.071507394', '0.002492777', '0.12598123', '-0.13476852', '-0.01360637', '-0.0063828556', '-0.009670061', '0.022205489', '0.003192711', '0.048928905', '0.10895392', '-0.029836552', '0.072996624', '-0.02591248', '-0.06688683']
110, ['0.030559966', '-0.011581623', '-0.029116187', '0.11022303', '0.1202173', '-0.0928943', '0.0009906963', '0.0057712365', '0.01881779', '0.018162172', '0.10129338', '-0.1347492', '0.03496972', '0.11043861', '0.07493869', '0.0474351', '0.017848194', '0.13372603', '0.08772324', '0.07637266', '0.1068981', '-0.023815261', '-0.10653056', '0.074358694', '-0.03147083', '0.09183757', '0.012265504', '-0.09343706', '-0.03342121', '0.05399084', '-0.06413646', '-0.034212872', '-0.053095732', '0.030912887', '-0.02018511', '0.04501453', '0.006482588', '0.01850691', '-0.035333917', '0.039669346', '-0.115011044', '-0.040742576', '-0.12252353', '-0.062425785', '0.058246333', '-0.09410973', '-0.04351543', '0.03403273', '-0.07097946', '0.034277312']
111, ['0.06527804', '0.03274389', '-0.06418858', '0.12088904', '0.10431483', '0.16537736', '0.23323613', '-0.06982528', '0.08314371', '0.08899014', '0.07097148', '0.03163897', '-0.083102256', '0.11259886', '-0.15300612', '-0.030943688', '0.045004625', '-0.009362319', '0.08024237', '-0.044401087', '-0.022417601', '-0.064403914', '-0.06313257', '0.09903275', '-0.018706081', '0.079766735', '-0.002774964', '-0.0059779133', '0.08335063', '0.18050511', '0.12743089', '-0.18458627', '0.11438682', '0.034775686', '0.102087244', '0.028610498', '-0.0236694', '-0.011409044', '-0.07145495', '0.05108205', '0.056430947', '0.049452007', '-0.12058969', '0.10165618', '-0.14458486', '-0.03655839', '0.13524525', '0.077237375', '-0.011646527', '0.013851506']
112, ['0.016673584', '0.12816648', '0.050590515', '-0.14011854', '-0.046390943', '0.16215113', '0.066435635', '0.06762118', '0.0819786', '-0.0025410224', '-0.10404817', '-0.092452295', '-0.063837804', '0.033162054', '0.03055008', '-0.02132519', '-0.009758336', '-0.15232751', '0.024734091', '-0.004434527', '0.08929614', '-0.004275806', '0.0004896958', '0.006949674', '0.039994095', '-0.079143554', '-0.00940974', '0.11891044', '0.008584954', '-0.030999765', '0.15533519', '-0.07407706', '0.1340778', '0.03011979', '-0.119366154', '0.016686067', '0.14621197', '0.035684146', '-0.007004379', '-0.012264701', '0.051283136', '0.048378926', '-0.090055354', '0.015792044', '-0.10132379', '-0.096990794', '0.06399211', '-0.19434863', '-0.018703708', '-0.057642195']
113, ['0.061454903', '0.04178057', '-0.0192046', '0.16963036', '-0.051864725', '-0.047117673', '0.06566364', '0.052194692', '-0.12690549', '0.06530353', '-0.0069645545', '0.016175348', '0.15803373', '0.045861915', '-0.007061782', '0.057345837', '-0.072825134', '-0.019869717', '-0.0040946724', '0.013150031', '0.034888346', '-0.040194277', '-0.027232926', '-0.028699115', '0.0049387836', '0.092990644', '0.047223277', '0.018379182', '-0.050389618', '-0.056502454', '-0.06369198', '0.046237092', '0.005655695', '-0.04026848', '0.030127058', '-0.106724635', '0.0065038363', '-0.12507363', '0.11102792', '0.040232513', '-0.14973672', '0.104519874', '-0.07935532', '-0.08403444', '-0.069643386', '0.01925865', '0.047101144', '-0.06669813', '0.092685044', '0.14659333']
114, ['-0.09289103', '0.10222857', '0.09726931', '0.06066226', '0.07645137', '-0.059893437', '-0.06213824', '0.08504629', '-0.08196899', '-0.109477505', '0.07752888', '0.104140945', '-0.04203809', '0.06794066', '0.075635366', '-0.016897919', '-0.016001765', '-0.021045526', '0.025170526', '0.23606832', '-0.055752166', '-0.07751555', '0.046382565', '0.03499669', '0.017089166', '-0.034325536', '0.1759369', '-0.053430334', '-0.010440901', '-0.07560486', '-0.0058299205', '0.107981406', '0.15249489', '0.1600343', '0.015547556', '0.18223988', '-0.015203936', '0.08329258', '-0.0109613985', '0.08618004', '0.080792315', '0.046832234', '0.042514168', '-0.048608594', '0.023720415', '0.047803763', '0.011783629', '0.20660177', '-0.01786468', '-0.076200366']
115, ['0.086359404', '-0.037272606', '-0.041777942', '0.051400643', '0.17164057', '-0.029451633', '-0.12820418', '-0.12330956', '0.04911051', '-0.12971453', '-0.0060160016', '-0.10009348', '0.06775409', '-0.16263327', '0.14372818', '-0.08519567', '-0.08590898', '-9.849816e-05', '0.022482993', '-0.07037354', '-0.095118575', '0.13074358', '-0.0786849', '0.017321171', '-0.001752015', '0.068669796', '0.044362534', '-0.020318417', '-0.024750141', '0.0798916', '-0.08297287', '-0.00667953', '-0.15484104', '-0.027726226', '0.047567893', '0.070887275', '-0.091739446', '0.034093913', '-0.08228289', '-0.11467629', '0.13168067', '0.06549547', '0.0035793139', '-0.074776396', '-0.051201813', '0.030596595', '0.032957297', '-0.06411983', '0.037559535', '-0.066333726']
116, ['-0.009308668', '0.0029043471', '0.059618793', '0.06025965', '-0.069842584', '-0.02859251', '-0.04971872', '-0.076546185', '0.15211405', '-0.007759418', '-0.030146396', '-0.026514236', '0.1505732', '0.15721184', '-0.09305031', '-0.04514699', '-0.041962124', '0.055369902', '0.016587552', '0.08678929', '0.017987613', '0.121849656', '-0.13398638', '-0.08021253', '0.035397127', '0.015263542', '-0.07008822', '-0.06829849', '0.15281293', '0.041037794', '-0.039773304', '-0.033401467', '-0.103788346', '0.032516263', '0.05757123', '0.111320466', '-0.05425374', '-0.047906563', '-0.019634353', '0.031873643', '-0.030451335', '0.075205214', '0.10392597', '-0.053103004', '-0.114744075', '0.03640867', '0.09344639', '0.032300703', '-0.032429207', '0.08670354']
117, ['0.092769854', '0.09386182', '0.03734223', '-0.033486478', '0.013295457', '-0.024629902', '-0.026807733', '0.07956918', '0.06497616', '-0.09645433', '-0.007661038', '-0.11273512', '-0.036986854', '0.064470656', '0.051300384', '0.009212582', '-0.056414705', '-0.12464284', '0.11254481', '0.053676244', '-0.10965505', '0.14590208', '0.028696576', '0.08783891', '-0.05933788', '-0.029659742', '0.07738737', '0.06368113', '-0.021080978', '-0.051452074', '-0.12891583', '-0.03929361', '-0.08359849', '-0.08826154', '-0.0091960495', '-0.021526134', '0.08251345', '0.035827257', '-0.049277328', '0.08452465', '0.083533645', '0.026903218', '0.11339691', '0.0021874257', '-0.053254534', '0.066581436', '-0.05740237', '-0.022733135', '-0.08866176', '-0.041084964']
118, ['0.07901553', '-0.07387578', '0.0876135', '-0.04732221', '0.022745598', '-0.014937118', '-0.030663162', '-0.022610968', '0.0415283', '0.03768267', '0.030046018', '-0.05177625', '-0.05867872', '0.075325556', '0.083761536', '-0.043395683', '0.061678626', '0.045821864', '-0.08085337', '-0.076675184', '-0.11595658', '0.050829884', '0.18547025', '-0.04396906', '0.04135712', '0.0114850225', '-0.021881318', '0.054534096', '-0.008510791', '0.0631187', '-0.020425444', '0.08608204', '0.0567822', '0.023813246', '0.014808047', '-0.07344787', '-0.034161974', '0.09171111', '-0.09663229', '-0.00040027066', '-0.072893225', '-0.0861844', '0.080226555', '0.13860242', '-0.008471589', '-0.007990296', '-0.07496566', '0.08962265', '-0.045600574', '-0.08672047']
119, ['-0.0668346', '0.0052014487', '-0.019391665', '0.0629554', '-0.00261118', '-0.06875585', '-0.01877294', '-0.081867374', '0.06397145', '0.03866638', '-0.018772172', '-0.003634638', '0.067713', '-0.03281349', '0.08128888', '-0.0523505', '0.011904002', '-0.013002238', '-0.07892484', '0.0011765291', '-0.03389158', '-0.045157637', '-0.0047576455', '-0.07803897', '0.0205793', '0.07645064', '0.032073017', '-0.0034712683', '-0.03980335', '0.042907506', '-0.15404247', '0.052312557', '-0.018950582', '0.13391656', '-0.004695183', '-0.011055591', '-0.030276392', '0.028884958', '0.04319124', '0.017605124', '0.02681373', '0.08132975', '-0.089920916', '0.011885974', '0.041058157', '-0.03478688', '0.08171322', '0.03698564', '0.05311111', '0.046462495']
120, ['-0.10804528', '0.01538862', '-0.015946018', '0.052596014', '0.07595796', '-0.04868658', '-0.0682077', '0.06904125', '0.01775173', '-0.10056683', '-0.037907273', '0.14163315', '-0.07648178', '-0.042245593', '-0.013827972', '-0.017978353', '0.06938021', '-0.1224078', '0.04659347', '-0.114663295', '0.13180354', '-0.03331575', '0.11707146', '-0.11759196', '-0.1260653', '0.040282767', '-0.08311273', '-0.09998856', '0.046435043', '0.13514139', '-0.11574342', '-0.06856402', '-0.11781993', '0.008833216', '0.06888317', '-0.008464406', '-0.040550537', '0.047657907', '0.010031688', '0.11774905', '0.009033371', '0.079490066', '-0.11660111', '-0.11498612', '0.04357588', '0.039738856', '-0.15492192', '-0.055156443', '0.016605873', '0.039780673']
121, ['-0.0644174', '0.100307025', '0.117971055', '-0.060337543', '-0.1049045', '-0.006518643', '0.014397037', '-0.06794255', '-0.022790993', '-0.1640524', '0.001783963', '-0.038444936', '0.103167616', '0.054715317', '-0.023919046', '0.11850215', '0.0002302435', '0.14689511', '-0.011268429', '-0.025150046', '0.16422676', '-0.074853115', '0.02293025', '0.01731171', '0.12004494', '-0.025425013', '-0.074759826', '0.026972843', '0.0054411353', '0.10866353', '-0.05475723', '0.029840467', '-0.05795539', '0.12363492', '-0.1319493', '0.012582909', '0.087938875', '0.06283874', '-0.0046284185', '0.05209701', '0.19570592', '-0.026896352', '-0.043014508', '-0.07416824', '0.164952', '0.11737225', '-0.026441531', '0.084714666', '0.013151993', '0.043892883']
122, ['-0.092553705', '0.062211417', '-0.077175', '0.11116586', '-0.07223245', '-0.2055199', '0.055799037', '0.117506735', '-0.04203819', '-0.21735135', '0.01111529', '0.06075217', '0.059828375', '0.010928394', '-0.18561421', '0.08037993', '-0.028779589', '-0.12634657', '-0.109426506', '0.12197859', '0.15784295', '0.040170673', '0.15902619', '-0.11156288', '0.021875199', '-0.114388436', '-0.07096513', '-0.10515955', '-0.08755484', '0.056894716', '0.10855728', '-0.10348018', '0.0671879', '-0.004464736', '0.080648094', '-0.064464435', '-0.13587078', '0.04953646', '0.041354932', '0.12787178', '0.071700305', '0.061019614', '0.14727928', '-0.075229526', '0.07900357', '0.046612207', '0.14926468', '0.1202358', '-0.11152419', '0.06068218']
123, ['-0.039721828', '0.006237131', '-0.0016928749', '-0.019046592', '0.0756394', '0.057911262', '-0.036905713', '-0.05777249', '0.0026500535', '0.053285085', '-0.030609393', '-0.090781026', '0.08401309', '0.035524867', '-0.03740803', '-0.06598908', '0.06650894', '0.0355034', '-0.049440704', '0.10087732', '0.15354113', '0.055064972', '-0.049369205', '-0.06373505', '0.1015025', '0.054263264', '0.00031702424', '-0.050438594', '0.061381493', '0.12513931', '-0.016139552', '-0.11628731', '0.013085722', '0.059110753', '-0.04052062', '-0.02862802', '-0.14772363', '0.024909774', '-0.036083046', '-0.032473', '0.005315818', '-0.11002174', '-0.0054034237', '-0.010007096', '0.027191266', '-0.16342057', '0.087234326', '0.057858143', '0.08001032', '-0.012301953']
124, ['-0.05223892', '-0.050218377', '0.18195307', '-0.06560768', '-0.12992233', '0.0039860834', '0.003870626', '-0.012360419', '-0.22962628', '0.027189694', '-0.0140395565', '-0.0494614', '-0.00039439605', '0.01282121', '-0.047405288', '-0.07744176', '0.0064843874', '0.014602838', '-0.051109504', '-0.048085254', '0.033268195', '0.02613203', '0.12851018', '-0.017657563', '0.08553492', '0.027309213', '0.0025084235', '-0.07687395', '-0.121068954', '0.046861645', '0.0022802032', '-0.001310293', '0.027447924', '0.013349953', '0.017154982', '-0.044042956', '-0.005981973', '0.02797135', '-0.029205449', '-0.048691966', '-0.0036560227', '-0.04325959', '0.031791154', '-0.03277193', '0.14329427', '-0.0698597', '-0.017092569', '-0.06448459', '0.1483982', '-0.08402538']
125, ['-0.008082247', '-0.049731128', '-0.042979494', '0.09323244', '-0.008147012', '0.03902568', '-0.034756243', '0.095342346', '-0.031418968', '0.069676176', '0.09099379', '0.055850416', '0.066473454', '0.048935387', '-0.11024297', '0.035139225', '0.043304797', '-0.047004003', '0.013996216', '0.051832266', '0.019799683', '0.08439738', '0.03674074', '0.10010254', '0.011906045', '-0.01036401', '0.06787753', '-0.007920643', '-0.02178628', '-0.051829267', '-0.09479226', '-0.03166424', '-0.0063836114', '-0.0007092286', '0.039490677', '-0.046949305', '-0.021523867', '-0.04472882', '-0.012969773', '0.01517737', '0.08933005', '0.014449696', '0.005722984', '-0.060437135', '0.031951804', '0.077014714', '-0.058154933', '-0.0047975713', '0.102083445', '-0.052667715']
126, ['-0.040207453', '0.06993822', '0.020797102', '0.045193166', '-0.020855477', '0.056761455', '-0.056422483', '0.06818897', '0.008742605', '-0.11644145', '-0.10182531', '0.024658673', '-0.06946098', '0.030668724', '0.076330744', '0.012908635', '0.101854905', '-0.021658385', '0.04405181', '-0.12041579', '-0.0129677', '0.02816284', '0.06068678', '0.082270645', '-0.03956303', '0.05250627', '0.1185409', '0.06137562', '-0.14625944', '0.010604734', '-0.024105426', '0.080309086', '-0.044148114', '0.057364486', '0.05094303', '-0.016383525', '0.10949157', '-0.014362022', '0.072980866', '-0.079242736', '0.029952722', '0.07143061', '-0.15061203', '0.010545725', '-0.12579475', '0.13291216', '-0.03822003', '0.11056893', '0.031036468', '0.057377163']
127, ['-0.049288873', '0.09309199', '-0.04592566', '-0.052189995', '0.026398292', '0.0038937556', '0.057527095', '-0.013463249', '-0.00029424517', '-0.0046524988', '-0.09107848', '0.103245534', '0.07868315', '-0.06230914', '0.053364582', '-0.13918255', '-0.1208574', '-0.07456084', '0.06839112', '-0.10860768', '-0.0034005805', '-0.06483716', '-0.003726876', '-0.120311424', '0.0542996', '-0.15926304', '-0.099200666', '0.06950386', '0.053079262', '-0.01636895', '0.076219514', '0.046959247', '-0.053317994', '0.070309736', '-0.04102322', '-0.019377233', '-0.06312279', '-0.10586083', '-0.11413386', '-0.02748105', '0.05045341', '0.04472157', '0.025910318', '-0.016511843', '-0.09321192', '0.0065128747', '-0.009794111', '0.04863488', '0.061063897', '-0.11431031']
128, ['0.07227272', '0.103322834', '-0.05256268', '-0.06792546', '0.078743935', '0.043401543', '0.061844513', '-0.1042208', '0.052935578', '-0.00012609415', '-0.18315132', '0.07020846', '-0.057266477', '-0.09820266', '0.07712823', '-0.120478615', '0.00828905', '-0.11586796', '0.05579285', '-0.013329324', '0.037616413', '0.03373775', '0.09112896', '0.018940523', '-0.119345754', '0.12435649', '0.023434117', '0.05473637', '-0.073805004', '0.062733725', '-0.10841455', '0.057497825', '0.09463707', '-0.13655369', '0.0759193', '0.06744205', '-0.05883525', '0.018944826', '0.0011854385', '0.017535418', '-0.049122337', '0.2006462', '-0.0008122457', '-0.21373071', '-0.015065185', '0.12792498', '-0.07465415', '0.0023648432', '-0.014891109', '0.06941227']
129, ['-0.07005068', '0.03955274', '0.07955648', '-0.12493044', '0.05826388', '0.014289581', '0.015758865', '-0.04782339', '0.06265633', '0.020900967', '0.019435735', '0.16418314', '-0.005604586', '-0.07121021', '-0.04869711', '0.009868527', '0.043191887', '-0.12623467', '-0.10324351', '-0.042073563', '-0.023320591', '-0.003563579', '-0.016141353', '-0.09397781', '-0.057800613', '0.09084648', '0.1406614', '-0.04294619', '0.09010959', '0.0280443', '-0.11525438', '0.02049999', '-0.010198945', '-0.11835482', '0.034183927', '0.03129696', '0.043165315', '-0.0877986', '-0.111179374', '-0.1647274', '0.046143238', '-0.07513491', '0.0013842678', '-0.074447185', '0.0032600716', '-0.022138724', '-0.010680241', '-0.18207599', '-0.075938664', '-0.00624246']
130, ['-0.028947137', '-0.050051', '0.06139045', '-0.04051351', '-0.07874867', '0.10070512', '0.028473256', '0.019429725', '0.044178706', '-0.024313066', '-0.103351265', '-0.008908794', '-0.05402222', '0.0540804', '0.028040802', '0.012613912', '0.097043715', '-0.05580198', '0.08635665', '0.07983187', '0.13412623', '0.016743386', '0.0078834975', '-0.044953644', '-0.040382598', '0.057006344', '-0.080724366', '0.007957304', '-0.03258674', '0.038598634', '-0.1578736', '-0.12214068', '-0.078901894', '-0.027814986', '-0.051658604', '0.11678592', '0.088461824', '-0.051865842', '0.028304461', '-0.035003718', '0.00073246675', '-0.06373593', '-0.08744742', '-0.10565745', '0.11480142', '-0.031849753', '-0.09978848', '0.05107352', '0.015062439', '-0.04834391']
131, ['-0.030247664', '0.13114724', '0.04779989', '-0.006127374', '-0.023468819', '-0.19500297', '-0.088987924', '-0.059328843', '-0.0055069583', '0.013035077', '0.05133855', '0.0654496', '-0.018306853', '0.006881766', '-0.008590041', '-0.0074851825', '0.11489456', '-0.09316075', '-0.06593836', '-0.020827224', '-0.16009009', '0.071504205', '-0.024695555', '0.105644226', '0.0142821465', '0.16904521', '0.07321536', '-0.040208627', '-0.025408998', '0.046550803', '0.035140757', '0.025764067', '-0.07114643', '-0.05609079', '-0.21594095', '0.033630535', '-0.0491182', '-0.20680757', '0.04328111', '-0.037985746', '0.18755823', '-0.14127067', '-0.043452494', '0.11238851', '0.14594889', '-0.07090293', '-0.0027337186', '-0.091120265', '-0.0081976745', '-0.11816617']
