0, ['-0.23566614', '0.38285977', '0.2086505', '0.24181247', '-0.31730315', '-0.4360276', '0.23053223', '-0.29589644', '0.12841326', '-0.13785689', '-0.24701478', '0.43185547', '0.0027250417', '-0.030658036', '-0.05481821', '0.17028844', '-0.06502455', '-0.18756503', '-0.09024157', '-0.1926308', '0.031699512', '0.10994764', '0.0901973', '-0.05906963', '0.11862668', '-0.10895768', '0.20910679', '-0.18238038', '-0.035226233', '0.07089393', '0.04533129', '0.06997071', '-0.011485268', '-0.21859653', '0.07380357', '-0.025558919', '0.27032652', '-0.15015645', '0.09408118', '0.039102517', '0.10623538', '0.25358948', '0.29196298', '0.24438241', '0.028732216', '0.34503868', '0.1824059', '-0.24468209', '0.14156306', '0.29819962']
1, ['0.14382324', '-0.07772007', '-0.15874773', '0.3556288', '0.07547519', '-0.012822001', '-0.04561434', '0.1012036', '0.3212757', '0.31257457', '0.19387259', '0.025859367', '-0.29838583', '0.08655557', '-0.042577874', '0.11310345', '-0.06284047', '0.08117691', '0.15981007', '-0.09187958', '0.5314044', '0.21599932', '-0.16296366', '0.07075955', '-0.3111646', '-0.07781024', '-0.34393623', '0.0419075', '-0.05930001', '-0.14680879', '-0.2262171', '0.032679364', '0.19499671', '0.17935604', '0.039290812', '-0.3442167', '-0.122104816', '0.093058', '0.2763673', '0.050307997', '-0.032248665', '-0.1855716', '0.107629135', '-0.023560038', '0.0031240287', '-0.050036926', '-0.1384987', '-0.04457871', '0.0005275709', '0.04054168']
2, ['-0.38132983', '0.042008672', '-0.2129563', '0.18991396', '-0.3291011', '0.042158633', '-0.21660453', '0.26266506', '-0.22500367', '-0.08052519', '0.10922857', '0.26487923', '-0.33104354', '-0.14498055', '0.1372018', '-0.10188253', '0.120424904', '0.17128798', '-0.12785007', '-0.008125929', '-0.21674433', '-0.05908255', '0.07949491', '0.16245377', '-0.17026722', '-0.027121171', '0.01724633', '0.0742622', '0.12721916', '-0.1472465', '-0.1338993', '0.39654666', '0.09526645', '-0.074831724', '0.1813768', '0.37989756', '0.021000953', '-0.12438843', '-0.12397586', '-0.3782588', '-0.096595794', '-0.12729642', '-0.2608346', '-0.15338181', '0.009513216', '-0.020829527', '0.11058491', '0.14954102', '0.018447464', '0.0071512107']
3, ['0.0979712', '-0.04324023', '0.085604', '-0.08262734', '-0.054492652', '-0.18132529', '0.025415057', '0.29813623', '0.06920679', '0.07798375', '-0.062175877', '-0.162627', '0.21973227', '0.2254939', '-0.024419082', '-0.30532306', '-0.10111006', '0.0011263642', '0.31458023', '0.021993648', '-0.27111742', '-0.059989154', '-0.08388354', '0.20654194', '-0.14886126', '0.1798675', '0.19820307', '0.022788787', '0.11763692', '0.2496388', '-0.18461967', '-0.11995763', '0.20285182', '-0.03446946', '-0.07913221', '0.0968724', '0.08240049', '0.12574366', '-0.18328182', '-0.16124684', '0.063671574', '-0.10005801', '0.1493754', '0.06430621', '0.04521879', '-0.08984569', '-0.1583569', '-0.04039493', '-0.15466838', '0.33861396']
4, ['0.10944704', '-0.13738893', '-0.008062736', '-0.10623328', '-0.03849628', '-0.10196142', '0.28174344', '-0.18784924', '-0.019721588', '0.047607083', '-0.027727854', '-0.06516835', '-0.14644445', '-0.3931082', '0.020356875', '-0.062441543', '0.13721453', '0.1290047', '0.33730668', '0.108154036', '-0.08584666', '-0.056081273', '0.14108893', '0.35727233', '0.16209489', '0.2588451', '0.06758107', '-0.047222633', '-0.27635133', '0.0145535115', '0.064076945', '-0.083215795', '0.025456619', '0.26736262', '0.14226063', '0.17628394', '0.21547212', '0.029955547', '-0.082840644', '0.014514713', '0.055785593', '-0.10923277', '-0.2994905', '-0.07648819', '0.2445479', '-0.40760753', '0.22794032', '-0.24913836', '0.39814532', '-0.052115697']
5, ['-0.15712455', '-0.024649214', '0.15553266', '0.09487889', '-0.027868684', '0.1411975', '0.19120978', '0.074463695', '-0.061730582', '-0.05678759', '-0.026213543', '-0.29197377', '0.15551312', '-0.068492524', '0.09254997', '-0.014220605', '0.054616146', '0.23513295', '-0.017205838', '-0.13307206', '0.18024035', '0.114064984', '0.10135005', '-0.10380162', '0.36490607', '0.14383908', '0.068033874', '-0.009053449', '0.107163444', '0.09928016', '-0.2924659', '-0.14578868', '-0.16302434', '0.00029254434', '-0.23288451', '-0.03165891', '-0.01202515', '0.12234228', '0.0790933', '0.07013734', '0.16268346', '-0.15502326', '0.01761827', '-0.07660753', '-0.017159112', '0.14960702', '0.13178056', '0.017932458', '-0.27838227', '-0.11440398']
6, ['0.050095648', '-0.1431316', '-0.2900956', '-0.17379811', '-0.04184341', '0.06281989', '-0.07135107', '-0.06552872', '0.20379022', '-0.1367162', '0.22116591', '0.14061978', '0.27058947', '-0.0021339478', '-0.2652223', '-0.10690739', '0.14490028', '-0.05625566', '-0.3032757', '-0.14541674', '-0.39974833', '-0.055836007', '0.15268086', '-0.31568682', '0.01907583', '-0.118603945', '0.050371327', '0.14816655', '-0.10743288', '-0.23344685', '-0.05590388', '-0.039580584', '-0.16737983', '0.22376731', '0.1362905', '-0.054217104', '-0.116920434', '-0.15232964', '-0.08648951', '0.00076546014', '-0.23897031', '0.020878315', '0.1329701', '-0.12467072', '0.10846394', '-0.22573942', '0.26450616', '-0.2725995', '-0.32338473', '-0.2796262']
7, ['0.11102218', '-0.006718278', '0.07262241', '-0.42388743', '0.012304455', '-0.00087719236', '-0.08930812', '-0.04405473', '-0.62760365', '0.21767461', '0.050345562', '0.019616663', '-0.0471404', '-0.011296643', '-0.085659616', '-0.00022722551', '-0.1691856', '0.08161317', '-0.14608826', '0.15426591', '0.19136247', '-0.009539949', '-0.10211379', '-0.06323091', '0.037573315', '-0.0797503', '-0.14359212', '-0.025916263', '0.15885766', '0.06717073', '-0.11327859', '0.10638175', '-0.05123203', '0.03279803', '0.2016851', '0.13508666', '0.20160457', '0.03801717', '-0.01773393', '0.4802599', '0.07796283', '0.10104118', '-0.23310488', '-0.01315724', '-0.12720056', '0.15227039', '-0.03786472', '0.21208169', '-0.10749945', '-0.20241988']
8, ['0.11674415', '-0.2825007', '-0.0077341474', '0.3048807', '0.30911195', '0.062085293', '0.29158074', '0.041304324', '-0.054436445', '-0.06853822', '-0.062657446', '0.30159163', '0.081005864', '0.1838749', '-0.001699963', '-0.009353636', '-0.2348381', '0.3627156', '-0.07557456', '0.28220704', '0.14899626', '-0.17747158', '0.11674843', '-0.1818814', '0.1611833', '-0.036811665', '0.0050600227', '-0.18071993', '-0.090659365', '-0.15847735', '0.028252812', '0.14058383', '0.35084635', '0.29690018', '-0.23294304', '0.08831565', '0.058759905', '-0.16965418', '-0.15716293', '0.0083174165', '-0.29204193', '-0.27417955', '-0.20072675', '0.28159705', '0.09271347', '0.06027457', '-0.14854522', '0.031030487', '-0.026860103', '0.058846332']
9, ['0.26795065', '-0.027504118', '-0.22289778', '0.22757013', '-0.06384827', '-0.20878099', '-0.030134466', '0.15315777', '-0.30120122', '0.36912417', '0.21367513', '0.17427567', '-0.10339115', '-0.16768579', '0.019607129', '-0.3710783', '-0.070653856', '0.02116804', '-0.0132678', '-0.33688226', '-0.21166678', '0.046300117', '-0.09305507', '-0.0995216', '-0.27288672', '0.36934453', '-0.051524777', '0.09684755', '0.14751028', '-0.0034188535', '-0.035785127', '-0.07704352', '-0.21289428', '-0.084572494', '-0.0828773', '-0.13602974', '-0.11690415', '-0.045324065', '0.26807737', '0.104889706', '0.14826356', '-0.14370458', '0.11402306', '-0.21436554', '-0.18886192', '-0.093097', '-0.08699794', '-0.16174804', '0.2659557', '0.13608007']
10, ['-0.27695468', '-0.2830465', '-0.049560364', '-0.060335353', '0.01768487', '-0.0038130826', '-0.16956663', '-0.31679574', '0.3434604', '0.1402147', '0.14368871', '0.018750338', '0.14406326', '0.19284163', '-0.082449526', '-0.16187982', '-0.22110766', '0.009707211', '0.08509135', '-0.041335072', '0.37831363', '-0.03032456', '-0.1971598', '-0.092302576', '0.04127524', '0.030839255', '-0.2258638', '-0.27793953', '-0.19509362', '0.054186344', '0.06282502', '-0.18093568', '0.03980275', '-0.42166895', '0.008052171', '0.28432748', '-0.026063947', '0.1980083', '-0.28258818', '-0.1927176', '0.08822422', '-0.21000162', '-0.019564832', '0.08014019', '-0.07873196', '-0.033793163', '0.3709859', '0.3546883', '0.06391191', '-0.022780214']
11, ['0.25348106', '0.13352837', '-0.1303611', '0.13736473', '-0.1467115', '-0.13546798', '0.113836534', '0.3522902', '0.14584792', '-0.13617249', '-0.15101244', '-0.43241394', '0.1580811', '-0.32802352', '-0.32305723', '0.36809748', '0.16720355', '0.1732854', '0.038576182', '0.29560047', '0.19734836', '-0.1386844', '-0.26707658', '0.28556758', '-0.08856327', '0.01856556', '-0.00281112', '0.28515038', '-0.08865126', '-0.095193036', '-0.12259663', '0.007685879', '0.26423973', '-0.21761653', '0.061138257', '-0.0051311296', '-0.11798617', '0.012133813', '0.060084317', '0.1531384', '-0.13458236', '-0.107439235', '-0.121433154', '-0.032759167', '-0.36076823', '0.2546607', '0.08649881', '-0.124258325', '0.009943162', '-0.27872357']
12, ['-0.18388353', '-0.017956542', '0.20185831', '-0.26065874', '-0.2214593', '-0.031344898', '0.069947116', '-0.1372778', '-0.32731134', '-0.239704', '-0.1340291', '-0.07599637', '0.38041872', '-0.21148874', '0.104830995', '0.005328536', '-0.011869791', '0.09925008', '-0.07216849', '0.16100892', '-0.33236125', '-0.13171093', '0.1209905', '-0.10052268', '0.14140707', '0.23038077', '0.32776293', '-0.09744648', '-0.023290012', '0.23441738', '-0.03839486', '0.019535173', '0.012428099', '-0.0039508706', '-0.09126183', '0.37204546', '0.074722074', '-0.14784913', '-0.24714607', '-0.091203734', '0.09298306', '0.079694785', '0.01583923', '0.004501678', '0.0145157995', '0.0853445', '0.13400914', '0.16315502', '-0.15756097', '-0.049577054']
13, ['-0.09800355', '0.3981987', '0.26837155', '-0.050897248', '-0.26680917', '-0.07343712', '-0.09268499', '-0.09562464', '0.205548', '0.2316551', '-0.27928123', '-0.17912996', '-0.08984801', '0.21393314', '-0.14628094', '0.23855236', '0.04056766', '-0.30313075', '0.36896133', '0.55946535', '-0.26607198', '0.08448839', '0.34957612', '0.07125321', '-0.31822595', '-0.30263698', '-0.39797848', '-0.02643813', '-0.05868652', '0.2306797', '-0.16788176', '0.14043964', '-0.14810556', '0.69096124', '0.11419148', '-0.2714615', '-0.0582351', '0.012028272', '0.078709915', '0.18984504', '-0.057898205', '0.12018751', '-0.015941042', '0.1706466', '0.38287365', '0.0057683345', '-0.26517695', '0.09933728', '0.057476148', '-0.093509175']
14, ['-0.07079736', '-0.13596438', '0.03612359', '-0.018597748', '0.17818417', '0.22362185', '-0.03762214', '-0.11515715', '0.041727025', '0.23742114', '-0.08440824', '-0.10365347', '0.11146575', '-0.08044055', '0.08525679', '0.06788123', '-0.35424712', '0.023823466', '0.27199993', '-0.10761453', '0.05256856', '0.31621847', '0.009635681', '-0.16438253', '0.054656062', '0.055447016', '0.11769188', '0.11843169', '0.25691032', '-0.04970042', '-0.25552472', '0.16372912', '-0.03236643', '0.066432856', '0.23022571', '0.058655698', '-0.13267891', '0.27012146', '-0.10941792', '-0.13276966', '-0.114668414', '0.06407821', '0.044112213', '-0.024372375', '-0.017759617', '-0.07250932', '0.09381949', '-0.16124538', '0.12623134', '0.03907446']
15, ['-0.12439138', '-0.16275519', '-0.05137673', '-0.15025091', '0.085519806', '0.13403116', '-0.052985806', '-0.025973994', '0.13935116', '-0.11845601', '0.1408083', '0.27970156', '-0.14231119', '0.008367529', '0.108942896', '0.0921497', '0.43074098', '-0.13743341', '-0.09721822', '-0.26290148', '0.16012076', '0.028826157', '0.059886754', '-0.008889251', '-0.16386105', '0.3934321', '-0.06328303', '-0.09133282', '-0.03225877', '0.30896235', '-0.2348135', '-0.05732079', '0.24181171', '0.120701924', '-0.1422246', '-0.06491083', '0.05939712', '-0.24238941', '0.1533662', '0.12217229', '0.21633385', '-0.026690068', '0.07796817', '-0.048050556', '0.13449304', '0.0182472', '-0.093498394', '0.31644446', '-0.09641399', '0.27318853']
16, ['0.21700422', '-0.4291831', '0.13246751', '-0.1626768', '-0.14339846', '-0.15113607', '0.18742524', '-0.066389985', '0.11598523', '0.14361414', '-0.05047956', '0.015889307', '0.069346815', '0.064326406', '-0.44313136', '-0.22856939', '-0.30632165', '0.1298254', '0.051948275', '-0.09173954', '-0.30231312', '-0.12453965', '0.12768982', '-0.13492885', '-0.12045681', '0.017188204', '-0.08384141', '-0.042293794', '0.015893824', '0.027862549', '-0.23598231', '-0.119200096', '-0.17689335', '0.25705886', '0.25017413', '-0.10146707', '0.049999826', '0.23449346', '0.0793174', '0.18571678', '0.09211247', '0.10127479', '-0.12368137', '0.061622128', '0.059508402', '0.23275016', '0.019968703', '-0.03984968', '-0.13302691', '0.26313728']
17, ['-0.08224907', '0.1334401', '0.34254906', '0.23196529', '-0.060219254', '-0.20594199', '0.039661035', '0.14471647', '-0.22754398', '-0.020444013', '-0.20731492', '-0.20847934', '-0.09339251', '0.10230231', '0.16860649', '0.028862773', '-0.23174664', '0.060630582', '0.327497', '0.17907584', '0.26448947', '0.06505054', '-0.05304491', '0.48582494', '0.063460566', '0.3351168', '-0.004855982', '-0.06997919', '0.2869721', '0.21740462', '-0.2691005', '0.06841385', '0.16992983', '-0.122898966', '-0.23349498', '0.14725341', '0.087789625', '-0.014639603', '0.09168425', '0.06566595', '0.3984718', '-0.08383158', '-0.19368087', '0.07185642', '0.047240682', '0.19379844', '-0.101129815', '0.2623808', '0.25260067', '0.32708845']
18, ['-0.10794426', '0.06251251', '-0.13382143', '-0.07130409', '0.12520334', '0.07869837', '0.0065196604', '-0.08160836', '0.08987188', '0.19320339', '0.15192048', '-0.11956142', '0.22421287', '0.044172954', '-0.2679703', '-0.041545667', '-0.0058845174', '-0.012645204', '0.070643276', '0.18490565', '-0.4983992', '-0.08423562', '-0.37922373', '-0.029538633', '-0.013519631', '0.1743874', '0.27237484', '0.118184514', '0.22271867', '-0.12810656', '-0.36895132', '0.05214155', '-0.046747282', '-0.09544809', '-0.113992356', '-0.04974536', '0.1746264', '-0.21410403', '0.1031438', '0.23504005', '-0.019940868', '-0.10351964', '-0.2802231', '0.15577252', '0.10187059', '-0.030440412', '-0.001050222', '0.18941249', '0.0148688415', '0.2196294']
19, ['-0.20006752', '-0.018484049', '-0.026366169', '0.083001904', '-0.020510219', '0.273921', '0.06980148', '-0.35925376', '-0.14760226', '-0.04541797', '0.19051039', '0.100203946', '-0.113361835', '-0.24774334', '-0.11126171', '0.37373158', '0.21859846', '0.20340435', '-0.33432686', '0.033557177', '0.1719453', '0.11309502', '0.07641498', '-0.18808286', '0.29056895', '-0.10718613', '-0.16682707', '-0.040085834', '-0.14660682', '-0.23252961', '-0.12823394', '0.0941128', '-0.21046717', '0.19375578', '0.23352554', '-0.111356124', '-0.03633931', '-0.13595372', '0.2078638', '0.22594178', '-0.08954442', '0.054366287', '-0.21598782', '-0.03557946', '-0.06934338', '-0.052407674', '0.24676226', '0.0782486', '0.1558599', '-0.38606063']
20, ['0.15032998', '-0.13002196', '0.19896315', '-0.04585791', '-0.09250662', '0.07677574', '-0.057542816', '0.2865262', '-0.29197052', '-0.084423356', '-0.11057821', '0.011375119', '0.04103433', '0.22911875', '-0.1727383', '-0.10223452', '0.07063852', '-0.23992419', '0.19654693', '-0.20187597', '-0.10597053', '-0.22781494', '0.11822426', '0.094534576', '-0.0980805', '0.4468988', '-0.2298958', '-0.24065', '-0.0033436422', '0.005380695', '-0.2557017', '-0.023963336', '0.113386236', '0.048948754', '0.31484798', '0.111338004', '-0.26528516', '-0.07823899', '-0.1204815', '0.012430446', '-0.18771885', '-0.12669528', '-0.020305378', '0.166925', '-0.038071055', '-0.060341816', '0.089097835', '-0.02580434', '-0.20216364', '-0.29458708']
21, ['0.093442336', '-0.05345112', '-0.09950431', '-0.2763889', '0.07608249', '-0.15513583', '0.35141712', '0.17256565', '-0.10354668', '0.17053694', '0.14700054', '0.08711493', '0.20726244', '0.30644566', '0.06002378', '0.013454848', '0.16089909', '-0.06653633', '-0.1106142', '0.115608424', '0.21318163', '0.00090796984', '-0.061426096', '0.06339997', '0.08942196', '0.14872636', '0.21480556', '0.175697', '0.06041138', '-0.06769097', '-0.35638392', '0.0072840857', '0.16967563', '-0.06841647', '-0.1319312', '0.136399', '0.0096037295', '-0.010203506', '-0.19058807', '-0.09478405', '0.13808814', '0.09287067', '0.2293793', '-0.16076292', '-0.20129815', '-0.2172703', '0.19014065', '-0.044304866', '0.024716912', '-0.12759784']
22, ['0.25704876', '0.08101237', '0.16778865', '-0.030495424', '0.24057476', '0.05237967', '-0.41824454', '0.22698678', '-0.20607702', '-0.25463626', '0.030857442', '-0.12391936', '-0.14695296', '-0.10075373', '0.09211525', '-0.028950995', '0.0834948', '-0.016342862', '-0.1880992', '-0.13104549', '0.0890234', '0.16431627', '0.0338781', '-0.09188013', '-0.014314261', '-0.84881806', '0.07548947', '-0.14054081', '-0.10518338', '0.16690665', '1.5516183', '-0.09462813', '-0.239554', '-0.12041574', '0.17318736', '-0.12192415', '0.026573835', '0.011672136', '-0.101156905', '-0.11836131', '-0.20265506', '0.12577389', '0.047809146', '-0.39966807', '-0.091324665', '0.008072428', '-0.55714995', '-0.15905815', '0.041591067', '-0.10176951']
23, ['-0.2206713', '0.017876254', '-0.08101432', '0.47162798', '-0.13578965', '0.05221959', '0.21628514', '0.12836802', '0.54946405', '-0.24096583', '0.0012701195', '-0.18235889', '0.15939021', '0.01263054', '0.016248588', '-0.057343226', '0.1917091', '-0.03288004', '0.25048244', '-0.08665653', '-0.36042666', '0.043179587', '0.09772596', '0.085075945', '0.06118236', '0.23271121', '0.24979325', '0.032335386', '-0.18037042', '-0.10132114', '-0.24000531', '-0.16875628', '0.046298046', '0.06813423', '-0.23476732', '-0.16594099', '-0.17840296', '-0.075000264', '-0.02322102', '-0.40994006', '-0.05166633', '-0.19180927', '0.24477293', '-0.06782143', '0.13736688', '-0.16370244', '0.08340319', '-0.24780549', '-0.07504181', '0.13172787']
24, ['0.16066849', '0.2533255', '-0.09863583', '-0.11801075', '-0.1478384', '-0.45261654', '0.1554264', '-0.16497909', '0.0137865925', '0.16511318', '0.023475183', '0.44507006', '-0.122525066', '0.25791326', '-0.011989196', '0.11114752', '0.050184656', '-0.3175901', '0.048816577', '0.24796021', '-0.10331719', '-0.21049581', '-0.036982473', '0.017492961', '-0.5149165', '-0.22361334', '-0.113498315', '0.11085624', '-0.17672032', '-0.12023399', '-0.11130944', '0.25850534', '0.21818064', '0.15761665', '0.2767801', '0.055446297', '0.10747387', '-0.11722424', '-0.06320863', '0.16395363', '-0.25570396', '0.51198345', '0.25765935', '0.05707894', '0.03320705', '-0.3142422', '-0.0581547', '-0.19360967', '0.2210137', '0.1717277']
25, ['-0.4665699', '-0.06112096', '-0.13580531', '0.21204726', '0.14853348', '-0.36371619', '0.21320865', '0.16492888', '-0.15447119', '-0.2519475', '-0.01623189', '-0.07110905', '0.27817076', '0.015957454', '0.01269462', '-0.029051745', '0.14626496', '0.03127086', '0.2741667', '-0.023950962', '0.15069813', '-0.25946957', '0.086369716', '-0.29174846', '0.029825402', '0.0445258', '-0.08372152', '0.039736748', '-0.037343923', '-0.012518799', '-0.1619119', '-0.31936833', '0.0092118755', '-0.03637345', '-0.049087342', '0.14864327', '-0.11832186', '0.229149', '0.26868924', '0.45626175', '-0.2931681', '0.17530693', '0.10925675', '-0.11574572', '0.30200744', '-0.2171168', '-0.08946218', '0.21157688', '0.12778522', '0.16393413']
26, ['-0.034718007', '0.19945866', '0.05008114', '-0.15560469', '-0.11884833', '-0.43696675', '-0.18677112', '0.039145235', '0.010090858', '-0.099876694', '-0.18742837', '-0.039967965', '-0.029947653', '-0.08082847', '-0.064701386', '0.22396763', '0.12952492', '0.14395908', '-0.24542442', '-0.15661354', '0.23801427', '0.25747576', '-0.11802725', '-0.19097356', '-0.038798433', '0.14101118', '0.10383998', '0.060857493', '-0.059038103', '0.06932657', '-0.24867113', '-0.19774033', '-0.08134108', '-0.035589326', '0.036475036', '-0.04383106', '0.21421589', '-0.049295302', '-0.03499685', '-0.12420724', '0.03227287', '-0.33603308', '-0.038234297', '0.340066', '0.32097733', '-0.06488022', '-0.012319877', '-0.24489981', '-0.19128446', '-0.030159503']
27, ['0.07298837', '-0.29689735', '-0.06714785', '-0.13297199', '0.11848919', '0.21937534', '-0.12580165', '0.14332576', '-0.048736356', '-0.038525157', '0.28499871', '-0.31667817', '0.060024697', '-0.012385952', '0.13456604', '-0.06516281', '-0.0025997933', '0.23092467', '0.15106341', '0.12543719', '0.002033104', '-0.08275291', '-0.07516699', '0.09969286', '-0.071392305', '0.13693066', '-0.11342123', '0.10855824', '-0.040062085', '-0.060364626', '-0.26562688', '-0.0885842', '-0.07023885', '0.25455117', '-0.15343012', '0.03398905', '-0.124935', '0.05361902', '-0.00699085', '0.020439139', '0.0119321225', '-0.1675279', '-0.119598284', '-0.22568914', '0.046171777', '-0.20363736', '-0.016797366', '0.21328679', '-0.256505', '-0.10315419']
28, ['0.44351596', '-0.05562065', '0.23086165', '-0.03626569', '-0.19916491', '0.28963655', '-0.21413931', '-0.36746007', '0.24498196', '0.04995969', '0.21446916', '0.095960915', '-0.20659749', '-0.024027852', '0.047277804', '0.117658176', '-0.25566208', '0.067050144', '-0.2047421', '0.07337192', '-0.069962844', '0.20030294', '-0.20411013', '0.23584636', '-0.02858123', '0.09192465', '0.20163867', '-0.066457935', '-0.12224926', '-0.109394774', '-0.020316087', '0.21900398', '0.01316239', '0.1998772', '-0.11501892', '-0.072784014', '0.13358158', '-0.24732898', '-0.23097035', '-0.30155143', '0.4387695', '-0.04997631', '0.028883066', '0.04337568', '-0.23244143', '0.22666128', '0.13762656', '-0.12841609', '-0.26243216', '-0.03728668']
29, ['-0.3533059', '-0.024740526', '0.07060954', '0.18344137', '0.20409049', '-0.039910916', '-0.0115349395', '0.09530383', '-0.17726696', '-0.048189543', '-0.003277305', '-0.062355973', '-0.08025878', '0.22978444', '-0.054539274', '-0.115758255', '-0.1334229', '-0.51213497', '-0.2925989', '0.07392071', '-0.0021102352', '-0.07572727', '0.14379588', '0.0727119', '-0.01662596', '0.19996382', '0.47323054', '-0.17536995', '0.26384202', '-0.26558477', '0.10457464', '0.11055987', '-0.053357553', '0.26938713', '-0.000697195', '0.038642675', '-0.0073189507', '0.19317752', '0.18012784', '0.027053522', '0.23490073', '-0.08474094', '0.21675064', '0.07276455', '-0.0029924216', '0.37699583', '0.35862482', '-0.20822065', '0.092389114', '-0.13052553']
30, ['0.1899013', '0.10524343', '-0.06212935', '0.04346244', '-0.11985102', '0.46327186', '0.5733196', '-0.03289733', '0.20639035', '0.13938992', '0.1953749', '0.059839893', '0.028754663', '-0.24991192', '0.0030793634', '0.1823782', '0.08168209', '-0.20904468', '0.2171604', '-0.15021484', '-0.102949925', '-0.24602994', '0.122705184', '-0.08156073', '0.068451785', '-0.0764766', '-0.1514318', '-0.02515765', '0.2860854', '0.16106664', '0.3264435', '0.06073063', '-0.023199776', '-0.4617686', '-0.17431997', '-0.07372093', '-0.023841213', '-0.11280451', '-0.045667697', '0.22021374', '-0.0803054', '-0.010812678', '0.04287636', '0.28384078', '-0.08777554', '-0.061789297', '0.10666435', '0.26008597', '-0.034508318', '0.06992445']
31, ['0.10354833', '-0.18337049', '-0.19053225', '-0.016805867', '-0.301854', '0.16545705', '-0.08806963', '0.075795114', '0.0026923495', '-0.13884145', '-0.17470182', '0.3129581', '0.40420428', '-0.037654217', '-0.1433068', '-0.11210096', '-0.023806881', '0.021203494', '0.15522371', '-0.1561896', '0.14654455', '0.01104038', '-0.15322648', '0.018786965', '0.4164662', '0.14582515', '-0.031439744', '-0.016196957', '-0.22148669', '0.06850324', '-0.16157964', '-0.12515867', '0.08520521', '0.09192544', '-0.051011946', '-0.009239573', '-0.066786535', '-0.22595195', '0.080257624', '-0.067944065', '-0.08551053', '0.17244796', '-0.013156535', '-0.038187407', '-0.24627122', '0.23736015', '-0.094449826', '-0.104198806', '0.27419263', '0.0113311205']
32, ['-0.016026381', '-0.27860036', '-0.027219063', '-0.028854411', '0.0027860259', '-0.25302717', '0.12652256', '0.29744536', '0.14196062', '0.2783294', '0.07404355', '0.13306327', '0.031913124', '-0.4022598', '0.020919327', '-0.10591416', '-0.1599366', '-0.29060256', '0.022414718', '0.22822371', '-0.06362642', '-0.0046318346', '-0.005844392', '-0.108975634', '0.1302416', '0.16121459', '0.08084635', '-0.3683543', '-0.11191224', '0.04419433', '-0.2653176', '-0.06717421', '-0.06802105', '-0.08929436', '-0.06399261', '-0.051830567', '-0.056655794', '0.015779987', '0.082476355', '-0.03987528', '0.103305325', '-0.034199037', '-0.08779006', '-0.014131072', '-0.09703911', '0.049633276', '0.041790586', '-0.13406448', '0.06753751', '-0.18218097']
33, ['0.009112491', '-0.1462431', '-0.22134183', '0.22498052', '-0.1359316', '-0.31736487', '0.25713956', '-0.015387969', '-0.032191865', '0.051980402', '0.13261145', '-0.1098118', '0.038847767', '0.247629', '0.2004184', '0.0047676708', '0.054963917', '0.22434036', '-0.08010215', '-0.29705748', '-0.08790605', '0.031570368', '-0.028993962', '0.16723499', '-0.12369571', '0.2888168', '0.029529966', '0.09492463', '-0.1564212', '0.31172416', '0.11127686', '0.17413978', '-0.44068402', '0.3483569', '-0.17423472', '0.057111032', '-0.061769165', '0.004612195', '0.22563757', '0.005752419', '0.08017123', '0.05497714', '0.12863071', '0.15041806', '-0.13886717', '0.13058037', '0.028532304', '0.15907788', '0.2790993', '-0.31930324']
34, ['0.15722819', '-0.27498284', '-0.0029308596', '0.14749166', '0.03148072', '-0.15467875', '0.14529598', '-0.15568344', '-0.041402858', '-0.21495917', '-0.054907303', '0.07780817', '-0.07387932', '-0.17975332', '0.13189955', '-0.020828659', '-0.08074429', '0.4035287', '0.01833469', '-0.32943153', '-0.06452024', '-0.04427425', '-0.3214474', '-0.09722899', '-0.03488602', '0.20625255', '0.006642662', '0.10805172', '-0.10172912', '0.024978451', '-0.19804841', '0.0034770814', '0.012972554', '-0.17450944', '0.06132887', '0.115742035', '0.03480252', '-0.090892784', '-0.10989757', '-0.014667542', '-0.13276066', '0.23944439', '-0.023980811', '-0.17085662', '-0.17397268', '-0.15075023', '0.051692568', '0.053401284', '-0.009690858', '0.32805032']
35, ['-0.13373086', '0.14973459', '0.32526267', '0.14040878', '0.29218188', '-0.1726335', '0.22208631', '-0.10387267', '0.09768895', '0.100053534', '0.2427606', '-0.31382397', '-0.35200617', '-0.07558824', '0.27748644', '0.16032581', '-0.023082038', '0.04114097', '-0.21394981', '0.20520505', '-0.08254048', '-0.16815871', '0.17324586', '-0.02371498', '-0.49968457', '-0.032056082', '0.06125935', '-0.047411487', '0.20836848', '-0.13766253', '0.12114795', '0.04146657', '-0.13571647', '-0.03376403', '0.06250632', '0.074530296', '0.09511879', '0.16220312', '-0.09770209', '0.0667459', '0.11071723', '-0.069485724', '0.070239045', '-0.10226898', '0.20035739', '-0.37110576', '0.23639128', '0.0888092', '-0.34304574', '0.04752548']
36, ['-0.33956048', '-0.24236047', '-0.052953027', '-0.27790672', '0.19145335', '0.21438754', '0.016820323', '0.012638517', '0.44099373', '-0.25933996', '-0.3413935', '-0.1011635', '-0.038395803', '-0.1662759', '-0.2300908', '0.036098152', '0.09151813', '-0.121186346', '-0.02582343', '0.12996195', '0.16655025', '0.06780339', '0.07606348', '0.25465277', '-0.004562281', '0.0031752535', '0.13111998', '-0.006108689', '0.05805265', '-0.08746021', '-0.09519686', '0.00025542296', '0.35245872', '0.09578809', '0.25248355', '-0.014694784', '0.08723809', '0.01725656', '-0.14209068', '0.056043163', '-0.020970631', '0.16549237', '-0.026150763', '-0.037430745', '-0.08609708', '0.20326173', '0.08278585', '0.0734085', '-0.04668177', '0.23364037']
37, ['-0.093777366', '0.2135902', '-0.2856166', '-0.024247793', '0.38574803', '0.018203711', '-0.18024632', '-0.20709632', '-0.016791623', '0.16367029', '-0.11871018', '0.101798184', '0.35437918', '0.036582127', '0.33053967', '0.04254649', '-0.04244164', '-0.026580878', '0.16232008', '0.12602556', '-0.21191685', '0.16942735', '-0.1261497', '0.28094774', '0.20351388', '-0.008125597', '-0.42785975', '-0.107983515', '0.16952108', '0.0064896066', '-0.039544262', '-0.10689131', '-0.099160284', '0.10418607', '-0.07871485', '0.022532437', '-0.25772196', '-0.20016405', '-0.11744791', '-0.13945396', '-0.024052653', '0.09345948', '0.12805718', '0.13414274', '0.20411205', '0.14244236', '-0.057750303', '-0.1581499', '0.07055804', '-0.13855207']
38, ['-0.12872607', '-0.03832792', '0.4367436', '0.20576304', '-0.22469807', '-0.15601271', '-0.18589804', '0.1570781', '0.1799263', '0.38357073', '0.01884424', '0.15013126', '0.15471707', '0.26565033', '-0.1942957', '0.08572334', '0.07660208', '0.0031230305', '0.1504642', '0.109017946', '0.041368753', '0.13129441', '0.3477053', '-0.04322471', '0.16114868', '0.21290465', '0.24574688', '0.18252987', '0.054014284', '-0.14633116', '0.04113526', '-0.15370376', '-0.033808924', '-0.0004353382', '-0.06474136', '0.051915113', '-0.09385007', '-0.20980291', '0.074993335', '0.012316041', '0.011332537', '0.13357297', '-0.28464645', '-0.121421166', '-0.23110838', '-0.3047958', '-0.00016564448', '0.11407354', '0.0507395', '-0.12071761']
39, ['0.024701301', '0.24876776', '0.15288362', '-0.17674243', '-0.46844023', '0.3513269', '0.10338115', '0.14483567', '-0.20035797', '-0.031123813', '0.030937305', '0.014620999', '-0.06334221', '0.11134793', '-0.13295116', '-0.06666546', '-0.12665047', '-0.0033282926', '0.079782695', '-0.06840382', '0.023226578', '-0.24659267', '-0.18453413', '-0.07580097', '0.1677079', '-0.09565753', '-0.014670086', '0.08363157', '-0.20224477', '-0.1658354', '-0.10333289', '0.15249126', '0.14891474', '0.15617311', '-0.2584923', '-0.1269481', '0.15128215', '0.32461372', '0.21985605', '-0.09458075', '0.16260138', '-0.15507083', '0.25963867', '-0.12593089', '0.28804687', '-0.1943102', '0.062928736', '-0.014814834', '0.1946898', '0.02418868']
40, ['-0.14673603', '-0.14430985', '-0.18426532', '0.003267606', '-0.31779677', '-0.29900533', '0.034841996', '0.075925425', '-0.0754029', '0.12520187', '-0.069619186', '-0.33358142', '0.3244847', '-0.29646927', '-0.19085768', '-0.14370994', '-0.41192397', '0.25736544', '-0.093422025', '0.3660227', '0.09531134', '0.02930751', '0.1412654', '0.17201443', '-0.16502339', '-0.24104689', '0.040618982', '0.07556954', '0.049703818', '-0.25681457', '-0.05043329', '0.06343443', '-0.07704224', '-0.13580668', '0.15395169', '-0.07239625', '-0.08821831', '0.07799971', '0.006307495', '-0.07359799', '-0.085885756', '-0.16093455', '0.16385712', '-0.07143726', '-0.069887914', '0.13829705', '0.06699154', '-0.050631348', '0.14245185', '0.0078121447']
41, ['-0.01132882', '0.11132876', '0.0097897295', '0.056176763', '0.06809193', '0.22254959', '-0.024992932', '-0.33397114', '-0.111199096', '-0.14452092', '-0.13283795', '-0.033258922', '-0.010292841', '0.5462481', '-0.18349703', '0.054760605', '-0.04255825', '0.27339673', '-0.033291887', '-0.57393175', '0.07492137', '-0.17548755', '-0.02100998', '0.15799761', '-0.13512278', '0.085469194', '-0.22142173', '0.5397613', '0.469222', '-0.13496748', '0.41935694', '-0.06738724', '0.051886827', '0.20408297', '0.0801003', '0.35496968', '0.08081273', '0.10156096', '-0.17521039', '-0.025951732', '0.15266958', '-0.006530715', '-0.08671717', '0.15986617', '0.055225126', '0.05892943', '0.20720899', '-0.13596496', '-0.014052979', '-0.03173667']
42, ['0.046226516', '0.031153103', '-0.21662717', '-0.0937071', '-0.060417105', '0.105718434', '0.10773455', '0.32519618', '0.20508587', '0.21387173', '-0.39704382', '-0.20883554', '-0.1972468', '0.24199456', '-0.06271338', '-0.3213133', '0.07557895', '-0.22002877', '-0.15504543', '-0.01752492', '0.05267646', '-0.04199695', '-0.34281132', '-0.22670202', '0.09417655', '-0.004358749', '-0.013446319', '0.05866228', '0.3148685', '0.36555126', '0.059010517', '0.11980509', '-0.17234214', '0.30044863', '0.016661601', '0.11513838', '0.07023288', '0.057711296', '-0.17721902', '-0.27689973', '-0.14029273', '-0.22527973', '-0.33730677', '0.22145611', '-0.20267755', '-0.12224986', '0.2674172', '0.20844616', '0.13999076', '-0.10534144']
43, ['0.04902546', '-0.074919604', '-0.08299925', '0.0975993', '-0.021873824', '0.08948383', '0.22827183', '-0.011697733', '-0.04993677', '0.2567865', '0.29968542', '0.23697488', '0.23636425', '-0.086735964', '-0.1393949', '0.1718202', '-0.091395944', '0.037567917', '0.0582212', '-0.1489636', '-0.0059903143', '-0.21484566', '0.13416533', '0.18075907', '-0.16428846', '0.35050076', '-0.004351384', '-0.054925565', '0.19381332', '-0.085497625', '-0.280663', '-0.042482123', '0.062233027', '-0.13508756', '0.061214097', '0.030831479', '-0.015386507', '-0.11467897', '0.02937526', '0.0014389222', '0.22492796', '-0.22160314', '-0.011987156', '0.14886463', '0.20299609', '0.16878939', '0.0895187', '-0.09792842', '-0.0566513', '0.016568385']
44, ['0.035762824', '0.15190451', '0.18915668', '0.001634984', '0.12765516', '0.20893128', '-0.10709775', '0.1700454', '-0.039583568', '-0.018736504', '0.0017728925', '0.4174084', '-0.3350794', '-0.16759443', '0.11901472', '0.07470218', '0.025727354', '-0.2421428', '0.15607455', '0.11112316', '-0.02798954', '0.056416817', '0.093934424', '-0.19145279', '0.25750315', '-0.078365736', '0.028049702', '-0.19017093', '-0.03630091', '-0.03278101', '-0.47933218', '-0.29558885', '0.21119004', '-0.23733419', '-0.019583024', '-0.009736814', '0.037230343', '0.18321463', '-0.10266322', '0.103907', '0.12997927', '0.23609395', '-0.25074843', '-0.27199048', '0.10931114', '-0.10988924', '-0.08126547', '-0.31740385', '-0.35923624', '0.2661795']
45, ['-0.02845888', '-0.22038941', '-0.057447582', '-0.004835457', '0.19877334', '0.036950853', '-0.17885862', '0.027826175', '-0.016375871', '-0.07631662', '0.26841035', '0.2421738', '-0.39330542', '0.19237189', '0.26036346', '-0.022063833', '0.097108096', '-0.21601903', '0.18222888', '-0.036859524', '-0.2334345', '0.33128765', '-0.1347189', '-0.087772034', '0.30933982', '0.01927034', '0.34012276', '-0.06325076', '-0.35713008', '0.28407577', '-0.373634', '0.060187303', '-0.01049731', '0.10730752', '-0.20375662', '0.074533656', '0.13750045', '0.291453', '0.11220441', '0.21437548', '0.048347093', '0.3713214', '-0.13048041', '-0.093369864', '0.07321901', '0.068218686', '-0.27633193', '0.03975808', '0.13041632', '-0.102364354']
46, ['0.18774535', '-0.041253336', '0.41528273', '0.009129538', '0.17999539', '-0.03154322', '0.217806', '-0.34074876', '0.114758536', '0.22344461', '-0.2138055', '-0.44889206', '0.48563832', '-0.31166124', '0.32640883', '-0.103893735', '-0.11864601', '0.036168646', '-0.16085848', '0.003642988', '0.29366484', '-0.041975368', '0.036259353', '-0.23965465', '-0.20988317', '0.27752495', '0.072918296', '-0.25205183', '-0.07088507', '0.20474944', '0.06865005', '0.17544001', '0.073336236', '0.4213152', '0.18173936', '-0.29952902', '0.02341993', '-0.0795292', '0.1317163', '-0.09772049', '-0.093353644', '-0.027375815', '0.51155335', '0.27658156', '-0.41245472', '-0.11829815', '-0.15643764', '0.2563467', '0.04123224', '-0.021215541']
47, ['-0.15215567', '-0.13219705', '-0.14602178', '-0.15113409', '-0.10964064', '-0.37056744', '-0.003915151', '-0.012394995', '0.05424787', '-0.25402728', '0.4019846', '0.02866561', '0.04318989', '0.16055578', '-0.2948879', '-0.008059542', '0.06194733', '0.05126454', '-0.08397685', '0.2814386', '-0.06401912', '-0.17515935', '-0.022561142', '0.29280466', '-0.19467643', '0.0064154584', '-0.19131133', '-0.22775449', '-0.49596488', '0.077980705', '0.09816504', '-0.0076453458', '0.03080195', '-0.084835544', '-0.37862948', '-0.029722992', '0.089287356', '-0.27316362', '0.044919446', '0.10791222', '0.2082838', '-0.33224687', '0.0120474', '0.14635475', '-0.08746811', '0.123131014', '-0.14172004', '0.2449796', '-0.036675774', '-0.18780617']
48, ['-0.18045536', '-0.018023025', '0.126661', '-0.121005625', '-0.32028562', '-0.11521763', '0.1490523', '-0.039690427', '0.15064041', '0.0041840137', '-0.087427974', '0.012973769', '0.011756738', '0.10854784', '-0.03665352', '0.12870823', '0.02257688', '0.008329583', '0.33823863', '0.1513174', '-0.05295737', '-0.16762178', '-0.10501899', '0.094590075', '0.13045998', '0.25706398', '-0.036851518', '0.043670863', '0.0037845795', '-0.046943463', '-0.49373916', '0.13818029', '0.08072891', '0.31006292', '-0.0070426245', '0.010286022', '-0.020264314', '-0.07735221', '0.04761984', '0.06434165', '-0.042880904', '0.03497279', '-0.048401337', '0.07925967', '-0.00069282856', '-0.1496102', '0.32063976', '0.16893958', '0.03541288', '0.11017838']
49, ['-0.009229218', '-0.28460768', '-0.10788158', '0.2634506', '0.41451186', '-0.34797698', '0.10433884', '-0.03256418', '0.29872236', '0.07302276', '-0.07995006', '-0.031176785', '-0.0037431181', '-0.1846323', '0.09713739', '0.117009096', '0.18634224', '0.020289443', '0.06833807', '0.1732913', '-0.082988165', '0.24554674', '0.21782841', '0.13977103', '-0.189384', '0.26253685', '0.07385345', '-0.02191822', '0.1678401', '0.2221687', '0.018336391', '-0.20466235', '-0.11623112', '-0.0018259243', '0.2689157', '0.19031006', '-0.1345116', '-0.35089588', '-0.18402414', '0.11315879', '-0.04167115', '0.39321104', '-0.36366686', '-0.030124877', '-0.32527924', '0.076596744', '-0.071834385', '0.03371567', '-0.07865785', '-0.06423682']
50, ['-0.12355084', '0.20277767', '0.08702689', '0.11645519', '-0.16876449', '0.098408654', '-0.23406866', '0.2716129', '0.005091977', '-0.075641066', '0.030006243', '0.032700516', '0.19883105', '0.40674123', '-0.09075477', '0.036883242', '-0.05717068', '-0.014622479', '-0.2306167', '-0.045622643', '0.038344786', '-0.041814502', '-0.16270627', '-0.29296714', '-0.15238528', '-0.21342228', '0.003034133', '0.10945165', '0.2892547', '-0.002821079', '-0.30450046', '0.13723393', '-0.023090275', '-0.15456323', '-0.118879855', '-0.20034395', '-0.14370242', '-0.11161443', '0.04913085', '0.0020246818', '-0.027432922', '0.12266952', '0.30938062', '-0.07994408', '-0.23191816', '0.34341547', '-0.24490468', '0.32387266', '-0.3927369', '0.11641451']
51, ['0.25807104', '0.29058728', '0.26669574', '0.4044446', '-0.24186021', '-0.24447726', '0.12149057', '-0.11097882', '-0.30627084', '0.32197285', '0.14684546', '-0.05752536', '0.10998809', '0.078365356', '0.11743152', '-0.015810644', '-0.35236964', '0.2833044', '0.2969936', '0.20413654', '-0.2609997', '-0.15874738', '-0.17319974', '-0.19720176', '0.16723037', '-0.07057067', '-0.0009112381', '-0.028754197', '-0.22047976', '-0.062926665', '0.03396108', '-0.04804161', '-0.30748752', '-0.120868355', '-0.16431642', '0.082937896', '-0.110501155', '0.10454555', '-0.064190656', '-0.12875797', '-0.1169726', '0.0308729', '-0.12241989', '-0.041982666', '-0.015842961', '-0.22012872', '0.04486278', '-0.1975098', '0.13449892', '-0.3372599']
52, ['0.15061925', '0.03069159', '-0.43953753', '-0.18081184', '0.11008722', '0.15723827', '0.30385575', '-0.0069796806', '-0.1196438', '-0.43678257', '-0.0817409', '-0.13520998', '-0.23213327', '-0.36600703', '0.28760195', '-0.0760884', '-0.123435035', '-0.06596534', '-0.12035757', '-0.029222444', '0.020598497', '-0.301636', '-0.31425467', '0.12430705', '-0.15955827', '-0.119992286', '-0.26497552', '-0.19116516', '-0.12026075', '0.22061896', '-0.140177', '0.06329917', '0.027932003', '0.13797529', '0.024339544', '-0.026197074', '0.110473655', '0.30409628', '-0.023754295', '-0.07743449', '0.17313968', '0.004210891', '0.21820572', '-0.029422935', '0.16278802', '0.26359728', '0.08083354', '-0.28522658', '0.030811815', '0.027166786']
53, ['0.24726248', '-0.028580744', '-0.029178217', '-0.24587391', '-0.05070446', '0.011629657', '-0.24596447', '-0.1534509', '-0.14112832', '-0.04656252', '-0.39217818', '-0.06093929', '-0.18287934', '-0.04964373', '0.24184494', '-0.16263019', '0.18054333', '-0.13351229', '0.040522166', '0.13252866', '-0.06035709', '-0.018164134', '0.15194342', '0.11445205', '-0.014868905', '-0.080099516', '-0.0020776298', '0.21332516', '-0.19448544', '-0.34351727', '0.23869506', '-0.14754196', '0.105236664', '-0.08749926', '-0.316604', '-0.13041747', '-0.16689281', '-0.031299915', '0.60422707', '-0.083947554', '0.042928867', '0.17173477', '-0.12923546', '0.096672244', '-0.10749145', '-0.09413396', '0.30472466', '0.15398459', '-0.09628925', '0.29476327']
54, ['0.11056014', '0.007162571', '-0.13001087', '-0.1438574', '-0.063026324', '0.3280106', '0.13719557', '0.12666632', '0.09206003', '0.28955138', '0.011305462', '0.12075538', '0.29763263', '-0.014949346', '-0.11847407', '0.10166567', '0.33275384', '0.19849192', '0.015701722', '0.108572744', '0.14749032', '-0.2167212', '0.29366374', '0.11002445', '-0.13097395', '-0.009120498', '0.23274624', '0.17145823', '-0.039507642', '0.23238474', '0.08159035', '-0.24409923', '0.06873427', '0.14202823', '0.09646625', '0.1751064', '0.06326984', '0.2065972', '0.18712893', '-0.27716517', '0.33550116', '0.11664492', '-0.29903066', '-0.07154369', '0.27456734', '0.11367072', '-0.1751955', '0.115085766', '0.17575549', '-0.0011709596']
55, ['-0.19271655', '0.018572625', '0.083220445', '-0.09766802', '-0.010262944', '0.16863526', '-0.027222728', '-0.0072179046', '-0.063036524', '-0.12215009', '0.09723857', '-0.16273083', '-0.008831028', '0.024420997', '-0.30113775', '-0.11044834', '-0.04777993', '-0.115841426', '0.1723246', '-0.031507332', '0.024164349', '0.13956627', '0.017902892', '0.08298743', '0.13629974', '0.31225476', '0.106909424', '0.072599106', '0.12492795', '-0.028497849', '-0.039760847', '0.03585455', '0.12586182', '0.0009549446', '0.05282716', '-0.1677869', '0.2593873', '-0.21225788', '-0.23875809', '0.26179078', '0.010035934', '-0.23337138', '0.12304616', '-0.14683543', '-0.022901569', '-0.32200125', '-0.21112673', '-0.03778155', '0.37942567', '-0.009532042']
56, ['-0.0346603', '-0.21911281', '-0.07161516', '0.27702573', '0.043315325', '0.29413635', '0.24413827', '-0.012815108', '-0.09245418', '-0.06618535', '0.26817396', '-0.061630316', '0.16190828', '0.1355097', '0.07290969', '-0.19335577', '-0.23725867', '-0.095028706', '0.2521776', '0.27100754', '-0.21133521', '-0.25969657', '0.09423208', '0.24860534', '0.09063651', '-0.052674167', '0.039761305', '0.06154837', '-0.10903202', '-0.3119464', '0.15296318', '0.23545709', '0.22224519', '0.054035492', '-0.07085671', '0.034601323', '-0.24568085', '0.10709924', '0.0692788', '0.27889797', '-0.0059435912', '0.4018065', '0.1709592', '-0.40089276', '-0.37581477', '0.05608669', '0.07923715', '0.1650599', '0.060398366', '0.033400882']
57, ['-0.13965721', '0.24982442', '-0.029266458', '-0.31793126', '-0.41901365', '-0.1061677', '-0.22742034', '-0.090097904', '0.06811644', '0.15471818', '0.008143757', '-0.26867133', '-0.015062713', '-0.14971995', '-0.027088', '0.0031758118', '0.2309196', '-0.3363271', '0.09526821', '-0.16975087', '-0.16341332', '0.19464496', '-0.10599341', '0.11873795', '-0.16055144', '0.13447385', '-0.07713365', '0.2471581', '0.0028428168', '0.21297951', '-0.17892118', '-0.0907454', '-0.20894067', '-0.26419687', '0.28210846', '-0.12703398', '-0.19532786', '0.16685897', '0.106487826', '0.056947954', '0.23687445', '0.19430031', '0.29259792', '-0.24583617', '-0.071506314', '-0.10878704', '0.18577027', '0.07266499', '0.08799587', '-0.03880971']
58, ['0.2854668', '0.14688087', '0.05283447', '0.0032736438', '0.30685893', '-0.038523458', '0.24178831', '-0.047696307', '0.043741867', '0.0028124535', '-0.051779732', '-0.06261659', '-0.057827216', '0.40409505', '-0.10980882', '0.02855749', '0.10299729', '-0.18867055', '-0.028990762', '0.040065452', '-0.0071989', '-0.14462477', '-0.24315147', '-0.09149965', '0.14822315', '0.16437128', '0.22278552', '0.069579504', '-0.21327996', '0.024722416', '0.05677898', '-0.19193776', '0.19805728', '-0.1053157', '-0.18666844', '-0.07504718', '0.09374044', '0.14168526', '0.05836053', '0.2887917', '-0.017209096', '-0.06378753', '-0.1281909', '0.35388312', '-0.09530493', '-0.07231317', '0.15300682', '-0.20254591', '-0.19234234', '-0.1495343']
59, ['-0.043663386', '-0.0028461055', '-0.081399225', '0.009096116', '0.18081962', '-0.09033023', '-0.15799303', '-0.089920074', '-0.34294522', '0.09208815', '-0.15356967', '0.14875388', '0.24458174', '-0.029322773', '-0.12996913', '0.027934125', '-0.00699128', '-0.02456631', '-0.13314766', '0.16871047', '0.18235914', '0.047215223', '-0.33399853', '-0.2305521', '-0.115654245', '0.07080395', '0.44226515', '0.016090991', '-0.17913085', '-0.13795914', '-0.09715976', '-0.003700824', '0.31596562', '-0.019119134', '0.21344729', '-0.11428861', '-0.15996009', '-0.14288127', '0.16241395', '-0.28569314', '-0.11721731', '-0.1340637', '0.059363347', '0.17806557', '0.19781198', '-0.23142432', '0.028011635', '0.091359474', '0.17537342', '0.11329919']
60, ['0.094310515', '-0.3528228', '-0.14957626', '-0.30988184', '-0.14502293', '-0.15770404', '0.09125319', '0.07867255', '-0.000341919', '0.112614885', '-0.059182014', '0.016343089', '-0.1050628', '0.035367057', '0.16042991', '0.08388169', '-0.04330817', '0.051729698', '0.03581267', '-0.10515347', '-0.054733314', '0.33376706', '0.32326114', '0.0021770124', '0.16413914', '-0.20832488', '0.07103846', '0.25216395', '0.025855983', '-0.17589371', '0.021019721', '0.43492007', '0.14840995', '-0.27857703', '-0.15700449', '0.011792093', '-0.046858523', '0.17244765', '-0.10199979', '0.022667458', '-0.21327114', '-0.10072872', '0.121938474', '0.4828146', '0.1595109', '-0.07063415', '-0.16044548', '0.059082158', '-0.06251018', '-0.13012375']
61, ['-0.20546247', '-0.1491394', '0.13157792', '0.3973134', '-0.13256747', '0.21331379', '-0.3479232', '-0.076738246', '-0.056291565', '-0.17809525', '-0.21512268', '-0.1619803', '-0.08464389', '-0.2286283', '-0.2834065', '-0.067555', '-0.11686314', '0.12681714', '0.12514263', '-0.19465742', '-0.3130714', '0.0053348043', '-0.068516664', '-0.12496568', '0.028264336', '0.058947258', '0.02417152', '-0.14083774', '-0.0953838', '-0.0134808505', '0.10997765', '-0.030101333', '-0.1638559', '0.036882635', '0.14905816', '-0.25117284', '-0.167449', '-0.06048274', '0.21178342', '0.023214582', '-0.13642806', '-0.27563787', '-0.42333433', '0.30877146', '0.19878273', '0.19947393', '-0.15143833', '0.124911614', '-0.099387035', '0.103035696']
62, ['-0.0447389', '0.17165929', '-0.12785903', '-0.21974216', '-0.21081121', '-0.23097849', '0.3014392', '0.011001854', '0.021626458', '0.08057477', '-0.23078167', '0.2583109', '-0.034081664', '0.058672626', '0.07573853', '-0.36859795', '0.07527977', '0.1899786', '-0.18254519', '0.24315858', '-0.007014823', '-0.05085811', '0.29810876', '-0.017205063', '0.19438316', '0.06151016', '-0.4834249', '0.19538805', '0.23760375', '-0.062065445', '-0.06573541', '-0.16699189', '-0.11857179', '0.21354009', '-0.22860815', '-0.22054866', '0.108613975', '-0.34682265', '-0.16173488', '0.0048073716', '-0.004852818', '-0.3790254', '0.09838261', '-0.23608372', '-0.14323609', '-0.14804138', '-0.0012105855', '-0.05121731', '0.09176805', '0.33023584']
63, ['-0.23518242', '0.10209381', '0.056850646', '0.19689012', '-0.096386276', '-0.028903197', '0.30311295', '0.23586282', '0.14348115', '0.0088382205', '0.22148147', '0.094759986', '0.09614526', '0.13744916', '-0.23445964', '0.12475689', '-0.10503081', '0.23792903', '0.0025335064', '0.04758667', '0.04220568', '0.037448652', '-0.11767895', '-0.11583965', '0.141069', '-0.072711326', '0.043006435', '-0.07704434', '0.03674141', '0.33948213', '-0.22642314', '0.20725152', '0.048484568', '0.22186136', '0.3234795', '0.07807752', '0.059104018', '0.115164585', '-0.5385118', '0.039968293', '0.01841964', '-0.06983185', '0.08704592', '-0.061500125', '0.0682758', '-0.014050815', '-0.27530053', '-0.020744344', '0.06056582', '-0.22117843']
