0, ['0.015288351', '-0.0098803565', '0.007587923', '-0.020127222', '0.0050249184', '0.009903033', '-0.020352641', '0.002670497', '0.023617718', '0.011344896', '-0.0035290124', '0.0024357769', '-0.004957953', '-0.007189143', '0.020364584', '-0.007481781', '-0.038542096', '-0.0004132778', '0.0017022912', '0.0009075895', '0.015751002', '0.0063083298', '-0.0054381867', '0.021250267', '-0.008400404', '0.013052201', '0.0007380421', '0.032752957', '-0.011669222', '0.01270778', '-0.0040454227', '-0.021894412', '0.0038602815', '-0.018415648', '-0.0018096537', '-0.006036814', '-0.007151394', '0.0027077973', '-0.015395413', '0.009828021', '0.0014813473', '0.0049858415', '-0.009618101', '0.0032449302', '0.0019016406', '-0.009011603', '0.011683001', '0.0009957362', '-0.016139612', '-0.0065673203', '0.0041162744', '0.03293154', '0.007141944', '-0.0042068926', '0.0018335446', '-0.0061450726', '-0.0034162975', '-0.004277193', '0.016709395', '0.005182487', '-0.008356869', '-0.004140421', '-0.0135495365', '0.02143643', '-0.00085600634', '-0.03663025', '0.0066857515', '-0.0116157625', '0.0022942978', '0.0054707783', '0.0029198625', '0.0047045625', '-0.004849653', '0.010833336', '0.0066854465', '0.0031328078', '0.0069197505', '-0.0029962405', '0.0023846196', '0.006228812', '0.015203283', '0.0021490543', '0.01119958', '0.0046872715', '0.0067956727', '-0.018767552', '0.0063527045', '-0.0009946275', '-0.00015038403', '-0.005097558', '-0.011798336', '-0.001969228', '0.0022157636', '0.0074409405', '-0.028855996', '0.00856251', '-0.011362662', '-0.0036544108', '-0.0075524715', '-0.004040034', '-0.012098435', '-0.01545989', '-0.0019038355', '0.004079242', '0.015663765', '-0.00049168954', '0.031607307', '-0.0067281863', '-0.032260537', '0.003027481', '0.0037629288', '0.005061832', '0.012190709', '-0.016818581', '-0.023351464', '0.0077873454', '-0.010588458', '0.016189445', '0.012183457', '0.00351574', '-0.0074730194', '0.014530075', '0.0015820239', '-0.018364752', '-0.0267614', '0.005492685', '0.018470898', '0.0013759364', '-0.0016256062', '0.012442472', '0.017354224', '0.00020061868', '0.0034037533', '-0.012568395', '0.0092023155', '6.312219e-05', '-0.0042706537', '-0.0014559161', '-0.0006422711', '-0.006244338', '-0.017341377', '0.022430403', '0.013694453', '-0.020673258', '0.015158335', '-0.014406795', '0.001588579', '-0.0053248005', '0.024253462', '-0.00072671624', '-0.012180494', '-0.006279202', '-0.005411704', '-0.013653159', '-0.0075413026', '0.009248855', '-0.00081739016', '0.022691043', '0.013494016', '0.0017320747', '-0.00031475595', '0.0006513187', '-0.029571675', '-0.018248321', '0.013158625', '0.010486129', '0.019650236', '0.015967613', '0.028339468', '0.016113916', '0.008199366', '-0.018855024', '0.011803971', '-0.01591532', '-0.019549426', '0.0020672195', '0.00028431928', '0.016967889', '-0.00084048946', '-0.0019828586', '-0.015076508', '-0.007620432', '0.0007740729', '0.008536606', '-0.01220277', '-0.011941247', '-0.007651698', '-0.005297171', '0.017288102', '-0.0053926283', '-0.0014866905', '-0.0043058083', '0.0068330267', '0.008337649', '0.026366793', '0.01544027', '0.015181722', '0.008923382', '0.00083708944', '-0.029442998', '-0.0019465667', '-0.014399568', '0.0376567', '-0.006446468', '0.01641502', '-0.0006068153', '0.01807677', '0.045094263', '-0.002948507', '-0.0025084978', '-0.022635749', '0.016988628', '0.0086254785', '0.0050794757', '-0.025010524', '-0.02029659', '0.005057024', '0.01404563', '0.021767214', '-0.004613878', '-0.0050372076', '-0.012209689', '0.008825357', '0.025589269', '0.0016260234', '-0.0007098305', '-0.010912976', '0.012129754', '-0.011832732', '0.009800293', '-0.0009344204', '-0.0061580255', '-0.01570048', '-0.007687112', '-0.0023358816', '0.0013718269', '-0.014205899', '-0.007847714', '-0.012273717', '0.012971044', '-0.019389663', '-0.0022868298', '-0.013491607', '0.04184802', '-0.017784992', '-0.021211598', '-0.0013731272', '0.0029091157', '0.006847574', '-0.01064027', '0.009355366', '0.014869347', '-0.0175395', '0.011886893', '-0.0013434401', '-0.005280297', '0.006427602', '0.014837397', '7.5056756e-05', '-0.0032278802', '-0.023983652', '0.00788207', '-0.0007226467', '0.01985351', '0.0018825475', '-0.017842244', '0.015812475', '-0.019110354', '-0.010631861', '-0.016125895', '-0.0075836335', '0.0041062837', '-0.0049877157', '0.011530974', '0.00087406865', '-0.0008705779', '0.0026291322', '0.026179971', '0.011440276', '0.0046993326', '0.03514775', '-0.003266906', '-0.0054791733', '0.0077808797', '5.3116688e-05', '-0.017659856', '0.014721933', '-0.014456418', '0.004951899', '-0.0020166398', '0.006104962', '0.006445091', '9.0037545e-05', '0.021074044', '-0.017459841', '0.008603213', '-0.004997952', '0.002339793', '-0.003304826', '0.002671066', '-0.020478122', '-0.002327429', '-0.01905991', '0.015141428', '-0.0052839583', '-0.040625043', '0.012063303', '0.015117462', '0.012024996', '0.007721472', '-0.023321232', '0.013727806', '-0.0034502735', '-0.00013748511', '0.005644277', '0.0065656668', '-0.0025250863', '0.009153934', '-0.004775869', '0.03787163', '0.0041218246', '-0.037787296', '0.027156586', '-0.010479727', '-0.013837543', '-0.0021140298', '-0.0015186502', '0.055520445', '-0.018095456', '0.008729353', '-0.014504515', '-0.0020793795', '-0.012522002', '0.037868503', '0.029738331', '0.009067091', '0.003484862', '0.008407246', '-0.012640541', '0.0029922957', '0.0073237303', '-0.0055053197', '0.000914646', '-0.012748204', '-0.0113332225', '-0.0067093116', '0.02512134', '-1.13694305e-05', '-0.025496555', '-0.007496513', '-0.0015335565', '0.0060033957', '0.0028583964', '0.008152905', '-0.020218993', '-0.012556922', '0.004670325', '-0.008231226', '-0.020819768', '0.0020709326', '-0.013601075', '-0.0027993675', '-0.010105474', '-0.009127753', '0.00574021', '0.009134039', '-0.010438862', '-0.0012775364', '0.0014651071', '0.027272364', '-0.0077320896', '0.028427372', '0.013811442', '0.0121637825', '0.00437204', '0.007548465', '1.5125342e-05', '-0.021139149', '0.01557061', '0.014747977', '0.009948596', '-0.009922224', '0.0039006385', '0.0033253399', '0.0047229296', '-0.0133402515', '0.0026990066', '0.0066112764', '-7.55778e-05', '-0.0069068507', '-0.005115877', '0.012327506', '-0.018970292', '0.0039266446', '0.01147368', '0.0033822937', '0.010414353', '0.0015800539', '0.009703643', '-0.0060538454', '0.009896032', '-0.0032957206', '-0.016388152', '-0.010986965', '-0.0020330667', '-0.011916147', '-0.01331189', '0.0055685537', '0.0025040188', '0.009971703', '-0.033112306', '-0.016809369', '-0.014620512', '0.012744904', '0.013670291', '0.0066077076', '-0.0005396197', '-0.009222084', '0.0064629656', '-0.017759707', '0.006008119', '-0.009523025', '0.004542366', '0.017256694', '-0.020304712', '-0.006294568', '0.01351002', '0.010564624', '0.005342624', '0.020379482', '-0.010428506', '-0.0040562856', '0.004397625', '-0.0028526576', '-0.011544652', '-0.00984619', '-0.0054879137', '0.0071699466', '-0.006878526', '0.0056200135', '-0.013447641', '-0.0065554543', '0.007784253', '0.0014918864', '-0.004886667', '0.0063309665', '0.017075706', '-0.019560121', '-0.0009275101', '0.012205682', '0.005538037', '-0.0079124775', '-0.008729739', '0.011571168', '-0.015510488', '-0.0005940396', '0.020598995', '-0.009071691', '0.0010231776', '0.0059521473', '-0.010004026', '0.015371074', '0.003676128', '-0.0054940903', '0.008763167', '0.0043932665', '-0.03344052', '0.007726755', '0.0051978957', '-0.003859404', '-0.017205955', '-0.027378798', '-0.013686259', '-0.0021768524', '0.036167145', '0.011664209', '-0.013636389', '0.002035217', '-0.023629956', '0.012816754', '0.013100219', '-0.013664272', '-0.004073058', '-0.008302441', '0.032501075', '-0.028287638', '0.0007543518', '0.007390897', '-0.018750113', '0.0003548084', '-0.014542514', '-0.014162782', '-0.00681525', '-0.016162356', '0.017607855', '-0.018630985', '0.0016591187', '0.002100254', '0.013671126', '0.023492223', '0.019809121', '-0.028724104', '-0.025296068', '-0.004640253', '0.010450273', '0.0063011227', '0.0014351385', '0.0076628425', '-0.018317655', '-0.03277989', '0.025127083', '-0.00614642', '-0.006916248', '-0.010282486', '0.023922028', '0.00343081', '0.01631711', '-0.0019425359', '-0.0075485716', '0.015524616', '-0.019656997', '-0.010262672', '-0.008824505', '-0.022035748', '-0.015115773', '0.004432031', '0.0076906555', '0.019732814', '-0.009956009', '0.007301597', '-0.022055103', '0.0041907', '-0.016076257', '0.002859122', '-0.018837243', '0.00943121', '0.0015985848', '-0.013128974', '-0.005383182', '-0.008673529', '0.006982665', '-0.011301459', '-0.018061237', '0.005888362', '-0.0001938765', '-0.020991145', '-0.00036298946', '0.005955557', '0.00015542239', '0.029131155', '-0.010217431', '-0.020639692', '0.011731369', '-0.00010829341', '-0.0013190559', '-0.028421352', '-0.03205161', '0.0044178073', '-0.030825341', '-0.0075819353', '-0.003555415', '0.024369985', '-0.0053991647', '-0.009769871', '0.010601954', '-0.00852047', '-0.0002005056', '0.021865226', '-0.006275186', '-0.0039353957', '-0.010330697', '-0.0012252663', '-0.0022458087', '-0.016963417', '-0.00019592479', '0.011587554', '0.0181249', '0.017771564', '-0.0007017209', '-0.010452325', '-0.0031751827', '-0.010458782', '0.0029395928', '-0.023925513', '0.028484557', '0.012891371', '0.013741321', '0.01314422', '8.2448976e-05', '-0.013383091', '0.010765166', '-0.012011883', '-0.007853482', '0.0036309569', '0.010640839', '-0.018724784', '0.0076771216', '-0.030029435', '0.018554661', '-0.0011234349', '0.018575104', '-0.008167364', '0.0073052933', '-0.0034855732', '-0.018108597', '-0.0037832982', '0.03372797', '0.018893031', '-0.02410457', '-0.01596425', '0.015595359', '-0.009103468', '0.016788121', '0.015202892', '-0.028608084', '0.013842804', '-0.005109473', '-0.02312561', '0.005479158', '0.015232844', '-0.013019196', '-0.01296985', '-0.012024491', '-0.00048388075', '0.005561976', '0.02662752', '0.031382177', '0.015927153', '-0.0067729875', '0.007000072', '-0.004692349', '-0.012700706', '0.013237', '0.005955578', '0.02052252', '0.024018', '0.003947009', '-0.026470123', '0.0013734397', '0.0036536565', '-0.006439491', '0.0023124598', '0.014523276', '-0.003177354', '0.018040791', '0.028387379', '-0.0012145728', '0.00066209625', '-0.00041799626', '0.01691782', '-0.025614332', '0.004722845', '0.00015421244', '0.010146954', '0.010854608', '-0.003741748', '-0.0054527214', '-0.0022729298', '0.0040902128', '-0.010315496', '-0.003917164', '0.006258196', '0.0075240964', '0.00029608485', '-0.0026123154', '0.009177906', '0.005279997', '-0.0074446523', '-0.0032868767', '0.011787985', '0.009455087', '0.01455747', '-0.044796105', '0.0099152075', '-0.0016925121', '0.0041388357', '-0.017076619', '-0.00709961', '-0.0018443902', '0.005058215', '-0.007897737', '0.017183406', '-0.0147008905', '0.0056040487', '-0.011388696', '0.009042011', '0.0029401304', '-0.0020110956', '-0.016448602', '-0.022059182', '0.0038489539', '0.0041863774', '0.016324753', '-0.0063827373', '0.019194549', '-0.009511327', '-0.031866346', '-0.009226508', '0.0165556', '-0.003016657', '2.0507317e-05', '-0.002813103', '-0.008199422', '0.010853726', '0.016831294', '0.018650275', '0.0036089655', '-0.00068763556', '0.017183596', '0.0033947749', '-0.013690902', '-0.036540702', '-0.008933517', '-0.025667768', '-0.007072706', '-0.009633006', '-0.0055937185', '0.0012753982', '-0.008259615', '0.026838604', '-0.021209434', '0.01829207', '-0.0046312762', '-0.027295481', '0.0034620527', '-0.0088901725', '-0.0148820765', '0.012990481', '0.005926555', '0.0037074417', '0.010112003', '-0.022736585', '0.003642996', '-0.00892116', '-0.004095899', '-0.0070654484', '0.02510551', '-0.01972859', '0.010965399', '0.008250995', '0.009074823', '-0.0041571306', '0.008382679', '-0.009673393', '-0.004306586', '0.007801589', '-0.008512804', '-0.0021035613', '-0.014740964', '-0.0029614274', '0.0043006376', '0.004007917', '-0.0069715586', '0.0034314685', '0.006061569', '-0.0045143603', '-0.011507615', '0.017871974', '-0.034882233', '-0.0056909225', '0.004292957', '-0.0035674155', '-0.007041132', '0.0039905896', '0.029892351', '-0.012278627', '0.022993235', '0.0049077496']
1, ['0.026842989', '-0.0009745142', '0.0074132415', '-0.03187438', '0.006980742', '0.010074415', '-0.02082248', '-0.0079336325', '0.008777292', '0.011884541', '-0.0004250331', '-0.0013909346', '0.0014935553', '-0.013255377', '0.015260277', '-0.009024766', '-0.02388918', '0.00014586883', '-0.003194877', '0.0023250799', '0.0017954034', '0.00048951566', '-0.0087325685', '0.00943765', '0.0051895473', '-0.006201161', '-0.0015298565', '-0.00990107', '0.016117798', '-0.019504288', '0.054432433', '0.0026849557', '-0.018608585', '0.0039017356', '-0.00046300396', '-0.013446849', '-0.00707956', '0.005573203', '0.024956439', '-0.001709574', '0.0067360387', '0.0010435304', '-0.011293783', '0.0021764908', '-0.009607685', '-0.017682873', '0.007209253', '-0.03310382', '0.00026929643', '-0.010039738', '0.006592342', '0.00550435', '0.012678072', '-0.00011451116', '-0.0090991035', '0.001828195', '-0.0012934254', '0.0038038252', '-0.025397627', '0.002254751', '0.007992138', '-0.018662304', '-0.01777822', '0.021827692', '-0.0013751709', '-0.038327504', '-0.0024237928', '-0.022117423', '0.0007098625', '0.012153627', '0.004191164', '-0.013748388', '0.0042903097', '-0.009204186', '-0.009911963', '-0.008274693', '0.0015084269', '-0.0042294078', '-0.0073026493', '-0.00062442623', '0.010504931', '0.011589011', '0.0114422375', '-0.0062276926', '-0.021131184', '-0.01627884', '0.0063125966', '-0.0014707259', '-0.003181291', '-0.013494888', '-0.008891148', '-0.0151488315', '-0.007237377', '-0.0030441463', '-0.021073842', '0.0047898027', '-0.010061347', '-0.0051277922', '0.011677454', '-0.010788266', '0.009113735', '0.0011512411', '-0.0036370433', '0.012374775', '-0.004645822', '0.020166952', '0.01107895', '-0.00710426', '0.020087691', '0.013138123', '0.0018316347', '0.009358463', '0.019709395', '-0.014126705', '-0.008169016', '-0.004301818', '1.2889345e-05', '0.0029499533', '0.024091605', '0.0017657919', '0.0034750458', '-0.0023747506', '0.010112364', '0.007193679', '-0.0044290186', '0.0069187027', '-0.020569514', '0.016402856', '-0.013782767', '0.0019189387', '-0.01161544', '-0.0028470932', '-0.008685492', '-0.02308355', '0.02025216', '-0.025932055', '-0.008884663', '-0.005122375', '-0.0013105448', '0.00071060605', '-0.011416496', '0.01811227', '0.01702671', '-0.0141052', '-0.0005561895', '-0.008677327', '0.0011420773', '-0.0040892656', '0.011866956', '-0.0018375199', '0.016917184', '-0.01475368', '-0.015361386', '-0.0065845945', '-0.009045925', '0.02737685', '-0.011100597', '0.00328829', '-0.021667086', '-0.024257798', '-0.0029099658', '0.02066691', '0.014144344', '-9.71698e-05', '0.038131367', '0.0109727', '-0.006129474', '0.0122387', '-0.00040889805', '0.011018268', '0.010433682', '0.009641634', '0.004170056', '0.0023875143', '-0.017721104', '-0.0026866354', '-0.0013497543', '-0.014429131', '-0.0008692045', '-0.0233357', '-0.013302624', '0.001928216', '-0.017416677', '0.0071818423', '-0.008770814', '-0.0035743457', '0.0299772', '-0.009721321', '0.012360627', '0.009835753', '0.0022934622', '-0.025859764', '0.0055749123', '-0.0037461238', '-0.006316544', '0.0100592', '0.0057386593', '0.00938619', '0.011255918', '-0.023960643', '-0.0019979165', '-0.005072153', '0.01412858', '0.0024695382', '0.020967139', '-0.0076307333', '0.0135182375', '-0.012542496', '-0.027538024', '-0.0045744837', '-0.0046909284', '0.0068318467', '-0.005399849', '0.0011254132', '0.0032849566', '-0.011753663', '0.0025769675', '-0.0019316978', '0.001985146', '-0.04062791', '-0.011308068', '0.020687237', '0.0042061745', '0.0015622937', '0.009922228', '-0.006741803', '-0.007676685', '0.00409736', '-0.0022672636', '0.013331034', '-0.0072170477', '-0.017169483', '-0.014592058', '-0.0030867849', '0.0039054123', '-0.011265932', '0.0021716328', '-0.020596506', '-0.00370237', '0.001147828', '-0.019045856', '0.01363261', '-0.0004974199', '0.007999674', '-0.009368245', '-0.016723806', '0.015036139', '0.009992397', '-0.00044077277', '-0.014683934', '0.015879726', '0.01414157', '-0.008188093', '-0.00067447365', '0.010892915', '-0.004441209', '0.005252446', '0.01869174', '0.007910506', '-0.0028047424', '-0.017989997', '-0.0011096541', '-0.012784478', '-0.001166205', '-0.011309104', '-0.0084672505', '0.015401865', '-0.0043891235', '-0.005379586', '-0.005753072', '-0.003913489', '0.0047993413', '-0.010956946', '0.0060285563', '-0.009906135', '-0.0041902903', '0.0029993078', '0.0082886', '-0.014384186', '0.0076664924', '0.00413406', '-0.002504566', '-0.0101855835', '-0.013663468', '0.01002159', '0.005878768', '-0.015085171', '-0.004920282', '-0.00796519', '-0.0016790146', '-0.009240756', '-0.0008583287', '-0.012226633', '0.011009346', '-0.007926086', '0.0029855587', '-0.013550617', '0.010045247', '-0.006886929', '-0.0035589382', '-0.016949281', '0.011235573', '-0.015163224', '0.0031529304', '-0.012079609', '-0.014480044', '-0.0013786377', '-0.011045161', '0.011322403', '0.0010409992', '-0.012892154', '0.011665687', '0.0027058693', '0.013495092', '0.0055770786', '0.010832168', '0.0047320253', '0.0005580232', '-0.029991368', '0.020858057', '0.006999787', '-0.029646363', '0.005440739', '-0.0010964995', '-0.017709127', '-0.02106817', '-0.015110725', '0.017524306', '-0.0020458694', '-0.0023794684', '0.009598865', '0.006168864', '-0.005367644', '-0.0046646055', '-0.010534501', '-0.027584374', '-0.020648155', '-0.009209113', '0.013298491', '0.0032933718', '-0.0007499308', '0.01367083', '0.0041046627', '0.007765101', '-0.017672975', '0.016352354', '0.028714355', '0.016407007', '-0.011960771', '-0.0091295', '0.014776671', '-0.0034760507', '0.039560083', '-0.0011033214', '-0.0010353754', '-0.013054779', '0.00039593424', '0.02820395', '0.016687186', '-0.024429774', '-0.020732556', '-0.0068750046', '-0.015892154', '-0.0075828168', '-0.01948778', '0.004403559', '-0.0070499848', '-0.013122868', '0.011736947', '0.009289345', '0.0058857976', '-0.012967889', '-0.006585769', '0.012698387', '0.0060020187', '0.003520728', '0.00088324025', '-0.016616097', '0.007443034', '0.0041219923', '-0.0030506963', '-0.008818232', '-0.0025696738', '0.008635657', '0.0059793973', '-0.0012046536', '-0.0016408946', '0.023571141', '-0.0077319695', '-0.009265564', '-0.0019180721', '0.02852918', '0.010420468', '-0.0074787545', '0.0039344244', '0.0012199599', '-0.00032903499', '0.006730654', '-0.002354666', '-0.03545609', '0.020549072', '0.0007780655', '-0.0031569777', '-0.016672062', '0.0046674735', '-0.005506461', '-0.010448726', '0.014833699', '-0.0036118545', '-0.0082556', '0.0044717346', '-0.0009196272', '-0.0050359713', '0.0008435613', '0.014714999', '0.0013877385', '0.012837252', '5.961508e-05', '0.0038984353', '-0.0021200518', '0.0073902365', '-0.012115605', '-0.0027107703', '0.005040679', '0.0039929966', '-0.0015666067', '0.031728026', '0.011518892', '0.013963608', '-0.0045522805', '-0.010403236', '5.5022025e-05', '0.0057365736', '-0.012515331', '-0.0060791704', '-0.016850425', '0.0061013256', '0.0063228444', '0.015954219', '0.0014721912', '-0.022878334', '0.005606492', '0.009240632', '0.009740422', '8.301026e-05', '-0.015181854', '0.016281884', '-0.020228507', '0.024842814', '0.015795918', '0.0028630178', '0.0001062827', '-0.017840061', '0.020302545', '-0.019809905', '-0.0004220188', '0.016940968', '-0.020902425', '-0.00050502043', '0.0035305736', '-0.009148801', '0.016188312', '-0.015624027', '-0.001681455', '-0.0019319674', '-0.0055221133', '-0.009839499', '-0.00028644712', '0.0019666268', '-0.005353968', '0.0042933975', '-0.0059156474', '0.005424931', '0.020925447', '0.023189576', '0.020287292', '0.0007930615', '0.015350849', '0.010457465', '0.011136389', '0.013445735', '-0.014298375', '0.01530704', '-0.009807949', '0.005955982', '-0.00088806485', '0.011570989', '0.004194535', '-0.017658934', '-0.006312766', '-0.023064937', '-0.0023571055', '-0.03469142', '-0.028702699', '0.01848502', '-0.005837116', '0.0016184992', '-0.0015828796', '0.0038792654', '0.009835835', '0.021575317', '-0.0024803514', '-0.009709179', '-0.0070342417', '0.018131642', '0.0025305832', '0.008129133', '-0.009547792', '-0.016396692', '0.018378317', '-0.0002034224', '-0.0006897062', '-0.014788596', '-0.011526057', '0.019252013', '-0.001450188', '0.010729655', '-0.015305278', '0.00022542951', '0.021277057', '0.0066213277', '-0.003620464', '0.015374882', '-0.020317027', '0.008668807', '0.001462162', '0.0056785503', '0.019551855', '-0.0096562365', '0.01693066', '0.010778149', '0.002666665', '-0.044405825', '0.011889588', '-0.017473698', '-0.005134626', '0.011239354', '-0.01772061', '-0.0047690463', '0.00489442', '0.0030780751', '-0.005270856', '-0.006962201', '0.010196878', '-0.008076855', '-0.009575965', '-0.0035242154', '0.011828706', '-0.0053583505', '-0.0036211598', '-0.027193295', '-0.013606029', '0.010910323', '-0.017738944', '0.0026140863', '-0.020862592', '-0.0034030504', '-0.00052934495', '-0.00501704', '-0.0052480325', '0.010284056', '0.017866317', '0.008693841', '-0.004332568', '0.010931818', '-0.0061351387', '-0.009172382', '0.01195019', '-0.012749827', '-0.0028802832', '-0.026768206', '-0.0074510076', '-0.01099461', '0.007588539', '0.018058853', '0.009855621', '0.012359847', '-0.005078654', '-0.018837275', '-0.0055612694', '-0.009894448', '0.005559046', '-0.008425328', '-0.02232238', '0.00096249906', '0.032129563', '-0.0072958223', '-0.011178204', '-0.009722289', '-0.0065866597', '-0.0005614901', '0.0063910903', '0.0018483626', '0.013843543', '-0.015783254', '-0.009218527', '0.017802728', '-0.0022267678', '0.0073135914', '0.010730366', '0.010137623', '-0.0009156122', '-0.0058770385', '0.007178003', '-0.0053820712', '0.0036785582', '0.018900556', '0.034449924', '-0.02254306', '-0.014123709', '0.010196919', '0.001781407', '0.013855183', '0.00931739', '0.01671225', '0.004993707', '-0.015625676', '-0.01002562', '0.02355781', '0.016162626', '-0.016871627', '-0.018298248', '0.005209884', '0.0020390942', '-0.008191214', '-0.011759648', '0.0073620877', '0.018547265', '0.00041720067', '-0.02094175', '0.0219135', '-0.005061074', '0.005878092', '-0.001397318', '0.011773293', '0.019921882', '0.0051848893', '0.0035135555', '0.026852753', '-0.022931838', '-0.004767597', '-0.0104752425', '0.013567236', '0.004791108', '0.038263097', '0.016673861', '0.0077301967', '0.010324818', '0.02268078', '0.013267313', '-0.024351746', '-0.014069023', '-0.0033702927', '0.0043408126', '0.0043882104', '-0.009230802', '0.0151058575', '0.006512446', '-0.0008329798', '-0.00092207926', '-0.022301883', '-0.0037209834', '0.0070784916', '0.03127483', '-0.008604318', '0.001435873', '0.011001838', '-0.0048676594', '-0.004136422', '-0.0042541423', '0.0072482303', '0.012121799', '0.014060959', '0.0062254514', '-0.003178494', '0.009779538', '0.0058707274', '0.013779451', '-0.001607388', '0.0061329976', '0.005840217', '-0.0013800218', '-0.009489456', '-0.00725173', '-0.011546022', '0.011900649', '-0.014559575', '-0.018966949', '-0.0146202305', '0.00986951', '-0.015774032', '-0.010755578', '-0.009507', '-0.014514956', '0.037289843', '0.0077733546', '0.007614671', '-0.0029507198', '0.0016039412', '-0.007034721', '-0.010536455', '-0.012061351', '0.0058107064', '0.009018062', '-0.014013474', '-0.0104170125', '-0.00424479', '0.0053428663', '0.015596761', '0.0048187957', '-0.0036095341', '0.000711645', '0.0003008878', '-0.014366002', '0.012159712', '-0.010952822', '-0.007685972', '-0.016603107', '-0.010449594', '-0.023956884', '-0.013365347', '0.015093666', '0.022867212', '0.022424318', '0.004438015', '0.008382627', '-0.01262582', '0.016931249', '0.009456518', '0.017880492', '-0.011752167', '0.0019559478', '-0.006716152', '0.0014193663', '0.018937487', '-0.0059377863', '0.007954591', '0.01687712', '0.008203354', '0.0064300355', '0.012654647', '-0.018252041', '0.017328253', '0.03334199', '0.0009863181', '0.007013703', '-0.0013178402', '-0.008625704', '-0.0066282563', '-0.0033981341', '-0.022588938', '-0.00043763965', '0.022078421', '-0.007802262', '0.03605727', '-0.005894574', '-0.018512925', '0.03914304', '0.012940302', '-0.009874411', '0.01718569', '-0.007280168', '-0.008028505', '0.011216407', '0.006194939', '-0.0127668455', '0.039841805', '-0.011329191']
2, ['0.0040198183', '0.005609038', '0.010826772', '-0.028059484', '0.030419715', '-0.001993293', '-0.021767935', '-0.0028420363', '0.02243488', '-0.0075859595', '0.009092101', '0.010166028', '-0.0008351467', '0.013836392', '0.011446277', '-0.011984943', '-0.019014599', '0.017454151', '0.009407014', '0.0068412526', '-0.0021852043', '1.3928533e-06', '-0.002105597', '0.019901859', '0.008107425', '0.003123003', '-0.0032199833', '-0.006178177', '0.018161021', '0.0011729308', '0.012839764', '-0.008596361', '0.0027723364', '-0.006705169', '-0.0042489087', '-0.008587929', '-0.00709974', '0.0356639', '0.010347877', '0.009132076', '-0.0005462521', '-0.011377174', '0.012836203', '0.008582123', '-0.003881239', '0.007094979', '-0.005325626', '-0.0021234476', '0.006733927', '-0.012701078', '-0.014829626', '0.029898742', '-0.002818882', '0.0014677028', '-0.019363225', '0.0018366999', '-0.00021696188', '-0.0064723003', '0.0032358349', '0.011325678', '0.010636876', '0.009765328', '-0.035532657', '0.010260399', '0.003870499', '-0.022899246', '0.00075950875', '-0.013539344', '0.0033056678', '0.025928928', '-0.009094118', '-0.01169519', '-0.0057839146', '0.014592097', '0.01064003', '-0.0131926825', '-0.0015563914', '-0.0014901973', '-0.0024721557', '-0.0028053776', '-0.0025002372', '-0.0061902795', '0.011457754', '0.012803283', '-0.000588496', '-0.020690704', '0.0022391356', '0.004656819', '-0.00752314', '-0.0029908612', '-0.023421666', '0.0011276026', '0.010885263', '-0.0101861665', '-0.010905855', '-0.0033139603', '-0.007297553', '-0.0023399596', '-0.00385989', '-0.0037430008', '0.017402966', '-0.011874097', '-0.008432097', '-0.0061279717', '0.0071632955', '-0.019807093', '0.0064189006', '-0.005312841', '-0.025720812', '-0.0045377836', '0.0054362547', '0.019131538', '-0.0020890895', '0.010081574', '-0.014852391', '0.0010826448', '-0.005328215', '0.010876079', '-0.002171667', '0.014645013', '-0.002297037', '0.0044032503', '0.013357472', '-0.008157382', '0.011892228', '-0.007574484', '0.010684135', '0.014160833', '-0.005256235', '-0.008082928', '-0.0037340245', '0.002707519', '-0.0033145566', '-0.008370813', '-0.01174829', '-0.009393422', '-0.01881174', '-0.009244423', '-0.011439861', '0.0028125227', '0.03304929', '0.021751542', '0.017112475', '0.025604598', '0.00065553095', '-0.020485964', '-0.0031166936', '-0.023171809', '0.016400756', '0.009661046', '-0.007702859', '-0.00824686', '-0.0077966684', '0.001505215', '-0.019497434', '0.0060592415', '-0.004534512', '-0.006095253', '0.028661132', '-0.015041871', '-0.003539319', '0.0077414587', '-0.011727273', '-0.018070597', '0.009577204', '0.0043946705', '-0.0023225446', '0.014594445', '0.03568028', '0.016491914', '0.004171706', '0.002353651', '-0.0025526476', '-0.014650972', '-0.023700103', '0.01600825', '-0.0024644204', '0.0026621332', '-0.020571733', '0.0011878015', '-0.0037819971', '-0.0043010507', '-0.023027426', '0.018647548', '0.007425836', '-0.0052925856', '0.008548686', '-0.0039051354', '-0.0042932755', '0.008604333', '-0.0025062738', '-0.0118344845', '0.013401402', '-0.01783167', '0.013755791', '-0.001315588', '-0.0040346775', '-0.011568588', '0.0012594297', '-0.009567425', '-0.016815586', '0.007528234', '0.0136150215', '0.00840448', '-0.0023430935', '0.022012886', '-0.01661335', '0.019513637', '-0.028096454', '-0.0068822084', '0.023199188', '0.006866771', '0.0038160356', '0.0062650684', '0.0119186', '0.002792855', '0.008507934', '0.015378205', '0.001488692', '0.004628218', '-0.032754112', '-0.0065172003', '-0.0059525496', '-0.0007414179', '0.010401864', '-0.010443138', '-0.036079887', '-0.032267455', '0.003310117', '0.021395136', '-0.012264373', '-0.0049296576', '-0.012997202', '0.005072538', '0.024267374', '-0.031464487', '-0.000647948', '-0.013507426', '0.0061785313', '0.009694301', '-0.0077338144', '-0.0038835492', '-0.002038056', '-0.009751004', '-0.02970372', '-0.009529886', '-0.016057042', '0.013173631', '-0.010509263', '-0.012740698', '0.022866782', '0.013785241', '0.0022357425', '-0.002044827', '0.001370346', '-0.011010103', '0.00061641296', '0.024379237', '0.00058774604', '0.012848069', '0.0053142924', '-0.002076636', '0.01945117', '0.015148917', '-0.021824954', '-0.013272106', '0.021520052', '-0.020957561', '-0.029150525', '-0.018917546', '-0.005115663', '0.004513606', '-0.017767552', '0.011630774', '-0.010550455', '-0.008364308', '0.004808219', '0.027669858', '0.011861731', '0.019621037', '0.020336162', '-0.000159447', '0.0041116653', '0.0015894062', '0.0065173134', '0.0059036287', '0.0181597', '-0.004121504', '0.0014585438', '0.0028375473', '-0.0066922572', '-0.0025741623', '-0.0029340247', '-0.0130775515', '-0.0095967455', '-0.01671435', '0.03295057', '-0.006457158', '0.013413317', '-0.011973982', '-0.013261228', '0.0076868646', '-0.0069882935', '-0.026937112', '-0.0018057909', '0.002277345', '0.026262932', '0.029006593', '0.01656665', '-0.013715302', '-0.016147897', '0.009625165', '-0.0016048733', '-0.0012433348', '0.0051864455', '-0.009155269', '-0.0124088', '-0.009051213', '-0.0033960445', '0.0029442918', '0.0070105135', '-0.02748568', '0.023902832', '-0.012008591', '0.008251688', '0.0021067106', '0.0027613512', '0.029679123', '-0.018286306', '-0.015138021', '-0.0021648481', '-0.014349196', '0.008017493', '0.03104721', '0.00023716569', '-0.014110538', '-0.00072188984', '-0.012124762', '0.0012396174', '0.0051983795', '-0.010107525', '-0.01119666', '0.0027270068', '0.0053082793', '-0.008369316', '-0.026307687', '0.0077298586', '0.013313125', '-0.019692304', '0.004515304', '0.00052345055', '0.0048658093', '0.018353283', '-0.0033203722', '-0.022026516', '-0.006340687', '-0.0065306644', '-0.009546272', '-0.0129145775', '0.00024090355', '-0.0073447586', '-0.0047552777', '-0.008688172', '-0.011447845', '0.0016396005', '0.009411721', '0.012323555', '-0.0066793202', '-0.028826272', '0.019377515', '0.0072879116', '0.01919778', '0.0065955445', '0.01667675', '0.005449175', '0.008288894', '-0.0014825211', '-0.017030952', '0.021413658', '0.0011686798', '0.014383916', '-0.0023744043', '-0.00015391744', '0.0074371304', '0.013485589', '-0.00072354294', '-0.0053895037', '0.0033644377', '-0.0059132534', '-0.010884368', '-0.0015789617', '8.3286126e-05', '-0.0026063705', '-0.001228603', '0.015346525', '0.032607045', '0.013344082', '-0.005378301', '-0.0030118385', '-0.025566611', '-0.00934982', '-0.002620643', '-0.008687276', '0.0042324318', '0.02471733', '0.0115686795', '0.009544074', '-0.027945755', '9.561772e-05', '0.0023374027', '-0.031308323', '-0.013064252', '0.00905389', '0.004203051', '0.006267665', '-0.0093782805', '0.009051137', '0.0009621049', '0.011098003', '0.0034907153', '0.010654589', '-0.0053517744', '-0.013892013', '0.006408876', '-0.027626187', '0.0321908', '2.8032242e-05', '0.023954004', '0.0030635498', '0.010611721', '-0.010439244', '-0.006132439', '-0.010269981', '-0.0062452974', '-0.023128856', '0.0036816262', '-0.008026191', '-0.0029969013', '0.002111948', '0.00080099615', '-0.0045012673', '-0.021949997', '0.0082917465', '0.033695936', '0.006330014', '0.017625593', '-0.005180147', '-0.024365393', '0.015737498', '0.004970847', '0.0038924424', '-0.0036445418', '-0.008241614', '0.020136312', '-0.008249571', '-0.0076454035', '0.016778149', '0.004180797', '0.0031269295', '-0.0010540116', '-0.0007291789', '0.00804354', '-0.017552681', '0.004900264', '-0.014613367', '-0.0030614098', '-0.0007040224', '0.012020135', '0.0058620134', '-0.008950999', '0.0006386039', '-0.008293737', '-0.0035907705', '-0.0031322895', '-0.002536489', '-0.0040313406', '0.02198788', '-0.0074162814', '-0.029201457', '0.011920652', '0.016053256', '-0.017820641', '-0.021183755', '0.0081598805', '0.00819492', '-0.0034813501', '0.014548954', '-0.013145581', '-0.005057107', '0.013553549', '-0.011397838', '-0.00677991', '0.02473576', '-0.030834395', '-0.01263816', '-0.028201127', '0.0017205637', '-0.0014959063', '-0.016644929', '0.025363054', '0.025641026', '-0.027436702', '-0.010033812', '-0.0043710005', '0.02525516', '-0.015120334', '0.010716152', '-0.010005843', '-0.021003209', '-0.014642963', '0.037264578', '-0.010371257', '-0.01681434', '0.017266903', '0.031829946', '0.0021774182', '-0.012140955', '-0.011406514', '-0.014233622', '-0.00044227132', '-0.029913', '0.0030129913', '-0.00049898284', '-0.043209933', '0.0023411636', '-0.0009387019', '0.012333577', '0.021686947', '-0.018227737', '-0.022292294', '-0.033322543', '-0.010978927', '0.0021979283', '0.0041257585', '-0.019973822', '-0.0022424487', '-0.0007785148', '-0.016931353', '-0.003002763', '-0.0014180827', '0.0032550248', '-0.023383189', '-0.034200482', '0.0043462757', '0.019072304', '-0.0050919405', '-0.009893872', '-0.009244698', '-0.011034441', '0.012254663', '-0.023884386', '-0.026515402', '-0.0064951344', '0.008995586', '-0.0015113852', '-0.018558007', '0.016748428', '-0.0041837874', '-0.015255023', '-0.005138824', '-0.0118408725', '0.014211309', '0.009010213', '-0.015466041', '-0.025068447', '-0.008778305', '0.00017670411', '-0.00605211', '0.00585101', '0.007575329', '0.0022378017', '-0.002570107', '-0.004419726', '-0.031298693', '0.00327776', '0.012564205', '0.022469077', '1.6830143e-05', '-0.009627309', '0.007868147', '0.009734921', '0.02297391', '0.002992314', '0.0071401447', '0.008290498', '-0.0055338', '0.00666144', '0.0027732544', '0.006149424', '-0.0040652854', '0.0032490043', '0.008023729', '0.014935672', '-0.0056513697', '0.013778651', '-0.017490255', '-0.0023186237', '-0.01781723', '0.019645277', '-0.008207193', '0.024655439', '-0.0068319454', '-0.008792699', '0.008424371', '0.00036309342', '-0.007209424', '0.025196727', '0.008603726', '-0.024818487', '-0.0043676044', '0.03040698', '-0.0010936402', '0.010557497', '0.012063475', '0.010950667', '-0.007321583', '-0.014604911', '-0.021535333', '-0.0026641025', '0.008444516', '0.015012275', '0.0224177', '0.007960822', '-0.0005839063', '-0.0015507563', '0.024250383', '0.011206322', '0.018337097', '-0.0027922338', '-0.0066013085', '0.0029387192', '-0.0077515678', '0.024318654', '0.007731053', '-0.006645394', '0.01941804', '0.030443132', '-0.0056281183', '-0.0036351841', '0.008423342', '-0.014366265', '-0.014734338', '-0.003019787', '0.004691061', '0.032653376', '0.020253355', '0.007569541', '-0.0050882543', '0.009535736', '0.01279855', '-0.011681358', '-0.006164627', '0.0026423787', '0.009977272', '-0.0024425103', '-0.0046436107', '0.015188464', '-0.0035455632', '-0.033691317', '0.0055464655', '-0.00071571587', '-0.017619891', '0.0015439795', '-0.0072060074', '0.014666369', '-0.00845742', '-0.0022059218', '0.004883856', '-0.0052365055', '-0.013065296', '0.008283214', '0.017682834', '-0.0034263108', '-0.004451169', '-0.0033769424', '-0.0005024654', '-0.0073714983', '0.0026196134', '0.007948819', '0.007338321', '-0.0024527537', '0.011055144', '-0.0005985403', '-0.012883709', '-0.014765608', '-0.004010177', '-0.0091395', '0.013692316', '-0.008971766', '-0.0145262005', '0.007582575', '-0.012174323', '-0.0008347831', '-0.015147333', '0.018976174', '-0.01632214', '-0.008971434', '0.0063469363', '0.0017943374', '-0.0022780786', '-0.009554587', '-0.018307699', '-0.017182216', '0.01027593', '-0.014079351', '0.032656297', '0.0006681252', '-0.009788172', '-0.0024320194', '0.0225118', '-0.0098647075', '-0.004931257', '-0.008901929', '0.004095985', '0.018316427', '0.0022103835', '0.009242078', '0.00399596', '-0.0056780404', '0.007944556', '-0.016345413', '0.018210545', '-0.00073618157', '0.0058658775', '0.004687016', '0.017453054', '-0.007070722', '0.0039782375', '0.012232276', '0.013932716', '0.019291993', '-0.01639147', '-0.008314405', '-0.0049453825', '0.006688553', '-0.018696543', '0.031393092', '-0.024982397', '0.021711782', '0.005692686', '0.0047697877', '0.016002422', '0.010877326', '0.01922954', '-0.003088464', '0.0077177887', '0.01977161', '0.0352779', '-0.0176979', '-0.007962861', '0.0019955828', '0.009692801', '0.0071855783', '0.012729932', '-0.010188287', '-0.011863578', '-0.015984083', '0.0033516523', '0.015079644', '-0.015755074', '0.0027339542', '-0.012416077', '-0.004933995', '-0.0173781', '-0.012282153', '-0.003045214', '0.0061803563', '-0.0009424321']
3, ['0.022680163', '0.018109096', '0.0044845734', '-0.024352796', '0.009830072', '-0.0076217377', '-0.0221143', '0.0045192917', '0.019544333', '0.0116714435', '0.023721356', '-0.0002966056', '-0.004769255', '0.014665624', '0.010676011', '-0.0148458555', '-0.036340676', '0.04572983', '0.022112684', '0.0017866796', '-0.014820357', '-0.003912509', '0.0047859475', '0.009062346', '-0.02534193', '-0.0056095365', '-0.020954043', '-0.005609625', '0.00090069976', '0.003361865', '0.003678758', '-0.0096768085', '-0.019209275', '-0.0075465413', '0.011803002', '-0.024936976', '-0.007142674', '0.007676956', '-0.012939063', '-0.022969523', '-0.0127424905', '-0.02091299', '0.029748203', '-0.016642092', '-0.005294382', '0.015609748', '-0.010644369', '-0.00055459555', '0.013589395', '-0.012920198', '0.022778995', '-0.02616155', '0.027250098', '-0.0034575264', '-0.0017304603', '0.0017147926', '0.014661837', '-0.0064381063', '0.026528053', '-0.023851529', '-0.0330013', '-0.0026387717', '-0.025983036', '0.014122429', '0.022240844', '-0.008910015', '-0.024820883', '-0.012778287', '0.00897104', '0.04230503', '-0.015657369', '-0.03231763', '0.013507943', '-0.0412743', '0.009241772', '-0.006961525', '0.012200495', '0.0010019629', '-0.02421905', '0.023938801', '-0.01651742', '-0.004478653', '0.012506965', '-0.019329583', '-0.0029776588', '-0.012124299', '0.03154482', '0.025701689', '0.01536404', '-0.010765592', '-0.009275431', '-0.012365662', '0.0021396654', '0.01294775', '-0.02122209', '-0.0052900068', '0.01159733', '0.0065223677', '0.010134699', '-0.0007661474', '-0.012892147', '0.011566949', '0.0014958122', '-0.0036482688', '0.012046397', '-0.016505018', '0.0042321705', '-0.009171555', '-0.0140710035', '0.008831869', '0.015508785', '0.026700146', '-0.0061464966', '-0.017977133', '-0.006527253', '0.03776493', '-0.004898425', '-0.012037842', '0.013380597', '-0.021911643', '0.008300433', '0.013761741', '0.040397447', '-0.017944125', '0.0049760737', '0.004796227', '-0.001180325', '0.0013681713', '-0.013917652', '0.020203898', '0.01949862', '0.010491464', '0.041788664', '-0.018292217', '-0.015502452', '-0.0138382595', '0.017545082', '-0.00285927', '-0.028294306', '0.014645857', '-0.018724969', '-0.0020065496', '0.018373623', '0.0023268727', '0.0008307851', '-0.017970713', '-0.0034226896', '0.0039415616', '0.028144041', '0.02235033', '0.017448444', '-0.013179287', '-0.025460565', '-0.01857722', '0.031023165', '0.008669843', '-0.03316998', '0.0118695265', '-0.0052438118', '-0.036285624', '-0.010956435', '0.008572064', '-0.009467086', '-0.038470358', '-0.015534516', '-0.014761335', '-0.019939085', '0.0032644314', '0.011693702', '0.003616249', '0.019385021', '0.014112549', '-0.014557626', '0.003087841', '-0.02959371', '-0.011455566', '-0.01587315', '-0.026622185', '-0.007135307', '0.020041376', '-0.037695214', '0.0024695662', '-0.018559959', '0.030489912', '-0.021184515', '0.0072102374', '0.014081221', '0.008092632', '-0.004912204', '-0.026362877', '-0.0057592094', '-0.011838756', '0.037064563', '0.026902836', '0.03873657', '0.0029938337', '0.028850269', '-0.0072597796', '-0.006294732', '0.023711495', '-0.047491804', '0.024446651', '-0.025565673', '-0.047235303', '0.02633873', '0.026251448', '-0.012987723', '-0.018772233', '-0.03819725', '0.0027442214', '-0.037744466', '0.010680757', '0.0010321665', '0.0076086265', '-0.03317191', '-0.0011609129', '-0.015353777', '-0.014801616', '0.031595837', '-0.0068058367', '-0.02393225', '0.008791722', '-0.0026377032', '0.007873206', '-0.0036446715', '-0.018702557', '-0.020575227', '-0.03353093', '0.008151222', '0.013444398', '0.017166762', '-0.0126778735', '-0.012930034', '-0.006052475', '0.019802585', '0.007829952', '0.0030703081', '0.019032212', '0.012488586', '-0.0068656527', '-0.0180374', '0.028375305', '0.024040988', '0.011734027', '-0.00200581', '-0.027279187', '-0.0017574279', '0.01876372', '-0.0053403513', '-0.012866068', '0.018352948', '0.022724377', '0.011234065', '0.0037079498', '-0.016742839', '0.0030371568', '0.040035542', '8.521053e-05', '0.007799167', '0.020400137', '-0.019269701', '0.012286588', '0.020375336', '-0.004016613', '-0.03315696', '0.010209969', '0.041595448', '-0.005547655', '-0.025082242', '0.0046715164', '0.0021751965', '-0.013267223', '0.02715747', '-0.00080824044', '0.02182303', '-0.008231508', '0.003370791', '0.0059711523', '0.0084104985', '0.024637705', '-0.008029604', '0.02139007', '-0.021421088', '0.010651042', '-0.01814219', '-0.026973113', '-0.0025057087', '-0.0012679889', '0.02850797', '-0.01159034', '0.006815151', '0.027874023', '-0.008332833', '0.0020050912', '0.010183049', '-0.015223323', '0.0037137875', '-0.011366195', '0.00246964', '0.033795036', '-0.01640744', '-0.0039700093', '-0.020405786', '-0.0032565258', '0.018828345', '-0.0012132379', '0.0053048036', '0.017703583', '0.01057069', '-0.0038009558', '-0.006394084', '0.03398254', '0.0039449907', '0.0013585783', '0.006199786', '-0.0062195403', '-0.002985152', '0.028048303', '0.0058301752', '-0.0006341798', '0.013912927', '-0.013774595', '0.014717792', '-0.014622509', '-0.0071498672', '-0.004217772', '-0.10965879', '0.020523362', '-0.02045866', '0.019962052', '0.012310328', '-0.029010646', '0.010790284', '0.028100487', '-0.0015646495', '-0.026710846', '0.013744058', '-0.0031336925', '0.02308133', '-0.030325836', '-0.010830687', '-0.01641058', '-0.0053418144', '0.023167957', '0.0174616', '0.019832535', '-0.008401255', '-0.0076154745', '0.017512772', '0.005595858', '-0.009951329', '-0.0028559759', '0.02801057', '0.0023372315', '-0.03247678', '0.007554373', '0.0030058648', '-0.016125651', '-0.022573713', '-0.023176696', '-0.020214818', '0.0060023475', '-0.0032001168', '0.00018132594', '-0.043522272', '0.009929908', '-0.0013000127', '0.03657926', '0.022486506', '0.0026450779', '-0.031395186', '0.012361575', '0.016767913', '0.034400232', '0.0030061158', '0.047265083', '0.031654295', '0.0063648513', '0.016049255', '0.010876986', '0.0093397405', '-0.02657119', '-0.025399083', '-0.021329556', '-0.018615251', '0.013765762', '0.02543183', '0.0041618384', '-0.0045187552', '-0.010595967', '0.016936861', '0.015286904', '-0.0030176518', '-0.023748694', '0.0015023511', '0.00923221', '0.048744723', '0.02056573', '6.519373e-05', '-0.0013833909', '-0.010827445', '0.0041638315', '-0.02266875', '-0.03507279', '-0.003432423', '-0.002618163', '0.0064217225', '0.011824333', '0.006662577', '-0.012141214', '-0.005641', '0.004108398', '0.025614595', '0.023943232', '-0.005029014', '0.0042155143', '0.0034070574', '-0.02323227', '0.02070377', '-0.018926505', '0.021662816', '0.021828627', '-0.005382808', '-0.035081647', '-0.027741222', '-0.008703406', '0.009699858', '-0.009271398', '-0.0076746386', '0.020235488', '-0.010581878', '-0.014859208', '-0.018761542', '-0.014644447', '-0.015537332', '0.014187078', '-0.008458588', '0.007113709', '-0.002679327', '-0.0011154154', '-0.034361362', '-0.026517268', '0.009284521', '-0.0059205624', '0.001600537', '-0.0006267284', '-0.0011691353', '-0.041374367', '-0.025475902', '-0.02619505', '-0.02156361', '0.020872656', '-0.0050798585', '0.016836734', '-0.03212631', '0.012012315', '0.005418429', '0.011283896', '-0.015342988', '0.020227026', '0.0054328977', '0.03126379', '-0.010095494', '0.021702513', '-0.018917544', '-0.010508816', '1.2846693e-05', '-0.02749865', '0.009016301', '0.013180207', '0.018629454', '0.007698417', '-0.006460924', '0.03513374', '0.012584373', '-0.01722313', '0.00815613', '0.014088766', '-0.042852305', '0.015337501', '0.036711436', '-0.03452045', '0.0010030147', '0.009915094', '0.023263894', '-0.04738594', '0.007927727', '-0.049628656', '-0.016153695', '-0.021638984', '-0.0066856886', '-0.040869217', '0.019938016', '-0.009811237', '-0.0065945503', '0.00064209866', '0.0017446883', '0.005513473', '0.0056312727', '0.0042866967', '0.023804337', '-0.011781986', '-0.0043878555', '0.0017854321', '-0.007009581', '-0.009254789', '-0.0020931028', '0.016431738', '-0.015784426', '-0.0073397406', '0.028947625', '-0.0021641767', '-0.017518193', '-0.024933755', '0.007901345', '0.023867473', '-0.00868058', '-0.004253777', '-0.0045679375', '0.007933969', '-0.026530772', '0.007422815', '-0.014274164', '0.00043840572', '0.007384525', '0.010726411', '0.0075685196', '0.0050434163', '-0.013771243', '0.021511957', '-0.0057370136', '-0.019742524', '0.020279665', '0.0027868228', '0.019492427', '-0.017169224', '-0.0054415', '0.0115095815', '-0.007857102', '-0.01789551', '0.011731804', '-0.026155455', '-0.021266088', '0.009131239', '-0.014439997', '-0.014241382', '0.023172354', '0.004948372', '0.008547716', '0.009493852', '0.02420268', '0.0011181919', '-0.008567398', '0.009705958', '0.0034709552', '-0.046169136', '-0.016854998', '-0.013459909', '-0.00039339068', '0.010441351', '0.008038831', '0.0050719567', '0.011473372', '-0.0093888035', '-0.017826332', '0.018433526', '-0.0027967996', '0.013353517', '-0.014261382', '0.02962175', '-0.025828436', '0.016046714', '-0.04561906', '-0.01845497', '-0.013588146', '-0.01030889', '0.025026571', '0.009322339', '0.028380448', '-0.009320388', '-0.018393865', '0.00037044223', '-0.013171817', '-0.01424863', '-0.0045754383', '-0.035182536', '-0.016491026', '-0.009968788', '0.015350444', '0.0033483047', '-0.038920972', '0.023901908', '-0.032140706', '0.009528393', '-0.0051621045', '0.003987065', '0.019758562', '-0.012658705', '-0.01788171', '0.012596794', '0.042800464', '0.028057726', '0.0063731535', '-0.032051858', '-0.020397978', '-0.025498135', '-0.0035219125', '0.015979456', '-0.012576691', '-0.0052471682', '0.010219734', '-0.015092819', '0.017679658', '-0.017986769', '0.007324054', '0.008310457', '0.009996456', '-0.019164288', '-0.017610956', '0.006958715', '-0.014893444', '0.030720932', '0.00977144', '0.008446318', '0.011407133', '-0.0009538501', '0.02213782', '0.015947398', '0.0027767553', '-0.01715341', '-0.016454652', '-0.013233449', '-0.0076576374', '0.01508332', '-0.009467624', '0.02344884', '0.014107343', '-0.02687496', '-0.013013171', '0.019873528', '-0.0277659', '0.02676672', '0.030425359', '-0.0035451332', '0.051243115', '0.039170403', '0.008609565', '0.013779029', '-0.0136009', '-0.01619642', '-0.013801157', '0.0055328915', '0.00782978', '0.0010666439', '0.02824183', '-0.00038270457', '-0.021214496', '-0.034948003', '-0.020364264', '-0.0009931254', '0.0084693255', '0.02454527', '0.0016092175', '-0.0023607109', '-0.0042290934', '0.029078545', '0.009632214', '-0.0027058318', '-0.025260547', '0.009798338', '0.031198883', '0.02232139', '-0.010193312', '0.0029712499', '0.006173098', '0.011663468', '-0.007067066', '0.01052015', '-0.03759731', '0.011263877', '0.0012344476', '0.03999522', '-0.028088495', '0.009729952', '-0.015810277', '0.011979309', '-0.026673136', '-0.012337589', '-0.01672142', '0.010748007', '0.034724154', '0.017233355', '-0.004531936', '-0.0029929108', '-0.010910923', '-0.0015248416', '0.014669504', '-0.011810064', '-0.008308435', '0.0026374357', '-0.016224753', '-0.018463342', '0.0029126636', '0.009490372', '-0.005889564', '-0.009729585', '0.03737602', '-0.00394927', '0.0011692233', '0.02524476', '0.01035558', '-0.0024003317', '-0.030222686', '-0.008103862', '0.009763941', '-0.021961283', '0.0043728035', '-0.022997696', '-0.019825498', '0.009377252', '-0.02372948', '0.018900603', '-0.01429805', '-0.024824372', '0.00799295', '0.013281744', '0.0032216124', '0.0021850432', '0.01874398', '-0.0053843926', '-0.04883735', '0.0032561347', '0.015861139', '-0.017472016', '0.010336715', '-0.008274432', '0.015084809', '-0.0036245303', '-0.015457102', '0.0058874595', '0.006717681', '-0.0065829325', '0.04701153', '-0.0048208307', '-0.020989629', '0.01510917', '0.031393148', '0.015214958', '0.0033771251', '-0.01961746', '-0.014257495', '0.0072844634', '-0.008943209', '0.022252493', '0.014780002', '-0.023996815', '-0.013807028', '-0.0024625286', '-0.02690252', '-0.010514746', '0.016454386', '0.019627957', '-0.008991314', '-0.00029318483', '0.054883096', '0.011294306', '0.02160332', '0.0134635195']
4, ['0.017972063', '-0.00025458442', '0.01884275', '-0.027802521', '0.015233837', '0.007466236', '-0.023240978', '-0.0027597821', '0.022314943', '-0.026291223', '0.0066981115', '-0.0022219198', '-0.012124069', '0.007547104', '0.0012408345', '-0.012898217', '-0.0152612105', '-0.009030254', '-0.0014659947', '-0.00037791627', '-0.006864462', '-0.009744215', '0.0057040234', '0.0104133785', '0.026944598', '-0.013390023', '0.009572591', '-0.021874342', '0.008293433', '0.014576521', '0.023076372', '-0.0016215112', '-0.01804257', '-0.014347601', '0.0056730616', '-0.010734113', '-0.006942257', '0.010527864', '0.0034725077', '0.012651914', '-0.006854847', '-0.010684952', '-0.005270238', '-0.0012433492', '-0.00569546', '0.0013919102', '0.019321272', '0.001204176', '0.013451054', '-0.011366806', '-0.00020848085', '-0.009858468', '0.007021764', '-0.010514498', '-0.0052447864', '-0.0006880609', '0.00425695', '-0.00028119', '-0.017767465', '0.005635007', '-0.0074325814', '-0.020766601', '-0.016121546', '-0.009145604', '0.020042147', '-0.025957935', '-0.015292387', '-0.02047707', '0.0030530184', '-0.0065927715', '-0.006875529', '-0.024306789', '-0.017649662', '-0.0010864282', '-0.00029975598', '-0.0054828045', '0.0016593998', '-0.0023210575', '-8.3694395e-05', '-0.015012659', '-0.015502566', '-0.009179777', '0.009721071', '0.006671029', '-0.010197414', '-0.019925449', '0.012399979', '0.02075953', '0.038111635', '-0.009106744', '0.0007797039', '-0.03163228', '-0.009879649', '-0.0069169207', '0.011655571', '0.0035337897', '-0.00039539536', '0.0011104047', '0.011335289', '0.0028043997', '0.009788219', '-0.0023139678', '-0.01057448', '-0.008244615', '0.023153728', '0.000111550115', '0.0009643788', '-0.007967613', '-0.016731853', '0.009970473', '0.0012360365', '0.021443008', '0.027701361', '-0.031008624', '-0.015982958', '0.0025773258', '-0.0101669505', '0.008912773', '0.007148486', '-0.004175657', '0.002313275', '0.0043790657', '0.0051946617', '-0.013033759', '-0.004355438', '-0.0013382824', '-0.0110126315', '0.013559427', '-0.0066206465', '0.0063157086', '0.00506925', '0.004158141', '-0.007203773', '0.014758302', '-0.014640829', '0.001269699', '0.01811987', '-0.010584687', '-0.027715117', '0.0043451106', '-0.014731261', '0.0106666535', '0.01709359', '-0.015470497', '0.014468879', '-0.015466121', '0.0057501476', '0.009578644', '-0.003220826', '0.0066943606', '0.014377962', '-0.0019072003', '-0.026937418', '-0.01386752', '0.0045360476', '0.0045727026', '-0.0125919385', '0.011884137', '0.029046955', '0.0009370965', '-0.007390963', '-0.0048692967', '-0.012690089', '0.0043386635', '-0.014365218', '0.012367061', '0.030939061', '0.011700281', '0.01631453', '0.01164566', '0.036667064', '-0.002832756', '0.0089051705', '-0.00789919', '-0.014676206', '0.015615684', '-0.008032418', '0.0011805185', '-0.006818978', '-0.0020926744', '0.016560538', '-0.012094103', '-0.004698081', '0.022044122', '0.03008674', '-0.0021455502', '0.008075206', '0.014361837', '-0.00881931', '-0.007982732', '-0.014412744', '0.013102088', '0.0046708067', '0.019886326', '0.0066325176', '0.0145945605', '0.0013044885', '0.0062211216', '-0.009775724', '-0.0048568686', '0.004458062', '-0.03139886', '0.021454135', '0.0016216199', '0.022150548', '-0.0065590683', '0.01184456', '-0.0052713575', '-0.015959429', '-0.005231559', '0.0065238285', '0.009844984', '-0.0045298957', '0.0040517612', '-0.009313013', '-0.018590689', '-0.00080697867', '0.018541615', '0.0016332784', '-0.023453148', '0.005859615', '-0.008222241', '-0.009091914', '0.016984215', '0.012968016', '-0.043529868', '-0.009921499', '-0.007845002', '0.0037022254', '0.0036773128', '-0.008814417', '-0.015124887', '-0.017753405', '-0.002607677', '0.00870188', '-0.0152539555', '-0.009369265', '-0.0017000999', '0.0112076', '0.031749014', '-0.0073502855', '0.021873645', '0.011609716', '0.021796187', '-0.012520319', '-0.008963487', '-0.031133572', '0.01495137', '0.013532739', '-0.020780182', '0.011330991', '0.02621509', '-0.020415206', '-0.015478439', '-0.013967716', '-0.023340253', '0.0050804242', '0.0216637', '0.014231022', '-0.01772264', '-0.036988057', '-0.002333301', '0.006464829', '0.012399211', '-0.00053870125', '-0.009851848', '0.037914902', '-0.018658625', '-0.009179045', '-0.012988187', '0.0024411795', '0.0033775454', '0.0054066163', '0.005274114', '0.010548984', '-0.022462001', '0.009605106', '0.011026958', '-0.012017594', '0.017679295', '0.010314851', '0.0011526993', '-0.0032295105', '-0.013816303', '-0.01999993', '-0.013595266', '0.0059361714', '-0.018638138', '0.01036115', '-0.010427494', '-0.0006484167', '-0.0015301636', '-0.007158071', '-0.0047695464', '-0.028414583', '0.008828843', '0.0015017356', '-0.013543284', '0.0052554733', '-0.0008763226', '-0.0115381135', '0.0046733194', '0.0014384808', '0.015040966', '0.01141443', '0.024570366', '0.019274464', '0.017681692', '0.017718062', '0.0085396515', '-0.007496485', '0.007318307', '-0.012633006', '0.011291551', '0.007408427', '0.011253758', '-0.036452204', '0.006957682', '-0.03067722', '0.025356233', '0.00021100216', '-0.02557558', '-0.001975359', '-0.039687384', '-0.004369117', '-0.006756262', '-0.011447228', '-0.001176309', '-0.010059489', '0.015940158', '0.0039382176', '-0.032295953', '-0.010876044', '0.038207512', '0.0019884792', '-0.0013122451', '0.010268789', '0.0047729807', '0.015441385', '0.011113459', '-0.020854088', '0.008915531', '-0.009745648', '-0.008540225', '-0.0029266886', '-0.000338162', '0.01749853', '0.013279716', '-0.021821298', '-0.00066895393', '0.0014947609', '-0.01170517', '0.011881474', '-0.016225623', '-0.016625533', '0.00041204615', '-0.0039162776', '0.002218712', '-0.0069332276', '0.017053181', '-0.0056771617', '0.0013893942', '-0.0133351935', '-0.024263497', '0.002642902', '0.0038656318', '0.023417573', '0.012722336', '0.01108842', '-0.0024563603', '-0.015721105', '-0.019980146', '0.03655374', '0.033095546', '0.0052792155', '0.016339209', '0.0042488584', '-0.017982125', '0.012241559', '-0.0016409677', '-0.0010683351', '-0.010412144', '0.014936903', '-0.000776609', '0.019503124', '0.00029247857', '-0.0068153692', '0.012819185', '0.008742127', '-0.015087605', '0.024514165', '0.0014960397', '-0.008425945', '5.7770216e-05', '0.014457365', '-0.017433837', '-0.0035307342', '0.020220846', '-0.0015283071', '-0.008967781', '-0.0047382726', '-0.029948436', '-0.010451507', '-0.0009865729', '0.013803664', '0.010842037', '-0.012855319', '0.0021008125', '-0.0037694538', '0.0027713715', '-0.012856517', '0.014612472', '0.008507194', '-0.007979434', '0.010470215', '0.010306808', '0.016535988', '0.008589585', '0.009272624', '-0.011437956', '0.004430875', '-8.668185e-05', '0.0036654994', '-0.0054802555', '-0.025498936', '-0.0023068562', '-0.00257524', '0.010793369', '-0.0051715286', '0.02504611', '-0.010224395', '0.0049606003', '0.0037316666', '0.0020806978', '0.01758072', '0.0035539018', '0.006546358', '0.02536842', '0.013927799', '0.0026183568', '-0.032440696', '-0.004657898', '0.0077301315', '0.025394548', '-0.0013122541', '0.015580438', '-0.004653497', '-0.041062877', '0.0096686', '0.009317856', '-0.00205009', '0.005407747', '-0.03363203', '0.012808266', '-0.008347586', '-0.0011131692', '0.019444626', '-0.005223807', '-0.0012528871', '-0.0013997137', '0.027153475', '0.022928825', '-0.01915038', '0.012769332', '-0.00222813', '-0.013148286', '-0.019019427', '-9.128518e-06', '0.015214017', '0.018780284', '-0.022965226', '-0.0025409649', '-0.024788843', '0.040786132', '0.0075270697', '0.004888683', '0.025310203', '0.011637969', '0.004299871', '0.016679607', '0.033632085', '-0.0336283', '0.013584736', '0.0014513166', '0.030580172', '-0.01770897', '-7.792035e-05', '0.009658695', '-0.002138185', '-0.011250047', '-0.020034902', '-0.009268192', '0.0022266821', '-0.031584166', '-0.004520146', '-0.017411849', '0.0015218997', '-0.0019545602', '-0.00796042', '0.0057111266', '0.03288239', '-0.013741687', '-0.00849796', '0.00028499364', '0.0044588465', '-0.020708367', '-0.0033904957', '-0.023416413', '-0.018859882', '0.0026268882', '0.013781221', '-0.011441911', '-0.0065653883', '-0.0024970183', '0.007723128', '0.0012861543', '-0.0008732491', '-0.01912665', '-0.02811563', '0.01615018', '-0.012268253', '0.031231571', '-0.00625823', '-0.028821401', '0.0007873298', '0.0025798483', '0.00723711', '0.01658524', '-0.009286568', '-0.0031096921', '-0.012036758', '0.0032221994', '0.004680471', '0.046443198', '-0.020222232', '-0.01567494', '-0.010563635', '-0.009818122', '-0.009743852', '-0.016170807', '0.0064229593', '-0.024782717', '-0.006247761', '0.007871315', '0.009641454', '-0.012139612', '-0.015270229', '0.009723249', '0.0026895527', '-0.0059235496', '-0.008939924', '-0.019934913', '0.005891799', '-0.021880915', '0.001842588', '-0.013743105', '-0.030120961', '-0.007878128', '-0.0075479704', '-0.003793018', '0.0063575697', '0.021855833', '-0.012101973', '-0.01390642', '-0.002714351', '0.0033977237', '-0.008980474', '0.008331214', '-0.0048343465', '-0.0024203095', '-0.021381129', '0.017507745', '0.0001672247', '-0.008251865', '-0.016723735', '0.012273978', '-0.005449386', '-0.0043812683', '-0.018016737', '-0.014890817', '-0.027569443', '0.008278731', '-0.008647593', '-0.033173174', '0.012981522', '0.0023458311', '0.0012721284', '0.0032796122', '0.007186116', '-0.0073258094', '0.0016693871', '0.0005449012', '-0.012849169', '-0.007844041', '0.02287679', '0.013171071', '-0.0076371827', '-0.0021163498', '0.009703831', '0.0055627692', '0.01906677', '-0.004995397', '0.019089043', '0.00969418', '-0.021580432', '-0.008410364', '0.0133685125', '0.004231246', '-0.01904295', '-0.018107519', '0.04882546', '-0.00088161556', '-0.00827991', '-1.0279141e-06', '0.014543848', '0.005165956', '-0.0040213144', '-0.013930969', '0.014508889', '-0.0004029517', '-0.011877269', '0.0041497657', '-0.0036365818', '-0.003088807', '0.014995849', '0.0052904505', '0.014478834', '0.020647185', '-0.022949329', '0.000765935', '-0.002602843', '-0.0034020946', '0.009029535', '0.009131854', '0.017342173', '0.012328242', '0.021469818', '-0.014382649', '-0.009383444', '-0.014974576', '0.005383404', '-0.016830282', '-0.008935457', '0.0055792043', '0.040963694', '0.004186655', '0.019199366', '-0.0031931552', '0.0021560309', '0.012168929', '-0.015246437', '0.02426119', '0.012768695', '0.00754971', '-0.0051214956', '-0.0053722924', '0.011162368', '0.006546074', '-0.014521356', '-0.0038231383', '-0.011879521', '0.017158443', '-0.0037695135', '0.017467398', '-0.008598051', '-0.002089701', '0.001146069', '0.008965503', '-0.0074741677', '-0.016081233', '0.012874301', '0.032203984', '-0.011549755', '-0.010227843', '-0.003561745', '0.008793934', '-0.022515126', '0.016160758', '0.008392079', '0.0010322499', '0.0015376743', '0.005634714', '0.002858564', '-0.012905979', '-0.011980395', '0.019623533', '-0.028517757', '-0.011599972', '0.010715683', '-0.009590393', '-0.020340255', '0.005200291', '0.012690888', '-0.02534153', '0.014925889', '0.029367505', '-0.01695978', '-0.011198624', '0.01025617', '-0.001638499', '-0.009845596', '-0.017975403', '0.0063705794', '0.009672212', '0.0046979315', '0.019380663', '0.0014371341', '0.021621104', '0.00029147186', '0.012939271', '-0.015802296', '-0.0049983277', '-0.01762398', '0.0108437175', '0.028487649', '-0.016011484', '0.01966555', '0.00924089', '-0.00666088', '-0.0061092377', '-0.021156102', '0.023756225', '-0.0066214595', '0.011816961', '0.0047190646', '0.008092525', '-0.023981685', '0.007862188', '0.015191445', '0.03434353', '-0.0015786029', '0.0046511237', '-0.004463873', '-0.0010775015', '0.0069347546', '-0.01953998', '-0.0022692215', '-0.026309643', '-0.0026276398', '0.009919675', '0.0033884137', '0.0013719045', '0.008467074', '0.011585149', '0.0005841992', '0.007984034', '0.021461267', '-0.0064896815', '-0.0042307787', '-8.442138e-05', '-0.017254196', '0.0056036725', '-0.0042758137', '0.005917444', '0.02678953', '0.005839986', '-0.020552514', '0.022584105', '0.0006621256', '-0.009301499', '0.020166444', '-0.008173212', '-0.008420776', '-0.009811095', '-0.00077671383', '0.009772399', '0.0006456488', '-0.0006834768']
5, ['-0.002476059', '-0.000119756536', '0.006404131', '-0.019036071', '0.0054587517', '-0.0019283793', '-0.023703795', '-0.011129059', '0.011153168', '0.015567448', '-0.0063666455', '0.032911483', '-0.023911346', '-0.006223117', '0.023602556', '-0.04050865', '-0.030173482', '-0.012580302', '0.0078098066', '-0.0022263627', '-0.019332105', '0.00097445084', '-0.0072097634', '0.014845268', '-0.009301834', '-0.009203874', '-0.005656219', '-0.0047754324', '-0.004771415', '0.0054618926', '-0.00017172961', '-0.018000418', '-0.0008860844', '-0.009753611', '0.024669215', '-0.00041175628', '-0.0071833394', '0.010716644', '0.011744666', '0.023074144', '-0.0048886715', '-0.02040422', '-0.010230398', '-0.00075922586', '0.0012668895', '0.004161298', '0.005495606', '-0.026811225', '-0.007897725', '-0.010689419', '-0.01899908', '0.011506084', '-0.007404492', '-0.007808421', '-0.013895478', '-0.006970045', '-0.0032883727', '0.015677197', '-0.0003368757', '0.0011638429', '-0.0015669039', '-0.007164809', '-0.01448258', '0.011224575', '0.010198685', '-0.05180269', '0.008412697', '-0.009743544', '0.009440924', '0.04205111', '-0.007580619', '-0.01725075', '-0.02064486', '-0.014585206', '0.017820405', '0.021259014', '-0.000112564376', '0.00080735434', '0.007677544', '-0.009284528', '0.013194348', '-0.01219004', '0.011864362', '-0.00018513341', '-0.010584504', '-0.012003428', '0.0066103023', '0.0107458085', '-0.02564465', '0.016757064', '-0.021510223', '-0.030440338', '-0.0072584613', '-0.02888396', '-0.027441641', '0.002262963', '-0.017080564', '0.016076153', '0.0012627973', '0.008251089', '0.007592333', '0.024268435', '-0.006140574', '-0.004434931', '0.0033751049', '0.0074519394', '0.01510449', '-0.007391258', '-0.015669093', '0.01822114', '-0.005270154', '-0.007474818', '-0.0012598988', '0.02374096', '-0.00093549635', '-0.0143949', '-0.011236688', '0.017925737', '0.01161001', '0.026148032', '0.008686989', '-0.0011462189', '0.039488707', '0.0010572443', '-0.018480046', '-0.009826315', '0.027377667', '0.02715433', '-0.007753559', '-0.0041027', '0.022365114', '0.0060125547', '-0.0075268936', '-0.01288445', '0.01128763', '-0.0017369963', '-0.022905737', '-0.0153251', '-0.021188246', '0.0024702803', '-0.016151942', '0.0033595485', '0.01782878', '0.011771005', '0.00088317523', '-0.031758342', '0.009661158', '-0.022811985', '-0.013362549', '-0.004035698', '0.019319337', '-0.005988447', '-0.016951246', '0.02123961', '-0.006092688', '0.013659107', '0.0017950911', '0.011422716', '0.012966369', '-0.030779669', '-0.00632798', '0.005215576', '0.030926416', '-0.00022190984', '0.020299198', '0.007244681', '0.02024755', '0.02045994', '0.019421067', '0.0026750788', '0.016483774', '0.0010286467', '-0.0059997058', '-0.015204226', '-0.03297371', '0.028273337', '-0.008149697', '0.026310235', '0.008566912', '-0.0071254508', '0.008715239', '-0.0035107385', '-0.036267888', '0.014619831', '0.018299047', '0.0028937669', '0.008176825', '-0.00783033', '-0.0136845345', '-0.018103002', '-0.0022311667', '-0.0057949377', '0.03356155', '-0.007842011', '0.002440473', '0.010093074', '0.012047084', '0.004992954', '-0.014770183', '-0.018744204', '-0.0017105367', '-0.011211852', '-0.002060737', '-0.018865652', '0.024936024', '-0.0067901127', '-0.0035090006', '-0.008674786', '0.013707153', '0.0044061006', '-0.019542616', '-0.022036562', '0.0053496687', '0.0011099633', '-0.0051817596', '5.4365384e-05', '0.008081346', '0.024197454', '0.031212505', '-0.0040504336', '-0.0068515614', '-0.006428081', '0.00529651', '-0.006205682', '-0.0032753064', '-0.031535495', '-0.005578467', '-0.029888198', '0.021647817', '-0.007855279', '-0.008813443', '-0.0028755928', '-0.028539892', '-0.0064022443', '0.012941801', '-0.015495179', '-0.000172174', '-0.018947387', '0.009254768', '0.0023002778', '-0.010008405', '0.008031686', '-0.0073645953', '-0.0032542609', '-0.020309804', '-0.036113538', '0.014530867', '-0.0023789185', '0.0065218513', '-0.014058011', '0.013439959', '0.000978707', '0.013029297', '-0.012713662', '0.011523586', '-0.0031491444', '0.029690465', '-0.011910172', '0.015324645', '0.0065782247', '-0.007895639', '-0.0023101396', '0.0029557084', '-0.00512133', '-0.04367436', '-0.008138505', '0.027578201', '-0.0023828105', '-0.004412766', '-0.010450449', '-0.0061562886', '0.012716344', '0.016948787', '0.005253141', '-0.015880384', '-0.0039246334', '0.0021397138', '0.009121466', '-0.0022901646', '0.027853549', '0.008340565', '-0.014255528', '-0.0019122832', '0.034965675', '0.020307567', '0.013798973', '-0.00097195926', '-0.0076968167', '-0.010828586', '-0.002197275', '-0.011520731', '-0.00674999', '-0.013811099', '-0.03146548', '0.0056699323', '0.0106745055', '0.010656009', '0.009518448', '0.013583523', '0.011820572', '-0.0045123696', '-0.015798649', '-0.026268752', '0.008347622', '-0.0025243128', '-0.013458363', '0.01722748', '0.01338208', '0.0131668495', '-0.012846147', '-0.010070346', '0.01585664', '0.011263076', '0.009230045', '0.0050312877', '0.0016265311', '-0.00070290506', '0.014900479', '-0.023295356', '-0.01657885', '-0.0012673492', '-0.015678272', '0.022866987', '-0.03449764', '-0.033015147', '0.0046179094', '0.003909198', '0.019384883', '-0.00924722', '0.017446615', '0.010164591', '-0.021183347', '0.0013517198', '0.021289175', '-0.035269853', '-0.01541977', '-0.01812354', '0.02438308', '-0.020409174', '-0.026069779', '0.034432005', '-0.015313991', '0.027560689', '-0.007264505', '0.0120565165', '0.01938853', '-0.005747792', '0.0010247328', '-0.0006882242', '0.015385247', '0.0014210517', '0.008078932', '0.045961827', '-0.012033098', '-0.025062263', '-0.027200762', '0.0034392446', '-0.004601039', '-0.009006478', '-0.026083523', '-0.022038044', '-0.01058477', '-0.008402469', '0.01900885', '-0.06697899', '0.020511005', '0.029392099', '0.009830602', '0.034288146', '0.0018032725', '0.028273195', '0.008489941', '0.0056962464', '0.023743361', '0.0037447591', '0.031840604', '-0.0030209438', '-0.017177604', '-0.011862223', '-0.016902793', '-0.0015429112', '-0.008211853', '-0.0037581436', '0.010875824', '-0.008793621', '0.00461583', '-0.024508523', '0.019872935', '-0.0106563885', '-0.012382383', '0.0069659036', '-0.021968195', '0.016815726', '-0.00793632', '0.03813477', '0.049111728', '-0.006998134', '-0.015774127', '-0.001961481', '-0.02988886', '0.026019244', '-0.02216616', '-0.006643667', '0.0066408324', '-0.023233714', '-0.012293218', '0.029900989', '0.017681189', '0.00026235727', '0.0029266456', '-0.01167677', '-0.029015277', '0.015803287', '-0.0047787777', '0.0032845296', '0.006546681', '-0.008488264', '-0.019241862', '-0.0056225723', '-0.009065676', '0.016546516', '0.011531429', '-0.029967735', '-0.0128219295', '-0.033934675', '0.040684577', '0.035417903', '-0.0038604487', '-0.0023327414', '0.004810933', '-0.010636355', '0.040934145', '-0.00043824984', '0.010814534', '0.0005090948', '0.0075400546', '0.0043562227', '-0.0069905315', '-0.0072428165', '0.0038506964', '-0.006388443', '-0.015206316', '0.010723057', '0.005707739', '-0.010612123', '0.0036923382', '0.026829021', '-0.031204553', '0.029777672', '-0.028621921', '0.0072214766', '-0.0089509', '0.025407447', '0.018965842', '-0.02526906', '0.007089505', '0.021204067', '-0.015151815', '0.001032549', '0.005191082', '-0.012033803', '0.02652848', '-0.026434597', '0.002924099', '-0.03517162', '0.016322538', '0.0016939281', '0.0039768564', '0.018974647', '0.005017201', '-0.0098538045', '0.026248254', '-0.009887608', '0.020291802', '0.027327811', '0.0066186492', '-0.0044833096', '0.020246882', '-0.02287295', '0.013139341', '0.023883617', '-0.024226427', '0.004459536', '-0.013345404', '0.005334643', '-0.012714927', '0.0062827715', '-0.005383756', '-0.0063465675', '-0.022571458', '-0.04578723', '-0.042606734', '-0.017414778', '-0.03119574', '-0.03188804', '-0.008509249', '0.0015771384', '0.015645796', '0.022860276', '0.034220092', '-0.00040095733', '-0.02202841', '-0.011608227', '-0.0053438656', '0.025760626', '-0.003506432', '0.03542865', '0.009371299', '-0.003817961', '-0.004938319', '0.019446779', '-0.01369414', '-0.005875027', '-0.0037838507', '0.0005039817', '0.015377689', '-0.03621198', '-0.01459457', '-0.0111179175', '-0.010976545', '0.0006092864', '-0.006418894', '-0.014102217', '0.0071269395', '0.0057973014', '0.0028551966', '0.0047479332', '0.011102455', '-0.0069081625', '0.010232719', '0.010637625', '0.029726671', '-0.021859424', '-0.0061174184', '-0.005404533', '0.006925614', '0.008260883', '0.015234484', '0.019422373', '0.022387445', '0.013601071', '-0.014475333', '0.007955401', '0.0034622103', '0.012124763', '0.0065889573', '-0.019860916', '3.8211678e-05', '-0.014881432', '0.0034166884', '-0.013162292', '-0.017462242', '-0.0048646433', '-0.01778682', '0.0075937635', '-0.022280276', '0.012033995', '-0.017502103', '-0.0056724595', '0.025284316', '0.0050986074', '0.03007233', '0.026872316', '-0.01010917', '0.0042513907', '-0.007042326', '-0.0040315306', '0.020607881', '-0.018414538', '0.004039042', '-0.004641612', '0.027239371', '-0.020687763', '-0.011743543', '0.02302732', '-0.0104871895', '0.039971914', '-0.0067490744', '0.014537362', '-0.021973923', '0.009730482', '0.006753177', '-0.009013187', '-0.01131509', '-0.008346412', '0.0014330287', '-0.007844546', '-0.026280524', '6.3424224e-05', '-0.0034243201', '-0.011874979', '0.0068513863', '-0.020914642', '0.017030291', '0.0027136272', '0.024896022', '0.042550888', '-0.0043752454', '-0.0053225844', '-0.025538528', '-0.0044228216', '-0.008573501', '-0.00038103125', '-0.014332904', '-0.0011194256', '-0.0029598088', '-0.00075034075', '0.056752484', '-0.01639814', '-0.0025803538', '0.008727893', '-0.01439993', '0.02051934', '-0.02487619', '-0.014444843', '-0.010081221', '-0.0075759175', '-0.01229892', '-0.013264778', '0.021411842', '-0.020546779', '0.030908188', '0.0005761674', '0.0027588361', '-0.006338358', '-0.0154313445', '0.031792026', '0.0140865315', '-0.0032079567', '-0.024494117', '0.03287003', '-0.006298049', '-0.016197408', '0.00037214108', '0.01685843', '0.03935785', '0.008379879', '-0.010605989', '0.017059423', '-0.0024009706', '0.013366724', '-0.03535683', '0.0023582105', '0.01225458', '0.039924636', '0.0037109095', '0.023135355', '0.010808543', '-0.036301102', '0.017540438', '0.0016399723', '-0.0028921762', '0.0023244817', '-0.0037372434', '0.004734732', '-0.0005147056', '-0.025206776', '0.009536107', '-0.013707526', '-0.034924075', '-0.019037256', '0.016478207', '-0.018125767', '0.020620078', '0.0066644046', '0.01017242', '-0.0004996601', '-0.019331777', '0.00076686795', '-0.007321398', '0.01795177', '0.031035362', '-0.0022633', '-0.009641481', '0.005349268', '-0.012829355', '-0.0044566114', '-0.0019182038', '0.01440004', '0.0014384504', '-0.018816806', '-0.01783712', '-0.03871273', '-0.013871079', '0.027878152', '-0.022703141', '-0.0073734224', '-0.01807415', '-0.0028319608', '-0.014686282', '0.01978307', '-0.014776749', '-0.017878087', '0.016689796', '0.028359838', '8.185134e-05', '-0.0051108925', '0.009784384', '-0.010402959', '0.0006687283', '-0.006869064', '-0.004046449', '-0.00875366', '0.012283829', '-0.023271646', '0.015214441', '-0.012351087', '-0.009393215', '-0.03194054', '0.014761927', '0.0039390004', '-0.010398828', '-0.031178724', '-0.02894831', '0.03053427', '0.0060848272', '0.01568177', '0.027282782', '-0.01348779', '-0.017871937', '-0.010846173', '0.020122923', '0.0037675845', '0.014185223', '0.013844388', '0.025217522', '-0.02356458', '0.00014343513', '0.0113428', '-0.020343415', '0.037710413', '0.0064815735', '-0.007925631', '0.032980986', '-0.016503219', '-0.0158167', '0.046582248', '-0.018474316', '0.015437368', '0.016333638', '0.012300231', '-0.019624056', '0.0053739706', '-0.0027662825', '-0.003590603', '0.025458941', '0.020588202', '0.009948693', '-0.020620408', '0.007737668', '0.009763029', '0.0030247937', '0.016390037', '0.016684221', '0.0022169712', '-0.016821517', '-0.0046326774', '0.01706638', '0.017694354', '-0.01319275', '0.006214057', '0.0031055075', '-0.0057055023', '-0.02953817', '0.027181696', '-0.0047549643', '0.026040494', '0.030041587']
6, ['0.00941063', '0.014691369', '0.0072048623', '0.015532862', '-0.010579523', '0.016108248', '-0.022142187', '-0.0036742806', '0.0034235083', '-0.0015804812', '-0.014366176', '-0.0048386957', '-0.0023142928', '-0.017873956', '0.021914452', '-0.0028709865', '-0.023686677', '0.010859693', '-0.002870585', '0.0018543839', '-0.0052913036', '-0.011211254', '-0.037656814', '0.014659605', '-0.012329017', '-0.010960821', '0.0033702618', '0.017365584', '-0.011730995', '0.0040437384', '0.03413393', '-0.017291678', '-0.017933793', '-0.0112242345', '0.002772686', '0.0006718503', '-0.006820873', '0.016082902', '-0.0044048848', '0.013513296', '0.009162309', '-0.0035115972', '0.013963765', '-0.00018220322', '0.008214145', '-0.015780296', '-0.00085158495', '-0.024710495', '0.009555327', '-7.348579e-05', '0.007997034', '0.021478433', '0.011634302', '0.007254948', '0.014640287', '0.011251904', '0.009283796', '0.0030189874', '0.001591966', '0.0059314184', '0.0030499564', '-0.012221931', '-0.021464223', '0.015092303', '-0.0061026486', '-0.012185821', '4.445297e-05', '-0.014152071', '0.0033806022', '0.010711519', '-0.0037845226', '-0.0013974593', '-0.01151587', '-0.015405', '0.0076185274', '0.012367338', '0.00048306928', '-0.00734133', '0.0071906317', '-0.0059704646', '0.0050907303', '0.005491157', '0.007561677', '0.00036203853', '-0.000833775', '-0.01752329', '0.0018331122', '-0.0071651004', '-0.0114882', '-0.0031315552', '-0.00086569757', '-0.015178117', '-4.3438857e-05', '-0.0045109307', '-0.018603409', '0.009275649', '0.0056407345', '0.007779796', '0.0037018508', '-0.024427932', '4.585478e-05', '0.02009726', '0.0019210203', '0.0043645343', '-0.014157906', '-0.009944949', '0.024265561', '-0.0051012537', '0.007328192', '0.01306646', '-0.01188021', '0.0013650873', '0.003386195', '-0.0024580318', '-0.012346125', '0.0016692209', '-0.014130161', '0.011365744', '0.020595146', '0.012598133', '-0.0035109166', '-0.009032441', '0.021900594', '-0.017217942', '-0.0074350783', '0.03140466', '0.00037363943', '-0.0024566238', '0.0023647787', '0.012886886', '-0.0046843104', '-0.0068910215', '0.003239552', '-0.014595404', '0.025670825', '-0.014173759', '-0.014342921', '-0.0025071956', '0.010733445', '0.0074849855', '0.023299912', '0.018326655', '0.014949488', '0.012124417', '0.0133099435', '-0.018749395', '-0.007688814', '-0.009238369', '0.038286332', '-0.003313164', '-0.0073912353', '-0.009776071', '-0.0034191343', '0.010435673', '-0.006523938', '0.03237503', '-0.013340803', '-0.017499136', '-0.0011443987', '-0.010715671', '-0.0029415078', '0.020527875', '-0.006199555', '-0.008838353', '0.02882864', '-0.012454105', '-0.0048750076', '0.013302788', '0.021187954', '0.007334255', '0.018740974', '0.0029272458', '-0.020406092', '0.019856041', '-0.011639952', '0.011414853', '-0.0034406134', '-0.0013024196', '-0.0066504953', '-0.0043799374', '-0.016197676', '-0.008687354', '-0.006737112', '0.011021614', '-0.01515412', '0.0074395514', '0.003697977', '0.0035140717', '-0.0047035436', '-0.002778567', '-0.023113688', '-0.020298487', '0.012614643', '0.005207147', '-0.0068365876', '0.0031997643', '0.007905138', '0.009862732', '0.0022470094', '-0.0066927653', '-0.010674435', '0.0066878684', '0.009357394', '-0.012254879', '0.0029322861', '0.009482174', '-0.009024696', '0.00823954', '-0.046207935', '-0.0034963326', '-0.023107601', '0.009991358', '-0.0019471601', '0.0024409848', '-0.0032242707', '-0.008170653', '0.0045217504', '-0.008264292', '0.015752863', '-0.041350123', '-0.037260965', '0.013192465', '-0.005800065', '0.004559732', '0.006510478', '0.005106694', '-0.0069615217', '-0.015770493', '0.011284353', '-0.005842149', '-0.02197389', '-0.0037184323', '-0.016286135', '-0.007714235', '0.013469061', '-0.009503959', '0.010886475', '-0.018400867', '0.008957989', '-0.011377602', '-0.0230375', '0.015948905', '-0.014924455', '-0.011243587', '-0.0129389195', '-0.02455629', '0.020625187', '0.023088057', '0.006333185', '-0.008819846', '0.012729818', '0.014462528', '0.0017713169', '0.015736561', '0.0017088633', '-0.0037514041', '0.0025057306', '0.010621958', '-0.00039806258', '0.0022549292', '-0.011843802', '0.00017017727', '-0.004988679', '-0.0035666514', '-0.030650524', '-0.004486725', '0.009769774', '-0.032221735', '-0.011223742', '-0.012196418', '-0.0062188203', '0.0040128413', '-0.019162642', '-0.005167648', '-0.023373215', '-0.025676973', '-0.00080474705', '0.0024502268', '0.007993151', '0.0061951657', '0.016019285', '-0.0140177', '-0.008570026', '-0.0104275495', '0.0066250516', '-0.008624089', '-0.013006996', '-0.011410239', '-0.0015016665', '-0.0036220918', '-0.011119972', '-0.0013570748', '0.0029497424', '-0.025126716', '-0.0043332963', '-0.0030217401', '0.0150843905', '-0.009650649', '0.007908342', '0.008884035', '-0.011755639', '-0.013142842', '-0.0015993072', '0.010300412', '-0.029164406', '0.0041831555', '0.0104824705', '0.00823969', '0.009540117', '0.0105274925', '-0.009078369', '0.0039883456', '-0.017883083', '0.004502167', '0.0057307687', '-0.005240883', '-0.005339447', '-0.012842752', '-0.0021216937', '0.017674267', '0.004033372', '-0.013191223', '-0.0048016403', '-0.020202568', '0.007503331', '-0.0061445213', '0.007128136', '-0.0036851356', '-0.00019884307', '0.011417899', '0.0032878171', '-0.020339642', '-0.020187438', '-0.0061673075', '0.01005613', '0.010531409', '-0.0021133132', '-0.0077335844', '-6.4925174e-05', '-0.009612535', '0.00430002', '0.011942939', '0.021476839', '-0.0031478032', '-0.010716043', '0.0004542102', '0.00509509', '-0.0045803376', '-0.00041970384', '-0.012965656', '-0.021227188', '0.007265569', '0.026081994', '0.013299493', '0.00032991933', '-0.034274217', '0.0024158303', '0.024881292', '-0.008483038', '-0.0141264135', '-0.024857437', '-0.009686304', '-0.011883313', '-0.003072685', '-0.00035698505', '0.0040882328', '-0.0128452685', '-0.025551196', '0.0004114928', '0.011179985', '0.008988849', '0.017038435', '0.013932344', '0.007807132', '0.00535773', '0.0066060256', '0.010305918', '-0.0115041165', '0.022211285', '-0.00029056214', '-0.0032544213', '-0.00063926924', '-0.001569351', '0.007845', '0.0059596696', '-0.012440927', '0.0062160073', '0.00027390037', '0.013125734', '-0.009474079', '0.0033100294', '0.00626063', '0.0094420565', '-0.0027903032', '0.017594745', '0.015067465', '0.0067935893', '0.0071345004', '0.0010740785', '-0.037681893', '-0.017907389', '-0.024084935', '-0.0053151976', '0.004292172', '0.009378509', '-0.0013310765', '-0.012763015', '0.010698384', '-0.0022755973', '0.0021395718', '-0.014659846', '-0.010827043', '-0.018501513', '0.02302241', '0.014255178', '-0.004782666', '0.017150374', '0.0023148237', '0.0060822275', '0.002549014', '0.00466028', '-0.011634527', '0.0011523798', '0.00899188', '-0.01676723', '0.010257929', '0.029405458', '0.017066054', '0.009281295', '0.01851985', '-0.010399477', '0.015498948', '-0.0007868617', '0.0096783945', '-0.020598814', '-0.024200914', '0.012720674', '-0.0101255085', '0.005549312', '0.002390392', '-0.007353619', '-0.025996275', '0.009112152', '0.019181037', '-0.0036265834', '0.00014379434', '-0.005971279', '-0.015313505', '0.006790237', '0.0153980935', '-0.009003378', '0.0067254505', '-0.008231513', '0.011828147', '0.00035056076', '-0.0031173055', '0.012667325', '-0.019940175', '0.013339242', '0.007279473', '0.0074069495', '0.0056832866', '0.000997278', '-0.008471164', '-0.0137607865', '-0.0036227857', '-0.013750875', '0.039914865', '0.017057475', '0.015507847', '-0.004089304', '-0.018236287', '0.012362667', '-0.0050036185', '-0.0057707313', '-0.01635334', '-0.01856287', '0.022785552', '0.00651231', '0.010050174', '0.0056544263', '-0.009472403', '0.004758562', '-0.0005067926', '0.015704792', '-0.02372575', '-0.008989335', '-0.0120180715', '-0.020177096', '0.011868287', '-0.022995751', '-0.0226453', '-0.020954091', '-0.027928887', '0.0036584446', '-0.022921678', '0.0017162911', '-0.0051677264', '0.007896459', '0.004287723', '0.006479418', '-0.00519733', '-0.026480813', '-0.009126596', '0.030885966', '-0.012275104', '0.011631612', '0.0037922114', '-0.013793045', '-0.014658032', '0.03436981', '-0.011614112', '-0.013933747', '0.018498456', '0.016935015', '0.006022061', '0.008113216', '-0.010478168', '0.0024668702', '0.008805105', '-0.0014907647', '-0.017716888', '0.0020785576', '-0.029362073', '0.0071421955', '0.0008456545', '0.010716719', '0.013225997', '-0.01713004', '0.0049173874', '-0.00028781494', '0.0035239155', '-0.010552869', '0.0018614879', '-0.010754237', '-0.010411854', '0.020221302', '-0.01174808', '-0.015443296', '-0.016763661', '0.0060791336', '-0.003130297', '-0.019168349', '0.007966897', '-0.014287871', '0.015115518', '-0.0015183812', '0.018498959', '-0.008180342', '0.04327835', '-0.014011997', '-0.016603421', '0.019291667', '0.0064883903', '0.0008821434', '-0.0062946477', '0.0002029828', '-0.010051382', '-0.018299548', '0.004661588', '0.012940713', '0.0154718', '0.024376074', '0.012833862', '-0.0079854205', '-0.013158948', '0.0024759606', '0.0265025', '-0.0020635033', '0.0019351608', '-0.011937206', '-0.01594368', '0.0017818981', '-0.006230393', '0.026277639', '0.021719553', '-0.005822308', '0.015219079', '-0.0050487253', '0.0031891884', '-0.021812182', '0.008260545', '-5.7113215e-05', '0.00910256', '-0.006723218', '0.021710595', '0.011981455', '-0.00655859', '-0.0035608888', '-0.00038088704', '-0.01183672', '0.010892786', '0.0044613685', '-0.0047724186', '0.0047054784', '-0.021013489', '0.0055558947', '0.00036486264', '0.017569851', '0.0062079746', '0.0070153037', '-0.015643615', '0.014282392', '8.725841e-05', '0.011484669', '0.0060942', '0.032989133', '0.026146691', '-0.019747583', '0.011599422', '0.029700886', '-0.0034007917', '0.011789893', '-0.0054291184', '-0.0024515255', '-0.0003687975', '-0.011743175', '-0.016555332', '0.004223545', '-0.0040673907', '0.013146178', '0.002691101', '0.0039055492', '0.0032645757', '-0.015634052', '-0.009264144', '0.0034974176', '0.01505959', '0.017529462', '-0.015876811', '-0.008659178', '-0.018537188', '-0.0038342434', '-0.0026475023', '0.0050145993', '0.029561311', '0.00881471', '0.008578136', '0.0024731378', '-0.0033301201', '-0.006484628', '0.015353726', '0.0023924732', '0.012186369', '0.035759006', '0.01786124', '-0.003181139', '-0.0026117377', '0.015883032', '0.005828287', '-0.0062654405', '4.5975576e-05', '0.018519163', '0.0007429896', '0.012487552', '-0.004124093', '0.006070025', '0.002170833', '-0.021292329', '-0.011434295', '-0.009079543', '-0.002060849', '-0.013668037', '0.02121609', '-0.015240731', '0.006356169', '0.01711545', '-0.013558487', '-0.00496249', '0.00829161', '0.005714073', '0.016581196', '-0.01951148', '0.003987917', '-0.0018995637', '0.007890542', '0.023532404', '-0.021279972', '-0.0055316063', '0.012407396', '-0.025852347', '0.018310554', '-0.009340814', '0.0037110497', '-0.0054431977', '0.015023721', '0.008979826', '-0.0018270378', '0.0016489712', '-0.010416853', '0.004417024', '-0.017439254', '-0.010538028', '-0.009765038', '0.016891541', '-0.0027014713', '-0.018691923', '-0.012187749', '0.021825885', '-0.0047680517', '-0.0053651785', '-0.0074843005', '-0.008540227', '0.008933864', '-0.0074191852', '0.0029409286', '0.011859935', '-0.010399279', '-0.020468235', '0.0013217825', '-0.01277611', '-0.022898357', '-0.013086462', '0.00018736224', '0.016874354', '-0.005694816', '-0.008155242', '-0.024582012', '-0.004095255', '0.0035934167', '-0.011529933', '0.011297147', '-0.0045822337', '0.0128484685', '0.003483321', '0.014511604', '-0.00287499', '0.02457282', '0.005835359', '-0.028693993', '-0.003799088', '-0.0116832', '0.003914486', '-0.0015743969', '0.021583365', '-0.0106452005', '0.01575508', '0.0012978136', '0.023801858', '0.005673368', '-0.00979538', '-0.0010600649', '0.009353526', '0.016380738', '-0.01579088', '0.010100796', '0.014407362', '0.027448574', '-0.009824227', '-0.00394381', '0.0036123383', '0.011657209', '-0.0035180887', '0.018246554', '0.011658378', '-0.0032284432', '-0.02700748', '0.030710425', '0.020143475', '-0.0038935142', '-0.0017997437', '-0.016242914', '-0.0038164768', '-0.0035675846', '0.013636177', '-0.022520807', '0.023224985', '0.01678959']
7, ['0.0078883935', '0.020214105', '0.009428595', '-0.06476202', '-0.012172657', '0.030383592', '-0.023755055', '-0.013206601', '-0.021124082', '0.0040085474', '0.0019876629', '-0.04163616', '-0.038068525', '-0.0051066293', '-0.01055626', '-0.028243499', '0.0074029216', '0.02606396', '0.0278438', '0.009475583', '0.0027998784', '0.007400032', '-0.023018166', '-0.0009881492', '0.0082944045', '-0.0131219905', '0.007135233', '-0.009278212', '-0.010545507', '0.01606111', '0.009972681', '-0.0017314537', '-0.011436286', '-0.0019530384', '-0.0011362975', '0.056844253', '-0.0067381314', '-0.011997065', '-0.004978218', '-0.003119416', '0.00041107257', '-0.021204835', '0.0107039735', '-0.027320277', '-0.05790153', '0.005255999', '0.013054349', '0.0017926214', '-0.010920398', '0.015360027', '0.0016105156', '0.021937914', '0.010042161', '0.03130994', '-0.009359533', '-0.035423167', '-0.024236629', '0.04386695', '-0.0057885447', '-0.0047001326', '0.030903667', '0.008157564', '-0.0021249438', '-0.042937744', '0.010435583', '-0.0033321877', '-0.0010892953', '-0.0058378973', '0.016520519', '-0.022266809', '-0.011568491', '-0.020067476', '0.016662851', '0.00054200325', '-0.009738042', '0.006601082', '-0.008356557', '-0.001440196', '0.0056190225', '0.019557921', '-0.017710438', '0.0044288966', '0.013417', '-0.045325197', '0.012404531', '-0.054954063', '-0.020224616', '0.013001366', '-0.001410325', '0.00989592', '-0.014097494', '-0.012472579', '0.009138513', '-0.017405728', '-0.006470582', '-0.014848982', '-0.020567631', '-0.0034502721', '0.025230682', '-0.0043497183', '-0.0027045282', '0.006134907', '-0.010753786', '-0.052993666', '2.0002642e-05', '0.013670109', '0.027136223', '-0.0069671096', '0.024285244', '0.031000054', '0.024043813', '0.007230373', '-0.006008313', '-0.010605635', '0.02509277', '-0.010509878', '0.0073917937', '-0.010988782', '0.018990843', '0.055298187', '-0.013540697', '0.0037719517', '-0.048844427', '-0.009256559', '0.018621398', '-0.027438791', '-0.0032713823', '0.0012083878', '-0.0038409585', '0.028589942', '0.038557056', '-0.008618286', '0.019173695', '-0.029887006', '-0.014532118', '0.027454572', '0.011732372', '-0.028837321', '-0.015547347', '-0.011195954', '0.0007190532', '-0.012371522', '0.052951533', '0.021384541', '0.031421017', '-0.0243218', '0.024214469', '-0.0021979334', '-0.012105085', '0.057532992', '0.029936759', '-0.010182625', '-0.02496919', '-0.04844899', '0.039838634', '-0.0059556966', '0.029232893', '0.00016943946', '0.02349546', '0.0030070883', '-0.036090463', '-0.031661626', '0.019235723', '0.0026553664', '0.03432635', '0.0017951903', '-0.013173864', '0.032586616', '0.0046533416', '0.02461773', '-0.0003100525', '-0.03378958', '0.010321979', '-0.035296764', '0.0071626687', '0.0060895327', '0.008721099', '-0.020428589', '-0.01702044', '0.013910748', '0.028162785', '-0.014259284', '-0.053250436', '0.01010287', '0.020561682', '-0.034354895', '0.008715799', '0.0115115475', '0.023045585', '0.008986743', '-0.044997565', '-0.0010592398', '0.007712281', '0.013081444', '0.02134153', '0.0027586531', '0.022744577', '0.017031806', '-0.010173214', '0.00030648973', '-7.808981e-05', '-0.015334132', '0.015348749', '0.019746104', '0.0027833183', '0.0029492239', '-0.002765717', '0.022413658', '-0.008995158', '0.060047302', '0.012879806', '-0.0010148039', '0.0001883965', '-0.011849192', '-0.016486488', '-0.0022048175', '0.017801937', '-0.011420539', '0.003686487', '-0.020121168', '-0.019064868', '0.0198995', '-0.021131212', '-0.016206788', '0.0076750964', '-0.041570466', '-0.022345522', '0.005495846', '0.027365195', '0.014198715', '0.017469227', '0.002076188', '-0.025300642', '0.0317397', '-0.0017570567', '-0.034911904', '0.0010022419', '-0.00589002', '0.0074958117', '-0.0055105654', '-0.024024423', '0.012592623', '-0.049195964', '0.021739056', '0.00960879', '0.025248313', '-0.025184788', '-0.00013327663', '0.028516097', '0.0429749', '0.016995102', '-0.02533348', '-0.019648569', '0.0016217886', '-0.014531735', '0.014527253', '-0.020286381', '-0.01676303', '0.012170885', '-0.03076553', '0.00090168614', '-0.0042854897', '0.014672096', '0.02155072', '-0.026038688', '0.007814897', '0.029832838', '0.032137774', '-0.0076658893', '-0.021249225', '-0.034671716', '0.0077206534', '-0.029020533', '0.07299808', '0.016619114', '0.01795086', '0.015376135', '-0.007737671', '-0.021871999', '0.0361092', '-0.015704874', '-0.00956776', '0.021346642', '-0.01524777', '-0.010104014', '0.020584602', '-0.04781191', '-0.028998258', '-0.033238366', '0.022720283', '0.011122543', '0.020323638', '-0.008472362', '0.0051225214', '-0.015936479', '0.03658533', '0.027115585', '-0.00777597', '-0.011265825', '0.01810754', '-0.010893563', '0.017420426', '0.0022018093', '-0.017066527', '0.02334094', '-0.008918263', '0.0072434773', '-0.003612236', '0.00611831', '-0.011174757', '-0.0012974846', '0.001022817', '0.00049941265', '0.038740132', '0.00503629', '0.029321428', '-0.039769683', '-0.004479594', '-0.010067372', '-0.022017432', '0.0043172725', '0.02887425', '0.010508661', '0.021967798', '-0.0045240405', '0.00416048', '-0.03827537', '0.0038731748', '0.0047241338', '-0.037112996', '-0.018447034', '0.012663369', '0.051084816', '-0.011303305', '-0.0556017', '-0.04379905', '-0.014814198', '-0.015392044', '-0.016879821', '0.028390925', '-0.02559181', '-0.007634558', '0.021935571', '-0.011403008', '0.008081552', '-0.024837513', '-0.0028620018', '0.021178216', '0.040315337', '0.002429473', '-0.00058552186', '0.023183115', '-0.020970244', '0.032829918', '0.006289974', '0.045342565', '-0.022578117', '0.01729088', '-0.004362037', '-0.005147765', '-0.0057521057', '-0.009069108', '-0.0038925104', '0.020139057', '-0.00689554', '0.017847886', '6.3797466e-05', '-0.003630026', '0.013198253', '-0.031942613', '0.027694304', '-0.025883945', '0.026541991', '0.022059405', '0.0094877435', '0.025326272', '-0.0029321006', '-0.0059133596', '-0.02396901', '-0.002632109', '-0.01976949', '-0.026504774', '-0.0020907924', '-0.010970797', '-0.013441687', '-0.057991013', '-0.019716691', '0.0411284', '0.02185049', '-0.0152660385', '0.017532213', '-0.006767462', '0.017023114', '-0.008145177', '-0.030591534', '0.00457256', '-0.019069387', '0.03068667', '0.03497402', '0.030195927', '-0.03344237', '0.02727324', '-0.022186793', '0.0044379574', '-0.005152063', '0.0022039942', '0.0051321276', '0.027358886', '-0.002215675', '-0.02337246', '-0.0114917485', '-0.0059448304', '0.035454195', '-0.017605154', '0.0035838725', '-0.040279556', '0.014535976', '0.018315759', '0.02538545', '0.00920715', '0.0020135723', '-0.03949833', '-0.019059999', '-0.030217575', '-0.03197785', '-0.015593691', '0.0015073239', '0.040994536', '0.018325271', '-0.014001209', '-0.010674224', '0.015001546', '-0.022717597', '-0.012439848', '0.0045770826', '-0.018089259', '-0.010018681', '0.048358463', '-0.0011769377', '0.00721588', '0.015255403', '-0.0032372482', '0.011213027', '-0.020321358', '0.037673723', '-0.0006507964', '0.0019752982', '-0.034548335', '-0.017253183', '-0.008676855', '-0.0060504964', '0.02244053', '-0.014309029', '-0.015217313', '0.021009723', '0.008636875', '0.010324199', '-0.012565557', '-0.017245296', '-0.004414242', '0.021122139', '0.017235344', '0.003835053', '-0.043244407', '-0.011276543', '0.0236359', '0.010845874', '0.031219635', '-0.020980276', '0.01484665', '-0.034900934', '0.001984093', '-0.013731045', '0.007183004', '-0.02638316', '0.020555023', '0.023586212', '-0.0034898769', '-0.024130084', '0.003564686', '0.031864412', '-0.022678189', '-0.006049688', '-0.02196175', '0.011775519', '0.047025714', '0.02135515', '-0.0099466955', '0.005159373', '-0.03472405', '-0.019071994', '0.007836486', '-0.013186959', '-0.068592444', '-0.020578008', '-0.018378831', '0.0017194414', '-0.008880366', '-0.01243725', '-0.013622101', '0.00067138614', '-0.0076773795', '0.02549521', '-0.025006324', '-0.016776612', '-0.004245204', '-0.039663505', '-0.031587504', '0.0062211654', '-0.017352808', '-0.006055948', '-0.03413518', '0.005966609', '-0.005497139', '0.021371337', '0.042797707', '-0.027968105', '-0.010924739', '-0.0101260515', '-0.023079239', '-0.0051202574', '0.024108663', '-0.014443319', '-0.0039016854', '0.031323597', '0.005323201', '0.0010145634', '0.013340952', '0.009112263', '0.018583281', '-0.0023927542', '-0.017966237', '-0.024129901', '0.015143115', '0.027196549', '0.007463227', '0.014965509', '-0.005161418', '-0.06970314', '-0.047434587', '-0.034688246', '-0.0041321293', '-0.036503557', '-0.014857072', '-0.0040743183', '0.016520174', '-0.0106909145', '-0.011030289', '0.03679245', '-0.007704619', '0.010482906', '-0.04102999', '0.038520046', '0.020703275', '-0.0013449404', '0.019957615', '-0.041045297', '-0.014381682', '0.015337615', '-0.013618417', '-0.006966589', '0.031890377', '0.0020907386', '0.01749766', '0.018930836', '-0.009171998', '-0.002528944', '0.021426711', '-0.01090158', '-0.021383407', '-0.0132922875', '0.00029289428', '-0.006848105', '-0.029676225', '0.0293526', '0.00038750801', '-0.014402671', '-0.004187246', '0.010973425', '-0.0035227856', '-0.012525277', '-0.0031421685', '-0.025884299', '0.030536745', '-0.02589388', '0.0070373574', '0.015016965', '-0.000979053', '0.009732142', '0.031964045', '0.021035325', '0.047580633', '-0.026352143', '0.00048473972', '-0.006008842', '0.05426705', '0.0037783477', '-0.0079718465', '0.004365435', '-0.0336162', '0.023287855', '0.021989891', '-0.032827683', '0.009195882', '0.011239115', '-0.012869213', '0.008621377', '-0.010027448', '-0.049362168', '-0.0070334254', '0.028025253', '-0.028221566', '-0.009612501', '0.00064245256', '-0.02887394', '0.0086798705', '0.005544726', '0.023498092', '-0.0125541', '-0.005033883', '-0.027118063', '0.024031363', '0.013802677', '-0.012109097', '-0.021443175', '0.009749694', '0.004701998', '0.015916448', '-0.002602269', '0.0076781693', '0.017850269', '-0.016339106', '-0.039247632', '0.01571188', '0.008233426', '0.026066754', '-0.010534683', '-0.011000217', '0.020483619', '0.0008577732', '-0.014909558', '0.010458325', '0.0070909224', '0.008478228', '-0.016805096', '0.049465768', '0.047351487', '0.006261574', '-0.021220274', '-0.011901989', '0.025851456', '0.005027802', '0.020882463', '0.021999113', '-0.02309048', '-0.027722606', '-0.02484487', '0.015008816', '-0.0016728726', '-0.030480428', '-0.021792248', '0.014460926', '0.010036806', '0.022440512', '-0.017266732', '-0.006259645', '0.013100342', '0.02421515', '-0.01813155', '0.0041014985', '0.01344584', '0.0074736234', '-0.022637108', '0.026831018', '0.0069206296', '0.023709707', '-0.029312916', '0.01945342', '-0.014748594', '-0.016484221', '-0.017032195', '0.02959361', '0.012909198', '-0.029711215', '-0.019208703', '0.031947862', '0.009280608', '-0.008604521', '0.020089107', '0.0368233', '0.030569524', '0.043665685', '-0.022013968', '-0.0042249165', '-0.0049080322', '-0.043311536', '-0.036895227', '-0.010201599', '0.015672645', '0.013483676', '0.019588713', '0.012660971', '-0.023147596', '0.0018627556', '0.003925918', '0.0040137707', '-0.03621747', '-0.01795236', '-0.0077037155', '-0.0016671272', '-0.0055358973', '-0.013231121', '0.006911193', '0.02434434', '0.026608216', '0.0101015', '0.023488415', '0.02596388', '-0.02210336', '-0.00809529', '-0.01238169', '0.0020698286', '0.017744122', '0.0045796693', '0.019283896', '0.048515238', '0.025197525', '-0.0075894943', '0.019603988', '-0.009477275', '0.0027339808', '0.027233595', '-0.024037339', '0.0033803342', '-0.021114092', '-0.009403416', '0.03663984', '0.022084765', '0.030335067', '0.019543156', '-0.011297622', '-0.027758718', '0.02834643', '0.021697175', '-0.009791835', '0.02315576', '0.025316615', '-0.023623599', '0.021211611', '0.020856224', '0.006654931', '0.0023020806', '-0.0029987907', '-0.039557718', '0.012291045', '0.0044686915', '-0.024070693', '0.01499878', '0.0023583139', '-0.04075769', '0.012926131', '-0.03253493', '-0.019839453', '-0.017805332', '0.034782503', '-0.01866505', '-0.020080889', '0.014617938']
