0, ['-0.011557628', '0.0066759163', '-0.0023287511', '-0.0008849402', '-0.020210018', '0.010612748', '-0.020883147', '-0.018602898', '-0.014747746', '-0.015424607', '-0.0059244586', '0.017306002', '0.006440526', '-0.026727961', '0.005048813', '-0.017679386', '0.012699406', '-0.012644943', '-0.008863499', '0.0074662296', '0.002913079', '-0.011697891', '-0.027901307', '0.016474761', '-0.00077648007', '-0.0012111281', '-0.0031903712', '0.0029924365', '-0.008062657', '-0.0055487994', '0.00026209585', '-0.007905883', '-2.2419457e-05', '0.0035155292', '0.01207914', '0.008919916', '-0.021575836', '-0.005886358', '-0.0030951838', '0.010005221', '0.0058338074', '-0.022886353', '0.0032325007', '0.015278854', '-0.027666861', '0.017106151', '0.001184894', '-0.01199483', '0.0032055797', '-0.027214726', '-0.021185108', '-0.01015082', '-0.0048206653', '-0.0020285412', '-0.015258054', '-0.0036089434', '0.014866581', '-0.015485191', '-0.0066304207', '0.013814684', '-0.009515987', '-0.0022430385', '0.0023137643', '-0.0012553595', '0.029305764', '0.004893026', '0.020478949', '-0.010875871', '0.014644365', '0.0059996624', '-0.011789478', '0.003471324', '-0.02259532', '-0.0360657', '0.020422632', '-0.0014834849', '0.0013049102', '0.022122173', '0.011165432', '-0.008028371', '-0.008905506', '-0.034417666', '-0.0075594434', '0.013778666', '0.045926087', '-0.01396751', '-0.026959538', '0.03270651', '-0.02733524', '-0.012891796', '0.01717685', '0.002863264', '-0.0022639264', '-0.010725694', '0.007639358', '0.008695722', '0.0036182643', '-0.0031757571', '-0.0035913067', '0.0042102505', '0.015653547', '-0.022048173', '-0.024614884', '-0.021239512', '0.012220052', '0.014618123', '0.009145776', '-0.008579028', '-0.0047627357', '0.00042083728', '0.0017148809', '-0.008300747', '0.0012520168', '-0.014344357', '0.003310581', '0.002986639', '-0.0067503643', '-0.005749348', '0.011785967', '0.052502964', '-0.027336344', '-0.0006269475', '0.018063303', '-0.010477404', '-0.028233035', '0.0023739429', '0.0005411987', '0.005335148', '0.016466537', '-0.012799059', '-0.012372371', '0.0028834434', '-0.00790751', '-0.031523477', '-0.019181931', '-0.024289567', '-0.0182908', '-0.005094985', '-0.04964666', '-0.021591676', '0.018091524', '-0.017598059', '0.019825537', '0.031670462', '0.023975426', '-0.0034979046', '-0.014141979', '-0.007885247', '0.01389301', '0.0016770182', '0.010909735', '0.0023170752', '-0.013705697', '0.006449586', '-0.016970214', '-0.018169701', '0.0025286982', '0.0036913862', '0.0122566', '0.035743933', '0.0011599954', '0.03513049', '0.0021123418', '0.009751499', '0.015535094', '0.004036805', '-0.026897432', '0.012168666', '0.021655792', '0.022838816', '-0.0027229902', '-0.016452951', '-0.00719106', '-0.0010305522', '-0.0043978523', '-0.0037669535', '0.010279175', '-0.024642786', '0.0023440998', '-0.006934033', '0.007444048', '0.012159975', '0.007954324', '-0.015981698', '0.010950461', '0.027637739', '0.0017196928', '-0.010650689', '-0.038117487', '-0.010051359', '-0.0179309', '0.023213714', '0.007610477', '-0.018210242', '-0.017654074', '0.007878291', '0.012133378', '0.008806287', '0.01711235', '0.002372527', '0.0072493004', '-0.018664349', '-0.01780734', '0.020327829', '0.007602209', '-0.011047728', '-0.002355957', '-0.013179373', '0.00071404263', '-0.017490752', '0.009531992', '-0.0004550059', '-0.0021261086', '0.003086926', '0.0023449569', '0.008326947', '-0.006740928', '-0.0018898943', '0.019035634', '0.007212595', '-0.0162902', '-0.008897627', '-0.0059208404', '-0.023023728', '-0.0050505637', '0.009249199', '-0.01734521', '0.014463094', '-0.006925221', '-0.016778555', '-0.0058342274', '0.0043504243', '-0.020620283', '-0.0024886013', '-0.03307406', '0.022543615', '-0.009744732', '0.02447264', '0.0033290668', '-0.018407265', '-0.013742222', '-0.019210435', '0.003556649', '0.019741317', '-0.006304964', '0.003402554', '0.017554902', '-0.0038609758', '-0.007936516', '0.020415641', '0.025351694', '0.013506942', '0.019566063', '-0.014739216', '0.012850808', '0.005100175', '-0.008123752', '0.011144442', '0.009460509', '-0.005387829', '-0.0037729673', '-0.00078450236', '0.029799057', '-0.014308121', '0.016873077', '0.009905183', '0.033733062', '0.0005706016', '-0.0010818503', '-0.0017231384', '0.022525039', '0.0029842795', '0.009978019', '-0.005346458', '-0.03497782', '-0.040746767', '-0.010608234', '-0.0039511914', '-0.015327588', '-0.017051494', '0.0060810116', '-0.0075490866', '-0.0017090326', '0.0005529483', '-0.0005790682', '-0.016555473', '0.0024281258', '-0.007413435', '-0.007333532', '0.0071480083', '-0.019749118', '-0.013423185', '0.010739056', '0.039298132', '0.011803386', '0.0070908167', '-0.0014529346', '-0.0061198086', '0.0038713817', '-0.0076850858', '-0.014749516', '0.02941561', '-0.00027891205', '-0.0145480195', '-0.00022219623', '-0.024068665', '0.016344871', '0.014954292', '0.019134114', '0.02056625', '-0.0033226484', '-0.0008758512', '-0.020292686', '-0.0005982268', '0.019839395', '-0.0024977897', '-0.012584208', '-0.009679549', '-0.0019587132', '0.0006641041', '0.023364143', '0.010268249', '0.014386381', '0.016405042', '-0.021754734', '-0.0043394', '-0.026007937', '0.0072168577', '0.0013063883', '0.009872974', '-0.038626373', '0.010476707', '-0.012115032', '-0.015485372', '0.013018199', '0.01903059', '0.0009947738', '0.015764918', '0.0029648454', '-0.0031019358', '-0.00071984064', '0.005537612', '0.011136371', '-0.0066243047', '-0.0063266195', '0.009987807', '0.0034331984', '0.0026740502', '-0.0101437885', '-0.012273046', '-0.027699184', '0.009668417', '0.006634729', '-0.0034244063', '0.025207166', '0.012767442', '0.008279851', '-0.010382518', '-0.01639158', '-0.01869193', '-0.0030169256', '0.0004618751', '-0.03401804', '-0.01150599', '0.012299193', '0.013169983', '-0.0068580676', '-0.007972488', '-0.015158839', '-0.0045381924', '0.008717905', '0.012355936', '-0.005407798', '0.02831648', '0.0024347943', '0.008711449', '0.0022704888', '-0.007302356', '0.027497737', '-0.015637996', '-0.003997223', '-0.006665905', '0.022336554', '0.025721464', '0.00019926477', '-0.031989146', '0.008302894', '-0.018090416', '0.024750387', '0.02125921', '-0.03166788', '0.017864123', '-0.0074377446', '-0.00043037088', '0.016792364', '0.0015803301', '0.020342356', '-0.008565322', '0.0015653358', '-0.009413845', '0.018923005', '0.011410846', '-0.0044199126', '0.028926056', '-0.0086551905', '0.011199299', '-0.0075913738', '0.018633772', '-0.015496258', '-0.014153335', '-0.00021295135', '0.01814747', '-0.0039351718', '0.006064559', '0.0060191057', '-0.0033586682', '-0.0056033446', '0.037322406', '-0.019217081', '-0.032679264', '0.00010186766', '-0.0026105233', '-0.027291277', '-0.0028650167', '0.008167581', '-0.023534618', '0.033829', '0.0103413', '0.030229507', '-0.00650565', '-0.01639431', '0.005268156', '0.014209752', '0.031227315', '0.020426052', '-0.01980409', '0.0050432244', '0.0018755329', '-0.0034163205', '-0.01267093', '-0.0277169', '-0.016871044', '-0.009269084', '-0.0071772123', '0.00086459226', '-0.012075771', '-0.002232674', '-0.03909021', '-0.00064695167', '0.0031592073', '0.00077000144', '-0.0018541712', '0.02316923', '0.0022313981', '-0.020377573', '-0.013502144', '0.004453264', '-0.003722261', '0.019032532', '-0.014851791', '-0.024714295', '-0.0037376327', '0.0056949835', '-0.0028071464', '0.016033795', '-0.013388569', '-0.023252485', '0.00446026', '0.019576719', '-0.0008293108', '0.019357944', '0.0006380261', '0.023447968', '0.022257237', '0.012004107', '0.029941296', '-0.0014308466', '-0.037451148', '0.0099432925', '0.014141102', '0.034202322', '-0.03585037', '0.011290225', '0.011175654', '-0.018841438', '-0.0095278025', '0.0029858083', '-0.007211774', '-0.034804042', '0.025651386', '-0.021747667', '0.010278572', '-0.00614711', '0.003163819', '0.015440818', '0.012265169', '-0.018981162', '0.009563223', '0.021998454', '0.004747679', '-0.0053993072', '-0.010584824', '-0.027735347', '0.016263522', '0.0015547774', '0.0045445682', '-0.03916076', '0.0014982962', '-0.0151569685', '0.0075396956', '0.031244446', '0.019420447', '0.0005041011', '-0.0028940872', '-0.0060425634', '0.006705103', '-0.03628165', '0.012556019', '-0.0073288577', '0.002572866', '0.0021246169', '0.0009165363', '0.020077398', '-0.030124221', '-0.0073983185', '-0.0055787303', '0.008294921', '-0.0032975501', '-0.0030007132', '0.0014360885', '-0.033005916', '-0.021519061', '0.015642446', '-0.0030117303', '3.89536e-05', '0.0015600228', '0.0034959891', '0.012481774', '-0.01109379', '-0.006768497', '-0.010452992', '-0.004291943', '0.009422846', '0.024652679', '0.018068139', '0.017902615', '0.0053470344', '0.014459556', '0.0071357624', '0.0039974917', '0.0026022685', '-0.011578905', '0.0069201966', '0.031389803', '0.033147898', '-0.027108714', '-0.0023130144', '0.010524535', '0.01305963', '0.01078622', '0.026188143', '0.010465158', '0.007063787', '-0.02262906', '-0.0036929843', '-0.0009584634', '-0.0076473677', '-0.015951453', '0.0028633815', '0.0032359594', '0.009431081', '-0.01723057', '-0.013945734', '0.019394817', '0.01073322', '0.007307877', '0.0010235634', '0.0006247908', '0.0011850428', '-0.021239325', '-0.012758893', '-0.008444095', '0.0007548771', '0.00019289284', '0.0015340048', '0.01265405', '0.041495357', '0.012321349', '-0.008672737', '-0.01226926', '0.0022776441', '0.023732213', '0.017022619', '-0.0014850898', '-0.021141974', '-0.025171176', '0.021727473', '0.019074392', '0.0030586063', '0.0036805298', '0.021862386', '0.0064637153', '0.028220242', '0.009209121', '0.006933066', '0.0063099856', '-0.0062633655', '0.0039681424', '-0.025173115', '0.024277609', '0.0080675315', '0.0067856475', '0.0146761425', '0.016010536', '0.00501114', '0.0038635586', '-0.022591667', '0.0122667905', '0.01646701', '0.011788061', '0.039276328', '0.024253944', '-0.005374031', '0.0042761266', '0.0014724358', '-0.00041201292', '0.02157807', '0.020889932', '-0.020959577', '-0.001894466', '0.0055899504', '-0.006305288', '-0.016213845', '0.011021351', '0.026283892', '0.02208068', '-0.009992332', '0.0058113225', '0.015218424', '0.0064232806', '-0.013286817', '0.0074809296', '-0.002414537', '0.03263655', '0.017115008', '-0.005788241', '0.015992036', '0.006685319', '-0.01995904', '0.008381555', '-0.009284483', '0.0009227015', '0.001467738', '-0.01625639', '-0.0017022738', '-0.015721282', '0.023369601', '-0.00050987204', '-0.014991467', '-0.026082365', '0.00066192885', '-0.0006865776', '-0.01796711', '-0.0118250055', '-0.008664937', '-0.008014109', '0.0153250415', '0.025646865', '-0.024483545', '-0.01061196', '0.005757534', '0.0038600098', '0.014626771', '-0.0068919943', '0.016540844', '0.0038762176', '0.043909997', '-0.010474944', '0.0016728821', '-0.019449428', '0.008806556', '0.012604483', '-0.024390435', '0.0010550977', '0.0071067433', '-0.0036966298', '0.026443746', '0.004797488', '0.000123628', '-0.023641346', '-0.0140032675', '-0.017509952', '-0.016829828', '-0.012393503', '0.03265192', '0.030887425', '-0.012141941', '0.009200837', '-0.021601789', '0.0025541687', '-0.023267573', '-0.0068161865', '0.011904327', '0.016355', '-0.01652292', '-0.002370023', '0.0031902532', '-0.00086888444', '0.027439957', '0.014545318', '-0.016685728', '0.006777501', '-0.017135596', '-0.015794879', '0.007511286', '-0.032070022', '0.013600508', '0.003965283', '-0.0031456887', '-0.0021378228', '0.0006836439', '-0.008760518', '0.023685085', '0.011596372', '-0.0027858962', '-0.012969026', '-0.002453389', '0.0021707718', '0.017182471', '-0.0010151158', '-0.008825812', '-0.018329252', '-0.00047759287', '-0.012156398', '0.012400543', '-0.013262176', '0.0035193344', '-0.027772019', '0.004458319', '0.027903387', '-0.0104231555', '0.011730586', '-0.00619667', '0.024288608', '-0.007850745', '0.016459983', '-0.009542541', '-0.01668003', '0.006813124', '-0.0012878745', '0.021779358', '0.019080518', '-0.00069198606', '-0.026979132', '-0.0016146004', '-0.0066145705', '-0.030675756', '0.006779631', '-0.0011424862', '-0.0034936015', '-0.031800557', '-0.02720139', '-0.0068064397', '0.003209133', '-0.00043655626', '0.0058688545', '-0.009494064', '0.014212625']
1, ['0.01090063', '-0.0055711037', '-0.016185526', '0.0013460964', '-0.017825708', '-0.0016203207', '-0.012348494', '-0.009081227', '-0.011307085', '-0.027673675', '-0.018854737', '0.02482994', '-0.018474111', '-0.0080836285', '0.004752017', '0.0114518935', '0.017706195', '0.008593393', '0.0024639294', '0.011275248', '0.005550135', '-0.013717537', '-0.003841535', '0.007032129', '-0.01876272', '0.014792383', '0.00689071', '-0.01936683', '-0.0076584066', '0.025627228', '-0.019865258', '-0.016707', '0.018591637', '-0.0027341533', '-0.008259803', '-0.008469019', '-0.02159365', '-0.010364488', '0.0058961585', '0.004408108', '-0.011921574', '-0.016685897', '0.002332118', '-0.0044559552', '-0.023034861', '1.3647156e-05', '-0.013043084', '-0.0149605125', '0.023487993', '-0.021824373', '-0.03419283', '-0.014595751', '0.0019455665', '-0.023976078', '-0.029324533', '0.0061984714', '0.013973428', '-0.007930228', '0.0044771186', '0.042721696', '-0.022368645', '-0.015019182', '-0.01134514', '0.00041426907', '0.019848736', '0.009533243', '0.0070203003', '-0.043834977', '0.011204369', '0.0454714', '-0.016041702', '0.014085901', '-0.01768981', '-0.00863641', '0.027438007', '-0.028171545', '0.021634193', '0.011126275', '-0.008943045', '-0.0007152282', '0.0064869397', '-0.006833168', '-0.0007497889', '0.00552009', '-0.0041283052', '0.020426152', '-0.03392487', '0.023238108', '-0.023816558', '9.3744544e-05', '-0.01420192', '0.015141802', '0.009439687', '-0.009753474', '-0.022490818', '0.010810519', '-0.00022391837', '-0.0023897619', '-0.017902175', '0.012682011', '0.0028306833', '0.005903202', '-0.022614049', '0.011562771', '-0.0037252456', '0.009831756', '-0.012962635', '-0.008890686', '-0.027967356', '0.009498418', '-0.009189', '0.00802033', '0.023326896', '-0.018280754', '-0.009256269', '0.01836276', '0.0010758406', '0.018788137', '0.0070939446', '-0.004365364', '0.014348733', '-0.015497671', '-0.001456148', '0.00040535908', '0.015691143', '0.013541696', '0.0066790553', '-0.01421644', '0.011711365', '-0.018590467', '-0.005479824', '0.017464051', '0.00026534754', '-0.005983128', '-0.015499715', '0.008464367', '0.009135816', '-0.0069274353', '-0.026256545', '-0.012244796', '0.011141937', '0.011294065', '0.02532813', '-0.01718447', '0.042634867', '-0.0010975015', '-0.031166213', '0.0045677074', '0.0049001495', '-0.0022052708', '0.00899583', '-0.016362336', '-0.031612128', '-0.004605629', '-0.017820237', '-0.016336363', '-0.018438531', '-0.012460034', '0.006900244', '-0.002482996', '-0.0043356004', '0.023689365', '-0.014124328', '0.0020317559', '-0.0053828945', '0.023087611', '-0.027745023', '0.010658453', '0.015328791', '0.0034299134', '0.0033431102', '-0.011770752', '0.003005386', '0.024151413', '-0.022453489', '-0.009697245', '0.008313703', '0.0004489866', '0.0050095394', '-0.011111842', '-0.010989171', '-0.01285976', '0.008862152', '-0.00046929665', '-0.0010344149', '-0.014512644', '0.015482856', '-0.0004881557', '0.005929244', '0.012886312', '-0.017867448', '0.036440313', '-0.01974257', '-0.0029528535', '0.006110881', '-0.008145292', '0.03347652', '-0.0062550744', '0.023497952', '0.02487041', '-0.010151617', '-0.0034056008', '-0.011146732', '0.0030309157', '0.0045924387', '-0.013477619', '0.00036468203', '-0.023005126', '-0.0058950325', '-0.01570352', '0.0425037', '-0.0035273016', '0.008560959', '0.0041352483', '-0.011004522', '-0.010443951', '0.016247666', '0.0016335219', '0.01865832', '0.0041605686', '0.0041442174', '0.00842672', '-0.004472109', '-0.0073744743', '0.004099881', '0.01602327', '-0.013939123', '0.010450139', '-0.01418201', '0.0094429925', '0.0127089955', '0.012270809', '-0.019223975', '0.03474692', '0.0018572346', '0.0020816897', '-0.016896171', '0.04357138', '-0.0031324339', '-0.016791461', '0.010004767', '0.0046167173', '0.01850397', '-0.010871439', '-0.02406752', '0.011547684', '-0.012975213', '-0.014509126', '0.0016798448', '0.013680188', '0.027301388', '0.0039062013', '0.009802767', '0.00065376295', '0.010271823', '-0.021759622', '0.0052077114', '0.0074167056', '0.0038671514', '-0.004013013', '0.00184904', '0.007850582', '0.019504705', '-0.005849073', '0.01926156', '0.0068992036', '0.020385016', '-0.014844151', '-0.0026360366', '-0.015414424', '0.0141759645', '-0.010561046', '-0.013099745', '-0.0058887354', '-0.009515521', '-0.014721117', '-0.0021869373', '-0.004996919', '0.010775325', '0.014453852', '-0.019856855', '-0.022798276', '0.006497497', '-0.006790189', '0.0129154995', '0.008273316', '0.00015257242', '0.027015222', '0.0023354935', '0.0040240227', '-0.014657688', '-0.021310477', '-0.012229523', '-0.008936434', '-0.0017328607', '-0.011738447', '-0.01485933', '0.019948447', '-0.02083116', '0.017847082', '-0.018678531', '0.0020497635', '0.019711299', '0.007611063', '-0.022604441', '-0.014658126', '-0.011580057', '-0.00859972', '0.015522997', '-0.0033142345', '0.0068018585', '0.008274079', '0.01379642', '0.0134692015', '0.018335132', '-0.0013194539', '-0.0060088807', '-0.014573944', '-0.011731719', '0.016856879', '0.013426769', '0.044958327', '-0.014354572', '0.027007628', '0.01786583', '-0.011882914', '-0.021905463', '-0.014685948', '-0.00823074', '0.012779312', '-0.0010474968', '0.024310766', '0.004908063', '-0.015280598', '0.019472152', '0.0013884184', '0.001413701', '-0.023644056', '-0.035783663', '0.015926836', '-0.0051908973', '-0.002944799', '-0.041430123', '0.009264441', '-0.016692568', '0.03087111', '-0.022563912', '-0.011060531', '-0.02320266', '-0.007976818', '0.004322155', '-0.0057940553', '-0.0058703343', '0.0074751847', '0.027152834', '0.0057731373', '0.013083117', '-0.0060221055', '0.005124729', '-0.006820574', '0.013470176', '-0.0012157178', '-0.03193299', '0.0022754732', '0.00047739153', '0.014474364', '0.005395226', '0.010617264', '0.004789619', '0.015674429', '0.0025698836', '-0.003071068', '0.0018729393', '0.01859166', '0.0019421838', '0.010988029', '0.0038440416', '-0.00388197', '0.025329774', '-0.012266357', '0.0002108353', '-0.00043489697', '0.0001978298', '0.010268481', '0.007389182', '-0.0134335235', '-0.0018387986', '0.0047112084', '-0.021003725', '0.023940923', '-0.016282618', '0.017846936', '-0.008581699', '-0.0035481376', '0.018516198', '0.004709533', '-4.586366e-05', '0.026208024', '-0.020266261', '0.00047102408', '0.0037584766', '0.024751747', '0.0027922958', '-0.009357209', '-0.0017321531', '-0.008193564', '-0.004227568', '-0.019365657', '-0.01245851', '-0.014684928', '0.012771392', '0.018371275', '-0.013287652', '-0.00082437723', '0.01112062', '-0.018616121', '0.011409568', '0.012135775', '-0.0008020239', '-0.012398545', '0.010488834', '0.013115089', '-0.01627359', '0.032135576', '-0.001914533', '0.00653631', '0.013963923', '0.001824801', '0.019201618', '-0.023498192', '-0.016472902', '0.007803631', '-0.030995129', '-0.006465597', '0.026779316', '-0.00038648245', '0.00489994', '0.0017820885', '-0.0013419515', '-0.01149011', '-0.0140471235', '-0.00790231', '-0.011692029', '0.0073168604', '-0.006970602', '0.023661729', '-0.0015388146', '-0.026604531', '-0.012149834', '0.0066161933', '-0.0061804825', '0.0012663628', '-0.0070619965', '0.012164758', '-0.018600473', '-0.026876451', '-0.0025466164', '0.027580354', '0.0025171058', '-0.019400759', '-0.016487163', '0.008378355', '-0.008184259', '-0.01433192', '0.019224543', '-0.009514491', '-0.023700416', '-0.0074553248', '-0.015096425', '0.024618754', '0.0063866847', '-0.015096973', '-0.0053629084', '-0.010553863', '-0.022720736', '-0.004360657', '0.025151076', '0.030238664', '-0.005796298', '0.010432581', '0.018126285', '-0.026298268', '0.0019992532', '0.0071351677', '0.01254086', '0.009705425', '0.013364664', '-0.019427931', '0.00021005006', '0.0006994543', '-0.012166798', '0.011840376', '-0.014977537', '-0.019303389', '0.0026271138', '-0.00069713197', '-0.018773999', '0.009625641', '0.008438297', '0.030823916', '0.00040708945', '0.017529108', '-0.018350244', '0.022807948', '0.009832469', '0.028245965', '0.007907381', '0.0045234407', '-0.015235122', '-0.009724893', '-0.0025877247', '0.015027961', '-0.0014150768', '-0.0021128235', '0.0030999398', '0.0068436903', '-0.048026048', '0.007457763', '0.00051280606', '-0.021241693', '-0.008530038', '0.022890473', '0.0092245545', '0.013045485', '-0.021714164', '-0.005397229', '0.016466808', '0.005638666', '-0.0021539917', '-0.01926154', '-0.034342565', '-0.015707707', '0.009376118', '0.013784879', '0.011047578', '0.0043745977', '-0.00620747', '-0.003970963', '-0.012648732', '-0.017042028', '-0.018167714', '-0.0077579385', '0.0055373036', '0.03441724', '-0.010344024', '-0.0045336164', '0.01080684', '0.016311552', '0.029167235', '-0.022254912', '0.012456742', '-0.01351139', '0.02078038', '0.018213894', '0.021950027', '0.00891501', '0.008471248', '0.00036315952', '-0.022015054', '0.02340699', '0.024213357', '0.008449768', '0.016040033', '-0.0075238664', '0.017325943', '0.011732031', '0.0029484967', '-0.014908262', '-0.0037973814', '-0.0035856937', '0.0013366923', '-0.008260938', '-0.04576071', '0.0077466522', '-0.00012221225', '-0.020422103', '-0.0034331912', '-0.008154183', '0.016777733', '0.0070478297', '-0.0337604', '0.008491011', '0.0036112214', '-0.007179027', '-0.008808083', '-0.00917414', '0.020630324', '-0.0012823893', '-0.0038998704', '0.0021861691', '0.011510949', '0.0005926309', '-0.021362066', '-0.022414792', '0.0007188945', '0.018899791', '0.004554599', '0.033664647', '0.0062246104', '0.022026388', '-0.011138395', '-0.008720139', '0.02183625', '0.030542275', '0.003751525', '0.005107909', '-0.022440773', '-0.01475447', '-0.016631896', '0.011965773', '0.0038593067', '-0.004560529', '-0.020034332', '0.0046240278', '0.0024142563', '0.0041088383', '0.017663622', '-0.0014472834', '0.014566761', '0.0046866187', '0.044182826', '-0.0027074693', '-0.016405886', '0.0029485074', '0.009942296', '-0.015181476', '0.011083699', '0.016322836', '-0.008023096', '-0.02669973', '0.009147686', '-0.038392674', '-0.00052988384', '0.023362687', '-0.034612466', '0.0184049', '-0.02848194', '-0.00255313', '0.009960866', '0.008172449', '-0.0032453728', '0.01328857', '0.017086688', '0.0065611466', '0.019832745', '-0.002491138', '0.012796478', '-0.0029271336', '-0.0006712253', '-0.004657732', '0.004011504', '-0.013106934', '-0.0009173418', '0.012110986', '0.0062605', '-0.022718199', '0.029328635', '0.00066086906', '-0.0056422446', '-0.032427732', '-0.0014820534', '0.009594763', '0.019756239', '0.024220737', '-0.0059292205', '-0.01170842', '-0.004033175', '0.02936474', '-0.0135371685', '0.0097172875', '0.022246968', '0.018306158', '0.0028653273', '-0.0042171655', '-0.00034107265', '0.025441017', '-0.0023610848', '0.0037057474', '0.002247425', '-0.017347611', '0.0027881344', '-0.039896585', '-0.0045166276', '0.03514846', '0.023058414', '0.020470101', '-0.022747075', '-0.017400436', '0.0039630546', '-0.02414789', '0.001841589', '-0.009315941', '0.013352398', '0.009536769', '0.022145282', '-0.025824742', '0.0121931145', '-0.0027211325', '-0.015271652', '-0.01362516', '-0.005927157', '0.00086642697', '-0.019212132', '0.008614765', '0.0004895324', '-0.017474035', '-0.0050570155', '-8.634201e-05', '0.0021952947', '0.006181329', '0.008367482', '-0.0022480125', '-0.01110209', '0.027008492', '-0.01589705', '-0.018585764', '-0.014941916', '-0.020385094', '-0.008834264', '0.0016686062', '-0.0040533645', '-0.0063011944', '0.0049967994', '-0.0016767693', '-0.0055841017', '0.0072248755', '0.008046283', '-0.004577383', '0.022127463', '0.017899472', '-0.0016943085', '-0.019447686', '0.008589111', '-0.0038281942', '0.0027405922', '0.013659337', '0.015368633', '0.006377168', '-0.019448766', '0.030055242', '0.026779003', '-0.0069008954', '0.0056352033', '-0.008222958', '0.022156226', '0.0056752083', '-0.0077088806', '-0.0053770216', '0.03860196', '-0.014702485', '-0.015284567', '0.01901426', '-0.02846052', '0.0089380555', '-0.011714348', '-0.0037766665', '-0.027995756', '0.009576857', '-0.013009403', '0.018405814', '0.02022074', '0.0005893541', '-0.006524925', '0.009346476', '0.012495691', '-0.012959197', '-0.018932438', '-0.01579491']
2, ['-0.007294776', '-0.01867846', '0.004803736', '0.010339102', '0.006926938', '-0.022131324', '-0.013745961', '-0.003139734', '-0.01873963', '-0.025943696', '-0.031283174', '-0.019780608', '0.033328924', '-0.013302964', '-0.04540624', '0.01809144', '-0.00031981478', '-0.018043132', '0.01956307', '0.018728437', '-0.00033911693', '-0.013332722', '0.02035298', '0.018442562', '0.00061665836', '0.011844889', '0.013185407', '-0.0068958555', '-0.005084095', '0.010301695', '-0.0045678816', '0.044971764', '0.01772272', '0.01349807', '0.011485637', '-0.0025212148', '-0.021344764', '-0.0029095989', '-0.0013318736', '0.0060325563', '0.01734163', '-0.00396597', '0.013561789', '0.011927635', '-0.016726723', '0.01704504', '0.0007977651', '0.0050977343', '0.008411386', '-0.018393625', '-0.04236981', '0.00012080643', '0.0005226374', '-0.008865337', '0.003446626', '-0.012201295', '0.009127868', '0.019014204', '0.0010335294', '-0.010279062', '0.010283575', '0.0050753867', '-0.0025553335', '0.0073087043', '-0.03347749', '-0.0006448912', '-0.015882762', '0.028340328', '-0.031447988', '0.027062245', '-0.015774935', '-0.0037974839', '0.0028891775', '-0.048606906', '0.0055355583', '-0.0047965324', '0.006345187', '-0.014656435', '-0.00310242', '-0.026774604', '0.0013975198', '-0.009215452', '0.004771388', '-0.047045905', '-0.009975098', '0.017619591', '-0.034499533', '-0.034750007', '0.0071511315', '-0.015748119', '0.029165301', '0.0052147815', '-0.027287353', '0.0037566656', '-0.028417703', '0.017265031', '-0.015661532', '0.013460286', '0.0034902978', '0.0121758785', '0.025080187', '-0.008699181', '0.008829497', '0.04377264', '-0.011786825', '-0.0012924811', '0.028988477', '-0.0020221227', '-0.024388311', '-0.010588601', '-0.028141018', '-0.008014157', '0.0068432502', '0.01978488', '0.0220623', '0.019083181', '0.024543053', '-0.014665661', '0.019652417', '0.03339341', '0.034555618', '0.0063768933', '-0.023410475', '-0.006059803', '0.010696249', '0.004502096', '0.031597346', '0.002521868', '0.025861902', '-0.0100463275', '-0.03240885', '0.005143486', '-0.023186142', '-0.023475146', '0.0074203387', '-0.015375247', '-0.015452427', '-0.001112036', '0.047864556', '-0.029583266', '0.0058965283', '0.00018415155', '0.004897762', '-0.027654074', '0.0052604335', '0.031108325', '-0.028599344', '0.026354622', '0.022699038', '-0.015469635', '-0.02220193', '-0.027400963', '0.022334363', '-0.013819574', '0.023304235', '-0.0078094704', '-0.008230612', '0.020292891', '0.00142603', '0.019763606', '0.0021374987', '-0.006457287', '0.020315561', '-0.015608627', '0.010065274', '-0.022602268', '-0.023297245', '0.013543031', '-0.011724781', '-0.045397945', '-0.017030446', '-0.022779528', '-0.005310795', '-0.008031875', '0.0013632183', '-0.037219387', '0.024315532', '-0.011763097', '0.0152516365', '-0.008546431', '-0.0024475288', '0.035517372', '0.010430411', '-0.03770717', '-0.00095103163', '-0.005283085', '0.004679611', '0.022723155', '0.021562038', '-0.01564512', '-0.0058733947', '0.0058128247', '-0.012932467', '-0.029493267', '-0.00021197008', '0.007344286', '0.024667775', '0.031006997', '-0.005070622', '0.0032556867', '-0.024450632', '-0.021654025', '0.015615709', '-0.022087209', '0.035561193', '-0.0172945', '-0.0024322006', '-0.026773278', '0.019560415', '0.015468686', '-0.0015248987', '0.010183705', '0.032271598', '0.0129478555', '-0.008600577', '-0.002431766', '0.020487867', '-0.011687761', '-0.010439978', '-0.019642476', '-0.006664308', '-0.01577528', '-0.0075163664', '0.01818349', '-0.017280519', '0.031422984', '-0.030480275', '-0.022211244', '0.0023560238', '0.0060926406', '-0.00607273', '0.014064264', '-0.010215634', '0.010160082', '-0.026740713', '-0.0061360146', '0.03597811', '0.02127349', '-0.0014489117', '-0.0021484345', '0.0087007', '-0.015359948', '-0.0040099034', '0.015511187', '-0.041764095', '0.021863211', '0.0022472693', '-0.030406807', '0.015119568', '-0.012247292', '0.0017582165', '0.0045911456', '0.024459416', '-0.0061163167', '0.019630874', '-0.015932448', '0.00067462795', '0.022588871', '0.007681818', '-0.019644365', '0.03328445', '-0.023137353', '0.0025946414', '0.012959172', '-0.0026547858', '-0.0109876795', '-0.03617034', '-0.024845067', '0.020143347', '-0.02534806', '0.004287814', '-0.026489839', '0.0006151252', '0.027715879', '-7.877472e-05', '-0.02430825', '0.000652457', '-0.04349122', '0.009682774', '-0.01136579', '0.0025624938', '2.0911648e-05', '-0.044267643', '-0.030996598', '-0.0049715512', '-0.010313118', '0.0070486674', '-0.010789371', '-0.011819606', '-0.0020419548', '-0.017180104', '-0.009031084', '-0.008148128', '0.021469245', '-0.029466487', '-0.003142918', '0.012327201', '0.018018119', '-0.0078071067', '0.0008496946', '-0.00026422902', '-0.01674282', '0.002478412', '-0.021405088', '0.0034470109', '0.01680921', '0.010070238', '-0.032003507', '-0.0022152036', '0.011380847', '0.045724694', '0.03395068', '-0.0007715863', '-0.016653052', '0.013685177', '0.0019504369', '0.0036390165', '0.0066053867', '-0.035697367', '0.015577808', '0.03018081', '-0.01215455', '0.0010043659', '0.015635425', '-0.012941464', '-0.001531803', '0.013126395', '-0.004086415', '0.013886206', '-0.01882227', '0.018241977', '0.0020582315', '0.014569141', '-0.014694498', '0.02023092', '0.015687384', '0.002333886', '-0.02385959', '-0.03682383', '-0.008841207', '-0.018250788', '0.0051418645', '-0.035428483', '0.02128034', '-0.009170461', '0.013849949', '-0.0047141607', '-0.020466892', '-0.0022050762', '-0.008090272', '-0.0035101983', '-0.011768583', '0.01740916', '-0.03030643', '0.011779625', '-0.0007781003', '0.00089497707', '0.0126586845', '-0.02813983', '-0.0034834088', '0.005140944', '-0.0018607785', '-0.024115963', '0.032521322', '0.022960681', '0.034375146', '0.005872319', '-0.008324902', '0.010483874', '-0.00774441', '-0.018078808', '-0.01554689', '0.017486427', '-0.0303881', '0.0025286404', '0.0008821145', '-0.0022065616', '-0.014853178', '0.008101195', '-0.027040018', '-0.025866326', '-0.0020829462', '-0.0063827722', '0.032416355', '-0.010696391', '-0.014120739', '0.0020252916', '0.023904352', '0.018356659', '0.033061855', '-0.011758795', '-0.018346082', '-0.009961283', '-0.022019684', '0.0144113945', '-0.0037154208', '-0.02028663', '-0.0056319083', '-0.024345702', '-0.008381611', '-0.03476219', '0.02159581', '-0.00056799006', '0.019812003', '0.027578015', '0.018114153', '-0.014860747', '0.009196349', '-0.00705674', '0.020467436', '-0.014630351', '-0.019687641', '-0.015437713', '0.014307114', '0.038706634', '-0.002873162', '0.00840162', '0.0072764126', '-0.01818663', '0.011283937', '0.005524829', '-0.0072684535', '-0.00028010254', '0.010707154', '-0.011182747', '-0.01357815', '-0.005537842', '0.0042851055', '0.014990779', '0.0064348807', '-0.016746856', '-0.008614917', '-0.028729184', '0.0012752663', '0.0019400899', '-0.02362112', '0.015801005', '-0.023187185', '-0.00994946', '-0.009716865', '-0.054932114', '0.010370109', '-0.00915886', '-0.034174994', '-0.012849864', '-0.010583444', '-0.011009145', '0.019055016', '0.020085411', '-0.019928275', '0.007831032', '0.022943947', '-0.021015583', '-0.001985345', '0.007900924', '-0.011196256', '0.026300153', '0.0037823084', '-0.014178521', '-0.010087428', '-0.018980911', '-0.030101148', '0.040843673', '0.00820138', '0.0113002155', '-0.061895456', '-0.015750237', '0.013656555', '0.014193258', '0.029065406', '0.006227421', '0.0059222057', '0.0133971', '-0.007167144', '-0.0019399077', '0.029603831', '0.011180598', '0.01197039', '0.00032504293', '0.017561559', '-0.042257164', '0.02769166', '-0.005451492', '0.016670419', '0.0041825417', '-0.0022497557', '-0.018548083', '0.006923308', '0.008568069', '0.023721026', '-0.0015258308', '0.009377809', '-0.026996335', '0.0056306478', '0.011405748', '-0.010108242', '-0.018595185', '-0.018127365', '-0.0013506362', '0.019809226', '-0.021558952', '0.0255385', '4.260765e-06', '0.022707405', '-0.029130042', '0.0032143113', '0.01250733', '0.017689064', '-0.005121378', '0.048079237', '-0.020776458', '0.024793355', '-0.02206965', '-0.016455293', '-0.0005448065', '0.005174266', '0.0055319937', '0.030077634', '0.01660457', '-0.0060775513', '0.007625466', '-0.010720329', '-0.025039596', '0.023611037', '0.034209304', '0.007217002', '0.020658879', '0.008431421', '-0.020490775', '-0.026711255', '-0.011308402', '-0.017807435', '-0.014812796', '-0.00310618', '-0.008794304', '0.017068585', '0.014344577', '0.001677216', '-0.007953694', '0.0050747646', '-0.008331196', '0.0070212698', '-0.02723492', '0.0058796816', '0.010036601', '0.022174126', '-0.0060560736', '0.016894678', '-0.0050134603', '-0.043744843', '0.0049673906', '-0.009087398', '0.018326363', '-0.00975511', '0.020425292', '0.02277195', '0.015520686', '-0.0028873181', '-0.033534992', '0.03752295', '0.0038130002', '-0.03145435', '-0.022712506', '-0.010761347', '-0.0067858575', '0.02130946', '-0.0053346213', '0.00213929', '0.0076822815', '0.021746995', '-0.004557447', '-0.013829566', '-0.038285367', '-0.030979224', '-0.031699196', '0.0059660557', '-0.027944056', '0.023852702', '0.023579028', '0.007683829', '0.0062214485', '0.018617913', '0.013834345', '0.009834186', '-0.018731885', '0.008754756', '0.024051132', '-0.040588386', '0.0073631024', '0.00848603', '0.0003435726', '-0.0069028772', '-0.015768131', '0.00017844887', '0.000831525', '-0.011409704', '-0.0077106277', '0.014362905', '-0.01485163', '-0.006861274', '-0.0077359', '-0.009429546', '-0.005598238', '0.0062872157', '0.0017099561', '-0.004673881', '0.02326086', '-0.0039197947', '-0.048093434', '-5.3233005e-05', '0.0041921223', '-0.0056675225', '-0.00997128', '0.024340486', '-0.011592326', '0.03088158', '0.026188409', '0.010289173', '-0.022323212', '0.013162909', '0.0173347', '0.0070284484', '-0.006806286', '-0.011340917', '0.029697524', '-0.017582847', '0.0057219816', '0.026548065', '-0.029565943', '-0.008564955', '-0.022084063', '-0.0022789745', '-0.013923875', '0.003651543', '0.012649529', '8.171868e-05', '-0.014313654', '-0.005161978', '0.0055098413', '0.004109335', '0.017433219', '0.026954917', '0.01901533', '0.04367288', '-0.0068548117', '-0.027371453', '-0.017064914', '0.0048541855', '0.014745698', '0.012089857', '0.024526248', '0.010125261', '0.024494527', '-0.0023295642', '0.0044042366', '-0.013456281', '0.0029021173', '0.0074001583', '0.0061262134', '0.028288227', '0.0049567637', '0.032598644', '0.009344253', '0.027355898', '-0.01840445', '0.0028280527', '0.0013549336', '-0.016200278', '-0.029327514', '-0.014264461', '0.03438495', '0.025155619', '-0.020402098', '0.02635521', '-0.004554984', '0.005986782', '0.006942334', '0.0006251137', '0.03253443', '-0.04833567', '-0.010635452', '-0.038923092', '-0.0040564653', '0.011478694', '0.00406195', '0.03260891', '-0.049426734', '-0.025746265', '0.015877962', '-0.006717924', '0.007425794', '-0.026064709', '-0.035528883', '-0.0021732205', '0.003981041', '-0.008417365', '-0.001382563', '-0.015501665', '-0.026134277', '-0.010485031', '0.013494619', '0.011700299', '-0.0037969651', '0.011873181', '0.0028656505', '0.004322557', '0.0147202965', '-0.015856836', '0.017492127', '0.10709196', '0.013818791', '0.0017776097', '-0.009491572', '0.017235076', '-0.013267077', '-0.004035069', '0.014480449', '-0.012139302', '0.009133793', '0.01357495', '0.0024239954', '0.02347939', '0.006780825', '-0.0120432405', '0.008195638', '0.00363029', '-0.016092423', '0.013210069', '0.024843829', '0.021268914', '0.020941546', '-0.013277891', '0.005395264', '0.0029947038', '0.023079446', '0.003040233', '-0.010641162', '0.015507484', '0.008744617', '-0.009304758', '0.017433453', '-0.0029430462', '0.0031669042', '0.006125291', '0.0002407273', '0.034113992', '0.0049771178', '0.010135555', '0.0036241582', '-0.0008856698', '0.017239045', '0.03483105', '-0.006540724', '0.004199158', '-0.013833283', '-0.01211038', '-0.021361966', '-0.043321762', '0.0057302886', '0.013770723', '-0.0029487298', '-0.0025861617', '-0.006868539', '0.0050094537', '-0.0020281016', '-0.035740726', '-0.00877236', '0.01908029']
3, ['-0.01864724', '-0.011679269', '0.007087402', '-0.0057766857', '0.0127411885', '0.002431769', '-0.011021379', '0.01069963', '-0.01501201', '0.0011410759', '-0.019712599', '0.019736297', '-0.028929468', '0.0056095216', '0.012724274', '-0.014735447', '0.040044453', '-0.005292525', '0.014934702', '-0.0010731394', '0.0033796856', '-0.0039145485', '0.004712753', '0.020398775', '-0.012464564', '-0.011763988', '-0.0019953402', '0.0063671633', '0.019719638', '0.019961277', '-0.014181661', '0.0037247206', '0.013458188', '0.010436463', '0.0109049445', '0.018579973', '-0.021967491', '-0.009496727', '0.023980167', '0.010825536', '-0.0026095859', '-0.036302283', '0.027858075', '0.0067683607', '0.00011728016', '0.015159093', '-0.022117821', '-0.005673719', '-0.0015495446', '-0.0133585585', '-0.015949748', '-0.0016574897', '-0.002697551', '0.007679689', '0.0004469387', '0.00071889395', '0.010054647', '-0.0041141068', '0.005208425', '-0.005170018', '-0.0019490083', '-0.014427551', '-0.028425805', '-0.00042742715', '0.027057871', '0.018743178', '-0.020293875', '-0.011245688', '0.0071943356', '0.01637132', '-0.038340513', '-0.0049802004', '-0.022764837', '-0.01531418', '-0.01955623', '0.021543048', '0.0042566224', '0.008120062', '-0.026277576', '0.005059526', '0.018569855', '-0.008696137', '0.011499908', '0.00426241', '0.0075557437', '0.0048868856', '-0.01976051', '0.03168782', '0.03204697', '0.016334847', '0.0060514077', '0.0016244161', '-0.011417411', '-0.006228075', '-0.004716973', '-0.032693185', '0.006781694', '0.016806385', '-0.017016592', '0.035851363', '0.012082893', '-0.023488924', '-0.030308709', '-0.025885252', '0.026042417', '0.0072756805', '-0.00565697', '-0.012293765', '0.0002119032', '-0.04125063', '0.00849104', '0.017696694', '0.014410965', '0.021441963', '0.021959867', '-0.003752906', '0.0014048008', '0.012160679', '-0.00077889336', '-0.0005291893', '0.028874526', '-0.01115539', '0.0034830533', '0.006872861', '0.009776872', '-0.005245073', '-0.0064091724', '0.022354504', '0.0077731083', '0.011496754', '0.0040145423', '0.017077936', '-0.0055331513', '-0.007809938', '0.02988248', '0.0013346631', '-0.0050835297', '0.0016058498', '-0.032484274', '-0.006990735', '-0.021772612', '0.0062886425', '0.032213386', '0.002438728', '0.036013152', '-0.0034547546', '-0.017155237', '-0.024773937', '-0.017811995', '-0.012362214', '0.021036012', '-0.0014393803', '-0.0093097035', '-0.014335917', '0.004366056', '-0.009656379', '0.0047574765', '0.016439626', '-0.017769068', '0.0075609055', '-0.013666203', '0.005694062', '0.0017376726', '-0.01903939', '-0.008923802', '-0.022727616', '-0.028772783', '0.0128313955', '0.004549623', '-0.0072070328', '0.00019084704', '-0.0009801268', '0.016701372', '0.0026833196', '-0.04421414', '-0.023386639', '0.011245459', '-0.02127555', '0.012156502', '0.009563607', '0.020156538', '-0.024649186', '0.01722171', '-0.000553329', '0.019845663', '0.0015944843', '-0.013989624', '0.012470258', '0.023886543', '0.0011492271', '0.010736625', '0.022131324', '-0.010066313', '0.010599055', '0.037785605', '0.007971265', '0.017617743', '-0.017907748', '-0.0056306045', '0.008274481', '-0.017752185', '0.015082923', '0.008281473', '2.5071799e-05', '0.0048486535', '0.0049229735', '-0.00483263', '0.027897062', '0.00063171104', '-0.009457314', '0.0014435813', '0.0019376337', '0.021892652', '0.011918094', '-0.03801069', '-0.00067077274', '0.030538175', '-0.012727022', '0.008865586', '-0.01926583', '0.020758975', '0.010608371', '0.00049757765', '0.010180967', '0.0070631662', '-0.03894789', '-0.049077775', '-0.005827473', '-0.018848503', '-0.014145969', '0.003983658', '0.051827572', '-0.007286951', '0.028613558', '0.01606355', '-0.0032045953', '0.017503412', '0.04085199', '0.005375381', '-0.010492409', '-0.020665456', '-0.010772472', '-0.015764605', '-0.011553021', '0.01769732', '0.008415542', '-0.010327075', '-0.0012451065', '0.035563953', '-0.013747092', '0.015744435', '0.003141592', '0.003247536', '0.01918131', '-0.018323421', '0.0022178127', '0.0005297418', '0.0066095213', '0.018035688', '0.006726689', '-0.003164695', '0.00019474233', '-0.0072962972', '-0.0070815575', '-0.0034841571', '0.00091359275', '0.029850943', '-0.016797753', '-0.0016649415', '-0.012903799', '0.002904181', '-0.012894688', '0.008110859', '-0.012511736', '0.0117714675', '0.00025848602', '-0.023111515', '0.0024218545', '0.030462882', '0.028657267', '-0.009848765', '0.016751807', '0.01689892', '-0.008910111', '0.0069307596', '0.026246633', '-0.0035494438', '0.0148776155', '-0.008302278', '-0.015908597', '0.0072040297', '0.003479582', '0.0007444823', '0.026121711', '0.006252169', '-0.00058012625', '0.0027617193', '0.012049633', '-0.00024134321', '0.00677755', '-0.021767465', '0.0028699562', '-0.0041842167', '-0.0024326504', '0.022959715', '0.019708825', '-0.021997713', '-0.010494286', '0.021636063', '0.011206499', '-0.02337778', '0.0058510415', '0.013566413', '-0.014249354', '0.017258838', '0.0015355255', '0.00813264', '0.010676094', '-0.015710525', '0.0145898815', '0.019593386', '-0.015048499', '0.009695673', '0.019673392', '-0.0024048213', '-0.0069265245', '-0.02789459', '0.031731818', '-0.016556323', '-0.0057351165', '-0.0420797', '-0.001531106', '0.023888174', '-0.013095041', '-0.027669162', '-0.018081529', '0.009139722', '0.021385776', '-0.02296346', '0.025150873', '-0.00782862', '-0.016250389', '0.0010994972', '-0.018305777', '-0.0019746458', '0.012380563', '0.010991684', '-0.009002597', '-0.034566555', '-0.027089804', '-0.016868789', '-0.01581959', '0.017335778', '0.027338173', '-0.019184863', '0.0054911165', '0.0042015645', '0.01567016', '-0.008923249', '-0.029609747', '-0.0031777048', '0.0053589987', '-0.016893096', '-0.010732361', '0.027602592', '0.012220622', '0.01092064', '0.007885189', '-0.042367715', '0.00062705524', '-0.004222153', '-0.022567542', '0.010601762', '0.022440743', '0.001703609', '0.01257233', '0.020068498', '-0.020606147', '-0.0061296453', '-0.0058391984', '-0.015288087', '-0.023090148', '-0.006204516', '-0.0029103737', '-0.031610798', '-0.023735624', '-0.01595006', '0.038841583', '-0.0001676423', '0.018183509', '0.020688312', '-0.0018290951', '-0.010237663', '-0.010160181', '-0.018769883', '-0.007897749', '0.01338031', '-0.012849358', '-0.010257821', '0.025631249', '0.006853896', '0.005110284', '-0.010130828', '0.0037309146', '0.0036584374', '-0.00021701252', '-0.0070788045', '-0.0194865', '-0.0035785208', '-0.0022429987', '-0.045675922', '0.010344549', '0.022224814', '-0.029391686', '-0.01627736', '-0.007674554', '0.0041512796', '0.015632162', '-0.000727819', '-0.03476219', '0.0052933553', '0.0034916461', '-0.008569088', '0.004315287', '-0.018527579', '0.0010824824', '-0.023792185', '-0.0005053377', '0.008930874', '0.008630091', '-0.016408078', '-0.008456467', '-0.014780822', '0.02115537', '-0.006613836', '-0.019226173', '-0.026888167', '0.015756818', '-0.019376142', '-0.02265237', '-0.010114919', '-0.02021571', '-0.010161589', '0.0014571836', '0.0049685915', '0.004392028', '-0.003616172', '-0.03120948', '-0.01759702', '-0.015068013', '-0.01609333', '0.00636962', '-0.014444867', '-0.0038257258', '-0.016799588', '-0.0039102985', '-0.019779122', '-0.0031611884', '-0.00953836', '-0.00017459056', '-0.01859968', '-0.023628695', '0.0031582424', '-0.012098483', '-0.045613177', '0.021254277', '0.0012679604', '0.006334665', '0.013824227', '0.00471563', '-0.012619341', '-0.01615595', '-0.016466966', '-0.01906737', '0.014513735', '-0.013309053', '-0.01388179', '0.008194324', '0.003779194', '0.010413428', '0.024965916', '-0.02997997', '0.017513897', '0.00822837', '0.014260912', '-0.028904745', '-0.021922579', '-0.024292734', '-0.007186131', '-0.0046812464', '0.00331167', '-0.0074809757', '0.005587824', '-0.039133135', '0.0007551661', '-0.019459302', '-0.018670943', '0.0064374357', '-0.009570484', '0.019912636', '-0.01653714', '-0.006313363', '0.00035214977', '0.015700564', '0.0060398057', '0.015518225', '0.0065495158', '0.013094408', '-0.01884986', '-0.005457518', '0.017180085', '0.011251136', '-0.019846525', '0.007651816', '-0.012332515', '0.0056656403', '-0.048187476', '0.0075196754', '-0.0066052345', '0.010654063', '-0.013029716', '0.015406257', '-0.015977418', '-0.0017210186', '-0.003307689', '0.006203423', '0.0048555736', '0.009416748', '0.0102257375', '0.021037504', '-0.033827372', '-0.0077806385', '0.019284153', '0.005719672', '0.034872778', '0.016844176', '-0.023368413', '-0.021891264', '-0.017361537', '-0.03716882', '0.011788941', '0.012469487', '0.029552503', '0.029918334', '0.02431741', '0.030125016', '0.014476529', '0.01914751', '0.023394763', '-0.0033911446', '0.027696043', '-0.024957465', '0.01047221', '0.015405577', '0.02620155', '-0.008101389', '0.026450962', '0.014961991', '-0.016055662', '-0.016835766', '-0.017230399', '0.012576633', '0.007863289', '-0.025587399', '-0.021536214', '0.002514727', '-0.009429149', '0.035130564', '-0.03058599', '0.014380379', '-0.004580131', '0.012426709', '-0.03049988', '-0.03286577', '-0.009373572', '-0.001501126', '-0.022774138', '0.011176122', '0.0131541835', '0.00691936', '0.0016093132', '-0.004414598', '0.006038734', '0.018223248', '0.0034643204', '-0.045300648', '0.013289503', '0.011102439', '0.0016533764', '0.009974931', '0.0064309854', '0.019848412', '-0.016441798', '-0.027268246', '0.016453467', '0.005265281', '0.013375619', '0.00031182452', '0.004980076', '0.0016448019', '0.045520864', '0.004166541', '-0.021960353', '0.025373848', '-0.0050823856', '-0.0021155311', '-0.003228339', '-0.013681107', '-0.014285895', '0.0062934393', '-0.022344524', '-0.014510017', '0.018020108', '0.0016929354', '0.0026801187', '0.013898444', '-0.008753713', '0.01054855', '0.0345847', '0.0010558418', '0.0026663402', '-0.015930679', '0.00021804917', '-0.0037375477', '0.009792528', '0.03831042', '0.021489842', '0.027578386', '-0.003659421', '-0.0047539137', '-0.010599767', '-0.007304368', '-0.00016057696', '-0.031157508', '-0.009965668', '0.006325107', '-0.0028406566', '-0.010391832', '-0.007129655', '0.0121239005', '-0.006751528', '-0.015491759', '0.0138213495', '0.023016037', '-0.02336964', '0.0226549', '0.013283309', '0.01876249', '-0.0016121573', '-0.0024411958', '0.030949619', '0.0005998947', '0.003799371', '0.031126257', '0.007389286', '-0.0099726645', '0.036019817', '0.007519809', '-0.014589196', '-0.017078925', '0.010926447', '-0.0039198115', '0.033732172', '0.015867457', '-0.033973325', '-0.004383248', '-0.027808413', '0.010324109', '-0.010283504', '-0.0023053', '0.028042307', '0.013549286', '-0.02687508', '0.024191821', '0.021137916', '0.026066981', '0.0015036915', '0.001205111', '-0.0021235072', '-0.022167565', '0.008986554', '-0.0028855333', '-0.005910484', '0.012885943', '0.0102115255', '-0.004526879', '0.021828657', '-0.003361904', '-0.008732792', '-0.0076020444', '0.031225616', '-0.0024586536', '-0.001475141', '0.0256098', '-0.027932048', '0.019216968', '-0.0032706782', '-0.009907074', '0.0029875573', '0.0022868328', '0.025658483', '0.012326882', '0.024555312', '0.008622892', '0.016061407', '0.013600914', '-0.0040003834', '-0.014676347', '-0.011076748', '0.016273433', '0.015481675', '-0.007894154', '-0.013550032', '0.049618926', '5.4079665e-05', '-0.0068726772', '0.006769793', '0.0008012886', '-0.00201196', '0.013843645', '-0.009947185', '-0.010417615', '-0.023362914', '-0.04649679', '-0.0014838699', '-0.007150313', '0.026583448', '-0.009666555', '-0.0137299085', '0.027200999', '-0.00028448075', '0.0052547697', '-0.010835719', '-0.03312711', '-0.011233004', '-0.028813427', '0.01200464', '0.0024858576', '-0.017705552', '0.029277405', '0.018292544', '-0.019675495', '0.03119239', '-0.031162914', '-0.023468843', '0.02470253', '0.006384414', '-0.029614262', '-0.01416862', '0.016493805', '0.031383622', '0.00950829', '-0.010006635', '0.022420447', '-0.021914057', '0.01630315', '-0.021763109', '0.002696618', '-0.005632431', '-0.0013964134', '0.009953625', '0.0050413534', '-0.0152658215', '0.023866097', '0.017214332', '0.013940811', '-0.004863386', '0.0054092174']
4, ['-0.0054913815', '0.0054868506', '0.009949354', '0.005491088', '0.0019228254', '-0.008558511', '-0.0126413675', '-0.004875287', '-0.0053938394', '-0.0099566495', '-0.035936333', '-0.01879972', '0.0037989572', '-0.010844092', '0.00088151306', '-0.0023678215', '0.010446405', '-0.005721535', '-0.0009992243', '-0.0011452087', '-0.012228816', '-0.014517728', '0.018995728', '0.005121675', '0.021921871', '-0.0011224992', '-0.0072791227', '-0.0130491275', '0.008400835', '0.0019570582', '0.001379071', '0.012457055', '-0.018246353', '-0.007501288', '-0.0068506575', '-0.0078110998', '-0.021675004', '-0.015407752', '0.0046970784', '0.01758493', '-0.015905103', '-0.003476371', '0.012986995', '-0.010583656', '-0.01738104', '0.024841294', '0.018954631', '-0.0072296746', '-0.0043885447', '-0.025739573', '-0.015951468', '-0.0006245423', '-0.005632098', '-0.023426445', '-0.014830763', '-0.002368116', '-0.0028153118', '-0.017828913', '-0.00065199996', '-0.0080799945', '0.0056373724', '0.0017035197', '-0.010410904', '-0.0031917624', '0.00046480208', '0.012309512', '0.0036180862', '-0.01688571', '0.008828885', '0.01781362', '-0.015912646', '0.000115856536', '-0.035292473', '-0.036929905', '0.010694898', '0.00571971', '0.008785969', '0.014847373', '0.012763273', '-0.0076441504', '-0.013537258', '0.00732395', '-0.007388304', '-0.005377441', '0.035747536', '-0.008616165', '-0.019637512', '0.0019718658', '0.016550977', '-0.0039547826', '0.037884068', '0.0022567993', '0.011220907', '0.009880547', '0.0048999013', '0.0046488997', '0.011180293', '0.004752822', '-0.0031009628', '0.0019504938', '0.032163445', '-0.013961931', '-0.022818903', '-0.013665446', '0.028468894', '-0.0042719124', '0.029447345', '-0.009057936', '0.006891729', '-0.0090149725', '-0.0119064925', '0.0031108505', '0.03039684', '0.016061446', '-0.0045293923', '0.0035193355', '-0.0016622804', '-0.0063237837', '0.0011276988', '0.01820029', '0.012359784', '-0.010291119', '0.015164846', '-0.00022755383', '-0.022989016', '-0.005745225', '0.0007984084', '0.008535764', '0.019445248', '0.00030588507', '-0.0054828613', '-0.00015933318', '-0.0030114816', '-0.008953015', '0.003746702', '0.015453656', '-0.010892019', '0.0065956255', '-0.0015200881', '-0.026159417', '-0.01530668', '-0.005721692', '0.018479358', '-0.00547152', '-0.009622478', '-0.008723661', '-0.026562195', '0.023003343', '0.009934211', '-0.0036882719', '-4.2430132e-05', '-0.013603858', '-0.0093708765', '-0.022111708', '-0.005228545', '-0.033797182', '0.015277533', '0.00881798', '-0.015029834', '-0.003314283', '-0.003966777', '-0.007863883', '0.010363666', '-0.011102703', '0.018990906', '-0.014231236', '-0.015375218', '0.0053128777', '0.016271224', '-0.009087689', '0.013860821', '-0.026378697', '0.002723512', '-0.0038356413', '-0.0048554684', '0.0003596316', '0.0060705985', '-0.005708563', '0.010814318', '0.007728648', '0.014564589', '-2.2142796e-05', '0.014088139', '0.0109229265', '0.019949866', '0.0047522397', '-0.039232623', '0.0165608', '0.010454342', '-0.012730741', '-0.0029144813', '0.01937271', '-0.012653634', '-0.009070898', '-0.0039811656', '0.008756566', '-0.013759581', '0.01601657', '-0.022368405', '0.004641622', '-0.009373543', '-0.0044418434', '0.02683524', '0.0013163296', '0.010888184', '-0.0095656095', '-0.02317996', '0.010089105', '0.010922397', '-0.013775164', '0.00030367388', '0.009761288', '0.012840206', '0.0103067', '0.011510098', '-0.011700306', '-0.0061158864', '0.028942477', '0.0019835033', '-0.0030192612', '0.0085024815', '-0.0075336397', '-0.0025317296', '0.0031584406', '-0.0022671747', '0.021276461', '-0.015889756', '-0.0031804799', '-0.0091490075', '-0.0061062067', '-0.013065004', '0.00221627', '-0.018863851', '0.0129626', '-0.01740842', '-0.0018134363', '-0.006022473', '0.019906601', '-0.019423367', '0.015354825', '0.0026627036', '-0.006363227', '-0.0151317185', '0.0053334', '-0.006398246', '0.010250666', '0.0060039572', '-0.013166132', '-0.009039954', '0.0079057515', '0.022820318', '-0.01405547', '-0.019172443', '0.0061366986', '0.012637242', '0.0035496992', '0.0067479014', '0.012944105', '0.005442843', '-0.01302811', '-0.0021358272', '0.004259682', '0.024600057', '-0.01280196', '-0.010603711', '-0.0009133815', '-0.0006321249', '-3.0282436e-05', '-0.0069307373', '-0.0155962035', '0.011451351', '-0.009007318', '-0.0025986629', '-0.02644955', '-0.010654884', '-0.019139644', '-0.0062745335', '-0.015215997', '-0.0076626437', '-0.0033840477', '0.002607511', '0.026280591', '-0.013479718', '0.009190266', '-0.023475442', '-0.00014847875', '0.012621365', '-0.0137546435', '-0.012781468', '-0.0034169282', '0.008796149', '-0.007574841', '0.015851604', '0.021466501', '-0.017219393', '-0.0007874043', '-0.004203511', '0.026754562', '0.027551474', '0.012934732', '-0.0019222886', '-0.008542457', '0.00412175', '0.0071432185', '-0.018237734', '0.014373328', '0.02804043', '0.015087045', '0.018190177', '0.035290875', '0.010876984', '0.0030085167', '-0.008737968', '0.016065259', '0.017465064', '0.006605024', '-0.019012248', '-0.016092183', '-0.0039629806', '-0.00089043943', '0.01715502', '0.027762042', '0.022230107', '0.011023162', '-0.0069376174', '-0.007072014', '-0.0007235718', '-0.010017259', '-0.005457975', '-0.012659874', '0.0028787057', '-0.010580261', '0.0018341406', '0.0023047286', '0.027930608', '0.017112458', '-0.0030531327', '-0.0058621094', '0.016780954', '0.016070504', '-0.022961892', '0.029592505', '0.0099101085', '0.0034250515', '0.0011220323', '-0.0065250094', '0.01588096', '0.006070305', '-0.008683085', '-0.032269437', '-0.006235697', '-0.004695843', '-0.02525004', '0.019752162', '0.02126605', '0.0037367078', '0.012537391', '-0.008428871', '-0.013904445', '-0.013488302', '0.009895134', '-0.00086284877', '-0.014384432', '-0.022541545', '-0.0015276216', '0.015552779', '-0.00019969342', '0.0018781645', '-0.026224159', '-0.004157411', '-0.0026554856', '-0.032926425', '0.005915886', '3.4120556e-05', '0.002016053', '0.0003425085', '0.0018372616', '-0.009742559', '0.016027637', '-0.019096408', '-0.025050439', '0.016829135', '-0.0023317959', '0.00022262505', '-0.006725744', '-0.01911799', '0.0062974393', '0.030115265', '0.019880705', '0.0014133122', '-0.009576616', '-0.0035832047', '-0.015160209', '-0.0063927104', '-0.0036432648', '0.037920617', '0.0045446316', '0.0052325805', '-0.037428387', '0.012906354', '-0.012924035', '-0.016688567', '0.00019179376', '0.022275036', '0.0062999316', '0.012406735', '-0.023665529', '-0.005359649', '-0.0065611554', '0.008461419', '-0.010128806', '0.0017197222', '-0.009339666', '-0.0029108028', '0.0027136172', '-0.017234426', '-0.021867594', '0.00156576', '-0.008752671', '-0.011023327', '-0.00120516', '0.009590528', '0.0035627477', '0.0053896867', '0.001627559', '0.007907721', '-0.017539356', '-0.013100544', '-0.0028570201', '-0.0030408448', '-0.016458096', '0.0064817015', '0.008139688', '0.005316271', '0.026864167', '-0.006322813', '-0.0050141793', '-0.0092277005', '-0.015334551', '-0.013655031', '-0.001074386', '0.002396383', '-0.007940231', '-0.013562099', '-0.009170822', '0.016757652', '-0.009567938', '-0.007882235', '-0.0049971147', '-0.016133126', '0.00080291665', '-0.0037637283', '-0.02283959', '0.004209784', '-0.0055927383', '-0.011440972', '-0.0011455383', '0.010132354', '-0.012474391', '-0.010311271', '-0.0066160434', '0.0005046886', '0.041502036', '-0.018459542', '-0.012616699', '-0.01475912', '-0.014339219', '-0.001389048', '0.0069893645', '0.009393956', '-0.01589236', '-0.009284842', '0.0039718705', '0.011527563', '0.012425631', '0.021604791', '0.013257185', '0.016147936', '0.01130928', '0.011506426', '-0.0041790274', '-0.007959371', '-0.022505566', '-0.015823238', '0.007079335', '0.005404253', '-0.023426762', '-0.00562037', '-0.01488176', '0.013364987', '-0.0054059625', '0.013756533', '-0.003332674', '-0.00023938205', '0.010670799', '-0.0070895823', '-0.018701626', '0.010647081', '0.019455431', '0.0040013087', '0.016006261', '0.031191763', '-0.003701249', '0.014545143', '0.007388714', '0.015424267', '0.010489361', '-0.00059170625', '0.0055864323', '0.013181876', '-0.007491583', '0.01004618', '-0.0063273683', '-0.027442185', '-0.016173877', '0.026800128', '-0.007309431', '0.011700599', '-0.007941412', '-0.021748422', '-0.00020586164', '0.0037896137', '-0.041103493', '0.0021651883', '-0.011190559', '-0.00246805', '0.0035836773', '0.0152552305', '0.0036260176', '0.0013056444', '-0.011560882', '-0.008605501', '0.0052738823', '-0.00390713', '-0.009899094', '-0.0023350636', '-0.00547031', '0.008939734', '0.008622019', '-0.02092712', '-0.006692832', '-0.016001698', '-8.553231e-05', '0.015550835', '-0.027054276', '0.022159979', '0.011156588', '-0.0019958122', '-0.007497539', '-0.004279871', '0.026075108', '-0.011890641', '0.00040004434', '0.0021206993', '0.023721436', '-0.00932044', '0.019519601', '0.0035574695', '-0.016471224', '0.01262466', '-0.004087518', '0.0013516089', '0.0051520276', '-0.013290371', '0.008993803', '-0.0051456895', '-0.0018610065', '0.0059661004', '-0.010294154', '-0.010543575', '0.0028147418', '0.0035589475', '-0.0007219499', '0.012777949', '-0.014376274', '0.0073288972', '-0.010441006', '0.015204734', '-0.00244898', '0.00027763806', '0.0015163486', '-0.007506934', '0.03253107', '-0.01829048', '-0.019207167', '0.009701155', '0.010849641', '-0.0005728177', '0.00223179', '0.012605592', '0.014913364', '0.016668329', '0.020301795', '-0.013811173', '-0.010325414', '-0.018442372', '-0.017688539', '-0.009113939', '0.00012324098', '0.0024214962', '0.022154782', '-0.008201381', '0.0001499998', '0.025969006', '0.004950013', '-0.016434098', '-0.0012641554', '-0.012143605', '-0.011159345', '0.010076383', '0.015708514', '0.0006235125', '-0.027913181', '0.0087892655', '0.0034546547', '0.0037621448', '-0.009149424', '0.013421553', '-0.008251807', '0.016893353', '0.008319406', '0.017058056', '-0.0049043065', '-0.00018772311', '0.005250102', '-0.008726284', '-0.012703902', '0.015368181', '0.0021356966', '-0.015131254', '0.0009202989', '-0.015147583', '0.02030838', '-0.001254056', '0.02110653', '0.019234918', '0.019802539', '-0.019541875', '0.007263663', '-0.008750153', '0.009571287', '-0.0022658424', '0.005233865', '0.0068191974', '-0.0034109415', '-0.0136147635', '0.0022539687', '0.004921325', '0.013663783', '-0.0063547622', '0.00998437', '0.0013091629', '0.018679684', '0.011665054', '0.01597085', '-0.0013866685', '0.0056448635', '0.0043707755', '0.020295303', '-0.04005337', '-0.0049872496', '0.0029731104', '-0.0024414835', '0.011467034', '0.005831405', '-0.012018113', '0.003744109', '0.022473378', '-0.006782232', '-0.012342337', '0.018988851', '0.014273234', '0.00057471264', '0.014281856', '0.00462671', '0.02219476', '0.0010187343', '-0.010207911', '0.0068548783', '-0.015890602', '0.006172945', '-0.012458211', '0.005837422', '0.019948192', '0.0040047904', '0.012955233', '0.0048727263', '0.017203938', '0.028937703', '-0.0077028917', '0.006221225', '0.0017667337', '-0.004148997', '0.032795686', '0.011231544', '0.015450564', '0.0049092486', '-0.014290634', '0.0026023209', '0.0025006896', '-0.029298654', '-0.0095483875', '0.010398642', '0.012783947', '0.0140247', '-0.0066665863', '0.0063340985', '0.0074879415', '-0.019424295', '-0.008116994', '0.017846216', '0.016179753', '0.00037327514', '0.026223013', '0.005957995', '0.004895546', '-0.012158813', '-0.017642954', '-0.0014304108', '0.0041377614', '-0.0031702917', '0.0004889638', '0.007492572', '0.0029412957', '0.0037274822', '-0.011751509', '-0.01357795', '0.008063882', '0.0013251686', '0.0032029916', '-0.01663675', '-0.005174992', '-0.013982334', '-0.013101594', '0.01881229', '-0.0021498497', '0.007113888', '-0.0117828585', '0.014946829', '0.024972422', '0.0006672347', '0.019505775', '-0.0062142783', '0.008457719', '0.0026815163', '0.019347494', '0.0057609044', '0.00051219127', '0.009599752', '-0.0015951971', '0.009146864', '0.022040976', '-0.033424348', '-0.008561038', '0.0027266406', '0.012431691', '-0.014559474', '0.0040886495', '0.015369306', '-0.0036010332', '0.009145239', '-0.03599364', '-0.008270872', '0.009029826', '-0.020452475', '-0.022302227', '-0.011728492', '0.00083839137']
5, ['-0.0048472164', '0.020910528', '-0.00668813', '0.025012724', '0.003806094', '0.00031110764', '-0.021451175', '-0.018698702', '-0.020792434', '0.0049670707', '-0.03446242', '0.022752348', '-0.0017282711', '-0.005693197', '0.016307117', '-0.008800113', '0.014341273', '0.0024366933', '-0.011575768', '0.00043395197', '-0.010025396', '-0.015245024', '0.00033671045', '-0.00018066251', '-0.008042819', '0.0052771075', '0.0049465597', '0.001989009', '0.001843793', '-0.003068129', '-0.025598986', '-0.0139636835', '0.003735768', '0.0033047984', '0.014917618', '0.0019231621', '-0.021713918', '-0.017311692', '0.012758493', '-0.0042491327', '-0.012908147', '-0.0068437117', '-0.0028488538', '-0.012697035', '-0.024525043', '0.0014540323', '0.006089229', '-0.008446737', '-0.013168509', '-0.029063864', '-0.02990279', '0.029279985', '-0.008539738', '-0.012961709', '-0.013624591', '-0.008855874', '0.0026878442', '-0.014084557', '0.016657187', '-0.007886316', '0.009585507', '-0.0038936636', '-0.014211642', '0.010867582', '0.024668153', '-0.014156555', '-0.0064393776', '-0.015279998', '0.020185223', '0.03507526', '-0.029247537', '-0.0056347926', '-0.0027348637', '0.004506206', '0.013115156', '-0.0006684246', '-0.00850423', '0.019562906', '-0.0018697033', '0.0025212734', '0.0023713736', '0.0075393883', '-0.0113377115', '-0.00778094', '-0.001985001', '-0.0046342015', '-0.012243139', '0.027593369', '-0.042992588', '0.00077436416', '0.009777548', '0.0041816607', '-0.0017724121', '0.032578684', '-0.01886826', '0.0050303363', '0.00040344906', '0.0044119703', '-0.019196467', '0.008579038', '0.007614169', '-0.008108841', '-0.025053164', '-0.02678723', '0.008778655', '-0.012669751', '0.015946392', '-0.008370487', '0.006291708', '-0.0060679363', '-0.0027288138', '-0.03206594', '0.013741762', '0.014366393', '0.011234292', '-0.014884605', '0.012729219', '0.013557481', '-0.0020579447', '0.025299959', '0.009303468', '-0.014178148', '0.003844219', '0.0017694229', '0.0014733983', '-0.0018612948', '0.025154868', '0.018630262', '0.016729161', '-0.004114189', '0.02472466', '-0.007412169', '-0.021640252', '-6.087171e-05', '-0.010919083', '0.023769725', '-0.01647539', '-0.004178558', '-0.038059495', '-0.01612409', '-0.0012186638', '0.0065307575', '0.030506391', '0.036612745', '-0.006378812', '-0.013616926', '-0.020228205', '0.012240962', '-0.015263607', '-0.023180434', '0.019457176', '-0.008185703', '0.009130479', '-0.0051714033', '0.0098716095', '-0.028848954', '0.019815061', '0.013058905', '-0.01853204', '-0.035509102', '-4.603967e-05', '-0.004184179', '-0.005825681', '0.0028073366', '0.0100551145', '-0.0004392897', '-0.0066485857', '0.0043800334', '0.019830337', '0.0057297177', '0.0067758174', '0.0022219631', '0.0053315577', '-0.008186435', '-0.010511471', '0.014455368', '0.0035149634', '0.002339609', '0.008276851', '-0.017351868', '-0.0064432463', '-0.0039159236', '-0.012748452', '0.0010600609', '0.005835319', '0.023241345', '-0.013108979', '-0.0060988576', '-0.012028662', '0.0079223355', '-0.0051522274', '0.014880447', '0.014850843', '-0.018144803', '0.0050561354', '0.008387602', '0.0036725672', '-0.017438013', '-0.019691454', '0.022182953', '0.0011833308', '-0.0022867888', '-0.0054803924', '-6.2312676e-05', '0.024307668', '-0.020383772', '0.0031886199', '0.017516842', '0.011259096', '0.0027162572', '0.004966723', '0.0019446121', '-0.019562915', '0.021027632', '-0.019938663', '-0.015722247', '0.0015038394', '-0.00011303753', '0.015681315', '0.027038168', '-0.036138024', '0.008106805', '0.0032898667', '0.0036962973', '-0.008274106', '0.011325766', '-0.02053302', '0.0009752121', '0.0030883625', '-0.0048099724', '-0.023805454', '0.0035321563', '-0.015747288', '0.032644577', '-0.008972982', '0.0012259852', '0.032730713', '0.013400599', '0.0049135135', '-0.0057459604', '-0.0036189358', '-0.02043781', '-0.022680605', '-0.012348129', '-0.011831741', '-0.009174025', '-0.016057117', '-0.027134206', '-0.009801619', '0.012123383', '0.01362463', '-0.009865963', '0.010278544', '-0.005371856', '0.00053578947', '0.006302139', '0.015436593', '-0.025992235', '-0.0052110148', '0.006424429', '-0.006902846', '0.008025745', '0.01738229', '-0.013388059', '-0.0007507679', '-0.007092436', '0.026143603', '-0.020985167', '0.0104787545', '-0.016471984', '-0.0021018155', '-0.00041304156', '0.019415228', '-0.017250314', '-0.025091918', '-0.031964157', '-0.012349507', '-0.015498975', '0.014960034', '-0.009825736', '-0.0009997624', '0.0054966207', '0.0023624715', '0.02215373', '-0.007923526', '0.033437055', '0.003666357', '-0.016109789', '-0.0010088364', '-0.006935233', '0.0070941597', '-0.011185509', '0.005738508', '0.02716693', '0.00089070393', '0.00989023', '-0.00025813002', '0.0033764434', '0.022192197', '0.015579563', '-0.0104850875', '-0.008865777', '-0.021359153', '-0.0019887104', '-0.0028197917', '-0.0032644486', '0.003987478', '0.013897849', '0.015163425', '0.009586609', '-0.006954171', '0.012581638', '0.02083712', '0.01017462', '0.01745811', '0.002441292', '0.013025225', '-0.003608724', '-0.009983791', '-0.00096426066', '0.016532235', '0.00121385', '0.0068447925', '-0.012626034', '-0.018235013', '0.024602277', '-0.024829917', '0.009524439', '-0.016404016', '-0.002547532', '0.016948907', '-0.01747675', '0.00842891', '0.012290986', '0.015919609', '0.016255373', '-0.008508043', '-0.026035357', '0.000698194', '-0.0034076702', '0.02133438', '-0.002129481', '-0.0061858725', '-0.0037470746', '-0.0011418728', '0.005523963', '-0.0056206356', '-0.0045377314', '-0.005225814', '-0.019838147', '-0.0023468095', '-0.007928973', '-0.008308243', '0.010998113', '-0.020131389', '-0.01806744', '0.018685877', '-0.011547929', '-0.001933205', '-0.0036230749', '0.008596715', '-0.0041789045', '-0.030914849', '0.004703856', '-0.01526606', '0.02435488', '-0.014128304', '-0.024236888', '-0.015715078', '-0.012498007', '0.018754948', '9.591691e-05', '-0.006685265', '0.021615807', '0.0012659119', '0.026053619', '0.017557506', '-0.017673183', '-0.017150126', '-0.01563074', '-0.028734336', '0.01688338', '0.0058488348', '-0.009479293', '-0.006801384', '-0.003112904', '-0.018800825', '0.032141034', '0.004298819', '0.015873477', '-0.016645255', '-0.003951553', '-0.009985943', '-0.022261899', '0.016948348', '0.008335093', '-0.0008586818', '0.0031569633', '0.001562646', '-0.01065273', '0.018889647', '0.00049268024', '-0.0044370075', '0.020000653', '0.004927329', '0.013516178', '-0.004742891', '-0.009166079', '-0.010736523', '0.03234949', '0.0036503673', '-0.009543781', '0.0022076275', '-0.019216353', '-0.0027442565', '-0.0065612127', '-0.0011269447', '0.004989064', '-0.002864774', '0.011534518', '0.006720196', '0.019568548', '-0.013528672', '0.006975993', '-0.0038639163', '0.009713173', '0.0026652352', '-0.0013130093', '0.0037014913', '0.010395429', '-0.016555704', '0.030635025', '-0.00036505924', '-0.006832414', '-0.007818189', '0.006899222', '0.017079648', '-0.025421519', '-0.007516759', '-0.014271631', '-0.0362796', '0.0045549874', '-0.007110836', '-0.003405401', '-0.008993529', '-0.02359863', '0.0019763084', '-0.030039357', '-0.0035655415', '-0.013664831', '-0.007812582', '-0.009695056', '0.023189403', '0.013901715', '-0.017485391', '-0.012560518', '-0.007670024', '0.0064309677', '0.011064719', '-0.005713795', '-0.008979214', '0.016318476', '0.036304638', '-0.010723356', '-0.033629928', '0.003010347', '-0.008453236', '-0.03486561', '0.009192609', '0.025790913', '-0.0021450787', '0.008116144', '-0.0015413559', '-0.0049751787', '0.023748357', '0.013227313', '-0.018272744', '-0.0009449463', '-0.010583372', '0.010481008', '0.020237798', '-0.028343024', '-0.010621967', '0.012547635', '-0.010175219', '0.0061082', '0.009483933', '0.019633807', '0.0018532356', '0.0037106024', '0.004448866', '0.001912231', '-0.027003106', '-0.015642466', '0.027399553', '-0.0011481204', '-0.018619617', '0.02708557', '0.017504023', '0.009928187', '-0.0221394', '0.008724626', '-0.014026806', '0.020072535', '0.011293329', '0.011495962', '0.02195566', '0.025064342', '0.013230203', '0.019965034', '0.008153067', '0.015124853', '-0.010396623', '-0.016648669', '-0.02160598', '0.00766648', '-0.024443643', '0.010077996', '0.009611488', '-0.02161383', '0.013520594', '-0.037863526', '-0.039408546', '0.030031713', '-0.0050600204', '0.0017804066', '-0.0038322483', '0.009749314', '-0.008165219', '-0.0023054834', '-0.015494647', '0.0016530859', '-0.008631061', '-0.014528657', '-0.00072525494', '-0.00023953879', '-0.0131561095', '0.017083285', '0.019912977', '0.02727337', '-0.0017097435', '-0.022413211', '-0.006909914', '0.014756407', '-0.025150709', '-0.01319592', '-0.005458987', '0.007678857', '-0.0071140565', '0.016940247', '0.020250315', '-0.0040515405', '-0.0016277103', '0.0017916352', '0.025181301', '0.007068362', '0.006181629', '0.008568479', '-0.0034377875', '0.015620593', '-0.008201571', '-0.004441485', '0.0021336372', '-0.009621592', '-0.0059672846', '0.0046049', '-0.0031799334', '0.0027537325', '-0.018746698', '0.01593044', '0.02886211', '0.006723441', '-0.030475946', '0.0041663963', '0.0057623293', '-0.005003431', '0.010958541', '0.010906704', '0.027070006', '-0.00828782', '0.008402885', '0.0010132319', '0.010370017', '-0.022785757', '-0.029791195', '-0.003883036', '0.018699953', '-0.018795975', '-0.008582663', '0.0026566845', '0.016479747', '0.009126191', '-0.00040754158', '0.015294805', '-0.005697835', '-0.00023404772', '0.014923971', '-0.011062203', '-0.013071654', '-0.001818936', '0.003423841', '0.0003618263', '-0.023810085', '0.01628782', '-0.023298', '0.018175818', '0.013542063', '0.008736557', '-0.014037704', '0.005673646', '-0.013284821', '0.011031128', '-0.012256253', '0.014154624', '-0.0021711048', '-0.005545001', '0.015859503', '0.005014891', '-0.0006384374', '0.012299088', '-0.00996325', '0.038351078', '-0.008932147', '0.011835396', '-0.0058575827', '-0.01168142', '-0.014066131', '0.014479817', '-0.0066840085', '-0.019201087', '0.002495551', '-0.0023684143', '0.016196214', '-0.004598064', '0.033434425', '0.020956505', '0.006215117', '0.0022147056', '0.008070919', '-0.015320251', '0.010537918', '-0.020025654', '0.020411536', '0.014974144', '-0.0012500711', '-0.019006357', '0.021492496', '-0.0024252185', '-0.0015462573', '0.0051188786', '0.010032595', '0.000647774', '-0.010128432', '0.012304397', '0.035775144', '-0.0043920944', '0.002070272', '0.00802646', '-0.01013066', '-0.026570013', '0.011688804', '0.02355916', '0.023551196', '0.026397986', '0.0057411953', '-0.013923412', '-0.0023730558', '0.00722855', '-0.0004925676', '0.010492456', '0.025744801', '-0.0034968078', '0.011703707', '-0.020814307', '0.0068598497', '-0.0008216009', '-0.005489026', '-0.0069199097', '-0.019339249', '-0.017495481', '-0.01927522', '-0.0014657454', '-0.01790759', '0.016371284', '0.014855463', '0.0032742193', '0.013608687', '-0.0027131897', '0.017258186', '-0.007367866', '-0.002809848', '-0.008302632', '0.009564479', '0.012470249', '0.012449114', '0.012028774', '-0.008855974', '0.015576794', '-0.012820644', '0.0022354405', '-0.0054099895', '0.0024139725', '-0.0024287547', '0.014653477', '0.010564503', '-0.015299069', '-0.0037244733', '-0.008907694', '-0.009850859', '0.0012216531', '-0.014573053', '0.010161879', '-0.010288164', '-0.0033916866', '0.017116679', '0.010533801', '-0.0028348474', '-0.015159768', '-0.006882846', '-0.020837015', '-0.002954583', '0.00073603954', '0.0044897622', '-0.02963909', '0.009185071', '-0.018444305', '-0.0017667122', '-0.0090999305', '0.013742211', '0.025084088', '-0.0050808196', '0.006589887', '0.011272293', '0.0104415445', '0.028171867', '-0.013409622', '0.02883318', '0.012366464', '0.005122023', '0.018146701', '0.0049452106', '0.007547013', '0.011845921', '-0.007244566', '-0.0096982345', '0.025543047', '-0.004508128', '0.022518925', '-0.0055688643', '-0.0076511772', '-0.00561265', '0.013659535', '-0.0003015497', '0.013452021', '-0.011538309', '0.021965362', '-0.010115525', '0.004558686', '-0.013753521', '0.006815001', '0.0037425642', '0.0024026886', '-0.008075326', '-0.024809675', '0.011699366', '0.001713133', '0.02294113', '0.0148748495']
6, ['0.0046370435', '0.0061358754', '-0.0039500156', '0.01911865', '-0.008810658', '-0.0012664074', '-0.018783342', '-0.043592263', '-0.009143393', '0.017369287', '-0.013987204', '-0.031003784', '0.010001213', '-0.009683429', '-0.009102476', '0.020157747', '0.011676945', '0.005198965', '-0.018606838', '-0.008273851', '-0.02199159', '-0.012874889', '-0.0024846108', '0.013998633', '-0.0020928876', '0.034590293', '0.023673337', '-0.0090355985', '0.0058089346', '0.0050078267', '-0.0056713237', '0.0007066904', '0.0016320449', '-0.007866348', '0.0056404546', '-0.023190469', '-0.02178512', '0.011034259', '-0.0068347417', '0.0050159143', '0.017942775', '0.004324831', '-0.01984877', '0.024458775', '0.001019253', '0.0020614215', '0.003680842', '-0.0032497845', '-0.007845826', '-0.013959532', '-0.0028611317', '-0.0011551128', '0.00010864448', '-0.003824251', '-0.009977565', '-0.012785878', '0.01895748', '-0.015998345', '-0.0035292364', '0.016935188', '-0.01809312', '0.0025406308', '0.023011856', '0.009734644', '0.019546825', '-0.024131574', '-0.015709562', '-0.045845274', '0.008583293', '0.01175377', '-0.013107991', '0.007839246', '-0.020412724', '-0.0038627097', '0.015224914', '0.024761356', '-0.007621904', '0.013518473', '-0.011119374', '0.0016699242', '-0.010844735', '-0.01801087', '-0.009124273', '0.0012419341', '0.002344333', '0.011406929', '-0.013555858', '0.021901783', '-0.030475063', '0.0014590407', '-0.016049372', '-0.010850529', '-0.011709447', '-0.009529672', '-0.009173263', '-0.0046616904', '-0.016540902', '-0.0032739416', '-0.020585362', '0.027724223', '0.02299081', '-0.019182574', '-0.018980239', '0.008808583', '0.0064649', '-0.0045277793', '-0.011097559', '-0.008790096', '-0.0011203056', '0.014384131', '0.0015789662', '-0.032104447', '-0.018993614', '0.023733044', '0.0016613855', '0.02137796', '0.021782635', '0.016708214', '-0.0032234886', '0.0049340054', '0.010443202', '-0.002803209', '-0.0062726107', '-0.015791433', '-0.0058393804', '0.026055109', '0.016524173', '-0.011719357', '0.01059099', '-0.01767923', '-0.0039809127', '0.039076246', '-0.028585283', '-0.0015970045', '8.4204956e-05', '-0.0061891642', '-0.028183807', '-0.0007999329', '-0.016265592', '-0.025378073', '0.031027699', '0.008127407', '0.01726282', '0.009505335', '-0.0029657253', '0.008732447', '-0.01829552', '0.028478876', '0.010374211', '-0.019655738', '0.0032026598', '-0.039012846', '-0.005220438', '-0.005180129', '-0.013717962', '-0.025207072', '-0.034163546', '0.01307245', '-0.011723821', '-0.018716607', '0.0017881722', '0.007825674', '-0.011834541', '0.010644204', '-0.0017690513', '0.022916658', '-0.0058596027', '4.1276428e-05', '0.014907975', '-0.003098519', '0.0024343606', '-0.031334676', '0.019066082', '0.006885578', '-0.028527938', '-0.015516272', '0.0004675523', '-0.023734307', '0.009605046', '0.028004548', '0.00017279782', '0.022244684', '0.009648452', '0.011636924', '0.00070043356', '0.0012121954', '0.0020390423', '-0.010361955', '-0.036068823', '0.017412508', '-0.024281226', '-0.0109558385', '0.016601529', '-0.00057702727', '-0.03479222', '0.0062201764', '0.004959723', '0.020097766', '0.021613605', '0.016630856', '-0.015988795', '-0.017524457', '-0.022235189', '0.016951768', '-0.0033085532', '-0.001617835', '-0.012196079', '0.0084714135', '-0.01724663', '-0.012438276', '0.014628737', '0.01732075', '0.013639705', '0.027616864', '-0.038384296', '-0.006901495', '-0.0062154355', '0.024704536', '0.020605875', '0.018501192', '-0.028305711', '0.0026984448', '-0.0030474123', '-0.013123345', '-0.00922866', '0.042142574', '-0.012658897', '0.009137006', '-0.020815426', '0.016843652', '0.0019740572', '-0.018370757', '-0.017702289', '0.020138139', '-0.0013053877', '-0.0010417206', '0.0083646495', '-0.022651859', '-0.001521304', '0.00632435', '-0.0074605993', '0.0059741638', '-0.0417209', '-0.0075694136', '-0.01872403', '-0.008991455', '-0.011751514', '-0.025293266', '-0.0062724706', '0.020017236', '0.021167595', '0.027973337', '0.010622012', '-0.00048832985', '0.007979291', '-0.0014305935', '0.028560903', '-0.0031734589', '0.013038578', '0.0033341956', '0.014511287', '-0.010185614', '0.006786037', '-0.01056434', '0.006885139', '0.012424066', '0.01967088', '-0.008544423', '-0.01385943', '-0.000113365735', '0.017208835', '-0.0026844635', '0.0012121133', '-0.0031625857', '-0.028221624', '-0.031841554', '-0.007869401', '0.009393026', '0.0007991929', '-0.008674842', '-0.02974073', '0.016729137', '-0.0148154525', '0.011952382', '-0.031291343', '-0.0055089323', '0.027222926', '0.019216033', '0.016250882', '0.008415669', '-0.0003553354', '0.0053494074', '-0.0082478635', '0.01949351', '-0.004936836', '0.004051283', '-0.01120018', '0.0065382007', '0.0184511', '-0.016549885', '-0.019145785', '0.012025398', '0.012622829', '-0.018801851', '-0.02016503', '0.017153276', '0.0024853344', '-0.012441597', '0.01463083', '0.019415434', '0.038602713', '-0.0039910977', '0.0117878085', '-0.025928535', '0.018511128', '-0.013706915', '-0.0039292993', '-0.0039699352', '-0.008785426', '0.024448173', '0.018569967', '0.019742286', '-0.03892894', '0.008867365', '0.016741714', '0.011809437', '-0.0015375435', '0.012220195', '-0.010775278', '0.0031537893', '-0.031800337', '0.025510954', '-0.00789576', '0.0024686337', '0.015807947', '0.0064981435', '0.0027023526', '-0.030216806', '-0.018355258', '0.0027967806', '0.012367828', '-0.002062062', '0.0015116257', '0.012370239', '0.0062331487', '0.031924244', '0.025330866', '0.006567105', '-0.03384613', '-0.017894536', '-0.033075396', '-0.012126712', '-0.006370021', '0.028414236', '-0.010795458', '-0.01688583', '0.009903773', '0.013461119', '-0.009264393', '-0.011661854', '-0.003426738', '-0.0028060053', '-0.030671742', '-0.0049652173', '0.0030854582', '0.012159081', '-0.024603534', '-0.02168396', '0.0047006127', '0.030074017', '-0.01835537', '-0.02078956', '0.0048754574', '0.016719032', '0.0031616373', '0.01045611', '-0.006748778', '-0.005036244', '0.037385613', '-0.0082794465', '-0.019052498', '0.014202082', '0.0064579127', '0.015401732', '0.002267512', '0.014944133', '0.002958166', '-0.011406532', '0.015581293', '0.011028534', '-0.017694311', '-0.0017039225', '0.026465276', '-0.02105001', '-0.0018701977', '0.00015813507', '0.00769252', '-0.009368026', '-0.002680828', '-0.007407706', '-0.0044889674', '0.0076101553', '-0.0014487043', '0.010001082', '-0.020248154', '0.0071375757', '0.0057317074', '-0.008985028', '-0.0080934195', '-0.0068043876', '-0.017794734', '-0.02713222', '-0.0068592965', '-0.003393135', '0.004626932', '-0.0017391312', '0.01244266', '0.0118073', '0.011302459', '0.015129657', '0.009105817', '0.028405266', '-0.009166052', '-0.01823807', '0.014392986', '-0.017157879', '0.00034388254', '0.004916997', '-0.027860172', '-0.024278423', '-0.016525911', '-0.009883493', '-0.016297046', '-0.021901984', '0.0185406', '0.0034994385', '-0.0040776418', '0.004417561', '-0.011223042', '-0.008664926', '-0.011837179', '0.00062671315', '-0.007880328', '-0.01068191', '-0.0080361245', '-0.030536888', '-0.010062845', '-0.024399055', '0.0051576546', '-0.05140024', '-0.0031968069', '0.020367425', '0.022275137', '-0.002246147', '-0.028603625', '-0.016667861', '0.004878981', '0.009688792', '0.0062999837', '-0.0043912735', '0.00015902179', '-0.009393527', '0.0028427143', '-0.001464041', '-0.0064637223', '0.0019790945', '-0.019529518', '-0.027179632', '0.004203979', '0.038156345', '0.024678186', '0.002871599', '0.0011376193', '-0.04262208', '0.0034390418', '0.0063534887', '-0.006254308', '0.041460764', '0.025288388', '0.011175021', '0.01503317', '-0.023697568', '0.015904441', '0.0075003006', '-0.010986208', '0.008621883', '-0.013985252', '0.0016319343', '-0.016955515', '0.0033282556', '0.015745934', '0.01586596', '0.008293099', '-0.006665466', '0.00072098686', '0.015095516', '-0.018714469', '0.015421364', '0.0037260733', '0.0013804808', '-0.032610394', '0.04008299', '-0.010509814', '0.017485598', '-0.019176254', '0.017753862', '0.012037163', '-0.0049744872', '-0.00019120588', '0.0288719', '0.012865677', '0.027372416', '-0.0018404659', '-0.01106133', '-0.0340069', '0.02559763', '0.017527832', '0.01555501', '0.024999706', '0.009446705', '0.005515999', '-0.00596371', '0.0024540913', '0.0012874536', '0.00077286584', '-0.00025572997', '-0.005724096', '0.016112441', '-0.014512611', '-0.0019572147', '-0.04114321', '-0.009850961', '0.007304566', '-0.007369027', '-0.006056843', '-0.0035626055', '0.0037638885', '0.014137171', '0.017460639', '-0.016093578', '-0.021717666', '0.013438097', '0.0020463497', '0.029006269', '0.018292982', '0.003884462', '-0.0058765183', '-0.0011072601', '0.006429054', '-0.0130127305', '-0.010560559', '-0.0099090645', '0.010615422', '-0.0046315324', '0.026318438', '0.022640085', '0.030697178', '0.0062767426', '0.0026388792', '0.014985215', '-0.011418659', '-0.01936474', '0.018949987', '0.015878981', '0.029447919', '-0.0013450497', '-0.0042296173', '-0.042557612', '-0.016562747', '0.032362014', '-0.0018797556', '-0.001961149', '-0.04515534', '0.013868071', '0.02884965', '-0.0034521497', '0.016526308', '-0.021398133', '0.008895321', '-0.022708429', '0.025692325', '0.022608135', '-0.0022268728', '0.011386788', '0.007821374', '-0.013829641', '0.0004832829', '-0.025542453', '0.0068665305', '0.00687282', '0.03662387', '0.0121990545', '-0.0061661988', '-0.014731079', '0.021255018', '0.0050818054', '-0.00011822675', '-0.005448326', '-0.044404563', '0.017148735', '-0.015307019', '-0.022129783', '0.006803019', '0.00020241668', '0.0050213747', '-0.004044922', '-0.0016491766', '-0.03214995', '-0.013533187', '-0.006555872', '0.0011269178', '-0.017468063', '-0.015456137', '0.009030565', '-0.029317943', '0.003623925', '0.018662525', '0.02154053', '0.01887622', '0.012536596', '0.0052079433', '0.0068831984', '-0.032554414', '0.007920141', '-0.0151833', '0.0069844434', '-0.0024348863', '0.018462202', '0.009094445', '0.008578538', '-0.011451693', '-0.034066472', '0.00992044', '0.030623736', '0.00447105', '0.034387715', '0.009523211', '0.0045647854', '-0.00959757', '0.0068253395', '0.008405758', '-0.011893125', '0.011478565', '-0.0075074374', '0.008707623', '0.009158665', '0.0059285457', '0.020178866', '-0.0032684829', '0.0011230551', '-0.007350942', '0.007822855', '0.0020385412', '-0.0033161829', '0.021381486', '-0.010869565', '0.007731672', '-0.025066359', '0.0065042954', '-0.020279253', '0.024632161', '0.024586624', '0.02870079', '-0.013695138', '-0.010162053', '-2.2956528e-05', '-0.011037568', '0.0090400325', '-0.00449362', '-0.0049080085', '0.017468143', '0.004112174', '0.0071274377', '-0.011161826', '-0.0038949428', '0.025847597', '0.024232019', '0.012005936', '0.011478122', '-0.02305818', '0.034354903', '-0.018613491', '0.016663734', '0.010047519', '-0.016797267', '0.009921215', '0.0058220574', '-0.005951626', '0.018780751', '-0.0037198998', '-0.020263795', '0.011614305', '0.029266372', '0.010163064', '0.030185549', '0.02059961', '0.007020304', '0.008558349', '-0.01636207', '-0.013567148', '-0.0044841035', '-0.02779751', '0.0047915224', '0.014712406', '-0.04467665', '0.0076613', '0.004851859', '-0.010362574', '-0.0020566625', '0.017337585', '-0.0144496225', '-0.00053329073', '-0.016279548', '0.0050624795', '-0.0071947747', '-0.013161603', '-0.033040978', '-0.00058188697', '-0.006298976', '-0.023047289', '0.00070444716', '-0.0021679082', '-0.008746714', '-0.011732237', '-0.006499379', '0.027584095', '-0.010016169', '-0.020468745', '0.016263947', '-0.019331332', '0.042163204', '-0.012406861', '-0.008968412', '-0.002947279', '0.016749082', '-0.006198584', '0.0011838198', '0.0143813295', '3.2386113e-05', '0.021712253', '0.003932607', '0.028294004', '0.010302749', '-0.031258445', '-0.00911203', '0.018821765', '0.00814614', '0.025396587', '-0.0030059316', '-0.0012402985', '-0.009159298', '0.01092257', '0.02659749', '-0.0046740924', '0.011265181', '0.0057302904', '-0.024458187', '0.011443347', '0.0023345465', '-0.009035526', '-0.007408072', '-0.016373122', '-0.007641963', '-0.01631145', '0.0022595685', '0.01177975', '0.019964606', '0.011365087']
7, ['0.01294753', '-0.006305872', '0.013194493', '-0.03387953', '0.017951721', '-0.012682982', '-0.021372642', '0.0038214454', '0.0041175624', '0.02751369', '-0.018042589', '0.001325488', '0.0042576343', '0.021477278', '-0.0025790567', '0.014066871', '0.014834341', '-0.0075892294', '-0.00027418812', '-0.003431674', '0.0068604653', '0.027536992', '0.01352909', '-0.004102226', '-0.0011387728', '0.004195341', '0.024680149', '-0.009894838', '0.015696088', '0.010565788', '-0.007574107', '-0.00049216766', '-0.014652647', '-0.0050208014', '-0.0039849407', '0.0028256583', '-0.021917833', '0.0128806885', '0.04236819', '-0.012198103', '-0.011270161', '0.007079386', '-0.005152822', '0.0031864776', '-0.016303468', '0.015842753', '0.03588209', '0.02674601', '0.00229407', '-0.033451583', '0.0032681117', '0.00081230083', '-0.013937085', '-0.01013331', '0.0102149565', '-0.01261439', '-0.005611801', '-0.017286668', '0.02108422', '-0.015234677', '-0.0040494017', '0.012225566', '-0.004443514', '0.0053850706', '0.028588803', '0.022320304', '-0.02731843', '0.0053909314', '0.016069397', '0.01596707', '-0.011268597', '-0.006456821', '-0.015806086', '0.020541435', '-0.017885638', '0.015134735', '-0.006137757', '0.0072751245', '-0.009110485', '0.021073082', '-0.009496297', '0.025107479', '-0.0055272616', '-0.015391142', '0.009476577', '-0.011159321', '-0.010247221', '0.0328107', '0.02862573', '0.01565664', '-0.008632463', '0.02678002', '0.028526446', '0.05742378', '-0.005484437', '0.022520643', '0.016229747', '0.020551614', '0.006614598', '0.025274863', '0.021677947', '-0.02388311', '-0.015434614', '-0.005549486', '0.013406066', '-0.0061794706', '0.02037141', '-0.0093337605', '0.029532593', '0.024019314', '-0.0072886115', '0.0016964867', '-0.015902577', '0.001887446', '-0.015380528', '0.040739417', '0.0049194423', '-0.0077868877', '0.008617482', '-0.015952623', '0.018608265', '-0.016690439', '0.011448476', '0.01705261', '0.014300374', '-0.033719983', '0.0149187725', '0.0024232252', '-0.00847515', '0.016201958', '0.007971436', '-0.03265748', '-0.016370498', '0.0030796495', '-0.01493029', '-0.020763008', '0.035675894', '-0.0065790536', '-0.030087875', '-0.0047031865', '-1.6647218e-05', '-0.021007119', '0.026269274', '0.011388473', '-0.013879211', '-0.0074244584', '0.002997553', '0.01109864', '0.01869448', '0.005358972', '0.0021068268', '-0.042118058', '0.010713406', '-0.021595852', '0.0024967', '-0.0013471794', '-0.036556274', '0.031190017', '-0.010578428', '0.008022262', '0.004474756', '-0.02685786', '-0.0045882016', '0.007686277', '0.027180402', '-0.0050368947', '-0.0065497663', '-0.00088006613', '0.016894292', '0.016755931', '0.0056990716', '-0.027910775', '-0.023863385', '0.01033082', '0.008185248', '-0.02010513', '-0.0016995695', '0.006756501', '0.0045837425', '0.013759331', '-0.011755967', '0.0017035214', '-0.004379251', '0.0044940757', '-0.0042026816', '0.042582154', '-0.007167431', '-0.014276244', '0.030488532', '-0.003961335', '0.0058180625', '0.006666218', '0.013140095', '0.0020521942', '-0.015890827', '0.018892497', '0.010319615', '0.032216556', '-0.012817412', '0.012676112', '-0.0022947085', '0.008857025', '-0.024455102', '-0.012972016', '0.0020765176', '-0.010001587', '-0.0001212092', '0.022879593', '0.0027549053', '0.0065355296', '0.014873621', '0.01504225', '-0.0014339036', '0.0021873445', '0.00037885923', '0.000661483', '-0.005453795', '-0.009925095', '-0.004207432', '-0.0005839005', '-0.02111096', '-0.005347347', '-0.021634178', '-0.016175793', '0.008081171', '-0.003589145', '0.004362047', '-0.00109612', '-0.01893106', '0.023906924', '-0.034789484', '-0.018388107', '-0.0120068155', '0.011696008', '-0.027413078', '0.007882232', '0.020802941', '0.00451839', '-0.004667432', '-0.0019777627', '-0.02470743', '-0.031844478', '-0.016644947', '-0.0016697797', '-0.017877758', '-0.028471757', '-0.004822484', '0.0013367916', '0.04100885', '-0.011606902', '0.017333182', '-0.015277926', '-0.0123812', '-0.0052361246', '-0.009030946', '-0.00820683', '0.047620084', '-0.0004504741', '-0.0004702742', '-0.012564526', '-0.049287863', '0.0008352531', '0.0037395558', '0.018286811', '0.005206883', '0.00094158854', '0.03150911', '-0.026869355', '-0.009343182', '-0.008950425', '0.02155722', '-0.00074110663', '0.013743505', '-0.017603783', '-0.016611526', '-0.018933445', '-0.01483783', '0.0033896824', '0.0014078256', '-0.017011924', '-0.02490436', '-0.0059050447', '0.00312918', '0.031759642', '-0.01446815', '0.031571377', '0.012038433', '0.029514467', '0.004846177', '-0.00422513', '0.0031819614', '0.007718856', '0.012456361', '0.028214935', '-0.033507843', '-0.014777232', '-0.006085965', '0.032775857', '0.011963753', '-0.006377031', '-0.010717314', '0.01797951', '0.015580301', '0.016485076', '-0.0041819233', '0.026965503', '0.018693604', '0.008913448', '0.014713463', '0.00070917327', '-0.0061683985', '0.014751453', '-0.0020284464', '0.01355024', '0.018021524', '0.015680267', '-0.013973324', '-0.016705004', '-0.019103328', '-0.010999735', '0.02386985', '-0.001619713', '-0.027108636', '0.00847297', '0.017955516', '0.012105618', '-0.12312561', '0.0003303929', '0.004788945', '-0.02493681', '0.005044586', '0.014748131', '0.039273366', '-0.0041990196', '0.03751647', '0.0037789857', '-0.0016366806', '-0.01110286', '-0.0012188735', '-0.005346357', '0.0049699503', '0.007670645', '-0.0048240996', '0.005057425', '0.0056616724', '0.0047201184', '-0.007854277', '0.02617432', '-0.01284468', '0.029653568', '0.020836536', '-0.0015957399', '-0.00991214', '0.0039849607', '-0.026942803', '-0.009272176', '-0.0054941545', '0.009181573', '0.007847459', '-0.026543273', '0.034059368', '0.0030133757', '-0.026117627', '0.0030580375', '-0.0010222195', '0.008244291', '-0.020010099', '-0.02145741', '0.0025901594', '-0.010829257', '-0.0014958602', '0.017075228', '-0.003996164', '0.025542285', '0.0023306515', '-0.019722873', '0.014296798', '-0.008388324', '-0.012558397', '-0.0095427185', '-0.029049916', '0.009751805', '0.003456602', '-0.032396015', '-0.004267298', '0.00929155', '-0.002741571', '0.010960733', '-0.011747331', '-0.0057168487', '0.007304317', '-0.0037409698', '-0.024072548', '-0.016135836', '-0.0070572025', '0.00525757', '0.0012510426', '0.0009490319', '-0.0066994037', '-0.013168223', '-0.009708668', '0.0077811694', '-0.0007766055', '-0.021704488', '-0.010860825', '0.02479284', '-0.0060629766', '0.027634447', '-0.009094288', '0.023082763', '-0.03299921', '-0.0010983964', '-0.012827087', '-0.008423669', '0.036428593', '-0.025504362', '0.0029609476', '-0.012725843', '0.002689026', '-0.006050638', '0.0075843604', '-0.007941246', '-0.0059886375', '0.022930978', '-0.017337935', '-0.0030085759', '-0.0024311661', '-0.0069165444', '-0.0114058135', '-0.04137254', '-0.01665971', '0.00459976', '0.01318452', '-0.03795453', '-0.03125973', '-0.020608691', '-0.011982982', '-0.01034654', '-0.0056358455', '-0.016179688', '-0.022978729', '-0.0066890847', '-0.008876124', '-0.0027061435', '-0.014060849', '-0.0012196555', '0.04222742', '-0.03303477', '-0.014455265', '0.013510272', '0.0060081664', '0.014414625', '-0.0125419665', '0.014525225', '-0.009196829', '-0.015859904', '0.0016629947', '-0.020702869', '0.0007817289', '-0.016117105', '-0.0030066068', '-0.017515952', '-0.008223735', '-0.010006315', '-0.0129777575', '-0.038437426', '-0.02193954', '-0.035579074', '0.013305996', '-0.017371653', '0.017889667', '-0.02279887', '0.006712772', '-0.012193301', '0.022587404', '0.013796613', '-0.008552547', '-0.009751839', '-0.0005412689', '0.016697723', '0.026008274', '-0.03275466', '0.0010942317', '0.014908225', '-0.023345709', '0.0037199592', '-0.021895634', '0.019337617', '0.001357248', '-0.00529458', '0.008029355', '-0.010332367', '0.006564042', '-0.017065339', '-0.011415021', '-0.01033663', '-0.018685753', '0.017777942', '0.0123126125', '0.035680886', '-0.0015092222', '0.01867369', '-0.03540653', '0.01967659', '-0.001889108', '-0.0003029623', '0.022486264', '-0.015510135', '0.002266535', '0.0005894407', '0.021272274', '0.022061255', '-0.040499397', '-0.015032705', '-0.0035863807', '0.01647336', '-0.015507527', '0.009981828', '-0.01840705', '0.016669', '0.002149683', '-1.2337923e-05', '-0.037682727', '0.020314911', '0.02458344', '-0.00427724', '-0.0032137712', '0.028403709', '-0.013610876', '-0.013095366', '0.01772913', '-0.012121701', '-0.0060203206', '0.0053144856', '0.014932503', '0.003484719', '-0.0056516756', '-0.012311751', '0.016832301', '0.0030433496', '0.0043823924', '-0.008191794', '-0.005796203', '0.019741347', '-0.0045890934', '-0.0007207127', '-0.036495358', '0.012258533', '-0.009391906', '-0.008674265', '0.011163104', '-0.006922866', '0.00035280414', '-0.0073459176', '0.020172935', '-0.008297299', '-0.015344805', '0.012319372', '-0.0054270998', '-0.0023654483', '0.010955981', '0.0029742687', '-0.005338071', '-0.040567607', '0.01186598', '-0.006660279', '-0.015491625', '0.02036876', '0.008833516', '-0.0045633945', '0.003553104', '-0.0064363154', '-0.0037622678', '-0.0015131535', '0.023148999', '-0.0029944899', '-0.01952544', '0.01969574', '0.030179704', '-3.6011963e-05', '-0.0014701532', '-0.013276227', '0.006387666', '-0.008723091', '-0.005487807', '0.005949682', '0.014824389', '-0.008730816', '-0.01524765', '0.012017648', '-0.00253292', '0.0020074008', '0.011704402', '-0.0017423464', '-0.004756978', '-0.003361753', '0.0018275939', '0.0036235303', '-0.021032667', '0.007560929', '0.0056214593', '-0.0006499764', '0.0071265665', '-0.0022193906', '-0.015756575', '0.0037902608', '-0.00803925', '0.0066145086', '-0.017493939', '-0.012803146', '-0.036567546', '0.002346929', '0.017653031', '0.013398268', '-0.0016758592', '0.018517295', '-0.0014361062', '-0.0008756443', '0.025222944', '-0.006928744', '0.0069141383', '0.01280403', '-0.013957637', '-0.004100205', '-0.012766579', '-0.014757043', '0.008018907', '0.016164143', '-0.013350077', '-0.007339136', '0.024650767', '0.017094092', '0.009503864', '0.03077309', '0.022300756', '0.013202231', '0.005367335', '-0.018064473', '0.0016881184', '-0.0006128093', '-0.014630395', '-0.02916722', '0.029503884', '0.0012727341', '0.030863205', '0.027643723', '-0.0030948513', '0.007309685', '-0.010587471', '0.008084031', '-0.0024837884', '0.015001886', '0.01751499', '0.014896896', '0.014524693', '-0.021978522', '0.009056379', '-0.009970882', '0.022635262', '-0.0196209', '-0.00836619', '0.027755946', '-0.0017073987', '-0.0051323166', '-0.03683718', '0.022471646', '-0.013494401', '0.007601901', '-0.0103953425', '0.0045714704', '0.027103439', '0.0015556108', '0.021915615', '0.0037771235', '0.0040675052', '-0.003720873', '-0.014019713', '-0.0063854903', '-0.049140893', '-0.0030343712', '0.068872444', '0.0005790743', '-0.02072163', '0.018843554', '0.02736527', '0.00087302853', '0.016823877', '0.008191643', '0.0061466885', '-0.022508217', '0.006685282', '0.012943457', '0.022784332', '0.017214723', '-0.010582249', '0.008701369', '-0.017538918', '0.021492928', '-0.012647002', '-0.0110238185', '-0.011710055', '-0.011148975', '0.00025616752', '0.013555865', '0.021318633', '-0.019688565', '0.019042544', '0.022181202', '-0.007722592', '0.014566549', '0.0048288284', '-0.0028000574', '-0.014412808', '-0.022306874', '-0.01576502', '0.038844798', '-0.017274132', '-0.010510925', '0.014856294', '0.0023828908', '0.004986572', '-0.0020453716', '0.008573482', '-0.01800573', '0.00019863223', '-0.012406111', '0.0061613694', '-0.031018408', '0.0009464794', '0.005962515', '0.009376429', '0.0061440477', '0.0368221', '-0.011431141', '0.02900215', '-0.0027567518', '-0.0037827191', '-0.003055957', '-0.0328956', '0.028414156', '0.012457023', '0.009726057', '-0.002141995', '-0.018296223', '-0.009672525', '0.016777227', '0.015569048', '-0.0008205936', '-0.0052620443', '-0.030514657', '-0.007996695', '0.0013270265', '-0.009610898', '0.0025125719', '-0.016866488', '0.020980002', '-0.007963547', '0.0011811045', '-0.014821111', '-0.013763619', '-0.01099425', '-0.02281913', '-0.010247249', '-0.013634673', '-0.008008661', '0.008537218', '0.017791554', '0.024332816']
