0, ['-0.01810392', '-0.0033875662', '0.03583982', '-0.004429144', '-0.0053801825', '-0.018873071', '-0.044732254', '-0.02022261', '-0.016697422', '-0.012263416', '0.038380682', '-0.012367343', '0.02994963', '0.0020931913', '0.027186781', '0.0005464896', '-0.012363778', '-0.010737872', '-0.014318972', '0.046649545', '0.0012692155', '0.020050801', '-0.0009201161', '0.03477825', '0.009549931', '0.010912002', '0.0050975652', '0.007863214', '-0.026393337', '-0.0005137456', '0.011688564', '-0.042344067', '-0.023264933', '0.016149359', '0.010006616', '-0.011395807', '-0.036096137', '-0.003736066', '0.042958915', '-0.023494916', '0.009774735', '-0.007301357', '-0.0010034721', '-0.017272133', '0.017310139', '-0.0045397133', '0.0031301246', '-0.0015200255', '0.016715601', '-0.016280396', '0.0012419381', '-0.0009243389', '0.028702293', '-0.005129499', '-0.0011261293', '-0.026520811', '0.0224714', '-0.026291557', '0.0022956769', '0.004805116', '-0.007052529', '-0.009525936', '-0.027503824', '0.0087599335', '0.043584444', '-0.0013816797', '0.011103842', '-0.04542006', '0.03244622', '1.1068687e-05', '0.002849812', '0.035310883', '-0.013078612', '0.061537202', '-0.013738087', '-0.01479422', '0.010396809', '0.04393497', '0.013092278', '-0.025223369', '-0.009933812', '-0.01415982', '-0.021998156', '0.02401529', '0.022772765', '-0.023308558', '-0.036163513', '0.027502507', '0.011789276', '-0.018085597', '0.011329054', '0.0022641437', '0.037890643', '-0.00919498', '0.022375342', '0.016404033', '0.006126579', '-0.024832744', '-0.030026315', '0.0052318736', '0.012114119', '-0.018912833', '-0.038771287', '-0.03412318', '-0.011866995', '0.021898737', '-0.027897615', '-0.037449896', '-0.0039875545', '0.016571892', '0.006744288', '-0.0056224368', '-0.051797576', '-0.0020754714', '0.021848438', '-0.03923806', '-0.0068600685', '-0.01189446', '-0.025025675', '0.048087258', '-0.009259014', '0.012016181', '-0.037290815', '-0.018188208', '-0.01132653', '-0.00199672', '-0.007209699', '-0.011528469', '0.033494074', '0.019318346', '-0.01459059', '-0.024010956', '-0.018893704', '-0.0027733953', '-0.014623166', '0.0068868725', '-0.00017903252', '0.0058228294', '-0.062717676', '-0.000932938', '0.023765394', '0.011114645', '0.03693752', '0.007514033', '-0.00032501487', '-0.0053200517', '-0.017066814', '-0.01349523', '0.005827734', '-0.018514799', '0.0011105514', '0.00084661663', '-0.00853613', '0.0027862869', '-0.007890448', '-0.04171157', '-0.022423528', '0.00043377778', '0.02263008', '-0.013976842', '-0.015037819', '0.009776286', '-0.0019121396', '-0.004792171', '-0.008295363', '0.037495613', '0.009515679', '0.028056527', '-0.004324239', '0.019512426', '0.020200826', '-0.011950798', '0.007829638', '0.008980318', '0.025501778', '0.02722856', '0.017156752', '0.017639982', '-0.004542468', '-0.008960857', '0.015382127', '-0.0034272682', '-0.020660399', '0.010479737', '0.02086381', '0.015020198', '-0.0154363075', '-0.016071875', '-0.0048220824', '0.014431613', '0.02855693', '-0.0004489864', '0.00067934237', '0.016504345', '0.010779518', '-0.000766531', '-0.029355021', '0.007764831', '0.025003977', '0.01347689', '0.012960911', '-0.0134526845', '0.004382818', '0.0076565', '-0.0026401032', '-0.029206572', '-0.009183693', '0.010007735', '0.0018848893', '0.0020486282', '-0.017189601', '-0.0032209053', '0.035114065', '-0.014674371', '0.012910949', '0.0072888266', '-0.00663885', '0.012048095', '0.015822992', '0.0113360165', '-0.0049302583', '0.018608427', '6.8358364e-05', '-0.019337926', '-0.033375315', '0.0062768934', '0.023820402', '-0.014830915', '-0.011226075', '0.0036957262', '0.011267847', '-0.023687175', '-0.006289685', '-0.008238483', '-0.009994081', '-0.017635863', '-0.030938735', '0.0016259912', '-0.007189151', '0.0034811716', '-0.0049946425', '-0.016066683', '-0.026573054', '0.016717698', '0.018203115', '0.020118576', '0.01707922', '0.029806508', '0.014393585', '0.05087457', '0.016594201', '0.020536227', '-0.025155775', '-0.0010914489', '-0.012501698', '-0.021965872', '-0.012190582', '0.00039534955', '0.031562213', '0.018683208', '0.010582705', '-0.029526055', '0.011013', '0.026686616', '0.031298496', '-0.010889976', '0.04871319', '-0.0063766674', '-0.017174989', '-0.008306032', '0.025284147', '-0.017625106', '-0.024073152', '0.0027631235', '-0.0028990665', '-0.0008165547', '0.026797313', '0.015776677', '-0.01305917', '0.0007893702', '0.034733564', '-0.005973649', '0.021030687', '-0.010420445', '0.010864595', '-0.030678716', '0.0129929045', '-0.02783948', '-0.006983303', '0.036229935', '-0.0118982205', '-0.0032953273', '0.010625912', '-0.013323502', '0.005393393', '0.018516459', '0.0059313765', '0.0053397473', '9.850597e-05', '-0.025050703', '0.0032472303', '0.021169476', '-0.0054646307', '-0.024994856', '0.01195415', '0.011775761', '0.0016331055', '0.0022514744', '0.016269654', '0.014044976', '0.01999505', '0.008427915', '-0.02831813', '0.009558669', '0.02738713', '-0.014102127', '0.0010735469', '-0.029460525', '-0.005160043', '-0.017643645', '0.008595532', '-0.031457316', '0.002649788', '0.012286665', '-0.01742698', '-0.0067385035', '-0.017933944', '0.007545235', '-0.009368704', '0.0016041183', '-0.0016599154', '0.00016300127', '-0.015566053', '0.006993454', '0.005109266', '0.02998984', '0.019720258', '-0.022082927', '0.01667248', '-0.02302448', '-0.030393306', '-0.005479433', '-0.013014384', '0.0014643943', '-0.041457977', '-0.021103371', '-0.014274658', '-0.006235822', '0.004277573', '0.0015265362', '-0.037215754', '-0.013322657', '0.025687238', '0.0138454735', '0.01669844', '-0.0013877874', '0.00949303', '-0.026981952', '0.013393642', '-0.03152794', '-0.0050132712', '0.013011824', '-0.045552097', '-0.024362039', '0.023929168', '0.021423746', '0.0052903485', '-0.02805377', '-0.002472827', '0.0011456995', '0.017328206', '0.016144382', '-0.0012510977', '0.040142767', '0.017564235', '0.017445793', '0.0017313864', '-0.03455354', '-0.00010715611', '0.010250367', '0.009088598', '-0.005294988', '0.015972868', '0.0056103994', '0.020336566', '-0.009334949', '-0.0023741757', '-0.011964568', '0.017695332', '0.04775665', '-0.030252505', '0.023963748', '-0.028771784', '-0.008696632', '-0.022520244', '0.0055643003', '0.010220047', '0.008450179', '0.03450908', '-0.01578634', '0.03454918', '0.011769043', '-0.007455293', '4.6252833e-05', '-0.00062611274', '0.009397056', '-0.0052031055', '0.007932765', '-0.016287388', '-0.030793887', '0.0035799795', '0.0075437496', '-0.004535872', '0.014475347', '0.0072956444', '-0.03994554', '-0.017601585', '0.0006862788', '-0.010513292', '0.014064558', '0.0029420536', '-0.01138113', '-0.005906672', '-0.030224198', '-0.021884402', '-0.008493732', '0.0111976005', '0.027327683', '-0.0075056134', '0.009470904', '-0.013632624', '0.0042177676', '0.04522349', '0.022753665', '-0.0052632275', '-0.039981034', '0.010583245', '-0.012378572', '-0.0027291756', '-0.012003479', '-0.020968806', '-0.025277058', '-0.018691644', '0.0032910588', '0.014134836', '0.012626911', '0.011393303', '-0.042323302', '-0.0013604048', '0.006885976', '0.0056338604', '-0.008310575', '0.023324039', '0.003856612', '-0.015714567', '-0.018939983', '0.011156961', '-0.022660824', '-0.0027908385', '-0.019996896', '0.023083026', '-0.00240386', '-0.0013718745', '0.020440789', '0.020665336', '0.014101844', '-0.009743909', '-0.020493014', '-0.006870374', '-0.0138682015', '0.03072197', '-0.011943156', '0.014835515', '0.011209701', '-0.009951858', '0.011034071', '0.00011954986', '-0.023148695', '-0.012993358', '0.025740517', '0.03878565', '-0.040995657', '-0.009783415', '0.003112165', '-0.015603226', '-0.013963521', '-0.022651125', '-0.006837926', '-0.035845276', '0.010682783', '0.03216825', '0.01542566', '-0.0058247056', '0.0044229124', '0.0066544604', '0.03475966', '-0.026880749', '0.02612887', '0.0046506785', '-0.011411665', '0.010649076', '-0.015324883', '-0.028350929', '0.0136934845', '-0.01055653', '0.0033075067', '-0.032989535', '-0.00077466265', '-0.043962087', '-0.023166375', '0.027101316', '0.05521504', '0.023454165', '-0.010132576', '0.018362578', '0.0118513275', '0.00021794667', '0.0029370885', '0.002392131', '-0.042179078', '-0.0005384021', '0.0057149776', '0.026596975', '-0.047949914', '0.008675549', '-0.0056211436', '0.051333945', '0.022050826', '-0.00040580556', '-0.0115856975', '-0.011609901', '-0.03471744', '-0.001043423', '-0.011520026', '-0.027982496', '-0.002122308', '-0.023334768', '-0.006524219', '0.025647536', '4.2880398e-05', '-0.030589702', '0.020505885', '-0.005187631', '0.041569296', '0.04286147', '-0.002068923', '-0.028378949', '-0.022824785', '0.017849393', '0.027249767', '0.0039377287', '-0.016280519', '0.005772245', '-0.013745111', '0.0014776312', '-0.03822291', '0.0038677922', '-0.008747799', '-0.004465988', '-0.0005500495', '0.044805102', '0.011702412', '0.012569724', '-0.017441412', '-0.013563944', '-0.004845179', '-0.020716878', '-0.0070448346', '0.01694', '-0.011872705', '0.0015534435', '0.011159483', '0.00018284375', '0.015444078', '0.0037780213', '0.007210487', '0.017266043', '-0.01214125', '-0.017128628', '0.0037691635', '0.018255673', '-0.0033022193', '-0.007958824', '-0.009378036', '0.013979363', '0.030029383', '-0.018329628', '0.010274833', '-0.0045278566', '0.012848302', '0.04046069', '-0.023972267', '-0.0010295946', '0.008345331', '-0.019805849', '0.008277327', '-0.02425452', '0.013213203', '-0.023757936', '-0.0034049181', '-0.0028553242', '0.027178321', '0.014228528', '-0.0036219624', '-0.040278304', '0.0049649714', '-0.025923584', '0.011285196', '-0.03514516', '-0.018714186', '-0.010274655', '0.021808831', '0.0013917718', '-0.00072864845', '0.03454071', '-0.017404161', '-0.038263775', '0.010595428', '0.009281732', '0.024004653', '-0.010663533', '0.011539333', '-0.011056056', '-0.0027766624', '-0.0057826447', '-0.006724236', '0.015117182', '0.022704758', '-0.03824057', '0.0011762184', '0.0026380927', '0.0034419415', '-0.0073532993', '0.04788242', '0.0037007397', '0.0252344', '0.0048633395', '0.011308723', '-0.017915692', '-0.016372569', '-0.054870855', '-0.04256791', '-0.0050189076', '0.0011785548', '0.027917499', '0.0021334582', '-0.0022679686', '-0.02058456', '0.009903929', '0.012455546', '-0.0039076377', '0.019683463', '-0.027181886', '-0.0036264905', '0.0028781292', '0.0038703266', '0.006829997', '0.012128609', '-0.004796322', '-0.027889539', '-0.010588855', '-0.018793618', '-0.04640436', '0.0017718689', '-0.014935946', '-0.0075790673', '-0.004334514', '0.0074729235', '-0.018160012', '-0.03786073', '-0.016600287', '0.02583015', '0.029362962', '0.0035577628', '0.0132948775', '-0.0073187393', '0.021065922', '-0.021358253', '-0.03890697', '-0.036465365', '0.005117902', '-0.0027218177', '-0.020260103', '-0.0019280056', '0.0141237015', '-0.0023727538', '-0.008836958', '0.02897988', '-0.03364995', '-0.010841047', '-0.020374201', '0.0010303217', '-0.00014112226', '-0.04187616', '0.047167204', '0.02394713', '-0.014316573', '0.0019914801', '0.01491993', '0.014466208', '-0.042909753', '-0.0058485423', '-0.0108239595', '0.036848452', '0.0057768985', '0.020042388', '0.007234029', '-0.020067042', '0.017550478', '0.050361942', '-0.0059525156', '0.027266845', '-0.0072479914', '-0.01965039', '-0.017058903', '-0.008198142', '-0.0010205286', '0.00015627843', '-0.029120566', '0.0056227013', '0.0011912831', '0.049717642', '0.00097621034', '0.022920858', '-0.0063898587', '0.025350222', '-0.040184017', '0.02138139', '0.031946696', '0.007957256', '-0.010931937', '0.012843267', '0.0016152594', '-0.009862689', '0.018796071', '-0.01530241', '0.022015998', '-0.0076416456', '0.012681876', '0.013844946', '-0.017225979', '-0.018843854', '0.0016961886', '0.05085612', '-0.0073436545', '0.028242677', '-0.011209137', '0.038328357', '-0.010308071', '0.00816903', '0.0105174', '0.005909422', '-0.006787199', '0.006999274', '-0.03829171', '0.01570824', '-0.011872504', '0.003158515', '0.028218538', '0.010424486', '-0.013603418', '-0.0048119193', '-0.023100581', '-0.0123322755', '-0.029663477', '-0.018274087', '0.008588802', '-0.007919588']
1, ['0.031991888', '0.0069342307', '0.029405482', '-0.007924613', '0.0150474785', '0.01067347', '-0.04937615', '-0.01488203', '0.008201023', '-0.008611457', '0.01826853', '-0.011000469', '0.01112897', '0.023154987', '-0.013581494', '-0.021713302', '-0.010714104', '0.0039789677', '0.010373574', '0.025184792', '-0.009023494', '0.04005747', '0.0053104344', '-0.003782522', '0.0077133747', '0.012066878', '0.011970864', '-0.0071397913', '0.00097273086', '0.01271501', '0.0013957003', '0.022744777', '-0.028142763', '0.015770787', '0.02095786', '-0.006126024', '-0.036047813', '-0.0024219393', '-0.0022295692', '-0.013111565', '-0.010109095', '-0.036646996', '0.018354107', '-0.004848242', '0.0007303801', '0.009845257', '0.012711027', '0.0050050807', '-0.0016008861', '-0.024094898', '0.006646002', '-0.016271051', '0.012009876', '0.027200665', '0.006316386', '-0.04013062', '0.013365784', '-0.0062328996', '-0.0006917013', '-0.012794778', '-0.02278944', '-0.03456353', '0.010714172', '0.00034320177', '0.06421536', '-0.01599896', '-0.001114631', '-0.033410165', '0.02699042', '-0.0030820065', '-0.0010803527', '-0.026903432', '0.009197531', '0.027063726', '-0.016096916', '-0.0044189105', '-0.0013400617', '0.039785687', '-0.022073876', '0.019839719', '-0.0050243954', '-0.021030668', '-0.013646091', '-0.032410685', '0.01772282', '0.014668811', '-0.008524044', '0.05206101', '0.028210383', '-0.008305843', '-0.010318071', '0.0030721242', '0.022567391', '0.00077426346', '0.0107903285', '-0.009700997', '0.018361604', '0.010764385', '-0.007909278', '0.017440002', '-0.028163409', '0.012169236', '-0.05020964', '-0.02191461', '0.011213439', '0.002234365', '-0.016159536', '-0.0391', '-0.019056605', '0.00056810107', '0.00751297', '0.011684456', '-0.014917009', '0.0063746325', '0.029434392', '-0.00038741183', '-0.000868865', '-0.020895183', '-0.008263108', '0.012039717', '-0.0034878643', '0.012988897', '-0.001797934', '0.003153034', '-0.009508808', '-0.016280346', '0.008436205', '0.017987544', '-0.004382939', '-0.0021532227', '0.0053921165', '0.00064127764', '-0.010374806', '0.0040744445', '-0.009511503', '0.024647525', '0.011781508', '-0.019377511', '-0.0840801', '-0.009990363', '-0.023951583', '-0.021673515', '0.04416503', '-0.0034473569', '0.0010853162', '-0.019645592', '0.01291756', '0.02161249', '-0.001197181', '0.011042355', '0.03311622', '-0.0057263384', '0.005137796', '-0.028787058', '-0.024623647', '-0.0052887187', '-0.04880763', '0.030467456', '0.0028528117', '-0.012860007', '-0.03599228', '0.0053461115', '0.015643016', '-0.021994846', '0.027546916', '-0.005873263', '0.01065619', '0.014957104', '-0.03353988', '0.010970421', '0.004168904', '0.012883777', '0.016106835', '-0.013875356', '0.006655072', '-0.03393227', '0.0027975868', '-0.012617213', '0.016643878', '0.010100222', '-0.0029540495', '0.01014355', '-0.014145007', '0.019468848', '0.016165866', '-0.022032842', '-0.01083176', '-0.0029349206', '-0.012673409', '-0.025730787', '0.014351661', '0.0035165942', '-0.007759593', '0.0066544455', '0.015195704', '0.00021716127', '-0.00062315614', '0.022775657', '0.009168933', '0.023178339', '-0.04086148', '0.010346597', '-0.018610585', '0.0027912457', '-0.015608216', '0.018159946', '0.021734864', '0.006676954', '0.011301277', '0.013068779', '0.001106717', '-0.01833197', '0.0028285957', '-0.026829636', '-0.017748369', '-0.009929695', '0.009080808', '-0.0027444412', '-0.010634857', '-0.0037510705', '-0.005500123', '0.008837569', '0.015107435', '0.0024171756', '-0.011875103', '-0.008044772', '0.013388341', '-0.007050503', '-0.0024284543', '0.0018628853', '0.011409215', '-0.0067033847', '-0.0068687485', '0.0160371', '-0.008507977', '-0.02786966', '0.0026807983', '0.02005804', '0.016996654', '0.0002007446', '0.0034906955', '0.018255224', '-0.0024550378', '0.0039928993', '0.0070731756', '-0.012997094', '0.011999924', '-0.004868985', '0.01574525', '0.048733793', '0.0073054903', '0.018410588', '-0.014636', '0.006539375', '-0.027931092', '-0.033005722', '0.050087046', '-0.04600749', '0.016361112', '0.016326172', '0.010189681', '-0.030305503', '0.010163881', '0.015661195', '-0.033967335', '-0.005708198', '0.072360285', '-0.017767897', '-0.001354938', '-0.01952853', '0.03230491', '-0.012904657', '0.0032538716', '-0.027401358', '0.0019288047', '0.025396101', '0.025669597', '0.008218911', '0.005765614', '0.015557322', '-0.009985773', '0.018084621', '-0.039533723', '0.018137347', '-0.019825086', '0.00660636', '-0.001393527', '-0.0048646587', '-0.008225423', '0.023748184', '-0.016673366', '0.0046069645', '0.01845566', '-0.020590989', '-0.0048358566', '-0.0116049', '-0.0020889137', '-0.02012313', '0.00042739886', '0.008610935', '0.0047199214', '0.040093858', '-0.035482693', '-0.0055802185', '-0.0005219632', '0.031601205', '0.02266116', '0.0026845273', '-0.0062464867', '-0.008856247', '0.0056503383', '0.016933618', '0.0004954938', '0.0061227214', '0.027705707', '-0.015823973', '0.011812954', '-0.019155752', '-0.0007878196', '-0.020012476', '0.0008085517', '0.011398851', '0.016461821', '0.013367919', '0.004836292', '0.003572391', '-0.17499283', '0.0024641939', '-0.005403897', '0.0090157185', '-0.0013974123', '0.014961944', '-0.0031068907', '-0.006070641', '-0.020870911', '-0.006250653', '-0.0084383795', '0.0038071352', '0.0052932547', '-0.0058634323', '-0.0026105477', '-0.027816035', '-0.0073292414', '-0.02547713', '0.0391344', '-0.020181427', '-0.021784179', '0.0076482175', '1.9066905e-05', '0.031197509', '-0.01815243', '-0.033151723', '0.007982484', '-0.005884614', '-0.027087064', '0.009560718', '0.011078753', '-0.015141389', '-0.008033829', '-0.006237152', '0.02063239', '0.014657942', '-0.03361499', '-0.00037787572', '-0.005668009', '0.015681041', '-0.03957713', '0.0015492466', '0.0048156227', '-0.016929692', '-0.0103064', '-0.000908827', '0.010333152', '0.060313176', '0.017609596', '0.00090903754', '0.012684129', '-0.048663907', '0.010330567', '0.014913045', '-0.016519507', '0.010161458', '-0.009999848', '-0.01411666', '-0.0019493947', '0.0031584303', '-0.02604611', '-0.0061740684', '-0.01500253', '0.018332308', '0.010918685', '0.00041045336', '-0.0069131637', '-0.020039398', '-0.014098811', '0.0048926836', '-0.007857428', '0.015586267', '0.010371268', '0.003989149', '0.012148834', '-0.0044487296', '-0.0064687845', '-0.018108135', '-0.012353901', '0.0060845646', '0.017642092', '0.00059350627', '-0.017437942', '0.006622958', '0.012906891', '-0.022089653', '0.035800286', '-0.01651693', '-0.005182915', '0.0014110203', '0.003761761', '-0.011345287', '-0.0049145455', '-0.00970294', '0.018938543', '0.0024831414', '0.011891103', '0.017668257', '-0.0033160783', '-0.018322375', '0.03989518', '-0.008645229', '-0.014052847', '-0.023133853', '-0.013805592', '0.0134690255', '0.016968334', '0.0033509387', '0.019823112', '-0.04031811', '-0.0028747756', '0.009007382', '7.564068e-05', '-0.006668298', '-0.020456538', '-0.03535919', '-0.018128242', '-0.014749328', '0.013385405', '0.0052672885', '0.0030050164', '-0.06388395', '-0.00021743393', '-0.017757898', '-0.049830187', '-0.0050495104', '-0.0066132946', '0.00444643', '-0.001076454', '-0.00073568826', '0.02043963', '-0.01718995', '-0.023840558', '-0.012672565', '0.017782709', '0.017491953', '-0.01631968', '0.0026408331', '-0.006841534', '0.0067665153', '0.033565402', '-0.03652639', '0.0012426345', '-0.0125600165', '0.00052325934', '0.006998499', '-0.01390653', '0.0031806328', '0.012868982', '-0.007780399', '-0.014888464', '-0.009858582', '-0.00043458282', '0.029966114', '0.060625263', '-0.059454493', '0.014113491', '-0.011027389', '0.008209747', '-0.022205802', '0.0002971079', '-0.008466998', '-0.0036204779', '-0.00088063185', '0.006380605', '-0.01839804', '0.014964763', '0.009662452', '0.016101979', '0.009982744', '-0.027012132', '0.031599354', '-0.009700036', '-0.004340121', '0.008739195', '0.0011593325', '-0.026803153', '0.013516941', '-0.02719721', '-0.008672652', '-0.0071146227', '-0.04250339', '-0.018712105', '0.011111619', '0.014445087', '0.018775681', '-0.032088928', '-0.024091015', '-0.0060302652', '0.0207413', '-0.0023612857', '0.013108042', '0.0021767367', '0.00011563523', '0.015696516', '-0.00040418663', '-0.008018237', '-0.018936135', '-0.007926253', '0.0055921394', '0.0318201', '0.01823251', '0.017021922', '0.019646928', '-0.022589268', '-0.007877069', '-0.023642432', '0.021840809', '0.0154219065', '0.0003528805', '-0.020031372', '0.0072544953', '0.018671647', '-0.00856145', '-0.02901538', '-0.0049854782', '-0.010843167', '0.03828931', '0.022959197', '-0.019401846', '-0.026033053', '0.0039071776', '0.015430498', '0.004136781', '0.016647944', '-0.005123327', '-0.0023270275', '0.008911551', '0.016114222', '-0.018896116', '0.018522857', '0.01696269', '0.008385687', '-0.020626767', '0.002957597', '-0.0009379371', '0.0072793164', '-0.013941839', '0.013666587', '0.022292396', '-0.031039527', '0.014774875', '-0.015690725', '0.009326187', '0.019217102', '0.018091224', '-0.035504386', '-0.009331546', '0.019340897', '-0.014424466', '0.0055201575', '-0.0023765408', '0.024568593', '-0.017258259', '0.0041943486', '0.01679344', '-0.028137092', '-0.0062988712', '0.00075636036', '-0.0034199643', '0.0128073925', '0.0018377041', '-0.03053358', '-0.011362621', '0.016160384', '0.012655099', '0.015663542', '0.0004650498', '-0.015692327', '0.04211303', '0.018239152', '-0.035861712', '0.0014135734', '0.041000348', '0.021854164', '-0.0028730424', '0.0053055026', '-0.026735114', '-0.006116759', '0.00479319', '-0.0070286784', '0.02782612', '-0.03370717', '-0.0034871357', '-0.019147582', '0.010785918', '0.02076221', '-0.013000014', '0.0065019033', '0.016057353', '0.003468948', '0.0103324875', '0.028914934', '0.015443561', '-0.025198163', '0.021760367', '-0.005229325', '-0.0052964664', '-0.008635319', '-0.014400998', '-0.020110495', '0.03070932', '-0.007864583', '0.018333632', '0.0021055958', '-0.0102768475', '-0.023280825', '-0.008636472', '-0.030425467', '0.034641087', '0.014154757', '-0.006450429', '-0.0064389217', '-0.0036516227', '-0.014278223', '-0.025754793', '0.028799387', '-0.0041883513', '0.018758673', '0.004145204', '0.059043527', '0.008510732', '-0.02977257', '0.010161205', '0.0026941479', '-0.012085784', '0.0044779647', '-0.008771919', '-0.011956655', '-0.0100462595', '-0.009563133', '-0.005337086', '0.020973325', '-0.031684402', '-0.0042976015', '-0.022408964', '-0.0040355613', '-0.023438502', '0.007591895', '0.0006454878', '0.006201862', '0.011317733', '-0.03306601', '-0.025249757', '0.013376094', '0.000568084', '0.014518127', '0.014042443', '0.023180414', '-0.0029984964', '-0.0013087755', '0.031263705', '-0.060526177', '-0.018460248', '0.061775528', '0.010646842', '-0.016065797', '0.008966575', '-0.025170568', '0.00399402', '-0.0027167327', '-0.00960067', '0.011228273', '0.015000466', '0.008732016', '0.0017764601', '0.0137950685', '0.0065731104', '0.00033326808', '-0.013391446', '-0.013092823', '-0.016946988', '-0.0308035', '0.013177984', '-0.012753096', '-0.034647427', '-0.008880393', '0.036360797', '-0.011591697', '-0.0011571669', '0.049418394', '0.040931206', '0.008552783', '0.03796858', '-0.04523304', '-0.006646106', '0.002950267', '0.015209528', '-0.0061107595', '-0.004472573', '0.0058739833', '0.014852932', '-0.026844407', '-0.016290355', '0.007407754', '0.020705327', '0.006841612', '0.0041916054', '-0.012381124', '0.023545403', '-0.0064301444', '-0.03195087', '-0.0021463786', '0.0006161781', '-0.01571306', '0.031336434', '-0.008503353', '0.008647723', '-0.013529175', '-0.010179601', '0.0039145383', '0.017875444', '-0.04221176', '0.0060596094', '-0.007351545', '0.016559616', '0.0071346913', '-0.02310887', '0.0042441194', '0.03195359', '0.016386278', '-0.00021566749', '-0.0049077384', '0.019574579', '-0.0039654085', '0.012292045', '-0.015103856', '0.015702747', '-0.0029760557', '-0.0056320224', '0.0105428705', '0.004814794', '0.012069923', '-0.032689143', '0.0075980183', '0.027063724', '-0.029053574', '0.004960649', '0.007776909', '0.0025896674', '-0.0009878556', '0.037814155']
2, ['-0.007467366', '-0.0039327717', '-0.0017900363', '0.013932282', '0.005346249', '0.024560098', '-0.044030245', '-0.0064928713', '-0.018012393', '0.011542268', '-0.0046761623', '0.027484896', '0.012661899', '-0.023727916', '0.018643767', '-0.019424742', '-0.02494401', '0.014221912', '0.00019522737', '0.030909553', '-0.006469673', '0.016536612', '0.027000276', '0.013273951', '-0.007905136', '-0.027895996', '0.0027169322', '0.009177877', '0.01213583', '-0.00072870177', '0.0050582094', '-0.010229652', '-0.0005905709', '0.0120780915', '0.0077560013', '-0.011678264', '-0.03586534', '-0.020525053', '-0.0032308209', '0.031803664', '-0.00096397416', '-0.027569879', '-0.008164103', '-0.0052372376', '0.0016437271', '0.009482021', '0.024654835', '0.0031421129', '-0.0024563887', '-0.010379599', '-0.00915644', '0.0044463216', '0.0020692218', '0.006475421', '-0.022890031', '-0.049552202', '0.012652305', '0.018723376', '-0.0023111075', '-0.014221181', '0.008932381', '-0.012732428', '0.009589252', '0.026906665', '0.03331903', '-0.023543645', '0.0014383108', '0.017855318', '0.023463786', '0.0117776375', '-0.014439899', '-0.00960863', '-0.013104885', '0.025758874', '-0.0071188253', '-0.01610912', '-0.00064375973', '0.046065237', '0.011346032', '0.019768566', '0.00806972', '-0.0070427405', '-0.0012200564', '0.02055625', '-0.0062297233', '0.0026487203', '-0.031123335', '0.019623728', '0.0045067477', '0.015190037', '0.009668188', '-0.013965436', '0.03541527', '0.00926813', '-0.027494589', '-0.004945286', '-0.009356823', '0.008501642', '-0.026147267', '-0.0019090385', '-0.02299364', '0.009826523', '-0.057481047', '-0.012723639', '0.007942569', '-0.002217182', '0.0101309605', '-0.042217065', '-0.01881176', '0.0069590383', '-0.0077045094', '0.008046775', '-0.0005289931', '0.0008964356', '0.009254331', '-0.007753964', '-0.0045544403', '0.0067860484', '0.0123658255', '0.011956344', '-0.007096275', '0.002959855', '-0.019466653', '-0.0026608328', '0.014562523', '-0.008865373', '0.036534406', '0.0116634', '0.016861198', '-0.0041363253', '0.007137015', '0.00339098', '-0.0087338155', '0.014267753', '0.0028265887', '0.015696796', '-0.00969819', '-0.0015682471', '-0.038903542', '-0.00803581', '-0.03702967', '-0.020602388', '0.054817688', '-0.0011289077', '-0.0011786693', '-0.03129185', '-0.0087127155', '-0.014124429', '-0.014394213', '0.017818848', '0.025494777', '0.008818611', '-0.020008422', '-0.022822088', '-0.009616478', '-0.012198545', '0.020694029', '0.0062124063', '0.0084011555', '-0.012830325', '-0.03260191', '-0.022032285', '0.0075036692', '0.011219665', '0.0018072868', '-0.03817326', '0.0049671717', '0.02956641', '-0.012434459', '-0.009085206', '0.013021832', '0.0029352524', '-0.007351515', '-0.024314383', '-0.0023702735', '0.002161878', '0.0055449186', '-0.007296925', '0.01556834', '-0.0360784', '-0.010982109', '-0.014160974', '-0.009350151', '-0.012295347', '0.020411698', '-0.023912227', '0.0065478296', '-0.017859707', '-0.01586921', '0.0011704956', '0.02529339', '-0.0039348793', '0.012486989', '0.011657148', '0.018638173', '0.015453273', '-0.0068279738', '-0.0021227452', '-0.0021080768', '0.0035786338', '0.004725308', '0.0076935194', '-0.004032146', '0.018064553', '0.003315909', '0.014385516', '0.009905583', '-0.0036253973', '0.029180793', '0.0043218913', '-0.0007604', '-0.0045565637', '-0.026074067', '-0.0011387113', '-0.006250447', '-0.0021464522', '0.0031330965', '0.0142185185', '-0.012449748', '-0.0049783518', '0.013965972', '0.0066423244', '0.010035664', '0.035714667', '-0.02791949', '-0.011664943', '-0.0022133123', '-0.0039457013', '7.340754e-05', '-0.016267097', '-0.0081773475', '0.008660527', '-0.002926141', '-0.005470046', '0.012371638', '-0.0010219875', '0.017159011', '-0.0070232665', '-0.0029452143', '0.009833778', '0.00015779235', '-0.020545984', '-0.0068277027', '-0.016536139', '-0.010385261', '-0.026458217', '-0.009066437', '-0.023759676', '0.013852888', '0.017276466', '0.0033145684', '-0.0030598189', '0.011701984', '0.005602441', '-0.012227118', '-0.0005050882', '0.0480787', '-0.021956943', '-0.012258477', '0.028930506', '0.008432868', '-0.03246466', '-0.026514715', '0.014467408', '-0.0049924455', '-0.020226398', '0.03890428', '-0.013856165', '-0.005239268', '-0.00531041', '0.009860153', '-0.0025192741', '-0.009123479', '-0.0048359423', '-0.0015326383', '0.005272451', '0.0040967357', '0.016457457', '0.018371237', '0.0038029794', '0.0016858792', '0.007437937', '-0.010434974', '0.03344723', '-0.0306495', '0.025855029', '-0.018424945', '-0.036104638', '0.0030292782', '0.017979477', '0.010694508', '0.006485572', '0.0048989393', '-0.01959594', '0.015610098', '-0.012767708', '0.029530752', '-0.017539782', '-0.018606117', '-0.018233538', '0.009774943', '-0.019576907', '-0.04179274', '0.003619099', '-0.0040925005', '-0.01193483', '0.0020887705', '-0.00014647101', '0.0013170156', '-0.005282617', '-0.009117282', '0.013580786', '0.007071483', '-0.007656091', '0.02553488', '-0.012340596', '0.015828624', '-0.0026240924', '-0.012631788', '-0.0011911241', '-0.0074347015', '-0.020069929', '0.006424359', '-0.0074669975', '-0.016425248', '0.008964948', '-0.06176254', '0.0058789807', '0.0016639392', '-0.009761887', '-0.033113237', '0.0036244753', '0.026572399', '0.003360116', '-0.033945445', '-0.0065803034', '0.0033998503', '0.015851961', '0.0001463325', '-0.008214066', '-0.009348832', '-0.008618142', '0.00749211', '-0.026734715', '0.002508122', '-0.0073236967', '0.006034927', '0.012954292', '-0.028838884', '-0.0014458883', '-0.0049050623', '-0.027940562', '0.00845945', '-0.007719896', '-0.02097967', '0.02410583', '0.012297839', '-0.012378979', '-0.000262555', '0.0044437037', '0.011047332', '0.015770633', '-0.016198454', '-0.012198583', '-0.02556195', '0.02810448', '-0.010665806', '-0.0061252294', '0.0074719', '-0.010282449', '0.01097063', '-0.0023040154', '-0.010876369', '0.029843464', '0.017948447', '0.013575928', '0.009505612', '-0.055050716', '0.0021485907', '-0.018705793', '-0.013347847', '-0.0037355195', '-0.021304123', '-0.022898734', '-0.008600786', '-0.0057543204', '-0.037153855', '-0.0028441842', '-0.021161987', '0.02230351', '0.0020279826', '0.00041951684', '-0.02315733', '0.00031202234', '0.0009806303', '0.0022094261', '0.0044545378', '-0.020844767', '0.00051629776', '0.012717947', '0.0006060797', '0.0057019414', '-0.014567933', '0.007402074', '0.0070038037', '0.0009179212', '0.0038806205', '-0.015363151', '-0.0054684686', '0.024089688', '0.019046951', '-0.012354655', '0.016326271', '-0.035414558', '-0.016953837', '0.0059440867', '0.005029061', '-0.023815444', '0.00835634', '-0.028846445', '-0.005855082', '-0.014794818', '-0.007908969', '0.011383654', '-0.0029082436', '0.0035363776', '-0.0057136463', '0.006586792', '-0.006861721', '-0.0065886793', '-0.013619958', '0.007011095', '0.00820901', '0.005298622', '0.015362384', '-0.009771123', '0.011434926', '-0.01569042', '-0.011879214', '-0.0023325924', '-0.01158712', '-0.012363459', '-0.019552574', '-0.007295865', '0.0014194889', '-0.023430971', '0.004500917', '-0.03644336', '0.0011118185', '-0.027756205', '-0.00069535733', '-0.017908389', '0.022548076', '0.01653446', '-0.005724788', '0.015549385', '0.0056679747', '-0.015219583', '0.004732753', '0.0015672301', '-0.024226384', '0.028174976', '1.6340735e-05', '-0.0071232915', '-0.01985864', '0.008529409', '0.016326897', '0.0061455495', '-0.013506677', '0.015820922', '-0.032920185', '-0.017192427', '-0.0058957622', '-0.035374552', '0.013809211', '0.0070831445', '0.01796883', '-0.0031496745', '-0.035039105', '0.035825215', '0.029429728', '-0.029499311', '-0.0064255423', '0.005476957', '0.0207234', '-0.0077804844', '-0.0069809593', '0.0035024032', '-0.020177664', '-0.023499245', '0.01716641', '-0.0036181828', '-0.009273176', '0.027351536', '-0.0038133312', '0.011856139', '-0.026872538', '0.03882242', '0.023820074', '0.0041221613', '0.0009724835', '-0.011911999', '-0.012273351', '0.013310326', '0.003137939', '-0.01677303', '0.006857232', '0.0018116665', '0.0011119217', '0.012776496', '0.024028176', '0.016506378', '-0.008871045', '-0.010616253', '0.004779811', '0.022832282', '-0.00040970597', '0.007908634', '0.00054656185', '-0.016336294', '-0.018436728', '-0.036253713', '-0.023738015', '0.003980614', '-0.0066436892', '0.0075675095', '0.021640206', '0.0027292273', '0.017600872', '-0.011935545', '0.007215849', '0.0075865644', '-0.008072016', '-0.029305654', '0.009970902', '0.015617189', '0.0046749343', '0.0048929933', '-0.0061945072', '0.012148955', '-0.0062076864', '0.0233591', '-0.0071981014', '0.0042387266', '0.00764379', '-0.0071019754', '-0.028165955', '-0.01203072', '0.021265414', '0.003037863', '0.002102509', '-0.020838711', '0.017106622', '0.007325294', '0.013972517', '-0.0037330731', '-0.015783688', '0.022978667', '-0.0011630385', '-0.016373362', '0.020198077', '0.011786751', '0.0053394353', '0.004364009', '-0.007255829', '0.0023216142', '-0.013856484', '0.0028802885', '-0.0032138317', '0.005248599', '0.014386018', '0.010731316', '-0.05767983', '-0.0071957204', '0.00014548445', '0.008738613', '0.016035859', '0.014928874', '0.041206513', '-0.027826216', '0.017042475', '0.010501659', '0.009723215', '-0.026646325', '-0.0052772756', '0.009348038', '0.01834924', '-0.019355554', '-0.011036176', '0.019189253', '0.014935217', '-0.03392319', '0.01289717', '0.011050727', '0.015439753', '0.017384706', '-0.012382051', '-0.021465821', '0.0010763751', '0.020500638', '0.006531665', '0.015120731', '-0.015400915', '0.0023626918', '-0.025788778', '-0.015649242', '0.030856464', '0.032896176', '-0.03823201', '-7.713639e-05', '-0.017592156', '0.011295087', '0.019558718', '0.0050726747', '-0.013239199', '0.007385481', '0.020768287', '0.007511036', '0.0035236962', '-0.0024197802', '-0.0013471224', '-0.0057316273', '-0.008673108', '-0.013715253', '0.0026979237', '-0.00902661', '-0.008487385', '0.024939278', '-0.010555132', '-0.021275293', '0.0013990143', '0.014234401', '0.0034846724', '-0.034447607', '0.0063045193', '0.01154744', '-0.02400392', '-0.000342592', '-0.003839023', '-0.016207986', '0.011351334', '-0.012892333', '0.020448163', '0.00023728007', '-0.0026362804', '-0.008482506', '0.02732185', '0.037219524', '-0.00864297', '0.03355535', '0.019310893', '1.3348162e-05', '-0.01373052', '-0.006003888', '0.03262625', '0.023279484', '-0.017277151', '-0.009768715', '0.002240381', '-0.054184962', '0.00830033', '-0.020911593', '0.008310443', '-0.0070937686', '0.017897444', '-0.015563936', '-0.009567255', '-0.004897484', '0.0014987643', '-0.030728964', '0.007823451', '0.011877638', '-0.0022641018', '0.018633915', '0.01861242', '-0.0042181076', '-0.010879077', '0.0013340918', '0.012469278', '-0.029003529', '-0.005173273', '-0.016476087', '-0.019416664', '0.005054902', '0.005974196', '-0.0072424626', '0.01693516', '-0.009704374', '0.002021199', '0.0045694937', '0.01649121', '0.0022182895', '0.008770233', '-0.015990343', '0.004108622', '-0.017771987', '-0.0012102444', '0.011402548', '0.011161981', '0.022477804', '-0.013845788', '0.009650101', '0.033916324', '0.03873212', '-0.01456401', '-0.006683468', '0.020751007', '0.016970184', '0.025988184', '0.013945037', '-0.0050813206', '0.025465922', '-0.013501359', '-0.009289756', '0.0016381443', '-0.002819108', '0.0077267094', '0.03635352', '-0.016267441', '-0.006826014', '0.0053378576', '0.01736961', '0.0038160756', '-0.008612928', '0.0052405046', '0.00037704365', '-0.017482227', '0.007529233', '0.009769832', '0.011123295', '-0.0087483665', '0.013942352', '-0.011559406', '0.0072083753', '-0.007296055', '-0.019091938', '0.013869465', '-0.0035506804', '-0.010262156', '0.02118266', '-0.008518904', '-0.0027734581', '0.004221765', '-0.0021725087', '0.0019098797', '0.0340623', '-0.009228997', '-0.00052245427', '0.012986389', '0.033303797', '0.0026663889', '-0.003609031', '-0.0030918145', '-0.0006718861', '-0.01517517', '0.0066103856', '-0.001526214', '-0.0059501976', '0.015608663', '0.014546175', '0.03505745', '0.021299154', '-0.02294456', '-0.0077606216', '-0.0043217656', '0.031725924', '0.015463383', '0.020562144']
3, ['-0.0005376794', '-0.0027463925', '0.015850492', '-0.0032972659', '0.02617806', '-0.0018790276', '-0.04238992', '-0.022201484', '0.01616594', '-0.019891841', '0.006650218', '-0.0014510101', '-0.008151864', '-0.001100866', '0.010214494', '-0.00220079', '-0.011334067', '0.006816298', '-0.002130721', '0.035596497', '-0.01671739', '-0.0064666336', '0.002347094', '0.017532948', '0.01957393', '-0.013875224', '-0.010043752', '-0.00869982', '0.0004595868', '-0.0031050425', '0.0018103458', '-0.051520716', '-0.003206841', '0.011408866', '-0.006054817', '-0.015289748', '-0.036062542', '-0.004049705', '0.0006229984', '0.03166404', '0.00048791833', '-0.027117133', '-0.016295055', '-0.019605571', '3.5230066e-06', '0.010679704', '0.012449032', '-0.0103239035', '0.017310087', '-0.01952729', '-0.017336719', '-0.024790632', '0.012149047', '-0.008289482', '0.018408755', '-0.025508313', '-0.0028626702', '0.015269343', '-0.0058902595', '0.025115276', '0.0073992107', '-0.018662065', '0.0023049456', '0.010216432', '0.038442146', '-0.0026322552', '-0.0053644795', '-0.044890422', '0.033791497', '-0.0074488884', '0.02586974', '-0.0013005686', '0.0040002028', '0.010905598', '-0.009999109', '0.0025539645', '-0.0033812898', '0.033377245', '-0.008217534', '-0.012503242', '0.009659063', '-0.015762424', '-0.0023479385', '0.0076850126', '0.03731391', '0.0006836569', '-0.029885214', '0.02684513', '0.035867214', '0.0061247894', '-0.01244194', '0.016197369', '0.051617775', '0.019073179', '0.015477066', '-0.0249435', '0.013498061', '0.007891526', '0.010684035', '0.010825136', '0.010051991', '0.0011132496', '-0.038574424', '-0.03118144', '0.009209494', '0.0051976293', '-0.0034311477', '-0.037618186', '0.015210484', '-0.007157155', '-0.019492315', '-0.020625716', '0.012654221', '0.0043316707', '-0.0026994813', '-0.02837458', '-0.022025477', '-0.0029526602', '-0.006318935', '0.026153801', '0.0008247406', '0.01366293', '-0.0105293235', '-0.027870892', '-0.009846009', '0.009970661', '-0.012389136', '0.0067243287', '0.034639377', '0.002615944', '-0.01482353', '0.0013980492', '0.009441473', '0.019648295', '-0.025335679', '-0.00069384166', '-0.0018691546', '0.00488352', '-0.06853453', '0.002857078', '-0.0144982925', '-0.010274154', '0.04548638', '-0.0020009705', '0.007416032', '-0.03245435', '-0.012712622', '0.008179978', '0.0070137996', '0.018207256', '0.0012799121', '-0.0028925566', '-0.0126536805', '-0.021341922', '-0.023385612', '-0.016219443', '0.00047848927', '0.0033971607', '0.0018303234', '0.0011702894', '-0.031155238', '0.002431066', '0.023903573', '0.009767549', '0.019272612', '-0.005370837', '-0.009081137', '0.018802678', '-0.0074040666', '0.019801721', '0.02066914', '0.0024919703', '-0.013499773', '-0.014772235', '0.010741431', '-0.0073857326', '0.014780834', '0.0075579416', '0.012261687', '0.008755731', '0.014237398', '-0.021159781', '-0.0065425993', '0.020933023', '-0.011101219', '0.019177934', '0.00015077487', '-0.012683579', '0.009426194', '-0.01928801', '-0.003366025', '-0.00065039686', '-0.018297056', '0.025464421', '0.00011463558', '0.011653701', '0.006962655', '-0.021485155', '-0.005536059', '-0.013000776', '-0.019235486', '-0.01970493', '0.005336959', '0.01462022', '-0.03554752', '0.01274085', '0.022934346', '-0.018470487', '-0.005971868', '-0.021408191', '-0.012616717', '0.006258848', '0.020097341', '-0.016958462', '-0.0027883283', '-0.0066011394', '-0.006854534', '0.024162635', '0.008034795', '0.0220815', '0.0008326962', '0.020742955', '-0.0069097886', '0.001702083', '0.0039667888', '-0.008959049', '0.03087417', '0.002507184', '0.0011704094', '0.0003622981', '-0.010299333', '-0.019031698', '-0.017938148', '0.022654109', '-0.0077941585', '-0.004500042', '-0.0038206794', '-0.00013441216', '-0.0057339417', '-0.029932354', '0.014603963', '0.030139139', '0.017870232', '0.0066185025', '0.0019156208', '-0.0031711925', '0.010619697', '-0.00097069814', '0.008123055', '0.023517024', '0.02021654', '0.0010884963', '-0.010910268', '0.009864447', '0.011369432', '-0.042337056', '-0.004965213', '0.00079778885', '0.010228061', '0.016746823', '0.009304703', '-0.03389066', '0.030460397', '0.004844903', '0.00991781', '0.00034162667', '0.04673185', '0.011741191', '-0.021298353', '-0.0028782827', '0.020521315', '-0.008932057', '-0.014542899', '0.021403743', '0.019160401', '0.023950903', '0.008366852', '0.03270774', '0.017482052', '0.0025645068', '0.0069647743', '0.009309309', '-0.010855633', '0.027892599', '-0.011104929', '-0.012936395', '-0.011370365', '-0.0046529933', '-0.021203827', '0.0152997235', '-0.008352658', '-0.018075299', '0.008515665', '-0.016227013', '-0.006024508', '-0.017037641', '-0.002112167', '0.0012067643', '-0.020067703', '-0.032175343', '0.0099707395', '0.02174234', '-0.01392812', '0.016560767', '-0.001476509', '0.013990237', '-0.013843856', '0.0027218896', '0.00348871', '-0.0004071452', '0.009039232', '-0.0014850013', '0.004623852', '0.008446917', '0.026237613', '-0.0053040856', '-0.009099345', '0.0033240924', '-0.0011952883', '-0.011542137', '0.0148671195', '-0.0014262747', '0.026540391', '0.023182202', '-8.422115e-05', '-0.009536292', '-0.041035943', '0.002053187', '-0.00021195442', '0.008327968', '-0.024207408', '0.00018043484', '-0.01512371', '-0.0003888896', '-0.0054827277', '-0.0029934929', '0.00818668', '-0.004239669', '-0.00074293267', '-0.0054257154', '7.2234184e-06', '0.00020647873', '-0.022264507', '-0.013630786', '-0.0026376527', '-0.034525838', '-0.01572694', '-0.014973948', '-0.02558648', '0.02411841', '-0.0068693203', '-0.016777735', '0.020019446', '-0.0021941124', '0.0009978561', '-0.0052682916', '0.019129213', '-0.026520547', '0.016590329', '0.00865898', '0.010406933', '0.020370755', '-0.0640907', '-0.0030498905', '-0.0313758', '0.0063172802', '0.0030495303', '-0.0051894686', '0.014852978', '-0.0013558269', '0.03755306', '0.016926186', '0.02900276', '0.03677619', '0.018568287', '-0.009995112', '0.026808152', '-0.023554651', '0.034924943', '0.0043372186', '0.016065517', '0.0029219696', '0.010899431', '0.0057369913', '0.009141911', '-0.010550636', '0.0026410136', '-0.02450832', '-0.03244162', '0.03855867', '0.00570289', '0.017746292', '0.0077387826', '-0.021861162', '0.012274824', '0.0073514977', '-0.015084671', '-0.010879554', '-0.026421335', '0.0018935093', '0.0076039787', '-0.00069183443', '-0.017178528', '-0.004239966', '0.0012893943', '0.0026148434', '0.0005229627', '0.0077289077', '-0.014041994', '-0.015825571', '0.0017077895', '0.015038974', '0.014049994', '-0.006062284', '0.0036999232', '-0.005639844', '0.017739609', '0.013765308', '-0.0069882763', '-0.021449506', '0.014796446', '-0.023590649', '0.013108636', '0.039550807', '0.009495585', '-0.0044353832', '-0.005780191', '-0.012248505', '0.009797742', '-0.0039512147', '-0.013486519', '0.01342981', '0.0037819734', '0.0330958', '0.021865178', '-0.0061636223', '-0.008831562', '-0.027033161', '0.011662782', '-0.013682565', '-0.032259483', '-0.023359593', '-0.02059055', '0.0035941724', '0.002812375', '0.009148852', '0.024422541', '-0.046773173', '0.0133812055', '0.013535552', '0.0018822661', '-0.02528405', '0.016671441', '0.008466361', '-0.020739818', '-0.012449846', '0.023584208', '-8.175799e-05', '-0.006137816', '-0.016842285', '-0.008716697', '-0.013745178', '-0.022791123', '0.008431981', '0.012079193', '0.02578679', '-0.0009612291', '0.0023060024', '0.0014693358', '-0.030262604', '0.0032608425', '-0.015957661', '-0.0028057648', '0.018105991', '-0.008178172', '-0.008513123', '-0.011860656', '-0.00588339', '-0.013336012', '0.025500843', '0.04191192', '-0.037827414', '0.03107016', '-0.032484833', '0.02126133', '0.009656204', '0.015077529', '0.03408716', '-0.021719728', '0.016894538', '0.008595704', '0.028728781', '0.006830707', '0.0018749133', '-0.00071068056', '-0.011469017', '-0.026890207', '0.01696233', '0.0032335813', '-0.02536888', '0.008708114', '0.0121754045', '0.006991848', '0.020154882', '-0.009641011', '-0.014854155', '-0.006117016', '-0.02244086', '-0.05733425', '-0.013927371', '0.010130316', '0.021685971', '-0.00036096276', '0.02578577', '-0.041431483', '0.013308151', '-0.042694964', '0.0064815124', '0.018681562', '-0.008968224', '-0.032839462', '0.01461624', '-0.013258544', '-0.016593693', '-0.005468902', '-0.007993458', '0.054328404', '0.0040239384', '0.0052814838', '-0.0011186317', '-0.05434743', '-0.010451598', '-0.027624264', '-0.009795592', '0.019984419', '0.0016488006', '-0.004663879', '0.0028364072', '-0.012493131', '-0.0028387697', '-0.033844404', '-0.01328101', '-0.018168809', '0.036960393', '-0.006198814', '0.008349638', '-0.024174865', '-0.024483005', '0.010872478', '0.014710321', '-0.0021297538', '-0.015719097', '0.010921247', '0.0050987457', '0.017571416', '-0.013468353', '-0.008653821', '0.0065333648', '-0.010962667', '-5.195602e-05', '0.013783558', '0.0032492634', '-0.006020115', '-0.0177192', '0.0036368282', '0.010498646', '-0.02825961', '0.0078111845', '-0.008070686', '-0.0052083586', '-0.03204818', '0.026388442', '-0.005895498', '0.01091314', '-0.005158109', '-0.014231677', '-0.016528137', '0.0011031271', '0.012129589', '-0.010853687', '0.009448653', '0.009635375', '-0.0037684934', '0.006502156', '-0.0015664208', '0.0005114999', '-0.008462283', '-0.009740099', '-0.017888226', '-0.008746095', '0.022074588', '0.014323292', '0.021125013', '0.0099638235', '-0.01981317', '-0.002931833', '0.000350346', '0.020107213', '0.02439631', '-0.0020929181', '-0.016880136', '0.0069514406', '0.044753652', '0.0059758914', '0.0076004984', '-0.0040309555', '0.0011437035', '0.013311787', '-0.05017535', '-0.005635783', '0.02039394', '0.0034435755', '-0.0039675045', '0.006072313', '0.0073940707', '0.018262623', '-0.028544877', '0.0013140829', '0.058375657', '0.005007424', '0.017406154', '-0.020721346', '0.0012445966', '-0.007884107', '0.012406757', '-0.00640094', '-0.040778346', '0.032182015', '-0.002642126', '-0.010718414', '0.004010652', '-0.021825038', '-0.0027182798', '0.0018586467', '-0.004570329', '0.030482188', '0.01656842', '-0.0053266077', '-0.025482513', '0.00060754904', '-0.030617047', '-0.013313024', '-0.01651587', '0.00031480746', '0.038032796', '0.005894718', '0.02527129', '-0.004570251', '-0.051881295', '0.02581695', '-0.0026634869', '-0.013602441', '0.018106246', '0.0015568103', '-0.021774214', '-0.0038163548', '-0.014083097', '0.023780115', '-0.010271637', '-0.043461885', '-0.0029738955', '-0.028175212', '-0.008225835', '-0.023719065', '0.00320202', '-0.044089135', '0.013816863', '0.005731288', '-0.0120235', '-0.024633437', '0.0058541703', '0.0152892275', '0.008376346', '-0.0036869159', '0.019254705', '0.016846167', '-0.003098547', '-0.015509259', '-0.014615125', '-0.024509776', '-0.0028446072', '-0.0074690166', '0.017468221', '0.024692489', '-0.006533929', '0.011381802', '-0.012265877', '0.01699001', '-0.004472466', '0.008534616', '-0.024644936', '0.0019985447', '0.0036623995', '-0.008260623', '0.016051045', '-0.026789349', '-0.018271133', '0.007136497', '0.00049154664', '0.014049555', '-0.023635644', '-0.01462322', '0.018013932', '0.036084015', '-0.010716697', '-0.013521031', '0.016328692', '0.029335734', '0.0030253553', '0.04301438', '-0.00588386', '0.008739514', '-0.008541729', '0.005755361', '-0.010048853', '-0.0031797807', '0.0031446496', '0.009831059', '-0.025222199', '0.0011148435', '0.0029250789', '0.048771903', '-0.012389883', '-0.00807298', '-0.014685972', '-0.014716157', '-0.01969597', '0.02619013', '0.01960089', '0.01873809', '-0.014018675', '-0.0063497345', '-0.019098582', '0.0053553064', '0.014145123', '-0.005784055', '0.006674579', '-0.015150503', '-0.03105958', '0.01269961', '0.0021448447', '0.011506952', '-0.01007032', '0.0008100648', '0.02351543', '0.02544031', '0.0066975327', '0.006715476', '-0.019744148', '0.0097545', '0.005414147', '0.0018110392', '-0.011481083', '-0.010511978', '0.011666352', '-0.011710448', '-0.02121623', '0.002900296', '0.009417923', '0.016459363', '0.030094624', '-0.0009229924', '-0.018151224', '0.018875666', '-0.0018053899', '0.0015951524', '0.014762063', '0.019213017']
4, ['0.0019982916', '-0.02737003', '-0.010163069', '0.025926406', '0.012565314', '0.00026103962', '-0.05062016', '-0.01174262', '0.009865128', '-0.017699145', '-0.060100734', '0.005072391', '0.042857602', '0.0013499678', '0.0037932175', '0.03648905', '0.008081077', '0.01434694', '0.019295566', '0.032976404', '0.011277547', '-0.013387973', '-0.0009384088', '0.03551725', '0.002664099', '0.006587823', '-0.017977599', '0.044140697', '-0.01810031', '0.044767786', '-0.024857322', '-0.012542153', '-0.013154139', '0.050470952', '-0.019728899', '0.034993976', '-0.036261916', '-0.007978799', '0.037120305', '0.053509835', '-0.035924517', '0.023028478', '0.0020625137', '0.004314524', '-0.02108469', '-0.024644632', '0.0008832047', '-0.0056699994', '0.011957676', '-0.10511321', '0.011608401', '0.03488411', '0.017405262', '-0.034231562', '0.00895946', '0.101005025', '-0.005205819', '-0.009439666', '-0.042037226', '0.03422995', '-0.041678004', '0.039571602', '-0.041712224', '-0.03623703', '0.046106968', '0.018834295', '-0.0030435151', '-0.07539994', '-0.0052502546', '-0.007856968', '-0.02472663', '0.012289006', '0.04858637', '0.011964636', '0.031415794', '0.0025878919', '0.001499233', '0.0918755', '-0.0036389495', '0.029610693', '-0.049483404', '-0.008402844', '-0.029563738', '-0.03208403', '0.0285172', '-0.025057996', '-0.004187101', '0.031152934', '0.015803447', '-0.008960898', '0.0018174913', '0.03504881', '-0.0017209866', '-0.040636245', '0.02652234', '-0.06135005', '0.039025877', '0.00020478711', '0.010938747', '3.1380084e-06', '0.011494551', '0.017762654', '0.022295037', '0.023669641', '-0.03616', '-0.015912294', '0.019850574', '-0.04748422', '-0.0056513045', '0.04611112', '-0.06741892', '-0.05515662', '0.03537413', '-0.045211468', '0.03420209', '0.00451584', '-0.021876022', '0.011883141', '0.01838007', '0.027168995', '0.030484827', '-0.020303804', '-0.0175236', '0.047778726', '-0.008298903', '-0.034926146', '-0.022436533', '-0.0047253235', '-0.012928111', '0.017037299', '-0.022008851', '-0.0066142045', '0.027024431', '-0.027873369', '-0.041347258', '-0.029029543', '0.022212327', '-0.0021604581', '-0.05275387', '-0.12889218', '0.050020147', '-0.030324321', '0.06069702', '0.027395576', '-0.019280214', '-0.020274375', '0.017203575', '0.0068156435', '0.049911167', '-0.00875838', '0.0060951756', '0.04712411', '-0.05277526', '-0.038214207', '0.017763175', '0.046806272', '-0.0010354745', '0.014656422', '-0.008670292', '-0.051534902', '-0.045837857', '-0.047921013', '0.015616326', '-0.021166466', '4.0887237e-05', '-0.045268524', '-0.0036773677', '-0.0055332105', '0.02484825', '0.054752562', '-0.002359747', '-0.010066376', '0.029697387', '-0.0003607733', '-0.047025997', '-0.02826598', '0.008070316', '-0.039780483', '0.0018289264', '0.068107195', '0.047231838', '0.021089233', '0.017039752', '-0.038804457', '-0.00837126', '-0.03042571', '-0.018268375', '-0.0006977923', '-0.06200396', '-0.045412738', '-0.025563965', '0.16937879', '-0.031599544', '-0.04009947', '0.019098427', '-0.050830897', '0.01292531', '0.0041395053', '-0.00023294122', '0.08458276', '0.026456645', '0.013535902', '0.023124613', '-0.047312744', '0.037469756', '-0.009091459', '-0.0069752615', '-0.003111879', '0.030979758', '0.021062667', '-0.043669768', '-0.011906228', '0.010846331', '-0.05109945', '0.016259823', '-0.03740142', '-0.0036824264', '0.026674723', '-0.016710037', '-0.0144815575', '-0.0066616195', '-0.03532438', '0.02386283', '-0.012208798', '0.019289244', '-0.009820098', '-0.034580257', '0.037990175', '-0.02081388', '-0.04739047', '-0.036851205', '0.008816796', '-0.03278354', '0.05857575', '-0.0007303131', '-0.008081958', '0.03428851', '-0.026475923', '0.033143394', '-0.032008935', '-0.008456095', '-0.0055993525', '0.014937882', '0.029456196', '-0.01673575', '0.006374748', '0.026345994', '-0.03118635', '-0.041374862', '-0.03245973', '0.029042745', '-0.026605813', '-0.033122137', '-0.025338216', '0.0025186816', '-0.0017881811', '-0.055640023', '0.022651704', '0.056950115', '0.06284559', '-0.0044535403', '0.022483366', '-0.02867785', '-0.020940786', '-0.0021863508', '0.022146968', '0.05009575', '-0.047440093', '0.043446332', '-0.041648574', '0.064683765', '-0.039917', '0.038319737', '-0.024761332', '-0.04690668', '-0.005738331', '0.033014458', '-0.004993882', '0.00781454', '-0.071522646', '-0.005435368', '-0.049351625', '-0.06969517', '-0.0014180577', '-0.04237072', '-0.005373574', '0.045781117', '-0.040261313', '-0.03287967', '0.0053608385', '-0.04333429', '0.013597263', '0.06034946', '0.023991833', '0.0999377', '0.01240084', '-0.0407806', '0.009784045', '0.07063029', '-0.012165556', '0.02804627', '-0.04210464', '0.016077971', '0.04762988', '0.067927584', '0.0058636605', '-0.04666877', '-0.004508808', '-0.013703305', '0.01799618', '-0.024182882', '-0.025992772', '0.016598536', '-0.0225148', '0.024667464', '0.034508944', '-0.038012285', '-0.028028365', '0.05522582', '-0.0027428584', '0.033573106', '0.0046919845', '-0.014315542', '0.009416988', '0.03371873', '0.019891674', '-0.0802613', '0.037999313', '0.011936552', '0.022795364', '0.007618395', '0.030266453', '0.005433271', '0.033401377', '0.0051905005', '-0.041159905', '-0.043684386', '-0.025780886', '-0.018114747', '-0.002318844', '0.01987819', '0.04872204', '0.0025654598', '0.030445883', '-0.10356058', '-0.023222124', '0.034874395', '0.0128594125', '0.030930344', '-0.00094915804', '0.02491432', '-0.029963393', '0.0010371782', '-0.018611966', '-0.03352864', '-0.04717926', '0.061935566', '0.008732108', '0.009455804', '0.018819861', '0.037367582', '0.020987932', '-0.025483781', '-0.01976649', '-0.056175668', '-0.009231541', '-0.06112306', '-0.013922336', '0.03935128', '0.027897203', '-0.036974173', '0.024324985', '0.005519652', '0.040151432', '0.019322969', '0.053263966', '-0.028532468', '0.021671535', '0.027815612', '-0.062684685', '-0.023921823', '0.0021167048', '0.03073852', '0.032207508', '0.03338582', '-0.026753804', '-0.024968296', '0.023800697', '-0.008284381', '0.03958012', '0.05363396', '-0.014480375', '0.04218845', '-0.046958007', '-0.016876884', '-0.02596445', '-0.03994294', '0.017724937', '-0.069836654', '0.008231317', '-0.033094555', '-0.016654719', '-0.01891099', '0.02598798', '0.028745983', '-0.016488666', '-0.019385248', '0.03759179', '0.0037920438', '0.027733773', '-0.006362738', '-0.012210425', '-0.012197482', '-0.0091353785', '0.006162243', '0.045538478', '0.026409667', '-0.02036056', '-0.0142731005', '-0.0035989226', '-0.029425383', '0.0069814757', '0.009926342', '0.023975693', '0.035286274', '0.0038880797', '0.016933031', '-0.032393094', '-0.015915472', '0.020917729', '-0.013302011', '0.014463704', '-0.010813813', '0.020631824', '-0.01676872', '-0.022693763', '0.022319611', '0.019635696', '0.0051036165', '-0.05301504', '0.026874388', '-0.03341627', '-0.0148952855', '0.013019632', '-0.031329878', '-0.03700638', '-0.038018066', '-0.04264128', '-0.03383535', '-0.039885648', '-0.01839443', '-0.0058451765', '0.020535342', '-0.009469566', '-0.034884803', '0.008452643', '0.054090757', '0.011267112', '-0.051487625', '0.007279007', '-0.025916297', '-0.027189966', '0.002334913', '-0.04567839', '-0.04467228', '0.007395105', '-0.031495422', '0.025031155', '-0.017437104', '-0.05366481', '-0.013372897', '0.020761807', '0.010170476', '-0.042473406', '-0.011698091', '0.017382493', '0.02808145', '0.013127266', '0.03462989', '0.018579047', '0.035693143', '-0.040486135', '0.014358589', '0.049267415', '0.028830668', '-0.0040012714', '-0.008688615', '0.009816811', '0.034811113', '-0.03449423', '-0.033985727', '0.022255942', '0.011077876', '0.02849439', '0.0050333776', '-0.041576274', '-0.02674719', '-0.026713489', '0.008717176', '-0.036699023', '0.0057471795', '0.03276513', '0.0153275775', '-0.025296643', '0.010696282', '-0.014879636', '-0.00502972', '0.007747816', '-0.014796801', '0.040817127', '0.023030905', '0.046643473', '-0.015486261', '0.027860917', '0.031945482', '0.0039628022', '-0.042758364', '0.023017082', '-0.06498637', '0.04914177', '0.0005905891', '0.020363431', '-0.067420915', '-0.024136746', '-0.033088055', '0.04474562', '0.018880738', '-0.015281032', '-0.005943862', '-0.02764784', '-0.051307607', '-0.007340236', '-0.02240907', '0.011852163', '-0.017955523', '-0.0063076043', '-0.016435882', '0.02563011', '0.012311446', '-0.018957397', '-0.020781009', '-0.037093688', '-0.008361242', '0.041673973', '0.015827445', '-0.038304936', '-0.008907662', '-0.06713817', '0.0103491265', '0.008803465', '0.03482374', '-0.13882233', '-0.034459203', '-0.031155402', '0.038129654', '-0.08291172', '0.020877074', '0.04492862', '0.009330623', '-0.0072319824', '-0.029874103', '0.03594843', '0.016309785', '0.06526946', '0.0048320536', '-0.017006233', '-0.005876099', '0.0053089806', '0.019014113', '-0.030630328', '0.038680267', '-0.024000473', '-0.037875835', '-0.036164373', '-0.0077148275', '0.013336325', '-0.024038302', '-0.036450204', '0.05375638', '-0.052843004', '-0.020259105', '-0.009014414', '0.0020525355', '-0.0017919496', '0.049663216', '-0.010640264', '-0.032304507', '0.027131299', '0.037573628', '0.053968504', '0.008483987', '0.007957936', '-0.018127099', '-0.02599041', '-0.039223798', '0.021225614', '-0.022558605', '0.017642254', '0.03734588', '-0.030417016', '0.055270813', '-0.06091585', '0.025108635', '0.015361613', '0.011406839', '0.0226307', '-0.014588201', '0.06507758', '-0.016958391', '0.024678903', '0.0076220003', '-0.040618274', '-0.0020500766', '0.05828258', '0.029200416', '0.07275977', '0.035383057', '-0.027441077', '0.06210882', '0.021568244', '0.043849695', '-0.024985738', '-0.056682725', '0.01902409', '0.04980015', '-0.017456768', '-0.03032093', '0.0343536', '-0.017919807', '-0.024075171', '0.01931223', '-0.0069314', '0.015847435', '-0.0249235', '-0.00963767', '0.0148955425', '0.02335439', '0.0059402282', '0.086826645', '-0.046513643', '0.0049308264', '0.022504792', '-0.051479958', '-0.003501467', '0.011231835', '-0.045761485', '0.0019803238', '-0.0019842233', '-0.015551576', '-0.03173805', '-0.02213892', '0.019322252', '0.016604923', '0.0012842902', '-0.055587344', '0.03562663', '-0.028020639', '0.0294953', '-0.07125248', '-0.030180464', '0.012906471', '-0.014750598', '0.022603264', '-0.0023815462', '0.010937144', '-0.05544947', '0.052095167', '0.08140498', '0.04559249', '0.031221911', '0.022046272', '0.0069881333', '0.006139364', '0.04019271', '0.0063991384', '0.04835717', '-0.038122322', '-0.017539976', '0.041855786', '-0.023082279', '0.033013348', '-0.059613448', '0.028726056', '-0.03952517', '0.0650327', '0.024263175', '0.023658402', '0.04000619', '-0.043429136', '-0.0004057949', '0.038774393', '0.022470098', '-0.0348472', '0.048744015', '-0.037341483', '-0.02672717', '-0.008762394', '-0.036049068', '0.040248275', '0.015968274', '0.02834237', '-0.043651104', '-0.031700525', '0.043112755', '-0.027485592', '0.034954034', '0.033657186', '-0.016698588', '-0.008492248', '-0.04084457', '0.0028342688', '-0.014408785', '-0.06507548', '0.0060306136', '-0.006126746', '0.0021213472', '-0.04199881', '0.0066442364', '-0.015144128', '-0.035592046', '0.027924474', '-0.029690214', '0.011228044', '0.012861196', '-0.012780612', '-0.011497403', '0.037846707', '0.026183119', '0.00357091', '0.022195902', '-0.034878917', '-0.08623514', '0.03976673', '-0.029344821', '0.040073358', '-0.008989914', '0.046064205', '0.045465924', '-0.011362856', '0.06155184', '-0.021897458', '0.00176093', '-0.0049278107', '-0.06665595', '0.014592375', '0.055373725', '0.098220214', '0.027139971', '-0.06822793', '-0.011434797', '-0.03180699', '0.0033795945', '-0.0058507174', '-0.022854686', '0.006463836', '0.04960717', '-0.008063166', '-0.07097956', '-0.0255782', '0.018756164', '-0.00850196', '-0.012223513', '-0.00915639', '0.036816504', '-0.0120063415', '-0.025104325', '0.03639422', '-0.018694537']
5, ['0.012293914', '0.011327275', '0.018852005', '0.004899313', '-0.00010063588', '0.00021423116', '-0.036478415', '0.0040574046', '0.0055164993', '-0.0018473837', '0.004397191', '0.0050477795', '-0.018001363', '-0.021475233', '-0.0067122914', '0.00742242', '0.005724314', '-0.0023189583', '0.013248363', '0.029164957', '-0.001257585', '-0.015552733', '-0.020660609', '-0.009159474', '0.011626683', '-0.015592228', '-0.0017915433', '-0.010099438', '0.023110691', '0.0068346825', '0.0009691516', '-0.018561559', '0.0021009338', '-0.008924596', '-0.0050173583', '-0.018443596', '-0.036165655', '-0.0037138816', '0.0037888756', '0.057193305', '0.012399327', '-0.0077573447', '0.009625863', '-0.022742964', '0.006557391', '-0.010328538', '-0.0032008875', '0.016905509', '-0.012329987', '-0.012284001', '0.016170962', '-0.0045607015', '0.015132793', '0.0057550175', '-0.0049763033', '-0.062320925', '-0.013554289', '0.0121607855', '0.004955537', '0.024234682', '0.017077113', '0.04290755', '0.008853029', '0.011781861', '0.03276915', '0.019315016', '-0.009404965', '-0.017814964', '0.04638725', '0.011557342', '-0.017894004', '0.016254315', '-0.01224111', '0.009713584', '0.0011840455', '-0.012456225', '0.034516443', '0.027222523', '7.976743e-05', '-0.014621218', '-0.0070383996', '-0.0017031714', '-0.021212202', '0.010652766', '-0.00881431', '-0.02269637', '-0.06429423', '0.018546794', '-0.0034800582', '-0.006255422', '-0.0020410153', '0.011653342', '0.037366252', '0.0047114585', '-0.030974923', '-0.00029776376', '0.008105897', '-0.0104035195', '-0.016553184', '0.008345809', '-0.023706082', '0.010120628', '-0.035339676', '-0.052539688', '-0.030779842', '-0.0047448874', '-0.01652805', '-0.035087094', '0.0035832196', '-0.012933098', '0.002367017', '0.013484954', '-0.03057092', '-0.0114446655', '0.005424074', '0.007773332', '-0.0038878275', '0.013297633', '-0.021888629', '0.022182943', '-0.014704315', '-0.0052746898', '-0.014322926', '0.014052431', '0.004776441', '0.001226014', '-0.032677114', '-0.003136', '0.016111871', '0.011466576', '0.0057586613', '0.011025181', '-0.003735744', '0.013482288', '0.0035149383', '-0.010427138', '0.009636398', '0.00546602', '-0.034606878', '-0.003196939', '0.04186185', '-0.005399613', '0.023266941', '0.00036409067', '0.030952102', '-0.01154473', '-0.012163277', '-0.012083601', '-0.002295094', '-0.010530083', '0.0077825557', '-0.020925893', '-0.019745108', '-0.019226255', '-0.03924241', '-0.014709275', '-0.032532535', '-0.0039971466', '0.0271462', '-0.013584876', '-0.038881976', '-0.025667232', '-0.015687088', '-0.013604973', '0.01066558', '0.01221127', '-0.019536192', '0.043742713', '0.004506709', '-0.019033242', '0.010454654', '0.0016445136', '0.003472994', '0.011223267', '0.015600018', '0.05781349', '0.016328946', '-0.0135886995', '-0.003924295', '-0.010450915', '-0.015013418', '0.016335921', '-0.006166699', '-0.0066062533', '0.0070491675', '0.02162506', '0.02328762', '-0.025892893', '0.021647645', '0.0015466085', '-0.035120983', '0.012939567', '0.029918928', '-0.0131782545', '0.0046262234', '0.04474862', '-0.0021366759', '0.02902728', '0.012847272', '-0.048591107', '-0.010303371', '0.039067272', '-0.025024885', '0.0055275275', '-0.0009566998', '-0.022747394', '-0.008600823', '-0.0027659321', '0.01648209', '-0.02425091', '-0.018411566', '-0.00038816239', '-0.011736166', '-0.0037707782', '0.010081765', '0.0029010577', '-0.0026755952', '-0.0068072914', '-0.012276894', '-0.024988752', '0.005184876', '0.035412736', '-0.034415342', '-0.0064240755', '-0.012782146', '-0.012889822', '0.0021576392', '-0.028975075', '0.017208613', '-0.019486122', '0.011671762', '0.025567804', '-0.007883013', '0.012221414', '-0.0016436359', '-0.0055116406', '0.01906791', '-0.0053860387', '-0.029726777', '-0.041906662', '-0.0148377735', '-0.004389915', '-0.009360785', '0.020472473', '0.0061904793', '0.016274024', '-0.01853064', '0.008951554', '0.012520524', '-0.0054007876', '0.01581576', '0.008943577', '-0.0033840113', '0.020132883', '0.045238387', '0.0043621', '0.011434113', '0.03173065', '-0.01875668', '0.013057092', '-0.008911094', '-0.05748593', '-0.002813773', '0.0018100964', '0.0059712767', '0.002877678', '0.03680025', '-0.018465523', '-0.0028859903', '0.004788461', '0.025213828', '-0.019121159', '-0.012485313', '0.016495086', '0.0031158766', '0.032394677', '0.017131792', '0.021813642', '-0.004163593', '0.0006994799', '0.0063750623', '0.00813026', '-0.02883168', '0.00466088', '-0.014165613', '-0.0049080676', '-0.031386975', '0.034558762', '0.009821781', '0.038237657', '0.004753296', '0.026509201', '-0.009219429', '-0.023381673', '0.008650867', '0.0013821713', '0.010468876', '0.010161345', '-0.044974312', '-0.0061213244', '-0.0030087475', '0.008966034', '-0.01262034', '-0.0008357944', '0.012899796', '-0.0015357633', '-0.00044228602', '-0.008204417', '0.0038331691', '-0.0061642607', '-0.015746119', '0.005030809', '-0.022310901', '0.012408476', '0.026786862', '0.0071703694', '-0.02260571', '-0.00087156956', '-0.007878762', '0.008869055', '0.007215678', '0.025002023', '0.012919446', '0.004390071', '0.012442608', '0.017943766', '0.0067530023', '-0.001431059', '-0.004850513', '-0.011750393', '-0.011693174', '-0.014807373', '0.021869557', '-0.0008153824', '-0.01118618', '0.002959959', '-0.012607996', '0.007043171', '0.012678676', '-0.014290784', '-0.008084216', '-0.012462904', '0.0003894067', '-0.009068704', '-0.006849958', '0.0048235045', '-0.017666848', '0.023542603', '0.015856566', '0.021976277', '-0.04807068', '-0.029478922', '0.021135313', '-0.02469253', '0.020315984', '0.0026716855', '0.015138597', '0.006490649', '0.024353947', '-0.026180979', '-0.011366406', '0.013341573', '-0.039288275', '0.0013755873', '0.02140647', '0.027657133', '-0.012056418', '-0.022929678', '-0.0122345565', '-0.026719976', '0.021927472', '-0.0014893179', '-0.030587653', '0.028845722', '0.017299028', '-0.011528244', '0.012581126', '-0.035265703', '0.0009918297', '-0.02177795', '-0.02427576', '-0.01481909', '0.018636817', '-0.020679893', '0.01790312', '-0.020041674', '-0.01739565', '0.00030463067', '0.0010954593', '0.015883602', '0.0056165587', '-0.0043470915', '-0.019072048', '-0.009854241', '-0.024001675', '0.0025492131', '0.019028487', '0.0203288', '0.024302704', '0.0431419', '-0.015169292', '0.0053315246', '-0.0011638656', '0.0010368745', '0.000134234', '-0.00038649552', '-0.01838291', '-0.0018284204', '-0.021968268', '-0.0071066846', '0.024429739', '-0.01722165', '0.007679422', '-0.03655094', '-0.007040062', '-0.043768644', '7.640392e-05', '0.0018442094', '0.014030053', '-0.008254071', '0.015124092', '-0.0119083645', '-0.0055375267', '-0.00018803129', '-0.010515857', '-0.006098942', '0.0026554272', '-0.011784861', '0.007963426', '-0.004072802', '-0.013650021', '0.004940161', '-0.003113097', '0.01729487', '-0.021420533', '0.007762464', '0.0010414162', '0.01254041', '-0.016111476', '-0.009155174', '0.013510468', '-0.007895389', '-0.017540017', '-0.0063843443', '-0.0040238514', '-0.0021119672', '-0.002984483', '-0.031435568', '0.0011190624', '-0.007474565', '-0.0054844497', '-0.005380285', '0.027925992', '0.02428586', '-0.026684418', '0.013317244', '-0.008298442', '-0.023104846', '0.007715411', '-0.006404767', '-0.0005304695', '-0.0039569368', '-0.015543768', '-0.0056269956', '-0.009468944', '0.004503472', '0.015791442', '-0.006664028', '-0.008787771', '-0.048160482', '0.044269886', '-0.0294654', '-0.016279569', '-0.002795486', '-0.010392758', '-0.010686133', '-0.025182754', '-0.0025388685', '-0.041310824', '0.023021648', '0.024880191', '-0.03011365', '0.011133946', '0.024129046', '0.002229369', '-0.01173958', '-0.006954972', '-0.026103986', '-0.025351923', '-0.0078003434', '-0.0018774156', '0.022025991', '-0.033687323', '0.012477841', '0.019343926', '0.018272454', '-0.026969926', '0.027795905', '0.0141385775', '0.014142937', '0.03218764', '-0.0029599527', '0.0035692116', '0.015535336', '0.007427185', '-0.016420912', '0.032441344', '-0.020171443', '-0.011956023', '-0.012284994', '0.0036096636', '0.010643126', '-0.023460282', '0.0065942216', '0.015612336', '0.041183967', '0.009109782', '0.01935754', '-0.005338349', '0.039116688', '0.0307348', '0.01388739', '0.011736497', '-0.012505391', '0.007904025', '-0.0127741', '0.02243461', '0.024542695', '0.0006633493', '-0.0068161367', '-0.014665015', '-0.0023989407', '0.012181714', '-0.01913332', '-0.013243881', '0.0003743639', '-0.0049123024', '-0.0030060266', '-0.031100122', '-0.018643092', '-0.021407051', '0.051484555', '0.02110419', '-0.02177981', '0.006922607', '0.026857262', '0.004492613', '0.009515816', '0.016168065', '0.002517166', '-0.00522063', '-0.013239441', '0.022583606', '0.058400057', '0.0072873514', '0.021449585', '-0.011792058', '-0.02194007', '-0.0058200476', '-0.0031172554', '0.018780926', '-0.0048249518', '0.017968357', '-0.0061351606', '0.008095855', '-0.0011086003', '-0.02610499', '-0.012482017', '0.04991498', '0.012035996', '-0.012454491', '-0.010142193', '-0.015559199', '-0.013692841', '-0.005184675', '0.010531338', '0.014559884', '-0.019938236', '0.013026396', '-0.0001521883', '-0.0035551873', '-0.018602561', '0.002791498', '0.010539874', '-0.017107282', '0.026707623', '0.013521796', '0.02882982', '0.006376862', '0.022073526', '-0.0012384349', '0.04277758', '0.012359075', '-0.0046317577', '-0.0009964998', '0.025609069', '-0.017770452', '-3.0360452e-05', '-0.0042518964', '0.014359334', '0.0016820873', '0.0014102816', '0.016181802', '-0.049698055', '-0.01507955', '-0.022673357', '0.017578028', '-0.025276853', '-0.05567058', '0.0026657518', '0.024862649', '-0.003024879', '-0.011312325', '-0.00023210532', '0.011230298', '0.02947498', '-0.0582625', '-0.012204135', '-0.010040023', '0.025853163', '0.0335723', '-0.053779487', '-0.0075129084', '-0.016211744', '-0.018303547', '0.031769723', '0.015165559', '0.019820727', '0.021692201', '0.033362478', '0.026771462', '-0.025520861', '0.0034667586', '0.021684706', '-0.012768578', '0.02478076', '-0.0065645496', '0.0014258632', '-0.045336243', '0.0065561226', '-0.0049278946', '0.02684929', '-0.0036928942', '0.02882822', '0.046984732', '0.018368218', '0.002059674', '0.019600019', '-0.014286479', '0.010216124', '0.0018845934', '0.017076487', '0.004923875', '0.030502819', '0.04892889', '0.016539268', '0.018752275', '-0.0129650505', '0.027019667', '-0.038028028', '0.006312298', '-0.02434331', '-0.034736957', '-0.019806512', '-0.040943116', '-0.036919165', '0.0060426807', '0.026922498', '0.006079304', '-0.044137336', '-0.0050187563', '0.013885954', '-0.0042204233', '0.011057452', '0.019828906', '0.010508652', '-0.038756464', '-0.0066584814', '-0.02432255', '0.010731293', '0.08122734', '-0.006691888', '-0.0071603223', '0.0024083443', '-0.008792329', '-0.018256241', '0.01257816', '0.0037173603', '-0.019474879', '0.025189577', '-0.014541554', '0.017465169', '-0.020764135', '-0.009780638', '-0.026852831', '0.0005383504', '-0.012730818', '-0.02563558', '0.0006407307', '-0.0006147224', '-0.03378124', '0.008491032', '0.0056893686', '0.03287557', '0.018941617', '-0.011144322', '0.077146314', '0.0022411025', '-0.0068811905', '0.032445937', '0.0098477', '-0.013975749', '-0.01684376', '0.018757986', '-0.018719627', '-0.022623299', '-0.0001961972', '0.00051148504', '-0.028372502', '0.011363875', '-0.00071514456', '0.028221158', '-0.016364643', '0.015465309', '-0.021215545', '0.008755589', '0.014220696', '0.017288884', '0.003370881', '-0.00048082144', '-0.012084039', '-0.009271073', '0.010052722', '0.0016402242', '-0.01520622', '-0.01188385', '-0.0022518304', '-0.016846167', '-0.01487245', '0.023618214', '-0.0054551945', '-0.010303816', '-0.015750244', '-0.015432848', '0.00582334', '0.02021789', '0.0014806237', '-0.03751039', '-0.04521577', '0.0019212487', '-0.028663876', '-0.011533877', '-0.020002903', '-0.015887247', '-0.00026429995', '0.017067788', '-0.024543712', '0.014928528', '0.006551202', '-0.02007749', '0.01576079', '-0.022960799', '-0.03804694', '0.008882129', '-0.0049024434', '0.0145321395', '0.01700577', '0.0008610219']
6, ['0.0034524587', '0.0061122286', '0.01832087', '0.005543377', '0.011435422', '0.00958744', '-0.035165448', '-0.008268881', '-0.0022329607', '0.000117420714', '-0.0038358965', '0.0076465094', '-0.0006359674', '-0.005537003', '0.0117736', '-0.007012397', '0.0016353036', '0.013272235', '0.015499727', '0.0352132', '0.009359924', '0.02000558', '0.008741163', '0.0079597', '-0.014384194', '-0.0075211776', '0.011861042', '0.012105402', '0.008129684', '0.008132976', '0.007475162', '0.009319685', '-0.0051879417', '0.013578753', '-0.0042958045', '-0.0073413686', '-0.03587376', '-0.022176541', '0.005825723', '0.0041784747', '0.0042956653', '-0.007860349', '0.0006674597', '-0.0022774504', '-0.0079921195', '-0.0057392814', '0.013905846', '-0.0031103836', '0.0027413585', '-0.01737501', '0.00067668036', '-0.0064625707', '0.025628239', '0.0048949514', '0.009954932', '0.0037561194', '-0.0065802275', '0.010827077', '-0.002553163', '0.010308362', '0.015383249', '-0.017558077', '0.005617325', '0.018427959', '-0.031664245', '0.004264212', '0.0024617482', '-0.005257164', '0.013151643', '0.004710757', '0.024869706', '-0.009973549', '-0.016488036', '0.013942121', '-0.010389569', '0.0027816775', '0.006647346', '0.023775352', '-0.01092268', '-0.014843542', '-0.00047618162', '0.005660536', '-0.0069718347', '0.0054097264', '-0.017117891', '0.019091045', '-0.018186022', '-0.05095504', '0.0036028035', '-0.0015429875', '-0.0117075', '-0.009388694', '0.041014064', '-0.005357312', '0.016528655', '-0.019153364', '-0.002397273', '0.012153844', '-0.0053046346', '-0.0012133485', '-0.003082407', '0.015588112', '-0.030826408', '-0.0014565366', '0.0019317521', '0.00470209', '0.0076205144', '-0.03900839', '-0.003607523', '0.002299942', '0.0012952267', '0.0033388017', '0.0023042185', '-0.004531741', '0.021609006', '-0.027426602', '-0.0117976535', '-0.0037969123', '-0.023013448', '-0.013014055', '0.011845199', '0.03221001', '-0.022306366', '-0.008035139', '0.022095004', '-0.0023689363', '0.0038874736', '-0.012082268', '0.020095525', '0.004494374', '-0.024223313', '0.001492831', '-0.0010726257', '0.014715232', '0.0084291715', '0.00941341', '0.001780911', '-0.011158031', '0.05352785', '0.007520892', '0.0031548806', '0.020404005', '0.039239794', '-0.018508384', '0.0040605166', '-0.009897538', '0.0043757977', '0.0044803577', '-0.0027793124', '-0.0038084236', '0.012621368', '-0.014169636', '0.017352073', '-0.02502011', '-0.010947222', '-0.0051584025', '-0.01734891', '-0.0016560974', '-0.023237512', '-0.017771805', '-0.029650275', '0.00017999571', '0.0083598755', '0.009724376', '0.01865562', '-0.005267152', '-2.998321e-05', '0.012888316', '0.00018091856', '0.021637684', '0.0064582853', '0.0018371245', '-0.015737215', '-0.01799581', '0.01279823', '0.0019199204', '0.012231722', '-0.0034931006', '0.012134814', '-0.004224593', '-0.013418368', '0.0070489906', '-0.015207065', '0.003301062', '-0.0031880445', '0.009198312', '0.003020318', '-0.007846158', '0.010514908', '-0.0058859936', '0.0003837215', '-0.0053952425', '-0.0061547244', '0.015702583', '0.0062318454', '-0.0022259958', '2.427399e-05', '-0.014829719', '-0.006288999', '-0.01486926', '-0.015094138', '-0.002931284', '-0.011877306', '0.017703965', '-0.0029075663', '-0.0033054114', '0.0038471636', '-0.021285105', '-0.004997644', '-0.009384348', '-0.0051116506', '-0.009935136', '0.0068349177', '-0.024035629', '-0.010312797', '0.01931643', '-0.010114085', '0.021270461', '0.0032124952', '-0.0013835223', '0.011994946', '-0.00094499986', '0.00871311', '0.0015497761', '0.015744913', '-0.004620278', '0.016202658', '0.0009590003', '0.0032628553', '0.010482811', '0.018680733', '-0.013801121', '-0.011963125', '-0.0035981499', '-0.00029988462', '-0.010955252', '0.021838179', '0.0032293864', '0.006315182', '-0.005009052', '-0.011712135', '-0.0093209185', '-0.011415912', '-0.016263125', '0.0044327825', '-0.005849375', '0.027832903', '0.0022750162', '0.0028914486', '0.013104133', '0.010087949', '0.004833296', '-0.0026855161', '-0.00048364358', '-0.020387474', '-0.036160227', '0.008473938', '-0.028829925', '0.004594043', '0.008528733', '0.00074429705', '-0.018206237', '0.002776288', '0.010369029', '-0.004896566', '0.020162964', '-0.031486575', '0.0028207232', '-0.024843128', '-0.012028132', '-0.00037790477', '-0.018070312', '-0.01549788', '0.031020408', '-0.0009956615', '0.039137486', '0.0057810303', '-0.009891748', '0.020295605', '0.004856424', '0.013479087', '-0.009389059', '-0.003414705', '0.0014938405', '-0.018088488', '0.003937625', '-0.0039729625', '0.019294955', '0.010728785', '0.007255449', '0.003348588', '-0.00055171474', '-0.0059651914', '0.0005388075', '-0.017195294', '-0.0046569435', '-0.003929903', '-0.0035932083', '-0.015334537', '-0.01952677', '0.0074162087', '-0.009910547', '-0.010038718', '-0.0029516455', '-0.0014484659', '-0.0037460076', '-0.018399334', '-0.004025999', '-0.00096908555', '0.004417141', '-0.0024292965', '0.008755988', '0.0036739937', '-0.0048520365', '0.027097084', '0.0021766955', '0.02089024', '0.0028350805', '-0.0060506538', '-0.008649076', '0.003485865', '-0.013703058', '0.007993688', '0.01247542', '-0.0061341003', '0.015352142', '-0.0653413', '-0.0031601505', '-0.005557983', '-0.008240535', '-0.014634169', '0.008485087', '-0.0044570793', '0.021872519', '-0.0103678135', '0.018077824', '-0.009358399', '-0.01983565', '0.005397657', '0.015856747', '-0.026147513', '-0.008401815', '-0.016201986', '0.0052239173', '-0.004005939', '-0.010771487', '-0.0036357993', '-0.017763108', '-0.0139511805', '0.013567095', '0.004794034', '-0.024979519', '0.022303674', '0.009418521', '0.01854986', '0.011779753', '0.012093756', '0.013785622', '-0.006158587', '-2.3102548e-05', '0.008284629', '0.013431586', '-0.030118024', '0.007500179', '-0.006558984', '0.015897965', '-0.020595282', '-0.009061854', '-0.015592172', '-0.016932907', '0.008818403', '0.023324685', '-0.0022061644', '-0.026586004', '0.018878967', '-0.02379739', '0.0066417437', '-0.03422889', '0.013419112', '0.008562053', '-0.010784189', '0.0014417948', '-0.02142222', '-0.016248418', '0.0052630403', '0.002340685', '6.21041e-05', '-0.018024111', '-0.024292292', '0.028380418', '0.0031148822', '0.006974185', '-0.0068319524', '-0.0158217', '-0.010083028', '-0.012457423', '-0.011387572', '0.016479751', '0.0024536669', '-0.003293655', '-0.023486016', '0.035094462', '-0.023253107', '0.010971388', '0.02434868', '0.003874723', '-0.0027325975', '0.008222786', '-0.00568965', '-0.004241617', '0.014812605', '-0.0057426468', '0.016934592', '-0.008558868', '-0.008652718', '-0.010257764', '-0.00819714', '-0.0024709173', '0.007736154', '0.016505525', '0.020528266', '-0.01037736', '-0.0031959007', '-0.010803831', '0.0034034126', '-0.0099307', '0.0069437334', '-0.0021186688', '-0.0101901805', '-0.014441508', '-0.013447981', '0.00042393786', '-0.01088215', '0.013670474', '0.011930339', '-0.044723354', '-0.033579964', '-0.006432322', '0.0027658301', '-0.015621292', '-0.02220949', '-0.0018055274', '-0.019820018', '0.011494525', '-0.00090656936', '0.0013634437', '-0.013366608', '0.02205143', '-0.0053499276', '0.012875071', '-0.008665653', '-0.005698461', '0.006920311', '0.009040337', '0.005494902', '-0.010825408', '0.019328492', '3.207258e-05', '0.0011209048', '-0.01057845', '0.0024521998', '-0.0033713672', '-0.005181359', '0.0047383183', '0.006052785', '0.0033790595', '0.02157819', '-0.004250474', '0.0041527413', '-0.0025499752', '-0.004725149', '-0.007414858', '-0.0039435555', '-0.028957905', '0.0007613068', '-0.012930839', '0.008722012', '0.006155037', '-0.011625303', '0.027277721', '-0.045079097', '0.023407934', '-0.0024733837', '-0.009149601', '0.022403272', '0.0008428219', '0.0025141', '0.011314858', '-0.007872469', '-0.012255574', '0.005108639', '0.018337693', '0.0013737234', '0.008195351', '-0.01625439', '-0.008766155', '-0.02685433', '0.012901281', '0.0021208469', '-0.012728318', '0.020673702', '-0.00026637138', '0.00014907066', '0.018086763', '-0.006090557', '-0.002273985', '0.004697323', '-0.021301392', '-0.032512747', '0.0032786243', '0.007935151', '0.02348285', '-0.002147636', '0.0032777977', '-0.02805122', '0.018294899', '0.007108582', '0.009820617', '0.005441046', '-0.00025550433', '-0.0056293546', '-0.0062493784', '-0.00700098', '-0.004512223', '0.02904262', '0.00025876856', '0.02488266', '0.0024803795', '0.007718382', '-0.0072255246', '-0.006995773', '-0.021540903', '-0.014706553', '-0.006889992', '-0.0027945854', '-0.009421191', '-0.005048317', '0.010684772', '0.0032513507', '-0.0009727353', '-0.03111126', '0.012548919', '0.006412959', '0.03128647', '0.0057629044', '0.009375528', '0.004756927', '-0.0069294837', '0.003346586', '-0.0015275059', '-0.017491112', '-0.012686947', '0.0025292719', '-0.0073363483', '0.012765447', '0.0045989584', '0.009044098', '0.015655262', '-0.01842378', '-0.007021086', '0.023208853', '-0.0023193408', '-0.009620886', '-0.006970046', '0.023147756', '-0.005460961', '-0.03195478', '0.0060310583', '-0.01197509', '-0.0034308184', '-0.030044736', '0.01600274', '-0.016837792', '0.002516889', '0.014352337', '-0.013853397', '-0.012198157', '0.019956715', '-0.004136335', '0.0132224485', '0.0015901171', '0.0076477723', '-0.0035354306', '0.0012189134', '0.017272891', '0.009566784', '-0.010986383', '-0.0061147436', '-0.008892991', '0.002540988', '-0.00048679003', '-0.002447436', '0.005885454', '0.012071503', '-0.0022446313', '0.010813378', '-0.0048318086', '0.015441376', '0.0030921535', '0.00039405766', '-0.012693126', '0.0007637937', '-0.0061464473', '0.008877429', '-0.0065350747', '0.0017240478', '-0.0017229477', '0.019980615', '-0.023210466', '-0.00050588546', '-0.009864335', '0.0042590336', '0.009132644', '0.015950294', '-0.004358106', '-0.0027214335', '-0.00028443497', '-0.0027476922', '0.036359314', '-0.00090966804', '-0.025700795', '-0.011791435', '0.008158597', '-0.019573549', '0.008748452', '-0.008753282', '-0.023155907', '0.02781046', '0.0058943927', '0.000955177', '0.0050755697', '0.01705807', '-0.0047231126', '-0.025721073', '-0.015614475', '0.014764847', '0.007508881', '0.005293589', '-0.010195854', '-0.0030477524', '-0.023486752', '0.0032246753', '-0.0065522157', '-0.0006332946', '-0.004461485', '0.021028515', '0.0022029083', '-0.0024911002', '-0.024173027', '0.0050449595', '0.012713528', '-0.0035283293', '0.010076195', '-0.014509623', '-0.013768824', '-0.00041885485', '-0.017240511', '0.007998191', '0.021434885', '-0.010399491', '0.015120721', '-0.013116496', '0.0013605279', '-0.024855038', '-0.0046528764', '-0.039415427', '0.0066526714', '-0.0013582795', '-0.023475794', '-0.00012949038', '0.012959505', '-0.0010712364', '-0.021376805', '0.00786552', '0.0117803225', '-0.0027634546', '-0.010789887', '0.0032881144', '-0.012483886', '-0.023206498', '0.005621875', '0.0024368432', '0.020238632', '0.020292556', '-0.0019347919', '-0.005033472', '0.008855285', '0.00398356', '-0.00025401884', '0.021949742', '0.002883978', '0.00358369', '-0.005927561', '0.0024585894', '-0.012955194', '-0.025610935', '0.008423996', '-0.016184587', '-0.009563404', '0.01542467', '0.005193315', '-0.011056506', '-0.0038741317', '0.032839183', '-0.010100835', '-0.012804323', '0.012338843', '0.01781097', '-0.012130725', '0.019291533', '0.0026557543', '0.0046814755', '-0.017218785', '0.0076842043', '-0.032210335', '-0.008833198', '0.006789293', '-0.0036605482', '-0.028107671', '0.010203218', '0.0012207488', '0.030455979', '-0.012117782', '0.0173025', '-0.012360788', '-0.0044941143', '-0.014859899', '0.00397024', '0.02113534', '0.0034499166', '0.012106173', '0.010771818', '-0.0042127986', '-0.011836484', '-0.0077084624', '-0.0020189777', '-0.005433558', '0.011838538', '-0.019039342', '-0.011740605', '-0.01802904', '0.007821977', '0.004400179', '-0.003229568', '-0.007842576', '0.020921685', '-0.002787652', '-0.0034534694', '-0.019644665', '0.025299665', '0.0059665856', '-0.0021532138', '0.031809695', '0.005286673', '-0.015821237', '-0.0051638456', '-0.018005611', '0.012090948', '0.016813785', '0.0011442688', '0.03264811', '0.015018675', '-0.01476366', '0.008559115', '-0.0006266989', '0.0023567302', '0.0063834684', '-0.014053359']
7, ['-0.0063305767', '0.0040683276', '0.09649023', '0.015546027', '-0.025113663', '-0.0093982415', '-0.025271494', '0.018276315', '-0.056425925', '0.01618424', '0.0010891116', '0.021409', '0.0058184047', '0.0057001947', '0.045938637', '0.02187673', '0.031503208', '0.0063807946', '0.028578281', '0.039821964', '-0.035009667', '0.021885533', '-0.00065943244', '0.005984018', '0.0035647785', '0.0067735445', '-0.005788458', '-0.02237851', '-0.03319533', '-0.02531655', '-0.014188083', '-0.041336507', '-0.016252143', '0.014502963', '0.012280772', '0.012646357', '-0.036507457', '-0.01688586', '0.00034213616', '-0.06466661', '-0.011661892', '-0.04657166', '0.0021162257', '-0.006553476', '0.002549269', '0.026177743', '0.009896735', '0.020148398', '0.0225711', '0.009646084', '-0.052973', '-0.0117163705', '0.025106745', '-0.04275556', '-0.010851936', '-0.044420518', '-0.003925911', '0.04577336', '-0.0038534468', '-0.017197588', '0.012097722', '-0.021093106', '0.015006724', '0.0010528725', '0.053061143', '0.007634646', '0.033198103', '-0.026220344', '0.060702', '-0.02425111', '-0.011020917', '0.003563877', '0.008619815', '0.030211648', '-0.0053997766', '-0.011376089', '-0.026115289', '-0.02192217', '0.059854813', '0.0053406963', '0.034865804', '0.0010031792', '0.019643597', '-0.012956654', '-0.016534148', '-0.036671784', '-0.0040607248', '0.033777982', '0.02321966', '0.026165951', '0.015331571', '-0.022789983', '0.046844944', '0.03290701', '-0.031874586', '-0.012578776', '-0.015382072', '0.04650248', '-0.025200414', '-0.0054356055', '0.009755281', '0.015703216', '-0.0012164935', '-0.0031246454', '0.0044392347', '0.03583851', '0.0051665124', '0.005860091', '0.010234798', '0.0036213726', '-0.013211022', '0.016419653', '0.008521246', '0.019086821', '-0.0053746095', '0.0059188684', '0.07358082', '0.021237336', '0.021743007', '0.017924435', '-0.01283832', '0.020068428', '-0.042607676', '-0.010799038', '0.017881446', '-0.01049506', '0.0021593117', '0.025037127', '-0.00022403977', '-0.01228975', '0.017500356', '-0.0027860273', '-0.002395811', '-0.019495016', '-0.0068884804', '0.032580134', '0.026806818', '0.058191784', '-0.048593372', '0.0011195509', '-0.026711222', '0.007547064', '0.0013155657', '0.0041747238', '0.004279906', '-0.057541013', '-0.011239244', '0.023850344', '-0.012505916', '-0.025460772', '-0.046172686', '-0.038801264', '-0.0054844357', '-0.009881763', '0.0063267583', '-0.02011647', '-0.0024289822', '0.054493703', '-0.019711701', '0.00799674', '0.007461122', '0.003929716', '0.0236133', '-0.0049593407', '0.008881362', '-0.021521462', '0.028913168', '0.018239578', '-0.009425005', '0.02472252', '0.014291446', '0.006931344', '0.015698072', '-0.0116181', '-0.008147691', '0.024880417', '0.04617279', '-0.026729519', '-0.0033199983', '-0.0128301885', '-0.020087738', '0.002187872', '-0.0062225885', '-0.027412875', '0.0054370905', '0.011249632', '0.008964294', '-0.00579587', '-0.0139239', '-0.035387956', '-0.02302549', '0.024369461', '0.040681712', '0.031155933', '0.028696038', '-0.020351436', '0.0072354274', '0.022150435', '0.0147226015', '0.027580567', '-0.015927099', '-0.011764786', '0.021176351', '0.009689913', '0.010802453', '0.004752255', '0.017171184', '-0.008903698', '0.0018079295', '-0.023424042', '0.018806264', '0.0048771617', '0.010923486', '-0.0178171', '-0.008732657', '-0.006880046', '0.01875679', '0.002289347', '0.014085254', '-0.013075257', '-0.009855219', '-0.00748262', '-0.002845712', '0.026726542', '0.008032112', '0.0143545745', '-0.016853359', '-0.013105174', '-0.0007403678', '-0.02395184', '-0.005330573', '0.036430977', '-0.14427873', '0.01182033', '-0.025889019', '0.019700533', '-0.007616215', '-0.022883357', '0.013525294', '-0.002276932', '0.0043360773', '-0.082711175', '0.006279254', '-0.021520374', '-0.035658304', '-0.026885701', '0.034392837', '0.0007995886', '-0.041783776', '-0.017471878', '0.003055225', '-0.04125035', '-0.03091858', '0.0013092795', '-0.00860281', '-0.04252797', '-0.012020141', '-0.050668787', '-0.023910249', '-0.014830731', '0.004577028', '0.004948726', '0.021279288', '-0.021855716', '0.03736812', '0.0126612', '0.04742824', '0.019822909', '0.020714467', '0.029133549', '0.0044299583', '-0.03874026', '-0.029474065', '-0.007964469', '-0.051643737', '0.048501402', '0.029178893', '0.010441397', '0.0345012', '-0.0036234339', '0.003080445', '-0.011164764', '-0.0024948132', '-0.029006219', '-0.014272341', '0.022909043', '0.020791544', '-0.025166709', '-0.08506845', '-0.03275313', '-0.0073638842', '0.00829089', '0.0378999', '-0.014558425', '-0.006526324', '-0.006789564', '0.02332797', '-0.0023240277', '-0.017929997', '-0.009290214', '0.008199409', '-0.014833931', '-0.0012718998', '0.023420168', '-0.011950151', '0.014172385', '0.022203986', '-0.0058344575', '-0.00037282065', '0.006347884', '0.036265496', '0.040085815', '-0.026175136', '-0.024101714', '0.04090546', '0.0022722892', '0.008403867', '0.014689958', '-0.02010859', '-0.011786297', '0.056268588', '-0.0046291985', '-0.010978833', '0.0040209433', '-0.023326613', '0.019141953', '0.0100888265', '-0.0044009765', '0.0096534155', '-0.032322958', '-0.038878508', '0.0024807248', '-0.01940204', '0.03718741', '-0.028035212', '0.008957717', '0.0031287603', '-0.019648874', '-0.004523847', '-0.01825684', '0.046050206', '-0.012382897', '0.01948261', '0.036255907', '-0.012404163', '-0.02247984', '-0.035593513', '-0.017700749', '0.029840829', '-0.006295948', '0.03591409', '-0.03782686', '0.049789906', '-0.044869635', '0.013066581', '0.022165596', '-0.00699506', '0.055654254', '0.029514961', '0.024170833', '0.02518563', '0.005572953', '-0.13551773', '0.012845821', '-0.02091224', '0.060197216', '-0.02657594', '0.033131476', '0.030107489', '-0.009441957', '-0.007727676', '-0.0110805705', '0.0032983748', '0.048561454', '0.012985031', '0.0033359102', '-0.0005767055', '-0.011798228', '-0.01406588', '-0.018185094', '-0.029094804', '-0.033795297', '0.031692043', '-0.007639414', '0.025875771', '0.02613346', '-0.011427081', '-0.0011849843', '0.028016375', '0.026327409', '-0.0023776062', '0.018842202', '0.026826598', '0.057947755', '0.05859472', '0.019167967', '-0.07645626', '-0.009461545', '-0.025394795', '-0.025800355', '-0.022180725', '-0.026187541', '0.045313533', '0.0026615572', '-0.022553775', '0.020900585', '0.0039764345', '-0.0046427064', '-0.09559058', '0.01414659', '0.02360124', '0.006472828', '0.03610685', '0.043862406', '0.012892632', '0.01334562', '0.0135874525', '0.0163583', '0.014317473', '-0.01905247', '-0.004373748', '0.007022434', '0.0014395094', '0.01729321', '-0.005095712', '0.025901994', '-0.013362059', '-0.012276389', '0.05633486', '-0.005291291', '-0.013913228', '0.0054442356', '-0.0012974737', '0.014001873', '0.07070038', '0.0064863446', '-0.0033764376', '-0.028562123', '-0.01035333', '-0.02535496', '-0.021768633', '-0.005791019', '0.00045216412', '-0.0027296427', '0.0100709405', '-0.007783751', '0.006963743', '-0.035045397', '0.0061041582', '0.021275287', '0.008247206', '-0.023071567', '0.010140555', '0.029653499', '-0.014653243', '-0.058203254', '0.013643657', '-0.014113708', '0.010981326', '0.02097918', '-0.06046418', '0.0034970823', '0.027902685', '0.0046810512', '0.017475082', '-0.030997906', '-0.034619484', '-0.016524564', '0.012091905', '-0.071375445', '-0.026448926', '-0.002309122', '0.053853974', '-0.00056263804', '-0.015050046', '-0.017198594', '-0.0536771', '0.0066743395', '-0.0039687683', '0.0369801', '0.032897055', '-0.05928294', '-0.011872752', '0.01776464', '0.016287966', '0.03234231', '-0.010398418', '0.0008041852', '0.019687593', '0.007723033', '0.038062174', '0.02690863', '-0.0044612554', '0.025146598', '-0.021668797', '0.023015782', '-0.02719409', '-0.010756126', '0.02000995', '-0.009113095', '-0.0645225', '-0.029559238', '0.024181701', '0.022839688', '-0.010682861', '3.514631e-05', '0.0409731', '0.011902524', '-0.023373328', '-0.0066002617', '0.024716878', '0.04705619', '0.047254425', '0.008250517', '0.025272632', '0.008975466', '0.0005906198', '0.05136502', '0.0012663783', '-0.020193571', '-0.034977455', '0.026534453', '-0.028042993', '-0.020398367', '-0.011280297', '-0.009157901', '-0.030537786', '0.10936326', '0.006719575', '-0.026205752', '0.021758834', '0.006365524', '-0.023867777', '-0.015735468', '-0.036623012', '0.019596642', '0.0017373548', '-0.007445787', '0.020334901', '-0.024669766', '-0.037147153', '0.030805275', '0.013261834', '-0.045780964', '0.06292806', '-0.06296841', '-0.0043657995', '4.2657608e-05', '-0.0032999343', '-0.012645343', '0.0034784586', '-0.012713508', '0.0013434443', '-0.0033922247', '0.08974549', '-0.014524375', '-0.025655147', '-0.011277351', '-0.046066195', '-0.005346659', '-0.012047326', '-0.0310415', '-0.010766979', '0.005384978', '0.0016834238', '0.065246336', '-0.010574504', '-0.029261708', '0.022332372', '0.040100314', '0.023407193', '0.007901162', '-0.031804048', '-0.021574605', '0.009903896', '-0.0058766054', '0.013983151', '0.0345425', '0.026453884', '0.03682507', '-0.013138497', '0.042386685', '0.0046673696', '-0.035404127', '-0.003079484', '-0.0067675062', '-0.02017665', '-0.013177588', '-0.029124506', '-0.01918388', '0.0050000763', '-0.057386644', '-0.007421082', '0.026583688', '0.018592948', '0.00030395045', '-0.013779296', '-0.02501263', '-0.025679925', '-0.025054712', '0.014564507', '-0.010879863', '0.042428546', '-0.013986788', '-7.2210523e-06', '0.0071559562', '0.037231628', '0.023037119', '-0.0583518', '0.0025317573', '-0.024433007', '-0.06832588', '-0.03978499', '0.0011824582', '0.022384614', '-0.0008421245', '-0.044038255', '0.020008555', '0.041763723', '-0.036618967', '0.012545125', '0.024162285', '0.032126684', '-0.04605219', '0.017318428', '-0.04218383', '-0.0084932055', '0.036851946', '-0.039594162', '0.018392798', '-0.016867751', '-0.016496602', '0.017749406', '-0.001344301', '0.0058442727', '0.06882473', '-0.035253044', '-0.01054908', '-0.03623222', '0.0041892068', '-0.07909517', '0.019735904', '0.041593008', '0.0026845648', '0.0028994444', '-0.020168044', '-0.008975043', '-0.054860454', '-0.023182338', '0.008886453', '0.014270336', '-0.025660062', '-0.03225291', '0.0052606156', '-0.019840442', '-0.058158103', '0.008743146', '-0.031993613', '-0.033605386', '0.058442432', '0.024669182', '0.015094612', '-0.021815678', '-0.04685663', '0.012502789', '0.017085547', '-0.034428783', '0.06949624', '-0.08348536', '-0.024438288', '0.04960461', '-0.018251037', '0.020475835', '-0.009117885', '-0.012461755', '0.02986708', '-0.023925435', '-0.030320445', '-0.010422502', '-0.034686077', '0.013413812', '0.0041866563', '-0.010854354', '0.019806989', '0.0015979202', '-0.009065514', '-0.014860542', '-0.006211407', '0.00030672492', '0.00077014364', '0.02743127', '-0.015279118', '-0.04439515', '-0.024641028', '0.007726393', '-0.044897787', '-0.0358161', '-0.0142794745', '-0.02980422', '-0.031465244', '-0.026896648', '-0.024014229', '0.009867993', '0.019765893', '-0.018176688', '0.02738795', '-0.014974415', '0.012716833', '0.02279982', '0.09323657', '-0.002427394', '0.028580224', '0.026104886', '0.030949013', '0.027527409', '0.037663884', '0.006997935', '-0.0048123216', '0.012261856', '0.019169698', '-0.015991038', '0.100777276', '-0.00665921', '-0.0002988977', '0.0083338255', '-0.028308472', '-0.019665886', '0.004718728', '-0.047205735', '0.044100992', '-0.008422198', '-0.029429067', '-0.010309023', '0.031776097', '0.0070717814', '-0.011190405', '-0.0060616722', '-0.01590251', '0.014749172', '-0.016833115', '-0.030463109', '0.0031260687', '-0.041353207', '0.022751592', '0.042644378', '-0.043824024', '0.028936611', '0.021834405', '0.008972751', '-0.029495358', '-0.00998379', '0.03963203', '-0.013066607', '0.006874627', '-0.023692716', '-0.0042996556', '-0.031801872', '-0.0006396503', '-4.476354e-05', '0.04359619', '0.00086794165', '-0.024892794', '-0.05073956', '0.014311032', '-0.016369397', '0.00012548434', '0.005770432', '0.0007532748']
